85 200 #File: 02_01_The_Relational_model.txt.bin
</s> 0.099131 0.109451 -0.094860 -0.081184 0.033845 0.074820 0.023301 0.005234 -0.089245 0.054943 -0.107890 0.030946 -0.018608 -0.023706 -0.082118 -0.046614 0.063880 0.074926 0.073532 0.039562 0.038259 -0.094176 -0.101436 0.123078 0.094142 0.076529 -0.014957 0.099452 -0.012259 0.018196 -0.003696 -0.073883 0.032499 -0.033123 -0.094740 0.117742 0.108457 -0.027122 -0.005600 0.012611 -0.090091 -0.099240 0.112803 0.001561 -0.063956 -0.075342 -0.076192 0.042026 0.004988 0.032964 -0.104353 -0.094305 -0.003220 0.028324 0.063147 -0.078509 0.101035 0.022957 0.027730 -0.015067 0.073963 -0.056659 -0.051946 0.053454 -0.018653 0.025527 0.044690 -0.101258 -0.049112 0.072160 0.104807 0.097381 -0.075459 -0.052199 -0.022515 0.049569 -0.093825 0.074246 0.069042 -0.039600 -0.038425 -0.055434 0.104731 0.096882 -0.029219 0.104387 0.119379 0.044959 0.123407 -0.077050 -0.037934 -0.052192 -0.071998 0.069711 0.039113 0.010525 -0.054327 0.037741 0.075769 0.004796 0.056458 -0.122655 0.106863 0.011885 -0.045348 -0.051595 -0.018525 -0.072689 -0.108215 -0.070263 0.105925 -0.043833 -0.066359 0.057392 -0.042196 0.117803 -0.039740 -0.113646 0.067259 -0.001840 -0.086403 0.024167 0.035712 -0.011923 0.045182 -0.098016 0.021820 0.044989 -0.074522 0.003518 -0.001504 -0.059417 -0.070153 -0.116246 0.000567 0.003783 0.000242 -0.097426 -0.122886 -0.117553 -0.107127 -0.013548 0.034457 0.029329 -0.078815 0.123781 -0.049815 -0.031543 -0.034782 0.117206 -0.093213 0.028754 -0.033074 0.078947 0.001005 0.105740 -0.069821 -0.064519 -0.103824 -0.090813 -0.079238 -0.077141 0.060532 -0.046236 0.066374 0.091388 0.033580 0.073075 0.061311 0.057966 -0.087937 -0.085024 -0.090560 -0.003269 0.102298 -0.067776 -0.075792 -0.103926 0.081876 -0.103495 -0.014345 0.053960 -0.114375 -0.110917 0.035734 0.087291 0.105608 0.053137 0.078316 -0.077458 -0.090159 0.098439 -0.068475 0.043424 0.014217 0.044339 -0.029280 0.004924 -0.041758 -0.027900 
the -0.111172 -0.082871 0.080885 0.024652 -0.057195 -0.037601 0.063829 -0.084331 -0.048222 0.116649 0.098567 -0.087394 0.013375 -0.054098 0.007829 0.070775 0.117670 0.059167 0.102528 0.081073 -0.001564 0.107904 0.067046 0.108956 -0.037761 0.110429 0.102578 -0.031625 -0.101805 0.116714 0.026890 -0.050135 -0.014882 -0.000412 -0.101592 -0.034095 -0.008888 -0.116176 -0.079348 -0.023074 -0.019034 0.038272 0.021953 -0.022112 0.077809 0.027382 0.017155 0.088770 -0.024968 -0.040816 -0.010214 -0.067509 -0.066956 0.011632 0.095274 -0.029826 -0.000375 -0.081796 0.087928 -0.039892 0.076936 -0.066903 -0.023384 0.009113 0.079417 0.003651 0.102368 -0.021157 0.054679 0.001197 -0.094462 0.088429 0.030904 -0.066941 0.062329 -0.094906 -0.118444 0.074745 -0.079934 -0.059451 0.086460 0.075601 0.009098 0.108472 0.126944 0.103189 0.045287 -0.103030 0.062666 -0.106813 -0.030661 0.036267 0.024723 -0.031132 0.074648 -0.111864 -0.021060 -0.032609 -0.041317 0.067401 -0.114258 0.070265 0.025152 0.066324 0.092625 0.002294 0.021171 -0.097961 -0.031113 0.083764 -0.042517 0.109946 -0.030371 -0.107721 -0.045953 0.126616 0.079348 -0.102901 0.116002 -0.097808 -0.109545 0.061657 -0.022069 -0.066902 -0.009700 -0.062650 0.046866 0.086918 0.098489 -0.095658 -0.056758 0.002849 -0.037118 0.080992 0.053452 0.102744 -0.070346 0.047685 0.102780 -0.052447 0.070955 0.036555 -0.114517 0.108692 0.119753 -0.064914 -0.004935 -0.037553 0.058362 -0.097657 0.083491 -0.028890 -0.032129 -0.050589 -0.101906 -0.074454 -0.027668 0.104712 -0.071079 -0.106906 0.012637 0.020111 0.065279 0.005750 0.082520 0.075422 -0.034100 -0.021513 0.025461 0.030647 0.086811 0.097149 -0.053015 -0.058553 -0.041324 -0.068173 0.036524 -0.090798 -0.053692 -0.119796 0.051603 0.110661 -0.063014 -0.099373 0.064019 0.038313 -0.072490 -0.023469 -0.033573 0.000944 -0.037543 0.008780 -0.067092 0.089150 0.107551 0.078701 -0.034192 0.005332 0.019203 -0.069571 
a -0.099014 -0.059626 -0.036505 0.064875 0.052770 0.023680 -0.058977 0.071566 0.007654 0.092439 0.003844 0.129165 0.016282 0.020059 -0.019987 0.090598 -0.037296 0.137262 0.094116 0.116580 -0.011019 0.060789 0.114773 -0.078234 0.109599 -0.122594 -0.016537 0.026345 0.090415 -0.067811 0.002977 -0.027865 0.017574 0.170369 -0.044577 -0.106409 -0.007969 0.099135 0.073356 0.090827 -0.062103 -0.031306 0.006149 -0.070351 0.107456 -0.099132 0.052168 -0.051408 0.076657 0.030747 -0.006622 0.051570 0.031538 0.118204 -0.092385 -0.014091 0.056172 0.133604 0.010572 -0.049020 0.039007 -0.049640 0.036870 0.087266 -0.093621 0.003623 0.052810 -0.026661 0.106944 0.109191 0.014163 -0.110856 0.086257 0.078314 -0.122355 0.092747 -0.155388 -0.031151 0.088708 0.082688 0.008690 0.032662 -0.078264 -0.081344 0.109604 0.104005 0.077887 0.056871 0.076894 0.076170 0.013714 0.052362 -0.023510 0.040609 0.034496 0.017217 0.103135 0.021915 -0.069915 -0.043983 0.059801 0.080165 -0.104169 -0.001756 0.078610 0.061688 -0.080212 0.081163 -0.071364 0.019423 0.016354 0.080897 -0.078182 -0.096079 0.079673 0.038568 0.106719 -0.005916 -0.057230 0.025373 0.049937 -0.045290 0.044234 -0.107976 0.086548 0.000393 -0.119314 -0.033008 0.006003 0.064018 0.007441 0.041908 -0.069164 -0.024433 -0.043668 -0.035126 0.067276 0.084984 0.026575 -0.119074 -0.004727 -0.021384 0.036083 0.097923 0.099714 0.058969 0.042397 -0.004439 -0.082301 -0.047722 -0.113405 0.007435 -0.006102 -0.006350 0.068946 -0.088782 0.059345 -0.070297 -0.108208 0.103496 -0.023844 -0.004845 -0.093285 0.086510 -0.053427 -0.085279 0.076550 0.017336 0.104541 0.019578 0.075638 0.014761 0.111458 0.074737 0.004473 -0.028246 0.054919 0.075686 -0.065648 -0.013548 0.007489 0.063061 -0.019731 0.086077 -0.012873 0.070593 -0.102158 -0.076925 0.038891 0.090123 0.034201 0.051439 -0.086132 -0.061915 0.139537 0.027127 -0.057295 -0.020953 -0.060344 -0.102469 
of 0.070787 -0.098725 0.035215 -0.007275 -0.041764 -0.019206 -0.094098 -0.039273 0.044058 0.124140 -0.061105 0.111702 -0.101651 0.089227 0.047183 0.005788 0.053936 0.154915 -0.062513 0.101637 0.022625 -0.012294 0.091310 -0.019178 0.115071 -0.023869 -0.070392 0.091799 -0.049971 0.007769 0.102182 0.087168 -0.070573 0.109228 0.054438 -0.011631 0.076434 0.079648 0.142833 0.030173 -0.008518 0.042379 -0.106030 0.004627 0.068227 0.084815 -0.084341 -0.012505 0.103669 0.008626 0.082805 0.023699 0.048125 0.055366 -0.008905 0.072533 0.107142 0.083592 -0.085208 -0.080550 -0.033476 -0.058158 -0.039002 -0.043454 -0.048978 0.082279 0.025244 -0.116664 -0.039141 0.093724 0.004755 0.054262 -0.020733 0.045133 -0.082709 0.051891 -0.150003 0.081300 -0.036396 0.064702 -0.035232 -0.036071 0.063343 0.051337 0.110746 0.061341 0.066264 -0.011448 0.131312 0.135187 0.083611 0.115463 -0.018010 -0.038028 -0.045050 0.008296 0.077966 0.083896 -0.037574 0.024712 0.111909 0.088016 -0.030513 0.012825 -0.019229 0.085919 -0.085638 -0.066073 0.015765 0.044180 0.081590 0.011781 -0.005971 -0.013581 0.087355 -0.033897 0.095692 -0.039916 0.043149 -0.004013 0.125080 0.037069 0.065203 0.019312 -0.024175 0.040644 -0.005981 -0.086137 0.122332 0.078637 -0.129055 0.132418 -0.050718 -0.004854 -0.066462 0.004306 -0.001377 -0.031766 -0.016579 0.025957 -0.032781 0.099162 -0.080193 -0.028720 0.119304 0.119349 0.096918 0.109639 -0.137893 -0.079686 -0.145315 0.035801 -0.096751 -0.056169 0.066935 -0.075886 0.020548 -0.126579 0.005077 0.001178 0.018765 -0.025540 0.015186 -0.030704 -0.058200 -0.056200 -0.029276 -0.076018 0.075228 -0.023343 -0.008417 0.053877 -0.023762 -0.059643 -0.123749 -0.036384 0.003891 -0.084209 0.024835 -0.096895 -0.046064 0.055002 0.059048 -0.058234 -0.068308 0.100220 0.017480 0.025378 0.084926 -0.044029 -0.050079 0.073428 0.043289 0.092458 0.109264 -0.105083 -0.097189 0.010109 -0.063346 0.001311 
in 0.103180 -0.048684 0.092231 -0.120948 0.101770 -0.057993 -0.017852 -0.117785 0.073993 0.099213 -0.099194 -0.022221 0.023650 0.107482 0.004031 -0.119300 0.015351 -0.044587 0.021980 0.096459 -0.068723 -0.064347 -0.011142 -0.024849 -0.042341 -0.084820 -0.000319 -0.099361 0.098296 0.065022 -0.032966 0.074353 -0.068678 -0.112701 0.107553 0.028820 0.068634 -0.082103 -0.031036 0.087091 -0.033255 0.023795 -0.110477 -0.096689 0.115933 -0.110459 0.025053 -0.077849 0.094332 -0.009787 0.105712 -0.080626 0.027361 -0.111260 -0.077534 -0.025205 0.101250 -0.061422 0.056809 -0.014204 0.076561 0.067516 -0.065152 -0.089429 0.017904 0.020914 0.016457 0.011361 0.050699 0.091419 0.092603 -0.118498 0.117938 -0.097231 0.015061 -0.095145 -0.019820 0.112470 -0.060342 0.039613 -0.054723 -0.020595 0.083027 0.061541 -0.104591 0.039457 -0.007104 0.050451 0.016806 -0.083632 0.007520 -0.096273 0.070029 0.024403 0.039483 0.066039 0.119689 0.108922 0.062183 0.069914 0.047968 -0.023906 0.109824 -0.004836 0.041094 -0.020625 0.034183 -0.017589 0.102869 0.046554 -0.008915 -0.010151 0.054663 -0.077010 -0.046075 0.036481 0.021898 -0.098671 -0.043091 -0.041120 -0.052436 0.091790 0.095052 -0.102331 0.078699 -0.064317 0.037702 0.054281 -0.006562 -0.091916 0.001492 -0.038759 0.060439 0.058401 0.020629 -0.058401 -0.020547 0.010374 -0.053112 -0.107259 -0.002479 -0.064970 -0.063905 0.016097 -0.063987 0.064206 -0.038355 0.087432 -0.079649 -0.039168 0.057744 -0.056679 -0.106476 -0.021634 0.076168 -0.032376 0.102572 0.044594 -0.070497 0.118535 -0.117611 -0.095123 0.077623 -0.071421 0.088112 0.095100 0.068255 -0.035954 -0.066986 -0.004235 -0.003585 -0.120918 -0.092625 0.021137 0.017927 0.118357 0.075804 -0.083424 0.106187 -0.028842 0.077244 -0.025272 0.052162 0.003775 0.097925 0.062573 -0.049133 0.113591 -0.101592 0.107898 -0.041873 0.015562 0.029781 0.099302 0.047337 -0.028070 -0.112251 0.086193 0.009464 0.062506 
and -0.092847 -0.090255 -0.037542 -0.043184 0.067750 0.034208 -0.023835 0.052938 0.035668 0.008531 -0.114632 -0.021550 -0.008316 -0.039046 -0.026201 -0.091006 0.070452 0.159418 -0.038265 0.112301 -0.046171 -0.102597 -0.074802 -0.031958 -0.025464 -0.025242 -0.108388 0.107858 -0.036181 0.034310 0.102387 -0.004674 -0.095853 0.136006 0.011718 0.046153 0.032963 0.073927 0.144903 0.103904 -0.074982 -0.023739 0.048561 -0.045066 0.003142 0.100766 -0.038113 0.079914 0.079432 0.063375 0.127493 -0.090684 0.051777 0.111401 -0.066928 0.042336 -0.081655 0.117180 -0.117386 0.010394 0.043464 -0.091841 0.058478 0.036170 -0.112464 -0.052669 -0.026694 0.022725 -0.023403 0.012686 0.107393 -0.086910 0.089243 -0.015995 -0.107284 0.088221 -0.135935 0.015027 -0.097232 -0.064580 0.084304 0.056947 -0.080593 0.034511 0.149594 0.047608 -0.083832 -0.074230 0.104248 -0.028531 0.057333 0.093284 0.121017 0.052350 -0.050815 0.077444 -0.042609 -0.022557 0.097328 0.064829 -0.020620 -0.060331 -0.021736 0.053112 0.044108 0.079882 0.090999 0.033449 -0.112120 0.104816 -0.066275 0.066704 0.080874 -0.082231 0.117185 0.014704 0.008127 -0.122204 -0.014789 0.125837 0.062767 -0.060806 0.060404 -0.115165 -0.039101 0.067327 -0.087583 -0.045084 -0.032460 0.000575 0.040159 0.022682 -0.106544 0.002369 0.044394 0.036778 0.024016 -0.032320 -0.041404 0.021999 0.094767 0.096808 -0.114869 -0.004845 -0.057707 0.053730 -0.052545 0.056253 0.017099 -0.029957 -0.086291 -0.063821 0.000592 -0.137184 0.042468 0.066538 0.071800 0.047230 0.032414 0.024240 0.012212 -0.077797 -0.001049 -0.063282 -0.079603 0.051355 -0.013318 -0.087245 0.044716 0.010945 -0.037176 -0.081364 -0.070102 0.061245 -0.052894 -0.006534 -0.018750 0.089961 -0.114878 -0.084791 -0.035087 0.034123 0.053379 0.029799 -0.016398 0.071326 0.029820 -0.146200 -0.003307 0.046281 0.074581 0.078072 0.020578 0.095525 0.071379 -0.066000 -0.060871 0.075012 0.052463 -0.007137 
to 0.001996 -0.018632 0.073783 0.066178 -0.075444 -0.007032 -0.047839 -0.090001 0.046886 0.122487 -0.039032 0.129797 0.065439 0.007614 0.110211 -0.032746 0.029994 0.046144 0.012439 0.012937 -0.100187 -0.017296 0.051528 -0.072733 0.106679 -0.079253 -0.060465 0.098437 -0.010874 0.046039 0.031882 0.025279 0.037107 0.100331 0.074294 0.041262 -0.031240 -0.054970 0.119002 0.097079 0.074838 0.049809 -0.022472 -0.122225 0.077139 -0.042638 -0.014381 -0.036331 0.066312 -0.011742 0.126552 -0.094993 0.071649 0.089292 0.052051 -0.040178 -0.016524 0.040804 -0.018423 -0.034166 0.046929 -0.076231 0.091278 0.113079 0.039489 -0.024062 -0.003200 -0.097300 -0.003148 0.008458 0.066229 0.044086 -0.039267 0.033120 0.065751 0.015807 -0.109331 0.096284 0.044738 0.078276 0.101241 0.044885 0.060343 -0.085003 0.067501 -0.051482 0.041372 -0.009911 0.110364 0.058683 0.007917 0.056794 0.096031 0.093365 0.091271 -0.011835 0.156829 0.063357 0.067332 0.037667 0.072025 0.050194 -0.048739 -0.076822 0.051313 0.080730 -0.080206 -0.050956 -0.083067 0.007051 -0.025509 0.049600 -0.078534 -0.023975 0.028226 0.003122 -0.008205 -0.114799 -0.087130 0.131658 -0.015229 -0.009190 0.057198 -0.165930 -0.073182 -0.082260 -0.050020 -0.100552 -0.009447 -0.031412 -0.047730 0.101754 -0.147639 0.011349 0.024318 0.043549 -0.042365 -0.048783 0.041250 -0.083353 0.083642 0.013630 0.021085 0.017607 0.029132 0.003780 0.012828 0.122212 -0.134155 -0.098491 -0.149927 0.080262 0.041360 -0.125776 0.096018 0.002801 0.007576 -0.099299 -0.035998 0.014017 0.053419 -0.060384 0.076033 -0.100183 -0.034839 -0.008016 -0.028510 0.063315 0.111209 -0.050175 0.096654 0.022194 0.126538 -0.019481 -0.011376 0.040877 0.091400 0.078332 -0.097514 0.073396 -0.105576 0.084293 -0.014199 0.103909 -0.044957 0.041785 -0.066584 -0.002787 0.116509 -0.067265 -0.086896 0.117586 0.084473 -0.023775 0.122054 -0.013042 0.059777 -0.077997 0.039338 -0.108185 
is 0.002972 -0.078992 0.070163 -0.069853 0.086239 -0.059012 -0.107906 -0.000184 -0.070579 -0.064316 -0.060637 -0.082490 -0.122322 -0.044346 0.024141 -0.011021 -0.094473 0.117129 -0.024099 -0.111729 -0.000337 0.088565 -0.033896 0.042812 -0.017317 0.113835 -0.046451 0.001977 -0.020897 0.002787 -0.007790 0.074389 -0.066379 0.112516 -0.088971 -0.077760 0.098133 0.099929 -0.106372 -0.008093 0.044498 -0.026478 -0.118312 0.044811 -0.100216 0.035157 -0.069317 -0.063399 0.092268 -0.105198 -0.110400 0.038053 -0.103027 -0.023135 -0.096511 0.072519 0.105778 0.021597 -0.039115 0.048927 0.122305 0.057437 0.090095 0.063348 -0.123320 -0.010503 -0.108143 -0.007937 0.119655 -0.035383 0.021573 0.044992 -0.067424 -0.020417 -0.047209 0.017226 -0.086611 0.074994 -0.022011 -0.040615 0.042763 -0.117961 -0.065070 0.025152 0.054197 0.064471 -0.009080 -0.070657 0.007896 0.114146 0.107740 -0.063260 0.034613 0.080561 0.086501 0.119333 0.093100 0.070637 0.014954 -0.109814 -0.084868 0.028919 0.049818 -0.049373 0.079101 -0.075400 -0.070207 0.061759 -0.037142 0.070137 -0.081084 0.062602 0.011508 0.058934 -0.110311 0.091521 -0.029045 0.096579 -0.035339 0.110663 -0.083467 -0.084665 -0.098449 -0.113385 -0.037452 0.042397 -0.031888 0.007248 0.064308 0.116618 0.019546 0.120494 -0.038440 0.038386 -0.024480 -0.082493 -0.001118 0.077553 0.034186 -0.068295 0.022220 0.016424 -0.004039 -0.010998 -0.001418 -0.036902 -0.036392 -0.016086 -0.090038 0.094944 0.074973 0.118720 0.081440 -0.085426 0.082622 -0.072401 -0.095985 -0.038206 -0.009857 -0.015890 0.056618 0.104757 -0.073754 -0.071403 0.038409 0.020476 0.031028 -0.031567 -0.064697 -0.065671 0.036056 -0.114236 0.102305 -0.090577 -0.031678 -0.008214 -0.001560 0.052476 -0.065212 -0.045126 0.110087 0.048498 0.078899 -0.032886 0.021471 -0.122031 -0.104968 0.038074 0.108154 0.089001 -0.082047 0.033449 0.058855 0.053476 -0.020940 0.057150 -0.119216 -0.061071 -0.014305 0.092334 
that -0.116619 -0.021845 -0.065597 -0.072374 -0.053007 0.002347 0.066570 0.080604 0.022370 0.111503 0.034619 0.021451 0.064244 -0.044519 -0.006210 -0.105145 -0.015951 0.070005 0.105593 0.002191 0.076005 -0.072172 -0.010560 -0.101296 0.087976 -0.060710 -0.098256 0.038561 -0.011449 0.068787 0.083512 0.049399 0.082786 0.042154 -0.043442 0.008842 0.054212 0.071445 0.101299 0.013932 0.035394 0.089964 0.038878 -0.123283 0.085834 0.043070 0.011243 -0.118302 -0.029722 -0.099612 -0.015282 0.001928 0.081646 -0.034307 -0.084477 0.098946 0.117583 0.067914 -0.034625 0.041154 0.102646 -0.112107 0.056667 0.105168 0.054589 -0.017279 -0.120219 -0.056325 -0.066453 0.073027 -0.023526 -0.018098 0.080519 0.069323 -0.069141 0.088218 0.033320 0.108573 -0.046753 -0.038602 -0.040293 -0.021914 -0.047876 0.098296 0.107459 -0.051967 0.008753 -0.102647 -0.046028 0.115039 -0.044717 -0.048829 -0.001227 -0.055879 -0.056111 -0.035833 0.087585 -0.094834 -0.052770 -0.035718 0.062787 0.035327 -0.006813 0.043470 -0.089249 -0.033136 -0.024045 0.115071 0.068679 0.131648 0.013996 0.110997 -0.053928 -0.032053 0.104760 0.046717 0.107158 0.085992 -0.016500 0.006669 0.010578 0.104916 0.041347 -0.139264 -0.107259 -0.076856 -0.063764 -0.115510 0.080063 0.029163 -0.117730 0.075658 -0.060611 -0.063600 -0.054680 -0.057169 -0.023036 0.073895 -0.088036 -0.032048 0.106389 0.086195 -0.037435 0.085516 -0.010448 -0.024872 0.112435 0.047863 -0.124054 -0.000386 0.073173 -0.056968 0.062081 0.054588 0.055018 -0.099027 0.048461 0.081390 0.077262 -0.065195 0.109938 0.078760 -0.012751 -0.020274 -0.119746 0.047609 0.004598 -0.067049 0.081346 -0.106388 -0.023659 -0.073061 -0.054944 -0.004364 0.057552 -0.111170 0.015990 -0.100913 0.015292 0.109936 -0.061380 0.101299 0.094301 -0.044993 -0.080424 0.004189 -0.079666 -0.014283 -0.014686 0.009193 -0.093502 0.026586 -0.101358 0.114127 0.003870 -0.032681 0.055604 -0.107528 -0.039517 -0.036581 
so -0.077592 -0.109348 -0.060997 -0.057128 -0.017859 0.106893 0.054595 0.028199 0.063661 0.030690 0.065856 0.050316 0.001541 -0.100671 0.025645 0.039146 0.044121 0.140560 -0.037720 -0.046323 -0.076147 0.095770 0.089742 -0.072268 -0.033616 0.077095 0.077842 0.062918 0.017456 -0.090691 0.056454 0.111612 0.047553 0.146585 0.023697 0.020460 0.065026 -0.042121 -0.028059 0.010703 0.112738 0.094973 0.018197 0.014991 0.106188 -0.103215 0.046505 -0.042732 -0.060901 -0.072604 -0.099481 -0.054171 -0.096607 -0.083714 -0.091033 -0.053545 0.032769 0.040332 0.089350 -0.055382 -0.009024 0.100929 0.040352 0.089802 -0.064759 0.045261 0.004352 -0.056582 -0.091831 -0.024786 -0.027990 0.029043 -0.051751 -0.093905 0.092056 0.095916 -0.084044 0.099130 -0.011917 -0.031061 0.083147 -0.034672 -0.065122 0.034191 0.135315 -0.084467 0.120590 0.015426 0.131513 -0.062682 0.026241 -0.046031 -0.022488 0.062034 -0.077826 0.114115 0.112608 -0.071159 -0.096464 -0.054707 0.026818 -0.038517 -0.125801 -0.096144 0.035193 0.118655 0.085302 -0.003776 0.043022 0.020807 0.050265 0.053620 -0.011192 -0.078924 -0.086581 -0.035697 0.115534 0.082301 -0.017171 -0.054059 -0.015797 0.004846 0.060439 -0.030043 -0.044189 -0.067280 -0.077451 -0.036734 0.030223 0.013474 -0.103532 0.051680 -0.126300 -0.122022 -0.062371 0.084099 -0.093334 0.066251 -0.044227 -0.042020 -0.066972 0.109282 0.011437 -0.049417 -0.057844 0.118520 -0.009568 -0.040433 0.091695 0.010661 -0.039117 -0.072260 0.080968 0.024916 0.021686 -0.120445 -0.026558 0.002144 0.074216 -0.057885 -0.026950 0.024326 0.067175 -0.061778 0.022030 0.014937 -0.116424 -0.115872 0.043893 -0.041960 -0.031972 0.019461 0.089893 -0.081794 -0.128733 -0.080836 0.123036 0.000694 -0.047679 0.015040 -0.109251 -0.104971 0.104533 -0.011461 -0.036546 0.049417 0.068182 0.078455 0.007955 0.054644 -0.114491 -0.032910 -0.097418 0.025989 -0.099577 -0.081991 -0.062848 0.098150 -0.030466 -0.033524 
for -0.072887 0.051843 0.104715 -0.104150 -0.009194 -0.065723 0.121244 -0.007247 0.075744 0.078666 0.071585 -0.074430 -0.070783 -0.053366 -0.093774 -0.118008 -0.115863 0.001750 0.049916 -0.098490 0.044084 0.042404 0.074935 0.046790 0.116537 -0.045694 0.061113 -0.008455 0.108613 -0.097143 -0.056607 -0.077738 0.082984 0.112250 -0.098298 0.103966 -0.077350 -0.096022 0.008547 -0.109829 0.050100 0.116216 0.088005 -0.105937 -0.010241 -0.037301 0.066147 0.094420 0.042492 -0.101937 -0.085164 0.015132 0.100748 -0.010074 -0.094257 -0.011545 0.098282 0.096276 -0.094579 -0.111379 0.050575 -0.112032 0.046618 -0.066605 0.006960 0.113590 0.070788 -0.104752 0.104061 0.067295 0.026232 0.091421 0.036672 0.112995 -0.010565 -0.043725 0.047166 -0.065292 -0.116235 -0.091674 -0.023632 -0.000325 -0.087283 -0.025083 -0.061776 -0.107524 -0.117339 -0.010461 0.102122 -0.051993 0.113486 0.098513 0.004469 0.087689 0.053551 0.016192 -0.038226 0.068790 -0.091500 0.003806 0.065058 -0.056612 -0.048082 -0.099272 0.044861 0.054550 0.037205 0.088363 -0.102518 0.103024 0.074606 0.032387 -0.070462 0.055306 0.060051 0.001845 0.017777 -0.015617 -0.011990 0.074533 0.114616 -0.010898 -0.016711 -0.097659 -0.030117 -0.012516 -0.049166 -0.062293 -0.089627 -0.008459 0.104267 -0.047177 0.030616 0.012937 0.004319 0.017921 0.069008 -0.031032 -0.029014 0.044057 -0.002186 -0.010347 -0.080763 -0.009655 -0.102195 0.077203 0.082099 0.103700 -0.115862 0.037836 -0.004012 -0.013544 -0.095977 -0.012189 -0.009749 0.028608 -0.035093 0.085539 -0.015074 -0.063198 -0.112189 0.098589 -0.040047 -0.030473 0.025542 0.053064 -0.051925 -0.029337 0.105806 0.059934 0.043056 0.083264 0.110015 0.061576 -0.092904 0.018808 0.114072 0.037495 0.010989 0.041817 -0.002141 0.047613 -0.112460 -0.013701 -0.055929 -0.059828 -0.114326 -0.015349 -0.036968 -0.094161 -0.078118 0.010071 0.112848 -0.077101 -0.033071 0.065646 0.036438 0.032015 0.035588 0.008073 
we -0.085726 0.077854 0.018693 -0.029413 0.002838 0.082430 0.018458 -0.103157 0.136034 -0.010946 0.043990 0.077016 -0.110732 0.013766 -0.054658 0.044521 0.009573 0.142736 -0.077397 0.039267 -0.026998 -0.075339 0.006337 -0.102752 0.121148 -0.078801 0.057612 0.016931 0.059819 -0.024869 0.027697 0.102438 -0.010746 -0.058709 0.094173 -0.100862 -0.078549 0.094476 0.072798 0.102412 -0.113719 0.072103 0.012497 -0.107983 0.072894 -0.070135 0.073274 -0.059797 0.087825 -0.051234 0.107551 -0.109917 0.026898 0.130600 -0.057285 -0.093589 -0.082328 -0.067943 0.073601 -0.019470 0.100037 0.074117 -0.096975 0.068237 0.052558 0.089315 0.088304 -0.079251 0.062574 0.031591 -0.042468 0.078145 -0.087280 -0.048971 0.089060 0.072810 -0.081589 0.052286 -0.079100 -0.055692 -0.049712 0.027964 -0.081734 0.059554 0.093447 0.062989 0.045694 -0.051280 -0.035452 0.110622 0.032917 0.100301 -0.078109 -0.022203 -0.081346 0.060763 -0.042742 0.008571 0.005383 0.013080 0.020298 -0.061779 -0.028085 -0.058681 -0.050189 -0.056685 0.089862 0.067753 -0.106824 0.129790 0.091774 0.004374 0.025522 0.007990 0.139960 0.085448 0.139669 -0.110692 0.036630 0.090336 -0.004950 -0.037317 0.066878 -0.041323 -0.039537 -0.002531 0.022487 -0.110694 0.056835 0.129675 -0.015678 -0.003414 -0.085970 0.008975 -0.063593 0.089853 0.002563 -0.069957 -0.023972 -0.112508 0.080287 -0.098601 -0.053762 0.107754 -0.048923 0.023404 -0.012925 -0.049187 -0.079010 -0.027694 -0.110998 0.053584 0.021779 0.006631 0.053368 -0.032224 0.036708 -0.030565 0.056389 0.097556 -0.050208 -0.058359 -0.063169 -0.025520 -0.098377 0.057206 0.009979 0.113974 0.090683 0.094130 -0.001229 0.049389 0.083708 0.091351 -0.072983 0.049977 0.065368 -0.060119 -0.050740 0.085655 0.035814 0.024665 -0.075712 0.087120 0.088057 0.081885 0.086467 0.019560 -0.085153 -0.046365 0.005630 0.095581 0.052144 -0.010833 0.028472 0.040022 -0.116896 0.060408 -0.015501 -0.072176 
have -0.085991 -0.027733 -0.094752 0.026462 0.041955 0.020353 0.063821 0.108442 -0.023950 0.063465 0.063333 0.111978 -0.097896 -0.007810 0.107000 -0.040194 -0.030214 0.097961 0.083324 -0.032256 0.003801 0.097350 0.095774 -0.097961 -0.020054 -0.063255 -0.062030 -0.012250 0.118701 0.024780 0.084902 0.109170 0.019970 0.107033 -0.062762 0.076095 0.048563 -0.076298 0.104334 -0.005269 -0.115321 -0.119513 0.094779 -0.069484 0.051667 -0.071485 -0.095075 -0.090235 0.082015 0.002776 -0.026006 -0.071723 -0.092765 -0.029455 0.045580 0.068022 -0.082095 0.130571 0.021708 -0.040647 -0.101528 -0.080419 0.076306 0.110278 -0.109360 0.122940 -0.124222 -0.030459 0.049907 -0.000647 0.002050 -0.082948 0.060641 -0.063449 0.005643 0.095591 -0.096188 0.062080 0.094495 -0.056796 -0.033994 -0.084415 -0.034467 -0.017989 0.057598 0.032294 -0.085460 0.041676 0.114866 0.022666 0.027311 0.052106 -0.075577 0.055450 -0.028111 -0.078738 0.041407 0.115950 -0.032757 -0.064150 0.085507 0.039574 0.031003 -0.054092 0.009263 -0.098599 0.066784 0.079865 0.076365 -0.081129 -0.075410 0.055425 0.096096 -0.010384 0.131303 0.113545 -0.041849 0.014658 -0.088037 0.115814 0.068634 0.088000 -0.107105 -0.077761 -0.052791 0.103794 -0.015751 0.039363 -0.056270 0.080352 -0.090619 0.003157 0.101519 0.019239 -0.009517 0.032254 -0.016016 0.088726 0.000028 -0.105970 0.001877 -0.048464 -0.103237 -0.023861 0.021269 0.063690 -0.084755 0.072189 0.098745 -0.000663 0.017166 0.004593 0.025093 -0.132078 -0.074236 -0.085504 -0.000795 -0.126806 -0.098326 0.043202 0.106930 -0.033970 0.030307 0.103251 -0.071042 -0.029364 0.063349 -0.024800 -0.019502 -0.019922 0.081283 0.035181 -0.039255 -0.065686 0.007767 -0.021077 -0.052407 0.060723 0.076876 0.097897 0.061825 -0.065760 0.054002 -0.025485 0.016102 -0.112635 0.044290 -0.041206 0.076112 0.096053 -0.024472 0.094696 0.023956 0.089190 0.055188 0.042642 0.006364 0.110948 0.042610 -0.027900 
database -0.037471 0.050274 0.061137 0.010445 -0.092949 -0.116544 0.017406 0.073338 0.131166 0.035132 -0.095502 -0.009777 0.013060 0.043797 -0.007273 0.018005 0.034110 0.106007 0.091244 0.113946 -0.085205 0.026453 -0.055148 -0.050651 -0.012852 -0.115791 -0.078493 0.096484 0.097204 -0.025074 -0.083735 0.064431 -0.018265 0.146109 -0.074135 0.039786 0.119320 0.039805 -0.048259 0.014634 0.077709 -0.066353 0.102039 -0.092191 0.020082 0.111848 0.026683 -0.108591 0.059752 -0.035905 0.048499 0.063603 0.024509 -0.080540 0.009698 -0.075454 -0.049136 -0.081259 -0.054374 -0.066570 -0.029369 0.003417 -0.088945 0.004022 0.001909 0.121185 -0.077427 -0.081012 0.097404 -0.102135 -0.032026 -0.013606 0.049226 0.058696 -0.041770 -0.049210 -0.042722 -0.076713 -0.014451 0.094574 0.101916 0.073938 0.092864 0.107865 -0.076806 -0.008898 0.003590 -0.043948 -0.052771 0.124264 -0.099864 -0.099844 0.090211 0.034372 0.044429 -0.013809 0.078841 0.077749 0.073852 -0.118530 0.110044 -0.045875 -0.119960 0.048540 0.038473 0.103474 -0.038731 0.037222 -0.021168 -0.083390 0.064910 0.130276 -0.097318 -0.129931 0.089533 -0.000812 0.030587 -0.006043 0.115939 0.072899 -0.066673 0.025458 -0.054507 -0.127562 -0.032693 -0.015499 0.057556 0.021231 0.123539 -0.000386 0.078651 -0.053982 0.087384 -0.053787 -0.034975 -0.044685 0.038810 -0.104527 0.082900 -0.046735 0.006845 0.076093 0.033743 -0.007938 -0.011248 -0.092101 -0.057828 -0.053065 -0.098398 -0.000349 -0.128422 0.012072 -0.077059 -0.108243 -0.079165 -0.027135 0.113169 -0.113961 -0.012759 -0.040902 -0.031002 0.084332 0.028387 0.022579 -0.097232 -0.079480 -0.072675 -0.052926 0.072847 0.094159 0.108910 -0.025085 0.065014 -0.038982 -0.087633 -0.082447 0.065674 0.096360 -0.081458 -0.042518 0.071424 -0.042087 0.030860 0.026936 -0.060188 -0.012468 -0.019248 -0.109373 0.042080 0.019487 0.053005 -0.059017 0.029596 -0.076838 0.114167 -0.041533 -0.050281 0.079412 0.023569 -0.018155 
or 0.092951 0.030214 0.029320 0.047726 0.096289 0.052243 -0.068334 -0.062092 -0.093812 0.012798 0.060205 0.057130 0.012535 0.082771 0.084548 0.120577 -0.006201 0.007725 -0.021888 -0.095811 -0.024699 0.080072 0.018120 -0.026194 -0.099924 -0.076148 0.056467 -0.016151 0.014968 -0.046999 0.005808 -0.107456 -0.101555 -0.086918 0.082605 -0.038076 -0.081129 0.096508 0.077991 0.028693 0.019285 -0.115726 0.086906 -0.009683 -0.039563 -0.066639 0.022007 0.048067 0.049932 -0.010670 0.099753 -0.022114 -0.072999 0.101552 0.111279 0.102568 0.020768 -0.105935 -0.091520 0.076534 0.091987 0.023850 -0.109900 0.101055 -0.037827 -0.006575 0.029557 -0.047926 -0.000312 0.095203 0.117984 -0.047614 -0.095473 -0.046776 0.007276 -0.000545 -0.076471 -0.018576 0.096178 0.051508 0.121255 -0.074635 0.115062 -0.115511 -0.106109 0.077461 0.098106 0.064236 -0.086395 0.061751 -0.102794 0.002125 -0.058847 0.049127 -0.088894 -0.100573 0.041091 0.028196 0.113222 0.018176 0.095696 0.048326 0.051645 -0.047970 0.048004 -0.023397 0.064358 0.084544 -0.098188 -0.016084 0.064017 -0.112143 -0.035276 0.058873 0.024039 0.110089 0.119015 0.007799 -0.021398 0.101856 0.064677 -0.059178 0.022644 0.003668 0.048553 0.028834 0.068824 0.016796 -0.107845 0.017397 0.090556 -0.082816 -0.036151 -0.044121 -0.121025 0.027625 -0.036374 -0.045589 0.015109 0.002540 -0.104715 -0.059163 -0.074475 0.043201 0.066428 -0.096234 0.069728 -0.074449 0.116286 -0.107433 -0.004191 -0.027618 -0.012105 0.017367 0.041751 0.081162 -0.071902 -0.037030 0.120209 -0.032928 0.001454 -0.038973 -0.038443 -0.107856 0.090237 0.060906 0.086061 -0.063873 -0.105561 -0.113352 0.102571 -0.003512 -0.096052 0.095232 -0.076255 0.031452 -0.059723 -0.053867 0.009086 0.060008 -0.114298 -0.025192 -0.093315 -0.081140 -0.073697 0.048341 -0.045474 -0.008437 0.065879 0.094580 0.065263 -0.006701 -0.117102 0.102130 -0.030729 -0.056945 -0.011230 0.120361 -0.056229 -0.079419 
be 0.056580 -0.027501 0.080334 0.069663 -0.062680 -0.042846 0.052754 0.083013 0.101564 -0.015653 0.044583 0.064311 -0.091863 0.017268 -0.012745 -0.051311 -0.100671 0.106657 0.008059 0.020320 -0.017574 -0.045107 -0.051605 0.054697 0.049538 -0.069910 0.068771 0.087004 -0.066876 -0.075857 -0.031579 -0.014517 0.048973 0.161601 -0.055589 -0.043142 -0.007432 0.044148 0.125093 0.033426 -0.009722 -0.100924 0.041591 0.033135 0.015769 -0.003327 -0.099457 0.023629 0.098640 -0.048210 -0.019385 0.031990 -0.063329 0.015372 -0.120275 0.036632 -0.032557 0.043524 -0.114674 -0.000822 0.092241 0.053002 0.069784 0.129944 0.002889 -0.077466 -0.051918 -0.070918 0.021968 0.058270 0.011484 -0.052852 -0.088820 0.076734 -0.106826 -0.027949 -0.057059 -0.027592 -0.015728 -0.010590 0.085392 0.096800 0.010177 -0.056466 0.136553 0.005350 0.001549 0.032469 0.140996 0.065966 0.078922 0.082289 0.036373 0.051707 0.102534 0.074912 0.069517 -0.087953 0.114308 -0.025491 0.109910 0.030770 0.031816 0.003096 0.065038 -0.087298 -0.074941 -0.058896 0.048760 0.127481 -0.054325 0.018590 0.056604 -0.083025 0.065510 -0.057759 0.054930 -0.106539 0.005622 -0.077192 0.070812 -0.033232 -0.091059 -0.123752 -0.025008 -0.092018 -0.023621 -0.136561 0.048730 0.105693 -0.124202 -0.052835 -0.121138 -0.079410 0.021228 -0.115575 0.020477 -0.017616 0.048554 -0.082119 -0.059293 -0.021611 0.018405 0.075235 0.120710 0.034027 0.122904 -0.017051 -0.029431 0.040014 -0.129494 0.048747 -0.008445 -0.143286 0.137239 -0.129452 -0.040834 -0.060711 0.023637 0.034060 0.075445 -0.012793 0.051896 0.079650 0.013992 0.064103 0.098093 0.078547 0.027640 -0.025574 0.089746 0.036219 0.068895 -0.002951 0.020051 -0.046346 0.137368 0.009585 0.091546 0.062596 -0.011919 -0.031795 -0.091392 0.055969 -0.050302 -0.000300 -0.073909 -0.132972 -0.040677 0.011086 0.007008 0.007731 0.062397 0.087343 -0.014096 -0.105735 -0.087078 -0.097006 0.090765 -0.137906 
relational -0.037681 -0.076057 0.010796 -0.030109 -0.094479 0.002736 -0.053023 -0.031510 -0.079104 -0.034916 0.008803 0.040913 -0.003750 -0.017436 0.119310 0.124160 -0.038681 0.075811 -0.038273 0.004318 -0.057728 -0.008679 0.113096 -0.013461 -0.117807 -0.122079 -0.125404 0.014561 0.037324 -0.070522 -0.029838 -0.003279 -0.034548 0.125583 0.070315 -0.023127 0.051143 -0.034527 -0.010115 0.047534 -0.021200 0.120202 0.050752 0.064512 0.025436 -0.007780 -0.077285 0.017736 -0.033683 0.078808 0.102460 -0.078455 -0.031856 -0.072135 0.085259 0.109491 -0.040817 -0.101063 -0.015064 -0.053088 -0.063676 -0.095213 -0.013018 -0.056987 -0.029889 -0.025808 0.023129 0.071142 -0.050350 -0.127066 -0.094669 -0.072404 0.060397 -0.014089 -0.034105 -0.072074 0.036655 -0.038845 -0.114111 0.005275 -0.008773 0.054540 0.121621 -0.078125 0.013891 0.075840 -0.048700 0.039274 0.051686 0.123296 -0.010129 -0.014802 0.108140 0.120429 -0.111777 -0.045004 0.009666 0.054152 0.126312 -0.012992 0.129930 -0.005672 -0.035690 -0.092017 -0.104044 0.041598 0.041062 0.125509 0.097166 0.139168 -0.018788 0.068462 0.015938 -0.030459 0.043003 0.016692 0.064060 -0.106452 -0.038365 0.063888 -0.110791 0.025210 -0.131047 0.075684 0.030821 0.000942 -0.077854 0.050621 0.053285 0.088955 0.098919 -0.003675 0.048166 0.060424 -0.074680 -0.039703 0.009289 0.061932 -0.001693 -0.126090 -0.096200 -0.003660 -0.028060 -0.052944 0.081818 0.120326 0.096270 -0.075987 0.118455 -0.055074 0.112984 -0.104813 0.006925 -0.121983 -0.096068 0.009495 -0.025543 0.094547 0.114036 -0.014363 0.112236 0.062853 -0.027647 0.067654 0.003000 0.087301 0.026565 0.104732 -0.116679 0.028226 0.102228 -0.018767 -0.005989 0.071116 0.109245 -0.097266 -0.115377 -0.058938 0.031082 -0.091784 -0.051525 -0.042874 -0.105605 0.075382 -0.120966 -0.039189 0.070010 0.016869 -0.061443 -0.106017 -0.062952 -0.008966 -0.081268 0.001484 0.004063 -0.034533 -0.032053 0.057092 0.011988 0.053594 
our 0.021789 -0.050168 0.081211 -0.094507 0.079590 0.088808 -0.117121 -0.045409 -0.032890 -0.023021 0.114871 -0.017862 0.051911 -0.093878 0.083742 0.067708 0.034637 -0.013873 -0.115774 0.108991 -0.080922 -0.097519 -0.085800 0.064303 0.012167 -0.113668 -0.095376 -0.047407 -0.046079 -0.013059 -0.110400 0.095950 -0.069984 0.071682 -0.036139 -0.092967 -0.055759 0.068559 0.040254 0.071704 0.061014 -0.033797 0.092253 -0.118634 -0.079649 0.056392 -0.088553 -0.099377 -0.049557 -0.036017 0.077599 0.027165 -0.087435 0.102011 0.018525 -0.023206 0.113650 -0.025922 -0.049786 0.010972 -0.048802 0.114475 -0.093230 -0.033242 0.095917 -0.094455 -0.017074 -0.015642 0.066564 0.002838 0.091528 0.022088 -0.072441 -0.090044 -0.036465 0.098896 0.046463 -0.081326 0.118083 0.051840 -0.118593 -0.103632 -0.077644 0.021126 -0.078791 0.013555 0.016748 -0.034929 -0.012226 0.016352 -0.110297 -0.097378 -0.036368 -0.045979 0.060355 -0.086647 0.034459 -0.063549 -0.104110 -0.105046 -0.038470 -0.108354 0.036701 0.048258 0.051777 0.050752 -0.028768 -0.092819 -0.054782 -0.021999 -0.023898 0.036328 0.070043 0.025796 -0.096472 0.090873 -0.054989 -0.120373 -0.091128 0.029134 0.119570 0.013155 -0.034392 0.112573 -0.008778 -0.009388 0.107840 -0.064266 -0.011842 -0.078114 -0.054730 -0.118664 0.114168 -0.022503 0.118290 -0.092301 -0.051363 -0.096439 0.115344 0.033767 0.101645 -0.008145 -0.029463 0.096601 0.031321 0.109753 0.021115 -0.006110 -0.016031 -0.057258 -0.062590 -0.073532 0.024009 -0.035514 -0.064588 -0.086721 0.033971 -0.018269 0.049224 0.033900 -0.042985 0.104365 -0.111451 -0.056495 0.039447 0.017877 0.093778 0.085441 0.103170 -0.046586 -0.089160 -0.006376 0.030714 -0.039762 0.101386 -0.009854 0.007756 -0.094277 0.032601 -0.027306 0.038085 -0.039614 0.102363 -0.100413 -0.056396 0.112861 0.041631 0.032287 0.091876 -0.072622 -0.115492 -0.034663 -0.058971 -0.001143 -0.031758 0.081459 -0.020116 0.012785 -0.036835 0.096453 
relation 0.027884 -0.047937 0.085772 0.029471 -0.024715 -0.116293 -0.115536 -0.038657 0.008191 -0.090987 -0.063521 0.032852 0.101804 -0.063941 -0.073562 -0.050159 0.117912 -0.013401 0.039353 -0.009674 -0.075681 0.069170 0.099513 -0.032136 -0.051099 0.081835 -0.063178 0.055718 -0.060841 -0.033380 -0.024235 -0.057940 -0.025817 -0.069104 -0.085153 -0.101626 -0.059849 0.008398 0.053334 0.010703 0.008209 0.084375 -0.022841 -0.084056 -0.039644 0.100135 0.108237 0.069619 0.070539 0.027158 -0.057021 0.011855 0.014749 -0.068675 -0.038555 0.054896 -0.036595 -0.099347 0.041523 0.095317 -0.086145 0.101089 0.108437 0.105070 -0.068228 0.070974 0.109833 0.078000 -0.090189 0.077579 0.098791 -0.113405 0.027495 -0.000057 -0.087426 -0.114165 0.039142 -0.010815 -0.037788 0.031709 0.039300 0.043973 -0.034654 0.113782 0.121430 -0.019968 -0.032025 -0.029521 -0.007359 -0.095544 0.057536 -0.015134 -0.100345 -0.028279 -0.090352 0.098178 -0.086966 -0.057424 -0.024965 0.096449 -0.091394 0.107173 0.042589 0.077408 0.062450 0.087256 -0.011675 -0.076465 -0.079080 0.068780 -0.056033 0.069373 0.016660 0.001560 -0.098897 0.053175 -0.002512 -0.021700 0.104134 -0.031136 0.033762 0.088275 -0.045980 -0.071642 -0.105511 0.022525 0.071374 -0.076410 -0.100400 0.008415 -0.044533 -0.029695 -0.102024 0.083977 -0.105876 0.100299 0.112300 -0.095171 -0.048050 0.032258 0.046505 0.095843 0.057861 -0.067248 0.017480 -0.065109 -0.041302 0.068664 -0.124884 -0.055961 -0.112908 0.033628 0.082849 -0.006004 -0.003600 -0.037960 -0.089113 0.025708 -0.097138 0.078389 -0.094902 0.023826 0.087849 -0.110204 -0.077756 0.026807 0.110621 -0.026736 -0.049546 -0.089677 0.055036 -0.015157 -0.038031 0.076833 0.068214 0.108162 0.027047 0.045036 -0.093208 -0.085382 0.026456 0.101550 0.058224 -0.066480 -0.082924 0.107378 -0.087314 0.064976 -0.054532 -0.001852 0.099736 0.059632 -0.088687 0.003922 0.117676 -0.106877 -0.040593 -0.076377 -0.010087 -0.096283 
let's 0.024740 0.114725 0.052484 0.006218 0.113987 0.023313 -0.016204 -0.106908 0.047790 0.121043 -0.003018 0.077325 -0.048546 -0.028749 -0.116798 -0.090385 0.011035 -0.072934 -0.019601 0.016482 -0.012682 -0.083658 -0.041775 0.113145 -0.055147 -0.072312 0.033113 -0.024425 0.008944 0.010468 -0.003775 -0.073476 -0.120380 0.031782 -0.057513 0.106485 0.046707 -0.080514 0.027581 -0.012337 0.088727 -0.094797 -0.018088 0.075070 -0.112029 0.038293 0.082668 -0.037582 0.116523 -0.057153 -0.061250 0.033213 0.049140 0.032746 -0.051149 0.002674 -0.006615 0.053586 0.086391 -0.110216 0.074562 0.054728 -0.100482 0.017298 -0.007298 -0.096726 -0.030814 0.039680 -0.005384 0.013108 -0.034952 -0.084837 -0.098161 -0.113190 0.103537 -0.094256 0.082690 0.059771 -0.067198 0.091163 -0.005814 -0.086936 0.033796 -0.117128 -0.116864 0.103586 0.076172 -0.031856 0.057105 -0.109096 0.033351 -0.120064 -0.087644 0.053422 -0.060494 -0.058999 0.120973 -0.027785 -0.110434 0.048817 -0.042287 0.061165 0.039209 -0.081396 -0.026847 0.065867 0.118844 0.055373 0.049585 0.035683 -0.080369 0.052837 -0.112963 0.080729 0.022523 0.051487 -0.024666 -0.114154 0.097174 0.009556 -0.107001 -0.074329 0.117005 -0.053971 0.008351 0.006552 0.116189 -0.059355 0.021418 -0.004409 -0.053359 -0.109118 -0.064002 0.063657 0.007053 -0.002013 0.059656 -0.043655 0.027833 0.037930 0.031667 -0.033970 0.043155 0.090452 0.038090 -0.040185 -0.095068 0.053029 0.082720 0.108569 0.011858 -0.116104 -0.012904 -0.085127 0.094341 0.088064 0.119534 -0.085883 -0.056459 0.016230 -0.062949 -0.026598 -0.102603 0.051902 -0.070528 0.020584 0.111591 -0.089702 -0.081667 0.044271 0.073517 0.096429 0.028938 0.093826 0.060360 -0.039005 -0.038683 0.036350 -0.075964 -0.112500 -0.037719 0.042714 0.063238 0.077191 0.096381 0.101524 -0.034641 0.063026 0.002892 0.019130 -0.092413 -0.075256 0.110887 -0.094352 -0.015151 0.045851 -0.061866 -0.068055 0.109811 -0.101450 
it's 0.029965 0.071097 0.016754 -0.008942 0.043870 -0.068834 -0.032570 -0.087569 -0.082551 0.077141 0.068255 0.050792 0.093851 -0.064298 0.015480 0.099014 -0.018415 0.027591 -0.027335 0.119514 -0.098748 0.076325 0.015500 -0.099708 0.061071 0.024821 -0.044988 0.122194 -0.033204 0.044989 0.012443 -0.035806 -0.072560 0.103988 0.085351 -0.050122 0.071253 -0.019365 0.037627 -0.053061 0.094029 0.053342 -0.116399 0.019113 0.024735 0.020277 0.083243 -0.042820 0.118184 0.086499 0.126136 -0.006597 0.065625 0.097814 -0.001804 -0.026418 0.021455 0.122974 0.066085 0.008126 0.009092 0.089802 0.032437 0.113120 0.063888 0.038878 0.049674 -0.008379 0.110203 -0.035457 -0.036142 0.025512 0.064350 0.005845 0.062159 0.093708 -0.082037 0.064363 0.063471 -0.095734 0.038257 -0.087309 -0.090028 -0.039107 0.007180 0.066298 -0.107479 0.099544 0.008225 -0.071648 0.098626 0.009380 0.064103 -0.109173 -0.041798 0.078713 0.006194 -0.056149 -0.072436 0.106312 -0.063214 -0.086072 0.028959 -0.043766 0.046519 -0.109891 -0.085142 -0.009495 0.111396 0.068152 -0.069979 -0.076040 -0.042115 -0.100972 0.097546 0.001912 -0.054678 -0.031737 -0.082557 0.083614 -0.002482 -0.089724 -0.001478 0.031394 -0.118917 0.091058 0.005141 -0.127759 -0.062061 0.051188 -0.091743 0.082152 -0.013937 0.045862 0.009951 -0.041484 0.046227 -0.018216 -0.117959 -0.048617 0.068028 0.009334 -0.064647 -0.003567 -0.086052 0.110022 -0.078418 0.111861 -0.122559 0.098125 0.056752 0.120838 -0.013222 0.078413 0.052011 -0.068292 -0.032070 0.008659 -0.041499 0.016752 0.125568 0.095948 0.055216 0.090270 0.076590 -0.094293 0.118041 0.047102 0.071252 0.022688 -0.008215 0.004565 0.054281 -0.094407 0.071243 -0.090753 0.103887 0.024095 0.108170 0.045383 0.100142 -0.056871 -0.112742 -0.001733 0.003502 0.003539 -0.027070 -0.110324 0.068655 -0.093686 0.048507 -0.023867 0.078397 0.120967 0.099995 -0.048093 -0.054673 -0.037480 0.123664 -0.047778 
college 0.089725 0.025296 -0.003013 -0.112599 0.028130 0.005640 0.114974 -0.085821 0.070933 -0.106896 -0.025746 0.068318 0.091878 -0.034337 0.081166 -0.045855 0.050516 0.097742 0.047919 -0.055511 -0.059628 -0.019728 0.036616 -0.002203 0.061734 0.077453 0.010631 -0.101147 0.065552 -0.035689 0.017297 -0.038964 -0.104350 -0.016777 -0.103872 0.081058 0.032691 0.060964 0.048241 -0.015569 0.058865 -0.048014 -0.032845 -0.073901 0.101491 -0.052030 -0.072726 -0.015624 0.102575 -0.087210 0.017021 0.054907 0.067427 0.011433 -0.085566 0.106142 0.057342 0.003034 0.071996 -0.086844 -0.041281 -0.076823 0.047884 0.025462 -0.045112 -0.106046 -0.071577 0.111219 0.046296 0.070220 0.113527 -0.111657 0.061010 -0.026458 0.092654 0.094584 -0.118793 -0.110520 -0.092396 0.085475 -0.070006 -0.081364 0.114292 0.007429 -0.024975 0.000641 -0.071268 0.049301 0.067887 0.115655 0.030000 -0.003216 0.105046 0.079303 -0.026022 -0.070765 0.029978 -0.002017 0.097768 -0.021977 0.076871 0.038108 0.072808 0.108018 0.076256 -0.052168 0.116768 0.100076 -0.083166 0.020872 0.018090 0.028613 0.012256 -0.118100 0.115009 0.032120 -0.110760 -0.057074 0.075482 0.068367 0.093070 -0.050887 0.114543 -0.078053 0.028502 -0.047147 0.035273 -0.094420 0.115231 0.059344 -0.077016 -0.075999 -0.115331 -0.044759 -0.066506 -0.074300 0.110249 0.117604 0.032271 -0.058074 -0.033245 0.109111 0.024441 0.040507 0.105690 0.039667 0.004770 -0.109257 0.062516 0.079369 0.116869 -0.077847 -0.104757 -0.024563 0.102750 -0.080238 -0.034756 0.016770 -0.008721 -0.041159 -0.014280 0.071660 -0.117527 -0.059488 -0.054385 0.070271 -0.077651 0.054889 -0.076918 0.000976 0.084249 0.094646 0.029769 -0.085297 -0.066332 -0.107755 -0.019558 -0.085003 0.031091 0.064352 0.012762 -0.066279 0.056102 0.089799 -0.049854 -0.041390 -0.016717 -0.010420 -0.080592 0.039331 0.085854 0.084755 0.098930 0.043807 -0.022106 0.028476 0.022829 -0.096612 0.047340 0.022695 
gpa -0.019451 0.039023 0.043880 0.085456 0.099837 -0.090075 -0.036694 0.059068 0.136163 0.014647 -0.064702 0.097896 -0.029291 -0.005185 -0.075715 0.083927 0.020030 -0.030108 -0.006946 -0.059761 -0.109312 0.015286 0.088663 0.019416 0.018984 -0.055872 -0.061654 -0.014930 0.113215 -0.058903 0.080933 0.053984 0.059689 0.165933 0.097533 -0.102710 -0.012088 0.120069 -0.037125 0.089754 0.008334 0.000173 -0.005738 -0.086877 0.000828 -0.010243 0.078703 -0.073864 0.108818 0.006548 -0.054660 -0.107459 0.119283 -0.023705 -0.053248 0.084623 -0.061723 0.096107 0.041372 -0.058081 0.006375 -0.107117 -0.009955 -0.027440 -0.084557 0.107796 0.067079 0.024790 0.067867 0.025004 -0.012331 -0.104017 -0.067534 0.028964 -0.060515 0.080877 -0.095063 -0.031799 -0.027675 0.087271 -0.012525 0.116449 -0.042549 -0.051199 0.143193 0.089883 -0.017907 -0.041742 0.098313 -0.024034 0.108299 0.058447 0.115002 0.095749 0.045339 -0.092369 0.060818 0.050117 -0.014233 0.002355 -0.003058 0.120425 -0.079161 0.027436 0.083397 -0.074471 0.035256 0.074555 -0.054611 0.125860 -0.043779 0.097496 0.069959 -0.108441 -0.054347 0.075543 0.137890 -0.106811 -0.099374 -0.072360 0.033167 -0.046502 0.008757 -0.099308 -0.009413 -0.028326 -0.040192 -0.112330 -0.055856 -0.022938 -0.069422 0.104143 0.046779 -0.066949 0.036673 -0.001535 0.037227 0.046079 0.019039 -0.102683 -0.028769 -0.018252 0.069519 -0.082589 0.013811 -0.063699 -0.003585 0.058649 -0.129832 -0.057776 -0.113610 -0.053021 -0.052028 -0.094731 0.102805 -0.087443 -0.084940 0.018778 0.034137 0.043614 0.073401 0.034873 0.094072 -0.037228 -0.003387 -0.049191 0.040596 0.079376 0.033247 -0.101513 -0.077553 0.044240 0.049779 0.018148 -0.133065 0.014779 0.132812 0.097419 -0.063552 0.066503 -0.054335 -0.035701 0.076964 0.026936 -0.088986 -0.096993 -0.013299 -0.051169 0.077197 0.087891 0.023802 -0.021459 -0.049797 0.107635 -0.045498 -0.091882 -0.058209 -0.071022 -0.054145 -0.060542 
are -0.021849 -0.083563 -0.082339 0.026063 0.074064 0.035750 0.042424 0.011448 0.048447 0.019254 0.038369 -0.029240 0.001279 -0.114513 -0.044495 -0.047488 -0.085414 0.037900 0.093284 -0.105886 0.012238 0.094236 -0.088790 -0.041973 -0.114862 0.091773 0.083546 -0.034336 -0.112267 0.089834 -0.045932 -0.050085 -0.028086 -0.065256 0.063190 0.073342 -0.097477 0.019158 0.120230 0.070699 -0.026355 0.116261 0.043045 -0.093899 0.089422 0.029728 -0.083661 -0.043476 -0.081760 0.107422 0.077988 0.100173 -0.022218 0.047418 -0.091963 0.054134 0.070785 0.064190 -0.098630 0.059817 0.096294 -0.048042 0.115071 0.002059 -0.023116 0.113373 0.101782 -0.041983 -0.016949 -0.059639 0.059582 -0.062291 -0.077270 -0.064870 -0.066133 -0.055200 -0.092262 -0.113170 0.029250 0.045857 -0.068430 -0.084206 -0.069469 -0.095316 -0.045083 -0.050228 0.057798 -0.031407 0.035927 -0.021866 0.125348 0.022342 0.072589 0.042670 -0.075398 0.118224 0.014932 0.012522 0.043211 -0.077310 0.092453 0.069255 -0.103412 -0.106257 -0.116676 -0.058576 -0.029908 0.047281 0.024828 -0.055378 0.029126 -0.030404 -0.044086 -0.096033 -0.052119 0.034034 -0.066526 0.035996 0.092433 -0.028769 0.004890 0.082038 -0.026615 0.019255 0.052768 0.063118 0.110081 0.056699 0.046407 0.118779 0.102274 -0.022931 -0.056033 -0.106240 -0.113224 -0.074443 0.112349 -0.094037 -0.108184 -0.022177 -0.100322 -0.054625 -0.079234 -0.047218 0.012290 0.117123 0.085648 -0.007739 -0.085758 0.101742 0.006304 0.041973 -0.019801 -0.112448 -0.023236 -0.121702 0.060591 0.042718 -0.049801 0.105184 0.100849 -0.084912 0.080257 0.081135 0.080735 -0.070399 0.007679 0.039368 0.116354 0.069253 -0.046898 -0.003340 0.045338 -0.101583 -0.048342 0.012964 0.072155 0.023733 0.110290 0.016560 -0.059758 0.119537 0.086316 -0.056111 -0.019553 -0.073423 0.093489 0.048148 0.084169 -0.011398 -0.069598 -0.031090 -0.088039 -0.066259 -0.052487 0.022369 -0.017089 -0.080298 0.024931 -0.024936 
name 0.113096 -0.067998 -0.082937 0.087610 -0.051441 0.052770 -0.119045 -0.073514 -0.090159 -0.097983 0.030572 -0.101953 -0.029954 0.079983 0.054389 -0.073455 0.007709 -0.068314 0.117627 0.074903 0.108500 -0.118099 0.061634 -0.110804 0.006502 -0.123060 -0.075478 0.068331 -0.089204 0.107362 -0.059444 0.001099 -0.097624 0.047919 0.001219 -0.003313 0.113950 -0.058011 -0.025348 -0.083236 -0.015675 -0.050096 0.098123 0.054819 0.040202 -0.001353 -0.104248 -0.026812 0.046151 0.060365 0.050276 -0.100350 -0.066777 -0.020181 0.054055 -0.080018 0.100063 0.061426 0.049357 -0.097974 0.088606 -0.013459 -0.022830 0.112508 -0.064195 0.053660 -0.022329 -0.007071 0.046888 0.002196 -0.092999 -0.049717 0.089271 -0.021692 0.052676 0.091419 0.059918 0.120654 -0.105140 0.116375 0.096783 -0.039789 0.083371 0.061815 0.014339 0.022878 -0.037384 0.005070 -0.015116 -0.066051 0.101031 0.103810 0.042340 0.099020 -0.085224 0.032503 0.015363 0.030060 0.108615 0.069466 0.007774 0.024195 -0.012158 0.071033 -0.031778 -0.068119 -0.083803 -0.061039 -0.085897 -0.039242 0.011787 0.090464 -0.090564 0.017746 0.052914 0.059534 0.081366 -0.006387 0.000519 -0.059178 0.108427 -0.012395 0.011848 0.074822 -0.011671 -0.101365 -0.026367 0.011667 0.077662 -0.023420 -0.139109 0.001687 -0.054123 -0.009791 -0.012166 0.029273 0.103535 0.104191 -0.099311 0.093621 0.004336 -0.027319 0.028543 0.120402 0.005277 0.074671 0.128965 0.128396 -0.097356 -0.036813 -0.083434 -0.064242 -0.013884 -0.005383 0.084588 -0.072860 -0.026701 -0.113721 -0.060581 0.119320 -0.073198 0.093946 0.031123 -0.037399 -0.064221 -0.077580 0.114898 0.077427 0.026612 -0.023226 0.027277 0.104136 0.128221 -0.058772 -0.055885 -0.016523 0.092714 0.056948 0.092458 0.013368 0.027198 0.121209 0.000007 0.004187 -0.103922 -0.001369 0.012265 0.080819 -0.028169 0.102176 0.051092 0.033859 0.008932 -0.043726 0.092753 0.013822 -0.062149 0.057509 -0.109465 -0.067435 
table -0.067992 0.057650 0.051403 -0.065778 -0.003693 -0.125604 0.006544 -0.058037 -0.053868 -0.001039 -0.032134 -0.009500 -0.087972 -0.023585 -0.029028 -0.090271 0.087833 -0.078519 0.114760 0.099195 -0.028850 0.012173 0.055066 0.009028 -0.117595 -0.016554 0.017377 -0.087814 -0.047857 -0.113272 0.037295 -0.108258 0.121026 0.089916 -0.039459 0.094065 -0.113346 0.011493 -0.050693 -0.030716 0.075811 -0.107230 -0.024099 0.043534 0.059508 0.038350 0.075927 -0.106465 0.031585 0.056599 0.095104 -0.081169 -0.004002 0.125534 -0.057554 0.075908 0.019996 -0.019892 0.096618 -0.121810 -0.019053 -0.075073 0.086867 -0.084893 0.072690 0.074710 0.012092 0.079848 0.046003 0.101119 0.034483 0.075722 -0.031864 -0.007715 0.126349 -0.077492 -0.030365 0.052814 0.070117 -0.043542 -0.008839 -0.108930 -0.035317 0.070762 0.036669 -0.061753 -0.027761 -0.031272 -0.079767 -0.070700 0.065095 -0.076688 0.025574 -0.084345 0.025675 0.017589 0.040177 0.012034 -0.047123 -0.108428 -0.032003 -0.109904 0.008893 0.008101 -0.123714 0.044330 -0.087146 -0.119399 -0.104414 0.019807 -0.046459 0.098500 -0.033440 -0.068753 -0.023326 0.048634 0.093164 -0.043333 -0.108733 -0.059335 0.089471 0.084198 -0.077194 0.047552 0.086025 0.112090 0.106894 -0.053988 0.023488 -0.098113 0.036074 0.035591 -0.094184 -0.115219 0.125716 0.019598 0.053436 0.048904 0.094949 -0.082189 0.090538 -0.060671 -0.020622 0.066481 -0.042217 -0.076047 -0.122100 0.105623 -0.087694 -0.072384 -0.047293 -0.008279 0.021356 -0.061552 -0.077070 -0.002268 -0.090877 0.007877 0.077349 -0.046447 0.022623 -0.002554 0.008507 0.005551 0.112635 0.085172 -0.121404 0.110213 -0.006768 0.006007 -0.086898 0.034139 0.048135 0.064558 -0.105550 0.113581 -0.035170 0.122366 -0.078461 -0.011447 0.000448 0.104271 -0.096618 0.121895 -0.030936 -0.001595 0.065465 0.027031 0.001221 0.109371 -0.062962 0.040212 0.037581 0.045535 0.123351 0.054629 0.082100 -0.015086 0.027065 0.026768 
student -0.047686 -0.078650 -0.117782 -0.021996 0.020097 -0.103358 -0.044812 -0.012473 -0.011468 0.018768 0.100307 -0.046055 0.097346 -0.018387 -0.003292 0.072729 -0.062842 0.010153 0.090654 -0.109761 0.101755 -0.083707 -0.056741 -0.043995 0.063735 0.043029 -0.117235 -0.065590 0.062828 0.084247 0.060386 0.020922 -0.074310 0.028882 -0.021776 -0.002057 0.010070 -0.075120 -0.094487 -0.057076 0.024607 0.115236 -0.065543 -0.007675 -0.027013 0.057796 -0.019773 0.105576 -0.082090 -0.022464 0.017007 0.065079 -0.018916 -0.077598 0.077991 -0.051717 0.107186 -0.000652 0.019341 -0.108350 0.063865 -0.097739 -0.007729 0.090651 -0.086181 0.092156 -0.029037 0.091645 0.014796 -0.091141 -0.011389 -0.027917 0.075434 -0.068594 -0.098621 0.104467 0.099421 0.089722 0.096518 -0.023854 -0.086585 -0.099338 0.076132 0.077642 0.111206 -0.115747 0.109455 0.014324 -0.070651 -0.088591 0.052649 -0.077346 0.079655 -0.087942 0.056928 -0.001898 -0.083300 0.111173 0.096475 0.023069 0.034274 0.084622 -0.031558 0.075005 -0.095027 -0.060642 0.001073 0.054331 0.004567 0.077389 0.109542 -0.079522 -0.076327 0.015570 0.031990 -0.072073 0.020040 0.037886 0.037652 -0.081913 0.002305 0.015253 -0.017310 0.027420 0.110197 0.113637 0.018318 -0.020684 -0.065666 0.085933 -0.117321 0.028255 0.068504 -0.019914 0.081045 0.015649 -0.014695 -0.096947 -0.002500 0.077959 -0.075535 0.020800 0.019298 -0.061427 -0.051317 0.086221 -0.115420 0.088014 -0.056374 -0.088778 0.098621 -0.104388 0.090013 0.074839 0.045504 -0.030092 -0.080548 0.034918 0.112481 0.034292 -0.033280 0.016434 0.037695 0.107204 0.117487 0.067334 0.090381 0.030056 0.080390 0.058531 -0.109340 -0.060692 0.095157 -0.080047 0.061827 0.030431 -0.011554 0.112614 0.105983 0.085825 0.118006 -0.023659 0.056323 -0.053100 -0.043566 0.090168 0.005050 -0.013841 -0.020501 -0.088058 0.103376 -0.073010 0.013859 -0.097321 0.089444 0.023876 -0.054818 0.110323 -0.003551 -0.117815 
has -0.053038 -0.088388 -0.076855 0.115915 0.046644 0.003407 -0.003754 -0.037282 0.069829 0.115698 -0.026558 -0.065026 0.063488 0.001521 -0.078686 0.074389 0.075277 0.106445 0.100514 0.087489 0.052229 -0.017591 0.004900 -0.124619 0.091365 -0.034631 0.024968 0.029240 0.029631 0.117296 0.052658 0.045535 0.085031 0.041773 0.074698 -0.126811 0.021089 0.073422 0.107300 -0.016156 0.122753 0.033139 -0.004802 0.054593 0.064814 -0.024903 -0.111046 0.029863 -0.019797 -0.027408 0.103295 0.000178 -0.083179 0.018656 0.000516 -0.063395 -0.075767 0.033040 -0.141203 0.071302 0.133742 0.046801 -0.020993 0.064607 -0.027037 0.030251 -0.126797 -0.050320 -0.009524 0.068467 0.049007 0.036472 -0.043566 -0.056126 -0.103894 0.065765 -0.008469 -0.081787 0.016799 0.077890 0.133545 0.115816 -0.033536 0.005641 0.042769 -0.004503 -0.076146 0.042415 0.030323 0.026124 0.108742 -0.003051 0.003673 -0.010703 0.048199 0.127158 -0.076005 0.005462 0.090701 -0.129997 -0.005381 0.027253 -0.105104 -0.055955 0.058632 0.010800 -0.037176 0.122329 0.008598 0.056586 0.028282 -0.040103 0.042116 -0.076066 0.021908 0.094970 -0.095913 -0.105115 -0.023305 0.014627 0.133133 -0.055911 -0.033788 -0.078338 0.104777 0.078275 -0.009914 0.004385 0.087017 -0.047134 -0.090562 0.139834 -0.038061 -0.076197 -0.093216 -0.071222 -0.063529 0.063431 -0.106568 -0.008934 0.027387 0.125838 -0.070652 -0.106602 0.002680 -0.013432 -0.086240 0.002816 0.008462 0.047885 -0.100232 0.030570 -0.008014 0.065196 -0.005484 -0.010419 0.010830 -0.125535 0.090102 0.028287 0.038665 0.067113 -0.098867 -0.060403 0.002620 0.040748 0.042502 0.005852 0.084038 0.051530 -0.023867 -0.028362 0.076943 -0.096250 -0.019255 -0.097654 -0.051115 -0.040366 -0.054227 -0.022173 -0.065131 -0.096787 -0.006969 -0.109036 -0.127010 -0.052160 -0.135067 -0.132372 -0.070297 -0.087678 0.092867 0.093879 -0.020688 -0.080279 0.051525 0.081972 0.047914 0.108037 0.073405 -0.117663 
model -0.037047 -0.012446 -0.053542 0.018845 0.106634 -0.112229 -0.071149 0.014461 -0.082966 -0.086445 -0.120334 0.061567 0.101285 -0.061938 -0.006917 0.064945 0.055172 0.029418 -0.082627 0.111972 0.101659 0.122404 0.000113 -0.044769 -0.038831 -0.071931 0.028957 0.086098 0.112134 0.130859 -0.000207 0.127251 -0.111876 -0.059444 0.045044 -0.124167 -0.075024 0.101567 0.038355 -0.038755 -0.115613 0.036210 -0.028501 -0.073490 0.068179 -0.070950 0.089668 0.070975 -0.013680 -0.012730 0.112866 -0.123269 0.060196 0.057891 0.008475 -0.060338 -0.052058 -0.049512 -0.073854 -0.135780 -0.057091 0.076540 0.054481 -0.059759 0.064744 0.018528 0.040498 0.074011 -0.006706 -0.009010 -0.013440 -0.059027 -0.113983 -0.101441 -0.063723 -0.084325 -0.026608 -0.114835 0.101142 -0.082679 -0.074556 -0.037298 -0.088212 -0.003403 0.032953 -0.068565 -0.066051 -0.021607 -0.030624 -0.100513 -0.006340 0.026999 0.032095 0.030902 0.008745 0.052626 0.040559 0.074834 -0.054528 0.106850 0.090908 0.097026 0.083423 0.028348 -0.104166 -0.069654 0.060159 -0.035568 -0.030962 0.048224 -0.007617 0.101243 0.118679 0.093616 -0.098143 -0.049856 -0.009353 -0.026688 -0.011893 0.114313 -0.014487 0.029322 -0.085239 -0.051246 0.117843 -0.106266 0.079756 -0.009816 -0.005281 0.098794 -0.049968 -0.009114 -0.083891 -0.117312 0.102609 -0.062545 -0.072516 -0.064617 0.065284 0.071585 -0.042448 -0.111669 0.023385 0.084869 0.113721 -0.014256 -0.010276 -0.027928 -0.053684 0.016767 -0.088757 0.063198 0.004408 -0.138497 0.010062 0.006787 -0.008679 -0.035161 0.062955 0.054625 -0.022366 0.041804 -0.108853 -0.092470 0.048328 -0.104051 -0.005837 -0.062505 -0.010728 -0.116911 -0.039380 0.039024 -0.026399 -0.063710 -0.047587 -0.110673 0.097773 0.049281 -0.036863 0.054705 -0.031198 0.019186 0.012084 0.095365 0.052016 -0.052881 -0.051119 -0.136565 0.126929 0.014622 -0.054308 -0.078443 -0.046618 -0.021539 -0.018868 -0.091118 -0.058802 0.110149 0.033297 -0.008684 
now 0.030542 0.028331 -0.002921 0.073900 -0.021303 -0.055900 0.031098 0.056126 0.093420 0.072413 0.096758 -0.004589 -0.012207 -0.057347 0.005697 -0.051048 -0.115293 -0.035244 0.069875 0.090184 0.025319 0.005794 -0.034566 0.088997 -0.028289 0.083655 -0.096725 0.016563 0.104111 0.024223 -0.048364 -0.092889 0.115091 -0.077574 -0.087084 -0.073544 0.011068 -0.079964 0.002058 0.042723 0.107276 0.031205 -0.121346 -0.015668 0.042466 0.079712 0.117739 -0.116066 -0.025064 -0.095950 0.064941 0.109106 -0.055237 -0.055369 0.110040 0.113982 0.004426 -0.072315 -0.005757 -0.077280 0.023934 -0.125312 0.018285 -0.105032 -0.049197 -0.036368 -0.018741 0.112846 0.056543 0.080025 0.091196 0.081175 -0.109072 -0.023752 0.029906 0.082626 0.061413 -0.067014 -0.117452 -0.097028 0.078881 0.068896 -0.057927 -0.042622 0.134240 0.086092 -0.090193 -0.042753 0.048208 -0.046908 -0.009514 -0.065069 -0.041223 -0.037078 -0.026277 -0.062188 0.081727 -0.021672 -0.055997 -0.122784 0.122143 -0.046115 0.074669 -0.020113 -0.061079 0.090821 0.099917 -0.003503 -0.105677 -0.017006 0.025211 0.003122 -0.063875 -0.072278 -0.008006 -0.101244 0.070441 -0.083674 0.099595 -0.102871 0.101399 -0.077416 0.111019 -0.014105 -0.094089 -0.023128 0.054734 0.059170 -0.051374 -0.042473 0.030816 -0.006891 -0.061530 0.013100 -0.031563 -0.065146 0.005513 -0.070446 0.044698 -0.023293 -0.021532 -0.025655 0.064824 -0.080333 0.079193 0.018069 -0.100289 -0.095220 0.015145 -0.025921 -0.083883 -0.103904 -0.081185 0.095392 -0.111922 -0.100033 0.118500 -0.059868 0.035762 0.038238 0.088988 0.120399 0.020076 -0.096966 0.042789 0.049613 -0.013635 -0.015905 0.093398 -0.037424 -0.119518 0.049992 0.089627 -0.078649 -0.000025 -0.092000 -0.021779 0.038639 -0.051423 -0.008959 0.001067 -0.009609 -0.116667 -0.023273 0.000904 -0.005247 0.024784 -0.120999 0.103244 -0.113323 -0.077159 0.081320 -0.018512 0.001827 -0.076958 -0.096510 -0.097373 0.022780 -0.102003 0.094013 
as -0.063467 -0.046443 0.098080 -0.055393 -0.052787 0.069590 0.072782 -0.006078 -0.108243 0.010717 -0.091472 -0.086083 -0.005317 -0.060173 -0.000690 -0.109260 0.102512 0.081012 0.077904 -0.047036 0.093677 0.010416 -0.049834 -0.059180 -0.087198 0.070202 -0.065143 -0.012916 0.030160 -0.038799 -0.046987 0.051977 0.042324 -0.094623 -0.028364 -0.075625 0.068726 -0.062153 0.037576 -0.093018 0.056458 -0.055466 -0.005823 -0.096928 0.007016 0.086948 -0.004594 0.113964 -0.015986 -0.115448 0.018476 0.081626 0.104615 0.088207 0.093635 -0.108197 0.084552 0.103651 0.083379 -0.098883 -0.070993 0.084359 -0.100380 0.078102 -0.073141 0.037833 -0.021335 -0.030325 -0.028163 -0.004095 -0.101698 -0.110339 0.002328 0.071544 -0.026932 -0.026743 0.025280 -0.041571 -0.108266 -0.057472 0.108112 0.114397 0.090515 0.051983 -0.098536 -0.109403 -0.091839 -0.088220 0.043939 0.088707 -0.101105 -0.110653 0.074485 -0.060943 -0.022039 -0.057877 0.065237 -0.104601 -0.111473 0.090967 -0.109899 0.007965 -0.104543 -0.051857 -0.032523 -0.084286 0.088789 0.114431 0.065297 0.020243 -0.080591 0.077900 0.018413 0.066669 0.067940 0.093153 -0.061356 0.112870 0.085110 0.006411 0.013062 0.029079 0.074371 -0.054778 0.000606 -0.024841 -0.047814 0.111442 -0.024095 -0.054049 -0.077790 0.053703 0.049812 -0.023809 0.020339 0.078114 -0.054810 -0.043127 0.099180 0.090594 -0.115286 0.037242 0.075061 0.051891 -0.058701 -0.018982 -0.066138 -0.024456 -0.004356 0.063505 -0.071728 -0.060389 -0.004417 -0.073673 -0.078227 0.079770 -0.053602 -0.031089 0.058878 -0.108174 -0.090909 -0.050989 0.088549 0.087887 -0.001155 -0.092620 0.041398 0.048807 -0.063116 -0.051850 0.009407 -0.087913 -0.047093 0.009282 -0.098794 0.096719 0.111688 0.077297 -0.064430 -0.069467 0.065444 -0.032160 -0.101199 -0.051146 -0.006480 0.014182 -0.107059 0.052092 -0.096653 -0.077401 0.066508 -0.023954 0.086643 -0.091168 -0.073905 -0.038268 -0.038782 0.020191 -0.034259 0.093281 
attributes -0.066576 -0.119040 0.047027 0.041994 0.031324 -0.067204 0.094984 -0.011958 0.074471 -0.095869 0.059058 -0.033751 -0.095457 0.063149 0.014350 0.026483 0.009800 0.084340 0.007828 0.114174 0.120624 0.070333 -0.019921 -0.112501 0.053047 0.051688 -0.123483 -0.086434 -0.062910 0.099403 0.028942 -0.023439 -0.039843 0.067240 -0.024895 -0.002563 -0.102614 0.068744 -0.045032 -0.048915 0.036620 -0.097111 0.095645 0.048223 0.032741 0.105892 0.007899 -0.053676 0.047153 0.052985 0.009438 -0.021778 0.109581 -0.063972 -0.007556 -0.105908 0.027441 -0.046567 -0.025941 -0.083450 -0.063820 -0.135082 -0.031573 -0.055379 -0.010738 -0.101394 0.051803 0.036337 0.007731 -0.096427 -0.079105 -0.042353 0.019688 0.127334 0.002567 0.005148 -0.129685 0.125817 -0.095495 -0.063021 0.088859 0.012647 -0.108704 -0.061904 0.124192 -0.008396 -0.058536 -0.044064 0.019840 0.009203 -0.024655 0.025170 -0.069438 0.112890 0.059301 -0.042489 0.074940 -0.057156 0.019072 -0.093963 -0.108506 -0.058371 0.035465 0.089190 0.012252 0.031620 0.083301 0.023377 0.023071 0.100733 -0.066927 0.021936 -0.097921 -0.094903 -0.038591 -0.017491 0.120521 -0.020852 0.002452 0.117504 0.017654 0.020020 0.099432 -0.072769 -0.051739 0.040704 0.019202 0.052236 0.124077 -0.029790 -0.133515 0.116111 0.016482 -0.100513 0.058611 0.015416 0.019874 -0.076385 0.038656 0.086057 -0.067238 0.013183 0.096440 -0.086263 -0.007969 0.043853 0.114011 0.078509 -0.101611 -0.053581 -0.041792 0.083104 0.025259 -0.024659 -0.106733 -0.055695 -0.018984 -0.074031 -0.109160 0.007895 -0.032000 -0.074504 -0.130883 -0.113971 -0.047896 0.107702 -0.038988 0.035501 0.055569 -0.016370 -0.106428 0.018208 0.109746 0.106687 -0.079686 -0.128655 0.081953 0.093193 -0.072057 0.015419 -0.053356 0.128494 0.046911 -0.088957 0.047034 -0.083231 0.020845 0.021676 0.031722 0.034273 -0.080743 0.036696 0.049548 0.084290 0.034378 -0.018482 -0.109444 -0.007690 0.004957 -0.117075 
an 0.079812 0.010882 0.110941 0.017480 0.031262 -0.068383 -0.117485 -0.065045 -0.063962 0.116143 -0.114258 0.041155 0.005626 -0.011123 0.055721 0.033906 0.108874 0.050767 0.099975 -0.045965 0.102743 0.072798 0.066873 0.104587 -0.069384 -0.052608 0.036122 -0.078728 0.083190 0.094087 -0.049431 0.070531 -0.103061 0.009159 -0.015120 0.092103 -0.010237 -0.041908 -0.019712 0.065796 0.054922 0.074094 -0.016426 -0.120960 0.098253 0.053398 -0.064399 0.003714 -0.066120 0.115068 0.044508 -0.060025 -0.059092 0.073974 0.092213 0.036928 0.055576 0.034694 -0.042131 -0.069596 0.046316 -0.111990 0.020910 0.079065 -0.037263 -0.065417 -0.001357 -0.006968 -0.045732 -0.065689 -0.038108 0.012777 -0.055018 0.009154 -0.036718 0.059974 -0.072200 0.083491 -0.042849 0.043025 0.009301 -0.091995 -0.121931 0.008507 0.044975 0.025743 0.033516 0.033285 -0.038866 0.050840 0.020645 0.013052 0.022618 -0.096720 -0.011936 -0.090767 0.064715 0.065291 -0.083046 -0.028132 -0.063773 0.110019 0.079153 0.060837 0.093947 -0.119791 0.100124 0.066474 0.042103 0.069964 0.112354 -0.075530 0.104058 -0.111798 0.120153 -0.084445 -0.102897 -0.074849 0.106758 0.112825 0.118489 0.021393 -0.038407 -0.077832 0.013542 0.098542 0.083859 0.058053 -0.088247 -0.080196 -0.043103 0.042318 -0.080422 -0.020619 0.101877 -0.074990 0.018421 -0.029852 0.113618 -0.115771 -0.073327 0.004702 -0.087463 0.112677 -0.026534 0.091289 -0.023339 -0.117469 0.027016 0.036147 0.068401 0.012990 0.042420 -0.048555 0.059578 -0.076491 0.021438 0.004395 0.082075 0.056288 0.037759 -0.043145 -0.106733 -0.067439 -0.059171 0.075195 0.009750 -0.125211 -0.038887 -0.008326 0.032226 0.045519 0.067934 -0.114397 0.108870 -0.112442 0.098437 -0.015242 -0.016067 -0.063084 -0.073657 0.098628 -0.078810 0.008955 -0.017378 0.083183 0.026330 -0.011301 0.043193 0.123020 -0.013568 0.125790 -0.081667 -0.051207 -0.010647 -0.101948 -0.023844 0.107572 0.061252 -0.104504 
you -0.093223 -0.021694 0.079434 0.029694 -0.026551 -0.026811 -0.053261 -0.005249 -0.009872 0.083272 -0.118091 0.061483 0.084332 0.111483 -0.080280 0.063732 -0.049208 -0.077423 -0.090529 -0.102834 0.087985 -0.062253 0.009592 0.013891 0.066989 -0.101906 -0.054272 -0.061385 0.015321 0.101159 -0.000038 -0.000208 0.122325 -0.082917 0.021593 0.093091 -0.102748 0.014366 -0.078257 -0.071302 -0.099593 -0.113197 -0.079329 0.020547 0.012000 0.079242 0.053155 -0.044827 -0.073238 -0.038178 -0.078815 0.122857 -0.104136 -0.044261 -0.069502 -0.013521 -0.015004 0.049400 0.054045 0.059974 0.074370 0.045732 0.079298 -0.070125 0.106023 0.056796 0.102861 -0.013536 0.083819 0.009174 0.035857 -0.060072 0.073449 -0.108729 0.098544 0.056895 -0.044876 0.000630 0.078393 -0.076102 -0.081812 -0.045302 0.072008 -0.068781 -0.033494 -0.072638 -0.009487 0.036351 -0.081540 -0.092970 0.054166 0.011309 -0.098431 -0.056064 0.050438 -0.062759 0.105178 -0.097166 0.075932 -0.042879 0.038536 -0.042389 0.041774 0.028442 0.014642 0.096676 -0.079087 -0.076781 -0.086295 0.122955 -0.004566 -0.030094 -0.074929 -0.098797 0.114634 0.064170 0.052604 0.099921 -0.057668 -0.083800 0.114687 -0.034404 -0.053910 0.039928 -0.008468 0.043076 -0.086619 0.021891 0.119789 -0.050193 -0.059193 0.005060 0.008709 0.106985 -0.060506 -0.053068 -0.028710 0.008404 -0.117608 0.114133 -0.112257 -0.048396 0.051585 0.093197 -0.052589 0.048645 0.049064 0.027098 -0.093148 -0.021196 0.033261 0.120638 0.079064 -0.022208 -0.022876 -0.101476 0.096951 0.095846 -0.084566 -0.063483 -0.097449 -0.049589 -0.055208 -0.117023 -0.005660 -0.037317 -0.023676 -0.057295 -0.056604 0.121068 -0.017019 -0.112283 -0.122763 -0.018811 -0.000460 0.046464 -0.014793 -0.097589 0.122604 0.067310 0.023864 0.058623 0.015993 -0.092253 0.058898 -0.056381 -0.100038 0.081710 -0.029479 0.102246 0.056596 -0.071574 -0.051925 -0.095355 0.087887 0.085483 -0.004574 0.019317 -0.095042 0.015762 
just -0.065769 -0.057102 -0.023459 -0.013441 -0.112227 -0.033909 0.082499 0.073365 0.036637 -0.040854 0.083779 -0.059539 -0.086662 0.087708 -0.104283 0.018524 0.051620 0.105149 -0.036285 0.090375 0.101788 0.059324 0.085317 -0.002268 0.008627 0.056980 0.116965 0.112375 0.011402 0.028179 -0.026004 -0.077355 -0.062893 -0.038122 0.101810 -0.081884 -0.092787 -0.094070 0.062369 -0.059496 0.102090 -0.032917 -0.052303 -0.109578 0.054252 0.075399 -0.091284 -0.037036 0.061858 -0.015748 -0.080342 -0.059051 0.010799 -0.022924 0.013653 -0.098319 0.081442 -0.074961 0.047141 -0.018646 0.041886 -0.006215 -0.064540 -0.096105 -0.045294 -0.063314 -0.111573 -0.076708 -0.058623 0.037180 -0.060830 0.116847 -0.053317 -0.069152 -0.055869 -0.085997 -0.025695 0.018919 0.054230 -0.018977 0.086820 0.054766 0.008117 0.100728 -0.065467 0.086241 0.074504 0.114834 -0.066603 -0.015490 0.109833 -0.076046 0.087093 -0.084782 0.029441 -0.041235 -0.012970 0.102906 0.043144 0.002089 -0.009735 -0.111325 -0.051512 -0.104358 0.041584 0.086025 0.073081 0.011205 -0.090918 -0.081733 0.096677 0.072703 -0.109078 0.081108 -0.006492 0.098542 0.108575 -0.084350 0.032288 -0.069562 0.035660 -0.000191 0.069457 -0.059827 -0.088560 0.028064 0.020353 0.087255 0.034078 -0.010630 0.094793 -0.081079 0.053878 -0.068418 0.090321 -0.016360 -0.084375 -0.038553 0.098963 -0.053558 0.094167 0.009026 0.036055 0.002419 -0.054669 0.063278 0.111415 -0.065607 0.061757 -0.063530 -0.112997 0.055247 -0.082938 -0.029063 -0.073987 0.030012 -0.013904 0.096738 -0.091802 0.053781 0.095850 0.067247 0.043374 -0.090627 -0.103370 -0.069684 -0.106497 -0.090325 0.039973 0.028280 0.021777 -0.044700 0.058393 0.055614 0.107950 0.005755 0.014465 0.001276 -0.109330 0.079447 0.029664 -0.086881 0.109819 0.018092 0.048773 -0.102108 -0.084915 -0.042112 0.075475 -0.114345 -0.071442 0.093927 -0.063238 0.100951 -0.111113 -0.026554 -0.010310 -0.115121 0.064784 -0.090670 
we'll -0.060313 0.054343 0.082256 0.040300 0.039836 0.061905 0.081903 0.088234 0.104889 -0.111903 0.040564 0.066714 0.013115 0.086601 -0.006419 0.058200 -0.043072 0.017345 0.039122 -0.043329 -0.059746 0.108352 0.086873 -0.029754 0.029850 0.096525 0.109345 0.118560 0.103984 0.032914 -0.109437 -0.018556 0.103754 0.031395 0.031330 -0.044495 0.033086 0.017360 -0.061303 -0.002450 -0.041262 -0.020972 0.087809 -0.124105 0.010293 -0.032553 0.011374 -0.075679 -0.122467 0.096494 0.058879 0.036802 0.067017 0.040246 -0.111308 -0.081171 -0.108447 0.038237 -0.024044 0.092667 -0.016643 -0.109801 0.104697 -0.113168 0.032212 -0.038674 0.121769 -0.050753 0.042044 -0.074306 -0.063143 -0.014599 0.079610 0.022836 0.025102 0.014929 0.023177 0.052487 -0.080783 0.120293 0.065160 -0.122793 -0.031315 -0.055846 -0.041830 -0.074981 0.083192 -0.054051 0.020278 -0.067174 -0.016068 -0.106005 -0.121562 -0.048322 -0.042436 0.122072 -0.023622 0.095451 0.102258 0.021525 0.066710 0.038221 0.076381 0.051789 -0.035127 0.019523 0.103761 -0.018817 0.051769 0.090405 -0.031576 -0.107830 0.017180 0.113429 0.019856 -0.069958 0.116347 0.013985 -0.083575 0.051605 -0.086605 0.031610 -0.118042 0.025175 0.040541 -0.033965 -0.048203 -0.066783 -0.063749 -0.068861 -0.027204 -0.078977 0.107082 0.103627 0.105955 -0.054603 0.117160 -0.030912 0.072470 0.025973 0.096069 0.081201 -0.092318 -0.006101 -0.015094 0.051213 -0.038923 -0.005534 0.038915 0.055830 -0.108977 -0.015519 0.073536 0.083272 -0.078651 -0.016424 -0.032964 -0.066729 0.087395 0.074214 -0.088169 -0.028979 -0.015301 -0.100943 -0.088154 0.121911 0.025578 -0.082459 0.033838 0.122847 -0.068773 -0.102017 -0.095240 0.024876 -0.011696 -0.077152 -0.031660 -0.058124 0.043663 -0.113889 -0.022809 0.050554 0.006987 -0.004107 -0.001933 0.087813 0.102105 0.020512 -0.090761 0.104701 0.113041 0.042432 -0.096882 -0.036219 -0.113348 -0.044372 -0.016367 0.093074 0.086566 -0.031779 
one -0.031528 -0.020378 -0.064080 0.093199 -0.018227 -0.073340 -0.038293 -0.065028 -0.030354 0.034288 0.015213 0.100443 -0.064244 -0.001722 0.012134 0.080126 -0.057586 0.042220 -0.073186 -0.107652 0.110577 -0.020822 0.026825 0.083248 -0.083903 -0.084551 -0.065368 0.084694 0.066392 0.015975 0.035100 0.090951 -0.079980 0.035175 0.067988 -0.114239 0.067108 0.020700 0.066285 0.015266 -0.016494 0.078845 -0.112961 -0.088667 -0.092536 -0.094616 -0.084883 0.002810 -0.098707 -0.041511 -0.109725 0.073440 0.085950 0.051226 0.080087 -0.034388 -0.062712 0.055306 0.107019 0.049529 -0.071861 -0.098911 -0.113233 0.050288 -0.113770 0.046744 0.097426 -0.013785 -0.067480 0.070755 0.068232 -0.065715 0.012027 0.079418 -0.109181 0.030114 -0.106167 0.003089 -0.049948 -0.001199 0.109417 0.065357 -0.014311 0.093256 0.075985 0.079289 0.030719 -0.078716 -0.026860 -0.083405 -0.057808 0.087672 0.039131 -0.023199 0.104971 0.082933 0.101685 0.014329 0.024233 -0.074607 0.047177 0.076826 -0.032451 -0.073390 0.055210 0.036006 0.026552 -0.012381 -0.105136 0.056810 0.116941 0.068099 0.097619 -0.106342 -0.021527 -0.048205 0.080681 0.063367 0.113304 -0.049737 0.023653 -0.031517 -0.090682 -0.035462 -0.069800 0.008530 -0.014039 -0.045699 0.097218 -0.062071 0.082993 -0.062122 -0.058088 0.038912 -0.001181 -0.007757 0.113054 -0.051390 0.059655 0.018431 -0.089444 0.066546 -0.053384 -0.023879 0.100483 -0.087443 0.103210 -0.116358 0.100039 0.003461 0.093259 0.052550 0.088828 -0.023614 0.008397 -0.085288 0.070515 -0.003726 -0.001095 -0.101023 0.107413 0.052128 0.039124 0.023671 0.085893 -0.042986 -0.072541 -0.103400 -0.049024 0.051813 -0.009872 -0.112034 -0.059090 0.032298 -0.091756 -0.042549 -0.116576 -0.112528 -0.109267 -0.111203 -0.100526 -0.100429 -0.029416 -0.006439 -0.065919 -0.059695 0.004847 -0.061807 -0.009092 -0.059967 -0.090782 -0.083040 -0.102315 -0.112241 -0.107377 -0.051813 0.009951 0.065715 -0.011948 0.108848 
key 0.030786 0.086842 0.055671 0.073803 -0.008010 -0.053929 -0.006143 0.017590 -0.063305 0.075253 0.029060 -0.003331 -0.062599 -0.011719 -0.005063 0.009029 0.032439 0.145800 -0.105684 0.053785 -0.082215 0.080250 -0.031444 -0.013241 -0.050563 -0.105838 0.096692 -0.031222 -0.047590 -0.098181 -0.037233 -0.072136 -0.091974 -0.060070 0.009938 0.068020 0.058312 0.082785 0.030060 -0.067919 -0.038791 -0.061056 0.090100 -0.130505 0.039592 0.029033 -0.124821 0.085463 -0.084287 -0.040559 -0.051534 -0.035926 0.128641 -0.051487 -0.118254 -0.057232 -0.002444 -0.086912 -0.030763 -0.006391 -0.083361 -0.103291 0.042871 0.075230 0.014298 0.112774 0.093693 -0.081809 -0.110127 -0.090638 0.122093 0.102663 0.023517 0.041462 0.030900 0.124682 0.050075 0.040816 -0.071918 0.030527 0.040409 0.050388 0.075033 -0.020370 0.117813 -0.008216 -0.032270 -0.058877 0.094576 0.090495 0.022916 -0.053156 0.126562 -0.091701 0.032907 0.023243 -0.051749 0.035749 0.100048 0.092429 -0.005637 -0.063763 -0.119887 -0.100302 0.102868 0.052494 -0.112953 -0.055349 -0.060596 0.011104 0.090919 0.043867 -0.071591 0.038651 -0.073152 0.077494 0.076434 -0.048904 -0.071268 0.034759 -0.072416 -0.040366 -0.084178 -0.127426 0.086325 0.057414 -0.108242 0.020754 0.080417 -0.068812 -0.055049 0.131221 0.048759 -0.104559 0.058111 0.009887 -0.044574 0.045861 0.098188 0.063622 0.049427 -0.095612 -0.087817 0.099903 0.109496 0.055172 0.101627 0.002594 0.015029 -0.068563 -0.004085 -0.053644 -0.005891 0.017545 -0.010201 -0.051567 0.087048 -0.074504 -0.091347 -0.058327 0.012561 -0.026106 -0.002710 -0.061026 -0.051192 0.071164 0.110550 -0.024569 0.085111 -0.016984 -0.020739 0.058653 -0.030400 -0.010581 -0.126791 -0.004462 0.038295 -0.021444 -0.071955 -0.026568 0.048930 0.100277 0.024548 -0.075639 -0.132922 0.098296 -0.108498 0.068080 0.111397 0.030955 0.067822 0.127190 -0.075190 0.029909 -0.058342 0.071846 0.086433 -0.025869 0.063507 -0.023318 
null -0.066693 -0.145727 -0.011855 0.105978 0.079815 0.041855 0.003008 0.001379 -0.009140 0.108594 -0.093583 0.067317 0.069537 -0.041542 -0.055787 -0.019151 0.003840 0.134609 -0.002897 0.087117 -0.095997 0.079390 -0.095780 -0.121325 -0.092942 -0.022311 -0.049358 0.090013 0.018844 0.054951 -0.092272 0.085477 0.091467 0.042442 -0.124175 -0.030399 0.000679 0.084254 0.026549 0.068000 -0.062988 -0.060545 0.034051 -0.071734 0.145743 0.010360 -0.049868 -0.116561 -0.060857 0.014211 -0.041005 0.111325 -0.047886 0.076992 0.039923 -0.011291 0.111835 -0.021192 -0.114248 -0.119769 -0.036450 0.060843 0.112562 0.068156 -0.016934 0.025660 -0.082871 -0.062923 -0.064734 0.046231 0.106384 -0.076887 -0.082944 0.024998 0.006221 -0.051901 -0.110608 0.051031 0.111818 0.091466 0.093316 -0.046597 0.037742 -0.023232 0.030872 0.024198 -0.092189 -0.086891 0.109058 0.103674 -0.018265 0.053021 0.115024 0.108307 0.005777 0.047122 -0.023775 0.018737 0.088160 -0.035270 0.112863 -0.026979 -0.105986 -0.074351 -0.088093 -0.029266 -0.042979 0.005845 -0.008303 0.047991 -0.074652 -0.057473 0.004777 0.013340 0.090772 -0.042131 0.078676 -0.115352 0.104006 -0.048054 0.088555 -0.066170 -0.041976 -0.054948 0.064909 0.026047 -0.043297 -0.127647 0.127783 0.015356 -0.105409 0.110519 0.024933 0.051074 0.064192 -0.061124 -0.084957 -0.059792 0.004744 0.089376 0.071990 -0.042908 -0.107034 0.040320 0.004953 0.119485 -0.023753 -0.017221 -0.120620 -0.013544 -0.040451 0.019254 0.084518 -0.059107 0.088197 0.019969 0.034594 -0.086026 -0.141274 0.069889 0.080513 -0.081944 -0.128644 0.027694 0.034444 -0.068744 0.113526 0.070145 -0.046225 0.061415 -0.048179 0.074826 -0.019823 0.052315 -0.032718 -0.030151 -0.031722 0.116861 -0.023931 0.061729 -0.005276 0.074639 -0.041214 -0.056650 0.089805 -0.028626 0.024306 -0.093398 0.031666 0.049048 -0.085930 0.078045 0.029508 0.028428 0.019589 0.045525 0.021600 -0.069631 0.061702 -0.007348 
tables -0.040094 -0.074999 0.002698 0.112634 0.056192 -0.103044 -0.040217 0.018980 -0.087969 0.082976 -0.092156 0.007944 -0.113411 0.057244 0.117179 -0.079692 -0.075675 -0.072858 -0.030569 -0.106928 0.028942 0.096268 0.090363 -0.114492 0.026411 0.079562 -0.019895 -0.083872 0.038922 -0.074840 -0.091043 0.062690 0.010935 -0.022582 -0.030512 -0.011755 -0.053849 -0.070992 0.076535 -0.110963 -0.092482 0.005796 -0.032797 0.020557 0.017226 0.018944 -0.088208 -0.013390 -0.017241 0.075830 0.002871 -0.075801 0.044795 0.106103 -0.081699 0.029568 0.029304 0.098654 0.106114 0.084256 0.058477 0.101619 -0.111292 -0.070956 0.076774 -0.014598 0.069578 -0.062090 0.087897 -0.083373 0.089611 0.070124 -0.082184 -0.115816 -0.077114 0.107224 -0.074301 -0.063789 0.076680 -0.110008 0.056004 -0.056890 -0.067365 0.029380 0.075458 0.071506 0.116514 0.010707 0.047008 0.073314 -0.108530 0.089463 0.092843 -0.003330 0.001757 0.106429 -0.079551 -0.051047 0.065991 -0.038369 0.007478 0.096789 -0.000991 0.088291 -0.057074 -0.044885 0.011868 0.030971 0.085959 0.046020 -0.099085 0.104404 -0.092916 0.002933 -0.004303 -0.028360 -0.116044 -0.007525 -0.025926 0.065901 0.079522 0.003540 0.047102 -0.068251 -0.094955 0.084263 0.011130 -0.116083 0.015910 0.105047 -0.041273 0.059407 -0.058130 -0.004458 0.041707 -0.056463 -0.017154 -0.018387 -0.002828 0.028772 0.024053 0.111397 0.095425 -0.081081 0.009951 0.018322 -0.044918 -0.012045 -0.055758 0.105988 -0.035068 -0.041826 -0.110128 -0.110667 0.099056 0.085066 -0.030967 -0.109553 -0.083174 -0.027564 -0.110793 -0.020267 -0.015238 -0.005739 -0.108927 0.086837 -0.019273 0.109813 0.037577 -0.036322 0.115776 0.100629 -0.023041 -0.104635 -0.050718 0.044466 -0.109347 -0.010721 0.047767 0.078325 0.019338 -0.061909 0.089090 -0.075498 -0.047991 -0.032330 0.047333 0.075462 0.047832 -0.110826 -0.044180 -0.101967 0.014290 0.046961 -0.092880 0.003171 0.092062 -0.103276 0.053046 0.113169 
example 0.103482 -0.104012 -0.108343 0.011131 -0.057223 0.108032 -0.059277 0.011673 0.029522 -0.081265 0.033682 0.011686 0.104332 -0.036662 0.111806 -0.037979 0.026761 0.011324 -0.104572 -0.092913 -0.091598 0.081155 -0.103231 -0.106636 -0.079162 0.063819 -0.038521 0.090769 0.074339 -0.100593 0.025513 -0.046680 -0.043730 0.044864 0.037386 -0.009369 -0.070616 0.044832 0.066579 0.046764 -0.062562 0.031853 -0.077648 0.000975 -0.016226 -0.061381 0.027355 0.081179 -0.113465 -0.016613 0.107528 0.039882 0.018227 -0.003080 -0.047944 -0.026412 0.074043 0.062117 -0.088351 0.002328 0.071525 0.087097 -0.113148 0.113168 0.048518 0.121218 0.081019 0.045235 -0.075386 -0.067232 0.070833 -0.091809 0.098506 0.115599 -0.070069 0.086684 0.085875 0.114849 0.075826 0.030967 -0.006585 -0.064500 -0.023286 0.016313 -0.091302 0.095428 -0.074910 -0.119694 0.010962 -0.008794 -0.001214 0.001866 0.074197 0.011263 -0.111084 0.094017 -0.056647 -0.082427 0.025337 -0.059766 -0.062771 0.012425 -0.016483 0.101676 0.037475 -0.101583 0.093980 0.004414 -0.008182 0.015756 0.021652 0.065596 0.113184 0.064565 0.003043 0.071856 0.038316 -0.090316 0.021648 0.106604 -0.043819 0.112705 -0.020927 0.054905 0.095115 0.108707 0.010168 -0.088601 0.060703 -0.072736 0.094386 -0.085619 -0.048549 0.035281 0.033850 -0.119698 -0.007709 -0.106394 -0.095252 -0.022790 -0.095002 0.097525 0.099185 -0.075207 0.018058 -0.065407 -0.102395 -0.044622 -0.048922 -0.074046 0.014869 -0.078115 -0.086717 -0.050782 0.101817 -0.029931 -0.102914 -0.068115 0.038548 0.057275 -0.029488 0.112429 0.066308 -0.045103 0.001315 0.039307 -0.023686 -0.022075 -0.033170 0.066070 0.089514 0.041717 0.074454 -0.108371 0.078161 0.089536 -0.066612 -0.022401 -0.068193 -0.085465 -0.118829 -0.099253 -0.099751 0.064088 -0.116659 -0.009125 0.096418 -0.054289 -0.052884 -0.042594 -0.028535 0.036892 -0.112694 0.017872 -0.051350 0.068002 0.063528 -0.019783 0.051158 -0.089740 
very -0.067571 -0.062958 -0.073238 -0.051904 0.019073 -0.116925 -0.052517 0.109875 0.110090 -0.001236 0.089590 -0.027733 0.060733 0.060037 -0.055151 0.030765 -0.119742 0.031337 0.015923 0.022324 0.012267 -0.066432 0.041405 0.058776 0.072640 0.102789 -0.076720 0.043597 -0.099521 -0.111816 0.032484 -0.079995 -0.050523 0.096607 -0.109801 -0.104591 -0.021685 0.089020 -0.013267 -0.022349 0.033540 -0.061054 -0.073201 0.045666 0.052590 -0.065507 0.081007 0.062421 -0.103871 -0.079755 0.076128 -0.105934 0.113690 0.113581 -0.024717 -0.037923 0.019307 -0.052210 0.050466 0.027860 -0.002678 -0.036891 -0.102452 0.029192 -0.050775 0.109203 -0.003702 -0.057206 -0.054680 -0.010070 0.100190 0.106153 -0.006619 0.122740 -0.123000 0.015857 -0.035308 0.024849 -0.091218 -0.038690 -0.077141 0.087423 -0.015271 0.098616 -0.002543 -0.006432 0.072345 -0.079762 0.007814 -0.029928 0.110692 -0.067971 0.101347 0.050162 -0.095742 -0.071056 0.014271 0.106686 0.020067 0.069983 -0.057566 0.090330 -0.126377 0.098206 -0.031684 -0.036309 -0.012497 0.034256 -0.017297 0.069301 0.087561 -0.073252 -0.058326 -0.086898 0.091599 -0.086375 0.095034 0.029009 0.051856 -0.032838 -0.027313 -0.092740 0.022222 0.054899 -0.038103 0.033683 0.014584 -0.111031 0.048552 0.077082 -0.121105 0.060804 -0.101981 -0.112129 0.069229 -0.076502 -0.046472 0.037125 -0.019227 0.106832 -0.009871 0.030933 -0.071476 -0.054226 0.022365 0.004770 0.041639 0.026527 -0.064941 0.083738 -0.099691 0.074142 -0.054913 0.048717 0.109335 0.089875 0.096721 -0.023575 0.047114 -0.002078 0.110496 -0.040396 -0.061836 0.069020 -0.067397 -0.093514 -0.103323 0.087793 -0.026256 0.049705 0.113880 0.058072 0.045111 -0.038314 -0.096733 0.033816 0.086102 0.001690 -0.119718 -0.040373 0.101655 0.088359 -0.071465 0.009781 -0.048814 -0.043874 0.027693 -0.073197 0.008707 -0.082643 -0.019113 -0.100321 -0.083072 0.084494 0.137638 -0.078401 -0.035396 0.113620 0.103264 0.039980 
might -0.036761 0.000887 -0.102941 0.062361 0.052672 0.086982 0.038638 -0.018387 -0.075111 -0.028145 -0.124542 0.007337 0.015777 0.017362 0.099406 0.023252 -0.008588 0.062095 -0.095425 0.132626 -0.066783 0.033388 0.063968 0.080465 0.023395 -0.119605 -0.070161 0.122056 0.028766 0.041921 -0.046574 -0.113248 0.015275 -0.008736 0.034037 -0.111832 0.103853 -0.042687 0.065667 0.014061 0.006614 0.104858 0.021683 0.063234 -0.014047 -0.087161 -0.106012 0.108243 0.038692 0.034129 0.124821 0.111026 0.109114 0.108640 0.001181 -0.083792 0.121672 -0.066236 -0.116072 -0.122434 0.091149 -0.107764 -0.051979 0.028958 0.045437 0.076584 0.084489 0.037354 -0.068905 -0.001106 -0.050780 0.065705 0.109632 0.009450 0.027135 0.026360 -0.128224 0.013202 0.073738 0.049289 0.093852 0.032156 -0.008708 -0.057668 0.083607 0.123493 0.098429 0.035475 0.022182 0.142056 -0.010169 -0.004225 -0.072841 -0.003693 0.076378 -0.022627 0.143400 -0.078610 0.050520 0.026746 0.018199 -0.003797 -0.024802 0.007477 0.003134 0.049430 -0.030827 0.044711 0.094685 0.077708 -0.098808 0.066522 -0.086899 -0.053796 0.045591 0.102792 0.027990 0.064118 0.088229 0.013208 -0.092317 0.040827 -0.027220 -0.127278 0.006200 -0.005509 0.062666 -0.000668 -0.027131 -0.027273 -0.131895 0.121724 0.064955 -0.073629 -0.070709 -0.001286 -0.092842 0.086289 0.029076 0.096807 0.085742 0.062772 0.098782 -0.094828 0.023303 0.114414 -0.061241 0.084045 -0.014669 0.010690 -0.046322 0.041598 0.038169 -0.093270 0.115700 -0.098057 0.108153 -0.039034 -0.023833 -0.089135 0.064662 -0.058002 0.086222 0.003535 -0.034789 0.093770 -0.004486 0.080935 0.073459 0.054716 -0.015560 0.036550 0.098155 0.014335 -0.032705 0.025854 0.118881 -0.043476 -0.033041 -0.101647 -0.003361 -0.072084 -0.030845 -0.073959 -0.046136 0.001721 -0.141165 -0.033633 -0.001292 -0.074675 0.043752 0.104552 -0.080017 -0.105506 0.008990 -0.023795 0.086934 -0.052152 -0.036988 -0.026333 
value -0.012797 -0.025981 0.065875 0.028940 0.086782 -0.079486 -0.030939 0.028852 0.002523 0.010654 -0.100448 0.047081 0.000911 -0.005103 -0.080177 0.091110 -0.088882 0.068470 0.033165 -0.075054 -0.100820 0.044527 0.012554 0.094504 0.047150 0.008226 -0.023586 0.044314 0.000258 0.015514 0.066109 -0.018707 -0.058174 0.153969 0.033998 0.073514 0.115551 0.046580 0.129940 0.110285 0.101142 -0.014154 -0.023603 -0.014443 0.062097 0.022375 -0.053628 -0.116313 0.106578 0.006653 0.095496 -0.110432 0.058716 -0.086051 0.060295 -0.021784 -0.049168 0.127062 -0.119707 -0.094355 -0.070913 0.002609 0.050448 0.057369 -0.103944 -0.025325 -0.085147 -0.014335 -0.079065 0.094280 -0.089995 -0.017012 0.013242 -0.033935 -0.055280 0.048291 0.041018 0.026200 -0.103452 -0.015658 0.072347 -0.030685 0.022859 -0.050046 0.003548 -0.048899 0.053180 -0.086993 0.105023 -0.046634 -0.053678 0.125980 0.086037 0.010541 -0.046813 -0.059678 0.137415 0.002785 -0.061020 -0.032357 -0.020113 0.117801 0.039202 -0.038047 -0.063627 0.082434 0.055541 -0.066993 -0.100221 -0.008606 -0.039064 -0.062641 0.044258 0.065232 0.125341 0.088462 -0.066072 -0.092894 -0.069859 -0.064045 0.031982 -0.066918 0.093527 -0.112610 0.018711 -0.076882 -0.048337 -0.114238 0.112891 0.012271 0.044447 0.052256 0.007304 0.074883 0.114707 0.000235 0.102503 -0.043193 0.055463 0.093779 -0.030079 0.106670 -0.069127 -0.074818 0.067090 -0.044041 0.085259 0.064461 0.071120 0.100731 -0.097378 0.012929 -0.046163 -0.126390 -0.043594 0.005740 -0.014421 0.018122 -0.126194 -0.030734 0.123747 -0.061002 0.104656 -0.077415 0.100571 0.011511 0.069074 -0.096093 0.072317 0.002560 -0.040782 -0.091033 0.075836 -0.039133 0.024692 -0.012219 0.079537 -0.004952 -0.055198 0.092266 0.069392 0.033649 0.052992 -0.060894 -0.092433 0.051348 -0.115445 -0.053567 -0.032148 0.106712 -0.061412 0.082144 -0.098774 0.091596 0.077611 -0.126913 -0.029978 -0.089072 -0.067107 0.064475 
databases 0.017502 0.000832 -0.014506 0.005658 -0.079422 0.009246 0.050230 -0.084709 0.104516 -0.004863 -0.052970 -0.006832 0.060914 -0.122097 0.112419 -0.082472 -0.110763 -0.067681 -0.005089 -0.000781 -0.049101 -0.096002 -0.113274 0.012842 -0.063596 -0.063831 -0.124086 -0.071316 0.096021 -0.021729 -0.096035 -0.116226 0.009264 0.005568 -0.100202 -0.070536 0.038229 0.025630 -0.046599 -0.086026 -0.103201 -0.061166 0.097571 -0.070801 0.078465 -0.067819 0.035767 -0.010074 -0.119095 -0.025723 -0.013516 0.088477 -0.039103 -0.112464 -0.035916 0.050779 -0.005657 0.009642 0.083762 0.026490 -0.014861 -0.003887 0.024336 0.008160 -0.005310 -0.096233 -0.032968 -0.057897 -0.071152 -0.019615 -0.026378 -0.038109 -0.040787 0.113723 -0.128554 -0.023102 0.062056 -0.046359 0.105488 -0.101317 -0.110328 -0.001820 0.106321 0.009780 -0.011647 0.069599 -0.051057 -0.091966 0.066767 0.017528 -0.048243 -0.007899 -0.117232 0.004775 0.042929 -0.061785 0.028294 0.016747 -0.076111 0.029416 0.082107 -0.105199 -0.108499 0.122046 0.033852 -0.041700 0.058490 0.088768 0.109831 -0.076684 0.059605 0.132987 -0.105225 -0.039863 -0.093928 0.025095 0.018277 -0.058343 0.068998 0.106957 -0.101779 -0.031596 -0.051393 -0.010101 0.042807 -0.065414 -0.069370 -0.055583 0.046999 0.101922 0.001636 -0.029921 -0.012309 -0.003358 -0.032595 0.088957 0.123966 0.022052 0.125262 0.018390 -0.087160 0.079919 -0.086162 -0.062143 -0.057319 -0.091983 0.059070 0.108186 0.044326 0.037755 0.067010 0.116933 -0.009786 -0.129268 0.092285 0.102509 -0.026988 0.063288 -0.029154 0.059147 0.084646 -0.123607 -0.009343 -0.046669 -0.065707 0.078430 -0.079435 -0.097847 -0.006581 0.039195 0.084131 0.040665 -0.010053 -0.053019 -0.098617 0.061376 -0.006030 0.033528 0.101238 0.015537 -0.127049 0.102560 -0.029993 -0.037479 0.097560 -0.002901 0.097907 0.031470 -0.077109 -0.071261 -0.084022 -0.008185 -0.112558 0.108741 -0.108572 0.028382 -0.116079 0.090024 0.014888 0.020172 
query 0.078891 -0.038787 -0.052275 -0.083237 0.055517 0.000763 0.017418 0.035816 0.074357 0.130525 0.019128 0.050893 -0.050120 0.081081 0.048991 -0.103157 -0.004639 0.148482 0.021765 0.079482 -0.111614 -0.015981 0.027178 -0.053665 -0.015220 0.000753 -0.125601 -0.012423 0.094783 0.076145 0.024702 -0.002168 0.005884 0.024845 -0.078515 0.026935 -0.061076 0.056754 0.111011 0.114210 -0.104903 -0.088925 -0.100211 0.036256 0.100804 0.036687 -0.062235 -0.124821 -0.077279 0.059522 0.120424 -0.102299 0.122940 0.010293 -0.037949 0.059861 0.056230 -0.029640 -0.004975 -0.118317 0.097728 -0.040596 -0.092335 0.076298 -0.095206 0.071647 0.018378 0.022125 0.020823 0.031059 -0.021817 -0.053420 -0.019962 -0.052645 0.077348 -0.000123 -0.134869 -0.016807 0.029261 -0.018049 0.066264 0.078144 0.021962 0.050258 0.162427 -0.029331 0.066479 -0.020504 -0.021386 0.056175 0.096075 0.016555 0.102315 -0.070280 -0.070069 -0.069601 0.118417 -0.083184 0.067919 -0.107793 -0.059201 -0.021893 -0.016607 -0.108617 0.074340 0.065767 -0.018039 -0.036874 0.034330 0.100225 -0.026699 0.136334 -0.026856 -0.035276 -0.058574 0.074790 0.136447 0.024933 0.054819 0.001319 0.053590 0.046893 0.015668 0.031633 0.072528 -0.036284 0.015285 0.033283 0.043812 -0.029266 -0.086172 0.091524 -0.027721 0.061456 -0.018744 -0.093117 -0.029983 -0.013629 -0.016325 -0.024299 -0.050042 0.116286 0.052272 0.094350 -0.020725 -0.062151 0.111512 0.138874 -0.152270 -0.054480 -0.092516 0.043491 -0.097129 -0.008096 0.132741 0.037355 0.105462 -0.039117 0.055717 0.133157 0.006036 -0.099863 0.022655 0.022507 -0.073551 -0.065015 0.054798 0.022943 0.130920 0.051867 -0.092720 -0.089821 0.145955 -0.107259 0.037556 -0.101190 -0.061350 -0.013951 -0.033296 0.015572 -0.074117 0.040448 -0.028783 -0.059724 0.024105 0.020655 0.040400 -0.149907 -0.046199 -0.002528 0.017849 0.011365 -0.066498 0.106716 0.023208 0.049371 0.076899 -0.018701 0.042783 -0.077431 
each 0.018256 0.119614 -0.073431 0.082959 0.038506 0.097985 -0.027044 0.050322 0.110083 0.008383 -0.009808 0.002954 -0.020099 0.036444 -0.091113 -0.106175 -0.019831 -0.086570 -0.061551 0.001436 -0.023972 -0.062599 0.121774 -0.101710 -0.086957 -0.019449 0.049989 -0.012039 0.048314 -0.034852 -0.107964 -0.026813 -0.055630 -0.120107 0.105702 0.124154 -0.019365 0.017966 -0.004098 0.020137 0.099495 0.002542 -0.102897 0.054831 0.055100 0.006570 -0.030185 -0.056956 -0.089754 0.014030 -0.060746 -0.051117 0.051381 0.086357 0.090004 -0.089306 -0.089209 0.078909 0.024853 -0.042932 0.002793 -0.091400 -0.105524 0.061242 -0.117518 0.086095 -0.073566 -0.012680 -0.061142 -0.106900 -0.090440 0.062223 0.104732 -0.050595 -0.062928 -0.057705 -0.112946 -0.070236 -0.079532 0.075359 0.109198 0.073527 0.078772 -0.018169 -0.105949 -0.061975 -0.045628 -0.006668 -0.070833 0.126628 -0.114074 0.007359 -0.028386 0.065051 0.042657 -0.022243 0.093682 -0.004818 -0.108875 -0.070833 -0.087839 -0.032405 -0.031073 -0.060573 -0.120809 0.094907 0.123401 -0.093214 -0.006647 0.059220 0.010992 0.030811 0.073751 0.085079 0.115494 0.088530 -0.003184 -0.012593 -0.045552 -0.091464 -0.040887 0.125482 -0.110566 -0.117687 -0.045437 -0.084574 0.078368 -0.024685 0.061908 0.112437 -0.010195 -0.049412 -0.102598 -0.004928 -0.083925 -0.108590 -0.081986 -0.047274 -0.053740 -0.057490 0.112140 -0.108081 -0.008691 0.066991 0.054886 0.057236 0.033514 0.023097 0.122570 -0.005194 0.101095 -0.104059 0.003573 0.077012 0.035699 0.089332 -0.041271 -0.027399 0.003689 0.049468 0.050487 -0.071672 -0.018514 0.049552 -0.094875 -0.015149 0.001408 -0.079553 -0.028556 0.005803 -0.088219 0.062578 -0.003737 -0.076680 0.116726 -0.072786 0.048351 -0.028019 0.099142 0.035581 0.006939 -0.043033 -0.120101 -0.028543 0.064733 -0.017727 0.070356 0.120821 -0.025506 -0.014731 0.076884 -0.047027 0.053561 -0.050703 0.121307 -0.023283 -0.072002 -0.081861 -0.018799 0.035100 
gonna 0.036832 0.011794 0.017024 0.008803 -0.097579 -0.083407 -0.106729 0.110601 0.057766 0.088023 0.045523 -0.112512 -0.084702 0.109569 0.053360 0.105584 -0.099733 0.089211 -0.002588 -0.017747 0.008727 -0.047753 0.034039 -0.064118 0.066300 -0.075157 -0.100900 -0.015248 -0.033085 0.053968 0.095631 -0.027736 -0.115545 -0.019556 0.010685 0.033833 0.057768 0.092593 0.035692 -0.102883 0.081222 -0.075661 -0.098587 0.041062 0.075347 -0.014836 0.110802 0.086678 -0.011816 -0.088453 0.057942 -0.073789 0.051946 0.106616 -0.108235 -0.008101 0.097019 0.091298 0.051606 0.062429 0.014315 -0.094742 0.103158 -0.012663 -0.023776 -0.099247 -0.096047 -0.104587 -0.008159 -0.006188 0.074088 -0.015134 -0.112336 -0.046678 -0.114703 0.040968 0.011475 0.049441 0.068193 -0.096780 0.086581 -0.071709 0.018303 -0.055737 0.112132 -0.014891 -0.117045 -0.114727 -0.086735 -0.020748 0.101374 -0.019754 0.076715 -0.049333 0.011207 0.072887 0.089029 0.007041 -0.066135 0.063567 -0.056852 0.082167 0.016122 -0.084011 -0.059285 -0.068167 0.003607 0.114318 -0.032928 0.070964 -0.073322 0.029655 -0.028035 -0.101349 0.114928 0.031578 -0.049009 0.053190 0.005491 0.083750 -0.025461 0.053426 0.049950 -0.031936 -0.080344 -0.052609 0.047089 -0.001811 -0.025608 0.075957 0.086315 0.074479 -0.095934 -0.104717 0.087314 -0.079908 0.009127 0.105785 0.017623 0.022132 -0.064026 0.047770 -0.088044 -0.007935 0.101075 0.060948 0.100746 -0.038286 0.039867 0.077858 0.026317 -0.108926 0.047737 0.085255 -0.099062 0.034710 0.013735 -0.098293 -0.015780 -0.000182 0.114388 0.097376 -0.090064 -0.076914 -0.114111 -0.098513 0.054168 -0.005157 0.091689 -0.001192 -0.068807 0.004302 -0.080896 -0.020129 0.030407 0.025556 0.014415 -0.054890 -0.010579 -0.036850 -0.088943 0.059110 -0.057761 0.004869 -0.095979 0.074731 0.107141 -0.062826 -0.113030 0.046943 0.053079 0.072904 0.034002 0.075082 0.097287 0.076246 0.113116 0.091133 -0.076004 -0.087645 
tuple -0.059673 0.020470 -0.017892 0.071753 -0.068754 0.081699 0.026608 -0.079400 -0.003901 0.072044 -0.019245 0.097586 0.000198 0.000698 0.025013 -0.042063 0.016193 0.137504 -0.017241 -0.041578 -0.014115 -0.076151 0.055409 -0.065893 -0.003691 -0.033650 -0.088233 0.125026 -0.094385 0.016602 -0.034912 -0.089712 0.076141 0.010140 -0.086320 -0.064955 -0.041250 -0.017120 0.047803 0.148730 0.099600 0.050671 -0.085134 -0.079967 -0.003061 -0.106401 -0.080439 -0.053436 -0.070596 -0.095958 0.047616 -0.051394 -0.049208 0.008757 0.087069 -0.016665 -0.069157 -0.052705 -0.124212 -0.144336 -0.046168 0.054511 0.057448 0.027632 -0.058063 -0.071913 -0.039755 -0.111147 -0.024377 0.007788 0.016346 0.092284 0.068736 0.087632 -0.060026 -0.023128 -0.020251 0.008580 0.025933 0.102926 0.065087 0.047379 -0.111625 0.087438 0.153982 0.019832 0.114472 0.028351 0.176071 0.030092 0.061903 0.087473 -0.004704 -0.023769 0.090623 0.116590 0.163910 0.088113 -0.024653 -0.051816 0.043383 -0.004808 -0.093812 -0.060049 0.045557 -0.011557 -0.087967 0.010291 -0.017576 0.079950 -0.017347 0.064284 -0.057883 0.014675 -0.004157 0.082826 0.054822 -0.113410 -0.007860 -0.028504 0.125216 0.011280 0.039402 -0.055722 -0.009625 -0.052242 -0.035657 0.000598 0.066378 0.040058 -0.015806 0.140533 -0.019489 -0.084966 0.033060 -0.128020 0.022838 0.113755 -0.024819 -0.133832 -0.058605 0.034753 0.057303 0.040495 0.157970 0.106072 0.119663 0.114593 -0.128667 0.088867 -0.048278 -0.076464 0.044189 -0.054991 0.008330 0.033101 0.071682 -0.119656 0.023125 -0.064344 0.010589 0.065343 0.058408 0.028538 -0.130853 0.048807 0.013109 -0.091002 0.072406 -0.040732 -0.030778 0.110470 -0.026122 -0.047389 0.059476 0.074249 0.090304 0.036659 -0.086138 -0.046522 -0.114173 0.026718 -0.068448 -0.049533 0.039132 -0.013631 -0.029418 -0.086176 -0.055140 0.089016 -0.004947 0.050349 -0.091213 -0.044452 0.030221 0.017196 -0.043104 -0.057649 0.122710 -0.070836 
craig 0.026754 -0.018823 0.072234 -0.076923 0.110555 0.094600 0.014256 0.038705 0.030684 -0.042054 -0.113250 -0.084793 0.108191 0.068274 0.012447 0.055997 0.102975 0.138406 -0.055002 -0.048990 0.009041 -0.014090 0.109725 -0.052827 0.124466 -0.096951 -0.024690 -0.057029 0.081957 -0.024569 0.112339 -0.098883 0.073744 0.045461 0.062793 0.020903 0.098972 -0.024737 0.071391 0.047680 -0.008914 0.046550 -0.006719 -0.094805 0.124971 0.092201 -0.051262 0.003619 -0.085648 -0.051106 0.019684 -0.023501 -0.105201 0.068332 0.076522 -0.002264 0.110604 -0.096502 -0.104418 0.086943 -0.030776 -0.041119 0.016525 -0.081563 0.101148 -0.035685 -0.036150 -0.020653 0.096141 0.022751 -0.016638 0.084691 -0.026189 0.138711 -0.033402 0.021991 0.074509 0.091273 0.041280 0.045525 -0.025106 0.014471 -0.029868 0.075063 0.040550 0.099922 -0.037180 0.094564 0.117323 0.066939 -0.024354 0.129671 0.093349 -0.042418 0.051670 -0.032341 -0.040894 0.108966 0.014225 0.006331 0.121362 0.031150 0.033043 0.003610 -0.020863 -0.104709 0.112479 -0.041517 -0.120369 0.044965 0.003291 -0.075396 0.019714 0.003174 0.103173 0.045183 -0.068533 0.048478 -0.020366 0.060679 0.112791 -0.079153 -0.073376 -0.070147 -0.008572 0.087644 -0.051319 0.082543 0.023882 -0.004724 -0.080878 -0.092188 -0.120764 -0.020174 0.011323 -0.028734 -0.002964 0.116762 -0.097026 -0.059434 -0.079913 -0.074286 -0.115699 0.090138 0.128740 0.001727 0.083418 0.064861 0.054129 0.007142 -0.126713 0.069623 -0.107777 -0.027836 0.035159 -0.123664 -0.085709 -0.056738 0.004297 0.094997 0.109978 0.042368 -0.015117 0.061059 -0.053640 -0.081872 0.106387 0.043494 0.043817 0.043507 0.061478 0.032895 -0.006486 0.003544 -0.105678 0.087568 -0.019602 -0.087510 -0.039632 -0.082334 0.000254 -0.070107 -0.086194 -0.070521 -0.081364 0.017711 -0.015681 -0.134876 0.093134 0.033906 -0.024232 -0.082432 -0.045146 0.064889 -0.015559 0.079837 0.007248 0.016913 0.094777 -0.086457 
say 0.070475 -0.083472 0.104311 -0.055624 0.037627 0.043401 0.047140 -0.047933 0.082507 0.020073 -0.015587 0.099192 -0.045683 0.007551 0.112505 0.088326 -0.013696 0.020083 -0.111513 -0.036473 0.043576 0.052461 0.082635 0.013505 0.081714 0.017245 0.049307 -0.059003 0.091918 0.098595 -0.015015 -0.097101 -0.094585 0.020834 0.047778 -0.064309 0.119040 0.048688 0.093558 0.120034 -0.034078 0.080389 -0.083519 0.087032 -0.065946 0.052041 -0.059573 0.086558 0.055435 -0.070782 -0.092975 0.102724 0.011759 0.034492 0.057280 -0.009677 -0.026577 -0.037907 0.036935 0.097464 -0.054482 0.106605 0.004276 -0.050744 -0.024410 0.040457 -0.112127 -0.006545 -0.027948 0.004281 0.015680 0.104916 0.096290 0.113870 -0.037375 -0.048118 -0.114391 0.057165 -0.088299 -0.064893 -0.094613 0.063825 0.044901 0.087340 0.007788 -0.034897 -0.055805 0.020553 -0.106553 0.085201 -0.070537 0.108838 0.048349 0.105211 -0.079343 0.056354 0.082314 0.031871 0.117849 -0.104830 0.088584 -0.087472 0.085245 -0.053751 0.019397 0.076316 -0.073781 0.112324 -0.111946 0.020744 0.008189 0.087973 0.001766 -0.093346 0.112164 -0.084948 -0.010613 0.073483 -0.036409 -0.097349 0.049061 -0.090708 -0.056765 -0.074748 -0.079072 0.031520 -0.039916 0.000724 -0.055872 -0.015281 -0.020439 0.117988 -0.050966 0.003768 0.052488 0.088791 -0.044938 0.028036 0.007709 0.088284 -0.098726 -0.069236 -0.000263 0.077208 0.125175 -0.032403 0.040877 0.044926 -0.000350 -0.072877 0.107943 0.078918 -0.016600 -0.067354 0.105966 0.085878 0.060707 -0.083668 -0.095612 0.039767 0.072400 0.115932 -0.015712 -0.076350 0.096303 0.074986 -0.085153 0.078679 -0.092438 -0.090006 -0.006270 -0.069446 -0.068577 0.029413 -0.096260 -0.107014 0.011714 -0.046144 0.110436 0.008730 0.027341 -0.031583 -0.084331 0.108493 -0.069589 -0.074952 -0.096930 0.069034 -0.026469 0.013362 -0.010924 -0.092063 -0.039576 -0.025680 -0.088091 0.048788 0.021704 0.081191 -0.089604 -0.101713 
would 0.089673 -0.031409 0.109172 0.077413 -0.035388 0.083836 -0.073566 0.039838 -0.061593 -0.068637 0.064124 0.077087 0.056520 -0.040988 0.117979 -0.040233 -0.087630 0.152432 0.088275 -0.078485 -0.106265 0.050197 -0.015281 0.049599 0.118432 -0.003732 -0.082988 0.032118 -0.045824 0.056231 0.049684 0.038116 0.075477 0.073888 0.109100 0.038271 0.029450 0.124534 0.126213 0.034346 0.070055 0.049561 -0.059004 -0.084081 -0.081577 -0.094332 -0.066604 -0.114994 -0.094775 -0.011177 -0.041157 0.029705 0.098638 0.059375 0.070706 0.085939 0.042963 0.035672 0.081021 0.019299 -0.090209 -0.047785 0.062958 0.031306 0.058032 0.034793 0.010962 0.082956 0.086284 0.089108 -0.080069 0.050216 0.011931 -0.055065 -0.066513 -0.101090 -0.073240 0.055804 -0.087056 -0.091932 -0.093591 0.103773 -0.096370 0.010591 0.076103 0.009519 0.085563 -0.074300 0.013558 0.000990 -0.053698 -0.063564 0.113990 0.107371 -0.012551 0.056794 0.104095 -0.018591 0.068514 -0.013805 -0.052033 0.022091 0.082918 -0.069632 -0.038969 -0.022903 0.076447 -0.079345 0.040704 -0.071830 0.013738 0.008256 -0.097263 -0.120730 0.041593 0.069482 0.031253 -0.125594 -0.015378 0.103570 -0.041621 -0.104016 -0.101322 0.061962 0.062675 -0.072770 0.016968 -0.093867 0.110395 0.131327 -0.028910 -0.012170 0.001326 -0.109028 -0.036912 -0.113036 -0.073215 -0.013004 0.104987 0.001611 -0.092422 -0.037548 0.004848 -0.094451 -0.041234 -0.086002 0.033130 -0.041098 -0.038548 -0.008765 -0.014336 0.090424 -0.097848 -0.028560 0.014409 -0.128223 0.062756 -0.062504 -0.032973 -0.096495 -0.083115 -0.037999 0.071550 -0.007337 -0.113615 -0.030124 -0.055619 -0.071813 -0.070471 -0.051058 0.032739 -0.043029 0.051869 -0.046128 -0.099807 -0.116511 -0.000913 0.098755 -0.092621 -0.108545 -0.013093 0.069335 -0.055317 -0.079362 -0.114013 0.076855 -0.022188 -0.047956 0.073247 -0.054003 0.059408 -0.062223 -0.058130 0.042344 0.065215 0.089203 0.020437 0.012640 0.067455 0.014406 
