63 200 #File: 02_02_Querying_Relational_Databases.txt.bin
</s> 0.099131 0.109451 -0.094860 -0.081184 0.033845 0.074820 0.023301 0.005234 -0.089245 0.054943 -0.107890 0.030946 -0.018608 -0.023706 -0.082118 -0.046614 0.063880 0.074926 0.073532 0.039562 0.038259 -0.094176 -0.101436 0.123078 0.094142 0.076529 -0.014957 0.099452 -0.012259 0.018196 -0.003696 -0.073883 0.032499 -0.033123 -0.094740 0.117742 0.108457 -0.027122 -0.005600 0.012611 -0.090091 -0.099240 0.112803 0.001561 -0.063956 -0.075342 -0.076192 0.042026 0.004988 0.032964 -0.104353 -0.094305 -0.003220 0.028324 0.063147 -0.078509 0.101035 0.022957 0.027730 -0.015067 0.073963 -0.056659 -0.051946 0.053454 -0.018653 0.025527 0.044690 -0.101258 -0.049112 0.072160 0.104807 0.097381 -0.075459 -0.052199 -0.022515 0.049569 -0.093825 0.074246 0.069042 -0.039600 -0.038425 -0.055434 0.104731 0.096882 -0.029219 0.104387 0.119379 0.044959 0.123407 -0.077050 -0.037934 -0.052192 -0.071998 0.069711 0.039113 0.010525 -0.054327 0.037741 0.075769 0.004796 0.056458 -0.122655 0.106863 0.011885 -0.045348 -0.051595 -0.018525 -0.072689 -0.108215 -0.070263 0.105925 -0.043833 -0.066359 0.057392 -0.042196 0.117803 -0.039740 -0.113646 0.067259 -0.001840 -0.086403 0.024167 0.035712 -0.011923 0.045182 -0.098016 0.021820 0.044989 -0.074522 0.003518 -0.001504 -0.059417 -0.070153 -0.116246 0.000567 0.003783 0.000242 -0.097426 -0.122886 -0.117553 -0.107127 -0.013548 0.034457 0.029329 -0.078815 0.123781 -0.049815 -0.031543 -0.034782 0.117206 -0.093213 0.028754 -0.033074 0.078947 0.001005 0.105740 -0.069821 -0.064519 -0.103824 -0.090813 -0.079238 -0.077141 0.060532 -0.046236 0.066374 0.091388 0.033580 0.073075 0.061311 0.057966 -0.087937 -0.085024 -0.090560 -0.003269 0.102298 -0.067776 -0.075792 -0.103926 0.081876 -0.103495 -0.014345 0.053960 -0.114375 -0.110917 0.035734 0.087291 0.105608 0.053137 0.078316 -0.077458 -0.090159 0.098439 -0.068475 0.043424 0.014217 0.044339 -0.029280 0.004924 -0.041758 -0.027900 
the -0.107531 -0.078611 0.085175 0.023537 -0.058522 -0.038146 0.061894 -0.083814 -0.053671 0.113904 0.104476 -0.095367 0.019694 -0.055270 0.002878 0.071949 0.114684 0.050082 0.099496 0.073771 -0.006137 0.109061 0.061474 0.114958 -0.040716 0.114848 0.106650 -0.032592 -0.107315 0.113232 0.021486 -0.049343 -0.016218 -0.014512 -0.093169 -0.033748 -0.010390 -0.119128 -0.083580 -0.029188 -0.020741 0.044153 0.020432 -0.013919 0.071652 0.033511 0.012746 0.087858 -0.027030 -0.035648 -0.013062 -0.066191 -0.073747 0.003391 0.100960 -0.033578 0.000008 -0.098765 0.088530 -0.036877 0.072921 -0.056085 -0.020148 0.004370 0.086465 -0.001977 0.106406 -0.019784 0.050136 -0.003140 -0.094433 0.103235 0.023417 -0.073665 0.072456 -0.099718 -0.104678 0.078581 -0.083304 -0.064504 0.086499 0.079955 0.015975 0.108389 0.118688 0.096139 0.042964 -0.104175 0.058067 -0.119483 -0.028956 0.036636 0.023559 -0.034976 0.071234 -0.107857 -0.033035 -0.033150 -0.040761 0.073284 -0.112687 0.066228 0.030786 0.066082 0.090577 0.006934 0.019588 -0.110631 -0.024016 0.079363 -0.042261 0.101755 -0.028260 -0.093776 -0.062936 0.115724 0.082254 -0.095788 0.116098 -0.102940 -0.113910 0.059383 -0.015900 -0.056815 -0.010215 -0.063103 0.056555 0.090099 0.100823 -0.104979 -0.052582 -0.000753 -0.025206 0.089997 0.052415 0.109338 -0.074912 0.040772 0.102790 -0.044771 0.068598 0.030907 -0.108443 0.100911 0.113392 -0.068647 -0.004030 -0.039825 0.060241 -0.092345 0.083170 -0.023185 -0.028895 -0.049337 -0.104683 -0.076829 -0.028401 0.111411 -0.058659 -0.112599 0.009446 0.015363 0.075303 0.001843 0.085277 0.073111 -0.032015 -0.015813 0.020368 0.030320 0.081097 0.097721 -0.057917 -0.061836 -0.040442 -0.065872 0.032720 -0.092026 -0.054238 -0.118602 0.050622 0.103410 -0.052764 -0.109370 0.071127 0.039059 -0.060453 -0.015710 -0.031000 -0.002828 -0.045215 0.000410 -0.066485 0.090832 0.089132 0.076269 -0.036890 0.006406 0.020789 -0.066084 
to -0.112822 -0.022993 -0.041773 0.071645 0.059030 0.044012 -0.070912 0.082120 -0.034167 0.083014 0.034578 0.115271 0.060787 0.017777 -0.051850 0.118412 -0.054635 0.084312 0.119928 0.113608 -0.021717 0.079645 0.110681 -0.051564 0.113552 -0.116983 0.008552 -0.006610 0.098449 -0.104338 -0.036737 -0.039704 0.009933 0.113750 -0.039398 -0.115811 -0.033287 0.100238 0.025372 0.068564 -0.087675 -0.028661 0.013043 -0.061227 0.087960 -0.118922 0.076553 -0.056368 0.073080 0.074041 -0.045454 0.081769 0.010365 0.112147 -0.089248 -0.032381 0.066255 0.104921 0.055342 -0.023491 0.011406 -0.019719 0.051120 0.062038 -0.091353 -0.034666 0.104710 0.000226 0.116570 0.113676 0.020453 -0.105934 0.108257 0.050249 -0.108430 0.087258 -0.116361 -0.049448 0.103796 0.083161 -0.013763 0.026913 -0.071576 -0.111509 0.055721 0.102575 0.099465 0.063933 0.043347 0.043732 0.001640 0.035985 -0.062065 0.020834 0.023619 0.003907 0.064799 0.020951 -0.098461 -0.029040 0.051795 0.084371 -0.091998 0.021975 0.090734 0.091549 -0.099129 0.063527 -0.062273 -0.031722 0.031453 0.055130 -0.099028 -0.063691 0.027612 0.004007 0.112971 0.048075 -0.065822 0.000133 0.018207 -0.055358 0.078192 -0.067845 0.117393 0.009728 -0.109039 0.006732 -0.009004 0.020618 0.070498 0.003714 -0.008893 0.006630 -0.064034 -0.005774 0.078474 0.084781 0.051748 -0.120694 0.004811 -0.059779 0.084464 0.102933 0.081786 0.040692 0.034560 -0.040159 -0.055873 -0.045826 -0.094132 0.003778 0.021227 0.032928 0.050938 -0.097017 0.074097 -0.036194 -0.098320 0.091825 -0.068769 -0.018655 -0.094468 0.106414 -0.048622 -0.106863 0.091180 0.033837 0.088297 0.032675 0.089520 0.012389 0.085828 0.099314 0.037818 -0.013698 0.032504 0.090683 -0.074785 -0.016180 0.023036 0.051707 0.014632 0.086794 0.033923 0.083866 -0.076655 -0.044593 0.041468 0.113027 0.037688 0.020081 -0.111973 -0.102165 0.098382 0.057226 -0.072479 -0.038475 -0.087639 -0.084427 
of 0.101347 -0.063391 0.031550 -0.028539 -0.055271 -0.013094 -0.104972 -0.061405 0.001463 0.109631 -0.038463 0.086430 -0.108100 0.099568 0.015600 0.005233 0.058033 0.088686 -0.073971 0.070527 0.025734 -0.025566 0.078714 0.012002 0.105742 0.006688 -0.034618 0.079402 -0.082398 -0.015313 0.093102 0.108952 -0.099005 0.033258 0.094363 0.011613 0.060780 0.064114 0.110876 -0.023354 -0.018650 0.076477 -0.119875 0.019806 0.016198 0.095967 -0.087475 0.000312 0.104645 0.026967 0.061585 0.023303 0.034204 0.025194 -0.003582 0.075316 0.093103 0.063482 -0.043147 -0.068076 -0.071008 -0.027292 -0.055505 -0.093684 -0.046765 0.085798 0.067032 -0.122321 -0.050619 0.095901 -0.004976 0.095194 -0.030286 -0.008228 -0.057067 0.039645 -0.102878 0.072654 -0.062503 0.064935 -0.067957 -0.053024 0.097491 0.063499 0.054038 0.034917 0.074006 -0.015919 0.102758 0.086042 0.088174 0.100871 -0.055816 -0.083618 -0.074468 0.013761 0.028993 0.099254 -0.075146 0.078416 0.092683 0.082696 -0.000729 0.025735 -0.009523 0.112862 -0.103174 -0.111341 0.046332 -0.006453 0.115405 -0.029343 -0.005601 0.048561 0.022002 -0.068207 0.088255 -0.003683 0.032071 -0.027303 0.106516 0.061670 0.107459 0.099138 -0.022838 0.037369 0.034047 -0.056244 0.108090 0.056767 -0.082973 0.103432 0.004811 0.021559 -0.087601 0.049207 0.003558 -0.052340 -0.009245 0.045650 -0.028097 0.095579 -0.070878 -0.054020 0.091541 0.116132 0.094880 0.111252 -0.113603 -0.076582 -0.112092 0.024337 -0.094032 -0.008108 0.025914 -0.055596 0.028878 -0.107071 0.048311 -0.043226 -0.042058 -0.025328 0.053856 -0.049751 -0.056946 -0.065163 -0.046902 -0.100074 0.051423 -0.027300 -0.023581 0.053094 -0.087473 -0.083054 -0.118003 -0.002093 -0.035020 -0.115149 0.042821 -0.114317 -0.056190 0.040138 0.117345 -0.086811 -0.045100 0.119731 0.072138 0.109148 0.086225 -0.060150 -0.054245 0.056105 0.068512 0.090165 0.074639 -0.104402 -0.112403 0.019624 -0.098906 0.065968 
a 0.100848 -0.045892 0.098521 -0.121934 0.094833 -0.057904 -0.013855 -0.120521 0.079054 0.105647 -0.091545 -0.022198 0.023700 0.106149 0.005683 -0.118306 0.012730 -0.034869 0.024247 0.091443 -0.074412 -0.059061 -0.004117 -0.023911 -0.039451 -0.083344 0.005876 -0.097021 0.095479 0.057932 -0.033691 0.070559 -0.072129 -0.109911 0.105637 0.033694 0.069750 -0.082546 -0.028791 0.083686 -0.025276 0.027283 -0.110372 -0.102436 0.123880 -0.116988 0.024304 -0.072841 0.091411 -0.016477 0.101046 -0.085916 0.029008 -0.111299 -0.085252 -0.028406 0.104996 -0.061811 0.059410 -0.017033 0.077768 0.063779 -0.059787 -0.084942 0.015481 0.020747 0.019940 0.001238 0.048119 0.091505 0.096106 -0.110515 0.115824 -0.100331 0.017112 -0.093097 -0.023581 0.114476 -0.065102 0.040896 -0.048664 -0.020344 0.088096 0.060804 -0.098746 0.036319 -0.005143 0.046736 0.027660 -0.086200 0.013021 -0.096275 0.072851 0.027273 0.041744 0.070028 0.125443 0.111841 0.059003 0.074090 0.050531 -0.022673 0.103541 -0.010152 0.050278 -0.015846 0.033654 -0.019892 0.098825 0.052424 -0.003168 -0.006447 0.049171 -0.078713 -0.046723 0.036384 0.028624 -0.102363 -0.042283 -0.040532 -0.052803 0.092430 0.099085 -0.108852 0.076930 -0.073161 0.035139 0.050437 -0.002165 -0.091542 -0.001197 -0.037133 0.051277 0.052886 0.019584 -0.055675 -0.022445 0.013983 -0.047395 -0.109613 -0.003868 -0.062881 -0.069177 0.019109 -0.056842 0.069752 -0.029290 0.086118 -0.075104 -0.040128 0.058517 -0.062383 -0.106756 -0.020699 0.077798 -0.038792 0.101073 0.042954 -0.067296 0.111230 -0.118017 -0.093107 0.080990 -0.078450 0.086533 0.100563 0.064726 -0.040765 -0.060572 -0.003833 0.001652 -0.112047 -0.091131 0.014401 0.009332 0.116186 0.083703 -0.087230 0.102816 -0.029742 0.069645 -0.021849 0.052064 0.001230 0.095600 0.069644 -0.048738 0.117249 -0.104978 0.109171 -0.044377 0.020672 0.027552 0.101636 0.043871 -0.027835 -0.113341 0.086614 0.013362 0.057761 
and -0.097325 -0.063862 -0.059923 -0.058029 0.074979 0.061074 -0.006598 0.052903 -0.012327 -0.033117 -0.098023 -0.068474 0.006046 -0.056463 -0.059291 -0.102058 0.073611 0.100248 -0.037269 0.091488 -0.046882 -0.116570 -0.118574 -0.011294 -0.050398 0.004836 -0.088550 0.090458 -0.053679 0.031388 0.086696 -0.006204 -0.113212 0.072298 0.019278 0.079073 0.015784 0.056014 0.104614 0.063847 -0.084703 -0.028763 0.075325 -0.033051 -0.049383 0.107942 -0.034695 0.108479 0.065256 0.093305 0.109718 -0.095276 0.021963 0.096791 -0.060085 0.037309 -0.115242 0.107103 -0.088432 0.043032 0.018932 -0.067819 0.058570 0.000975 -0.114036 -0.077749 -0.006965 0.050475 -0.028347 0.005763 0.110380 -0.090907 0.099002 -0.069599 -0.097788 0.077690 -0.089749 -0.013861 -0.115543 -0.087700 0.071964 0.041171 -0.089756 0.034294 0.105871 0.023945 -0.107041 -0.079786 0.075994 -0.076837 0.047257 0.070923 0.106607 0.028799 -0.075001 0.083471 -0.099796 -0.031970 0.102363 0.097196 -0.057415 -0.089679 0.010702 0.070673 0.056753 0.085391 0.105687 0.022731 -0.115051 0.060162 -0.060820 0.032455 0.093735 -0.056154 0.087358 -0.001835 -0.036173 -0.094092 -0.018425 0.119453 0.041278 -0.064950 0.077502 -0.066885 -0.031672 0.080227 -0.073001 0.000268 -0.070493 -0.031381 0.106246 -0.021783 -0.071419 0.010706 0.046595 0.066554 0.029568 -0.045827 -0.037298 0.043091 0.115727 0.088995 -0.111542 -0.013089 -0.110446 0.042348 -0.081989 0.037354 0.077863 -0.016303 -0.035254 -0.088024 0.021624 -0.098255 0.002302 0.111642 0.086130 0.086465 0.064572 -0.007616 -0.026126 -0.075983 0.004685 -0.065443 -0.070360 0.065899 -0.022956 -0.103264 0.017447 0.018782 -0.044713 -0.102249 -0.120464 0.072637 -0.026692 0.016685 -0.058548 0.095659 -0.115764 -0.089157 -0.034055 0.016296 0.083489 0.020834 0.017035 0.064266 0.062674 -0.116547 -0.022022 0.047511 0.096699 0.059816 0.033305 0.075240 0.038696 -0.033786 -0.054238 0.075902 0.043065 0.043252 
in 0.019928 0.039976 0.087125 0.069062 -0.105148 0.010622 -0.045253 -0.121324 0.009716 0.106454 -0.010754 0.100903 0.111029 0.002354 0.098796 -0.035486 0.027705 -0.054251 0.018623 -0.030806 -0.118916 -0.034075 0.025121 -0.037892 0.109131 -0.059168 -0.029568 0.074264 -0.026123 0.038184 0.004183 0.023123 0.036572 0.013241 0.105810 0.077541 -0.064795 -0.096522 0.069524 0.060450 0.095091 0.068138 -0.017590 -0.119199 0.032018 -0.056592 0.002729 -0.014931 0.052339 0.009488 0.105813 -0.109581 0.048647 0.074449 0.081913 -0.063399 -0.042735 -0.000361 0.033087 0.013733 0.023732 -0.040916 0.104016 0.084278 0.071717 -0.060040 0.024034 -0.090084 -0.017485 -0.007647 0.079838 0.079547 -0.055642 -0.018271 0.117754 -0.015144 -0.039618 0.085530 0.046379 0.077467 0.097576 0.040733 0.096445 -0.109271 -0.010881 -0.101514 0.042715 -0.010545 0.066327 0.015766 -0.007431 0.030490 0.088673 0.077316 0.092960 -0.027263 0.122378 0.066258 0.077194 0.071800 0.049908 0.037754 -0.021232 -0.078568 0.064344 0.099572 -0.102297 -0.085471 -0.092823 -0.062203 -0.012616 0.006549 -0.094026 0.019742 -0.028363 -0.035448 -0.062022 -0.081128 -0.106311 0.119224 -0.061527 -0.013047 0.086718 -0.122404 -0.081568 -0.099884 -0.025852 -0.065118 -0.055603 -0.096281 0.021454 0.061499 -0.117114 0.032857 0.021554 0.091929 -0.057354 -0.072800 0.065399 -0.075880 0.114683 -0.016379 0.058896 0.010032 -0.016828 -0.040290 -0.008568 0.111353 -0.093251 -0.103340 -0.118630 0.078098 0.075416 -0.088086 0.074158 0.044578 0.010751 -0.071213 -0.002762 -0.026681 0.021026 -0.059312 0.109475 -0.119495 -0.016179 -0.007500 -0.045923 0.090092 0.090506 -0.052193 0.121464 0.014432 0.094740 -0.017914 0.024583 0.085440 0.068652 0.089360 -0.105418 0.097037 -0.117080 0.071159 0.004404 0.118502 -0.018571 0.036949 -0.044464 0.052059 0.117228 -0.089611 -0.089169 0.097870 0.113750 -0.070715 0.082159 0.025963 0.096032 -0.104782 0.027915 -0.079473 
that -0.001225 -0.067459 0.078816 -0.078714 0.084175 -0.058141 -0.106699 -0.009970 -0.059544 -0.050855 -0.046844 -0.090130 -0.119121 -0.040305 0.016870 -0.013414 -0.105785 0.126646 -0.024228 -0.118966 -0.011370 0.086776 -0.024277 0.043565 -0.009648 0.112305 -0.037760 0.001939 -0.019997 -0.013279 -0.017227 0.066813 -0.075288 0.099254 -0.085725 -0.077824 0.096196 0.102164 -0.110811 -0.017450 0.051832 -0.013570 -0.123600 0.032743 -0.089150 0.016476 -0.066526 -0.057510 0.083627 -0.117087 -0.110673 0.026402 -0.097944 -0.021878 -0.109726 0.060508 0.114573 0.007102 -0.032055 0.045395 0.126703 0.057632 0.088230 0.061839 -0.127660 -0.003099 -0.094464 -0.030315 0.117146 -0.032536 0.034442 0.070640 -0.068022 -0.027223 -0.045953 0.016547 -0.084821 0.078916 -0.036040 -0.039878 0.044474 -0.115051 -0.056278 0.030017 0.048821 0.058642 -0.005098 -0.077409 0.018212 0.108168 0.124009 -0.067793 0.034079 0.080615 0.085439 0.130176 0.097302 0.089512 0.008651 -0.095717 -0.079224 0.025460 0.037263 -0.058775 0.090948 -0.066586 -0.070638 0.062109 -0.039343 0.081625 -0.061948 0.059062 -0.001773 0.065328 -0.117778 0.092490 -0.010699 0.094332 -0.034417 0.113280 -0.087885 -0.085518 -0.086775 -0.118971 -0.036398 0.032627 -0.028745 0.003856 0.069479 0.115530 0.021420 0.123410 -0.040792 0.032275 -0.032357 -0.078213 -0.005604 0.082235 0.038716 -0.070321 0.023409 0.010998 -0.016305 -0.010356 -0.000877 -0.025035 -0.023706 -0.010043 -0.091185 0.100246 0.075102 0.113700 0.078499 -0.075150 0.089115 -0.072711 -0.086538 -0.038422 0.005781 -0.024457 0.046529 0.101443 -0.069744 -0.085716 0.030565 0.028974 0.026484 -0.037022 -0.058604 -0.058820 0.043746 -0.100958 0.099243 -0.097581 -0.049593 0.001219 0.012230 0.042879 -0.071743 -0.049870 0.103447 0.053727 0.078925 -0.044855 0.026523 -0.111193 -0.097001 0.053470 0.097617 0.087047 -0.088308 0.036054 0.053898 0.055642 -0.029127 0.061398 -0.131902 -0.045914 -0.006853 0.094306 
you -0.118803 -0.007220 -0.071885 -0.085979 -0.057623 0.008146 0.078078 0.078386 0.007586 0.098663 0.044310 0.001174 0.080619 -0.050500 -0.017669 -0.116576 -0.016802 0.034801 0.108349 -0.013139 0.083257 -0.081645 -0.029019 -0.094381 0.081138 -0.047077 -0.092184 0.022807 -0.019366 0.066436 0.074374 0.053938 0.088991 0.004753 -0.041421 0.017977 0.045859 0.059946 0.080093 -0.005419 0.037102 0.099255 0.048222 -0.118666 0.066513 0.050611 0.018484 -0.120725 -0.044184 -0.097366 -0.035672 0.007368 0.072944 -0.052604 -0.080108 0.102508 0.118240 0.052137 -0.019996 0.062280 0.095496 -0.097974 0.057423 0.087720 0.069195 -0.028793 -0.117165 -0.044966 -0.078249 0.066228 -0.024100 -0.013361 0.081790 0.054330 -0.054075 0.080119 0.067580 0.106205 -0.051571 -0.049011 -0.056393 -0.032290 -0.043140 0.103737 0.077804 -0.069081 0.005356 -0.110264 -0.072248 0.105834 -0.054015 -0.065147 -0.017232 -0.065139 -0.065736 -0.045396 0.064572 -0.107857 -0.056356 -0.032045 0.055579 0.026993 0.008260 0.054560 -0.101111 -0.036113 -0.019818 0.112005 0.083820 0.116280 0.014928 0.098566 -0.053430 -0.012732 0.085946 0.033209 0.097837 0.111687 -0.015387 -0.004412 -0.004801 0.114013 0.048518 -0.116710 -0.114787 -0.077823 -0.052341 -0.102648 0.075122 0.010324 -0.101756 0.056738 -0.038183 -0.057760 -0.065587 -0.044418 -0.026078 0.070688 -0.091769 -0.023007 0.115232 0.080838 -0.024781 0.079245 -0.035294 -0.038691 0.108823 0.038543 -0.109720 0.004175 0.100422 -0.065458 0.077819 0.076674 0.044844 -0.092410 0.045592 0.106738 0.097607 -0.084038 0.100844 0.082986 -0.010602 -0.021377 -0.116773 0.054730 -0.002882 -0.067532 0.064128 -0.110790 -0.027167 -0.082157 -0.080945 -0.000122 0.072062 -0.106975 -0.001985 -0.110168 0.025493 0.119740 -0.059342 0.093906 0.110024 -0.050641 -0.067151 -0.006182 -0.065039 0.007753 -0.021618 0.003019 -0.101415 0.010435 -0.101022 0.110131 -0.025656 -0.023629 0.062572 -0.121059 -0.046385 -0.014784 
database -0.072507 -0.091679 -0.062337 -0.065496 -0.023513 0.113220 0.063549 0.022839 0.049521 0.017817 0.079512 0.033696 0.005736 -0.102501 0.014681 0.039089 0.042881 0.111799 -0.035867 -0.060752 -0.075216 0.097780 0.079731 -0.059884 -0.042703 0.090996 0.096688 0.051723 0.011820 -0.101023 0.046011 0.111984 0.044786 0.117868 0.026600 0.029408 0.059154 -0.055167 -0.049176 -0.008606 0.112344 0.097046 0.024066 0.021215 0.089690 -0.106824 0.050413 -0.033956 -0.068635 -0.066401 -0.118737 -0.052132 -0.107652 -0.098571 -0.094517 -0.059372 0.028047 0.027035 0.109155 -0.042504 -0.016619 0.116607 0.036247 0.076173 -0.059553 0.041471 0.015150 -0.051555 -0.092907 -0.030327 -0.030500 0.035140 -0.054943 -0.113062 0.108369 0.088907 -0.059146 0.090150 -0.014386 -0.033801 0.075333 -0.041572 -0.056083 0.034198 0.111247 -0.094975 0.119431 0.019073 0.116955 -0.082937 0.023354 -0.060774 -0.034412 0.050495 -0.082457 0.116160 0.092683 -0.074900 -0.101658 -0.042773 0.016238 -0.049822 -0.117739 -0.094952 0.045173 0.118905 0.083042 -0.013536 0.049994 0.001182 0.059045 0.039552 -0.010835 -0.063352 -0.108863 -0.048838 0.105400 0.098378 -0.016635 -0.065705 -0.027947 0.007228 0.067101 -0.004212 -0.039717 -0.070544 -0.069513 -0.018312 0.016891 -0.001189 -0.084937 0.031891 -0.109326 -0.116406 -0.064736 0.099462 -0.093017 0.062347 -0.038552 -0.036294 -0.065391 0.101024 0.018644 -0.051052 -0.074207 0.111391 -0.017873 -0.052949 0.112931 0.013837 -0.018772 -0.079106 0.086239 0.047563 0.006938 -0.115027 -0.027686 0.014861 0.085919 -0.070524 -0.045996 0.028639 0.075159 -0.060973 0.032101 0.018572 -0.119907 -0.116924 0.034026 -0.036869 -0.031728 0.017618 0.075995 -0.083938 -0.122719 -0.067432 0.111510 -0.004824 -0.041702 0.016087 -0.109009 -0.115023 0.115797 -0.014746 -0.021759 0.049980 0.080867 0.099784 -0.002334 0.052987 -0.110291 -0.042651 -0.092361 0.015655 -0.123121 -0.072564 -0.058526 0.098159 -0.034687 -0.016501 
so -0.073184 0.057457 0.113286 -0.100834 -0.012959 -0.065297 0.114552 -0.011871 0.077686 0.083566 0.079264 -0.077509 -0.067654 -0.050824 -0.094808 -0.111471 -0.120427 0.011549 0.050407 -0.099006 0.035842 0.047715 0.078664 0.048106 0.120260 -0.042908 0.066274 -0.006492 0.104932 -0.106125 -0.063066 -0.078383 0.072611 0.105283 -0.091223 0.097804 -0.074722 -0.089596 0.006299 -0.112194 0.052162 0.119818 0.081346 -0.104958 -0.002564 -0.046100 0.062754 0.097202 0.041400 -0.100814 -0.084634 0.012261 0.102566 -0.009494 -0.102473 -0.023338 0.105351 0.086024 -0.091857 -0.111730 0.052211 -0.105724 0.049716 -0.063214 0.003914 0.109531 0.082158 -0.113875 0.101019 0.065271 0.033020 0.103702 0.036910 0.105502 -0.007498 -0.040837 0.048019 -0.058107 -0.120846 -0.089095 -0.017019 0.003650 -0.078374 -0.026892 -0.059437 -0.105799 -0.111398 -0.015231 0.108918 -0.057154 0.123654 0.093528 0.005409 0.085774 0.053884 0.027366 -0.038162 0.075883 -0.093673 0.009950 0.065334 -0.053291 -0.057234 -0.100885 0.054981 0.062160 0.032486 0.081578 -0.100636 0.110321 0.083511 0.031194 -0.075450 0.059526 0.048786 -0.000235 0.031175 -0.016154 -0.010181 0.074300 0.109309 -0.013276 -0.007429 -0.099980 -0.022672 -0.018060 -0.047361 -0.064496 -0.079639 -0.012371 0.101040 -0.041841 0.030195 0.011837 0.000274 0.021546 0.064541 -0.032061 -0.022820 0.043090 -0.002822 -0.013423 -0.079529 -0.011050 -0.096937 0.080970 0.088418 0.100096 -0.114811 0.038407 -0.009992 -0.013093 -0.094650 -0.009879 -0.004808 0.017030 -0.034635 0.082151 -0.005471 -0.066845 -0.116368 0.089889 -0.032123 -0.038177 0.023904 0.054884 -0.048839 -0.028291 0.108788 0.062851 0.045308 0.089978 0.111846 0.054491 -0.101745 0.020218 0.122172 0.034418 0.001104 0.035353 -0.005703 0.049478 -0.105963 -0.022444 -0.050044 -0.046686 -0.107570 -0.008956 -0.041108 -0.090126 -0.079952 0.014162 0.104987 -0.077117 -0.043762 0.064996 0.024865 0.034087 0.040721 0.002373 
query -0.088143 0.113185 0.018619 -0.044199 -0.001838 0.090229 0.032359 -0.112764 0.122119 -0.027295 0.075557 0.048295 -0.105309 0.010676 -0.078846 0.044593 -0.007688 0.107396 -0.071208 0.008484 -0.028358 -0.077522 0.000175 -0.086142 0.117778 -0.060031 0.088199 -0.000530 0.051957 -0.043282 0.007623 0.095525 -0.024489 -0.110669 0.101454 -0.088948 -0.093339 0.083737 0.036895 0.066180 -0.100856 0.081066 0.016854 -0.107726 0.051813 -0.096012 0.085614 -0.043666 0.073744 -0.052989 0.085733 -0.124473 0.017429 0.115248 -0.069178 -0.114607 -0.093597 -0.091509 0.107638 -0.003811 0.091625 0.095327 -0.101979 0.050504 0.051809 0.083870 0.111226 -0.084484 0.059400 0.026163 -0.039578 0.102264 -0.086211 -0.085059 0.102788 0.061496 -0.046430 0.038766 -0.101029 -0.066956 -0.059221 0.018866 -0.079424 0.061798 0.059564 0.035005 0.048411 -0.055757 -0.053839 0.074197 0.041051 0.074673 -0.098526 -0.036412 -0.090697 0.074351 -0.058904 0.018522 -0.005765 0.035878 -0.000314 -0.074857 -0.019282 -0.059294 -0.034728 -0.053259 0.094817 0.063314 -0.100364 0.113951 0.113818 -0.016755 0.019743 0.031179 0.107405 0.079130 0.133267 -0.087636 0.031782 0.081486 -0.028130 -0.035012 0.086455 -0.017624 -0.034956 -0.016840 0.040871 -0.089632 0.038896 0.115157 0.018234 -0.026413 -0.063757 0.001650 -0.070212 0.105166 0.001661 -0.068514 -0.015763 -0.107099 0.084151 -0.113593 -0.049365 0.103235 -0.076652 0.020138 -0.013668 -0.059840 -0.047020 -0.009516 -0.079026 0.038450 0.032930 0.045741 0.035985 -0.018039 0.045692 -0.010769 0.088304 0.068804 -0.084210 -0.054856 -0.052886 -0.038630 -0.096071 0.075462 -0.001897 0.103623 0.079051 0.097465 0.000876 0.051055 0.060618 0.086816 -0.069889 0.069401 0.067170 -0.070954 -0.048787 0.089570 0.035081 0.017268 -0.059818 0.074526 0.112065 0.082762 0.104379 0.060440 -0.109733 -0.043097 0.012911 0.082347 0.050785 -0.026297 -0.002431 0.057242 -0.124133 0.071111 -0.017382 -0.048324 
relational -0.084512 -0.011625 -0.101504 0.025170 0.042044 0.029298 0.069293 0.109849 -0.044483 0.053979 0.083247 0.102652 -0.091982 -0.011276 0.099383 -0.039086 -0.034514 0.070130 0.090550 -0.047737 0.007682 0.100387 0.091656 -0.090084 -0.023575 -0.056260 -0.048567 -0.022617 0.123829 0.022965 0.077142 0.112000 0.019363 0.078191 -0.054839 0.084925 0.039256 -0.088395 0.086868 -0.022389 -0.122905 -0.116076 0.102762 -0.066434 0.033226 -0.078547 -0.096368 -0.089872 0.077119 0.012556 -0.041203 -0.073312 -0.111466 -0.040578 0.054930 0.064699 -0.094239 0.122765 0.040764 -0.028798 -0.115557 -0.067577 0.075323 0.100001 -0.109481 0.121462 -0.116777 -0.025980 0.051983 -0.004398 -0.004159 -0.077054 0.062422 -0.084441 0.013674 0.090289 -0.074286 0.055873 0.095747 -0.063085 -0.043968 -0.091561 -0.033325 -0.021314 0.033135 0.020147 -0.090399 0.048820 0.098845 0.007011 0.021492 0.042593 -0.091194 0.043571 -0.035097 -0.082660 0.025423 0.118189 -0.039082 -0.059313 0.080225 0.033056 0.044446 -0.054146 0.015030 -0.099349 0.064218 0.076350 0.081952 -0.104485 -0.068975 0.041275 0.098694 0.006011 0.114186 0.108258 -0.054983 0.034328 -0.096095 0.110515 0.059210 0.092948 -0.106383 -0.056676 -0.051317 0.108175 -0.005886 0.060487 -0.072392 0.068373 -0.069990 -0.015071 0.123981 0.023965 -0.015553 0.046336 -0.016848 0.087433 0.006159 -0.108250 0.005470 -0.063153 -0.094065 -0.025026 0.008636 0.057040 -0.095141 0.067168 0.120648 0.001966 0.037840 0.001549 0.035090 -0.115894 -0.094626 -0.078373 0.004076 -0.122000 -0.085278 0.032972 0.093543 -0.027988 0.038734 0.106743 -0.064983 -0.031669 0.064081 -0.023844 -0.033211 -0.020564 0.087732 0.032957 -0.055498 -0.068365 0.020477 -0.013753 -0.065907 0.061525 0.083399 0.103652 0.063559 -0.076941 0.063172 -0.029844 0.026484 -0.123045 0.056763 -0.022496 0.074982 0.097751 -0.025037 0.083031 0.026757 0.077342 0.038855 0.057896 0.009803 0.114387 0.035113 -0.016450 
is -0.036252 0.071252 0.066519 0.000060 -0.094727 -0.118140 0.029486 0.067692 0.127297 0.018549 -0.088145 -0.034223 0.015140 0.048687 -0.021689 0.016083 0.028656 0.080993 0.094208 0.105876 -0.084996 0.025062 -0.066303 -0.039749 -0.017338 -0.107777 -0.068071 0.081319 0.096398 -0.036152 -0.100102 0.063830 -0.023722 0.116848 -0.071546 0.048790 0.112671 0.033987 -0.076058 -0.009269 0.082944 -0.064865 0.110094 -0.089243 0.001029 0.115060 0.033686 -0.104718 0.055771 -0.034146 0.032225 0.064955 0.019527 -0.096800 0.009380 -0.085307 -0.052656 -0.103405 -0.038475 -0.057528 -0.038531 0.013570 -0.098265 -0.018721 0.007384 0.118461 -0.063435 -0.076484 0.102359 -0.113306 -0.036334 -0.001467 0.049666 0.044437 -0.031423 -0.062548 -0.020501 -0.085876 -0.026186 0.089461 0.095287 0.070387 0.101296 0.112056 -0.105744 -0.017439 -0.000187 -0.048914 -0.070250 0.112643 -0.104193 -0.115360 0.076027 0.029360 0.044084 -0.018909 0.061286 0.079990 0.070729 -0.112353 0.098994 -0.058641 -0.109354 0.057945 0.044845 0.107519 -0.035180 0.033949 -0.012595 -0.097094 0.072598 0.120824 -0.103558 -0.117670 0.068376 -0.011268 0.026937 0.011824 0.118411 0.070746 -0.082604 0.030744 -0.046971 -0.112895 -0.033383 -0.016064 0.072895 0.042256 0.121647 -0.015575 0.098736 -0.073511 0.114237 -0.053250 -0.042387 -0.034548 0.040150 -0.111898 0.090816 -0.039479 0.008952 0.067408 0.045551 -0.017192 -0.029047 -0.102020 -0.059327 -0.061436 -0.085468 0.003484 -0.110403 0.008847 -0.073191 -0.090964 -0.095115 -0.021499 0.116244 -0.103402 0.000728 -0.057776 -0.055103 0.088260 0.029745 0.015605 -0.097316 -0.071901 -0.081647 -0.053596 0.064263 0.102142 0.110556 -0.028440 0.050157 -0.037706 -0.089027 -0.075864 0.061014 0.092574 -0.078004 -0.044834 0.076966 -0.050705 0.041398 0.017673 -0.044955 -0.019652 -0.007375 -0.087171 0.036397 0.015994 0.056720 -0.073190 0.038386 -0.085902 0.094648 -0.030252 -0.056318 0.081602 0.019181 -0.000414 
language 0.091236 0.031498 0.035333 0.045549 0.090764 0.053575 -0.064007 -0.065794 -0.086963 0.020062 0.065404 0.058353 0.013616 0.081138 0.086440 0.119080 -0.008996 0.015734 -0.019710 -0.098667 -0.032312 0.083588 0.024269 -0.027030 -0.097684 -0.076828 0.061981 -0.014929 0.016002 -0.053425 0.003194 -0.109040 -0.103288 -0.084213 0.082145 -0.034013 -0.078519 0.094169 0.078316 0.026744 0.025251 -0.111553 0.086706 -0.017508 -0.029670 -0.076074 0.022546 0.049570 0.047463 -0.016465 0.095753 -0.026675 -0.072453 0.098162 0.101434 0.098278 0.024856 -0.105397 -0.086576 0.073328 0.093090 0.022743 -0.103725 0.103977 -0.040155 -0.007796 0.033571 -0.057600 -0.002415 0.096154 0.121422 -0.043014 -0.095201 -0.050324 0.009106 0.000922 -0.079741 -0.014760 0.092331 0.052906 0.125671 -0.075039 0.119588 -0.115936 -0.100996 0.074086 0.100874 0.061749 -0.074265 0.057849 -0.097841 0.000455 -0.057427 0.051969 -0.085765 -0.094094 0.049423 0.031854 0.109530 0.022252 0.100160 0.047621 0.045748 -0.052807 0.057213 -0.017718 0.064631 0.082590 -0.098416 -0.011386 0.069144 -0.107265 -0.040511 0.055756 0.020501 0.109655 0.126098 0.004059 -0.022589 0.101913 0.062247 -0.057352 0.027505 -0.004440 0.048620 0.018846 0.064701 0.013514 -0.104270 0.016535 0.088246 -0.081755 -0.043163 -0.048518 -0.121964 0.030301 -0.036963 -0.041184 0.020202 -0.002619 -0.106277 -0.056864 -0.078915 0.045542 0.070104 -0.089124 0.077000 -0.073029 0.119085 -0.107768 -0.003884 -0.033076 -0.011914 0.017195 0.044888 0.074493 -0.071412 -0.037861 0.121772 -0.036742 -0.001625 -0.039297 -0.033634 -0.115181 0.088575 0.067345 0.083109 -0.070144 -0.099390 -0.112616 0.106810 0.002268 -0.094894 0.089310 -0.083785 0.031385 -0.050171 -0.056802 0.008176 0.059080 -0.121788 -0.022915 -0.091360 -0.082404 -0.073310 0.056048 -0.044419 -0.002352 0.060951 0.097870 0.061032 -0.002120 -0.120004 0.104633 -0.035071 -0.056788 -0.015363 0.122493 -0.053141 -0.083134 
data 0.086394 0.016928 0.086617 0.068699 -0.074712 -0.040346 0.060720 0.098986 0.074881 -0.059058 0.088121 0.028326 -0.089664 0.011878 -0.047319 -0.060754 -0.124280 0.034919 0.004152 -0.022853 -0.025037 -0.064600 -0.099358 0.098801 0.023364 -0.046962 0.117656 0.072352 -0.100901 -0.112586 -0.063959 -0.019676 0.046236 0.103998 -0.042944 -0.031880 -0.034309 0.025110 0.090316 -0.007487 -0.024224 -0.109532 0.056805 0.073150 -0.045331 0.002667 -0.108108 0.041052 0.094929 -0.027344 -0.054672 0.041620 -0.102528 -0.022723 -0.124779 0.031626 -0.067881 0.004740 -0.094430 0.030721 0.077045 0.106131 0.071742 0.121428 0.021798 -0.107597 -0.031032 -0.053862 0.021813 0.043408 0.009878 -0.035364 -0.107609 0.044345 -0.084544 -0.054937 0.014721 -0.053701 -0.027424 -0.030053 0.078350 0.114743 0.027977 -0.066818 0.087208 -0.028004 -0.008727 0.043047 0.108100 0.009283 0.086463 0.067685 0.019204 0.026185 0.097408 0.089622 0.013079 -0.114843 0.122353 0.002752 0.093655 0.014549 0.070913 0.015355 0.076232 -0.100444 -0.084422 -0.104427 0.090493 0.094281 -0.056775 -0.022562 0.077491 -0.041835 0.000591 -0.096660 0.041155 -0.080442 -0.002709 -0.118443 0.048293 -0.033330 -0.094185 -0.068261 -0.022919 -0.100920 0.013040 -0.115096 0.020079 0.082261 -0.085803 -0.113546 -0.070291 -0.061468 0.021913 -0.106837 0.024285 -0.040883 0.057174 -0.075322 -0.069524 -0.056403 0.055347 0.063525 0.092350 0.005937 0.114678 -0.047906 0.010822 0.071469 -0.106726 0.050170 0.004206 -0.123102 0.118147 -0.125611 -0.049322 -0.023675 0.070145 0.010289 0.042798 -0.019300 0.099020 0.100260 0.032989 0.066864 0.114386 0.101073 -0.011943 -0.028480 0.088735 0.032379 0.037686 -0.002736 0.057435 -0.023299 0.122929 0.006551 0.118730 0.079444 -0.003792 -0.075284 -0.069270 0.045872 -0.024162 -0.008524 -0.031062 -0.104366 -0.060006 0.006413 0.017216 -0.037237 0.081236 0.083489 -0.077698 -0.110353 -0.099519 -0.103468 0.096825 -0.115434 
as -0.033943 -0.066140 0.010734 -0.034341 -0.095070 0.003946 -0.052833 -0.032976 -0.086062 -0.041831 0.013335 0.035440 -0.002810 -0.018501 0.114699 0.125693 -0.038503 0.061604 -0.040582 -0.004733 -0.057498 -0.011147 0.110620 -0.006451 -0.121450 -0.117553 -0.118135 0.009558 0.036817 -0.072643 -0.032185 -0.001923 -0.038953 0.111250 0.076629 -0.020339 0.049951 -0.038571 -0.017766 0.040627 -0.021194 0.123228 0.050457 0.069994 0.014788 -0.007583 -0.076308 0.022547 -0.035292 0.082799 0.099300 -0.081161 -0.035790 -0.078327 0.088141 0.108256 -0.048362 -0.108689 -0.007025 -0.046319 -0.068898 -0.086387 -0.017670 -0.063964 -0.027521 -0.023751 0.027432 0.075870 -0.051653 -0.130414 -0.097791 -0.066630 0.060115 -0.024105 -0.027513 -0.076312 0.048827 -0.045989 -0.119339 0.001610 -0.015639 0.054668 0.124091 -0.075381 0.002360 0.068235 -0.049429 0.042104 0.041168 0.113916 -0.011007 -0.019986 0.104896 0.113611 -0.118247 -0.043798 0.000353 0.054989 0.126211 -0.008779 0.126251 -0.008514 -0.029841 -0.091678 -0.105201 0.042304 0.042493 0.122658 0.099308 0.129346 -0.014395 0.062881 0.020456 -0.022788 0.033791 0.012608 0.056952 -0.097594 -0.039025 0.058160 -0.115927 0.024129 -0.130080 0.088555 0.032065 0.001216 -0.070849 0.058578 0.044669 0.084404 0.109898 -0.011219 0.057530 0.064061 -0.076982 -0.034517 0.008992 0.059388 -0.002593 -0.122297 -0.096836 -0.007711 -0.024542 -0.056707 0.072992 0.113498 0.091465 -0.080262 0.127985 -0.049682 0.119355 -0.106642 0.006487 -0.114984 -0.101179 0.016237 -0.024325 0.102564 0.124525 -0.019906 0.105426 0.064494 -0.021507 0.068549 0.005250 0.087310 0.023852 0.104852 -0.123441 0.027147 0.100296 -0.021977 -0.013471 0.068974 0.113286 -0.094086 -0.121097 -0.062608 0.034047 -0.090923 -0.047607 -0.051095 -0.100424 0.073831 -0.117725 -0.040354 0.075698 0.026128 -0.064274 -0.108481 -0.058260 -0.016181 -0.080442 -0.004741 -0.004937 -0.032542 -0.030587 0.061235 0.009594 0.063362 
are 0.021789 -0.050168 0.081211 -0.094507 0.079590 0.088808 -0.117121 -0.045409 -0.032890 -0.023021 0.114871 -0.017862 0.051911 -0.093878 0.083742 0.067708 0.034637 -0.013873 -0.115774 0.108991 -0.080922 -0.097519 -0.085800 0.064303 0.012167 -0.113668 -0.095376 -0.047407 -0.046079 -0.013059 -0.110400 0.095950 -0.069984 0.071682 -0.036139 -0.092967 -0.055759 0.068559 0.040254 0.071704 0.061014 -0.033797 0.092253 -0.118634 -0.079649 0.056392 -0.088553 -0.099377 -0.049557 -0.036017 0.077599 0.027165 -0.087435 0.102011 0.018525 -0.023206 0.113650 -0.025922 -0.049786 0.010972 -0.048802 0.114475 -0.093230 -0.033242 0.095917 -0.094455 -0.017074 -0.015642 0.066564 0.002838 0.091528 0.022088 -0.072441 -0.090044 -0.036465 0.098896 0.046463 -0.081326 0.118083 0.051840 -0.118593 -0.103632 -0.077644 0.021126 -0.078791 0.013555 0.016748 -0.034929 -0.012226 0.016352 -0.110297 -0.097378 -0.036368 -0.045979 0.060355 -0.086647 0.034459 -0.063549 -0.104110 -0.105046 -0.038470 -0.108354 0.036701 0.048258 0.051777 0.050752 -0.028768 -0.092819 -0.054782 -0.021999 -0.023898 0.036328 0.070043 0.025796 -0.096472 0.090873 -0.054989 -0.120373 -0.091128 0.029134 0.119570 0.013155 -0.034392 0.112573 -0.008778 -0.009388 0.107840 -0.064266 -0.011842 -0.078114 -0.054730 -0.118664 0.114168 -0.022503 0.118290 -0.092301 -0.051363 -0.096439 0.115344 0.033767 0.101645 -0.008145 -0.029463 0.096601 0.031321 0.109753 0.021115 -0.006110 -0.016031 -0.057258 -0.062590 -0.073532 0.024009 -0.035514 -0.064588 -0.086721 0.033971 -0.018269 0.049224 0.033900 -0.042985 0.104365 -0.111451 -0.056495 0.039447 0.017877 0.093778 0.085441 0.103170 -0.046586 -0.089160 -0.006376 0.030714 -0.039762 0.101386 -0.009854 0.007756 -0.094277 0.032601 -0.027306 0.038085 -0.039614 0.102363 -0.100413 -0.056396 0.112861 0.041631 0.032287 0.091876 -0.072622 -0.115492 -0.034663 -0.058971 -0.001143 -0.031758 0.081459 -0.020116 0.012785 -0.036835 0.096453 
algebra 0.029452 -0.040963 0.082759 0.028406 -0.024323 -0.113414 -0.112958 -0.039332 -0.000632 -0.098286 -0.060189 0.026481 0.104201 -0.065458 -0.078909 -0.049992 0.117318 -0.025964 0.040521 -0.014981 -0.075295 0.068008 0.095818 -0.026632 -0.058041 0.087733 -0.056454 0.051134 -0.062624 -0.036667 -0.030120 -0.057520 -0.026521 -0.080845 -0.086307 -0.098824 -0.063745 0.003013 0.043466 0.004457 0.005919 0.086182 -0.019618 -0.082360 -0.049234 0.098781 0.110616 0.071032 0.068701 0.029778 -0.062344 0.012258 0.010330 -0.073015 -0.034631 0.053936 -0.044134 -0.102940 0.050319 0.096763 -0.091013 0.105505 0.107915 0.100283 -0.067782 0.070522 0.112412 0.082885 -0.088455 0.075306 0.096910 -0.113579 0.027182 -0.008868 -0.082026 -0.117645 0.047424 -0.016496 -0.038222 0.030231 0.034796 0.041387 -0.032806 0.113054 0.110666 -0.022789 -0.032677 -0.027322 -0.015516 -0.102366 0.054112 -0.019434 -0.104690 -0.031840 -0.092413 0.096260 -0.094331 -0.057628 -0.027232 0.102768 -0.098454 0.103465 0.047374 0.077325 0.063156 0.087331 -0.012032 -0.079372 -0.076588 0.059474 -0.054658 0.062987 0.015602 0.008861 -0.106248 0.052025 -0.009669 -0.016698 0.101680 -0.035022 0.027814 0.089457 -0.045075 -0.062075 -0.103655 0.022064 0.075044 -0.069588 -0.106169 0.005470 -0.034473 -0.039174 -0.093742 0.087489 -0.105142 0.106403 0.113841 -0.095987 -0.045018 0.032458 0.049493 0.091311 0.061310 -0.066083 0.011120 -0.067800 -0.047288 0.064553 -0.115292 -0.054740 -0.102326 0.030834 0.085855 0.001764 -0.011860 -0.031158 -0.087909 0.031833 -0.095861 0.073503 -0.103296 0.024434 0.090689 -0.107559 -0.074318 0.027379 0.110127 -0.026345 -0.056145 -0.088057 0.054399 -0.017538 -0.045097 0.079013 0.074297 0.113787 0.021349 0.046788 -0.091307 -0.084745 0.029179 0.098465 0.061453 -0.065135 -0.076775 0.105318 -0.081624 0.073316 -0.057452 -0.002532 0.101019 0.054769 -0.085711 -0.000736 0.112871 -0.102387 -0.040183 -0.076865 -0.012966 -0.085535 
queries 0.024740 0.114725 0.052484 0.006218 0.113987 0.023313 -0.016204 -0.106908 0.047790 0.121043 -0.003018 0.077325 -0.048546 -0.028749 -0.116798 -0.090385 0.011035 -0.072934 -0.019601 0.016482 -0.012682 -0.083658 -0.041775 0.113145 -0.055147 -0.072312 0.033113 -0.024425 0.008944 0.010468 -0.003775 -0.073476 -0.120380 0.031782 -0.057513 0.106485 0.046707 -0.080514 0.027581 -0.012337 0.088727 -0.094797 -0.018088 0.075070 -0.112029 0.038293 0.082668 -0.037582 0.116523 -0.057153 -0.061250 0.033213 0.049140 0.032746 -0.051149 0.002674 -0.006615 0.053586 0.086391 -0.110216 0.074562 0.054728 -0.100482 0.017298 -0.007298 -0.096726 -0.030814 0.039680 -0.005384 0.013108 -0.034952 -0.084837 -0.098161 -0.113190 0.103537 -0.094256 0.082690 0.059771 -0.067198 0.091163 -0.005814 -0.086936 0.033796 -0.117128 -0.116864 0.103586 0.076172 -0.031856 0.057105 -0.109096 0.033351 -0.120064 -0.087644 0.053422 -0.060494 -0.058999 0.120973 -0.027785 -0.110434 0.048817 -0.042287 0.061165 0.039209 -0.081396 -0.026847 0.065867 0.118844 0.055373 0.049585 0.035683 -0.080369 0.052837 -0.112963 0.080729 0.022523 0.051487 -0.024666 -0.114154 0.097174 0.009556 -0.107001 -0.074329 0.117005 -0.053971 0.008351 0.006552 0.116189 -0.059355 0.021418 -0.004409 -0.053359 -0.109118 -0.064002 0.063657 0.007053 -0.002013 0.059656 -0.043655 0.027833 0.037930 0.031667 -0.033970 0.043155 0.090452 0.038090 -0.040185 -0.095068 0.053029 0.082720 0.108569 0.011858 -0.116104 -0.012904 -0.085127 0.094341 0.088064 0.119534 -0.085883 -0.056459 0.016230 -0.062949 -0.026598 -0.102603 0.051902 -0.070528 0.020584 0.111591 -0.089702 -0.081667 0.044271 0.073517 0.096429 0.028938 0.093826 0.060360 -0.039005 -0.038683 0.036350 -0.075964 -0.112500 -0.037719 0.042714 0.063238 0.077191 0.096381 0.101524 -0.034641 0.063026 0.002892 0.019130 -0.092413 -0.075256 0.110887 -0.094352 -0.015151 0.045851 -0.061866 -0.068055 0.109811 -0.101450 
get 0.034946 0.085977 0.012784 -0.012052 0.041084 -0.066450 -0.028535 -0.091821 -0.099508 0.066811 0.079231 0.040617 0.099287 -0.068187 0.008236 0.102633 -0.021992 -0.000401 -0.026724 0.113069 -0.097815 0.077984 0.008265 -0.090113 0.056466 0.035074 -0.033761 0.114865 -0.037728 0.040447 0.001700 -0.036973 -0.075161 0.082797 0.088269 -0.044436 0.068522 -0.030062 0.018687 -0.069564 0.095622 0.052326 -0.112837 0.027074 0.009907 0.017189 0.089373 -0.037150 0.116613 0.094397 0.116591 -0.002219 0.057747 0.091762 0.002731 -0.030173 0.017959 0.118567 0.083176 0.018419 0.001016 0.103214 0.030081 0.102103 0.070981 0.034397 0.058240 -0.001454 0.111034 -0.038894 -0.039605 0.028060 0.064651 -0.007378 0.071930 0.088899 -0.064401 0.057346 0.064997 -0.101565 0.029116 -0.097201 -0.086783 -0.042140 -0.012792 0.060319 -0.108318 0.105135 -0.005476 -0.084335 0.094599 -0.002661 0.054833 -0.120414 -0.047053 0.075371 -0.008979 -0.059223 -0.077303 0.116896 -0.072556 -0.092947 0.037765 -0.040123 0.048753 -0.112304 -0.089992 -0.015084 0.117540 0.052282 -0.064894 -0.090614 -0.043307 -0.092844 0.086680 -0.006694 -0.068257 -0.016343 -0.083706 0.074635 -0.013837 -0.091283 0.000508 0.051627 -0.117452 0.093087 0.011474 -0.117169 -0.073866 0.043112 -0.077185 0.069439 0.000103 0.048956 0.009620 -0.032940 0.047929 -0.021274 -0.116252 -0.043700 0.073380 0.001998 -0.059123 -0.004295 -0.100656 0.107468 -0.086547 0.104119 -0.108649 0.102949 0.076567 0.119502 -0.007125 0.097723 0.042078 -0.059893 -0.033488 0.020192 -0.035512 0.006834 0.117496 0.100226 0.058594 0.097348 0.087835 -0.095537 0.117136 0.049611 0.062178 0.024535 -0.006852 0.003051 0.044293 -0.093506 0.082308 -0.083783 0.098242 0.021385 0.117062 0.049125 0.107207 -0.064154 -0.109849 -0.001439 0.014661 0.000335 -0.021867 -0.096045 0.065549 -0.097922 0.053162 -0.034971 0.082757 0.112120 0.088858 -0.040550 -0.050534 -0.044076 0.119138 -0.033647 
now 0.085945 0.027424 0.001958 -0.114556 0.024484 0.005233 0.119224 -0.086455 0.071532 -0.105007 -0.020778 0.065041 0.092873 -0.036139 0.077914 -0.045276 0.047549 0.104054 0.051152 -0.059916 -0.060908 -0.014442 0.037970 0.000969 0.061896 0.078609 0.017437 -0.098722 0.061825 -0.041859 0.015439 -0.042691 -0.104254 -0.016845 -0.104507 0.082873 0.032107 0.060315 0.049490 -0.017268 0.063116 -0.040832 -0.032627 -0.075420 0.102540 -0.052771 -0.075969 -0.012398 0.098206 -0.090723 0.008660 0.052976 0.066653 0.009694 -0.090749 0.102489 0.059858 -0.001042 0.070795 -0.089282 -0.037874 -0.075573 0.049918 0.028349 -0.046187 -0.105819 -0.068644 0.105571 0.044970 0.069107 0.112136 -0.103081 0.058324 -0.027675 0.093404 0.093281 -0.115301 -0.110952 -0.096601 0.085950 -0.066061 -0.077427 0.115943 0.006977 -0.024243 -0.000782 -0.071837 0.047823 0.073628 0.110911 0.032700 -0.002479 0.107116 0.080144 -0.022431 -0.065396 0.028916 -0.003189 0.093887 -0.019780 0.076294 0.035158 0.068751 0.102781 0.084725 -0.050185 0.112439 0.096138 -0.084968 0.025827 0.021288 0.029101 0.009591 -0.114889 0.111172 0.028483 -0.105110 -0.059764 0.076570 0.065922 0.093801 -0.049800 0.117731 -0.079790 0.027279 -0.053495 0.033305 -0.093750 0.118656 0.056959 -0.077981 -0.076824 -0.118734 -0.046280 -0.067734 -0.071605 0.107972 0.117252 0.036394 -0.058807 -0.035768 0.106303 0.025287 0.042741 0.110481 0.042893 0.010895 -0.112083 0.065771 0.078044 0.119743 -0.080459 -0.104059 -0.022456 0.101521 -0.087216 -0.035031 0.017030 -0.004388 -0.046820 -0.017022 0.074616 -0.113289 -0.063848 -0.051504 0.074672 -0.078122 0.053654 -0.073725 0.003446 0.087102 0.098958 0.032484 -0.089332 -0.070535 -0.108403 -0.015712 -0.086284 0.028010 0.061747 0.007878 -0.065052 0.056656 0.086660 -0.049369 -0.037627 -0.016578 -0.008603 -0.083891 0.038665 0.082490 0.085981 0.097342 0.042252 -0.029788 0.027619 0.021607 -0.098211 0.051081 0.019749 
sql -0.020800 0.081160 0.043850 0.082766 0.109048 -0.089482 -0.022750 0.049504 0.114785 -0.014365 -0.039333 0.068537 -0.029360 -0.014593 -0.109430 0.094189 0.014997 -0.087967 -0.001052 -0.099187 -0.116611 0.019394 0.078344 0.042509 0.004672 -0.030957 -0.033750 -0.045066 0.108317 -0.078201 0.065508 0.059110 0.053449 0.116096 0.117294 -0.088414 -0.035348 0.110283 -0.091656 0.051677 0.016213 0.007451 0.008467 -0.089137 -0.036358 -0.024942 0.095017 -0.064340 0.106321 0.018780 -0.089361 -0.125239 0.114442 -0.053696 -0.057669 0.071922 -0.086916 0.080994 0.086800 -0.047501 -0.017702 -0.098123 -0.015310 -0.058145 -0.088260 0.105013 0.101803 0.039065 0.074475 0.013330 -0.018441 -0.096912 -0.074517 -0.016095 -0.038135 0.078065 -0.061044 -0.050583 -0.049416 0.085926 -0.025729 0.113639 -0.044904 -0.060326 0.113341 0.070602 -0.026753 -0.048420 0.079982 -0.072350 0.116271 0.031983 0.099626 0.086893 0.039257 -0.100266 0.031628 0.056867 -0.030195 0.028786 -0.040207 0.115502 -0.063938 0.035466 0.107014 -0.078763 0.046657 0.069848 -0.047268 0.105378 -0.033344 0.074771 0.071284 -0.087566 -0.106482 0.074141 0.129941 -0.090557 -0.116073 -0.088913 0.006630 -0.045180 0.029212 -0.067879 -0.005434 -0.033109 -0.020275 -0.084923 -0.083846 -0.050583 -0.032926 0.085441 0.092129 -0.072556 0.038508 0.024535 0.039845 0.046826 0.032949 -0.101338 -0.021299 -0.041371 0.089124 -0.101796 -0.022443 -0.077237 -0.017587 0.044514 -0.098916 -0.049900 -0.073155 -0.073445 -0.038180 -0.056977 0.072748 -0.077901 -0.089185 0.048434 0.061837 0.012609 0.038679 0.040576 0.114482 -0.050469 0.008718 -0.036682 0.032955 0.083564 0.013812 -0.109037 -0.091826 0.049695 0.024639 0.019746 -0.131306 0.034824 0.130562 0.099386 -0.067981 0.079675 -0.056387 -0.051505 0.113210 0.014364 -0.067684 -0.112468 0.010897 -0.000422 0.068851 0.098200 0.031557 -0.037262 -0.043586 0.096263 -0.085293 -0.074909 -0.064758 -0.077010 -0.068843 -0.027599 
going -0.019167 -0.076930 -0.086668 0.022421 0.073721 0.040810 0.046490 0.009678 0.039151 0.010774 0.046384 -0.040553 0.004822 -0.116731 -0.052158 -0.047007 -0.087311 0.018181 0.095269 -0.114168 0.014285 0.094321 -0.095662 -0.036940 -0.119931 0.100080 0.090946 -0.043636 -0.114595 0.085765 -0.053065 -0.052993 -0.027753 -0.084065 0.064372 0.078169 -0.103198 0.012391 0.106591 0.059622 -0.027481 0.115861 0.046505 -0.089287 0.079435 0.028989 -0.081060 -0.039631 -0.088157 0.111659 0.068302 0.104109 -0.031064 0.042684 -0.089737 0.051701 0.068839 0.058118 -0.086940 0.070158 0.091589 -0.039396 0.111519 -0.006919 -0.020860 0.110027 0.107060 -0.036351 -0.016975 -0.062464 0.058341 -0.060703 -0.078634 -0.073151 -0.061727 -0.060627 -0.078135 -0.119391 0.029348 0.045141 -0.073525 -0.088962 -0.067017 -0.095545 -0.060933 -0.055389 0.055499 -0.029926 0.025425 -0.030281 0.122146 0.013684 0.065589 0.036668 -0.079911 0.116549 0.001512 0.010018 0.041396 -0.073476 0.084726 0.063907 -0.098262 -0.103632 -0.114308 -0.060937 -0.030648 0.045428 0.027436 -0.066545 0.031404 -0.040356 -0.043414 -0.088358 -0.063027 0.029858 -0.075324 0.047763 0.092382 -0.034159 -0.002509 0.082545 -0.024783 0.034605 0.055068 0.066296 0.115631 0.069750 0.039362 0.111236 0.115041 -0.033206 -0.045757 -0.103821 -0.115555 -0.069168 0.113159 -0.095160 -0.107922 -0.018786 -0.099177 -0.060136 -0.074893 -0.048459 0.002177 0.113473 0.080274 -0.015007 -0.074235 0.104479 0.020913 0.039003 -0.014965 -0.098727 -0.032401 -0.114743 0.060026 0.049486 -0.044842 0.100345 0.092692 -0.081646 0.080335 0.084458 0.086903 -0.070324 0.006462 0.042692 0.108443 0.071843 -0.045885 -0.005604 0.037352 -0.100163 -0.041879 0.020834 0.063246 0.021204 0.115223 0.017523 -0.057668 0.114758 0.088754 -0.058103 -0.011942 -0.078774 0.099290 0.060967 0.080463 -0.013759 -0.066005 -0.039328 -0.086162 -0.073302 -0.062724 0.031853 -0.012622 -0.083263 0.020127 -0.015717 
by 0.118393 -0.054877 -0.091572 0.084392 -0.057905 0.060619 -0.116419 -0.079596 -0.107133 -0.116700 0.041534 -0.119395 -0.025447 0.078064 0.047914 -0.077284 0.006516 -0.104540 0.121794 0.065956 0.115586 -0.122601 0.051788 -0.100914 -0.001862 -0.110635 -0.066020 0.056258 -0.096009 0.104307 -0.074052 0.003247 -0.101519 0.018748 0.000788 0.005243 0.108440 -0.071376 -0.052884 -0.103016 -0.015734 -0.054606 0.106991 0.066647 0.021754 -0.003967 -0.099935 -0.019994 0.040265 0.069011 0.037360 -0.097746 -0.079344 -0.031681 0.061516 -0.085901 0.097225 0.051386 0.068617 -0.088228 0.081866 -0.000784 -0.029733 0.098970 -0.060082 0.046252 -0.014465 0.002961 0.044184 -0.003517 -0.096962 -0.049569 0.091039 -0.038632 0.064834 0.083582 0.084329 0.113856 -0.109423 0.114163 0.089388 -0.049532 0.091287 0.061392 -0.012926 0.013118 -0.036369 0.005979 -0.034290 -0.078687 0.095641 0.090127 0.029140 0.093978 -0.093029 0.025586 -0.003273 0.027635 0.108642 0.077546 -0.004699 0.018222 -0.002680 0.080744 -0.032789 -0.068779 -0.084937 -0.068591 -0.083698 -0.060416 0.019449 0.079213 -0.092090 0.031779 0.037600 0.051424 0.068865 0.011797 0.004106 -0.071248 0.095543 -0.008907 0.015051 0.099375 -0.008212 -0.103354 -0.017963 0.029069 0.068910 -0.037101 -0.121839 -0.016976 -0.038208 -0.006159 -0.016011 0.041950 0.104731 0.100929 -0.096346 0.102078 0.009623 -0.034834 0.040708 0.121129 -0.012221 0.066970 0.122274 0.118322 -0.079945 -0.035645 -0.063032 -0.071609 -0.005225 0.014754 0.072821 -0.060484 -0.030191 -0.100832 -0.050512 0.109419 -0.089508 0.098017 0.032015 -0.034631 -0.056344 -0.076661 0.109018 0.080024 0.011650 -0.021457 0.030604 0.103639 0.118318 -0.055372 -0.045647 -0.006062 0.083022 0.056040 0.099334 0.016113 0.032593 0.116768 0.008190 0.004898 -0.090619 -0.007705 0.022978 0.102498 -0.036797 0.101545 0.055301 0.020662 0.013422 -0.058960 0.078256 0.024580 -0.059107 0.052692 -0.119542 -0.051011 
for -0.067992 0.057650 0.051403 -0.065778 -0.003693 -0.125604 0.006544 -0.058037 -0.053868 -0.001039 -0.032134 -0.009500 -0.087972 -0.023585 -0.029028 -0.090271 0.087833 -0.078519 0.114760 0.099195 -0.028850 0.012173 0.055066 0.009028 -0.117595 -0.016554 0.017377 -0.087814 -0.047857 -0.113272 0.037295 -0.108258 0.121026 0.089916 -0.039459 0.094065 -0.113346 0.011493 -0.050693 -0.030716 0.075811 -0.107230 -0.024099 0.043534 0.059508 0.038350 0.075927 -0.106465 0.031585 0.056599 0.095104 -0.081169 -0.004002 0.125534 -0.057554 0.075908 0.019996 -0.019892 0.096618 -0.121810 -0.019053 -0.075073 0.086867 -0.084893 0.072690 0.074710 0.012092 0.079848 0.046003 0.101119 0.034483 0.075722 -0.031864 -0.007715 0.126349 -0.077492 -0.030365 0.052814 0.070117 -0.043542 -0.008839 -0.108930 -0.035317 0.070762 0.036669 -0.061753 -0.027761 -0.031272 -0.079767 -0.070700 0.065095 -0.076688 0.025574 -0.084345 0.025675 0.017589 0.040177 0.012034 -0.047123 -0.108428 -0.032003 -0.109904 0.008893 0.008101 -0.123714 0.044330 -0.087146 -0.119399 -0.104414 0.019807 -0.046459 0.098500 -0.033440 -0.068753 -0.023326 0.048634 0.093164 -0.043333 -0.108733 -0.059335 0.089471 0.084198 -0.077194 0.047552 0.086025 0.112090 0.106894 -0.053988 0.023488 -0.098113 0.036074 0.035591 -0.094184 -0.115219 0.125716 0.019598 0.053436 0.048904 0.094949 -0.082189 0.090538 -0.060671 -0.020622 0.066481 -0.042217 -0.076047 -0.122100 0.105623 -0.087694 -0.072384 -0.047293 -0.008279 0.021356 -0.061552 -0.077070 -0.002268 -0.090877 0.007877 0.077349 -0.046447 0.022623 -0.002554 0.008507 0.005551 0.112635 0.085172 -0.121404 0.110213 -0.006768 0.006007 -0.086898 0.034139 0.048135 0.064558 -0.105550 0.113581 -0.035170 0.122366 -0.078461 -0.011447 0.000448 0.104271 -0.096618 0.121895 -0.030936 -0.001595 0.065465 0.027031 0.001221 0.109371 -0.062962 0.040212 0.037581 0.045535 0.123351 0.054629 0.082100 -0.015086 0.027065 0.026768 
an -0.047686 -0.078650 -0.117782 -0.021996 0.020097 -0.103358 -0.044812 -0.012473 -0.011468 0.018768 0.100307 -0.046055 0.097346 -0.018387 -0.003292 0.072729 -0.062842 0.010153 0.090654 -0.109761 0.101755 -0.083707 -0.056741 -0.043995 0.063735 0.043029 -0.117235 -0.065590 0.062828 0.084247 0.060386 0.020922 -0.074310 0.028882 -0.021776 -0.002057 0.010070 -0.075120 -0.094487 -0.057076 0.024607 0.115236 -0.065543 -0.007675 -0.027013 0.057796 -0.019773 0.105576 -0.082090 -0.022464 0.017007 0.065079 -0.018916 -0.077598 0.077991 -0.051717 0.107186 -0.000652 0.019341 -0.108350 0.063865 -0.097739 -0.007729 0.090651 -0.086181 0.092156 -0.029037 0.091645 0.014796 -0.091141 -0.011389 -0.027917 0.075434 -0.068594 -0.098621 0.104467 0.099421 0.089722 0.096518 -0.023854 -0.086585 -0.099338 0.076132 0.077642 0.111206 -0.115747 0.109455 0.014324 -0.070651 -0.088591 0.052649 -0.077346 0.079655 -0.087942 0.056928 -0.001898 -0.083300 0.111173 0.096475 0.023069 0.034274 0.084622 -0.031558 0.075005 -0.095027 -0.060642 0.001073 0.054331 0.004567 0.077389 0.109542 -0.079522 -0.076327 0.015570 0.031990 -0.072073 0.020040 0.037886 0.037652 -0.081913 0.002305 0.015253 -0.017310 0.027420 0.110197 0.113637 0.018318 -0.020684 -0.065666 0.085933 -0.117321 0.028255 0.068504 -0.019914 0.081045 0.015649 -0.014695 -0.096947 -0.002500 0.077959 -0.075535 0.020800 0.019298 -0.061427 -0.051317 0.086221 -0.115420 0.088014 -0.056374 -0.088778 0.098621 -0.104388 0.090013 0.074839 0.045504 -0.030092 -0.080548 0.034918 0.112481 0.034292 -0.033280 0.016434 0.037695 0.107204 0.117487 0.067334 0.090381 0.030056 0.080390 0.058531 -0.109340 -0.060692 0.095157 -0.080047 0.061827 0.030431 -0.011554 0.112614 0.105983 0.085825 0.118006 -0.023659 0.056323 -0.053100 -0.043566 0.090168 0.005050 -0.013841 -0.020501 -0.088058 0.103376 -0.073010 0.013859 -0.097321 0.089444 0.023876 -0.054818 0.110323 -0.003551 -0.117815 
be -0.055949 -0.071079 -0.082337 0.116385 0.046887 0.010621 0.005569 -0.050101 0.058398 0.111418 -0.002693 -0.086969 0.076910 0.001506 -0.099104 0.077869 0.071740 0.081048 0.108955 0.080586 0.051793 -0.017194 0.000789 -0.117281 0.089830 -0.019487 0.045671 0.017477 0.023316 0.109036 0.033585 0.042054 0.079493 0.002429 0.080238 -0.128584 0.008104 0.065107 0.078417 -0.041324 0.133220 0.039926 -0.000890 0.063503 0.054407 -0.044858 -0.109751 0.040654 -0.034972 -0.023613 0.094215 -0.006975 -0.095092 0.006923 -0.000293 -0.082988 -0.083753 0.008890 -0.123752 0.080150 0.132844 0.066914 -0.030900 0.050832 -0.025724 0.027542 -0.106229 -0.052698 -0.013802 0.067098 0.053587 0.056786 -0.040742 -0.081908 -0.094075 0.054456 0.013868 -0.094284 0.007507 0.080062 0.133959 0.118060 -0.028680 0.007906 0.018989 -0.017709 -0.070474 0.046846 0.023196 0.001242 0.117629 -0.024823 -0.010883 -0.021063 0.046676 0.136621 -0.094318 0.013637 0.088767 -0.118935 -0.019030 0.020690 -0.109263 -0.053411 0.077640 0.018435 -0.044517 0.117009 0.017662 0.047435 0.046707 -0.057492 0.034985 -0.063987 -0.012438 0.089826 -0.097751 -0.090661 -0.024164 0.001673 0.121433 -0.055876 -0.020592 -0.060851 0.121121 0.072251 0.003718 0.026231 0.082954 -0.069136 -0.080056 0.133443 -0.020312 -0.083964 -0.104348 -0.062575 -0.072567 0.063389 -0.103788 -0.003957 0.032778 0.119838 -0.062447 -0.114634 -0.014009 -0.016032 -0.089559 -0.001963 0.027951 0.056090 -0.084541 0.023510 -0.002083 0.096296 -0.014967 -0.000603 0.019261 -0.116593 0.116029 0.008401 0.012854 0.065451 -0.092920 -0.067766 0.009146 0.052905 0.035813 0.002521 0.078004 0.056701 -0.020781 -0.024236 0.067211 -0.103524 -0.019287 -0.089783 -0.050807 -0.046860 -0.057968 -0.024753 -0.068950 -0.105154 0.003931 -0.128100 -0.107915 -0.055792 -0.128646 -0.109168 -0.084260 -0.092258 0.099836 0.084146 -0.027855 -0.096171 0.030274 0.098121 0.043343 0.113963 0.078216 -0.106999 
languages -0.030270 0.002480 -0.059422 0.012300 0.106501 -0.105934 -0.067182 0.011637 -0.100099 -0.104500 -0.108268 0.043805 0.112210 -0.068259 -0.020743 0.065358 0.052240 -0.009060 -0.085033 0.096045 0.103107 0.124441 -0.012813 -0.033969 -0.047211 -0.058770 0.041880 0.074229 0.110790 0.124595 -0.011795 0.124417 -0.114077 -0.095644 0.051291 -0.116433 -0.085920 0.090190 0.013909 -0.059827 -0.116761 0.038305 -0.025202 -0.065181 0.050126 -0.073566 0.095894 0.076837 -0.023667 -0.004493 0.096774 -0.119581 0.044973 0.044090 0.012983 -0.065937 -0.055974 -0.066052 -0.056737 -0.121648 -0.069782 0.095590 0.049548 -0.077384 0.070692 0.011614 0.051415 0.086603 -0.009766 -0.013858 -0.015590 -0.052298 -0.117625 -0.119064 -0.052726 -0.095173 0.003842 -0.126269 0.101942 -0.085469 -0.083776 -0.047322 -0.084786 -0.003437 0.002638 -0.083656 -0.071811 -0.018911 -0.048938 -0.120730 -0.013168 0.014244 0.018221 0.019189 0.000301 0.052583 0.018483 0.071475 -0.059052 0.115855 0.082186 0.087474 0.097098 0.034224 -0.102691 -0.071051 0.061937 -0.046173 -0.026645 0.026409 -0.002600 0.083995 0.124691 0.115230 -0.124159 -0.061077 -0.023898 -0.006021 -0.014418 0.107107 -0.026105 0.029973 -0.080188 -0.023648 0.122022 -0.104608 0.093241 0.008767 -0.017928 0.083941 -0.027331 -0.028677 -0.062839 -0.111365 0.099196 -0.053039 -0.071957 -0.070434 0.066010 0.081820 -0.041332 -0.121085 0.035045 0.079675 0.096180 -0.022390 -0.021345 -0.039724 -0.034636 0.024219 -0.067614 0.059341 0.012528 -0.119496 -0.005022 0.017453 -0.011155 -0.023023 0.075591 0.043944 -0.038540 0.049012 -0.106201 -0.094217 0.060710 -0.104824 -0.009296 -0.061308 -0.025426 -0.117212 -0.040507 0.036029 -0.040222 -0.063198 -0.037900 -0.098429 0.083467 0.045371 -0.029121 0.060622 -0.029576 0.007062 0.021376 0.090568 0.066959 -0.063584 -0.040445 -0.115230 0.124244 0.011166 -0.052649 -0.094664 -0.043353 -0.033314 -0.042883 -0.080763 -0.052718 0.107099 0.024400 0.009415 
might 0.036374 0.040795 -0.004767 0.068235 -0.022977 -0.051949 0.030892 0.054443 0.085308 0.064790 0.103776 -0.012633 -0.008592 -0.056663 -0.000220 -0.051242 -0.113926 -0.054275 0.065364 0.082650 0.022338 -0.002011 -0.038145 0.097081 -0.031903 0.088452 -0.088858 0.011515 0.100955 0.018578 -0.051740 -0.092299 0.113379 -0.098739 -0.078609 -0.070326 0.009261 -0.088322 -0.009861 0.034613 0.103920 0.038149 -0.121886 -0.007158 0.027539 0.082141 0.118632 -0.113892 -0.029135 -0.092595 0.061593 0.107589 -0.062209 -0.061742 0.115743 0.116180 -0.005505 -0.086117 0.004691 -0.068653 0.020300 -0.115116 0.012614 -0.116021 -0.043186 -0.035845 -0.012310 0.118112 0.057069 0.077731 0.089527 0.092641 -0.111037 -0.035206 0.041734 0.076172 0.079240 -0.074910 -0.120655 -0.098685 0.071227 0.071512 -0.051177 -0.038757 0.117956 0.080955 -0.088509 -0.036005 0.036465 -0.058259 -0.010758 -0.070964 -0.044783 -0.046383 -0.032032 -0.061886 0.064962 -0.019666 -0.055009 -0.113877 0.120449 -0.052070 0.079917 -0.020616 -0.061282 0.093865 0.096355 -0.011781 -0.102628 -0.029535 0.029341 -0.005623 -0.061981 -0.060236 -0.023806 -0.107247 0.064551 -0.072204 0.096522 -0.110333 0.094006 -0.077115 0.113934 0.004581 -0.094295 -0.024364 0.063464 0.070105 -0.060460 -0.050200 0.042433 -0.018867 -0.049740 0.020555 -0.038693 -0.056016 0.004045 -0.072918 0.041977 -0.021878 -0.019783 -0.030873 0.070337 -0.083844 0.069523 0.010443 -0.105433 -0.097879 0.026718 -0.022935 -0.076587 -0.106806 -0.082023 0.106456 -0.119514 -0.091158 0.120906 -0.049059 0.049960 0.030812 0.078830 0.121693 0.030876 -0.095142 0.044783 0.046467 -0.017160 -0.013560 0.084943 -0.037275 -0.121400 0.045881 0.078632 -0.078925 0.002334 -0.084209 -0.032542 0.034408 -0.046919 -0.010656 0.004455 -0.020380 -0.109554 -0.025421 0.006660 -0.005828 0.036320 -0.109041 0.102536 -0.120468 -0.072542 0.069375 -0.015450 -0.002270 -0.089679 -0.093561 -0.094264 0.025665 -0.104627 0.106752 
just -0.063043 -0.045000 0.097274 -0.053655 -0.052611 0.070229 0.069320 -0.006253 -0.110799 0.010853 -0.090664 -0.088163 -0.002081 -0.060074 -0.002215 -0.107342 0.103240 0.078481 0.077402 -0.045672 0.092837 0.009819 -0.051104 -0.058963 -0.087643 0.070923 -0.065244 -0.013146 0.029228 -0.038956 -0.048358 0.051921 0.041245 -0.098785 -0.025810 -0.077547 0.067982 -0.061461 0.035010 -0.093555 0.055088 -0.053803 -0.007212 -0.093938 0.006185 0.087243 -0.003914 0.113350 -0.017127 -0.112996 0.019540 0.082621 0.104727 0.088290 0.095760 -0.110031 0.085491 0.100477 0.083432 -0.098637 -0.071210 0.086620 -0.100785 0.076946 -0.071875 0.035849 -0.018450 -0.028970 -0.028832 -0.004731 -0.100756 -0.108389 0.003567 0.069960 -0.025216 -0.027243 0.028945 -0.040824 -0.107069 -0.057292 0.108902 0.115848 0.092122 0.051482 -0.100792 -0.108623 -0.090735 -0.088630 0.041217 0.086549 -0.101252 -0.111659 0.074748 -0.063188 -0.022767 -0.057462 0.061401 -0.104900 -0.112547 0.092076 -0.111153 0.008517 -0.106078 -0.050753 -0.033460 -0.081659 0.087225 0.111920 0.066199 0.019529 -0.079780 0.076436 0.017523 0.069309 0.063248 0.092812 -0.059915 0.114787 0.085116 0.005241 0.011437 0.029140 0.076411 -0.052211 0.003298 -0.024575 -0.046206 0.112501 -0.022732 -0.057229 -0.076199 0.053690 0.052922 -0.021716 0.019044 0.079352 -0.055994 -0.044858 0.098209 0.091652 -0.113955 0.036401 0.077954 0.050732 -0.059363 -0.020711 -0.067084 -0.025290 -0.004543 0.062813 -0.072391 -0.060321 -0.003850 -0.071751 -0.079285 0.079706 -0.053658 -0.029444 0.060799 -0.108870 -0.092370 -0.053039 0.090594 0.087773 -0.000410 -0.095431 0.042710 0.050024 -0.064033 -0.051539 0.007735 -0.088049 -0.047714 0.009791 -0.097671 0.097497 0.110148 0.077689 -0.066970 -0.070923 0.065321 -0.032643 -0.099454 -0.053414 -0.004643 0.015778 -0.104536 0.052190 -0.096121 -0.077795 0.066348 -0.025870 0.084387 -0.092331 -0.075972 -0.037576 -0.039249 0.019274 -0.035081 0.093166 
but -0.065474 -0.102214 0.069586 0.022676 0.036114 -0.065607 0.094323 -0.031362 0.083427 -0.088625 0.078104 -0.052970 -0.095157 0.069654 0.001266 0.024254 -0.006909 0.096738 -0.002136 0.090089 0.096478 0.074018 -0.012239 -0.107117 0.059552 0.062312 -0.106404 -0.090859 -0.067049 0.073441 0.011713 -0.027922 -0.055764 0.040419 -0.013922 -0.000199 -0.099876 0.070541 -0.062152 -0.063260 0.048993 -0.078454 0.082975 0.038234 0.036319 0.088082 0.001902 -0.051070 0.039387 0.036715 0.001491 -0.037089 0.105427 -0.075144 -0.026021 -0.125018 0.039237 -0.084668 -0.015302 -0.079944 -0.061166 -0.120101 -0.030119 -0.063878 -0.015741 -0.091711 0.069674 0.008359 0.008415 -0.099377 -0.058983 0.006986 0.009395 0.108773 0.020249 0.000747 -0.122789 0.138221 -0.123148 -0.060780 0.092913 0.013123 -0.091387 -0.053087 0.109465 -0.021162 -0.054195 -0.051705 0.033715 -0.003404 0.002543 0.013940 -0.066925 0.117439 0.058225 -0.015734 0.074566 -0.022753 0.021550 -0.076437 -0.101560 -0.070261 0.027704 0.069031 0.031963 0.045724 0.080358 0.011991 0.018235 0.110564 -0.044496 0.007129 -0.114095 -0.070569 -0.069363 -0.020021 0.142769 -0.016248 -0.000564 0.119214 0.002627 0.007358 0.114752 -0.074867 -0.052515 0.031533 0.028431 0.055425 0.135061 -0.035496 -0.125427 0.121384 0.021572 -0.098337 0.046716 0.025730 0.009037 -0.072525 0.044276 0.086395 -0.065235 -0.002882 0.082353 -0.092627 -0.015541 0.056053 0.127474 0.085891 -0.102929 -0.039364 -0.039938 0.085403 0.024125 -0.010814 -0.097187 -0.059198 -0.011276 -0.072925 -0.081971 -0.006904 -0.049856 -0.078899 -0.118814 -0.140456 -0.051390 0.123304 -0.042208 0.034168 0.054277 -0.009500 -0.100729 0.030277 0.105208 0.092796 -0.109528 -0.110748 0.094477 0.081165 -0.084333 0.008433 -0.052408 0.126727 0.062100 -0.112410 0.061233 -0.072876 0.036004 0.058874 0.025592 0.035436 -0.096565 0.035525 0.051627 0.089816 0.006711 -0.009293 -0.134711 0.010194 0.018764 -0.100772 
about 0.084551 0.013665 0.114978 0.016512 0.034784 -0.067337 -0.122681 -0.067269 -0.072740 0.113864 -0.114570 0.035755 0.013306 -0.011120 0.050379 0.035588 0.111194 0.041033 0.097639 -0.048434 0.101060 0.073129 0.062009 0.112346 -0.075096 -0.050164 0.040154 -0.081391 0.081515 0.092613 -0.056858 0.070206 -0.105757 -0.005064 -0.008632 0.091548 -0.014394 -0.045466 -0.027829 0.063833 0.050145 0.083536 -0.017785 -0.117338 0.091726 0.061016 -0.067431 0.000427 -0.071381 0.122836 0.043627 -0.058463 -0.064116 0.071800 0.102729 0.034652 0.055522 0.020039 -0.040924 -0.072087 0.043937 -0.105912 0.018661 0.073711 -0.033138 -0.070191 0.006955 -0.003546 -0.048106 -0.069995 -0.041241 0.024804 -0.058965 0.006808 -0.029264 0.054363 -0.061850 0.086753 -0.046044 0.042597 0.008972 -0.089222 -0.118648 0.008840 0.033636 0.024072 0.035184 0.034290 -0.045855 0.043843 0.017196 0.014549 0.021825 -0.103374 -0.014084 -0.092915 0.054948 0.065743 -0.085722 -0.021308 -0.066351 0.106539 0.084544 0.063108 0.094852 -0.116318 0.098454 0.055933 0.047502 0.066091 0.114540 -0.085363 0.104790 -0.100218 0.105734 -0.093987 -0.100607 -0.070055 0.106837 0.111259 0.115695 0.021247 -0.032949 -0.068945 0.015179 0.100225 0.092368 0.065252 -0.088962 -0.092183 -0.039202 0.038262 -0.069130 -0.010788 0.102064 -0.068719 0.016675 -0.038383 0.117908 -0.112626 -0.075142 -0.000970 -0.080602 0.111470 -0.031386 0.089849 -0.025609 -0.119483 0.028078 0.036880 0.070225 0.018098 0.045251 -0.047747 0.056103 -0.075108 0.024000 0.009965 0.090555 0.053290 0.030057 -0.049046 -0.100947 -0.072298 -0.056443 0.072948 0.011320 -0.123213 -0.046037 -0.006846 0.029098 0.043609 0.065143 -0.114430 0.110915 -0.109288 0.095366 -0.013945 -0.017755 -0.067646 -0.075232 0.097416 -0.074651 0.002269 -0.009727 0.084321 0.036891 -0.003938 0.048287 0.120767 -0.019522 0.118660 -0.082920 -0.052308 -0.023494 -0.105527 -0.028289 0.110284 0.059773 -0.100376 
or -0.093223 -0.021694 0.079434 0.029694 -0.026551 -0.026811 -0.053261 -0.005249 -0.009872 0.083272 -0.118091 0.061483 0.084332 0.111483 -0.080280 0.063732 -0.049208 -0.077423 -0.090529 -0.102834 0.087985 -0.062253 0.009592 0.013891 0.066989 -0.101906 -0.054272 -0.061385 0.015321 0.101159 -0.000038 -0.000208 0.122325 -0.082917 0.021593 0.093091 -0.102748 0.014366 -0.078257 -0.071302 -0.099593 -0.113197 -0.079329 0.020547 0.012000 0.079242 0.053155 -0.044827 -0.073238 -0.038178 -0.078815 0.122857 -0.104136 -0.044261 -0.069502 -0.013521 -0.015004 0.049400 0.054045 0.059974 0.074370 0.045732 0.079298 -0.070125 0.106023 0.056796 0.102861 -0.013536 0.083819 0.009174 0.035857 -0.060072 0.073449 -0.108729 0.098544 0.056895 -0.044876 0.000630 0.078393 -0.076102 -0.081812 -0.045302 0.072008 -0.068781 -0.033494 -0.072638 -0.009487 0.036351 -0.081540 -0.092970 0.054166 0.011309 -0.098431 -0.056064 0.050438 -0.062759 0.105178 -0.097166 0.075932 -0.042879 0.038536 -0.042389 0.041774 0.028442 0.014642 0.096676 -0.079087 -0.076781 -0.086295 0.122955 -0.004566 -0.030094 -0.074929 -0.098797 0.114634 0.064170 0.052604 0.099921 -0.057668 -0.083800 0.114687 -0.034404 -0.053910 0.039928 -0.008468 0.043076 -0.086619 0.021891 0.119789 -0.050193 -0.059193 0.005060 0.008709 0.106985 -0.060506 -0.053068 -0.028710 0.008404 -0.117608 0.114133 -0.112257 -0.048396 0.051585 0.093197 -0.052589 0.048645 0.049064 0.027098 -0.093148 -0.021196 0.033261 0.120638 0.079064 -0.022208 -0.022876 -0.101476 0.096951 0.095846 -0.084566 -0.063483 -0.097449 -0.049589 -0.055208 -0.117023 -0.005660 -0.037317 -0.023676 -0.057295 -0.056604 0.121068 -0.017019 -0.112283 -0.122763 -0.018811 -0.000460 0.046464 -0.014793 -0.097589 0.122604 0.067310 0.023864 0.058623 0.015993 -0.092253 0.058898 -0.056381 -0.100038 0.081710 -0.029479 0.102246 0.056596 -0.071574 -0.051925 -0.095355 0.087887 0.085483 -0.004574 0.019317 -0.095042 0.015762 
ask -0.065769 -0.057102 -0.023459 -0.013441 -0.112227 -0.033909 0.082499 0.073365 0.036637 -0.040854 0.083779 -0.059539 -0.086662 0.087708 -0.104283 0.018524 0.051620 0.105149 -0.036285 0.090375 0.101788 0.059324 0.085317 -0.002268 0.008627 0.056980 0.116965 0.112375 0.011402 0.028179 -0.026004 -0.077355 -0.062893 -0.038122 0.101810 -0.081884 -0.092787 -0.094070 0.062369 -0.059496 0.102090 -0.032917 -0.052303 -0.109578 0.054252 0.075399 -0.091284 -0.037036 0.061858 -0.015748 -0.080342 -0.059051 0.010799 -0.022924 0.013653 -0.098319 0.081442 -0.074961 0.047141 -0.018646 0.041886 -0.006215 -0.064540 -0.096105 -0.045294 -0.063314 -0.111573 -0.076708 -0.058623 0.037180 -0.060830 0.116847 -0.053317 -0.069152 -0.055869 -0.085997 -0.025695 0.018919 0.054230 -0.018977 0.086820 0.054766 0.008117 0.100728 -0.065467 0.086241 0.074504 0.114834 -0.066603 -0.015490 0.109833 -0.076046 0.087093 -0.084782 0.029441 -0.041235 -0.012970 0.102906 0.043144 0.002089 -0.009735 -0.111325 -0.051512 -0.104358 0.041584 0.086025 0.073081 0.011205 -0.090918 -0.081733 0.096677 0.072703 -0.109078 0.081108 -0.006492 0.098542 0.108575 -0.084350 0.032288 -0.069562 0.035660 -0.000191 0.069457 -0.059827 -0.088560 0.028064 0.020353 0.087255 0.034078 -0.010630 0.094793 -0.081079 0.053878 -0.068418 0.090321 -0.016360 -0.084375 -0.038553 0.098963 -0.053558 0.094167 0.009026 0.036055 0.002419 -0.054669 0.063278 0.111415 -0.065607 0.061757 -0.063530 -0.112997 0.055247 -0.082938 -0.029063 -0.073987 0.030012 -0.013904 0.096738 -0.091802 0.053781 0.095850 0.067247 0.043374 -0.090627 -0.103370 -0.069684 -0.106497 -0.090325 0.039973 0.028280 0.021777 -0.044700 0.058393 0.055614 0.107950 0.005755 0.014465 0.001276 -0.109330 0.079447 0.029664 -0.086881 0.109819 0.018092 0.048773 -0.102108 -0.084915 -0.042112 0.075475 -0.114345 -0.071442 0.093927 -0.063238 0.100951 -0.111113 -0.026554 -0.010310 -0.115121 0.064784 -0.090670 
some -0.060162 0.057198 0.086606 0.039927 0.035627 0.060816 0.084227 0.085745 0.106756 -0.109080 0.042980 0.066058 0.013159 0.086835 -0.005454 0.057035 -0.044585 0.021912 0.040573 -0.046191 -0.062362 0.108914 0.088315 -0.028995 0.031305 0.095861 0.111247 0.119302 0.101253 0.030746 -0.110182 -0.020854 0.102107 0.030703 0.030013 -0.041464 0.033368 0.016393 -0.059530 -0.002579 -0.036521 -0.019688 0.086326 -0.127475 0.013156 -0.036091 0.009461 -0.073194 -0.122802 0.092488 0.057249 0.033440 0.067953 0.039291 -0.115295 -0.082768 -0.106977 0.036567 -0.024276 0.091084 -0.015911 -0.110381 0.108734 -0.111256 0.031965 -0.041080 0.121695 -0.054934 0.041428 -0.074173 -0.059935 -0.011543 0.078994 0.021215 0.026202 0.014664 0.023530 0.052977 -0.082775 0.121660 0.068000 -0.121962 -0.029127 -0.056084 -0.038821 -0.076504 0.082557 -0.054967 0.025677 -0.068705 -0.012291 -0.106018 -0.117857 -0.047263 -0.038834 0.125652 -0.020143 0.097071 0.102852 0.023536 0.067683 0.038399 0.075025 0.048380 -0.029825 0.019239 0.101395 -0.019963 0.049713 0.093814 -0.030696 -0.106066 0.015316 0.112311 0.019672 -0.069832 0.116830 0.010078 -0.083457 0.051602 -0.085777 0.032124 -0.115436 0.020960 0.039728 -0.039065 -0.048978 -0.067693 -0.061682 -0.069532 -0.027656 -0.077816 0.103241 0.100500 0.107248 -0.055892 0.116569 -0.028373 0.074997 0.023269 0.095108 0.080541 -0.093030 -0.003776 -0.010449 0.054012 -0.034003 -0.006066 0.039562 0.056622 -0.107515 -0.019233 0.073441 0.082889 -0.077783 -0.019822 -0.032586 -0.068178 0.088064 0.070686 -0.088207 -0.026887 -0.012837 -0.103906 -0.088855 0.125597 0.025872 -0.082950 0.036823 0.122539 -0.066582 -0.098068 -0.095082 0.021822 -0.012967 -0.076249 -0.027363 -0.059500 0.041984 -0.113553 -0.025944 0.051797 0.006548 -0.004170 -0.002412 0.090419 0.100729 0.020767 -0.094125 0.106373 0.112682 0.046207 -0.096097 -0.035986 -0.115217 -0.043127 -0.015377 0.090535 0.090549 -0.034504 
i -0.031528 -0.020378 -0.064080 0.093199 -0.018227 -0.073340 -0.038293 -0.065028 -0.030354 0.034288 0.015213 0.100443 -0.064244 -0.001722 0.012134 0.080126 -0.057586 0.042220 -0.073186 -0.107652 0.110577 -0.020822 0.026825 0.083248 -0.083903 -0.084551 -0.065368 0.084694 0.066392 0.015975 0.035100 0.090951 -0.079980 0.035175 0.067988 -0.114239 0.067108 0.020700 0.066285 0.015266 -0.016494 0.078845 -0.112961 -0.088667 -0.092536 -0.094616 -0.084883 0.002810 -0.098707 -0.041511 -0.109725 0.073440 0.085950 0.051226 0.080087 -0.034388 -0.062712 0.055306 0.107019 0.049529 -0.071861 -0.098911 -0.113233 0.050288 -0.113770 0.046744 0.097426 -0.013785 -0.067480 0.070755 0.068232 -0.065715 0.012027 0.079418 -0.109181 0.030114 -0.106167 0.003089 -0.049948 -0.001199 0.109417 0.065357 -0.014311 0.093256 0.075985 0.079289 0.030719 -0.078716 -0.026860 -0.083405 -0.057808 0.087672 0.039131 -0.023199 0.104971 0.082933 0.101685 0.014329 0.024233 -0.074607 0.047177 0.076826 -0.032451 -0.073390 0.055210 0.036006 0.026552 -0.012381 -0.105136 0.056810 0.116941 0.068099 0.097619 -0.106342 -0.021527 -0.048205 0.080681 0.063367 0.113304 -0.049737 0.023653 -0.031517 -0.090682 -0.035462 -0.069800 0.008530 -0.014039 -0.045699 0.097218 -0.062071 0.082993 -0.062122 -0.058088 0.038912 -0.001181 -0.007757 0.113054 -0.051390 0.059655 0.018431 -0.089444 0.066546 -0.053384 -0.023879 0.100483 -0.087443 0.103210 -0.116358 0.100039 0.003461 0.093259 0.052550 0.088828 -0.023614 0.008397 -0.085288 0.070515 -0.003726 -0.001095 -0.101023 0.107413 0.052128 0.039124 0.023671 0.085893 -0.042986 -0.072541 -0.103400 -0.049024 0.051813 -0.009872 -0.112034 -0.059090 0.032298 -0.091756 -0.042549 -0.116576 -0.112528 -0.109267 -0.111203 -0.100526 -0.100429 -0.029416 -0.006439 -0.065919 -0.059695 0.004847 -0.061807 -0.009092 -0.059967 -0.090782 -0.083040 -0.102315 -0.112241 -0.107377 -0.051813 0.009951 0.065715 -0.011948 0.108848 
we're 0.030616 0.113775 0.061800 0.062811 -0.019762 -0.044754 0.009593 0.005272 -0.076209 0.059347 0.055157 -0.035348 -0.055380 -0.015088 -0.021577 0.009182 0.022840 0.112765 -0.097767 0.030063 -0.080020 0.081805 -0.040281 0.009779 -0.058478 -0.083506 0.121549 -0.050917 -0.055471 -0.113193 -0.057452 -0.079125 -0.098660 -0.105602 0.008565 0.080662 0.046664 0.067692 -0.006544 -0.096022 -0.027975 -0.053399 0.095077 -0.122269 0.021460 0.016605 -0.116228 0.100329 -0.098608 -0.039844 -0.082331 -0.037064 0.109324 -0.071627 -0.122607 -0.069775 -0.003130 -0.109581 -0.003123 0.011846 -0.090676 -0.082734 0.039910 0.055627 0.017319 0.098021 0.110241 -0.077383 -0.114416 -0.098765 0.117692 0.119427 0.022666 0.012119 0.046394 0.110514 0.082544 0.031671 -0.084183 0.022594 0.035279 0.039498 0.082762 -0.017905 0.085430 -0.022676 -0.032294 -0.062983 0.076072 0.065731 0.021101 -0.073341 0.104120 -0.101981 0.028838 0.024017 -0.072488 0.029293 0.089310 0.101355 -0.024531 -0.076372 -0.106779 -0.094957 0.115561 0.053861 -0.109543 -0.061965 -0.055509 -0.003008 0.102855 0.027298 -0.075818 0.057095 -0.100461 0.064917 0.067582 -0.028052 -0.065057 0.017714 -0.091692 -0.036738 -0.071711 -0.101016 0.086911 0.048975 -0.094405 0.045613 0.073836 -0.089425 -0.026106 0.104968 0.067878 -0.103173 0.050206 0.026907 -0.046819 0.047029 0.110480 0.069098 0.052812 -0.106506 -0.076593 0.098554 0.092461 0.047498 0.101584 -0.019664 0.050124 -0.060827 0.033935 -0.071697 0.007754 0.048707 -0.029308 -0.046676 0.084551 -0.052690 -0.069820 -0.084767 -0.013213 -0.015793 0.002042 -0.067887 -0.039614 0.089681 0.100563 -0.027986 0.070626 -0.010715 -0.014483 0.062719 -0.052709 -0.013286 -0.117895 0.004487 0.031775 -0.032799 -0.066455 -0.026690 0.048966 0.090194 0.030731 -0.084635 -0.111142 0.096682 -0.094132 0.100907 0.087182 0.033374 0.068829 0.114454 -0.074425 0.014419 -0.092915 0.090334 0.084826 -0.029971 0.058022 -0.004182 
that's -0.055135 -0.117710 -0.013814 0.105782 0.082853 0.054590 -0.008871 -0.009281 -0.036596 0.103100 -0.082530 0.046080 0.082642 -0.045253 -0.077106 -0.016582 0.013671 0.090270 -0.019523 0.068104 -0.116595 0.067390 -0.121304 -0.111378 -0.119704 -0.002362 -0.040164 0.079551 0.008188 0.054080 -0.110698 0.106307 0.086323 -0.020961 -0.113688 -0.011880 -0.004522 0.068652 -0.014520 0.051894 -0.075897 -0.057828 0.036814 -0.052352 0.122183 0.018805 -0.048142 -0.120782 -0.083318 0.040874 -0.050170 0.111971 -0.073208 0.058376 0.065343 -0.011744 0.094826 -0.063296 -0.097733 -0.103491 -0.067649 0.095063 0.110563 0.040566 -0.002975 0.029637 -0.075108 -0.052622 -0.076513 0.036563 0.118285 -0.056153 -0.099814 -0.018768 0.048472 -0.073865 -0.069031 0.036713 0.119276 0.098075 0.081215 -0.054673 0.057636 -0.013382 -0.014437 0.003211 -0.101834 -0.081332 0.078601 0.075758 -0.016848 0.036525 0.118037 0.089895 -0.022001 0.051743 -0.076888 0.034084 0.101925 -0.016447 0.113019 -0.041678 -0.102736 -0.087281 -0.108347 -0.025859 -0.047556 -0.018460 0.001277 0.008469 -0.067131 -0.098428 0.014993 0.049768 0.057756 -0.061816 0.059717 -0.098105 0.115581 -0.074000 0.077760 -0.077478 -0.043650 0.007320 0.072967 0.038576 -0.016112 -0.106300 0.110721 -0.007620 -0.074868 0.096648 0.071796 0.080070 0.060836 -0.041490 -0.101496 -0.079101 -0.005130 0.113864 0.086969 -0.065925 -0.115085 0.028127 -0.035845 0.108058 -0.049809 -0.033333 -0.096884 0.000567 -0.020830 0.010250 0.092302 -0.030726 0.068002 0.055034 0.043282 -0.058894 -0.117909 0.058714 0.067574 -0.095476 -0.113207 0.040521 0.045956 -0.090473 0.116722 0.081219 -0.079262 0.067645 -0.070391 0.076967 -0.058094 0.059668 -0.024585 -0.014539 -0.071300 0.120196 -0.018922 0.072070 0.008037 0.053088 -0.018786 -0.074721 0.122228 -0.030125 0.071968 -0.066474 0.028980 0.043623 -0.081253 0.054508 0.039811 0.016657 -0.013093 0.061313 0.035500 -0.061028 0.064923 0.034707 
over -0.040094 -0.074999 0.002698 0.112634 0.056192 -0.103044 -0.040217 0.018980 -0.087969 0.082976 -0.092156 0.007944 -0.113411 0.057244 0.117179 -0.079692 -0.075675 -0.072858 -0.030569 -0.106928 0.028942 0.096268 0.090363 -0.114492 0.026411 0.079562 -0.019895 -0.083872 0.038922 -0.074840 -0.091043 0.062690 0.010935 -0.022582 -0.030512 -0.011755 -0.053849 -0.070992 0.076535 -0.110963 -0.092482 0.005796 -0.032797 0.020557 0.017226 0.018944 -0.088208 -0.013390 -0.017241 0.075830 0.002871 -0.075801 0.044795 0.106103 -0.081699 0.029568 0.029304 0.098654 0.106114 0.084256 0.058477 0.101619 -0.111292 -0.070956 0.076774 -0.014598 0.069578 -0.062090 0.087897 -0.083373 0.089611 0.070124 -0.082184 -0.115816 -0.077114 0.107224 -0.074301 -0.063789 0.076680 -0.110008 0.056004 -0.056890 -0.067365 0.029380 0.075458 0.071506 0.116514 0.010707 0.047008 0.073314 -0.108530 0.089463 0.092843 -0.003330 0.001757 0.106429 -0.079551 -0.051047 0.065991 -0.038369 0.007478 0.096789 -0.000991 0.088291 -0.057074 -0.044885 0.011868 0.030971 0.085959 0.046020 -0.099085 0.104404 -0.092916 0.002933 -0.004303 -0.028360 -0.116044 -0.007525 -0.025926 0.065901 0.079522 0.003540 0.047102 -0.068251 -0.094955 0.084263 0.011130 -0.116083 0.015910 0.105047 -0.041273 0.059407 -0.058130 -0.004458 0.041707 -0.056463 -0.017154 -0.018387 -0.002828 0.028772 0.024053 0.111397 0.095425 -0.081081 0.009951 0.018322 -0.044918 -0.012045 -0.055758 0.105988 -0.035068 -0.041826 -0.110128 -0.110667 0.099056 0.085066 -0.030967 -0.109553 -0.083174 -0.027564 -0.110793 -0.020267 -0.015238 -0.005739 -0.108927 0.086837 -0.019273 0.109813 0.037577 -0.036322 0.115776 0.100629 -0.023041 -0.104635 -0.050718 0.044466 -0.109347 -0.010721 0.047767 0.078325 0.019338 -0.061909 0.089090 -0.075498 -0.047991 -0.032330 0.047333 0.075462 0.047832 -0.110826 -0.044180 -0.101967 0.014290 0.046961 -0.092880 0.003171 0.092062 -0.103276 0.053046 0.113169 
we'll 0.107422 -0.098969 -0.106573 0.009591 -0.055480 0.109159 -0.063741 0.007111 0.023208 -0.084435 0.036878 0.005791 0.109554 -0.037368 0.109880 -0.035214 0.029038 0.001577 -0.108372 -0.097337 -0.095804 0.080672 -0.109170 -0.102603 -0.083025 0.069953 -0.037328 0.086379 0.071088 -0.101130 0.021750 -0.046527 -0.045632 0.031573 0.042071 -0.007466 -0.073002 0.041045 0.057054 0.043895 -0.066722 0.034967 -0.078115 0.007299 -0.023077 -0.057210 0.026449 0.079547 -0.116589 -0.008982 0.107110 0.041560 0.012924 -0.009722 -0.040359 -0.028687 0.072117 0.048254 -0.085483 0.006197 0.064705 0.094393 -0.113666 0.105366 0.053812 0.117557 0.086745 0.049740 -0.075671 -0.071628 0.073880 -0.082702 0.095847 0.109811 -0.059433 0.083072 0.096790 0.116034 0.076694 0.030928 -0.009718 -0.064100 -0.019023 0.017076 -0.101141 0.092971 -0.075519 -0.118152 0.004467 -0.018004 0.000036 0.000279 0.073176 0.007713 -0.115407 0.093878 -0.069536 -0.078663 0.027450 -0.056434 -0.063487 0.008786 -0.013265 0.102610 0.035624 -0.097548 0.092924 -0.004536 -0.006135 0.007075 0.022968 0.056572 0.112005 0.073869 -0.011480 0.066856 0.037292 -0.086539 0.022997 0.104292 -0.048330 0.108825 -0.018414 0.068625 0.096500 0.114119 0.016528 -0.080991 0.059614 -0.081796 0.101830 -0.088344 -0.036450 0.044642 0.033267 -0.113104 -0.009747 -0.111820 -0.096333 -0.017881 -0.094208 0.091202 0.102918 -0.081165 0.010937 -0.070366 -0.107908 -0.046745 -0.047068 -0.072962 0.017543 -0.074289 -0.086274 -0.046549 0.096812 -0.026409 -0.102969 -0.061678 0.044493 0.056050 -0.034028 0.108158 0.072241 -0.045991 0.005439 0.035939 -0.024172 -0.016909 -0.040265 0.066994 0.085730 0.043039 0.070217 -0.106874 0.078898 0.093008 -0.075279 -0.021514 -0.070660 -0.086082 -0.116574 -0.103944 -0.091880 0.059038 -0.109365 -0.008837 0.108067 -0.047180 -0.049940 -0.044388 -0.031511 0.029709 -0.112818 0.015908 -0.061319 0.070627 0.062182 -0.017322 0.052065 -0.084095 
these -0.059735 -0.033128 -0.064796 -0.066542 0.007710 -0.115494 -0.045690 0.101917 0.107610 -0.004420 0.114771 -0.051126 0.071247 0.063480 -0.068855 0.028245 -0.129739 -0.003592 0.020457 0.000259 0.005929 -0.067483 0.041713 0.078799 0.067708 0.119154 -0.052882 0.026208 -0.103967 -0.132779 0.019338 -0.086653 -0.065601 0.057173 -0.102542 -0.083624 -0.030927 0.078084 -0.043261 -0.053811 0.047275 -0.054530 -0.074612 0.045050 0.044963 -0.082767 0.096767 0.080016 -0.118926 -0.080031 0.055631 -0.117665 0.110244 0.097481 -0.036832 -0.046420 0.021204 -0.067440 0.081307 0.048894 -0.013905 -0.026578 -0.105728 0.008357 -0.050487 0.104169 0.017364 -0.061545 -0.064358 -0.014495 0.109929 0.123283 -0.004425 0.093820 -0.110581 0.005243 -0.006202 0.017079 -0.106578 -0.042480 -0.084591 0.075418 0.003241 0.099998 -0.039054 -0.028576 0.075369 -0.085875 -0.005664 -0.060505 0.114604 -0.091864 0.090159 0.039099 -0.106800 -0.072262 0.000634 0.114820 0.008395 0.090549 -0.068344 0.085829 -0.119042 0.101914 -0.020382 -0.025407 -0.008012 0.023863 -0.012959 0.052162 0.109770 -0.091014 -0.064801 -0.071134 0.065590 -0.103421 0.091521 0.050101 0.049258 -0.045505 -0.045579 -0.086233 0.038103 0.080350 -0.037574 0.022602 0.027135 -0.095621 0.034538 0.056039 -0.093191 0.036446 -0.087676 -0.113362 0.062526 -0.062158 -0.048846 0.036653 -0.011515 0.115755 -0.005847 0.025258 -0.073977 -0.058775 0.005428 -0.001437 0.046359 0.015608 -0.034352 0.088284 -0.072531 0.052673 -0.051493 0.080781 0.098159 0.100848 0.098422 -0.003928 0.069098 -0.025310 0.085068 -0.036482 -0.052032 0.055052 -0.062123 -0.084248 -0.117449 0.075286 -0.036373 0.052403 0.121791 0.060964 0.015910 -0.046133 -0.097525 0.044764 0.082772 -0.013170 -0.112189 -0.041660 0.097859 0.082590 -0.060131 0.001787 -0.038573 -0.035380 0.045089 -0.037478 -0.006839 -0.080615 -0.014641 -0.113128 -0.084400 0.079151 0.113032 -0.068808 -0.034962 0.122445 0.098273 0.061471 
with -0.030537 0.023386 -0.099379 0.050193 0.048994 0.094783 0.037616 -0.025847 -0.083502 -0.034211 -0.102004 -0.016694 0.023117 0.020986 0.091238 0.023500 -0.018405 0.039933 -0.104800 0.113117 -0.084231 0.031073 0.061140 0.099145 0.018075 -0.105629 -0.058920 0.117020 0.015514 0.022377 -0.057963 -0.123792 -0.000802 -0.045586 0.048486 -0.105580 0.101459 -0.052993 0.041571 -0.004787 0.015102 0.120574 0.015405 0.076650 -0.029782 -0.101023 -0.105864 0.120277 0.028075 0.039348 0.117976 0.101915 0.105417 0.091057 -0.004743 -0.098043 0.126339 -0.100485 -0.099603 -0.113479 0.086228 -0.094544 -0.062807 0.016382 0.048742 0.079290 0.109693 0.035296 -0.076505 -0.010838 -0.044352 0.099568 0.115786 -0.014702 0.047049 0.019493 -0.103947 0.017257 0.061117 0.047287 0.093207 0.033570 0.001956 -0.051268 0.061113 0.112397 0.108127 0.034102 0.011447 0.115868 0.001823 -0.020982 -0.081599 -0.015262 0.066425 -0.012598 0.134520 -0.072972 0.048257 0.045562 0.005863 -0.012955 -0.021442 0.005310 0.016115 0.062821 -0.032327 0.027980 0.108182 0.068837 -0.085960 0.052272 -0.095431 -0.035441 0.009320 0.096826 0.037376 0.085039 0.087588 0.004356 -0.113782 0.043776 -0.010039 -0.103477 0.006393 -0.009029 0.081977 0.015449 -0.034641 -0.048472 -0.114865 0.114692 0.090032 -0.070480 -0.080893 0.010793 -0.102418 0.086670 0.029810 0.106852 0.086525 0.057651 0.108384 -0.112356 0.006600 0.112596 -0.062880 0.081323 0.000868 0.022118 -0.031517 0.035199 0.039492 -0.074178 0.110961 -0.097004 0.118091 -0.023296 0.003056 -0.112854 0.045106 -0.061929 0.112833 -0.007085 -0.033404 0.102475 -0.013682 0.080181 0.066629 0.058962 -0.017302 0.039386 0.086985 0.007890 -0.037872 0.043083 0.119566 -0.056542 -0.039051 -0.108996 -0.005717 -0.086515 -0.011956 -0.096738 -0.033571 0.006846 -0.120180 -0.002214 -0.011400 -0.078067 0.041977 0.092299 -0.088207 -0.109146 -0.019166 -0.018854 0.082482 -0.041017 -0.037275 -0.009365 
have -0.008498 -0.008689 0.061083 0.024327 0.089561 -0.071861 -0.024345 0.028793 -0.023037 -0.009932 -0.089193 0.027015 0.012588 -0.011594 -0.100162 0.096690 -0.095848 0.030448 0.035242 -0.098865 -0.107858 0.045897 -0.004863 0.110015 0.039455 0.023655 -0.009589 0.031466 -0.005391 0.011818 0.054363 -0.020027 -0.061105 0.117682 0.042700 0.092427 0.112801 0.034162 0.107114 0.091343 0.105647 -0.013054 -0.015081 -0.004780 0.039527 0.024132 -0.053799 -0.118246 0.095732 0.016226 0.083455 -0.112161 0.041175 -0.107067 0.074798 -0.027225 -0.061249 0.116728 -0.105668 -0.081725 -0.089446 0.025346 0.048928 0.038823 -0.098912 -0.037132 -0.079278 -0.002265 -0.085948 0.095787 -0.101810 -0.008899 0.012342 -0.060573 -0.044564 0.037421 0.081266 0.015460 -0.111030 -0.022398 0.065325 -0.042392 0.028074 -0.051461 -0.031781 -0.067641 0.050865 -0.090468 0.089634 -0.071384 -0.068555 0.115868 0.078086 -0.005524 -0.060100 -0.065119 0.114867 0.000444 -0.068063 -0.022961 -0.033110 0.113014 0.059247 -0.035145 -0.066163 0.084297 0.059146 -0.083170 -0.098984 -0.037609 -0.035069 -0.089341 0.049716 0.091379 0.105885 0.083235 -0.089937 -0.072612 -0.076663 -0.079716 0.018528 -0.067106 0.101752 -0.086118 0.023630 -0.080792 -0.035936 -0.095064 0.106658 -0.006377 0.076345 0.030339 0.034527 0.085843 0.116710 0.012606 0.106919 -0.052018 0.059262 0.107023 -0.027647 0.101712 -0.062702 -0.082288 0.048907 -0.056035 0.080102 0.055139 0.103493 0.114806 -0.070997 0.005033 -0.037778 -0.107226 -0.068324 0.022679 -0.016028 0.036330 -0.115366 -0.051013 0.113249 -0.057596 0.117158 -0.079152 0.116963 0.014275 0.070578 -0.102435 0.058012 0.004058 -0.044217 -0.102363 0.058489 -0.040152 0.042858 -0.001239 0.062897 -0.011060 -0.049275 0.101040 0.074936 0.021039 0.067861 -0.073010 -0.079286 0.045044 -0.105206 -0.031315 -0.040886 0.109054 -0.061603 0.067034 -0.102149 0.083574 0.054377 -0.114647 -0.022589 -0.101690 -0.079148 0.093308 
want 0.024027 0.018531 -0.011975 -0.001366 -0.082962 0.010804 0.048987 -0.086869 0.097628 -0.010174 -0.045108 -0.016612 0.063658 -0.121427 0.107954 -0.079882 -0.111574 -0.083255 -0.008095 -0.014340 -0.055202 -0.101345 -0.113923 0.023195 -0.067738 -0.057832 -0.114183 -0.077817 0.092208 -0.028008 -0.100457 -0.116372 0.004198 -0.017485 -0.092612 -0.063013 0.041008 0.017096 -0.058535 -0.094828 -0.102424 -0.055556 0.095086 -0.064037 0.067192 -0.068102 0.035219 -0.006252 -0.124527 -0.023269 -0.018325 0.084064 -0.046900 -0.120807 -0.033540 0.051806 -0.015037 -0.004807 0.095390 0.037582 -0.021181 0.005740 0.025324 -0.003135 -0.000331 -0.099327 -0.029487 -0.054904 -0.071215 -0.023559 -0.024885 -0.023446 -0.044926 0.096685 -0.115187 -0.028010 0.081581 -0.054445 0.101738 -0.102295 -0.117293 -0.002267 0.115260 0.014017 -0.025690 0.061657 -0.049984 -0.086512 0.056635 0.002323 -0.044576 -0.015896 -0.118982 -0.005439 0.036748 -0.058093 0.012752 0.023517 -0.075831 0.039548 0.081502 -0.108478 -0.102271 0.118229 0.034584 -0.039634 0.056764 0.080009 0.112089 -0.088179 0.064215 0.123260 -0.102374 -0.027674 -0.108997 0.019210 0.009616 -0.047654 0.066954 0.099532 -0.109852 -0.033290 -0.049805 0.007999 0.042185 -0.068528 -0.060074 -0.044052 0.038077 0.095134 0.015288 -0.040575 -0.001361 0.003665 -0.036221 0.096143 0.123079 0.024085 0.124697 0.019470 -0.086261 0.073637 -0.086193 -0.065050 -0.064605 -0.097631 0.055740 0.101041 0.060881 0.046244 0.077585 0.111054 -0.009740 -0.116782 0.083781 0.108761 -0.026091 0.074785 -0.012978 0.050946 0.077827 -0.121596 0.002123 -0.046305 -0.064613 0.076800 -0.081860 -0.097448 -0.014191 0.039211 0.080796 0.039441 -0.023674 -0.057647 -0.096030 0.067430 -0.015820 0.025751 0.105767 0.014454 -0.123309 0.091088 -0.020592 -0.040547 0.103629 0.000999 0.111669 0.044741 -0.081672 -0.073096 -0.077171 -0.017698 -0.112025 0.104579 -0.125067 0.031712 -0.111856 0.094855 0.015812 0.032787 
than 0.103090 0.007898 -0.067928 -0.112014 0.053377 0.016064 0.034004 0.032315 0.045182 0.106092 0.051728 0.005179 -0.037838 0.086579 0.019022 -0.114609 -0.011787 0.066363 0.029709 0.052003 -0.113103 -0.025864 -0.002529 -0.016650 -0.037794 0.038831 -0.103962 -0.061613 0.097798 0.069046 -0.000623 -0.004072 -0.002815 -0.066575 -0.079069 0.054642 -0.095687 0.041045 0.054763 0.073246 -0.117017 -0.099736 -0.105780 0.070504 0.057043 0.040253 -0.046539 -0.114961 -0.110185 0.089467 0.086121 -0.104098 0.105626 -0.023401 -0.034312 0.061811 0.047704 -0.069419 0.046275 -0.078853 0.080088 0.000202 -0.118725 0.033106 -0.093707 0.054107 0.044897 0.056167 0.010453 0.020990 -0.029562 -0.050955 -0.024013 -0.110409 0.112011 -0.029302 -0.073257 -0.051109 0.023009 -0.040253 0.046619 0.067536 0.037449 0.055052 0.099176 -0.065974 0.069013 -0.024860 -0.091978 0.017486 0.091428 -0.021034 0.077391 -0.113678 -0.101719 -0.094847 0.070603 -0.110438 0.063779 -0.107440 -0.108588 -0.044101 0.021221 -0.100096 0.084002 0.074074 -0.015474 -0.054048 0.051648 0.052685 -0.012527 0.109515 -0.021756 0.000568 -0.116306 0.049071 0.107737 0.086608 0.067253 -0.036471 0.023544 0.059355 0.031497 0.111846 0.089705 -0.032403 0.050394 0.092450 0.009734 -0.079828 -0.022423 0.044204 0.027576 0.085963 -0.033081 -0.074177 -0.033161 -0.026670 -0.007850 -0.003735 -0.048628 0.111443 0.087044 0.094151 -0.075118 -0.111435 0.105238 0.118150 -0.108881 -0.046036 -0.039590 0.026978 -0.086114 0.056189 0.106674 0.079593 0.117032 0.003837 0.097424 0.114616 -0.036123 -0.094254 0.026484 0.030717 -0.061441 -0.069199 0.047726 0.026802 0.104879 0.067741 -0.105311 -0.118553 0.106301 -0.115027 0.081532 -0.086344 -0.113469 -0.028283 -0.018494 0.022096 -0.070295 0.016474 -0.011325 -0.074704 0.059432 0.007986 0.076768 -0.117790 -0.080821 -0.004959 0.039370 -0.028349 -0.066967 0.086476 -0.029694 0.092289 0.104747 -0.029207 0.023449 -0.037350 
say 0.016834 0.125888 -0.063447 0.082988 0.032690 0.098581 -0.025484 0.046483 0.115433 0.016808 -0.002280 0.001917 -0.016474 0.035222 -0.090176 -0.107578 -0.027230 -0.081701 -0.057575 -0.004762 -0.030860 -0.058486 0.127691 -0.100824 -0.083444 -0.020881 0.055276 -0.010820 0.050690 -0.042868 -0.115216 -0.033189 -0.058444 -0.122213 0.107220 0.125150 -0.018703 0.017604 -0.004144 0.015989 0.104346 0.006010 -0.104401 0.047857 0.062900 -0.004014 -0.029758 -0.052861 -0.091835 0.011251 -0.063504 -0.052244 0.053146 0.083882 0.081964 -0.095932 -0.082590 0.076381 0.026332 -0.044333 0.003127 -0.090911 -0.098311 0.062720 -0.119348 0.082184 -0.065915 -0.024224 -0.062521 -0.106147 -0.084210 0.069754 0.107383 -0.051638 -0.063338 -0.057871 -0.110403 -0.067792 -0.083294 0.075396 0.113144 0.074735 0.084817 -0.021508 -0.106139 -0.066449 -0.044954 -0.010001 -0.060843 0.119700 -0.107198 0.005972 -0.029021 0.066066 0.045607 -0.014225 0.097948 0.001572 -0.113100 -0.066000 -0.081934 -0.032132 -0.037600 -0.064155 -0.112676 0.102095 0.123063 -0.094372 -0.007508 0.064428 0.018415 0.033982 0.067525 0.088190 0.110212 0.087252 0.006057 -0.014834 -0.045388 -0.090877 -0.042293 0.124979 -0.104601 -0.123747 -0.041531 -0.092219 0.075664 -0.028621 0.063897 0.109416 -0.006740 -0.049543 -0.103734 -0.005310 -0.085411 -0.106768 -0.080466 -0.045484 -0.048255 -0.059087 0.109164 -0.108807 -0.011620 0.067065 0.057850 0.061089 0.043261 0.024821 0.122564 -0.002618 0.099194 -0.107248 0.002929 0.077979 0.039238 0.084880 -0.041561 -0.026507 0.009914 0.046038 0.045738 -0.074286 -0.012818 0.042392 -0.097095 -0.010755 0.001486 -0.084236 -0.023495 0.007583 -0.084152 0.070172 -0.004712 -0.081209 0.110261 -0.070715 0.057398 -0.030194 0.096598 0.033852 -0.000048 -0.040328 -0.119540 -0.034136 0.066606 -0.008465 0.072602 0.125920 -0.032270 -0.011274 0.073554 -0.044088 0.048331 -0.052170 0.112547 -0.021415 -0.077567 -0.078642 -0.013566 0.029222 
let's 0.034491 0.015996 0.019758 0.008839 -0.101190 -0.084052 -0.104900 0.108080 0.056573 0.089530 0.050031 -0.116018 -0.082482 0.107455 0.050846 0.107345 -0.100337 0.094036 -0.000430 -0.020504 0.005534 -0.043979 0.034713 -0.061286 0.066079 -0.073130 -0.096476 -0.014804 -0.037721 0.048630 0.093056 -0.031394 -0.116943 -0.022153 0.008235 0.036071 0.056653 0.091864 0.034506 -0.104750 0.084867 -0.071982 -0.098515 0.040281 0.077489 -0.017422 0.108335 0.089688 -0.015321 -0.090306 0.053443 -0.075461 0.051635 0.104198 -0.111592 -0.011476 0.099339 0.086144 0.050313 0.059084 0.014530 -0.093899 0.106409 -0.011689 -0.023480 -0.101972 -0.091874 -0.106931 -0.008883 -0.006934 0.076230 -0.008416 -0.112869 -0.050125 -0.111591 0.040996 0.015250 0.048104 0.066181 -0.094773 0.089895 -0.069346 0.020169 -0.055621 0.114192 -0.014776 -0.116114 -0.116222 -0.080835 -0.025620 0.106205 -0.019715 0.079093 -0.049890 0.013922 0.076220 0.086193 0.007835 -0.068842 0.065799 -0.057654 0.082143 0.011995 -0.086233 -0.052429 -0.066189 0.000924 0.109504 -0.034304 0.074171 -0.070420 0.029812 -0.030990 -0.099244 0.109257 0.031490 -0.045657 0.049788 0.007805 0.081955 -0.025127 0.053410 0.052975 -0.032251 -0.078357 -0.056816 0.047247 -0.000444 -0.020364 0.072857 0.086715 0.074517 -0.096462 -0.106316 0.086625 -0.079389 0.007806 0.107201 0.020165 0.020804 -0.064757 0.046047 -0.087161 -0.006700 0.105694 0.063591 0.104946 -0.042252 0.042630 0.078254 0.028940 -0.112986 0.047300 0.087094 -0.100515 0.027929 0.012400 -0.096559 -0.012827 -0.006163 0.112266 0.098762 -0.086527 -0.078666 -0.112787 -0.095356 0.054630 -0.005778 0.094561 0.000770 -0.067340 0.011491 -0.078979 -0.023774 0.028403 0.024991 0.016880 -0.056503 -0.015349 -0.038820 -0.091978 0.059461 -0.055892 0.001073 -0.093923 0.078769 0.107800 -0.062699 -0.115991 0.048045 0.052450 0.074703 0.030826 0.073709 0.091136 0.077637 0.112306 0.087480 -0.071244 -0.089517 
relations -0.048092 0.092252 -0.021370 0.064029 -0.093433 0.108998 0.055461 -0.107800 -0.059645 0.027297 0.012363 0.037876 0.029838 -0.003839 -0.007806 -0.049306 0.006961 0.030965 -0.011234 -0.096290 0.003737 -0.089668 0.025644 -0.015130 -0.034677 0.009577 -0.051134 0.077530 -0.122543 -0.000652 -0.087014 -0.110414 0.070390 -0.114924 -0.091946 -0.043150 -0.076740 -0.057060 -0.038224 0.089602 0.127745 0.054158 -0.085682 -0.059036 -0.071393 -0.128520 -0.063417 -0.016839 -0.111882 -0.087213 -0.008764 -0.047210 -0.095105 -0.031626 0.116950 -0.036299 -0.087794 -0.108627 -0.074286 -0.104584 -0.092480 0.118086 0.056794 -0.037126 -0.043191 -0.119081 -0.008482 -0.088701 -0.048859 -0.014886 0.014483 0.119115 0.074179 0.034331 -0.033672 -0.069516 0.075639 -0.028591 0.015325 0.085564 0.037464 0.020079 -0.103740 0.090360 0.068723 -0.017846 0.121036 0.027644 0.128300 -0.024057 0.050961 0.047810 -0.052601 -0.063461 0.087405 0.108370 0.118098 0.085123 -0.045085 -0.030260 -0.001144 -0.025684 -0.055056 -0.039596 0.050518 -0.022565 -0.092627 -0.005870 0.000237 0.017435 0.000057 0.020110 -0.061800 0.066419 -0.069816 0.048426 0.000240 -0.053844 0.003077 -0.082947 0.093861 0.021229 0.061395 0.019331 0.000148 -0.057417 0.002888 0.073725 0.030726 -0.016807 0.064792 0.087908 0.049073 -0.087495 0.029040 -0.106574 0.022988 0.119367 -0.005829 -0.116012 -0.062151 0.004290 0.105859 0.032656 0.122826 0.079153 0.120119 0.085942 -0.063631 0.121651 0.028933 -0.117378 0.083171 0.012774 -0.036547 0.078073 0.072861 -0.077629 0.067057 -0.127890 -0.041677 0.089621 0.071154 0.034564 -0.118716 0.070407 -0.000679 -0.102550 0.028067 -0.039596 -0.030463 0.115596 -0.105714 -0.051014 0.110934 0.120362 0.067845 0.027888 -0.069492 -0.051188 -0.111154 -0.002216 -0.057483 -0.068116 0.092893 -0.035658 0.000869 -0.029773 -0.096607 0.100157 0.012895 0.007326 -0.093637 -0.097681 -0.044076 0.066907 -0.032837 -0.083620 0.116527 -0.016693 
not 0.033611 0.007111 0.081975 -0.093984 0.113175 0.100595 0.014912 0.030076 0.020281 -0.053465 -0.099423 -0.107707 0.107953 0.073427 -0.000964 0.058067 0.106519 0.118856 -0.063700 -0.069412 0.008895 -0.020284 0.111068 -0.039370 0.127483 -0.085878 -0.009633 -0.073053 0.075683 -0.037000 0.108992 -0.098522 0.062596 0.010787 0.078903 0.030440 0.097418 -0.035309 0.047887 0.027919 -0.008731 0.058628 -0.006925 -0.089281 0.109254 0.093504 -0.051711 0.012595 -0.092790 -0.046089 0.009391 -0.034010 -0.113560 0.054127 0.077768 -0.010736 0.107309 -0.125468 -0.088097 0.103283 -0.043949 -0.027474 0.005992 -0.104526 0.108146 -0.033039 -0.017018 -0.021879 0.100268 0.015389 -0.018186 0.114723 -0.026481 0.120884 -0.013569 0.015507 0.101163 0.090555 0.025772 0.041090 -0.037918 0.014201 -0.025970 0.088685 0.019629 0.087541 -0.032799 0.102217 0.105012 0.046897 -0.016193 0.120065 0.084310 -0.059925 0.041693 -0.028766 -0.063846 0.124603 0.009359 0.021938 0.114686 0.023739 0.040422 0.003567 -0.014538 -0.100453 0.116862 -0.055834 -0.117969 0.032329 0.021539 -0.094491 0.018100 0.023332 0.076293 0.038559 -0.072607 0.072964 -0.022628 0.055770 0.104997 -0.083321 -0.066442 -0.044003 -0.008653 0.092577 -0.036514 0.105558 0.012139 -0.017966 -0.066782 -0.106167 -0.101186 -0.016537 0.002429 -0.011112 -0.006511 0.116140 -0.101173 -0.053842 -0.079981 -0.087674 -0.117020 0.085623 0.110416 -0.006187 0.084334 0.064780 0.070038 0.017259 -0.119032 0.070565 -0.112374 -0.007523 0.024039 -0.119860 -0.084964 -0.041810 0.030318 0.080912 0.090594 0.040390 0.000503 0.059764 -0.055232 -0.082602 0.101058 0.042469 0.035224 0.044031 0.058269 0.033665 -0.023083 0.000774 -0.116024 0.102099 -0.026178 -0.100220 -0.041551 -0.087161 0.007058 -0.082333 -0.069590 -0.088635 -0.069695 0.021490 0.002496 -0.108360 0.092242 0.032595 -0.021590 -0.100192 -0.043543 0.060313 -0.040494 0.088696 0.000261 0.029488 0.096784 -0.068172 
this 0.075695 -0.074312 0.107434 -0.056147 0.036008 0.046382 0.043109 -0.050236 0.075023 0.016913 -0.007904 0.091360 -0.042664 0.005426 0.107594 0.088397 -0.014392 0.000712 -0.114834 -0.040442 0.044007 0.051345 0.075863 0.022452 0.076483 0.026546 0.055676 -0.062949 0.086773 0.094462 -0.022193 -0.098607 -0.100741 0.004740 0.055239 -0.065839 0.115527 0.045098 0.082460 0.113823 -0.037891 0.084755 -0.086255 0.100351 -0.078979 0.052717 -0.058566 0.091783 0.055786 -0.062226 -0.099771 0.106802 0.011429 0.027641 0.062901 -0.015264 -0.028958 -0.047601 0.044583 0.102978 -0.061639 0.119333 -0.001525 -0.057855 -0.023091 0.038953 -0.101581 -0.000799 -0.029148 -0.001025 0.017187 0.113473 0.103281 0.107759 -0.030090 -0.055067 -0.100347 0.055169 -0.090210 -0.069240 -0.098231 0.069138 0.049809 0.089638 -0.006203 -0.040902 -0.054684 0.021752 -0.119454 0.072553 -0.071134 0.104496 0.044036 0.099366 -0.085481 0.057629 0.069506 0.028327 0.115257 -0.100169 0.080263 -0.091988 0.086430 -0.051287 0.020259 0.085923 -0.078548 0.103387 -0.106770 0.012782 0.012662 0.083609 0.001839 -0.083478 0.094764 -0.091936 -0.008889 0.084857 -0.037753 -0.105642 0.044138 -0.091272 -0.052334 -0.058395 -0.074483 0.034560 -0.034921 0.008703 -0.062091 -0.027138 -0.011669 0.114334 -0.034520 0.011352 0.051049 0.097826 -0.047816 0.019248 0.007510 0.097432 -0.098246 -0.074443 0.010910 0.072049 0.116855 -0.041792 0.035096 0.040362 0.003372 -0.073363 0.113695 0.080836 -0.016464 -0.060796 0.100982 0.092586 0.061084 -0.075085 -0.088984 0.034509 0.060398 0.111699 -0.004080 -0.074713 0.104785 0.069853 -0.088955 0.082529 -0.100946 -0.092265 -0.011056 -0.072932 -0.074775 0.032633 -0.095465 -0.103920 0.007677 -0.044945 0.109944 0.008250 0.030579 -0.037282 -0.078621 0.102905 -0.062121 -0.075158 -0.089466 0.079158 -0.027543 0.009571 -0.008531 -0.104095 -0.041307 -0.033443 -0.101114 0.050112 0.019894 0.083515 -0.094443 -0.097176 
on 0.101437 -0.009611 0.106388 0.071581 -0.036877 0.096222 -0.068283 0.034467 -0.087787 -0.094260 0.081311 0.051595 0.073768 -0.046695 0.104183 -0.039997 -0.094153 0.106274 0.095078 -0.100086 -0.102665 0.050093 -0.033168 0.072188 0.112658 0.015940 -0.064538 0.010677 -0.050763 0.053083 0.035078 0.037517 0.077869 0.028879 0.117876 0.050381 0.017247 0.113868 0.096692 0.007583 0.074345 0.054134 -0.055004 -0.071929 -0.110867 -0.101055 -0.060555 -0.108568 -0.110141 0.000751 -0.067765 0.037887 0.080311 0.045000 0.078750 0.083202 0.039823 0.020322 0.109912 0.046325 -0.106544 -0.024016 0.059830 0.006843 0.069460 0.021891 0.023250 0.104978 0.086529 0.086037 -0.086995 0.056496 0.009090 -0.085496 -0.054886 -0.119657 -0.037794 0.041655 -0.088861 -0.101344 -0.110970 0.092299 -0.094175 0.009108 0.035900 -0.005570 0.084553 -0.072536 -0.017854 -0.020774 -0.064301 -0.084778 0.095382 0.095955 -0.021532 0.051966 0.076211 -0.030574 0.065056 -0.007176 -0.071577 0.012728 0.108298 -0.061344 -0.041007 -0.028057 0.081666 -0.091588 0.050437 -0.103661 0.019267 -0.018324 -0.096640 -0.104179 0.015848 0.056125 0.006647 -0.101618 -0.015759 0.090071 -0.060370 -0.107347 -0.102081 0.102462 0.069919 -0.072099 0.033538 -0.069664 0.098120 0.114031 0.000748 -0.043535 0.028024 -0.106059 -0.045071 -0.103387 -0.075944 -0.016096 0.112103 0.012276 -0.088720 -0.051906 0.021281 -0.102055 -0.067151 -0.103587 0.019756 -0.063609 -0.007446 -0.000596 0.020363 0.085926 -0.087728 0.003150 -0.003427 -0.119597 0.059615 -0.043083 -0.017506 -0.115497 -0.107358 -0.029390 0.072872 -0.004097 -0.099764 -0.027776 -0.062006 -0.069634 -0.095722 -0.049612 0.036425 -0.050611 0.029830 -0.045629 -0.082821 -0.109990 -0.022502 0.094075 -0.082451 -0.107547 -0.006380 0.054949 -0.049630 -0.084971 -0.099927 0.068168 -0.010888 -0.023312 0.064471 -0.059545 0.067883 -0.085533 -0.055130 0.024260 0.038883 0.111137 0.030156 0.005030 0.057491 0.039915 
