29 200 #File: 03_01_Well_Formed_XML_Part_2.txt.bin
</s> 0.099131 0.109451 -0.094860 -0.081184 0.033845 0.074820 0.023301 0.005234 -0.089245 0.054943 -0.107890 0.030946 -0.018608 -0.023706 -0.082118 -0.046614 0.063880 0.074926 0.073532 0.039562 0.038259 -0.094176 -0.101436 0.123078 0.094142 0.076529 -0.014957 0.099452 -0.012259 0.018196 -0.003696 -0.073883 0.032499 -0.033123 -0.094740 0.117742 0.108457 -0.027122 -0.005600 0.012611 -0.090091 -0.099240 0.112803 0.001561 -0.063956 -0.075342 -0.076192 0.042026 0.004988 0.032964 -0.104353 -0.094305 -0.003220 0.028324 0.063147 -0.078509 0.101035 0.022957 0.027730 -0.015067 0.073963 -0.056659 -0.051946 0.053454 -0.018653 0.025527 0.044690 -0.101258 -0.049112 0.072160 0.104807 0.097381 -0.075459 -0.052199 -0.022515 0.049569 -0.093825 0.074246 0.069042 -0.039600 -0.038425 -0.055434 0.104731 0.096882 -0.029219 0.104387 0.119379 0.044959 0.123407 -0.077050 -0.037934 -0.052192 -0.071998 0.069711 0.039113 0.010525 -0.054327 0.037741 0.075769 0.004796 0.056458 -0.122655 0.106863 0.011885 -0.045348 -0.051595 -0.018525 -0.072689 -0.108215 -0.070263 0.105925 -0.043833 -0.066359 0.057392 -0.042196 0.117803 -0.039740 -0.113646 0.067259 -0.001840 -0.086403 0.024167 0.035712 -0.011923 0.045182 -0.098016 0.021820 0.044989 -0.074522 0.003518 -0.001504 -0.059417 -0.070153 -0.116246 0.000567 0.003783 0.000242 -0.097426 -0.122886 -0.117553 -0.107127 -0.013548 0.034457 0.029329 -0.078815 0.123781 -0.049815 -0.031543 -0.034782 0.117206 -0.093213 0.028754 -0.033074 0.078947 0.001005 0.105740 -0.069821 -0.064519 -0.103824 -0.090813 -0.079238 -0.077141 0.060532 -0.046236 0.066374 0.091388 0.033580 0.073075 0.061311 0.057966 -0.087937 -0.085024 -0.090560 -0.003269 0.102298 -0.067776 -0.075792 -0.103926 0.081876 -0.103495 -0.014345 0.053960 -0.114375 -0.110917 0.035734 0.087291 0.105608 0.053137 0.078316 -0.077458 -0.090159 0.098439 -0.068475 0.043424 0.014217 0.044339 -0.029280 0.004924 -0.041758 -0.027900 
the -0.106785 -0.078520 0.083948 0.024216 -0.056906 -0.038343 0.060089 -0.085083 -0.055715 0.114029 0.102323 -0.095359 0.020978 -0.054190 0.003668 0.072419 0.116723 0.047847 0.099060 0.075785 -0.005572 0.107781 0.061088 0.114198 -0.041073 0.114323 0.104264 -0.034381 -0.106447 0.116396 0.021603 -0.050067 -0.017288 -0.017718 -0.092812 -0.034469 -0.010687 -0.118667 -0.084683 -0.028986 -0.022668 0.043113 0.019647 -0.014800 0.070960 0.034837 0.013194 0.087119 -0.027108 -0.034359 -0.009960 -0.065693 -0.072253 0.004877 0.104484 -0.032926 -0.000500 -0.099600 0.089328 -0.036615 0.071489 -0.058012 -0.021558 0.002268 0.087263 -0.002076 0.106763 -0.017887 0.050585 -0.003297 -0.093974 0.102379 0.025432 -0.072963 0.072452 -0.099828 -0.104859 0.078703 -0.082654 -0.063767 0.084969 0.079130 0.016501 0.108950 0.116973 0.097667 0.042507 -0.104782 0.055127 -0.117829 -0.030981 0.036417 0.023624 -0.036726 0.070761 -0.110986 -0.033988 -0.031595 -0.039890 0.073962 -0.113944 0.066913 0.032216 0.068156 0.088586 0.006656 0.019883 -0.109589 -0.024770 0.077410 -0.043021 0.101467 -0.028754 -0.093397 -0.062411 0.118005 0.080398 -0.095557 0.116010 -0.101372 -0.115047 0.059637 -0.015810 -0.056138 -0.009188 -0.060599 0.057707 0.091882 0.100670 -0.106274 -0.051062 0.000224 -0.022565 0.091963 0.053032 0.109200 -0.074062 0.041114 0.102794 -0.044083 0.070372 0.030956 -0.108762 0.101114 0.113430 -0.070228 -0.005843 -0.038527 0.058876 -0.093088 0.084139 -0.022694 -0.029313 -0.048913 -0.106013 -0.073426 -0.026946 0.111221 -0.060721 -0.111691 0.009526 0.014741 0.073246 0.001753 0.083867 0.071853 -0.031525 -0.015344 0.019199 0.030412 0.080331 0.096689 -0.060287 -0.060658 -0.039023 -0.064826 0.029813 -0.092220 -0.054649 -0.119791 0.052408 0.105076 -0.053106 -0.109604 0.071474 0.038233 -0.060735 -0.015447 -0.029651 -0.002973 -0.043668 0.000856 -0.066564 0.090596 0.092180 0.078549 -0.035502 0.006582 0.019397 -0.064620 
xml -0.109578 -0.026279 -0.045752 0.064263 0.066962 0.043077 -0.071316 0.079716 -0.035127 0.081581 0.031186 0.117124 0.066017 0.015172 -0.053470 0.112901 -0.049117 0.082157 0.121808 0.114062 -0.020758 0.076992 0.110029 -0.054674 0.110771 -0.117395 0.005693 -0.012676 0.102133 -0.103419 -0.032926 -0.037737 0.006023 0.110215 -0.041092 -0.114763 -0.032885 0.101906 0.028204 0.070240 -0.086581 -0.028436 0.012450 -0.062132 0.088477 -0.117009 0.080390 -0.060359 0.081145 0.070465 -0.045384 0.083777 0.011489 0.109412 -0.089749 -0.024058 0.071975 0.103324 0.058493 -0.023681 0.014159 -0.016692 0.046425 0.066825 -0.093000 -0.033341 0.100118 0.009292 0.115634 0.121280 0.025463 -0.117168 0.111418 0.047127 -0.106421 0.087809 -0.118156 -0.049354 0.101149 0.083269 -0.017925 0.023617 -0.070743 -0.107707 0.051983 0.103898 0.098079 0.066853 0.037181 0.047023 -0.001720 0.032034 -0.061889 0.023571 0.015602 -0.001687 0.065979 0.015074 -0.097765 -0.030612 0.052094 0.086518 -0.086189 0.025826 0.088045 0.090712 -0.091974 0.070635 -0.062514 -0.030330 0.030522 0.056975 -0.097311 -0.067754 0.030443 0.009654 0.111203 0.051055 -0.062307 0.000048 0.021250 -0.053897 0.083738 -0.072563 0.115799 0.012023 -0.104195 0.004041 -0.009473 0.021934 0.067294 -0.000822 -0.012596 0.006344 -0.072568 -0.006458 0.079410 0.085706 0.043915 -0.121565 0.005176 -0.057248 0.087113 0.104181 0.078364 0.037310 0.030456 -0.041671 -0.057470 -0.046194 -0.088482 0.000161 0.019055 0.033791 0.056707 -0.098033 0.074474 -0.030320 -0.099391 0.093249 -0.070895 -0.016619 -0.098739 0.105119 -0.048055 -0.105861 0.093317 0.033341 0.079737 0.025914 0.091544 0.008810 0.084537 0.103736 0.040153 -0.015627 0.030304 0.087621 -0.073497 -0.011366 0.026376 0.048428 0.020039 0.087393 0.030918 0.081842 -0.082633 -0.041969 0.041276 0.115293 0.037393 0.017695 -0.111780 -0.097458 0.101359 0.054309 -0.073138 -0.041046 -0.091775 -0.083342 
a 0.106627 -0.065391 0.025153 -0.026242 -0.052976 -0.013090 -0.110390 -0.055510 -0.005780 0.106110 -0.044768 0.089158 -0.108578 0.100667 0.015456 0.005901 0.063025 0.079497 -0.076192 0.074047 0.032055 -0.028758 0.074637 0.011916 0.102724 0.004999 -0.039075 0.078653 -0.081760 -0.010772 0.097201 0.112763 -0.097003 0.032844 0.096629 0.012841 0.060751 0.064489 0.113192 -0.022061 -0.025380 0.072895 -0.119764 0.026836 0.008905 0.106887 -0.087709 -0.001962 0.107272 0.035015 0.062886 0.030504 0.033112 0.026286 0.005274 0.082922 0.090636 0.069433 -0.046469 -0.066293 -0.076948 -0.027086 -0.058543 -0.097909 -0.045244 0.086011 0.062945 -0.113328 -0.050863 0.096999 -0.008751 0.086502 -0.029958 -0.005388 -0.059556 0.039629 -0.098954 0.068039 -0.055668 0.065288 -0.073823 -0.054535 0.096805 0.062075 0.049191 0.036262 0.071116 -0.011322 0.093570 0.088798 0.081342 0.104239 -0.057113 -0.088468 -0.079082 0.006899 0.021537 0.094109 -0.075899 0.075983 0.092910 0.084441 0.004511 0.029815 -0.019512 0.111626 -0.104507 -0.112829 0.048575 -0.015877 0.111578 -0.032712 0.000469 0.051212 0.025564 -0.071604 0.080293 0.001170 0.031799 -0.030453 0.111527 0.063095 0.103993 0.109520 -0.022255 0.045446 0.035584 -0.053544 0.103340 0.057139 -0.079537 0.100043 0.011340 0.026814 -0.087386 0.048241 0.005956 -0.056794 -0.014253 0.050192 -0.029239 0.095503 -0.066700 -0.055598 0.089785 0.111890 0.089528 0.110195 -0.113947 -0.078991 -0.112678 0.025531 -0.095858 -0.007676 0.021485 -0.050449 0.027625 -0.106073 0.045090 -0.038874 -0.040198 -0.024900 0.052030 -0.041148 -0.055206 -0.075881 -0.044078 -0.098583 0.046447 -0.029917 -0.029158 0.047962 -0.092029 -0.078551 -0.109774 -0.003371 -0.046242 -0.112865 0.048333 -0.113621 -0.052800 0.036145 0.118415 -0.083737 -0.047856 0.116848 0.074182 0.105061 0.092528 -0.062295 -0.050563 0.050911 0.071652 0.088358 0.078437 -0.107225 -0.106729 0.016721 -0.105930 0.070071 
to 0.102887 -0.050601 0.093080 -0.121079 0.101011 -0.058929 -0.019416 -0.118242 0.074489 0.097353 -0.099465 -0.021278 0.025833 0.104892 0.002579 -0.119803 0.018264 -0.043841 0.022350 0.095430 -0.071082 -0.061816 -0.008272 -0.026100 -0.044027 -0.081934 -0.000356 -0.097700 0.097148 0.063093 -0.033024 0.074473 -0.068641 -0.112930 0.106056 0.027112 0.067978 -0.082656 -0.030752 0.087041 -0.031843 0.026651 -0.110533 -0.098045 0.115893 -0.109633 0.027913 -0.076792 0.094893 -0.009940 0.103031 -0.080922 0.026278 -0.113840 -0.079249 -0.024777 0.100616 -0.063168 0.059099 -0.012732 0.074460 0.071018 -0.062540 -0.086475 0.015824 0.022837 0.018911 0.012495 0.047800 0.092559 0.094167 -0.120386 0.117818 -0.098673 0.014654 -0.096453 -0.019542 0.113133 -0.061245 0.039788 -0.053128 -0.020236 0.081619 0.064224 -0.101013 0.037866 -0.006364 0.050115 0.017791 -0.086627 0.008852 -0.097334 0.067445 0.024320 0.036590 0.069284 0.118778 0.106799 0.060413 0.071447 0.046111 -0.022381 0.109384 -0.004342 0.042829 -0.017449 0.034930 -0.019321 0.101861 0.047718 -0.009358 -0.008413 0.054845 -0.077547 -0.049496 0.036982 0.022900 -0.097763 -0.041207 -0.042592 -0.052179 0.093646 0.094860 -0.103578 0.076101 -0.064603 0.038416 0.052655 -0.008552 -0.091786 -0.000179 -0.039172 0.057276 0.058804 0.017717 -0.055053 -0.019306 0.009153 -0.054496 -0.106969 -0.002230 -0.061895 -0.062382 0.014137 -0.064650 0.064083 -0.039565 0.088097 -0.080655 -0.040086 0.055414 -0.056940 -0.103661 -0.021026 0.075957 -0.034282 0.100428 0.045416 -0.071431 0.119174 -0.120211 -0.094246 0.080274 -0.074251 0.086931 0.095791 0.069068 -0.037829 -0.067741 -0.006470 -0.002877 -0.121049 -0.092622 0.021799 0.018031 0.119835 0.077484 -0.082468 0.103803 -0.030358 0.076573 -0.024634 0.054732 0.002280 0.096061 0.065217 -0.049831 0.116190 -0.102711 0.108419 -0.041079 0.016122 0.026941 0.099417 0.048208 -0.030971 -0.113700 0.085762 0.008744 0.060570 
we -0.097325 -0.063862 -0.059923 -0.058029 0.074979 0.061074 -0.006598 0.052903 -0.012327 -0.033117 -0.098023 -0.068474 0.006046 -0.056463 -0.059291 -0.102058 0.073611 0.100248 -0.037269 0.091488 -0.046882 -0.116570 -0.118574 -0.011294 -0.050398 0.004836 -0.088550 0.090458 -0.053679 0.031388 0.086696 -0.006204 -0.113212 0.072298 0.019278 0.079073 0.015784 0.056014 0.104614 0.063847 -0.084703 -0.028763 0.075325 -0.033051 -0.049383 0.107942 -0.034695 0.108479 0.065256 0.093305 0.109718 -0.095276 0.021963 0.096791 -0.060085 0.037309 -0.115242 0.107103 -0.088432 0.043032 0.018932 -0.067819 0.058570 0.000975 -0.114036 -0.077749 -0.006965 0.050475 -0.028347 0.005763 0.110380 -0.090907 0.099002 -0.069599 -0.097788 0.077690 -0.089749 -0.013861 -0.115543 -0.087700 0.071964 0.041171 -0.089756 0.034294 0.105871 0.023945 -0.107041 -0.079786 0.075994 -0.076837 0.047257 0.070923 0.106607 0.028799 -0.075001 0.083471 -0.099796 -0.031970 0.102363 0.097196 -0.057415 -0.089679 0.010702 0.070673 0.056753 0.085391 0.105687 0.022731 -0.115051 0.060162 -0.060820 0.032455 0.093735 -0.056154 0.087358 -0.001835 -0.036173 -0.094092 -0.018425 0.119453 0.041278 -0.064950 0.077502 -0.066885 -0.031672 0.080227 -0.073001 0.000268 -0.070493 -0.031381 0.106246 -0.021783 -0.071419 0.010706 0.046595 0.066554 0.029568 -0.045827 -0.037298 0.043091 0.115727 0.088995 -0.111542 -0.013089 -0.110446 0.042348 -0.081989 0.037354 0.077863 -0.016303 -0.035254 -0.088024 0.021624 -0.098255 0.002302 0.111642 0.086130 0.086465 0.064572 -0.007616 -0.026126 -0.075983 0.004685 -0.065443 -0.070360 0.065899 -0.022956 -0.103264 0.017447 0.018782 -0.044713 -0.102249 -0.120464 0.072637 -0.026692 0.016685 -0.058548 0.095659 -0.115764 -0.089157 -0.034055 0.016296 0.083489 0.020834 0.017035 0.064266 0.062674 -0.116547 -0.022022 0.047511 0.096699 0.059816 0.033305 0.075240 0.038696 -0.033786 -0.054238 0.075902 0.043065 0.043252 
is 0.020723 0.038826 0.084813 0.069873 -0.102225 0.011270 -0.048062 -0.121195 0.008552 0.105480 -0.014197 0.102318 0.111913 0.003764 0.098375 -0.036598 0.027960 -0.060394 0.017890 -0.028868 -0.116997 -0.037233 0.023766 -0.039080 0.109566 -0.060722 -0.033275 0.074388 -0.023429 0.041382 0.003701 0.024465 0.039024 0.012630 0.107899 0.075256 -0.066699 -0.097220 0.068800 0.062173 0.091923 0.067802 -0.017905 -0.118129 0.028782 -0.054966 0.004717 -0.017819 0.053916 0.012929 0.109872 -0.107693 0.048668 0.076280 0.087041 -0.062405 -0.044377 0.001118 0.031914 0.014701 0.023579 -0.040313 0.101425 0.081520 0.072635 -0.059496 0.023811 -0.087778 -0.015864 -0.006672 0.078489 0.077124 -0.054364 -0.015808 0.116182 -0.017056 -0.039039 0.085340 0.048855 0.077513 0.095182 0.040321 0.094681 -0.109966 -0.015325 -0.101107 0.043143 -0.009177 0.061960 0.017026 -0.010070 0.031567 0.085897 0.077027 0.091975 -0.029840 0.121557 0.067413 0.077517 0.070710 0.050282 0.037944 -0.018996 -0.076339 0.059627 0.099619 -0.101873 -0.084398 -0.091549 -0.065253 -0.014182 0.004429 -0.093209 0.021781 -0.027683 -0.035686 -0.064008 -0.079457 -0.107929 0.120604 -0.061362 -0.012997 0.085740 -0.119983 -0.081442 -0.096532 -0.024648 -0.064647 -0.059179 -0.096577 0.024050 0.060782 -0.113229 0.036628 0.021314 0.091717 -0.056039 -0.075854 0.062834 -0.075188 0.116219 -0.016809 0.060577 0.007898 -0.021321 -0.042691 -0.012253 0.115147 -0.097380 -0.103738 -0.121206 0.081969 0.075596 -0.088951 0.074377 0.049987 0.011498 -0.071054 -0.003476 -0.022902 0.020364 -0.061530 0.108377 -0.117561 -0.016462 -0.010619 -0.045550 0.091358 0.088574 -0.052290 0.120368 0.010575 0.094330 -0.014298 0.028161 0.087920 0.065877 0.091874 -0.103996 0.097563 -0.115442 0.071017 0.003312 0.119886 -0.017105 0.034131 -0.044160 0.051542 0.119748 -0.091508 -0.089478 0.095395 0.115218 -0.072415 0.085531 0.025616 0.095616 -0.103798 0.025380 -0.077416 
and 0.003544 -0.074974 0.071028 -0.072383 0.088123 -0.057962 -0.111899 -0.000477 -0.076907 -0.064733 -0.058191 -0.088810 -0.118693 -0.045319 0.020743 -0.010657 -0.094895 0.111753 -0.025007 -0.115807 -0.001667 0.087444 -0.037845 0.045469 -0.019670 0.116227 -0.044677 0.000379 -0.022057 0.002068 -0.010908 0.075649 -0.066486 0.102443 -0.086449 -0.078510 0.096892 0.098314 -0.113701 -0.012369 0.041411 -0.021851 -0.119572 0.047286 -0.106081 0.037924 -0.069467 -0.064831 0.088769 -0.102901 -0.113296 0.039508 -0.108213 -0.025349 -0.093461 0.072016 0.106336 0.013044 -0.036869 0.051911 0.121246 0.062248 0.091073 0.059914 -0.121141 -0.012271 -0.105548 -0.007759 0.121036 -0.037541 0.022875 0.052616 -0.070901 -0.025094 -0.042575 0.014253 -0.078093 0.075041 -0.021299 -0.042128 0.041802 -0.117676 -0.063206 0.025694 0.046622 0.061738 -0.010698 -0.070567 0.001712 0.109741 0.109317 -0.065687 0.033919 0.076302 0.085428 0.121055 0.085585 0.072894 0.013731 -0.106137 -0.085450 0.026483 0.051824 -0.051528 0.078168 -0.074463 -0.073206 0.058097 -0.034730 0.066032 -0.080758 0.057451 0.010210 0.067429 -0.120743 0.088757 -0.029174 0.102699 -0.035563 0.109733 -0.087537 -0.085694 -0.098130 -0.106407 -0.038033 0.044230 -0.027845 0.013067 0.061682 0.111933 0.025383 0.118367 -0.030555 0.044381 -0.026854 -0.078795 -0.003393 0.076047 0.034542 -0.067188 0.024009 0.010897 -0.001839 -0.012098 -0.006006 -0.039598 -0.039902 -0.017309 -0.089594 0.097534 0.077950 0.120904 0.084594 -0.081250 0.078806 -0.070251 -0.094609 -0.033968 -0.002740 -0.018044 0.053153 0.104846 -0.070593 -0.072263 0.039715 0.016152 0.032845 -0.029185 -0.069579 -0.065574 0.034662 -0.115597 0.098123 -0.090364 -0.030548 -0.004771 -0.006847 0.053254 -0.066689 -0.046498 0.111366 0.046242 0.083836 -0.037053 0.026096 -0.122931 -0.097890 0.042781 0.110195 0.087714 -0.085263 0.027721 0.060000 0.051633 -0.028191 0.059989 -0.120645 -0.058202 -0.015083 0.097301 
of -0.115249 -0.008361 -0.069583 -0.090514 -0.054712 0.007656 0.079154 0.073270 0.011297 0.097692 0.042284 0.003741 0.083732 -0.051884 -0.017796 -0.119970 -0.013133 0.036501 0.109153 -0.013554 0.078415 -0.081282 -0.026334 -0.094709 0.079532 -0.044869 -0.090673 0.020170 -0.016861 0.064684 0.074112 0.054322 0.084653 0.003373 -0.042917 0.020060 0.047847 0.058176 0.080354 -0.004487 0.040053 0.100036 0.045498 -0.121455 0.069836 0.047709 0.020253 -0.121823 -0.039403 -0.100030 -0.036530 0.006939 0.073508 -0.056065 -0.085035 0.103818 0.120395 0.050449 -0.014468 0.059679 0.094763 -0.094491 0.058137 0.089024 0.066493 -0.029883 -0.116475 -0.041533 -0.078714 0.069642 -0.019635 -0.019325 0.083416 0.049293 -0.050321 0.079085 0.065093 0.106958 -0.055623 -0.045704 -0.057057 -0.034979 -0.040225 0.105471 0.077217 -0.068930 0.005702 -0.108359 -0.068405 0.102982 -0.051806 -0.068723 -0.016532 -0.062118 -0.068357 -0.043254 0.068007 -0.107868 -0.055917 -0.030057 0.056286 0.028450 0.010877 0.055515 -0.097274 -0.033922 -0.014667 0.112641 0.083639 0.118129 0.014485 0.100460 -0.053043 -0.016432 0.084424 0.034795 0.096717 0.108730 -0.012524 -0.004997 -0.004708 0.114686 0.053711 -0.120927 -0.114353 -0.080182 -0.049734 -0.105008 0.076135 0.009959 -0.105067 0.053238 -0.042738 -0.057407 -0.068701 -0.043910 -0.023310 0.072254 -0.092556 -0.025646 0.114084 0.084092 -0.023663 0.079257 -0.034648 -0.036349 0.106109 0.038161 -0.108541 0.005604 0.101914 -0.069482 0.075916 0.075506 0.048814 -0.095482 0.045932 0.107334 0.095399 -0.082531 0.095578 0.083120 -0.010390 -0.025548 -0.117184 0.058319 -0.002619 -0.069521 0.060138 -0.111737 -0.024461 -0.081056 -0.080813 -0.000810 0.070528 -0.106663 0.000356 -0.111995 0.025308 0.118250 -0.059081 0.091771 0.114678 -0.048932 -0.066809 -0.003051 -0.066173 0.012362 -0.025602 0.006458 -0.101034 0.011766 -0.099586 0.111617 -0.025649 -0.025388 0.059028 -0.121408 -0.044852 -0.015481 
document -0.070683 -0.097205 -0.064916 -0.066967 -0.018041 0.112157 0.059348 0.022238 0.047903 0.014707 0.075373 0.034424 0.009537 -0.104673 0.011326 0.036549 0.049421 0.106854 -0.036910 -0.057740 -0.077116 0.097418 0.081462 -0.063284 -0.047409 0.092798 0.094433 0.049673 0.014406 -0.099602 0.045309 0.113777 0.045390 0.113889 0.025784 0.024965 0.057321 -0.057338 -0.052323 -0.007371 0.109892 0.098829 0.023218 0.020198 0.087822 -0.105395 0.056974 -0.035689 -0.065304 -0.065150 -0.117906 -0.051067 -0.109920 -0.102423 -0.092319 -0.057615 0.026949 0.023943 0.113749 -0.040956 -0.019903 0.123447 0.035369 0.076818 -0.061394 0.045120 0.018353 -0.044764 -0.094600 -0.026886 -0.027576 0.027054 -0.050975 -0.114386 0.107481 0.085383 -0.059081 0.091735 -0.015077 -0.035037 0.074592 -0.041635 -0.060390 0.039446 0.111897 -0.095794 0.120007 0.020943 0.112762 -0.086037 0.021888 -0.063124 -0.038330 0.049159 -0.087842 0.117175 0.090871 -0.077819 -0.102349 -0.041603 0.012527 -0.048509 -0.114004 -0.091326 0.042779 0.122036 0.087091 -0.013187 0.050969 0.000147 0.055812 0.040598 -0.008368 -0.065766 -0.114049 -0.044746 0.104334 0.101926 -0.015488 -0.068681 -0.028710 0.010454 0.066445 -0.005880 -0.040874 -0.066253 -0.066018 -0.017173 0.011424 -0.003143 -0.084539 0.030018 -0.107630 -0.113350 -0.068443 0.101922 -0.090752 0.061122 -0.044476 -0.036773 -0.064170 0.104078 0.022049 -0.054044 -0.079874 0.110050 -0.024768 -0.049527 0.108226 0.013261 -0.021086 -0.078894 0.088868 0.048347 0.006349 -0.112391 -0.027536 0.018283 0.081274 -0.065587 -0.052141 0.028313 0.076213 -0.062115 0.031261 0.017328 -0.116584 -0.118274 0.028244 -0.040916 -0.033102 0.012529 0.073217 -0.078376 -0.118463 -0.062753 0.112097 -0.002853 -0.042236 0.014154 -0.104215 -0.116528 0.118351 -0.016218 -0.022934 0.049544 0.078243 0.103676 -0.002744 0.055172 -0.108304 -0.045540 -0.095395 0.016551 -0.117379 -0.074837 -0.061559 0.100359 -0.039258 -0.015892 
in -0.071339 0.055984 0.109155 -0.102283 -0.007042 -0.065587 0.115014 -0.009680 0.071704 0.083095 0.075361 -0.075683 -0.063042 -0.055583 -0.098711 -0.117904 -0.115282 -0.001570 0.053332 -0.098675 0.040690 0.044047 0.075442 0.048636 0.116660 -0.046490 0.064305 -0.010377 0.110655 -0.101885 -0.062362 -0.079088 0.078900 0.105446 -0.095095 0.100745 -0.079254 -0.096565 0.006923 -0.111343 0.048918 0.119014 0.086364 -0.103781 -0.010246 -0.039751 0.068895 0.094816 0.047558 -0.098755 -0.085505 0.019275 0.101205 -0.010991 -0.094187 -0.014891 0.104671 0.090688 -0.093703 -0.112996 0.051656 -0.103873 0.048191 -0.064015 0.007433 0.108619 0.079082 -0.102988 0.104073 0.071288 0.032502 0.090969 0.040643 0.108788 -0.006334 -0.045765 0.054029 -0.062827 -0.117588 -0.091197 -0.021156 0.002785 -0.083102 -0.028334 -0.067383 -0.107428 -0.115210 -0.009746 0.101311 -0.059145 0.116724 0.095512 0.003679 0.086074 0.050201 0.018235 -0.043139 0.068157 -0.095115 0.007243 0.066311 -0.052162 -0.049956 -0.098029 0.047408 0.061988 0.037101 0.086070 -0.100708 0.105128 0.077372 0.031784 -0.072913 0.060290 0.051083 0.002072 0.022952 -0.012723 -0.009827 0.071992 0.114239 -0.012132 -0.009166 -0.099578 -0.023318 -0.012560 -0.044615 -0.063632 -0.089476 -0.016200 0.106863 -0.051045 0.035339 0.018394 -0.001283 0.021299 0.069024 -0.035438 -0.030528 0.044088 -0.001849 -0.013301 -0.073769 -0.009543 -0.104079 0.074200 0.081022 0.102177 -0.118200 0.038404 -0.008024 -0.014948 -0.096073 -0.012021 -0.006272 0.024149 -0.035685 0.090221 -0.010347 -0.064104 -0.119879 0.093448 -0.034657 -0.030766 0.027129 0.049728 -0.044508 -0.027363 0.101856 0.058201 0.045339 0.085604 0.110243 0.064810 -0.090870 0.020300 0.116492 0.039190 0.005033 0.040098 -0.001962 0.045667 -0.107795 -0.018244 -0.052657 -0.052942 -0.114661 -0.013394 -0.037984 -0.091429 -0.080005 0.006437 0.108586 -0.080812 -0.040143 0.065549 0.031079 0.029683 0.036447 0.002537 
that -0.084042 0.113319 0.008423 -0.039790 -0.000160 0.094405 0.026725 -0.109839 0.110046 -0.037030 0.065761 0.052377 -0.107527 0.006024 -0.079477 0.048023 0.006872 0.093109 -0.077249 0.015015 -0.020137 -0.085152 -0.013286 -0.087649 0.113366 -0.062831 0.086320 -0.002777 0.053276 -0.030027 0.016562 0.109351 -0.017764 -0.117199 0.109180 -0.090459 -0.096025 0.081941 0.039888 0.072455 -0.118142 0.079102 0.021149 -0.098933 0.038890 -0.077260 0.086510 -0.049239 0.080606 -0.040496 0.090601 -0.117658 0.010731 0.118575 -0.052308 -0.106636 -0.107367 -0.088341 0.108802 0.002464 0.087871 0.102879 -0.108190 0.049363 0.063424 0.084664 0.105569 -0.066580 0.061575 0.024749 -0.051318 0.090743 -0.092865 -0.088050 0.110723 0.062860 -0.038337 0.033281 -0.090426 -0.071953 -0.069307 0.019726 -0.084471 0.062773 0.056508 0.039018 0.042858 -0.051074 -0.074636 0.079976 0.026915 0.082255 -0.101179 -0.047499 -0.098755 0.063923 -0.079033 0.003243 -0.002410 0.031847 -0.004470 -0.077173 -0.008336 -0.054976 -0.052679 -0.061375 0.095930 0.060647 -0.100655 0.099093 0.105380 -0.020119 0.034246 0.035218 0.113199 0.079197 0.117195 -0.085268 0.033656 0.079037 -0.026995 -0.034992 0.079215 -0.001962 -0.036765 -0.004051 0.044867 -0.085523 0.031974 0.115648 0.023799 -0.033732 -0.055606 0.014731 -0.069722 0.112409 0.002417 -0.079430 -0.023231 -0.105573 0.090492 -0.118379 -0.041737 0.106264 -0.085847 0.005981 -0.032054 -0.068386 -0.045763 -0.015729 -0.079914 0.045140 0.035556 0.043866 0.027148 -0.011630 0.042560 -0.005333 0.084122 0.078134 -0.080664 -0.055231 -0.054361 -0.024763 -0.091832 0.061907 0.003079 0.115787 0.072423 0.096342 -0.008205 0.041311 0.057993 0.096531 -0.054666 0.068641 0.047525 -0.067985 -0.043120 0.097135 0.044744 0.009082 -0.059297 0.085793 0.113017 0.077996 0.109267 0.053250 -0.101762 -0.051343 0.019008 0.077785 0.060163 -0.032284 0.001667 0.058754 -0.113148 0.064353 -0.028487 -0.044842 
an -0.084512 -0.011625 -0.101504 0.025170 0.042044 0.029298 0.069293 0.109849 -0.044483 0.053979 0.083247 0.102652 -0.091982 -0.011276 0.099383 -0.039086 -0.034514 0.070130 0.090550 -0.047737 0.007682 0.100387 0.091656 -0.090084 -0.023575 -0.056260 -0.048567 -0.022617 0.123829 0.022965 0.077142 0.112000 0.019363 0.078191 -0.054839 0.084925 0.039256 -0.088395 0.086868 -0.022389 -0.122905 -0.116076 0.102762 -0.066434 0.033226 -0.078547 -0.096368 -0.089872 0.077119 0.012556 -0.041203 -0.073312 -0.111466 -0.040578 0.054930 0.064699 -0.094239 0.122765 0.040764 -0.028798 -0.115557 -0.067577 0.075323 0.100001 -0.109481 0.121462 -0.116777 -0.025980 0.051983 -0.004398 -0.004159 -0.077054 0.062422 -0.084441 0.013674 0.090289 -0.074286 0.055873 0.095747 -0.063085 -0.043968 -0.091561 -0.033325 -0.021314 0.033135 0.020147 -0.090399 0.048820 0.098845 0.007011 0.021492 0.042593 -0.091194 0.043571 -0.035097 -0.082660 0.025423 0.118189 -0.039082 -0.059313 0.080225 0.033056 0.044446 -0.054146 0.015030 -0.099349 0.064218 0.076350 0.081952 -0.104485 -0.068975 0.041275 0.098694 0.006011 0.114186 0.108258 -0.054983 0.034328 -0.096095 0.110515 0.059210 0.092948 -0.106383 -0.056676 -0.051317 0.108175 -0.005886 0.060487 -0.072392 0.068373 -0.069990 -0.015071 0.123981 0.023965 -0.015553 0.046336 -0.016848 0.087433 0.006159 -0.108250 0.005470 -0.063153 -0.094065 -0.025026 0.008636 0.057040 -0.095141 0.067168 0.120648 0.001966 0.037840 0.001549 0.035090 -0.115894 -0.094626 -0.078373 0.004076 -0.122000 -0.085278 0.032972 0.093543 -0.027988 0.038734 0.106743 -0.064983 -0.031669 0.064081 -0.023844 -0.033211 -0.020564 0.087732 0.032957 -0.055498 -0.068365 0.020477 -0.013753 -0.065907 0.061525 0.083399 0.103652 0.063559 -0.076941 0.063172 -0.029844 0.026484 -0.123045 0.056763 -0.022496 0.074982 0.097751 -0.025037 0.083031 0.026757 0.077342 0.038855 0.057896 0.009803 0.114387 0.035113 -0.016450 
for -0.033100 0.071070 0.058993 0.003405 -0.098108 -0.116738 0.025672 0.072977 0.119826 0.018917 -0.092226 -0.029666 0.021365 0.044552 -0.019532 0.015876 0.032452 0.069480 0.096746 0.107830 -0.084385 0.022083 -0.071332 -0.036513 -0.023824 -0.108949 -0.067665 0.084182 0.097283 -0.033369 -0.099573 0.066587 -0.018847 0.116892 -0.072819 0.050169 0.114040 0.028974 -0.074100 -0.006534 0.077538 -0.067191 0.111441 -0.084676 -0.003961 0.118645 0.035243 -0.105098 0.054244 -0.027936 0.032784 0.071667 0.014680 -0.096065 0.017367 -0.078329 -0.058573 -0.097051 -0.037392 -0.053755 -0.041125 0.018107 -0.097570 -0.016694 0.010484 0.117481 -0.068932 -0.068921 0.100022 -0.111790 -0.038173 -0.010657 0.050328 0.042711 -0.031679 -0.064297 -0.014209 -0.093738 -0.015527 0.090558 0.091114 0.070658 0.104520 0.110892 -0.112420 -0.018203 0.000523 -0.044758 -0.078245 0.110855 -0.112663 -0.116303 0.076787 0.024350 0.040131 -0.024586 0.054892 0.072837 0.070654 -0.112622 0.101082 -0.056545 -0.107789 0.060609 0.038195 0.107380 -0.039100 0.031469 -0.009379 -0.110112 0.069403 0.120360 -0.098182 -0.117224 0.070713 -0.015737 0.016800 0.014426 0.119377 0.064202 -0.082839 0.032287 -0.052234 -0.103464 -0.031466 -0.014640 0.072289 0.042910 0.114378 -0.017040 0.104697 -0.080936 0.117220 -0.046532 -0.041707 -0.033980 0.041140 -0.114426 0.089178 -0.038618 0.010528 0.069524 0.048789 -0.015692 -0.031157 -0.109096 -0.068637 -0.066977 -0.080144 0.001822 -0.108555 0.007307 -0.072355 -0.091515 -0.097350 -0.015236 0.116602 -0.098863 -0.001097 -0.055448 -0.052301 0.089093 0.033196 0.026139 -0.092807 -0.081753 -0.081168 -0.053180 0.059162 0.101020 0.111912 -0.033317 0.045513 -0.037315 -0.077369 -0.076356 0.050946 0.095042 -0.072289 -0.042829 0.079231 -0.056015 0.040455 0.025801 -0.046794 -0.019307 -0.006766 -0.092862 0.038504 0.012924 0.061216 -0.078418 0.037341 -0.091250 0.097394 -0.032640 -0.046514 0.079036 0.015070 0.003007 
it 0.094494 0.029276 0.030897 0.041648 0.098911 0.051866 -0.066406 -0.066567 -0.089682 0.014474 0.058900 0.060248 0.017074 0.080178 0.083120 0.114386 -0.002409 0.009525 -0.019193 -0.096383 -0.028444 0.078783 0.020376 -0.027836 -0.100861 -0.075160 0.056488 -0.018269 0.017053 -0.047621 0.006837 -0.106423 -0.105002 -0.088267 0.080164 -0.035374 -0.078116 0.095154 0.079912 0.029625 0.023563 -0.113256 0.084935 -0.014464 -0.035715 -0.068389 0.025231 0.044593 0.054715 -0.015415 0.097683 -0.022477 -0.071067 0.096838 0.104411 0.105766 0.025080 -0.106772 -0.085613 0.074828 0.093455 0.026603 -0.108623 0.104465 -0.039528 -0.008318 0.028395 -0.045129 -0.002701 0.100219 0.122088 -0.054678 -0.092954 -0.051861 0.010480 -0.001145 -0.077063 -0.015043 0.090768 0.054458 0.119885 -0.078387 0.117221 -0.112193 -0.105645 0.076855 0.099331 0.063894 -0.083569 0.059512 -0.101325 -0.003705 -0.059510 0.051208 -0.093533 -0.099046 0.046518 0.025878 0.111713 0.020246 0.096950 0.050842 0.054687 -0.046652 0.050027 -0.020977 0.069913 0.087256 -0.096454 -0.011649 0.063314 -0.107991 -0.036526 0.055477 0.023530 0.112799 0.120044 0.006314 -0.018151 0.100957 0.063896 -0.056397 0.029415 -0.003273 0.046628 0.025026 0.071337 0.012158 -0.105890 0.017006 0.084977 -0.086002 -0.042045 -0.044286 -0.125730 0.027843 -0.033786 -0.043364 0.012454 -0.000318 -0.103530 -0.054477 -0.073541 0.044960 0.066348 -0.094938 0.068285 -0.073455 0.115671 -0.105681 -0.001198 -0.033609 -0.012221 0.017222 0.047100 0.076779 -0.070154 -0.034842 0.119363 -0.032586 -0.002847 -0.037617 -0.038403 -0.112639 0.087341 0.065835 0.087383 -0.068160 -0.109044 -0.116547 0.105283 -0.003707 -0.097532 0.095475 -0.076000 0.030120 -0.057318 -0.057430 0.008676 0.059755 -0.115493 -0.025174 -0.085936 -0.080338 -0.074138 0.052580 -0.048231 -0.002734 0.061383 0.098464 0.063161 -0.005673 -0.117520 0.105291 -0.031089 -0.059436 -0.014413 0.117669 -0.055109 -0.081323 
well 0.086394 0.016928 0.086617 0.068698 -0.074712 -0.040346 0.060720 0.098986 0.074881 -0.059058 0.088121 0.028326 -0.089664 0.011878 -0.047319 -0.060754 -0.124280 0.034919 0.004152 -0.022853 -0.025037 -0.064600 -0.099358 0.098801 0.023364 -0.046962 0.117656 0.072352 -0.100901 -0.112586 -0.063959 -0.019676 0.046236 0.103998 -0.042944 -0.031880 -0.034309 0.025110 0.090316 -0.007487 -0.024224 -0.109532 0.056805 0.073150 -0.045331 0.002667 -0.108108 0.041052 0.094929 -0.027344 -0.054672 0.041620 -0.102528 -0.022723 -0.124779 0.031626 -0.067881 0.004740 -0.094430 0.030721 0.077045 0.106131 0.071742 0.121428 0.021798 -0.107597 -0.031032 -0.053862 0.021813 0.043408 0.009878 -0.035364 -0.107609 0.044345 -0.084544 -0.054937 0.014721 -0.053701 -0.027424 -0.030053 0.078350 0.114743 0.027977 -0.066818 0.087208 -0.028004 -0.008727 0.043047 0.108100 0.009283 0.086463 0.067685 0.019204 0.026185 0.097408 0.089622 0.013079 -0.114843 0.122353 0.002752 0.093655 0.014549 0.070913 0.015355 0.076232 -0.100444 -0.084422 -0.104427 0.090493 0.094281 -0.056775 -0.022562 0.077491 -0.041835 0.000591 -0.096660 0.041155 -0.080442 -0.002709 -0.118443 0.048293 -0.033330 -0.094185 -0.068261 -0.022919 -0.100920 0.013040 -0.115096 0.020079 0.082261 -0.085803 -0.113546 -0.070291 -0.061468 0.021913 -0.106837 0.024285 -0.040883 0.057174 -0.075322 -0.069524 -0.056403 0.055347 0.063525 0.092350 0.005937 0.114678 -0.047906 0.010822 0.071469 -0.106726 0.050170 0.004206 -0.123102 0.118147 -0.125611 -0.049322 -0.023675 0.070145 0.010289 0.042798 -0.019300 0.099020 0.100260 0.032989 0.066864 0.114386 0.101073 -0.011943 -0.028479 0.088735 0.032379 0.037686 -0.002736 0.057435 -0.023299 0.122929 0.006551 0.118730 0.079444 -0.003792 -0.075284 -0.069270 0.045872 -0.024162 -0.008524 -0.031062 -0.104366 -0.060006 0.006413 0.017216 -0.037237 0.081236 0.083489 -0.077698 -0.110353 -0.099519 -0.103468 0.096825 -0.115434 
have -0.033943 -0.066140 0.010734 -0.034341 -0.095070 0.003946 -0.052833 -0.032976 -0.086062 -0.041831 0.013335 0.035440 -0.002810 -0.018501 0.114699 0.125693 -0.038503 0.061604 -0.040582 -0.004733 -0.057498 -0.011147 0.110620 -0.006451 -0.121450 -0.117553 -0.118135 0.009558 0.036817 -0.072643 -0.032185 -0.001923 -0.038953 0.111250 0.076629 -0.020339 0.049951 -0.038571 -0.017766 0.040627 -0.021194 0.123228 0.050457 0.069994 0.014788 -0.007583 -0.076308 0.022547 -0.035292 0.082799 0.099300 -0.081161 -0.035790 -0.078327 0.088141 0.108256 -0.048362 -0.108689 -0.007025 -0.046319 -0.068898 -0.086387 -0.017670 -0.063964 -0.027521 -0.023751 0.027432 0.075870 -0.051653 -0.130414 -0.097791 -0.066630 0.060115 -0.024105 -0.027513 -0.076312 0.048827 -0.045989 -0.119339 0.001610 -0.015639 0.054668 0.124091 -0.075381 0.002360 0.068235 -0.049429 0.042104 0.041168 0.113916 -0.011007 -0.019986 0.104896 0.113611 -0.118247 -0.043798 0.000353 0.054989 0.126211 -0.008779 0.126251 -0.008514 -0.029841 -0.091678 -0.105201 0.042304 0.042493 0.122658 0.099308 0.129346 -0.014395 0.062881 0.020456 -0.022788 0.033791 0.012608 0.056952 -0.097594 -0.039025 0.058160 -0.115927 0.024129 -0.130080 0.088555 0.032065 0.001216 -0.070849 0.058578 0.044669 0.084404 0.109898 -0.011219 0.057530 0.064061 -0.076982 -0.034517 0.008992 0.059388 -0.002593 -0.122297 -0.096836 -0.007711 -0.024542 -0.056707 0.072992 0.113498 0.091465 -0.080262 0.127985 -0.049682 0.119355 -0.106642 0.006487 -0.114984 -0.101179 0.016237 -0.024325 0.102564 0.124525 -0.019906 0.105426 0.064494 -0.021507 0.068549 0.005250 0.087310 0.023852 0.104852 -0.123441 0.027147 0.100296 -0.021977 -0.013471 0.068974 0.113286 -0.094086 -0.121097 -0.062608 0.034047 -0.090923 -0.047607 -0.051095 -0.100424 0.073831 -0.117725 -0.040354 0.075698 0.026128 -0.064274 -0.108481 -0.058260 -0.016181 -0.080442 -0.004741 -0.004937 -0.032542 -0.030587 0.061235 0.009594 0.063362 
so 0.021789 -0.050168 0.081211 -0.094507 0.079590 0.088808 -0.117121 -0.045409 -0.032890 -0.023021 0.114871 -0.017862 0.051911 -0.093878 0.083742 0.067708 0.034637 -0.013873 -0.115774 0.108991 -0.080922 -0.097519 -0.085800 0.064303 0.012167 -0.113668 -0.095376 -0.047407 -0.046079 -0.013059 -0.110400 0.095950 -0.069984 0.071682 -0.036139 -0.092967 -0.055759 0.068559 0.040254 0.071704 0.061014 -0.033797 0.092253 -0.118634 -0.079649 0.056392 -0.088553 -0.099377 -0.049557 -0.036017 0.077599 0.027165 -0.087435 0.102011 0.018525 -0.023206 0.113650 -0.025922 -0.049786 0.010972 -0.048802 0.114475 -0.093230 -0.033242 0.095917 -0.094455 -0.017074 -0.015642 0.066564 0.002838 0.091528 0.022088 -0.072441 -0.090044 -0.036465 0.098896 0.046463 -0.081326 0.118083 0.051840 -0.118593 -0.103632 -0.077644 0.021126 -0.078791 0.013555 0.016748 -0.034929 -0.012226 0.016352 -0.110297 -0.097378 -0.036368 -0.045979 0.060355 -0.086647 0.034459 -0.063549 -0.104110 -0.105046 -0.038470 -0.108354 0.036701 0.048258 0.051777 0.050752 -0.028768 -0.092819 -0.054782 -0.021999 -0.023898 0.036328 0.070043 0.025796 -0.096472 0.090873 -0.054989 -0.120373 -0.091128 0.029134 0.119570 0.013155 -0.034392 0.112573 -0.008778 -0.009388 0.107840 -0.064266 -0.011842 -0.078114 -0.054730 -0.118664 0.114168 -0.022503 0.118290 -0.092301 -0.051363 -0.096439 0.115344 0.033767 0.101645 -0.008145 -0.029463 0.096601 0.031321 0.109753 0.021115 -0.006110 -0.016031 -0.057258 -0.062590 -0.073532 0.024009 -0.035514 -0.064588 -0.086721 0.033971 -0.018269 0.049224 0.033900 -0.042985 0.104365 -0.111451 -0.056495 0.039447 0.017877 0.093778 0.085441 0.103170 -0.046586 -0.089160 -0.006376 0.030714 -0.039762 0.101386 -0.009854 0.007756 -0.094277 0.032601 -0.027306 0.038085 -0.039614 0.102363 -0.100413 -0.056396 0.112861 0.041631 0.032287 0.091876 -0.072622 -0.115492 -0.034663 -0.058971 -0.001143 -0.031758 0.081459 -0.020116 0.012785 -0.036835 0.096453 
formed 0.030300 -0.041725 0.083484 0.026950 -0.023311 -0.113634 -0.112916 -0.040466 0.000271 -0.097170 -0.060967 0.026338 0.104422 -0.064617 -0.078796 -0.051095 0.117561 -0.026105 0.040622 -0.014143 -0.076190 0.067590 0.095890 -0.027058 -0.058587 0.087081 -0.056157 0.050226 -0.061536 -0.036264 -0.030315 -0.056397 -0.027087 -0.081642 -0.085080 -0.098406 -0.062839 0.001999 0.042974 0.005334 0.005889 0.086670 -0.020683 -0.083261 -0.047760 0.097288 0.110984 0.070090 0.069454 0.029475 -0.061560 0.011272 0.010291 -0.074423 -0.035680 0.053483 -0.042989 -0.103456 0.051209 0.096451 -0.090234 0.106506 0.107291 0.099530 -0.067740 0.070833 0.112579 0.082833 -0.088160 0.076136 0.097740 -0.114670 0.028240 -0.010197 -0.081521 -0.118324 0.047026 -0.015062 -0.038870 0.030525 0.034428 0.041034 -0.032106 0.113748 0.109853 -0.022646 -0.032389 -0.026727 -0.015010 -0.103427 0.054226 -0.020601 -0.104025 -0.031431 -0.092213 0.097232 -0.092787 -0.056698 -0.026871 0.103320 -0.097875 0.103027 0.048157 0.076974 0.063672 0.087426 -0.011422 -0.079553 -0.075341 0.059926 -0.054562 0.062968 0.016135 0.007871 -0.107000 0.052248 -0.009138 -0.017416 0.101140 -0.035628 0.027176 0.090392 -0.043880 -0.063118 -0.102909 0.021198 0.075207 -0.069043 -0.106152 0.004509 -0.034684 -0.039469 -0.093381 0.087723 -0.105074 0.106040 0.113312 -0.095657 -0.045672 0.031228 0.049258 0.090894 0.060683 -0.066040 0.010223 -0.066786 -0.047732 0.065282 -0.115747 -0.055080 -0.101740 0.030007 0.084968 0.001678 -0.011049 -0.031800 -0.086886 0.032331 -0.096309 0.074503 -0.104611 0.023521 0.091666 -0.108423 -0.073282 0.028398 0.110443 -0.027044 -0.056728 -0.088175 0.054240 -0.018743 -0.045821 0.078967 0.074105 0.114774 0.022444 0.045895 -0.090287 -0.084961 0.029662 0.097820 0.062303 -0.065110 -0.075792 0.106055 -0.081866 0.074752 -0.058481 -0.001257 0.100225 0.054772 -0.085636 0.000338 0.112967 -0.102842 -0.041501 -0.075648 -0.012975 -0.084893 
or 0.025207 0.112147 0.053493 0.004251 0.114400 0.022867 -0.016875 -0.108203 0.049205 0.121006 -0.003772 0.077748 -0.046842 -0.029744 -0.117335 -0.091648 0.013266 -0.072120 -0.019365 0.016546 -0.015400 -0.082072 -0.039559 0.111482 -0.056881 -0.070805 0.033718 -0.024196 0.009492 0.009346 -0.003855 -0.071605 -0.120628 0.031119 -0.056873 0.105822 0.047453 -0.082072 0.026966 -0.011395 0.089827 -0.091974 -0.019198 0.073182 -0.109899 0.036680 0.084919 -0.038055 0.117281 -0.057735 -0.062362 0.031686 0.047943 0.029150 -0.053639 0.002213 -0.005614 0.051937 0.089078 -0.109632 0.073946 0.058372 -0.099279 0.018532 -0.008747 -0.094871 -0.028998 0.040091 -0.007181 0.014618 -0.033107 -0.086983 -0.097081 -0.115806 0.104083 -0.095354 0.082064 0.062026 -0.068426 0.091323 -0.004958 -0.087124 0.033434 -0.114365 -0.114968 0.102245 0.077271 -0.031269 0.058602 -0.112270 0.034326 -0.122063 -0.088493 0.053925 -0.062278 -0.055386 0.122281 -0.028295 -0.111321 0.050146 -0.042667 0.061337 0.039330 -0.081692 -0.024999 0.068274 0.120117 0.053967 0.050468 0.036849 -0.080199 0.053951 -0.112104 0.078918 0.019117 0.051796 -0.023030 -0.113837 0.097517 0.007703 -0.107490 -0.071982 0.118281 -0.055842 0.007421 0.005152 0.116380 -0.059715 0.020220 -0.005409 -0.054851 -0.109415 -0.065840 0.063645 0.005071 0.000023 0.059396 -0.043741 0.026039 0.036536 0.031270 -0.032103 0.043403 0.088948 0.036322 -0.038655 -0.096249 0.053986 0.081859 0.107498 0.010983 -0.117296 -0.011813 -0.084531 0.094990 0.085613 0.119065 -0.084614 -0.057144 0.017473 -0.066111 -0.026932 -0.099431 0.048880 -0.069866 0.022179 0.111833 -0.091932 -0.082549 0.042540 0.073534 0.094892 0.028354 0.093740 0.059674 -0.037161 -0.035947 0.035871 -0.076324 -0.113440 -0.037916 0.041885 0.066106 0.076114 0.096093 0.103997 -0.034996 0.066515 0.001037 0.021050 -0.093064 -0.074955 0.108690 -0.092867 -0.014917 0.043205 -0.064359 -0.066477 0.109036 -0.101819 
are 0.034946 0.085977 0.012784 -0.012052 0.041084 -0.066450 -0.028535 -0.091821 -0.099508 0.066811 0.079231 0.040617 0.099287 -0.068187 0.008236 0.102633 -0.021992 -0.000401 -0.026724 0.113069 -0.097815 0.077984 0.008265 -0.090113 0.056466 0.035074 -0.033761 0.114865 -0.037728 0.040447 0.001700 -0.036973 -0.075161 0.082797 0.088269 -0.044436 0.068522 -0.030062 0.018687 -0.069564 0.095622 0.052326 -0.112837 0.027074 0.009907 0.017189 0.089373 -0.037150 0.116613 0.094397 0.116591 -0.002219 0.057747 0.091762 0.002731 -0.030173 0.017959 0.118567 0.083176 0.018419 0.001016 0.103214 0.030081 0.102103 0.070981 0.034397 0.058240 -0.001454 0.111034 -0.038894 -0.039605 0.028060 0.064651 -0.007378 0.071930 0.088899 -0.064401 0.057346 0.064997 -0.101565 0.029116 -0.097201 -0.086783 -0.042140 -0.012792 0.060319 -0.108318 0.105135 -0.005476 -0.084335 0.094599 -0.002661 0.054833 -0.120414 -0.047053 0.075371 -0.008979 -0.059223 -0.077303 0.116896 -0.072556 -0.092947 0.037765 -0.040123 0.048753 -0.112304 -0.089992 -0.015084 0.117540 0.052282 -0.064894 -0.090614 -0.043307 -0.092844 0.086680 -0.006694 -0.068257 -0.016343 -0.083706 0.074635 -0.013837 -0.091283 0.000508 0.051627 -0.117452 0.093087 0.011474 -0.117169 -0.073866 0.043112 -0.077185 0.069439 0.000103 0.048956 0.009620 -0.032940 0.047929 -0.021274 -0.116252 -0.043700 0.073380 0.001998 -0.059123 -0.004295 -0.100656 0.107468 -0.086547 0.104119 -0.108649 0.102949 0.076567 0.119502 -0.007125 0.097723 0.042078 -0.059893 -0.033488 0.020192 -0.035512 0.006834 0.117496 0.100226 0.058594 0.097348 0.087835 -0.095537 0.117136 0.049611 0.062178 0.024535 -0.006852 0.003051 0.044293 -0.093506 0.082308 -0.083783 0.098242 0.021385 0.117062 0.049125 0.107207 -0.064154 -0.109849 -0.001439 0.014661 0.000335 -0.021867 -0.096045 0.065549 -0.097922 0.053162 -0.034971 0.082757 0.112120 0.088858 -0.040550 -0.050534 -0.044076 0.119138 -0.033647 
that's 0.091329 0.022809 0.000044 -0.116795 0.032660 0.006052 0.114328 -0.090514 0.072788 -0.105549 -0.027190 0.070114 0.096972 -0.036263 0.075966 -0.050107 0.054211 0.096556 0.049067 -0.054998 -0.064818 -0.019066 0.038170 -0.001834 0.058140 0.077965 0.014617 -0.101471 0.067189 -0.038310 0.014924 -0.039319 -0.106105 -0.020169 -0.102524 0.080735 0.032706 0.057041 0.047329 -0.014885 0.060770 -0.041840 -0.035162 -0.076370 0.101100 -0.052393 -0.069216 -0.018334 0.105177 -0.088998 0.013357 0.054819 0.065726 0.007237 -0.089154 0.104903 0.058925 -0.001626 0.078241 -0.089455 -0.039551 -0.068720 0.046755 0.027380 -0.047184 -0.106127 -0.066847 0.112535 0.043924 0.073705 0.115061 -0.114377 0.060954 -0.031419 0.095417 0.089395 -0.116506 -0.106461 -0.097710 0.088348 -0.068392 -0.081029 0.115989 0.008699 -0.028266 0.000036 -0.068551 0.050034 0.070772 0.108391 0.030494 -0.007377 0.102318 0.080278 -0.028758 -0.066498 0.032384 -0.004119 0.094184 -0.017272 0.075790 0.037791 0.075242 0.106948 0.080756 -0.045947 0.119265 0.097275 -0.080558 0.023313 0.016986 0.029398 0.010576 -0.116970 0.107251 0.031722 -0.107059 -0.058825 0.077101 0.065130 0.089973 -0.047793 0.121298 -0.082265 0.027399 -0.050330 0.038712 -0.095050 0.114459 0.054688 -0.079475 -0.080835 -0.117687 -0.041005 -0.071210 -0.069960 0.111730 0.115115 0.031744 -0.060478 -0.033646 0.110093 0.028771 0.040620 0.104424 0.041641 0.001368 -0.106039 0.061727 0.078848 0.116329 -0.080559 -0.102876 -0.024680 0.105371 -0.082340 -0.031610 0.017434 -0.008910 -0.039413 -0.024073 0.070612 -0.113763 -0.065767 -0.054001 0.073722 -0.074569 0.051265 -0.081623 0.000390 0.087412 0.093195 0.029273 -0.083443 -0.065967 -0.104303 -0.016568 -0.085121 0.029298 0.058959 0.010838 -0.066903 0.062022 0.088997 -0.047829 -0.035991 -0.017188 -0.001946 -0.083376 0.041286 0.081824 0.082468 0.098488 0.043655 -0.023823 0.025033 0.016009 -0.095797 0.047316 0.020261 
data -0.016763 0.081802 0.034885 0.085979 0.110547 -0.088048 -0.027927 0.056224 0.106569 -0.018103 -0.047288 0.072738 -0.024940 -0.020261 -0.109630 0.094184 0.020404 -0.105795 -0.000756 -0.101149 -0.114393 0.014646 0.072654 0.046654 -0.004697 -0.030962 -0.035956 -0.044870 0.112749 -0.073516 0.067986 0.063945 0.061329 0.116210 0.117674 -0.089113 -0.034951 0.106067 -0.093571 0.055872 0.008044 0.005031 0.009196 -0.083564 -0.046430 -0.017795 0.099047 -0.067755 0.106012 0.026316 -0.090826 -0.118412 0.108375 -0.054287 -0.045600 0.083879 -0.095707 0.089876 0.088169 -0.043343 -0.021475 -0.093597 -0.016448 -0.060415 -0.086048 0.105524 0.095245 0.051454 0.075083 0.014587 -0.023934 -0.109825 -0.075450 -0.016929 -0.039538 0.075791 -0.052888 -0.060422 -0.037997 0.085964 -0.033850 0.113333 -0.045615 -0.060518 0.105674 0.072188 -0.028573 -0.044239 0.068815 -0.074881 0.107076 0.033340 0.099832 0.081729 0.034400 -0.109619 0.022107 0.049743 -0.032404 0.026675 -0.040353 0.118515 -0.059516 0.040136 0.096588 -0.083982 0.047009 0.069802 -0.044316 0.092357 -0.039758 0.074338 0.081821 -0.085245 -0.105623 0.072533 0.118004 -0.086933 -0.116764 -0.097201 0.007868 -0.044231 0.020763 -0.055321 -0.004330 -0.028540 -0.019971 -0.083667 -0.095208 -0.051131 -0.024771 0.077054 0.099744 -0.063153 0.040184 0.024752 0.043156 0.044371 0.028338 -0.101531 -0.020712 -0.040459 0.093762 -0.102632 -0.027978 -0.088415 -0.030349 0.040239 -0.095135 -0.050646 -0.069674 -0.075006 -0.038048 -0.058676 0.069733 -0.068826 -0.093461 0.056599 0.060940 0.017442 0.043009 0.043402 0.118144 -0.037912 0.014371 -0.049413 0.034664 0.084525 0.004756 -0.112870 -0.095553 0.042793 0.017923 0.022132 -0.118437 0.036055 0.117755 0.103821 -0.060294 0.083101 -0.052742 -0.059454 0.112698 0.022345 -0.068933 -0.118214 0.013483 -0.007174 0.072940 0.096643 0.036631 -0.046793 -0.044242 0.092841 -0.084661 -0.077722 -0.055971 -0.080767 -0.076074 -0.021046 
parser -0.019167 -0.076930 -0.086668 0.022421 0.073721 0.040810 0.046490 0.009678 0.039151 0.010774 0.046384 -0.040553 0.004822 -0.116731 -0.052158 -0.047007 -0.087311 0.018181 0.095269 -0.114168 0.014285 0.094321 -0.095662 -0.036940 -0.119931 0.100080 0.090946 -0.043636 -0.114595 0.085765 -0.053065 -0.052993 -0.027753 -0.084065 0.064372 0.078169 -0.103198 0.012391 0.106591 0.059622 -0.027481 0.115861 0.046505 -0.089287 0.079435 0.028989 -0.081060 -0.039631 -0.088157 0.111659 0.068302 0.104109 -0.031064 0.042684 -0.089737 0.051701 0.068839 0.058118 -0.086940 0.070158 0.091589 -0.039396 0.111519 -0.006919 -0.020860 0.110027 0.107060 -0.036351 -0.016975 -0.062464 0.058341 -0.060703 -0.078634 -0.073151 -0.061727 -0.060627 -0.078135 -0.119391 0.029348 0.045141 -0.073525 -0.088962 -0.067017 -0.095545 -0.060933 -0.055389 0.055499 -0.029926 0.025425 -0.030281 0.122146 0.013684 0.065589 0.036668 -0.079911 0.116549 0.001512 0.010018 0.041396 -0.073476 0.084726 0.063907 -0.098262 -0.103632 -0.114308 -0.060937 -0.030648 0.045428 0.027436 -0.066545 0.031404 -0.040356 -0.043414 -0.088358 -0.063027 0.029858 -0.075324 0.047763 0.092382 -0.034159 -0.002509 0.082545 -0.024783 0.034605 0.055068 0.066296 0.115631 0.069750 0.039362 0.111236 0.115041 -0.033206 -0.045757 -0.103821 -0.115555 -0.069168 0.113159 -0.095160 -0.107922 -0.018786 -0.099177 -0.060136 -0.074893 -0.048459 0.002177 0.113473 0.080274 -0.015007 -0.074235 0.104479 0.020913 0.039003 -0.014965 -0.098727 -0.032401 -0.114743 0.060026 0.049486 -0.044842 0.100345 0.092692 -0.081646 0.080335 0.084458 0.086903 -0.070324 0.006462 0.042692 0.108443 0.071843 -0.045885 -0.005604 0.037352 -0.100163 -0.041879 0.020834 0.063246 0.021204 0.115223 0.017523 -0.057668 0.114758 0.088754 -0.058103 -0.011942 -0.078774 0.099290 0.060967 0.080463 -0.013759 -0.066005 -0.039328 -0.086162 -0.073302 -0.062724 0.031853 -0.012622 -0.083263 0.020127 -0.015717 
as 0.118393 -0.054877 -0.091572 0.084392 -0.057905 0.060619 -0.116419 -0.079596 -0.107133 -0.116700 0.041534 -0.119395 -0.025447 0.078064 0.047914 -0.077284 0.006516 -0.104540 0.121794 0.065956 0.115586 -0.122601 0.051788 -0.100914 -0.001862 -0.110635 -0.066020 0.056258 -0.096009 0.104307 -0.074052 0.003247 -0.101519 0.018748 0.000788 0.005243 0.108440 -0.071376 -0.052884 -0.103016 -0.015734 -0.054606 0.106991 0.066647 0.021754 -0.003967 -0.099935 -0.019994 0.040265 0.069011 0.037360 -0.097746 -0.079344 -0.031681 0.061516 -0.085901 0.097225 0.051386 0.068617 -0.088228 0.081866 -0.000784 -0.029733 0.098970 -0.060082 0.046252 -0.014465 0.002961 0.044184 -0.003517 -0.096962 -0.049569 0.091039 -0.038632 0.064834 0.083582 0.084329 0.113856 -0.109423 0.114163 0.089388 -0.049532 0.091287 0.061392 -0.012926 0.013118 -0.036369 0.005979 -0.034290 -0.078687 0.095641 0.090127 0.029140 0.093978 -0.093029 0.025586 -0.003273 0.027635 0.108642 0.077546 -0.004699 0.018222 -0.002680 0.080744 -0.032789 -0.068779 -0.084937 -0.068591 -0.083698 -0.060416 0.019449 0.079213 -0.092090 0.031779 0.037600 0.051424 0.068865 0.011797 0.004106 -0.071248 0.095543 -0.008907 0.015051 0.099375 -0.008212 -0.103354 -0.017963 0.029069 0.068910 -0.037101 -0.121839 -0.016976 -0.038208 -0.006159 -0.016011 0.041950 0.104731 0.100929 -0.096346 0.102078 0.009623 -0.034834 0.040708 0.121129 -0.012221 0.066970 0.122274 0.118322 -0.079945 -0.035645 -0.063032 -0.071609 -0.005225 0.014754 0.072821 -0.060484 -0.030191 -0.100832 -0.050512 0.109419 -0.089508 0.098017 0.032015 -0.034631 -0.056344 -0.076661 0.109018 0.080024 0.011650 -0.021457 0.030604 0.103639 0.118318 -0.055372 -0.045647 -0.006062 0.083022 0.056040 0.099334 0.016113 0.032593 0.116768 0.008190 0.004898 -0.090619 -0.007705 0.022978 0.102498 -0.036797 0.101545 0.055301 0.020662 0.013422 -0.058960 0.078256 0.024580 -0.059107 0.052692 -0.119542 -0.051011 
can -0.067992 0.057650 0.051403 -0.065778 -0.003693 -0.125604 0.006544 -0.058037 -0.053868 -0.001039 -0.032134 -0.009500 -0.087972 -0.023585 -0.029028 -0.090271 0.087833 -0.078519 0.114760 0.099195 -0.028850 0.012173 0.055066 0.009028 -0.117595 -0.016554 0.017377 -0.087814 -0.047857 -0.113272 0.037295 -0.108258 0.121026 0.089916 -0.039459 0.094065 -0.113346 0.011493 -0.050693 -0.030716 0.075811 -0.107230 -0.024099 0.043534 0.059508 0.038350 0.075927 -0.106465 0.031585 0.056599 0.095104 -0.081169 -0.004002 0.125534 -0.057554 0.075908 0.019996 -0.019892 0.096618 -0.121810 -0.019053 -0.075073 0.086867 -0.084893 0.072690 0.074710 0.012092 0.079848 0.046003 0.101119 0.034483 0.075722 -0.031864 -0.007715 0.126349 -0.077492 -0.030365 0.052814 0.070117 -0.043542 -0.008839 -0.108930 -0.035317 0.070762 0.036669 -0.061753 -0.027761 -0.031272 -0.079767 -0.070700 0.065095 -0.076688 0.025574 -0.084345 0.025675 0.017589 0.040177 0.012034 -0.047123 -0.108428 -0.032003 -0.109904 0.008893 0.008101 -0.123714 0.044330 -0.087146 -0.119399 -0.104414 0.019807 -0.046459 0.098500 -0.033440 -0.068753 -0.023326 0.048634 0.093164 -0.043333 -0.108733 -0.059335 0.089471 0.084198 -0.077194 0.047552 0.086025 0.112090 0.106894 -0.053988 0.023488 -0.098113 0.036074 0.035591 -0.094184 -0.115219 0.125716 0.019598 0.053436 0.048904 0.094949 -0.082189 0.090538 -0.060671 -0.020622 0.066481 -0.042217 -0.076047 -0.122100 0.105623 -0.087694 -0.072384 -0.047293 -0.008279 0.021356 -0.061552 -0.077070 -0.002268 -0.090877 0.007877 0.077349 -0.046447 0.022623 -0.002554 0.008507 0.005551 0.112635 0.085172 -0.121404 0.110213 -0.006768 0.006007 -0.086898 0.034139 0.048135 0.064558 -0.105550 0.113581 -0.035170 0.122366 -0.078461 -0.011447 0.000448 0.104271 -0.096618 0.121895 -0.030936 -0.001595 0.065465 0.027031 0.001221 0.109371 -0.062962 0.040212 0.037581 0.045535 0.123351 0.054629 0.082100 -0.015086 0.027065 0.026768 
model -0.047686 -0.078650 -0.117782 -0.021996 0.020097 -0.103358 -0.044812 -0.012473 -0.011468 0.018768 0.100307 -0.046055 0.097346 -0.018387 -0.003292 0.072729 -0.062842 0.010153 0.090654 -0.109761 0.101755 -0.083707 -0.056741 -0.043995 0.063735 0.043029 -0.117235 -0.065590 0.062828 0.084247 0.060386 0.020922 -0.074310 0.028882 -0.021776 -0.002057 0.010070 -0.075120 -0.094487 -0.057076 0.024607 0.115236 -0.065543 -0.007675 -0.027013 0.057796 -0.019773 0.105576 -0.082090 -0.022464 0.017007 0.065079 -0.018916 -0.077598 0.077991 -0.051717 0.107186 -0.000652 0.019341 -0.108350 0.063865 -0.097739 -0.007729 0.090651 -0.086181 0.092156 -0.029037 0.091645 0.014796 -0.091141 -0.011389 -0.027917 0.075434 -0.068594 -0.098621 0.104467 0.099421 0.089722 0.096518 -0.023854 -0.086585 -0.099338 0.076132 0.077642 0.111206 -0.115747 0.109455 0.014324 -0.070651 -0.088591 0.052649 -0.077346 0.079655 -0.087942 0.056928 -0.001898 -0.083300 0.111173 0.096475 0.023069 0.034274 0.084622 -0.031558 0.075005 -0.095027 -0.060642 0.001073 0.054331 0.004567 0.077389 0.109542 -0.079522 -0.076327 0.015570 0.031990 -0.072073 0.020040 0.037886 0.037652 -0.081913 0.002305 0.015253 -0.017310 0.027420 0.110197 0.113637 0.018318 -0.020684 -0.065666 0.085933 -0.117321 0.028255 0.068504 -0.019914 0.081045 0.015649 -0.014695 -0.096947 -0.002500 0.077959 -0.075535 0.020800 0.019298 -0.061427 -0.051317 0.086221 -0.115420 0.088014 -0.056374 -0.088778 0.098621 -0.104388 0.090013 0.074839 0.045504 -0.030092 -0.080548 0.034918 0.112481 0.034292 -0.033280 0.016434 0.037695 0.107204 0.117487 0.067334 0.090381 0.030056 0.080390 0.058531 -0.109340 -0.060692 0.095157 -0.080047 0.061827 0.030431 -0.011554 0.112614 0.105983 0.085825 0.118006 -0.023659 0.056323 -0.053100 -0.043566 0.090168 0.005050 -0.013841 -0.020501 -0.088058 0.103376 -0.073010 0.013859 -0.097321 0.089444 0.023876 -0.054818 0.110323 -0.003551 -0.117815 
just -0.050320 -0.072810 -0.091613 0.121326 0.048944 0.011959 0.001195 -0.043923 0.047187 0.104070 -0.013094 -0.086379 0.078091 -0.003074 -0.098022 0.079029 0.080892 0.067264 0.106946 0.083665 0.059640 -0.021145 -0.009882 -0.117030 0.083202 -0.021192 0.041657 0.015717 0.025999 0.119783 0.038761 0.048457 0.086525 0.000740 0.082704 -0.128186 0.009573 0.063229 0.080315 -0.040252 0.123269 0.035837 0.003236 0.073253 0.042772 -0.028772 -0.112073 0.038140 -0.033420 -0.013122 0.094920 0.004292 -0.101258 0.005819 0.012525 -0.072850 -0.091874 0.015899 -0.128356 0.086229 0.128411 0.069780 -0.032004 0.048077 -0.019685 0.025678 -0.115665 -0.037420 -0.013593 0.065887 0.046008 0.044438 -0.043706 -0.081007 -0.093860 0.054644 0.023657 -0.103081 0.019709 0.078269 0.127731 0.117141 -0.030532 0.005938 0.013308 -0.015828 -0.078495 0.052350 0.008513 0.004379 0.106725 -0.021501 -0.012232 -0.028835 0.043065 0.128716 -0.109692 0.002006 0.091059 -0.124895 -0.020555 0.019934 -0.101724 -0.049114 0.064783 0.012798 -0.045122 0.117054 0.020745 0.033258 0.038065 -0.059842 0.045826 -0.060467 -0.010151 0.088602 -0.115183 -0.086086 -0.023681 -0.000692 0.125104 -0.055752 -0.030880 -0.048212 0.122588 0.083198 0.004708 0.031114 0.075765 -0.070278 -0.074903 0.127909 -0.011314 -0.074630 -0.103623 -0.061646 -0.069784 0.057991 -0.109810 0.001222 0.034037 0.120986 -0.057006 -0.116935 -0.019875 -0.027427 -0.103196 -0.006974 0.031790 0.054304 -0.082292 0.027284 -0.001361 0.094766 -0.022652 0.006096 0.014352 -0.112639 0.112184 0.014530 0.018166 0.068087 -0.095031 -0.056788 0.014131 0.041455 0.040312 0.006840 0.071113 0.054573 -0.028665 -0.033590 0.063533 -0.099157 -0.006243 -0.093009 -0.069372 -0.042998 -0.050407 -0.021532 -0.064293 -0.113177 0.004929 -0.122980 -0.111622 -0.062588 -0.127850 -0.117837 -0.077680 -0.097828 0.106234 0.078966 -0.023230 -0.101420 0.030675 0.098793 0.055779 0.108928 0.070820 -0.102915 
one -0.030270 0.002480 -0.059422 0.012300 0.106501 -0.105934 -0.067182 0.011637 -0.100099 -0.104500 -0.108268 0.043805 0.112210 -0.068259 -0.020743 0.065358 0.052240 -0.009060 -0.085033 0.096045 0.103107 0.124441 -0.012813 -0.033969 -0.047211 -0.058770 0.041880 0.074229 0.110790 0.124595 -0.011795 0.124417 -0.114077 -0.095644 0.051291 -0.116433 -0.085920 0.090190 0.013909 -0.059827 -0.116761 0.038305 -0.025202 -0.065181 0.050126 -0.073566 0.095894 0.076837 -0.023667 -0.004493 0.096774 -0.119581 0.044973 0.044090 0.012983 -0.065937 -0.055974 -0.066052 -0.056737 -0.121648 -0.069782 0.095590 0.049548 -0.077384 0.070692 0.011614 0.051415 0.086603 -0.009766 -0.013858 -0.015590 -0.052298 -0.117625 -0.119064 -0.052726 -0.095173 0.003842 -0.126269 0.101942 -0.085469 -0.083776 -0.047322 -0.084786 -0.003437 0.002638 -0.083656 -0.071811 -0.018911 -0.048938 -0.120730 -0.013168 0.014244 0.018221 0.019189 0.000301 0.052583 0.018483 0.071475 -0.059052 0.115855 0.082186 0.087474 0.097098 0.034224 -0.102691 -0.071051 0.061937 -0.046173 -0.026645 0.026409 -0.002600 0.083995 0.124691 0.115230 -0.124159 -0.061077 -0.023898 -0.006021 -0.014418 0.107107 -0.026105 0.029973 -0.080188 -0.023648 0.122022 -0.104608 0.093241 0.008767 -0.017928 0.083941 -0.027331 -0.028677 -0.062839 -0.111365 0.099196 -0.053039 -0.071957 -0.070434 0.066010 0.081820 -0.041332 -0.121085 0.035045 0.079675 0.096180 -0.022390 -0.021345 -0.039724 -0.034636 0.024219 -0.067614 0.059341 0.012528 -0.119496 -0.005022 0.017453 -0.011155 -0.023023 0.075591 0.043944 -0.038540 0.049012 -0.106201 -0.094217 0.060710 -0.104824 -0.009296 -0.061308 -0.025426 -0.117212 -0.040507 0.036029 -0.040222 -0.063198 -0.037900 -0.098429 0.083467 0.045371 -0.029121 0.060622 -0.029576 0.007062 0.021376 0.090568 0.066959 -0.063584 -0.040445 -0.115230 0.124244 0.011166 -0.052649 -0.094664 -0.043353 -0.033314 -0.042883 -0.080763 -0.052718 0.107099 0.024400 0.009415 
