115 200 #File: 03_02_XML_Schema.txt.bin
</s> 0.099131 0.109451 -0.094860 -0.081184 0.033845 0.074820 0.023301 0.005234 -0.089245 0.054943 -0.107890 0.030946 -0.018608 -0.023706 -0.082118 -0.046614 0.063880 0.074926 0.073532 0.039562 0.038259 -0.094176 -0.101436 0.123078 0.094142 0.076529 -0.014957 0.099452 -0.012259 0.018196 -0.003696 -0.073883 0.032499 -0.033123 -0.094740 0.117742 0.108457 -0.027122 -0.005600 0.012611 -0.090091 -0.099240 0.112803 0.001561 -0.063956 -0.075342 -0.076192 0.042026 0.004988 0.032964 -0.104353 -0.094305 -0.003220 0.028324 0.063147 -0.078509 0.101035 0.022957 0.027730 -0.015067 0.073963 -0.056659 -0.051946 0.053454 -0.018653 0.025527 0.044690 -0.101258 -0.049112 0.072160 0.104807 0.097381 -0.075459 -0.052199 -0.022515 0.049569 -0.093825 0.074246 0.069042 -0.039600 -0.038425 -0.055434 0.104731 0.096882 -0.029219 0.104387 0.119379 0.044959 0.123407 -0.077050 -0.037934 -0.052192 -0.071998 0.069711 0.039113 0.010525 -0.054327 0.037741 0.075769 0.004796 0.056458 -0.122655 0.106863 0.011885 -0.045348 -0.051595 -0.018525 -0.072689 -0.108215 -0.070263 0.105925 -0.043833 -0.066359 0.057392 -0.042196 0.117803 -0.039740 -0.113646 0.067259 -0.001840 -0.086403 0.024167 0.035712 -0.011923 0.045182 -0.098016 0.021820 0.044989 -0.074522 0.003518 -0.001504 -0.059417 -0.070153 -0.116246 0.000567 0.003783 0.000242 -0.097426 -0.122886 -0.117553 -0.107127 -0.013548 0.034457 0.029329 -0.078815 0.123781 -0.049815 -0.031543 -0.034782 0.117206 -0.093213 0.028754 -0.033074 0.078947 0.001005 0.105740 -0.069821 -0.064519 -0.103824 -0.090813 -0.079238 -0.077141 0.060532 -0.046236 0.066374 0.091388 0.033580 0.073075 0.061311 0.057966 -0.087937 -0.085024 -0.090560 -0.003269 0.102298 -0.067776 -0.075792 -0.103926 0.081876 -0.103495 -0.014345 0.053960 -0.114375 -0.110917 0.035734 0.087291 0.105608 0.053137 0.078316 -0.077458 -0.090159 0.098439 -0.068475 0.043424 0.014217 0.044339 -0.029280 0.004924 -0.041758 -0.027900 
the -0.105696 -0.103511 0.054801 -0.033857 -0.056906 -0.062749 -0.039688 -0.046945 -0.033708 0.098387 0.073908 0.010585 0.006343 -0.095149 -0.001464 0.051469 0.061425 0.128074 0.104888 -0.022952 -0.024496 0.136664 0.099612 0.057849 -0.021825 -0.005386 0.003383 0.014671 0.017453 0.096490 0.118776 -0.020398 -0.055752 0.070537 -0.037001 -0.052602 0.039337 -0.115058 0.012985 0.017127 -0.041345 0.093453 -0.005292 -0.141135 0.031384 0.006389 0.022662 -0.022484 -0.008063 -0.022777 0.028017 -0.087165 -0.018061 -0.035938 0.034641 0.064675 -0.002677 -0.033890 0.118389 -0.077618 0.052176 -0.117668 -0.036228 0.110819 -0.049973 0.063844 0.089018 -0.017364 0.034508 0.034637 -0.080318 0.027291 0.066502 -0.081505 -0.013643 -0.047338 -0.150397 0.093700 -0.105146 -0.017337 0.115932 0.028108 -0.040896 0.071106 0.147938 0.101787 0.060999 -0.107444 0.135047 -0.109741 -0.018201 0.033188 0.016340 -0.017288 0.007450 -0.001225 0.029877 0.009009 -0.043685 0.075627 -0.035493 0.081635 0.022791 0.004623 0.118806 0.024034 0.074761 -0.050762 -0.024395 0.130560 -0.055039 0.167783 -0.042532 -0.074512 -0.051978 0.188596 0.137575 -0.149386 0.087974 0.007582 -0.036624 0.065989 -0.057715 -0.120128 -0.045765 -0.070178 0.051769 0.030032 0.101189 -0.019155 -0.090664 -0.029433 -0.061224 0.117014 -0.055441 0.097884 0.030995 -0.018093 0.106412 -0.089143 0.029758 0.068142 -0.128502 0.085985 0.087611 -0.026320 0.019565 -0.012213 0.000402 -0.096484 0.031760 -0.087320 -0.022837 -0.091078 -0.076248 -0.089465 0.027738 0.044630 -0.057669 -0.097290 -0.010878 0.017670 0.106746 -0.056549 -0.010857 0.085245 0.014443 -0.047407 -0.006411 0.009279 0.125023 0.044429 -0.018251 -0.003304 -0.091965 -0.032088 -0.009891 -0.075351 -0.074189 -0.095699 0.012262 0.076377 0.064929 -0.073226 -0.019948 0.077031 -0.034088 0.013832 -0.009190 0.023784 -0.053743 0.048045 -0.094244 0.121406 0.114076 0.044863 -0.056900 0.031069 -0.001640 -0.099939 
we -0.101290 -0.068692 -0.014886 -0.022623 0.002286 -0.028629 -0.118543 0.036257 -0.016504 0.079655 0.022578 0.123352 0.021530 -0.063440 -0.023428 0.058050 -0.030634 0.152395 0.102423 -0.018658 -0.039470 0.127142 0.123008 -0.043082 0.044943 -0.142710 -0.059692 0.036291 0.133237 -0.011856 0.090199 -0.007290 -0.047054 0.150794 -0.001792 -0.083876 0.045469 -0.010308 0.090264 0.074140 -0.069372 0.066887 -0.014482 -0.177361 0.037180 -0.073818 0.047863 -0.113994 0.046013 0.026806 0.020713 -0.015324 0.027043 0.003146 -0.067317 0.074496 0.032802 0.077172 0.091823 -0.081489 0.018738 -0.091779 -0.000156 0.159398 -0.146793 0.050778 0.068666 -0.013281 0.060224 0.088842 -0.009520 -0.084290 0.111677 -0.020641 -0.110277 0.063747 -0.150793 0.043900 -0.001057 0.058811 0.074463 -0.010039 -0.087950 -0.047558 0.112023 0.097786 0.083071 -0.020412 0.138699 -0.021371 0.003661 0.031758 -0.020270 0.018157 -0.027730 0.071451 0.089283 0.047139 -0.075499 0.026612 0.057340 0.090113 -0.046588 -0.034473 0.118910 0.057737 0.026824 0.047779 -0.035780 0.073885 -0.021781 0.145798 -0.081678 -0.050208 -0.003001 0.136356 0.147419 -0.083706 -0.015154 0.082483 0.047591 0.005786 -0.023436 -0.133614 0.005721 -0.030472 -0.031439 -0.025210 0.053443 0.048197 -0.037722 -0.025635 -0.062624 0.070372 -0.123565 0.040458 0.114493 -0.001217 0.072896 -0.131902 -0.001858 0.033238 -0.033813 0.083413 0.061801 0.038265 0.034812 -0.005333 -0.072642 -0.063626 -0.069080 -0.074894 -0.001266 -0.063181 0.018345 -0.098028 0.088248 -0.048774 -0.081777 0.014919 -0.043878 0.001973 0.025940 -0.008989 -0.093218 -0.009380 0.078342 -0.019614 0.027917 0.004969 0.132573 0.003762 0.062054 0.080743 -0.055493 0.003161 -0.012306 0.025083 -0.091286 -0.031179 -0.011091 0.035205 0.119946 0.031712 -0.053510 0.099955 -0.029809 0.006740 0.037580 0.090329 -0.027643 0.067944 -0.112235 0.025097 0.114835 0.028953 -0.078588 0.008378 -0.051020 -0.106846 
to -0.003258 -0.084852 0.021204 -0.066288 -0.052626 -0.058223 -0.137132 -0.028856 -0.000721 0.088124 -0.010426 0.114016 -0.052073 -0.029385 0.008230 0.007394 0.020947 0.152436 0.018078 -0.041517 -0.017307 0.073671 0.110741 -0.008918 0.038135 -0.092405 -0.078941 0.077469 0.055605 0.032171 0.149206 0.056579 -0.103539 0.117296 0.056094 -0.027241 0.090522 -0.029067 0.128419 0.035586 -0.039274 0.114221 -0.073879 -0.143838 0.000980 0.018497 -0.026957 -0.088564 0.060332 0.006873 0.071164 -0.044216 0.043763 -0.030723 -0.028187 0.123324 0.038683 0.062963 0.052006 -0.104566 -0.017555 -0.100656 -0.049330 0.094553 -0.132859 0.108208 0.052472 -0.062395 -0.014474 0.078698 -0.020639 0.002087 0.051976 -0.045410 -0.087019 0.041233 -0.149200 0.093442 -0.080961 0.049472 0.052988 -0.042589 -0.013162 0.029491 0.113609 0.065747 0.070930 -0.057227 0.164631 -0.005934 0.041688 0.062524 -0.013171 -0.026111 -0.067169 0.079295 0.074208 0.082729 -0.059362 0.075156 0.074784 0.087415 -0.003563 -0.033795 0.074998 0.070029 0.024851 -0.029958 0.007018 0.085464 0.013933 0.111176 -0.033004 -0.006328 -0.002297 0.106600 0.132786 -0.110446 0.032265 0.070877 0.086372 0.055260 -0.011605 -0.060230 -0.062069 -0.016328 0.031414 -0.057211 0.103772 0.064160 -0.101955 0.011518 -0.059381 0.079017 -0.134490 0.065337 0.091340 -0.064018 0.050548 -0.056329 -0.014771 0.105794 -0.107228 0.015803 0.066841 0.074065 0.057818 0.057054 -0.092992 -0.081317 -0.075066 -0.071127 -0.054150 -0.082716 0.006097 -0.073799 0.069365 -0.080511 -0.019280 -0.046114 -0.033278 0.000838 0.094685 -0.081332 -0.091565 0.010789 0.015562 -0.081747 0.009652 -0.024219 0.082678 0.021806 -0.017978 0.001223 -0.126475 0.005856 -0.044302 -0.063152 -0.039214 -0.077138 -0.044387 0.031808 0.164736 -0.039451 -0.090745 0.115804 0.032809 0.073388 0.057089 0.011129 -0.064336 0.084490 -0.027259 0.105041 0.104000 -0.045702 -0.098196 0.037854 -0.055058 -0.041165 
that 0.031161 -0.085545 0.065593 -0.128330 0.037755 -0.079211 -0.076823 -0.070500 0.052224 0.099180 -0.058910 0.040735 0.010414 0.024004 0.000726 -0.075096 0.004939 0.060803 0.066323 0.011386 -0.060236 0.013086 0.046430 -0.023948 -0.024923 -0.123432 -0.065563 -0.037663 0.143080 0.071906 0.081377 0.060725 -0.080478 -0.015499 0.091481 -0.015753 0.085365 -0.093566 0.041143 0.094861 -0.056169 0.076289 -0.085977 -0.193176 0.075696 -0.089679 0.026706 -0.131254 0.078636 -0.007273 0.110106 -0.109626 0.048962 -0.119201 -0.072683 0.059623 0.059794 -0.020055 0.100975 -0.057550 0.056617 -0.038659 -0.062649 0.030955 -0.084771 0.072395 0.016320 -0.000227 0.035333 0.088805 0.041810 -0.107548 0.128077 -0.096624 -0.044014 -0.057411 -0.094650 0.118271 -0.088276 0.042950 0.016459 -0.027659 0.017086 0.056606 0.000919 0.068176 0.022770 -0.009077 0.099869 -0.089070 -0.000390 -0.049526 0.054801 0.018897 0.003415 0.098100 0.125348 0.106152 0.020488 0.072314 0.068886 0.019073 0.077444 -0.034417 0.078921 0.006951 0.080577 0.004919 0.061956 0.100665 -0.030185 0.096989 0.014075 -0.068138 -0.045715 0.136585 0.091008 -0.147996 -0.011496 0.038126 -0.010809 0.093249 0.024110 -0.152782 0.012151 -0.077355 0.045230 0.019538 0.034336 -0.019615 -0.052917 -0.058778 0.004553 0.100853 -0.062752 -0.011127 0.049883 -0.032551 0.008302 -0.131965 -0.004159 -0.004989 -0.095729 0.032291 -0.030534 0.047202 -0.005509 0.068791 -0.090282 -0.063793 0.026625 -0.097181 -0.083337 -0.073124 0.029811 -0.057611 0.106123 0.017990 -0.069936 0.054474 -0.097283 -0.064026 0.121283 -0.098277 -0.006665 0.101035 0.083343 -0.056000 -0.057058 -0.015543 0.067184 -0.093204 -0.056665 0.040186 -0.049445 0.090315 0.030012 -0.078986 0.029152 -0.035287 0.044062 -0.005297 0.129521 -0.005571 0.008543 0.093577 -0.032286 0.095206 -0.067083 0.094102 -0.054961 0.054262 -0.031193 0.135131 0.086596 -0.024502 -0.107745 0.088921 -0.000550 -0.009829 
and -0.110564 -0.082798 -0.052577 -0.068032 0.054813 0.036341 -0.035072 0.057817 -0.014734 -0.022075 -0.080198 -0.027126 -0.004148 -0.073774 -0.059749 -0.078360 0.056810 0.136419 -0.002875 0.053769 -0.050678 -0.066014 -0.074894 -0.012338 -0.041700 -0.021884 -0.113747 0.099874 -0.017209 0.030315 0.129415 0.002181 -0.112578 0.097433 0.025714 0.048210 0.029060 0.038471 0.125642 0.080111 -0.094671 0.001769 0.062471 -0.087450 -0.053231 0.089080 -0.026798 0.057824 0.064927 0.089638 0.100063 -0.109622 0.030719 0.066485 -0.061875 0.076349 -0.119446 0.109500 -0.046136 0.018182 0.001704 -0.102037 0.050860 0.045080 -0.162920 -0.034554 0.001751 0.047514 -0.029516 0.020718 0.082524 -0.099799 0.106531 -0.076198 -0.115660 0.072536 -0.121636 -0.000428 -0.125849 -0.065759 0.086509 0.034139 -0.107229 0.030246 0.137818 0.042010 -0.079775 -0.093573 0.117443 -0.086396 0.042019 0.077973 0.092358 0.033935 -0.078615 0.099138 -0.074376 -0.012023 0.078463 0.095530 -0.040015 -0.056449 0.015696 0.042895 0.082699 0.085575 0.114433 0.023916 -0.107684 0.079809 -0.069321 0.076490 0.078724 -0.051989 0.067321 0.041583 0.005480 -0.120131 -0.010758 0.131863 0.050268 -0.045108 0.045149 -0.088808 -0.049947 0.057501 -0.058245 -0.005986 -0.051467 -0.001245 0.067315 -0.029457 -0.075692 0.039200 -0.000684 0.072177 0.058892 -0.056316 -0.004582 0.010586 0.093830 0.090268 -0.115723 -0.008818 -0.084868 0.035582 -0.058229 0.038114 0.056871 -0.038205 -0.038219 -0.101224 0.025564 -0.110301 -0.014688 0.072214 0.089548 0.063992 0.044234 -0.016416 -0.029875 -0.066603 0.036128 -0.079125 -0.092947 0.071990 0.004707 -0.105460 0.008259 0.005065 -0.006946 -0.098711 -0.102113 0.079029 -0.053725 0.019301 -0.063376 0.077573 -0.123251 -0.087432 -0.032467 0.016757 0.123833 0.016055 -0.015096 0.077184 0.053509 -0.098133 -0.013377 0.058639 0.080221 0.074662 0.004374 0.094381 0.063392 -0.035004 -0.063636 0.076762 0.033355 0.016656 
a -0.046185 -0.045245 0.043365 -0.025152 -0.075315 -0.044815 -0.112039 -0.051928 -0.001348 0.089310 0.004674 0.125302 0.040852 -0.070967 0.044665 -0.006088 -0.000065 0.096757 0.061001 -0.091146 -0.080136 0.073800 0.087589 -0.035689 0.046997 -0.125425 -0.084646 0.074866 0.085980 0.056429 0.118027 0.020625 -0.040173 0.111620 0.066495 -0.003240 0.035173 -0.100422 0.113493 0.069197 0.006707 0.114116 -0.028193 -0.212224 0.006043 -0.049204 0.009761 -0.100486 0.036126 -0.000079 0.093236 -0.107108 0.053003 -0.012452 0.006587 0.063124 -0.021431 0.032138 0.091617 -0.069967 0.023544 -0.113046 0.019531 0.176403 -0.087900 0.048228 0.035813 -0.055357 0.001125 0.035212 0.010173 0.003079 0.042936 -0.049611 -0.013356 0.014571 -0.126993 0.100988 -0.034586 0.054260 0.129191 0.000622 -0.013684 -0.045694 0.091721 0.008575 0.061104 -0.055432 0.156697 -0.034677 -0.004244 0.029584 0.048463 0.041510 0.008952 0.067124 0.118203 0.074008 0.005328 0.073060 0.061989 0.065592 -0.015326 -0.081554 0.109498 0.065001 0.024967 -0.018552 -0.050045 0.063351 -0.042844 0.134204 -0.078624 -0.017595 -0.027726 0.125914 0.074577 -0.143870 -0.031927 0.139627 0.011508 0.026417 -0.022032 -0.163347 -0.087365 -0.085823 0.005576 -0.058512 0.030030 0.006006 -0.063852 -0.001951 -0.110012 0.088815 -0.090713 0.086373 0.062331 -0.077829 0.086401 -0.111875 0.046649 0.053551 -0.049978 0.040684 0.017405 0.003762 0.018133 0.065639 -0.087373 -0.089304 -0.081986 -0.045241 0.021106 -0.118348 0.022684 -0.031170 0.063804 -0.066107 -0.038318 -0.043600 -0.006334 -0.019643 0.129271 -0.116825 -0.083185 0.036742 0.018580 0.000643 0.028797 -0.036056 0.149371 0.000868 0.065017 0.027079 -0.072046 0.050396 0.002831 0.022875 -0.103081 0.017262 -0.071096 0.045863 0.122187 0.041382 -0.077465 0.081153 -0.017538 0.051948 0.070226 -0.007664 -0.078916 0.106406 -0.009358 0.043060 0.110730 0.014079 -0.005888 -0.011403 -0.000291 -0.106620 
in -0.027211 -0.094980 0.064086 -0.094869 0.048728 -0.076760 -0.142734 0.001601 -0.056255 -0.030076 -0.044779 -0.023107 -0.096838 -0.082533 0.015225 -0.007015 -0.074984 0.164591 0.010752 -0.138565 -0.022413 0.122117 0.014998 0.023442 -0.024463 0.026490 -0.080605 0.028837 0.043580 0.019895 0.069368 0.063573 -0.085581 0.143358 -0.055987 -0.080137 0.115051 0.038502 -0.037165 0.017189 0.013734 0.030921 -0.102606 -0.063139 -0.083402 0.018511 -0.044443 -0.108034 0.077406 -0.081311 -0.055372 -0.009864 -0.066442 -0.054118 -0.096098 0.118326 0.077882 0.024542 0.013814 -0.005716 0.096495 -0.011712 0.055558 0.129551 -0.170566 0.032674 -0.071369 -0.011697 0.097626 -0.004783 0.005715 0.010625 -0.015848 -0.046778 -0.076706 0.022602 -0.123275 0.094520 -0.060806 -0.014548 0.085398 -0.103882 -0.085269 0.019121 0.094147 0.086862 0.010373 -0.087186 0.089009 0.058724 0.084289 -0.044890 0.029906 0.069177 0.040830 0.146705 0.105375 0.085081 -0.005313 -0.053951 -0.043866 0.049386 0.040136 -0.068704 0.112305 -0.047721 -0.004054 0.057610 -0.034694 0.114295 -0.086515 0.127328 -0.008605 0.037492 -0.101507 0.164114 0.041005 0.001993 -0.014791 0.143467 -0.042674 -0.047825 -0.118442 -0.153395 -0.063771 0.007912 -0.008344 -0.005175 0.083869 0.117596 -0.021250 0.066987 -0.064729 0.078970 -0.082644 -0.038020 0.054186 0.033287 0.060532 -0.103422 0.013789 0.045913 -0.052647 0.011796 0.011229 -0.016865 -0.014371 -0.008592 -0.093451 0.050494 0.043340 0.033293 0.056288 -0.119683 0.051411 -0.086454 -0.041221 -0.044670 -0.021301 -0.035148 0.031120 0.084098 -0.008465 -0.098630 -0.022013 0.042744 0.050107 -0.050817 -0.067736 -0.054424 0.085960 -0.088321 0.085695 -0.040532 -0.074972 0.003928 -0.024282 0.031031 -0.090305 -0.054115 0.067904 0.045218 0.141411 -0.029716 -0.027323 -0.053749 -0.073148 0.046533 0.090597 0.092574 -0.093486 0.063700 0.006384 0.094774 0.020229 0.043327 -0.122973 -0.024244 -0.014183 0.034726 
of -0.097236 -0.069094 -0.024172 -0.092248 -0.053188 -0.047612 -0.062159 0.031808 0.000242 0.080933 0.028544 0.077443 0.017379 -0.086452 -0.004457 -0.039735 -0.019082 0.140275 0.098859 -0.081547 0.001500 0.060143 0.067543 -0.056587 0.027642 -0.114824 -0.115589 0.056443 0.092086 0.060254 0.148490 0.027656 -0.017104 0.103713 0.009284 -0.034372 0.080827 -0.031250 0.120791 0.044798 -0.023444 0.122707 -0.002222 -0.207033 0.023548 -0.008125 0.009892 -0.144465 -0.001959 -0.042251 0.035256 -0.058041 0.063280 -0.066305 -0.063471 0.132656 0.045045 0.055354 0.072444 -0.052443 0.048954 -0.134869 -0.006351 0.170899 -0.100131 0.063783 -0.022722 -0.032831 -0.021200 0.065802 -0.033762 -0.039461 0.097986 -0.021376 -0.088735 0.056388 -0.086955 0.107906 -0.072144 0.006183 0.068653 -0.031772 -0.071636 0.044988 0.125630 0.030797 0.043249 -0.095886 0.104661 -0.003955 -0.022004 -0.002511 0.007345 -0.016555 -0.059149 0.062366 0.086172 0.002886 -0.055355 0.028115 0.063986 0.061919 -0.005325 -0.033430 0.046192 0.008199 0.063231 0.063863 0.021139 0.138512 -0.031859 0.171160 -0.059218 -0.028974 0.014928 0.156590 0.143756 -0.067889 0.011269 0.090265 0.040250 0.074294 -0.040121 -0.150760 -0.094972 -0.072735 -0.003725 -0.067569 0.087773 0.054789 -0.111352 -0.010139 -0.077393 0.053200 -0.124498 0.025461 0.079809 -0.015363 0.022045 -0.090555 0.037735 0.090598 -0.081721 0.068101 0.013639 0.006286 0.067939 0.030236 -0.092272 -0.044733 0.012928 -0.103891 0.019555 -0.051856 0.004172 -0.089245 0.073475 0.003770 0.001956 -0.059343 0.018179 0.041203 0.077561 -0.069821 -0.125970 0.060169 0.041689 -0.060237 0.016787 -0.054800 0.088796 -0.033963 -0.005413 0.033819 -0.058661 -0.027900 -0.025835 -0.063257 -0.052471 0.018035 -0.044846 0.047777 0.165698 -0.028910 -0.102676 0.068113 -0.023045 0.032187 0.004478 0.037283 -0.079240 0.067287 -0.105120 0.118169 0.063955 -0.005421 -0.020952 -0.011076 -0.028191 -0.076034 
have -0.085353 -0.108921 -0.033594 -0.090884 -0.038643 0.023447 -0.037438 0.017415 0.032317 0.044445 0.055982 0.078073 -0.001877 -0.115562 0.008936 0.023198 0.018217 0.161465 0.024102 -0.098368 -0.067049 0.129707 0.112328 -0.054514 -0.032265 -0.025348 -0.002770 0.065635 0.090945 -0.031470 0.122680 0.071941 -0.015779 0.152468 0.027788 -0.017411 0.086247 -0.079198 0.040087 0.029112 0.036720 0.123013 -0.007685 -0.118602 0.056091 -0.082172 0.040337 -0.099418 -0.029933 -0.044483 -0.028981 -0.080184 -0.036727 -0.100250 -0.084424 0.042033 0.021460 0.038236 0.127802 -0.088693 0.006148 -0.005183 -0.006376 0.157504 -0.132058 0.087289 0.027873 -0.039993 -0.044706 0.018750 -0.035195 -0.012280 0.021182 -0.100106 0.006039 0.073591 -0.119861 0.108556 -0.053982 -0.000804 0.114626 -0.039496 -0.077846 0.025013 0.143965 -0.010500 0.102687 -0.029820 0.171935 -0.082906 0.013374 -0.021390 -0.014460 0.038242 -0.077658 0.130615 0.105261 -0.010958 -0.085147 0.009297 0.039528 0.010342 -0.074612 -0.093852 0.091956 0.084219 0.107179 0.008434 0.017872 0.078406 0.007328 0.134512 -0.037318 -0.056533 -0.078571 0.092887 0.153269 -0.033223 0.004832 0.029197 0.020396 0.032779 -0.012351 -0.091427 -0.065942 -0.077502 -0.026577 -0.035669 0.059618 0.037855 -0.109595 -0.009184 -0.116035 -0.008645 -0.120639 0.095881 0.020908 0.006509 0.020520 -0.085602 -0.043929 0.113210 -0.050846 0.004608 -0.023233 0.082862 0.010923 -0.017288 0.019769 -0.033932 -0.034990 -0.117047 0.039058 -0.034819 0.001997 -0.110583 0.029966 -0.017447 0.021912 -0.064500 -0.045574 0.026069 0.107010 -0.088100 -0.044539 0.045041 -0.038074 -0.098594 0.011392 -0.031081 0.055311 0.008060 0.063810 -0.016590 -0.140979 -0.027380 0.042890 -0.017899 -0.072290 -0.008334 -0.081682 -0.054967 0.170554 -0.014639 -0.075545 0.084438 0.048418 0.081369 0.010757 0.060328 -0.099964 0.025024 -0.111235 0.077441 -0.013566 -0.042157 -0.074305 0.085940 -0.035321 -0.067447 
is -0.086612 -0.022680 0.073158 -0.114285 -0.037480 -0.086627 -0.004278 -0.008048 0.047116 0.090089 0.054131 0.011680 -0.040289 -0.094774 -0.059247 -0.070718 -0.077201 0.094769 0.080336 -0.127011 0.005479 0.094463 0.113206 0.018452 0.072627 -0.111827 -0.025141 0.036474 0.156995 -0.032487 0.065121 -0.044356 0.008179 0.148655 -0.040671 0.023396 0.000005 -0.113017 0.073558 -0.036575 0.000064 0.152970 0.032160 -0.207470 -0.008531 -0.047398 0.055982 -0.014069 0.036315 -0.067285 -0.008736 -0.041509 0.098317 -0.046406 -0.079151 0.067452 0.066490 0.079444 0.002770 -0.129355 0.044180 -0.153526 0.005857 0.063831 -0.095292 0.129158 0.070867 -0.078921 0.072983 0.081353 0.004648 0.029786 0.081120 0.040203 -0.070430 -0.016049 -0.052427 0.015195 -0.121906 -0.038457 0.057373 -0.011211 -0.100437 -0.010050 0.038176 -0.020930 -0.043672 -0.052235 0.169571 -0.078154 0.074063 0.081645 0.013003 0.062830 0.008676 0.077649 0.028588 0.077823 -0.083803 0.039747 0.074504 0.008514 -0.036513 -0.098742 0.097365 0.064459 0.081596 0.069786 -0.082950 0.148211 0.023377 0.133554 -0.076804 0.014716 0.019297 0.128635 0.101194 -0.104688 0.010925 0.118667 0.106356 0.024215 -0.059510 -0.157317 -0.061375 -0.043309 -0.011720 -0.063309 -0.008012 0.022809 0.012940 -0.063570 -0.027759 0.075107 -0.082167 0.052498 0.120316 -0.065732 0.027336 -0.036980 -0.005948 0.048831 -0.113902 0.022551 -0.042240 0.060194 0.076682 0.080538 -0.118776 -0.021620 -0.028693 -0.077780 -0.074271 -0.076253 -0.016906 -0.023748 0.023705 0.036033 -0.034330 -0.070996 -0.092010 0.067037 0.048679 -0.075266 -0.047358 0.068072 0.003532 -0.051835 0.055833 0.034456 0.107300 0.047912 0.081850 0.074788 -0.131363 0.027279 0.050922 0.009930 -0.052962 -0.000192 -0.025860 0.046291 0.025204 -0.019262 -0.099863 0.025395 -0.072536 0.010606 -0.014753 -0.037842 -0.087221 0.057350 0.006655 0.013374 0.034764 0.039830 -0.019260 0.049005 0.012365 -0.060242 
so -0.100838 0.030850 0.005766 -0.073932 -0.024150 0.032437 -0.038801 -0.075092 0.076745 0.008934 0.062151 0.089260 -0.086131 -0.046805 -0.053238 0.038106 -0.008399 0.156508 -0.011095 -0.043851 -0.034173 0.001748 0.046419 -0.080711 0.083729 -0.115171 0.008838 0.030467 0.114770 0.005200 0.096162 0.081253 -0.043644 -0.013527 0.090561 -0.093537 -0.022758 0.012285 0.091359 0.076580 -0.111632 0.114626 0.003983 -0.186988 0.030127 -0.080172 0.067759 -0.103698 0.061254 -0.036403 0.104012 -0.125415 0.033978 0.050780 -0.067247 -0.012019 -0.069785 -0.040657 0.136475 -0.055347 0.079821 0.003798 -0.101559 0.135297 -0.037950 0.112752 0.091327 -0.060402 0.054349 0.052463 -0.060363 0.045393 -0.017035 -0.093491 0.033219 0.062485 -0.104085 0.071009 -0.101371 -0.038052 0.016580 -0.000423 -0.104584 0.049005 0.115085 0.066465 0.065442 -0.075927 0.041925 0.028757 0.013895 0.069173 -0.066990 -0.034340 -0.095204 0.103194 -0.010074 0.027489 -0.028569 0.050764 0.027002 -0.022864 -0.007819 -0.075225 0.020020 -0.029928 0.118687 0.058899 -0.074545 0.143983 0.049210 0.082716 -0.010735 0.006534 0.069803 0.165427 0.165428 -0.136486 0.037625 0.118677 0.011505 0.003363 0.011913 -0.082975 -0.063723 -0.040004 0.044513 -0.083350 0.065163 0.122390 -0.042540 -0.046785 -0.080682 0.062884 -0.120993 0.108583 0.065090 -0.083930 0.024124 -0.131845 0.064158 -0.040604 -0.086047 0.110471 -0.043467 0.022624 0.000419 -0.036840 -0.068573 -0.042473 -0.071076 -0.028651 0.017423 -0.020701 0.012911 -0.046663 0.072788 -0.028007 0.035520 0.026994 -0.070510 -0.035392 0.022299 -0.059421 -0.121973 0.080391 0.035158 0.057620 0.048807 0.059546 0.061970 0.028425 0.062509 0.093665 -0.099666 0.053827 0.019174 -0.070191 -0.066580 0.055606 0.017066 0.017851 0.043403 0.049846 0.028674 0.109352 0.074884 0.060744 -0.064681 -0.016161 -0.016543 0.102314 -0.007561 0.036585 0.048477 0.048249 -0.110588 0.070920 -0.031992 -0.085396 
xml -0.092793 -0.029626 -0.095581 0.003767 0.027869 0.017318 0.043535 0.107690 -0.041240 0.051371 0.082004 0.115002 -0.101457 -0.030140 0.079437 -0.028369 -0.041005 0.101183 0.095777 -0.062741 0.004466 0.111196 0.096549 -0.080164 -0.016047 -0.068726 -0.065726 -0.007087 0.136037 0.024878 0.109895 0.103661 0.011885 0.093950 -0.034980 0.066143 0.039502 -0.089357 0.103263 -0.009238 -0.127839 -0.087170 0.092907 -0.096074 0.021344 -0.073490 -0.088793 -0.107747 0.078748 0.010919 -0.029565 -0.080443 -0.088618 -0.047824 0.034665 0.091792 -0.094656 0.122250 0.063861 -0.043344 -0.110624 -0.089640 0.055594 0.120778 -0.140138 0.128680 -0.105653 -0.021261 0.044071 0.008152 -0.020561 -0.080440 0.063672 -0.085997 -0.004612 0.086602 -0.095067 0.054211 0.070756 -0.046744 -0.020854 -0.089484 -0.046329 -0.019787 0.051672 0.030860 -0.072610 0.031287 0.120262 0.003171 0.015915 0.042941 -0.084949 0.036971 -0.049642 -0.056974 0.025456 0.116722 -0.041618 -0.048179 0.082888 0.036926 0.043124 -0.065738 0.029803 -0.089365 0.083675 0.074243 0.071628 -0.072678 -0.072135 0.060797 0.086166 0.007520 0.101252 0.130997 -0.025039 -0.001065 -0.087026 0.130837 0.063820 0.087782 -0.109127 -0.066566 -0.058956 0.089346 -0.001416 0.045247 -0.054374 0.090092 -0.083369 -0.026389 0.104103 0.041461 -0.042341 0.050223 0.007296 0.068550 0.023929 -0.116491 0.000988 -0.044659 -0.099317 -0.014244 0.010257 0.061185 -0.080961 0.060067 0.104341 -0.011270 0.032166 -0.019259 0.031151 -0.122214 -0.099839 -0.082482 0.008659 -0.118812 -0.082969 0.025278 0.079738 -0.024220 0.050246 0.077352 -0.077990 -0.015697 0.071767 -0.026519 -0.040387 -0.028922 0.104929 0.027908 -0.041815 -0.049698 -0.004477 -0.010349 -0.072735 0.045927 0.069939 0.088865 0.057011 -0.069004 0.088707 -0.024669 0.001106 -0.101436 0.052983 -0.010756 0.069836 0.091870 -0.026227 0.092186 0.018563 0.095454 0.050603 0.049209 0.005111 0.113313 0.025844 -0.025319 
for -0.056099 0.038099 0.053069 -0.024525 -0.100989 -0.123466 -0.007399 0.069420 0.103645 0.033270 -0.074190 0.005385 0.014228 0.009856 -0.018889 0.017188 0.020179 0.121163 0.110871 0.064791 -0.084987 0.054551 -0.035912 -0.041542 -0.022382 -0.132719 -0.095667 0.090450 0.127940 -0.013821 -0.037689 0.066648 -0.035868 0.147708 -0.058549 0.032294 0.126734 0.006266 -0.028369 0.010048 0.054167 -0.024689 0.095176 -0.144747 -0.008690 0.102268 0.032199 -0.135663 0.053065 -0.025525 0.047534 0.036071 0.030504 -0.107575 0.006486 -0.024804 -0.059987 -0.075931 0.000025 -0.079306 -0.035653 -0.032737 -0.098288 0.040622 -0.040537 0.134357 -0.058026 -0.064877 0.093946 -0.086128 -0.048078 -0.024804 0.071285 0.022750 -0.060089 -0.049634 -0.053332 -0.062114 -0.043268 0.088922 0.113962 0.057899 0.074427 0.102504 -0.060463 0.008712 0.013628 -0.059551 -0.016359 0.090352 -0.102542 -0.098952 0.076939 0.028681 0.023140 0.005522 0.071666 0.085379 0.056965 -0.085564 0.108012 -0.032002 -0.094947 0.031959 0.060729 0.101803 0.001146 0.038662 -0.011782 -0.059598 0.048835 0.164616 -0.103399 -0.114606 0.062042 0.043114 0.058638 -0.035558 0.112503 0.098110 -0.063129 0.044658 -0.075582 -0.140527 -0.050156 -0.031024 0.072295 0.027964 0.126486 0.009863 0.063170 -0.087760 0.084050 -0.010270 -0.077457 -0.014855 0.071979 -0.124168 0.109820 -0.065964 0.006856 0.082157 0.013532 0.001800 -0.017471 -0.093358 -0.049037 -0.056296 -0.086443 -0.015389 -0.102405 -0.027286 -0.074142 -0.113814 -0.098858 -0.035580 0.127119 -0.095304 -0.010794 -0.065473 -0.054119 0.084017 0.062659 -0.000686 -0.120085 -0.053872 -0.053635 -0.065954 0.043821 0.087140 0.142115 -0.033439 0.047567 -0.018548 -0.102672 -0.068270 0.031437 0.077596 -0.087267 -0.050067 0.065646 -0.043105 0.085328 0.018000 -0.074018 0.006835 -0.005039 -0.075930 0.038268 0.015461 0.040346 -0.046135 0.009795 -0.042867 0.116284 -0.027689 -0.059243 0.087217 0.014698 -0.022546 
be 0.085240 0.017976 0.025708 0.038621 0.088678 0.045916 -0.080826 -0.059012 -0.092879 0.014517 0.058145 0.066112 0.011260 0.072705 0.081580 0.118361 -0.006031 0.025945 -0.013532 -0.100786 -0.029482 0.089711 0.026201 -0.028207 -0.102091 -0.087496 0.035635 -0.007581 0.026950 -0.043659 0.025458 -0.105683 -0.105201 -0.071626 0.087110 -0.046564 -0.072902 0.091967 0.091103 0.038905 0.010447 -0.099127 0.083912 -0.034449 -0.041446 -0.065599 0.022296 0.033452 0.051746 -0.007801 0.104857 -0.033287 -0.064530 0.088786 0.105738 0.116973 0.016005 -0.098854 -0.081725 0.069414 0.086680 0.005472 -0.109287 0.115332 -0.060633 0.002514 0.030871 -0.046820 -0.004827 0.097516 0.115234 -0.056140 -0.081870 -0.049452 -0.007876 -0.000125 -0.089313 -0.008575 0.087491 0.057404 0.130110 -0.074851 0.104206 -0.107617 -0.088452 0.086659 0.096571 0.051424 -0.067097 0.052224 -0.100708 0.007811 -0.054015 0.050431 -0.095670 -0.088872 0.044704 0.034102 0.107391 0.023591 0.100730 0.055623 0.049844 -0.052762 0.057850 -0.016809 0.074376 0.086841 -0.099571 -0.001663 0.056990 -0.088186 -0.035347 0.055326 0.019547 0.127197 0.131088 -0.009361 -0.019631 0.115378 0.068386 -0.052131 0.012719 -0.010065 0.040334 0.023427 0.072246 0.012443 -0.100152 0.022955 0.082387 -0.087848 -0.042788 -0.030077 -0.133757 0.033540 -0.022631 -0.053633 0.021772 -0.007364 -0.104678 -0.049482 -0.081123 0.043060 0.068945 -0.096307 0.074114 -0.068538 0.106947 -0.115389 -0.006539 -0.036990 -0.010410 0.005175 0.034849 0.071991 -0.065032 -0.037938 0.112721 -0.033215 -0.000178 -0.037503 -0.023192 -0.115978 0.072727 0.066031 0.095268 -0.069922 -0.106452 -0.114406 0.113255 -0.007941 -0.093633 0.100572 -0.086132 0.035301 -0.063920 -0.055904 -0.004981 0.052237 -0.117016 -0.025038 -0.072543 -0.080694 -0.086865 0.058973 -0.042729 -0.005935 0.063097 0.099396 0.060870 0.002545 -0.128972 0.114125 -0.019633 -0.058488 -0.017571 0.122465 -0.055636 -0.089492 
one 0.064365 -0.008434 0.090568 0.035678 -0.089055 -0.064114 0.019596 0.099362 0.075699 -0.043321 0.084192 0.053340 -0.087520 -0.015211 -0.044932 -0.055459 -0.119248 0.088908 0.029349 -0.054503 -0.034546 -0.029126 -0.062879 0.084978 0.019820 -0.086151 0.082133 0.082608 -0.053272 -0.094480 -0.004322 -0.017404 0.025816 0.134849 -0.032262 -0.045125 -0.006490 -0.000477 0.121459 0.012544 -0.041068 -0.073197 0.047061 -0.000739 -0.035561 -0.008073 -0.094574 -0.005362 0.094271 -0.026451 -0.025598 0.010504 -0.078340 -0.047058 -0.135496 0.074029 -0.065398 0.008231 -0.054485 -0.000670 0.071266 0.057093 0.055781 0.164829 -0.026976 -0.072089 -0.026989 -0.048257 0.025617 0.060453 -0.001938 -0.055180 -0.074833 0.023993 -0.106571 -0.042701 -0.026124 -0.027624 -0.054990 -0.012776 0.105452 0.101270 0.009055 -0.060554 0.119114 -0.001693 0.002122 0.022455 0.156699 -0.007583 0.076654 0.068158 0.022853 0.028942 0.078638 0.118156 0.037910 -0.091028 0.108526 0.019883 0.107499 0.031185 0.070625 -0.004294 0.103525 -0.090019 -0.046076 -0.096978 0.083294 0.129956 -0.070474 0.031040 0.056360 -0.051042 -0.009147 -0.024627 0.084537 -0.130472 0.003041 -0.075771 0.063758 -0.017751 -0.118079 -0.110100 -0.041680 -0.118979 0.016100 -0.115307 0.048373 0.101203 -0.110851 -0.124035 -0.090295 -0.029550 -0.017254 -0.086970 0.062542 -0.049112 0.077846 -0.106650 -0.069518 -0.028299 0.014884 0.078809 0.102548 0.018752 0.118837 -0.045578 -0.005054 0.046688 -0.109140 0.003294 -0.009059 -0.153453 0.103938 -0.142913 -0.029110 -0.035933 0.051442 -0.002580 0.028485 -0.017184 0.126850 0.064797 -0.001905 0.087850 0.126172 0.084480 -0.021661 -0.031922 0.122551 0.029467 0.037378 0.019428 0.018306 -0.018759 0.097778 -0.006422 0.094162 0.063234 -0.013079 -0.064048 -0.015821 0.043329 -0.058500 0.019412 -0.026068 -0.093378 -0.057697 0.020928 -0.000071 -0.005573 0.047834 0.119274 -0.045561 -0.105973 -0.106059 -0.082986 0.087400 -0.126615 
can -0.060194 -0.092250 0.004667 -0.067168 -0.092278 -0.030745 -0.102996 -0.015278 -0.065310 -0.011189 0.014093 0.076018 -0.020544 -0.060914 0.075343 0.101029 -0.039778 0.133902 0.006833 -0.053749 -0.057313 0.052084 0.130724 -0.012114 -0.082897 -0.149632 -0.140372 0.037579 0.091005 -0.032723 0.068436 0.001647 -0.060732 0.150147 0.079321 -0.043315 0.071721 -0.060136 0.043464 0.061573 -0.047872 0.145123 0.029056 -0.057146 0.001743 -0.022203 -0.051434 -0.051674 -0.015675 0.058456 0.097479 -0.106919 0.001052 -0.090595 0.036493 0.149756 -0.042151 -0.054646 0.048648 -0.076554 -0.050791 -0.138963 -0.032039 0.039670 -0.111847 0.034469 0.029611 0.050099 -0.038200 -0.067604 -0.087931 -0.074094 0.086055 -0.044774 -0.067473 -0.040352 -0.040621 0.000100 -0.123167 0.024657 0.045194 0.021446 0.050495 -0.052257 0.063543 0.087324 -0.012657 -0.006806 0.112975 0.056574 -0.005668 0.003109 0.083237 0.087380 -0.113731 0.021980 0.033060 0.071581 0.079050 0.016030 0.120463 0.026937 -0.022149 -0.101611 -0.020266 0.043673 0.081726 0.100130 0.061696 0.155801 -0.037425 0.128954 -0.003354 -0.031146 0.009930 0.105996 0.108755 -0.149593 -0.025591 0.111065 -0.056965 0.035699 -0.137055 -0.001874 -0.010703 -0.023397 -0.043735 0.026959 0.069225 0.099224 0.033783 -0.033197 0.006950 0.094496 -0.126802 0.001098 0.066118 0.015936 0.039047 -0.138525 -0.076648 0.035014 -0.068404 -0.023160 0.069290 0.100060 0.083579 -0.054988 0.067914 -0.074650 0.071210 -0.133534 -0.005316 -0.136464 -0.091893 -0.026142 0.011451 0.050641 0.063351 -0.031688 0.064208 0.052900 0.034237 -0.003070 -0.047276 0.095316 0.046818 0.049438 -0.100959 0.006573 0.141499 -0.018962 0.005037 0.076627 0.019145 -0.059250 -0.113132 -0.060863 -0.011533 -0.084888 -0.048311 -0.028685 0.010831 0.049378 -0.143842 0.005891 0.057651 0.034219 -0.035788 -0.054760 -0.061499 0.032949 -0.097270 0.054978 0.045876 -0.025345 -0.043968 0.069229 -0.002158 0.006272 
this 0.021789 -0.050168 0.081211 -0.094507 0.079590 0.088808 -0.117121 -0.045409 -0.032890 -0.023021 0.114871 -0.017862 0.051911 -0.093878 0.083742 0.067708 0.034637 -0.013873 -0.115774 0.108991 -0.080922 -0.097519 -0.085800 0.064303 0.012167 -0.113668 -0.095376 -0.047407 -0.046079 -0.013059 -0.110400 0.095950 -0.069984 0.071682 -0.036139 -0.092967 -0.055759 0.068559 0.040254 0.071704 0.061014 -0.033797 0.092253 -0.118634 -0.079649 0.056392 -0.088553 -0.099377 -0.049557 -0.036017 0.077599 0.027165 -0.087435 0.102011 0.018525 -0.023206 0.113650 -0.025922 -0.049786 0.010972 -0.048802 0.114475 -0.093230 -0.033242 0.095917 -0.094455 -0.017074 -0.015642 0.066564 0.002838 0.091528 0.022088 -0.072441 -0.090044 -0.036465 0.098896 0.046463 -0.081326 0.118083 0.051840 -0.118593 -0.103632 -0.077644 0.021126 -0.078791 0.013555 0.016748 -0.034929 -0.012226 0.016352 -0.110297 -0.097378 -0.036368 -0.045979 0.060355 -0.086647 0.034459 -0.063549 -0.104110 -0.105046 -0.038470 -0.108354 0.036701 0.048258 0.051777 0.050752 -0.028768 -0.092819 -0.054782 -0.021999 -0.023898 0.036328 0.070043 0.025796 -0.096472 0.090873 -0.054989 -0.120373 -0.091128 0.029134 0.119570 0.013155 -0.034392 0.112573 -0.008778 -0.009388 0.107840 -0.064266 -0.011842 -0.078114 -0.054730 -0.118664 0.114168 -0.022503 0.118290 -0.092301 -0.051363 -0.096439 0.115344 0.033767 0.101645 -0.008145 -0.029463 0.096601 0.031321 0.109753 0.021115 -0.006110 -0.016031 -0.057258 -0.062590 -0.073532 0.024009 -0.035514 -0.064588 -0.086721 0.033971 -0.018269 0.049224 0.033900 -0.042985 0.104365 -0.111451 -0.056495 0.039447 0.017877 0.093778 0.085441 0.103170 -0.046586 -0.089160 -0.006376 0.030714 -0.039762 0.101386 -0.009854 0.007756 -0.094277 0.032601 -0.027306 0.038085 -0.039614 0.102363 -0.100413 -0.056396 0.112861 0.041631 0.032287 0.091876 -0.072622 -0.115492 -0.034663 -0.058971 -0.001143 -0.031758 0.081459 -0.020116 0.012785 -0.036835 0.096453 
it 0.000874 -0.062395 0.066893 0.006248 -0.031704 -0.109611 -0.130968 -0.023176 -0.008427 -0.079506 -0.042799 0.057497 0.075751 -0.084700 -0.076837 -0.030524 0.092090 0.024177 0.058394 -0.042086 -0.073421 0.094792 0.106081 -0.022176 -0.046651 0.051084 -0.083163 0.062095 -0.023007 -0.024897 0.026957 -0.043462 -0.040348 -0.037418 -0.062385 -0.103011 -0.043308 -0.009591 0.066006 0.024482 -0.020637 0.101325 -0.014765 -0.125684 -0.058139 0.083283 0.095992 0.028551 0.064457 0.032846 -0.046547 -0.014816 0.021948 -0.079365 -0.041413 0.088613 -0.058678 -0.073644 0.075909 0.064490 -0.089500 0.047888 0.088116 0.131887 -0.116035 0.095883 0.107056 0.073977 -0.080302 0.077612 0.064786 -0.110188 0.040354 -0.024063 -0.094214 -0.102100 -0.003041 -0.005534 -0.060180 0.037601 0.053772 0.031773 -0.053044 0.101640 0.134126 0.001171 -0.015349 -0.046941 0.030989 -0.104733 0.044881 -0.008039 -0.094596 -0.023839 -0.099924 0.111561 -0.076357 -0.033119 -0.031497 0.097826 -0.070474 0.102737 0.046110 0.048535 0.081758 0.084778 0.017313 -0.063699 -0.067986 0.079758 -0.064274 0.101549 0.012150 0.007404 -0.101651 0.090994 0.024794 -0.056102 0.092598 0.005375 0.030910 0.090495 -0.062577 -0.078819 -0.107237 0.006831 0.072619 -0.066561 -0.082712 0.036454 -0.053730 -0.047071 -0.090741 0.110066 -0.130681 0.107499 0.128635 -0.105787 -0.012684 0.002863 0.037473 0.087868 0.030005 -0.055143 0.013862 -0.055360 -0.032096 0.058005 -0.107686 -0.068357 -0.091638 -0.000788 0.079382 -0.021032 -0.032028 -0.046050 -0.063137 0.018637 -0.091381 0.053288 -0.093633 0.020738 0.108894 -0.120284 -0.092670 0.043598 0.114068 -0.036429 -0.061389 -0.087860 0.079755 -0.024532 -0.032717 0.078951 0.033484 0.101019 0.001548 0.028990 -0.093565 -0.084651 0.025073 0.087949 0.098325 -0.057387 -0.091771 0.109059 -0.067469 0.073681 -0.047705 0.004465 0.087597 0.068158 -0.091346 0.032609 0.124236 -0.092243 -0.046068 -0.048912 -0.015754 -0.097045 
are -0.027181 0.013308 0.036052 -0.051580 0.044218 -0.026059 -0.091015 -0.062915 0.032679 0.103944 -0.000581 0.108067 -0.030101 -0.079661 -0.075382 -0.052961 0.003125 0.058091 0.034067 -0.060032 -0.029830 0.014798 0.031879 0.055453 -0.045673 -0.126767 -0.057141 0.022972 0.094152 0.035704 0.110601 -0.040485 -0.121134 0.098794 -0.015438 0.031615 0.078658 -0.093138 0.089411 0.032522 0.021129 0.007331 -0.031232 -0.098189 -0.073029 0.007826 0.065787 -0.105281 0.080486 -0.035566 0.003762 -0.035484 0.060321 -0.029952 -0.058063 0.089561 -0.009090 0.050560 0.114842 -0.118390 0.047913 -0.052206 -0.085121 0.121034 -0.117259 -0.004756 -0.008834 0.022868 -0.004219 0.041529 -0.036252 -0.099545 -0.004072 -0.104129 -0.005936 -0.047125 -0.030758 0.091056 -0.093699 0.083220 0.064984 -0.072744 -0.023960 -0.062876 0.007438 0.117905 0.070564 -0.068264 0.142856 -0.108847 0.016638 -0.066280 -0.049205 0.046597 -0.074038 0.031301 0.126990 0.017388 -0.088794 0.061958 0.007931 0.077986 0.024394 -0.084024 0.048588 0.060900 0.148446 0.057216 0.013962 0.105844 -0.077276 0.149458 -0.091583 0.031030 -0.000839 0.162162 0.075484 -0.171246 0.080588 0.088018 -0.033294 -0.015951 0.017103 -0.128121 -0.039664 -0.025569 0.090411 -0.055957 0.059904 0.039733 -0.087437 -0.106437 -0.091410 0.103795 -0.081880 0.032916 0.118584 -0.068917 0.062368 -0.039099 0.009502 0.031708 -0.042417 0.080926 0.042780 -0.017617 -0.034617 0.040811 0.016649 0.023798 -0.011051 -0.148164 -0.016354 -0.122923 0.042061 0.011786 0.118342 -0.072589 -0.059973 -0.014698 -0.056684 -0.014255 0.004026 -0.029843 -0.118602 0.053582 0.109930 -0.101279 -0.072982 0.019187 0.123090 0.050654 0.021089 0.094922 -0.033412 -0.007691 -0.056964 0.004877 -0.105398 -0.096489 -0.047909 0.042416 0.144355 0.038442 -0.009673 0.122353 -0.017628 0.056024 0.008844 0.044370 -0.088524 0.006550 0.001599 0.018163 0.046906 0.022827 -0.079296 -0.007407 0.062723 -0.123809 
our 0.006909 0.051511 0.016400 -0.043489 0.021615 -0.086472 -0.068350 -0.081095 -0.090811 0.083190 0.076988 0.066590 0.092546 -0.096583 0.008069 0.091852 -0.026675 0.062196 0.005097 0.066932 -0.103625 0.116143 0.039630 -0.099001 0.044876 -0.017392 -0.062130 0.122209 0.011943 0.056381 0.055390 -0.030430 -0.089279 0.124341 0.089304 -0.058776 0.098305 -0.055737 0.058337 -0.045061 0.074816 0.088556 -0.114459 -0.056452 0.015355 0.004609 0.090387 -0.087991 0.106095 0.082205 0.133326 -0.032257 0.071218 0.058142 -0.015406 0.015761 0.021410 0.119826 0.113468 -0.018966 0.012525 0.052821 0.013188 0.161475 0.016704 0.064611 0.058712 -0.008455 0.109711 -0.017070 -0.049131 0.007562 0.090217 -0.029089 0.033728 0.095612 -0.104214 0.087990 0.033126 -0.082790 0.067503 -0.098849 -0.106560 -0.035841 0.030785 0.083004 -0.081862 0.071373 0.055336 -0.098258 0.083080 0.000546 0.058952 -0.106173 -0.058609 0.108362 0.024494 -0.037069 -0.084823 0.130604 -0.050300 -0.064192 0.032332 -0.063087 0.081053 -0.102373 -0.047821 -0.006752 0.108933 0.095000 -0.077927 -0.018268 -0.064466 -0.098846 0.071352 0.068225 -0.008810 -0.072842 -0.070248 0.110038 0.006844 -0.067296 -0.033126 -0.009929 -0.132082 0.058266 0.017984 -0.119419 -0.032862 0.060725 -0.106762 0.048443 -0.032514 0.076161 -0.035593 -0.012479 0.084640 -0.036273 -0.080560 -0.080143 0.064063 0.029024 -0.096272 0.022644 -0.080007 0.110135 -0.067291 0.099173 -0.125789 0.075023 0.059250 0.065109 -0.016883 0.053048 0.036705 -0.084435 -0.002911 0.004224 -0.049027 -0.008246 0.097767 0.095319 0.091311 0.059204 0.041045 -0.064973 0.128254 0.028700 0.052940 0.020626 0.038966 0.001061 0.052113 -0.066486 0.036404 -0.072628 0.077769 0.011341 0.080672 0.036673 0.086072 -0.050360 -0.042343 -0.005537 -0.021491 0.034196 -0.017335 -0.077921 0.064340 -0.072514 0.025997 -0.002691 0.038999 0.146987 0.112124 -0.033658 -0.068320 -0.025813 0.107011 -0.059927 
authors 0.075830 0.013139 0.000706 -0.119654 0.023057 -0.004826 0.088236 -0.078257 0.067494 -0.101684 -0.025944 0.083202 0.086115 -0.045699 0.071982 -0.042154 0.045341 0.116314 0.056928 -0.069735 -0.062361 -0.003650 0.048452 -0.001600 0.059800 0.053466 -0.004580 -0.086019 0.083052 -0.029782 0.044525 -0.037625 -0.112519 0.000568 -0.091129 0.068686 0.038669 0.048694 0.063208 -0.001255 0.044235 -0.029987 -0.034728 -0.103752 0.092379 -0.054469 -0.066488 -0.037299 0.103143 -0.077830 0.027437 0.037489 0.073024 0.003694 -0.088501 0.126274 0.044657 0.006746 0.084378 -0.097199 -0.044281 -0.095171 0.040985 0.047616 -0.072299 -0.090304 -0.062054 0.110915 0.046529 0.076609 0.104003 -0.117237 0.072385 -0.033542 0.073597 0.091770 -0.135280 -0.099496 -0.106443 0.089437 -0.049866 -0.079283 0.096654 0.004126 -0.008109 0.013147 -0.063157 0.038794 0.092960 0.100148 0.025189 0.003314 0.101824 0.080277 -0.031018 -0.046563 0.037508 0.007102 0.093413 -0.012848 0.082119 0.042747 0.074162 0.094735 0.093021 -0.042736 0.127565 0.096984 -0.083362 0.037525 0.007183 0.050166 0.008934 -0.116479 0.102670 0.059046 -0.085872 -0.081388 0.070710 0.086468 0.098961 -0.045348 0.098849 -0.095279 0.017515 -0.053981 0.035498 -0.092488 0.117936 0.065941 -0.084318 -0.083708 -0.119614 -0.025917 -0.084990 -0.064871 0.128622 0.101853 0.046888 -0.073197 -0.033877 0.114413 0.009774 0.043675 0.106310 0.044082 0.010576 -0.104233 0.054761 0.063222 0.105281 -0.094401 -0.103476 -0.040509 0.091674 -0.084498 -0.021680 0.008760 -0.015027 -0.044621 -0.024095 0.067407 -0.096314 -0.077222 -0.068899 0.080163 -0.066124 0.046478 -0.081942 -0.002329 0.100249 0.085191 0.027663 -0.068184 -0.080472 -0.099417 -0.028902 -0.084093 0.019209 0.053725 0.007755 -0.061187 0.079504 0.088426 -0.064005 -0.028780 -0.014488 -0.009071 -0.075132 0.045944 0.079059 0.093994 0.083432 0.059017 -0.006957 0.023825 0.013856 -0.085156 0.041798 0.011307 
now -0.033224 0.060894 0.031751 0.065963 0.096106 -0.092608 -0.037977 0.063621 0.100854 -0.011458 -0.041895 0.089353 -0.038987 -0.030836 -0.107468 0.095704 0.009760 -0.064228 0.016996 -0.105726 -0.111337 0.030864 0.081806 0.040477 0.002239 -0.046596 -0.051245 -0.025890 0.127150 -0.068857 0.096418 0.066810 0.056443 0.129203 0.120232 -0.092161 -0.029504 0.091798 -0.064848 0.065268 -0.013203 0.017584 0.012644 -0.110205 -0.048919 -0.020786 0.091543 -0.087970 0.110834 0.025878 -0.076140 -0.125158 0.108160 -0.059374 -0.053795 0.105343 -0.104392 0.093782 0.101343 -0.053202 -0.027321 -0.110789 -0.021966 -0.032750 -0.115323 0.120268 0.086728 0.045387 0.070746 0.022343 -0.035501 -0.113116 -0.064428 -0.025126 -0.049723 0.078371 -0.076356 -0.053957 -0.042950 0.088295 -0.021292 0.101646 -0.058537 -0.059975 0.117006 0.077527 -0.018112 -0.048687 0.090396 -0.068758 0.097123 0.040407 0.087590 0.079169 0.022147 -0.087581 0.024138 0.060147 -0.032442 0.027961 -0.026830 0.117944 -0.048616 0.024207 0.105077 -0.079482 0.058798 0.068444 -0.045071 0.099520 -0.046871 0.085555 0.076048 -0.076834 -0.095632 0.092493 0.128645 -0.107125 -0.113496 -0.063224 0.016198 -0.037308 0.008834 -0.065767 -0.019209 -0.031443 -0.018527 -0.086256 -0.081995 -0.021794 -0.039319 0.063691 0.089804 -0.041417 0.014647 0.028477 0.058067 0.035455 0.041362 -0.117215 -0.021681 -0.032366 0.073664 -0.090484 -0.021716 -0.074514 -0.026569 0.041537 -0.094129 -0.060307 -0.071304 -0.081498 -0.034291 -0.071666 0.050775 -0.078510 -0.083022 0.040241 0.049513 0.019222 0.038062 0.036028 0.121305 -0.048642 -0.002478 -0.036015 0.047477 0.076943 -0.000358 -0.112516 -0.067306 0.036984 0.022149 0.032438 -0.130959 0.037720 0.102816 0.092695 -0.055581 0.077408 -0.045935 -0.056140 0.131738 0.027084 -0.080721 -0.102951 0.017088 -0.001755 0.071879 0.100378 0.029333 -0.027029 -0.041596 0.104443 -0.061510 -0.078479 -0.058209 -0.062239 -0.073212 -0.023603 
schema -0.025162 -0.087045 -0.081077 0.012355 0.066964 0.028874 0.028040 0.007431 0.041181 0.021505 0.045182 -0.022610 0.004407 -0.127933 -0.048813 -0.046640 -0.086449 0.039596 0.104772 -0.132267 0.010221 0.103200 -0.077588 -0.037754 -0.119707 0.074548 0.075705 -0.035893 -0.088935 0.092660 -0.027663 -0.047779 -0.039792 -0.063041 0.066569 0.070003 -0.088834 -0.003002 0.121346 0.067796 -0.033706 0.130901 0.042095 -0.124132 0.078710 0.019889 -0.078221 -0.057189 -0.083971 0.108175 0.080115 0.086983 -0.023429 0.030398 -0.094047 0.067519 0.065576 0.062639 -0.070172 0.053297 0.094451 -0.059954 0.103987 0.019628 -0.044813 0.124351 0.110631 -0.040266 -0.010683 -0.052736 0.053856 -0.066854 -0.064072 -0.080830 -0.071866 -0.057027 -0.098967 -0.104920 0.015425 0.050316 -0.055582 -0.090125 -0.076864 -0.090860 -0.038523 -0.042970 0.064438 -0.036881 0.052881 -0.039534 0.119785 0.016327 0.066211 0.037531 -0.081306 0.132692 0.021350 0.020657 0.034724 -0.065598 0.094177 0.073162 -0.095885 -0.110946 -0.097011 -0.055262 -0.014184 0.048477 0.023986 -0.043104 0.025774 -0.011611 -0.049085 -0.095186 -0.064663 0.061486 -0.054893 0.024004 0.095092 -0.017202 0.008218 0.088265 -0.036444 0.006696 0.043500 0.053327 0.118284 0.061583 0.049190 0.120861 0.097223 -0.041806 -0.058332 -0.086196 -0.130768 -0.060164 0.132948 -0.103335 -0.096168 -0.037683 -0.097519 -0.049277 -0.091743 -0.038829 0.007741 0.115309 0.086122 -0.010118 -0.081828 0.096999 0.013708 0.020004 -0.018733 -0.117262 -0.031975 -0.122739 0.071854 0.042045 -0.050642 0.091133 0.089070 -0.082664 0.099876 0.070943 0.070301 -0.057228 0.015601 0.032983 0.104499 0.068197 -0.028187 -0.007309 0.040729 -0.092075 -0.058316 0.023278 0.060193 0.015177 0.104068 0.014774 -0.062597 0.114936 0.109645 -0.057510 -0.024920 -0.062318 0.098882 0.066492 0.080014 -0.006037 -0.075733 -0.025270 -0.097434 -0.057630 -0.050635 0.029519 -0.024199 -0.072575 0.019480 -0.030378 
let's 0.033755 -0.083579 -0.049686 0.002402 -0.064106 -0.008973 -0.151909 -0.052921 -0.065531 -0.034079 0.036063 -0.014085 -0.018850 -0.009876 0.034370 -0.047700 -0.004999 0.037751 0.127830 -0.024338 0.049659 -0.003477 0.099457 -0.081321 -0.006873 -0.155322 -0.095512 0.072083 0.015980 0.101385 0.046590 0.009729 -0.114894 0.103122 0.010561 -0.026569 0.129782 -0.093471 0.037577 -0.026841 -0.031986 0.038331 0.045333 -0.092948 0.018296 -0.028675 -0.054148 -0.096603 0.035277 0.035285 0.063039 -0.112311 -0.022211 -0.061146 0.007304 0.017929 0.071193 0.059871 0.108017 -0.125394 0.074272 -0.077387 -0.042008 0.187715 -0.134811 0.096057 0.007604 -0.010614 0.039048 0.032378 -0.079945 -0.060481 0.115354 -0.059587 -0.008746 0.077698 -0.034467 0.135918 -0.119206 0.091518 0.129047 -0.050966 0.014992 0.041796 0.071442 0.050868 0.012900 -0.041824 0.083314 -0.089077 0.066240 0.069900 0.030994 0.068755 -0.085291 0.083922 0.059516 0.054110 0.040590 0.087014 0.027147 0.054085 -0.007231 0.009788 0.048629 -0.030931 0.002025 -0.028302 -0.060304 0.040071 -0.015365 0.161735 -0.093089 -0.002942 0.013021 0.155420 0.137044 -0.087313 0.016752 0.022032 0.092875 0.020151 -0.039524 -0.029090 -0.050033 -0.104806 0.001993 -0.012662 0.099739 0.011901 -0.139534 -0.036404 -0.079618 0.058322 -0.091575 0.065168 0.142173 0.035886 -0.013351 -0.002602 0.007248 0.033838 -0.039475 0.116697 0.014736 0.065066 0.094684 0.084766 -0.096213 -0.061019 -0.060737 -0.118188 -0.017318 -0.058312 0.051264 -0.087271 0.029814 -0.094953 -0.063034 0.044258 -0.074031 0.075574 0.088915 -0.073414 -0.094363 -0.012506 0.100648 0.015719 0.002845 -0.023779 0.098365 0.067106 0.097470 -0.008777 -0.094021 0.001378 0.031295 0.022394 0.013001 -0.010313 0.002141 0.089608 0.110031 -0.001126 -0.117665 0.056048 0.012703 0.087271 -0.008559 0.097546 -0.006799 0.069329 -0.046964 0.023406 0.107828 0.016268 -0.083882 0.060541 -0.084984 -0.092611 
elements -0.067992 0.057650 0.051403 -0.065778 -0.003693 -0.125604 0.006544 -0.058037 -0.053868 -0.001039 -0.032134 -0.009500 -0.087972 -0.023585 -0.029028 -0.090271 0.087833 -0.078519 0.114760 0.099195 -0.028850 0.012173 0.055066 0.009028 -0.117595 -0.016554 0.017377 -0.087814 -0.047857 -0.113272 0.037295 -0.108258 0.121026 0.089916 -0.039459 0.094065 -0.113346 0.011493 -0.050693 -0.030716 0.075811 -0.107230 -0.024099 0.043534 0.059508 0.038350 0.075927 -0.106465 0.031585 0.056599 0.095104 -0.081169 -0.004002 0.125534 -0.057554 0.075908 0.019996 -0.019892 0.096618 -0.121810 -0.019053 -0.075073 0.086867 -0.084893 0.072690 0.074710 0.012092 0.079848 0.046003 0.101119 0.034483 0.075722 -0.031864 -0.007715 0.126349 -0.077492 -0.030365 0.052814 0.070117 -0.043542 -0.008839 -0.108930 -0.035317 0.070762 0.036669 -0.061753 -0.027761 -0.031272 -0.079767 -0.070700 0.065095 -0.076688 0.025574 -0.084345 0.025675 0.017589 0.040177 0.012034 -0.047123 -0.108428 -0.032003 -0.109904 0.008893 0.008101 -0.123714 0.044330 -0.087146 -0.119399 -0.104414 0.019807 -0.046459 0.098500 -0.033440 -0.068753 -0.023326 0.048634 0.093164 -0.043333 -0.108733 -0.059335 0.089471 0.084198 -0.077194 0.047552 0.086025 0.112090 0.106894 -0.053988 0.023488 -0.098113 0.036074 0.035591 -0.094184 -0.115219 0.125716 0.019598 0.053436 0.048904 0.094949 -0.082189 0.090538 -0.060671 -0.020622 0.066481 -0.042217 -0.076047 -0.122100 0.105623 -0.087694 -0.072384 -0.047293 -0.008279 0.021356 -0.061552 -0.077070 -0.002268 -0.090877 0.007877 0.077349 -0.046447 0.022623 -0.002554 0.008507 0.005551 0.112635 0.085172 -0.121404 0.110213 -0.006768 0.006007 -0.086898 0.034139 0.048135 0.064558 -0.105550 0.113581 -0.035170 0.122366 -0.078461 -0.011447 0.000448 0.104271 -0.096618 0.121895 -0.030936 -0.001595 0.065465 0.027031 0.001221 0.109371 -0.062962 0.040212 0.037581 0.045535 0.123351 0.054629 0.082100 -0.015086 0.027065 0.026768 
here -0.066964 -0.100938 -0.113782 -0.043447 0.014000 -0.114649 -0.073050 -0.004707 -0.012094 0.030288 0.102520 -0.018033 0.083704 -0.046493 -0.009975 0.074170 -0.069854 0.057845 0.107346 -0.136093 0.088988 -0.049988 -0.031693 -0.046038 0.061256 0.006480 -0.136186 -0.047217 0.099133 0.087732 0.102291 0.021770 -0.087328 0.068343 -0.012386 -0.017961 0.027602 -0.088620 -0.061665 -0.041080 0.005376 0.133122 -0.067159 -0.063448 -0.032365 0.045058 -0.017904 0.067685 -0.071925 -0.027519 0.026195 0.043997 -0.006131 -0.091192 0.058850 -0.017262 0.101271 0.012379 0.045241 -0.128571 0.062699 -0.126975 -0.016894 0.137100 -0.135470 0.113939 -0.022219 0.084180 0.015092 -0.070573 -0.023418 -0.041605 0.091915 -0.077141 -0.118159 0.109138 0.056478 0.103359 0.073916 -0.014268 -0.051141 -0.103036 0.049708 0.071209 0.138779 -0.095887 0.117776 -0.006295 -0.022280 -0.099234 0.049982 -0.068457 0.077780 -0.082378 0.039546 0.027554 -0.061978 0.117751 0.084550 0.031759 0.046474 0.095520 -0.030878 0.053694 -0.062711 -0.053036 0.028497 0.061287 -0.001152 0.107625 0.089696 -0.033752 -0.081862 0.012508 0.024040 -0.018096 0.056648 -0.003730 0.038844 -0.046215 0.017591 0.020813 -0.036642 -0.010008 0.091839 0.097810 0.020649 -0.032648 -0.042392 0.106705 -0.136832 0.013408 0.052195 0.007661 0.042963 0.029560 0.020439 -0.104923 0.018085 0.049845 -0.077991 0.039857 -0.008598 -0.046196 -0.039648 0.092291 -0.102844 0.088168 -0.065701 -0.098839 0.081463 -0.131044 0.087419 0.044632 0.035361 -0.047555 -0.059617 0.019226 0.096867 0.023766 -0.036922 0.014237 0.058497 0.079389 0.089008 0.080149 0.108576 0.014958 0.069709 0.049455 -0.072469 -0.061260 0.101503 -0.062460 0.027162 0.033592 -0.020915 0.103677 0.085139 0.076480 0.110498 -0.021070 0.093978 -0.054794 -0.068365 0.104647 0.005594 -0.004157 -0.013432 -0.066740 0.089202 -0.047129 -0.003261 -0.064523 0.108081 0.023265 -0.070601 0.120461 -0.007680 -0.136517 
book -0.071914 -0.100475 -0.067139 0.063655 0.018767 -0.027385 -0.063916 -0.042996 0.041781 0.121904 -0.004651 -0.025782 0.062687 -0.048383 -0.076340 0.062990 0.063834 0.136684 0.126122 0.015960 0.033736 0.037261 0.047043 -0.111790 0.069579 -0.088155 -0.003915 0.042481 0.082206 0.135632 0.106524 0.047815 0.031913 0.072486 0.082098 -0.129607 0.060175 0.009325 0.124885 -0.008039 0.090303 0.090487 -0.018714 -0.044923 0.041937 -0.044360 -0.092652 -0.033196 -0.020959 -0.020755 0.114525 -0.034540 -0.065006 -0.024200 -0.013466 -0.009848 -0.061554 0.033006 -0.057132 0.018375 0.131857 -0.000159 -0.048863 0.140645 -0.085517 0.074164 -0.083241 -0.047340 -0.000989 0.082410 0.024005 0.026336 0.008321 -0.095176 -0.116107 0.068158 -0.052371 -0.031678 -0.021877 0.079879 0.169655 0.082958 -0.059930 0.010501 0.073234 0.018900 -0.035255 0.009557 0.091147 -0.026299 0.090469 -0.010455 -0.000521 -0.022540 0.019055 0.167154 -0.042492 0.031925 0.054098 -0.075974 0.007330 0.049808 -0.093281 -0.072161 0.105589 0.021094 0.006401 0.105951 0.012603 0.090735 0.010302 0.036057 0.009632 -0.069954 -0.014319 0.172489 -0.026943 -0.145892 -0.006238 0.052198 0.132443 -0.028750 -0.063254 -0.116772 0.065856 0.039892 0.017199 -0.002364 0.114987 -0.032002 -0.117114 0.089266 -0.055965 -0.015130 -0.151997 -0.020284 -0.001491 0.027779 -0.060146 -0.047274 0.034159 0.150043 -0.103524 -0.065972 0.000792 -0.002616 -0.074187 0.005564 -0.011054 0.020567 -0.091405 -0.033320 -0.015431 0.026543 -0.011604 -0.032360 0.054389 -0.122682 0.067647 -0.010433 0.002831 0.066122 -0.023978 -0.091993 -0.034856 0.060533 0.055127 -0.022003 0.059221 0.036922 0.038487 -0.021702 0.069503 -0.068954 -0.063626 -0.074626 -0.072561 -0.050524 -0.080095 -0.035723 -0.065414 -0.082467 0.088553 -0.114314 -0.140494 -0.003179 -0.109525 -0.073790 -0.051152 -0.057811 0.052326 0.110631 -0.058037 -0.038698 0.073600 0.086010 0.011977 0.112646 0.053304 -0.135688 
document -0.030270 0.002480 -0.059422 0.012300 0.106501 -0.105934 -0.067182 0.011637 -0.100099 -0.104500 -0.108268 0.043805 0.112210 -0.068259 -0.020743 0.065358 0.052240 -0.009060 -0.085033 0.096045 0.103107 0.124441 -0.012813 -0.033969 -0.047211 -0.058770 0.041880 0.074229 0.110790 0.124595 -0.011795 0.124417 -0.114077 -0.095644 0.051291 -0.116433 -0.085920 0.090190 0.013909 -0.059827 -0.116761 0.038305 -0.025202 -0.065181 0.050126 -0.073566 0.095894 0.076837 -0.023667 -0.004493 0.096774 -0.119581 0.044973 0.044090 0.012983 -0.065937 -0.055974 -0.066052 -0.056737 -0.121648 -0.069782 0.095590 0.049548 -0.077384 0.070692 0.011614 0.051415 0.086603 -0.009766 -0.013858 -0.015590 -0.052298 -0.117625 -0.119064 -0.052726 -0.095173 0.003842 -0.126269 0.101942 -0.085469 -0.083776 -0.047322 -0.084786 -0.003437 0.002638 -0.083656 -0.071811 -0.018911 -0.048938 -0.120730 -0.013168 0.014244 0.018221 0.019189 0.000301 0.052583 0.018483 0.071475 -0.059052 0.115855 0.082186 0.087474 0.097098 0.034224 -0.102691 -0.071051 0.061937 -0.046173 -0.026645 0.026409 -0.002600 0.083995 0.124691 0.115230 -0.124159 -0.061077 -0.023898 -0.006021 -0.014418 0.107107 -0.026105 0.029973 -0.080188 -0.023648 0.122022 -0.104608 0.093241 0.008767 -0.017928 0.083941 -0.027331 -0.028677 -0.062839 -0.111365 0.099196 -0.053039 -0.071957 -0.070434 0.066010 0.081820 -0.041332 -0.121085 0.035045 0.079675 0.096180 -0.022390 -0.021345 -0.039724 -0.034636 0.024219 -0.067614 0.059341 0.012528 -0.119496 -0.005022 0.017453 -0.011155 -0.023023 0.075591 0.043944 -0.038540 0.049012 -0.106201 -0.094217 0.060710 -0.104824 -0.009296 -0.061308 -0.025426 -0.117212 -0.040507 0.036029 -0.040222 -0.063198 -0.037900 -0.098429 0.083467 0.045371 -0.029121 0.060622 -0.029576 0.007062 0.021376 0.090568 0.066959 -0.063584 -0.040445 -0.115230 0.124244 0.011166 -0.052649 -0.094664 -0.043353 -0.033314 -0.042883 -0.080763 -0.052718 0.107099 0.024400 0.009415 
file 0.036374 0.040795 -0.004767 0.068235 -0.022977 -0.051949 0.030892 0.054443 0.085308 0.064790 0.103776 -0.012633 -0.008592 -0.056663 -0.000220 -0.051242 -0.113926 -0.054275 0.065364 0.082650 0.022338 -0.002011 -0.038145 0.097081 -0.031903 0.088452 -0.088858 0.011515 0.100955 0.018578 -0.051740 -0.092299 0.113379 -0.098739 -0.078609 -0.070326 0.009261 -0.088322 -0.009861 0.034613 0.103920 0.038149 -0.121886 -0.007158 0.027539 0.082141 0.118632 -0.113892 -0.029135 -0.092595 0.061593 0.107589 -0.062209 -0.061742 0.115743 0.116180 -0.005505 -0.086117 0.004691 -0.068653 0.020300 -0.115116 0.012614 -0.116021 -0.043186 -0.035845 -0.012310 0.118112 0.057069 0.077731 0.089527 0.092641 -0.111037 -0.035206 0.041734 0.076172 0.079240 -0.074910 -0.120655 -0.098685 0.071227 0.071512 -0.051177 -0.038757 0.117956 0.080955 -0.088509 -0.036005 0.036465 -0.058259 -0.010758 -0.070964 -0.044783 -0.046383 -0.032032 -0.061886 0.064962 -0.019666 -0.055009 -0.113877 0.120449 -0.052070 0.079917 -0.020616 -0.061282 0.093865 0.096355 -0.011781 -0.102628 -0.029535 0.029341 -0.005623 -0.061981 -0.060236 -0.023806 -0.107247 0.064551 -0.072204 0.096522 -0.110333 0.094006 -0.077115 0.113934 0.004581 -0.094295 -0.024364 0.063464 0.070105 -0.060460 -0.050200 0.042433 -0.018867 -0.049740 0.020555 -0.038693 -0.056016 0.004045 -0.072918 0.041977 -0.021878 -0.019783 -0.030873 0.070337 -0.083844 0.069523 0.010443 -0.105433 -0.097879 0.026718 -0.022935 -0.076587 -0.106806 -0.082023 0.106456 -0.119514 -0.091158 0.120906 -0.049059 0.049960 0.030812 0.078830 0.121693 0.030876 -0.095142 0.044783 0.046467 -0.017160 -0.013560 0.084943 -0.037275 -0.121400 0.045881 0.078632 -0.078925 0.002334 -0.084209 -0.032542 0.034408 -0.046919 -0.010656 0.004455 -0.020380 -0.109554 -0.025421 0.006660 -0.005828 0.036320 -0.109041 0.102536 -0.120468 -0.072542 0.069375 -0.015450 -0.002270 -0.089679 -0.093561 -0.094264 0.025665 -0.104627 0.106752 
with -0.064784 -0.049136 0.095690 -0.056541 -0.052392 0.068398 0.063272 -0.003623 -0.111755 0.009428 -0.090406 -0.082354 -0.008207 -0.064599 -0.004614 -0.105419 0.100899 0.086064 0.079555 -0.053187 0.091701 0.014248 -0.048400 -0.059145 -0.086306 0.065602 -0.070782 -0.010703 0.036867 -0.039154 -0.039921 0.053054 0.039625 -0.092338 -0.021442 -0.081016 0.068499 -0.062440 0.039837 -0.091034 0.048795 -0.050966 -0.004398 -0.102199 0.002581 0.086112 -0.007038 0.107001 -0.014540 -0.112770 0.022756 0.078885 0.108692 0.087249 0.091181 -0.103195 0.080887 0.103291 0.088872 -0.101667 -0.073230 0.079616 -0.103539 0.084317 -0.081898 0.041103 -0.017107 -0.028395 -0.026499 -0.002222 -0.104191 -0.110340 0.004876 0.069347 -0.027907 -0.024802 0.020521 -0.041893 -0.112097 -0.053362 0.115551 0.113931 0.088411 0.051069 -0.096435 -0.105665 -0.090135 -0.091323 0.048429 0.086618 -0.102925 -0.109513 0.074700 -0.063991 -0.027909 -0.051192 0.060088 -0.102459 -0.112232 0.091844 -0.106990 0.009955 -0.104872 -0.054101 -0.029019 -0.082802 0.093348 0.114079 0.066122 0.026592 -0.083733 0.081497 0.019357 0.069083 0.063035 0.101550 -0.056480 0.106630 0.083069 0.014663 0.014343 0.029478 0.072337 -0.056775 0.002350 -0.025620 -0.045762 0.110571 -0.020862 -0.049264 -0.079827 0.049240 0.052243 -0.016261 0.014454 0.080664 -0.048949 -0.047877 0.101087 0.086593 -0.114573 0.037994 0.074520 0.052471 -0.058939 -0.017048 -0.066807 -0.027355 -0.005804 0.062187 -0.074338 -0.065597 -0.003225 -0.076507 -0.084199 0.078355 -0.053723 -0.032872 0.060613 -0.109679 -0.093713 -0.051868 0.093481 0.083181 -0.004664 -0.091441 0.046654 0.051961 -0.067354 -0.054182 0.014234 -0.088634 -0.045816 0.011215 -0.103497 0.098320 0.106804 0.074951 -0.067506 -0.070723 0.065713 -0.033733 -0.093654 -0.052887 -0.010295 0.015650 -0.103056 0.054726 -0.096428 -0.076885 0.068879 -0.022087 0.084052 -0.085716 -0.073611 -0.038453 -0.039303 0.023129 -0.036299 0.091248 
key -0.073379 -0.123012 0.047753 0.026473 0.026089 -0.073644 0.072758 -0.013502 0.061912 -0.099613 0.066688 -0.028939 -0.089286 0.048656 -0.002000 0.030939 0.008923 0.091100 0.016038 0.086472 0.107329 0.085832 -0.012449 -0.109565 0.043871 0.042693 -0.142225 -0.080402 -0.047556 0.099282 0.046857 -0.022025 -0.048883 0.055660 -0.009970 -0.014412 -0.095434 0.052396 -0.036856 -0.041328 0.017991 -0.069777 0.093085 0.017469 0.011611 0.112292 0.006831 -0.078248 0.043363 0.067207 0.011592 -0.033903 0.106948 -0.088431 0.002545 -0.086468 0.007704 -0.066364 0.000429 -0.088234 -0.085031 -0.142840 -0.033523 -0.044820 -0.038953 -0.090663 0.062943 0.041389 0.003631 -0.092446 -0.081099 -0.035302 0.026407 0.107201 -0.000289 -0.003181 -0.132740 0.133654 -0.114702 -0.054993 0.104466 0.018349 -0.114457 -0.054886 0.127882 -0.005540 -0.055232 -0.054384 0.038789 -0.022709 -0.024808 0.033912 -0.070111 0.110565 0.043534 -0.020598 0.058829 -0.039915 0.014975 -0.075890 -0.097120 -0.055352 0.043898 0.074039 0.027678 0.049124 0.098441 0.010342 0.020442 0.101584 -0.073264 0.037021 -0.105394 -0.075715 -0.070890 -0.001801 0.138712 -0.035443 0.008471 0.125211 0.020933 0.020587 0.089128 -0.070393 -0.065995 0.034200 0.039359 0.062491 0.128284 -0.031546 -0.131689 0.095453 0.024822 -0.064457 0.031326 0.039494 0.039916 -0.100164 0.052059 0.078681 -0.067736 0.008918 0.092057 -0.089135 -0.016575 0.033876 0.118649 0.080504 -0.106952 -0.058926 -0.042907 0.073373 0.029755 -0.030161 -0.126272 -0.055766 -0.003882 -0.068239 -0.102319 -0.000854 -0.049098 -0.076462 -0.098589 -0.126327 -0.068513 0.109813 -0.021920 0.037905 0.037827 -0.018971 -0.094471 0.013918 0.096322 0.121871 -0.094860 -0.113088 0.059056 0.088792 -0.091741 0.009147 -0.053406 0.116007 0.091819 -0.098943 0.041390 -0.066626 0.042356 0.041067 0.032202 0.038012 -0.089263 0.031944 0.034788 0.095367 0.030689 -0.016320 -0.121805 0.002017 0.004921 -0.117432 
but 0.071509 0.002027 0.112519 0.004134 0.026070 -0.076566 -0.134496 -0.062168 -0.065163 0.117012 -0.109554 0.053724 0.012436 -0.026806 0.047880 0.032767 0.106391 0.065789 0.104609 -0.063179 0.089308 0.084688 0.074296 0.104302 -0.073240 -0.067217 0.021446 -0.066731 0.098107 0.094397 -0.025289 0.071004 -0.112911 0.015104 -0.005341 0.082614 -0.000796 -0.053563 -0.008565 0.071223 0.042417 0.091087 -0.020370 -0.147291 0.088571 0.051769 -0.060104 -0.021147 -0.061886 0.117107 0.051784 -0.068966 -0.055721 0.054103 0.088937 0.057235 0.048684 0.025534 -0.022994 -0.085282 0.038012 -0.121013 0.014234 0.098860 -0.057327 -0.052492 0.007892 -0.003020 -0.045200 -0.058082 -0.042171 0.008212 -0.043169 -0.005004 -0.042635 0.059151 -0.080674 0.094575 -0.058312 0.047290 0.022782 -0.088860 -0.122645 0.011905 0.055946 0.034772 0.039219 0.022518 -0.012276 0.031220 0.017648 0.015860 0.021571 -0.095248 -0.020780 -0.071638 0.069794 0.071674 -0.085413 -0.012526 -0.053070 0.112206 0.082922 0.052349 0.109741 -0.106002 0.113191 0.058186 0.042744 0.083190 0.103401 -0.053188 0.095193 -0.103099 0.096408 -0.057549 -0.073495 -0.091605 0.106123 0.123334 0.120002 0.026115 -0.041385 -0.091736 0.003228 0.088500 0.089245 0.056605 -0.073467 -0.078606 -0.053606 0.027541 -0.080141 0.001172 0.078038 -0.060629 0.034671 -0.043267 0.125025 -0.126409 -0.073971 0.013079 -0.093605 0.112904 -0.024891 0.091114 -0.019002 -0.113386 0.018199 0.026133 0.061468 -0.002816 0.039353 -0.063944 0.053287 -0.084581 0.032279 0.003384 0.079377 0.044545 0.024417 -0.044373 -0.078761 -0.082166 -0.072440 0.080924 0.018302 -0.125857 -0.048829 -0.010041 0.046798 0.040284 0.061422 -0.100716 0.090047 -0.102368 0.083588 -0.017411 -0.030300 -0.068493 -0.078553 0.094976 -0.042784 0.001249 -0.026348 0.093760 0.035306 -0.001096 0.048365 0.124962 -0.027293 0.126619 -0.093870 -0.031395 -0.009479 -0.103692 -0.037115 0.112308 0.054780 -0.108922 
an -0.099675 -0.028187 0.079449 0.025936 -0.030999 -0.031575 -0.061684 -0.003512 -0.010251 0.087812 -0.116984 0.069517 0.085111 0.106384 -0.080247 0.064454 -0.049499 -0.065465 -0.082638 -0.111203 0.086077 -0.056860 0.017336 0.013448 0.068719 -0.109059 -0.066551 -0.055298 0.023439 0.106493 0.015335 0.000885 0.119163 -0.075337 0.023489 0.088217 -0.098284 0.011669 -0.069886 -0.064727 -0.104122 -0.105580 -0.082605 0.002406 0.010382 0.078424 0.053851 -0.053881 -0.073051 -0.037174 -0.076149 0.115170 -0.102104 -0.050065 -0.069418 -0.004194 -0.017731 0.052860 0.061488 0.055790 0.072657 0.034201 0.078601 -0.058995 0.092312 0.066207 0.104794 -0.014773 0.084003 0.012672 0.033239 -0.063614 0.081380 -0.113532 0.089205 0.057952 -0.055568 0.006904 0.075286 -0.073297 -0.077468 -0.046839 0.065295 -0.063715 -0.021284 -0.068324 -0.005026 0.031185 -0.070341 -0.099996 0.054916 0.015083 -0.098783 -0.056799 0.049272 -0.056034 0.111286 -0.092279 0.073606 -0.040085 0.043132 -0.036395 0.041518 0.026098 0.021586 0.100022 -0.073819 -0.076572 -0.090409 0.129800 -0.007272 -0.017146 -0.077144 -0.101442 0.112946 0.077637 0.062531 0.090485 -0.055385 -0.077093 0.119778 -0.031304 -0.059076 0.031385 -0.014619 0.040546 -0.085265 0.019242 0.123781 -0.044400 -0.066441 0.003241 0.005123 0.114484 -0.069876 -0.049227 -0.020429 0.003115 -0.113068 0.107605 -0.113423 -0.043604 0.045869 0.093309 -0.050601 0.047382 0.052210 0.032208 -0.099438 -0.027919 0.030497 0.115366 0.079938 -0.029583 -0.025765 -0.108333 0.102799 0.093696 -0.087653 -0.066319 -0.099467 -0.050363 -0.044469 -0.122698 -0.015293 -0.033377 -0.018639 -0.064531 -0.056687 0.119078 -0.010003 -0.115524 -0.124177 -0.016979 -0.008486 0.049289 -0.017764 -0.098609 0.116090 0.064290 0.023174 0.060903 0.029363 -0.095743 0.052468 -0.048826 -0.099415 0.082069 -0.028191 0.107667 0.055534 -0.066349 -0.060363 -0.089304 0.098214 0.084587 -0.009194 0.023006 -0.095087 0.008534 
as -0.069911 -0.062543 -0.023667 -0.019114 -0.112831 -0.037779 0.074945 0.077904 0.036759 -0.041045 0.084963 -0.053851 -0.091212 0.081722 -0.107390 0.017856 0.045801 0.114986 -0.030164 0.079663 0.103058 0.064376 0.086816 -0.002608 0.013138 0.051973 0.109484 0.113982 0.017786 0.030867 -0.013052 -0.078936 -0.065324 -0.031365 0.104663 -0.084757 -0.091835 -0.093695 0.068880 -0.056519 0.096162 -0.030982 -0.053462 -0.120307 0.051560 0.075086 -0.093026 -0.046638 0.063125 -0.015992 -0.078731 -0.060950 0.015621 -0.024235 0.005369 -0.088372 0.079676 -0.072276 0.054333 -0.021346 0.041400 -0.015947 -0.067522 -0.084038 -0.057119 -0.057218 -0.111772 -0.074915 -0.057867 0.042562 -0.066049 0.114589 -0.051818 -0.067825 -0.061248 -0.084437 -0.035863 0.018723 0.047826 -0.017250 0.091300 0.051951 0.003511 0.100622 -0.058961 0.087911 0.075778 0.110611 -0.058859 -0.016531 0.105735 -0.074673 0.085705 -0.086758 0.026598 -0.032843 -0.013245 0.103568 0.042674 0.001524 -0.006225 -0.111648 -0.048933 -0.105493 0.046945 0.082806 0.078569 0.012681 -0.090398 -0.075880 0.093155 0.079937 -0.108939 0.080413 -0.007777 0.108349 0.114758 -0.093617 0.032755 -0.060857 0.039057 -0.000120 0.066197 -0.065127 -0.091316 0.025096 0.020195 0.083395 0.037807 0.000992 0.089179 -0.084439 0.050628 -0.062573 0.083133 -0.016098 -0.074798 -0.039678 0.104206 -0.057105 0.092287 0.013405 0.031086 0.003923 -0.054737 0.065099 0.112615 -0.066380 0.057595 -0.064103 -0.113660 0.049665 -0.083246 -0.032477 -0.075700 0.026667 -0.012666 0.093936 -0.091741 0.051743 0.092727 0.067283 0.046936 -0.098978 -0.108853 -0.064578 -0.104951 -0.092661 0.037353 0.023060 0.028120 -0.045783 0.059961 0.055964 0.099964 0.006892 0.009135 -0.002469 -0.108096 0.079415 0.030526 -0.084652 0.120260 0.015097 0.042525 -0.101519 -0.086284 -0.041724 0.077527 -0.113323 -0.069035 0.097642 -0.063290 0.111204 -0.105855 -0.027646 -0.010176 -0.111094 0.063145 -0.092602 
we're -0.061271 0.053774 0.081188 0.039386 0.038864 0.061302 0.082371 0.087806 0.104795 -0.112047 0.040016 0.068399 0.011534 0.084720 -0.007179 0.058989 -0.042610 0.019683 0.039439 -0.041439 -0.059951 0.108875 0.087170 -0.030046 0.031141 0.095478 0.109346 0.119831 0.104255 0.033319 -0.108087 -0.018593 0.104214 0.030733 0.031030 -0.044527 0.031684 0.016140 -0.061463 -0.001737 -0.043773 -0.019492 0.089011 -0.126625 0.008687 -0.032724 0.013047 -0.077234 -0.122884 0.095715 0.059727 0.035868 0.066955 0.039581 -0.111015 -0.079195 -0.111081 0.038679 -0.023385 0.091033 -0.017752 -0.110839 0.104078 -0.112167 0.031033 -0.037765 0.121927 -0.051654 0.041109 -0.073371 -0.063108 -0.015240 0.079436 0.022113 0.025270 0.015522 0.021946 0.051795 -0.080091 0.121514 0.064977 -0.123289 -0.033372 -0.055012 -0.040234 -0.074039 0.084320 -0.053544 0.020895 -0.066289 -0.015904 -0.105322 -0.123156 -0.048896 -0.042901 0.121709 -0.024275 0.096643 0.102017 0.022333 0.065829 0.037961 0.077517 0.051484 -0.033076 0.019505 0.104652 -0.018851 0.050102 0.090663 -0.032131 -0.107833 0.016755 0.113995 0.020034 -0.067409 0.116367 0.012635 -0.084011 0.053921 -0.086107 0.032243 -0.118498 0.024259 0.038101 -0.033762 -0.047380 -0.067481 -0.063654 -0.068320 -0.028960 -0.079125 0.106420 0.104304 0.103519 -0.053929 0.116932 -0.031713 0.073280 0.024325 0.096760 0.081921 -0.093603 -0.004804 -0.015281 0.052087 -0.038507 -0.004305 0.038285 0.054481 -0.108543 -0.015602 0.073358 0.082978 -0.079946 -0.015775 -0.032922 -0.066715 0.085019 0.074778 -0.088275 -0.029396 -0.015300 -0.102651 -0.088551 0.122036 0.026077 -0.082839 0.033287 0.122738 -0.067617 -0.101732 -0.094915 0.027203 -0.013414 -0.076237 -0.031614 -0.058748 0.044156 -0.113411 -0.022887 0.050758 0.007963 -0.002702 -0.001969 0.087471 0.102168 0.021517 -0.090255 0.105053 0.112221 0.043798 -0.095841 -0.035215 -0.112703 -0.044232 -0.016061 0.093291 0.086789 -0.031611 
books -0.063794 -0.058772 -0.042893 0.031007 -0.030260 -0.088038 -0.084735 -0.040558 -0.026968 0.050309 0.015200 0.122099 -0.057630 -0.050540 0.002601 0.065713 -0.048605 0.110762 -0.013390 -0.120692 0.065128 0.046726 0.066163 0.051581 -0.057415 -0.120362 -0.090381 0.090154 0.109998 0.029924 0.106941 0.073650 -0.088805 0.091183 0.063177 -0.112093 0.084456 -0.020867 0.096852 0.036751 -0.039286 0.107372 -0.089739 -0.164901 -0.072012 -0.077116 -0.052380 -0.053568 -0.053745 -0.030266 -0.050959 0.014137 0.080163 0.006492 0.035593 0.037427 -0.048044 0.061440 0.125975 -0.009436 -0.047446 -0.135727 -0.096464 0.118271 -0.162669 0.079410 0.083815 -0.020390 -0.043512 0.078281 0.032886 -0.072163 0.045133 0.027229 -0.125463 0.037371 -0.149259 0.035670 -0.074582 0.014839 0.128982 0.032720 -0.051571 0.066353 0.115580 0.093998 0.045137 -0.091443 0.062814 -0.087291 -0.041611 0.075817 0.028762 -0.013986 0.052065 0.109685 0.107534 0.038441 0.000732 -0.027022 0.057863 0.089345 -0.022601 -0.078664 0.091596 0.042284 0.065887 0.003037 -0.085070 0.100409 0.057621 0.130725 0.050327 -0.088859 -0.023530 0.057550 0.119908 -0.028081 0.091329 0.019582 0.039019 -0.004465 -0.099310 -0.095416 -0.080383 -0.016499 0.001858 -0.049314 0.103202 -0.011809 0.016607 -0.064036 -0.075054 0.079155 -0.064901 0.022242 0.134111 -0.066588 0.081930 -0.035799 -0.069295 0.085211 -0.086710 0.001206 0.089219 -0.047093 0.088109 -0.074813 0.043487 -0.027059 0.049112 -0.016246 0.058530 -0.068611 -0.008894 -0.094656 0.082247 -0.019908 -0.023036 -0.090185 0.066516 0.038787 0.070271 -0.025477 0.013793 -0.002871 -0.022440 -0.095768 -0.046446 0.033654 0.054308 -0.084732 -0.028628 0.051769 -0.121125 -0.022891 -0.101672 -0.090147 -0.113857 -0.096984 -0.079207 -0.062951 0.059768 -0.007711 -0.091347 -0.001105 0.002723 -0.026483 -0.001836 -0.019916 -0.088964 -0.017518 -0.107887 -0.031337 -0.025188 -0.039544 -0.021722 0.068302 -0.019272 0.035699 
at 0.001020 0.053827 0.047316 0.015836 -0.026779 -0.074803 -0.054508 0.012099 -0.069043 0.071603 0.039557 0.017737 -0.057294 -0.050201 -0.018043 0.001921 0.014914 0.159876 -0.048533 -0.017694 -0.071054 0.113581 0.005003 -0.003931 -0.053906 -0.142248 0.050623 -0.017205 0.021051 -0.064559 0.035009 -0.057369 -0.108818 -0.029193 0.032671 0.044575 0.077963 0.022398 0.051088 -0.053025 -0.055799 0.002230 0.068492 -0.201582 0.011218 0.004578 -0.096539 0.013500 -0.070941 -0.031925 -0.032220 -0.064604 0.119556 -0.089809 -0.122347 0.008878 -0.004209 -0.065394 0.044579 -0.030800 -0.070646 -0.136777 0.005081 0.125325 -0.061455 0.129916 0.094627 -0.065237 -0.088996 -0.056804 0.083342 0.068757 0.059774 -0.009843 -0.004712 0.114228 0.003602 0.065820 -0.099147 0.036555 0.077999 0.019239 0.032484 -0.012750 0.118423 0.019743 -0.008135 -0.080218 0.131413 0.033264 0.002324 -0.052130 0.095860 -0.086674 0.003286 0.066037 -0.027469 0.047786 0.061380 0.106805 0.004259 -0.036215 -0.085982 -0.107820 0.139339 0.052079 -0.049115 -0.036929 -0.052386 0.046923 0.058952 0.098515 -0.078954 0.032415 -0.091394 0.146939 0.114968 -0.087010 -0.051764 0.074561 -0.045940 -0.016080 -0.098597 -0.146677 0.040035 0.024550 -0.072152 0.022782 0.093481 -0.045496 -0.064143 0.063990 0.024073 -0.037343 -0.015877 0.041959 0.021505 0.017106 0.123045 0.012125 0.044821 -0.052270 -0.113829 0.106461 0.088175 0.048813 0.096523 -0.007560 0.010838 -0.080693 0.013438 -0.110107 -0.005142 -0.008019 -0.037558 -0.062499 0.107708 -0.068208 -0.087093 -0.079080 -0.023349 -0.008960 0.044111 -0.095137 -0.082864 0.089548 0.109982 -0.043100 0.048482 -0.018612 0.041075 0.042513 -0.036167 0.018173 -0.150469 0.013807 -0.002133 -0.038965 -0.084131 -0.034935 0.032558 0.081204 0.107648 -0.070899 -0.150052 0.115174 -0.082403 0.100114 0.090674 0.050582 0.031292 0.132348 -0.095263 0.061834 -0.032237 0.075349 0.058131 -0.001087 0.034681 -0.033685 
element -0.065841 -0.128124 -0.011752 0.090336 0.076927 0.043492 -0.026576 -0.008995 -0.035625 0.107973 -0.082807 0.055850 0.082997 -0.060036 -0.077723 -0.017586 0.012588 0.114658 -0.010346 0.051775 -0.120883 0.086193 -0.109017 -0.116311 -0.123227 -0.018994 -0.054674 0.086169 0.024812 0.058356 -0.085802 0.104458 0.075789 -0.006003 -0.109246 -0.017697 0.008502 0.060449 0.004010 0.059843 -0.081501 -0.043572 0.032765 -0.083325 0.124479 0.014301 -0.043987 -0.138565 -0.082703 0.039566 -0.043494 0.098316 -0.066743 0.044336 0.055693 0.007304 0.097122 -0.061078 -0.084482 -0.112949 -0.067390 0.079327 0.106634 0.065733 -0.025472 0.039711 -0.075390 -0.052481 -0.080073 0.042863 0.116484 -0.066367 -0.088804 -0.028966 0.033517 -0.065934 -0.082948 0.051991 0.107057 0.101279 0.094639 -0.060599 0.048738 -0.012938 0.003169 0.013625 -0.096592 -0.094180 0.102840 0.065560 -0.016825 0.036313 0.117226 0.092510 -0.032151 0.068088 -0.065667 0.040787 0.096156 -0.007028 0.117592 -0.032287 -0.102755 -0.096020 -0.092509 -0.024022 -0.029611 -0.013784 -0.002429 0.026611 -0.072248 -0.073807 0.007335 0.049128 0.051334 -0.032175 0.081189 -0.119413 0.118631 -0.055175 0.083754 -0.073373 -0.054256 -0.012307 0.062782 0.031726 -0.015455 -0.108739 0.123707 0.000310 -0.087498 0.089926 0.056258 0.090973 0.041342 -0.032293 -0.086172 -0.083839 0.004935 0.102293 0.085387 -0.053445 -0.131415 0.033669 -0.032267 0.110867 -0.044135 -0.034292 -0.104101 -0.009096 -0.023561 -0.007302 0.089177 -0.044749 0.067013 0.043383 0.050358 -0.063845 -0.122731 0.054805 0.062797 -0.094019 -0.101785 0.024940 0.029156 -0.079182 0.124912 0.072945 -0.082319 0.065163 -0.053751 0.077707 -0.058446 0.069129 -0.040113 -0.010501 -0.080035 0.115669 -0.033620 0.067242 0.001507 0.057673 0.007736 -0.077380 0.105144 -0.014631 0.072530 -0.060979 0.029395 0.053639 -0.090413 0.066976 0.021997 0.034442 -0.003113 0.059467 0.027814 -0.054979 0.062956 0.024334 
change -0.065887 -0.096710 0.011740 0.059029 0.026293 -0.119280 -0.090237 0.011898 -0.069904 0.099470 -0.069782 0.052779 -0.099526 0.002996 0.098589 -0.062827 -0.067227 0.012857 0.007768 -0.137927 0.007153 0.130949 0.123394 -0.104625 0.023573 0.003214 -0.050782 -0.040017 0.088175 -0.031781 -0.007510 0.059418 -0.028080 0.047095 -0.014614 -0.030163 -0.000282 -0.097574 0.115030 -0.063912 -0.089740 0.058132 -0.044602 -0.081739 0.017285 -0.003716 -0.068081 -0.067852 -0.003659 0.056615 0.037032 -0.095965 0.055525 0.061640 -0.089537 0.073324 0.029655 0.101364 0.133190 0.019307 0.065402 0.028774 -0.109908 0.032615 -0.003074 0.033346 0.073417 -0.064387 0.081254 -0.042880 0.059729 0.044426 -0.026718 -0.120250 -0.100915 0.109703 -0.130105 -0.008380 0.026120 -0.077489 0.103667 -0.057068 -0.091537 0.024791 0.122842 0.087070 0.124409 -0.023953 0.118785 0.033219 -0.089042 0.083600 0.081164 0.000639 -0.013415 0.140868 -0.020567 -0.014745 0.033433 -0.004408 0.027345 0.111861 -0.006889 0.045895 0.003656 -0.025541 0.052504 0.034436 0.063604 0.093495 -0.101738 0.162182 -0.100480 -0.016211 -0.008724 0.064196 -0.032260 -0.075349 -0.009778 0.102255 0.091305 0.019933 0.005054 -0.127371 -0.111576 0.042036 0.020203 -0.120697 0.055165 0.112406 -0.082682 0.033534 -0.089376 0.037309 -0.024811 -0.018468 0.040802 -0.037557 0.031225 -0.023490 0.023301 0.136449 0.027605 -0.037380 0.025375 0.033525 -0.025343 -0.001026 -0.079376 0.064031 -0.050720 -0.084131 -0.100740 -0.138173 0.086136 0.036975 0.013806 -0.116248 -0.093591 -0.043010 -0.104198 -0.010603 0.035547 -0.045013 -0.133304 0.095777 0.003586 0.066951 0.030869 -0.039025 0.149975 0.086540 -0.004546 -0.068488 -0.095363 0.041988 -0.100394 -0.022280 0.004507 0.048759 0.005452 -0.039189 0.150735 -0.069282 -0.080759 0.019208 0.036753 0.083796 0.050893 -0.065924 -0.066946 -0.040596 -0.022022 0.076844 -0.028796 0.002797 0.042092 -0.065819 0.034900 0.047002 
or 0.050605 -0.124490 -0.078301 -0.031292 -0.068519 0.053278 -0.108781 0.012025 0.019970 -0.042826 0.033996 0.051681 0.082322 -0.069560 0.087464 -0.024373 0.017137 0.084789 -0.043786 -0.129985 -0.096426 0.116315 -0.038000 -0.095319 -0.071612 -0.005440 -0.091792 0.102926 0.114714 -0.057900 0.105044 -0.032709 -0.065645 0.088378 0.050510 -0.032727 -0.017555 0.002746 0.106100 0.070530 -0.077257 0.081383 -0.073625 -0.105004 -0.019873 -0.057737 0.023694 -0.003848 -0.083820 -0.007024 0.117170 -0.016253 0.033565 -0.042967 -0.052147 0.041780 0.045505 0.055811 -0.017363 -0.036449 0.050980 0.005263 -0.102364 0.167993 -0.045777 0.146365 0.076810 0.032261 -0.059926 -0.032230 0.043818 -0.093520 0.115661 0.060736 -0.096878 0.075194 0.006789 0.135898 0.021739 0.042937 0.044285 -0.064133 -0.050366 0.020853 -0.012951 0.109483 -0.038659 -0.129362 0.090826 -0.047792 -0.002491 0.017932 0.067615 0.015944 -0.113928 0.127211 -0.018134 -0.030764 0.005359 -0.014985 -0.020670 0.036940 -0.011368 0.046057 0.078832 -0.063603 0.118160 0.007163 -0.017086 0.064335 -0.004605 0.130276 0.069830 0.043112 -0.017741 0.147848 0.097545 -0.146638 0.028349 0.142199 -0.011556 0.107783 -0.055886 -0.012301 0.036007 0.062360 0.022350 -0.083041 0.081517 -0.025212 0.035822 -0.094328 -0.069962 0.085144 -0.036395 -0.061610 0.052465 -0.116200 -0.041816 -0.066612 -0.079009 0.107881 0.031522 -0.044542 0.025790 -0.045408 -0.067518 -0.024143 -0.067841 -0.093327 0.000117 -0.110344 -0.070933 -0.089872 0.060692 -0.054912 -0.048770 -0.067819 0.016626 0.026397 -0.041732 0.089409 0.116547 -0.080605 -0.051857 0.059598 0.012596 -0.043736 -0.038964 0.040593 0.128522 0.026723 0.059770 -0.058249 0.006709 0.087474 -0.079712 -0.030555 -0.098432 -0.085487 -0.107877 -0.070614 0.012730 0.039217 -0.140607 0.040311 0.087540 -0.023707 -0.031340 -0.010834 -0.047007 0.064676 -0.136713 0.069304 0.002561 0.049842 0.018353 0.014383 0.039990 -0.108177 
you -0.059091 -0.038453 -0.077993 -0.062780 0.012520 -0.118185 -0.051865 0.109665 0.096145 -0.018194 0.105929 -0.054045 0.070170 0.061447 -0.071450 0.030622 -0.124250 -0.016569 0.016221 0.006670 0.018956 -0.075706 0.027637 0.082020 0.064331 0.123342 -0.064661 0.025212 -0.109737 -0.121648 0.025707 -0.081368 -0.059949 0.056313 -0.105332 -0.092570 -0.033453 0.080541 -0.045858 -0.051547 0.036441 -0.060734 -0.074407 0.061316 0.028120 -0.065439 0.095401 0.077330 -0.117262 -0.070879 0.059497 -0.109427 0.106366 0.099482 -0.021278 -0.039962 0.012474 -0.068274 0.076691 0.054267 -0.018404 -0.020998 -0.113438 0.004570 -0.045115 0.104002 0.008559 -0.043900 -0.063734 -0.018883 0.101378 0.116775 -0.007570 0.100723 -0.113515 0.004065 0.001762 0.011673 -0.098666 -0.048574 -0.094582 0.078809 -0.007072 0.104010 -0.041606 -0.023481 0.071036 -0.083483 -0.023691 -0.055892 0.108197 -0.089291 0.088620 0.032576 -0.111354 -0.082104 -0.014589 0.104615 0.012604 0.083230 -0.078323 0.085690 -0.112304 0.112484 -0.035890 -0.035970 -0.011394 0.025274 -0.008903 0.041709 0.099570 -0.096018 -0.056210 -0.069653 0.067588 -0.106240 0.077189 0.057554 0.053505 -0.048544 -0.044165 -0.090586 0.029859 0.096685 -0.039736 0.039073 0.031959 -0.090318 0.031629 0.058152 -0.093195 0.037748 -0.077219 -0.107887 0.066316 -0.064420 -0.048517 0.031334 -0.019117 0.124943 -0.003877 0.024668 -0.063113 -0.065002 -0.002145 -0.014118 0.032403 0.013045 -0.039399 0.091513 -0.073871 0.064856 -0.048946 0.078717 0.092750 0.110048 0.098673 -0.001506 0.065427 -0.020071 0.093540 -0.035388 -0.057765 0.070726 -0.060424 -0.097466 -0.115982 0.088211 -0.045452 0.051562 0.114388 0.051999 0.016841 -0.039449 -0.084567 0.044475 0.067611 -0.005659 -0.112626 -0.040284 0.110779 0.078395 -0.060018 0.005643 -0.038035 -0.050130 0.045797 -0.049203 0.001701 -0.089161 -0.010949 -0.122437 -0.079932 0.075070 0.118894 -0.068910 -0.027936 0.116951 0.094022 0.068228 
not -0.066709 -0.051764 -0.054786 -0.028158 0.001494 0.003647 -0.067687 -0.015684 -0.053325 0.023884 -0.049273 0.063487 0.008300 -0.062725 0.053797 0.015526 -0.012727 0.133959 -0.006101 -0.007089 -0.069906 0.105372 0.102156 0.032737 0.000255 -0.154734 -0.095829 0.106387 0.100135 0.057212 0.079561 -0.054913 -0.052136 0.082820 0.040403 -0.090737 0.125211 -0.087433 0.099413 0.036746 -0.025361 0.149838 -0.012299 -0.108109 -0.023401 -0.070176 -0.047627 -0.026011 0.024111 0.015253 0.106870 0.007729 0.080371 0.001952 -0.030024 0.034259 0.077519 -0.019791 0.016570 -0.137446 0.069651 -0.139520 -0.063214 0.146664 -0.082295 0.116395 0.082912 0.005872 -0.033966 0.031196 -0.049299 0.019090 0.130580 -0.049861 -0.033746 0.036861 -0.157178 0.081667 -0.014272 0.041882 0.133264 -0.005175 -0.056041 -0.022074 0.123545 0.113293 0.097390 -0.034884 0.123144 0.016756 -0.001578 0.005153 -0.031275 -0.006118 0.001572 0.067032 0.132094 -0.007781 -0.004944 0.065676 0.036889 0.040351 -0.019395 -0.038654 0.085462 0.054566 0.047381 0.033445 0.052062 0.123844 -0.084727 0.157846 -0.086879 -0.045722 -0.007461 0.191709 0.121135 -0.055892 0.067586 0.077333 -0.024775 0.054348 -0.066420 -0.155036 -0.044345 -0.040660 0.062131 -0.022438 0.041034 0.009202 -0.133586 0.034871 -0.009347 0.037293 -0.138413 0.051837 0.027434 0.005283 0.063893 -0.013487 0.045056 0.100910 -0.015583 -0.020671 0.025999 0.077917 -0.020177 0.060387 -0.045829 -0.031969 -0.041101 -0.060306 0.009755 -0.116852 0.054009 -0.103581 0.123676 -0.043334 -0.035992 -0.089378 0.008201 -0.017950 0.135484 -0.058396 -0.085915 0.087051 0.027619 -0.001397 0.028022 0.026464 0.077479 0.015632 0.071706 0.039336 -0.099023 0.029212 0.032609 -0.045163 -0.076864 -0.086781 -0.023860 -0.035048 0.114288 -0.064194 -0.085971 0.071166 -0.065028 0.024094 0.014793 -0.006290 -0.023506 0.107392 -0.111487 0.007514 0.061281 -0.002844 0.000091 0.006683 -0.035541 -0.077673 
specify -0.011520 -0.008162 0.060065 0.022930 0.088372 -0.073001 -0.024996 0.031527 -0.022485 -0.008890 -0.088395 0.030604 0.009110 -0.012560 -0.100940 0.099471 -0.096196 0.035387 0.036986 -0.098377 -0.107823 0.047746 -0.000940 0.108512 0.040403 0.019956 -0.009243 0.033286 0.000398 0.012706 0.057465 -0.018987 -0.059059 0.119949 0.043946 0.090344 0.111891 0.031479 0.108187 0.093203 0.098983 -0.011225 -0.013047 -0.009662 0.040103 0.021879 -0.052296 -0.122553 0.096776 0.017170 0.086197 -0.113426 0.042554 -0.107029 0.073784 -0.023981 -0.064669 0.118159 -0.102535 -0.084407 -0.092297 0.021268 0.048063 0.039861 -0.101907 -0.034992 -0.078842 -0.002863 -0.083781 0.096415 -0.103270 -0.011201 0.014824 -0.060915 -0.044740 0.041110 0.077568 0.014903 -0.109460 -0.019067 0.066048 -0.043605 0.025571 -0.052925 -0.030458 -0.066202 0.051437 -0.088317 0.091491 -0.070071 -0.068719 0.116660 0.074378 -0.006265 -0.061023 -0.064230 0.114383 0.005050 -0.068282 -0.023463 -0.030887 0.113842 0.059808 -0.036323 -0.064707 0.083072 0.062693 -0.082502 -0.098820 -0.036808 -0.036927 -0.090130 0.049598 0.091953 0.106176 0.087349 -0.087309 -0.075296 -0.080773 -0.074253 0.019945 -0.066556 0.098398 -0.087610 0.022067 -0.079990 -0.035966 -0.094721 0.106974 -0.005088 0.074256 0.029452 0.037936 0.087499 0.114051 0.013597 0.108903 -0.050244 0.060784 0.102222 -0.026616 0.102883 -0.065223 -0.079755 0.049807 -0.051550 0.078053 0.056193 0.102961 0.112491 -0.072868 0.002167 -0.039185 -0.109691 -0.071424 0.020553 -0.016320 0.033584 -0.118036 -0.048209 0.112839 -0.059178 0.116708 -0.080635 0.115221 0.014880 0.073467 -0.100872 0.056329 0.003755 -0.042064 -0.101102 0.057260 -0.036659 0.040271 -0.001998 0.060527 -0.010784 -0.046850 0.100852 0.075422 0.020472 0.069517 -0.070443 -0.080212 0.043988 -0.102097 -0.031170 -0.040039 0.112679 -0.062458 0.070490 -0.101924 0.085072 0.055813 -0.115053 -0.022326 -0.098103 -0.080075 0.094086 
what 0.010984 -0.002327 -0.017890 -0.012951 -0.085883 -0.000421 0.028352 -0.078768 0.093822 -0.003998 -0.042626 -0.001504 0.058445 -0.130724 0.103555 -0.074275 -0.111932 -0.056261 0.005830 -0.032279 -0.054061 -0.090612 -0.102853 0.017153 -0.062223 -0.072421 -0.141228 -0.066527 0.112536 -0.018833 -0.065479 -0.109264 -0.006119 0.003406 -0.084774 -0.074239 0.049114 0.011002 -0.039030 -0.081416 -0.113636 -0.041906 0.089524 -0.095622 0.057779 -0.066744 0.032874 -0.029079 -0.116393 -0.020063 -0.006614 0.070163 -0.037697 -0.127260 -0.034675 0.073434 -0.022819 0.002279 0.109336 0.024202 -0.022348 -0.019218 0.016346 0.023720 -0.033092 -0.079794 -0.030888 -0.051251 -0.067587 -0.016480 -0.034164 -0.032968 -0.031595 0.093167 -0.134617 -0.021616 0.056690 -0.043443 0.090055 -0.097747 -0.102320 -0.005252 0.099455 0.019828 -0.001654 0.073428 -0.040955 -0.095168 0.079534 -0.003792 -0.047890 -0.007520 -0.113261 -0.004528 0.031119 -0.042600 0.020139 0.032299 -0.078457 0.041292 0.088980 -0.096080 -0.099704 0.110346 0.046761 -0.039700 0.070202 0.086968 0.105130 -0.071816 0.057783 0.147918 -0.103389 -0.031809 -0.108132 0.047042 0.028753 -0.066358 0.071205 0.116337 -0.098901 -0.026928 -0.060005 -0.013224 0.030292 -0.069307 -0.056529 -0.045797 0.045001 0.113846 -0.000947 -0.047664 -0.008870 0.017946 -0.052638 0.099101 0.141444 0.010482 0.133118 0.003131 -0.087083 0.081534 -0.094536 -0.060457 -0.062561 -0.098668 0.057436 0.103249 0.045862 0.037044 0.069569 0.099236 -0.011330 -0.128855 0.075699 0.098927 -0.017732 0.069619 -0.015164 0.046521 0.071223 -0.116794 0.019192 -0.053815 -0.084949 0.079706 -0.068358 -0.102412 -0.015393 0.030868 0.096214 0.032605 -0.021252 -0.050499 -0.110423 0.072702 -0.022606 0.022018 0.093381 0.012803 -0.117887 0.089935 0.006945 -0.044812 0.084319 0.009026 0.111978 0.043780 -0.073970 -0.067297 -0.076875 -0.010415 -0.121985 0.121030 -0.102933 0.027233 -0.120619 0.105184 0.013562 0.019921 
validate 0.001549 -0.063258 -0.034599 -0.114644 -0.001539 -0.038839 -0.075894 0.010561 0.020129 0.102213 0.036209 0.073409 -0.033589 -0.024227 0.013842 -0.053600 -0.016287 0.158221 0.064966 -0.039602 -0.087774 0.080048 0.078847 -0.026877 -0.022134 -0.083950 -0.124395 0.014836 0.146177 0.069103 0.109906 0.004169 -0.056715 0.074403 -0.018075 -0.013173 0.022484 -0.034234 0.111049 0.077263 -0.089720 0.039156 -0.075185 -0.114325 0.031199 -0.007981 -0.020424 -0.145828 -0.044585 0.032312 0.092002 -0.105868 0.086029 -0.053391 -0.055862 0.115763 0.045139 0.001013 0.097107 -0.120283 0.066904 -0.094236 -0.094128 0.153211 -0.164881 0.100909 0.053092 0.006744 0.010292 0.052391 -0.034800 -0.054342 0.058623 -0.099962 -0.006727 0.013119 -0.152963 0.047288 -0.039697 0.003452 0.121936 0.012374 -0.036496 0.033206 0.144138 0.024574 0.078394 -0.075246 0.079748 -0.032715 0.051456 0.011458 0.056307 -0.055332 -0.089720 0.031465 0.101566 -0.019803 0.000064 -0.013664 -0.014681 0.033216 -0.004372 -0.102445 0.129740 0.064718 0.055860 -0.005910 0.021296 0.132605 -0.043326 0.190069 -0.053510 -0.031360 -0.075114 0.166757 0.165001 -0.059276 0.056782 0.066690 0.052296 0.062287 -0.040330 -0.048706 0.002032 -0.057971 0.041790 0.016913 0.072020 -0.004204 -0.083618 -0.002253 -0.051810 0.113556 -0.118762 0.002858 0.065181 -0.049259 0.044933 -0.078283 -0.031435 0.129051 -0.031240 0.088783 -0.006622 -0.028570 0.080522 0.072586 -0.103006 -0.069952 -0.042855 -0.070169 -0.053025 -0.050332 0.050266 -0.015981 0.120618 -0.037033 0.016513 0.024885 -0.033541 -0.030793 0.085525 -0.044166 -0.103236 0.004658 0.060494 -0.022172 0.052869 0.031011 0.046089 -0.059451 0.086939 -0.025242 -0.045682 -0.038604 -0.081976 -0.040493 -0.074101 -0.023517 -0.065734 0.020855 0.110519 -0.052387 -0.046492 0.073937 0.036750 -0.030068 -0.030449 0.031702 -0.026014 0.047867 -0.102047 0.112151 0.058026 0.059119 0.011996 0.014921 -0.005202 -0.092356 
number 0.002265 0.098208 -0.059721 0.061148 0.023471 0.072273 -0.062125 0.048527 0.103578 0.025107 -0.005792 0.026311 -0.014564 0.009322 -0.087624 -0.102113 -0.024633 -0.045645 -0.039311 -0.030820 -0.034387 -0.030187 0.144955 -0.103072 -0.088298 -0.053862 0.026085 0.003478 0.081836 -0.019936 -0.067889 -0.026677 -0.075014 -0.086907 0.110477 0.103266 0.004842 -0.006023 0.025202 0.029182 0.088580 0.030377 -0.115649 -0.003661 0.053309 -0.004129 -0.023769 -0.085716 -0.086305 0.016888 -0.038276 -0.069508 0.065252 0.067324 0.078132 -0.056604 -0.084784 0.079873 0.049692 -0.065552 0.007572 -0.117490 -0.111569 0.108784 -0.152031 0.101388 -0.059443 -0.014838 -0.053365 -0.087821 -0.093716 0.049114 0.126538 -0.063471 -0.087560 -0.052158 -0.140111 -0.046789 -0.102904 0.079009 0.139548 0.071791 0.057260 -0.020255 -0.069353 -0.042017 -0.033182 -0.023397 -0.021105 0.103661 -0.112719 0.007695 -0.023451 0.066003 0.035003 0.011737 0.115041 0.007936 -0.114025 -0.051408 -0.075770 -0.013057 -0.026949 -0.074038 -0.089118 0.100049 0.143598 -0.088321 -0.010920 0.093500 -0.001598 0.078392 0.058625 0.074222 0.102519 0.138109 0.034616 -0.052375 -0.035295 -0.063014 -0.024137 0.131713 -0.131299 -0.158413 -0.063582 -0.100654 0.084673 -0.035565 0.081108 0.121215 -0.031507 -0.060694 -0.119927 0.025043 -0.115293 -0.092193 -0.044587 -0.063614 -0.028185 -0.079934 0.107104 -0.084601 -0.036974 0.079996 0.063994 0.059458 0.047533 0.023352 0.099760 -0.016703 0.085494 -0.131662 -0.003571 0.047983 0.035800 0.068791 -0.018864 -0.034634 -0.005542 0.031166 0.041574 -0.071868 0.014305 0.023922 -0.119406 0.001916 0.018732 -0.088227 -0.035204 0.002127 -0.055078 0.060016 -0.001328 -0.060739 0.086754 -0.067753 0.038661 -0.034472 0.073761 0.024058 -0.000035 -0.035975 -0.076498 -0.033740 0.036608 0.011686 0.066344 0.124478 -0.021896 -0.005085 0.059745 -0.023474 0.026794 -0.022363 0.136254 -0.023636 -0.088725 -0.070808 -0.018959 0.008856 
dtds -0.008652 -0.037505 0.009190 -0.029877 -0.093440 -0.094451 -0.147762 0.079775 0.037235 0.101401 0.043492 -0.036472 -0.066904 0.035797 0.039259 0.087631 -0.077919 0.157095 0.034504 -0.053212 -0.013822 0.029796 0.084390 -0.061885 0.049847 -0.125320 -0.125966 0.021129 0.040699 0.065881 0.148547 -0.014612 -0.124126 0.055984 0.027040 -0.007339 0.090613 0.033339 0.083601 -0.050871 0.039969 0.008691 -0.090347 -0.076462 0.056017 -0.029608 0.089898 0.001370 0.000605 -0.073630 0.076771 -0.093860 0.061434 0.050513 -0.101356 0.049895 0.085283 0.090849 0.093616 -0.007566 0.024038 -0.135298 0.055069 0.085040 -0.097939 -0.025556 -0.049100 -0.093355 -0.003749 0.024282 0.043605 -0.030511 -0.031966 -0.067923 -0.130569 0.052440 -0.068189 0.091188 0.018654 -0.054826 0.134065 -0.067563 -0.025255 -0.033084 0.149957 0.031629 -0.055077 -0.128648 0.018103 -0.048413 0.081093 0.000902 0.068639 -0.040223 -0.019789 0.109250 0.108201 0.031443 -0.072210 0.080747 -0.017851 0.104569 0.002120 -0.096603 0.014441 -0.029516 0.047548 0.096881 -0.030559 0.124876 -0.078922 0.114272 -0.051616 -0.096441 0.072877 0.123367 0.043271 -0.030258 0.018743 0.122059 0.008389 0.063895 0.004422 -0.098573 -0.089864 -0.064438 0.050656 -0.023034 0.028572 0.077453 0.014173 0.036760 -0.113417 -0.028124 -0.006747 -0.028317 0.062294 0.053364 0.047203 -0.036050 -0.050178 0.085006 -0.113880 0.023787 0.097840 0.062574 0.092912 -0.020395 -0.004054 0.022733 -0.000343 -0.138806 0.029530 0.014946 -0.084065 -0.017364 0.052848 -0.099375 -0.036157 -0.023535 0.071210 0.086287 -0.013706 -0.100138 -0.139246 -0.051904 0.071483 -0.032091 0.067448 -0.003935 0.018734 0.004275 -0.042146 0.009197 -0.034618 0.025186 -0.005984 -0.057337 -0.058937 -0.054822 -0.085208 0.052021 0.040624 -0.009355 -0.125528 0.107530 0.081221 -0.027383 -0.075856 0.060901 0.008908 0.095403 -0.026506 0.106315 0.124856 0.066066 0.054519 0.089600 -0.068534 -0.120917 
we'll -0.061313 0.076457 -0.028065 0.057421 -0.095734 0.099058 0.032652 -0.100414 -0.067246 0.027283 0.008970 0.059652 0.027935 -0.017775 -0.010892 -0.042266 0.008134 0.049849 -0.000048 -0.110646 0.001196 -0.075213 0.034679 -0.016320 -0.036705 -0.004811 -0.078890 0.090344 -0.100743 0.010505 -0.056366 -0.101792 0.061969 -0.100230 -0.086679 -0.057566 -0.067793 -0.061921 -0.018583 0.107988 0.112347 0.068254 -0.089243 -0.089139 -0.085938 -0.124082 -0.062175 -0.039627 -0.104721 -0.076167 0.000867 -0.054922 -0.086864 -0.039254 0.120686 -0.011012 -0.103870 -0.096155 -0.058966 -0.115516 -0.101759 0.095060 0.055424 -0.014202 -0.076026 -0.102595 -0.007207 -0.078077 -0.050534 -0.008614 0.005602 0.103844 0.087908 0.027382 -0.051808 -0.066510 0.053919 -0.024310 0.006374 0.089700 0.048240 0.019266 -0.121345 0.091965 0.090180 -0.004898 0.129052 0.014603 0.147557 -0.033173 0.045901 0.056938 -0.052535 -0.064105 0.079028 0.124078 0.120934 0.092490 -0.049184 -0.026233 0.004410 -0.013611 -0.050843 -0.047382 0.060120 -0.016396 -0.079498 0.000447 -0.002754 0.025219 -0.012063 0.045857 -0.060155 0.068046 -0.076787 0.072996 0.013779 -0.070936 0.007937 -0.065402 0.101363 0.026275 0.047175 0.006015 -0.011260 -0.057364 0.007939 0.071776 0.032477 -0.004362 0.055140 0.081437 0.048123 -0.064110 0.009342 -0.100129 0.045752 0.102365 0.006658 -0.129385 -0.060366 0.011687 0.102808 0.030841 0.121605 0.071712 0.116585 0.088317 -0.074741 0.109693 0.023877 -0.126367 0.088475 -0.001947 -0.047157 0.072927 0.083583 -0.081992 0.059354 -0.130056 -0.046068 0.088164 0.088720 0.027397 -0.139235 0.073120 0.013657 -0.108343 0.022047 -0.045993 -0.019639 0.102190 -0.104713 -0.037707 0.105104 0.123835 0.052276 0.028694 -0.084473 -0.056727 -0.107762 -0.003795 -0.025624 -0.064366 0.078222 -0.024721 0.001410 -0.030479 -0.091037 0.106374 0.013612 0.016539 -0.106980 -0.089033 -0.025376 0.063000 -0.039283 -0.079532 0.110402 -0.027095 
attribute 0.024138 -0.010947 0.074127 -0.100412 0.100206 0.085230 -0.010421 0.035016 0.008347 -0.047391 -0.100021 -0.085487 0.110352 0.055163 -0.000357 0.058919 0.109634 0.134650 -0.040837 -0.086505 0.009427 -0.004189 0.121541 -0.039105 0.119305 -0.102946 -0.036354 -0.060598 0.093884 -0.019083 0.143687 -0.090016 0.056730 0.024277 0.084955 0.020025 0.105908 -0.050645 0.073323 0.045400 -0.026263 0.079099 -0.010795 -0.126375 0.096576 0.094798 -0.050698 -0.013143 -0.089884 -0.035498 0.018798 -0.048102 -0.105476 0.041283 0.084731 0.020657 0.090854 -0.112530 -0.064304 0.091302 -0.050336 -0.053135 0.002710 -0.073873 0.075788 -0.015606 -0.020262 -0.011525 0.097515 0.024606 -0.028474 0.095109 -0.010601 0.106471 -0.031745 0.014246 0.079910 0.096553 0.017212 0.047770 -0.023849 0.013300 -0.037768 0.095116 0.039830 0.100375 -0.024823 0.091535 0.122576 0.028150 -0.027041 0.125483 0.088270 -0.062073 0.031881 -0.014625 -0.061242 0.127265 0.002955 0.031892 0.121294 0.038649 0.047193 -0.003318 -0.003821 -0.098169 0.131139 -0.055776 -0.119749 0.040734 0.006297 -0.061335 0.018882 0.021029 0.072280 0.069022 -0.059723 0.044444 -0.015976 0.069298 0.113416 -0.070772 -0.082705 -0.055990 -0.023246 0.081101 -0.026243 0.101433 0.016078 -0.004316 -0.078563 -0.120303 -0.107922 0.013615 -0.018340 -0.000042 0.013695 0.097717 -0.087592 -0.071192 -0.075361 -0.077730 -0.123406 0.090213 0.111411 -0.014793 0.081316 0.062711 0.060748 0.003057 -0.116730 0.049957 -0.111154 -0.025947 0.007496 -0.125552 -0.073956 -0.040425 0.020096 0.075704 0.084238 0.043103 0.028774 0.053672 -0.073654 -0.079991 0.114774 0.036053 0.023283 0.035547 0.077296 0.024149 -0.029856 0.010135 -0.118027 0.106130 -0.046757 -0.102386 -0.051995 -0.090474 0.008446 -0.083093 -0.037913 -0.083297 -0.087979 0.037681 0.004766 -0.107159 0.091331 0.037106 -0.021349 -0.089590 -0.059322 0.075537 -0.016960 0.081691 0.002723 0.033500 0.091469 -0.078766 
author 0.065762 -0.086174 0.109880 -0.068711 0.030178 0.033301 0.024438 -0.052644 0.075398 0.028659 -0.005566 0.103340 -0.042554 -0.009177 0.106840 0.091925 -0.017555 0.025214 -0.102178 -0.055504 0.041651 0.066821 0.090881 0.019700 0.074973 0.003899 0.043827 -0.056769 0.108429 0.105060 -0.000431 -0.097859 -0.113981 0.027090 0.059136 -0.074619 0.131803 0.029043 0.097970 0.120998 -0.044889 0.103572 -0.091333 0.068216 -0.077046 0.046788 -0.055813 0.072048 0.056880 -0.063173 -0.087609 0.096835 0.018994 0.017078 0.057030 -0.000679 -0.026000 -0.042705 0.060399 0.085357 -0.055260 0.100103 -0.008972 -0.030224 -0.045381 0.052667 -0.097574 -0.003404 -0.023812 0.004935 0.008373 0.107839 0.117693 0.097577 -0.040860 -0.050447 -0.121822 0.069364 -0.100802 -0.064644 -0.081116 0.065421 0.039418 0.091543 0.012490 -0.029218 -0.045230 0.012854 -0.094228 0.059831 -0.071773 0.105817 0.046618 0.099710 -0.090857 0.075014 0.084139 0.036859 0.109006 -0.091636 0.090333 -0.082166 0.084938 -0.061794 0.035024 0.089707 -0.064689 0.106671 -0.106809 0.034602 0.007555 0.110170 -0.010610 -0.090481 0.090968 -0.062626 0.013124 0.062169 -0.032057 -0.090886 0.053599 -0.086725 -0.064898 -0.081900 -0.083281 0.024499 -0.030517 0.003056 -0.046585 -0.016088 -0.029104 0.106658 -0.047179 0.026806 0.032406 0.107250 -0.027508 0.010218 0.017564 0.082294 -0.099120 -0.063431 -0.009564 0.084620 0.123529 -0.034475 0.041515 0.042211 -0.006104 -0.081067 0.108551 0.063568 -0.021034 -0.076354 0.099937 0.079380 0.074041 -0.080838 -0.098240 0.029811 0.058565 0.110555 0.011751 -0.084558 0.092493 0.079892 -0.077744 0.078332 -0.100955 -0.091081 0.006620 -0.073273 -0.067933 0.039428 -0.112311 -0.104973 0.002902 -0.050809 0.101583 0.004711 0.028942 -0.034775 -0.056744 0.101150 -0.074882 -0.058625 -0.087655 0.084897 -0.025825 0.016757 -0.019426 -0.093031 -0.054130 -0.020397 -0.087070 0.050501 0.006916 0.091604 -0.096433 -0.112009 
data 0.082767 -0.024899 0.099230 0.053473 -0.039977 0.082371 -0.079260 0.044081 -0.083864 -0.089686 0.082706 0.063778 0.055202 -0.058294 0.091529 -0.035914 -0.101066 0.130702 0.103165 -0.117100 -0.097397 0.064670 -0.021877 0.066809 0.111984 0.004282 -0.076948 0.019170 -0.028014 0.052846 0.062986 0.038118 0.072707 0.045663 0.124282 0.037666 0.020208 0.102228 0.109871 0.013823 0.059098 0.062548 -0.054650 -0.096096 -0.110450 -0.098949 -0.062178 -0.126064 -0.098833 -0.001809 -0.061843 0.028589 0.087571 0.035020 0.060474 0.103635 0.033689 0.027074 0.127788 0.033726 -0.105694 -0.043064 0.047665 0.030058 0.034077 0.036383 0.019429 0.103074 0.082915 0.093311 -0.097166 0.046755 0.011736 -0.086847 -0.066274 -0.106847 -0.058246 0.043246 -0.095157 -0.091559 -0.091495 0.082145 -0.103629 0.007878 0.048736 0.000635 0.088083 -0.078043 0.005059 -0.021926 -0.067499 -0.079245 0.090130 0.088610 -0.031033 0.066237 0.074732 -0.022383 0.059768 -0.007067 -0.061179 0.016220 0.106361 -0.071275 -0.028072 -0.030038 0.096364 -0.083667 0.048694 -0.084895 0.010929 -0.001422 -0.095528 -0.098618 0.012662 0.078121 0.024304 -0.119454 -0.017515 0.107077 -0.048933 -0.100903 -0.107305 0.085483 0.057997 -0.074583 0.031450 -0.074201 0.103473 0.133640 -0.013890 -0.050305 0.022795 -0.089875 -0.060076 -0.094318 -0.053146 -0.018628 0.122155 -0.001406 -0.090513 -0.037487 0.009988 -0.092505 -0.062547 -0.089790 0.020720 -0.062131 -0.011315 -0.007675 0.016964 0.066530 -0.083374 -0.008906 -0.012738 -0.124483 0.058147 -0.050487 -0.019184 -0.112209 -0.107422 -0.026607 0.078734 -0.020609 -0.108639 -0.016136 -0.051213 -0.070132 -0.098553 -0.057833 0.051507 -0.051890 0.035276 -0.037303 -0.099292 -0.104046 -0.030532 0.084816 -0.078511 -0.103554 -0.003680 0.050974 -0.020861 -0.082704 -0.114246 0.068300 -0.011230 -0.016356 0.064009 -0.052972 0.063089 -0.070805 -0.056608 0.043470 0.046253 0.102797 0.027158 0.013231 0.050325 0.033968 
