59 200 #File: 04_01_Introduction_to_JSON_Data_Part_1.txt.bin
</s> 0.099131 0.109451 -0.094860 -0.081184 0.033845 0.074820 0.023301 0.005234 -0.089245 0.054943 -0.107890 0.030946 -0.018608 -0.023706 -0.082118 -0.046614 0.063880 0.074926 0.073532 0.039562 0.038259 -0.094176 -0.101436 0.123078 0.094142 0.076529 -0.014957 0.099452 -0.012259 0.018196 -0.003696 -0.073883 0.032499 -0.033123 -0.094740 0.117742 0.108457 -0.027122 -0.005600 0.012611 -0.090091 -0.099240 0.112803 0.001561 -0.063956 -0.075342 -0.076192 0.042026 0.004988 0.032964 -0.104353 -0.094305 -0.003220 0.028324 0.063147 -0.078509 0.101035 0.022957 0.027730 -0.015067 0.073963 -0.056659 -0.051946 0.053454 -0.018653 0.025527 0.044690 -0.101258 -0.049112 0.072160 0.104807 0.097381 -0.075459 -0.052199 -0.022515 0.049569 -0.093825 0.074246 0.069042 -0.039600 -0.038425 -0.055434 0.104731 0.096882 -0.029219 0.104387 0.119379 0.044959 0.123407 -0.077050 -0.037934 -0.052192 -0.071998 0.069711 0.039113 0.010525 -0.054327 0.037741 0.075769 0.004796 0.056458 -0.122655 0.106863 0.011885 -0.045348 -0.051595 -0.018525 -0.072689 -0.108215 -0.070263 0.105925 -0.043833 -0.066359 0.057392 -0.042196 0.117803 -0.039740 -0.113646 0.067259 -0.001840 -0.086403 0.024167 0.035712 -0.011923 0.045182 -0.098016 0.021820 0.044989 -0.074522 0.003518 -0.001504 -0.059417 -0.070153 -0.116246 0.000567 0.003783 0.000242 -0.097426 -0.122886 -0.117553 -0.107127 -0.013548 0.034457 0.029329 -0.078815 0.123781 -0.049815 -0.031543 -0.034782 0.117206 -0.093213 0.028754 -0.033074 0.078947 0.001005 0.105740 -0.069821 -0.064519 -0.103824 -0.090813 -0.079238 -0.077141 0.060532 -0.046236 0.066374 0.091388 0.033580 0.073075 0.061311 0.057966 -0.087937 -0.085024 -0.090560 -0.003269 0.102298 -0.067776 -0.075792 -0.103926 0.081876 -0.103495 -0.014345 0.053960 -0.114375 -0.110917 0.035734 0.087291 0.105608 0.053137 0.078316 -0.077458 -0.090159 0.098439 -0.068475 0.043424 0.014217 0.044339 -0.029280 0.004924 -0.041758 -0.027900 
the -0.109775 -0.079550 0.089166 0.019092 -0.057829 -0.052840 0.054854 -0.074539 -0.050561 0.108168 0.110181 -0.092445 0.029981 -0.060624 0.003275 0.077176 0.113945 0.055756 0.092998 0.078909 -0.008533 0.107345 0.060727 0.114068 -0.038155 0.109701 0.098297 -0.028542 -0.100672 0.112996 0.015018 -0.048138 -0.027123 -0.010723 -0.099200 -0.048036 -0.011381 -0.109097 -0.082906 -0.029512 -0.016383 0.043369 0.020104 -0.026336 0.068732 0.040252 0.014127 0.083443 -0.031225 -0.045936 -0.007907 -0.070483 -0.070520 0.004750 0.103271 -0.033079 0.000209 -0.112109 0.088676 -0.040966 0.066106 -0.049817 -0.024532 0.003386 0.089957 -0.000671 0.102651 -0.016663 0.049928 -0.005107 -0.087275 0.105479 0.020633 -0.076301 0.058612 -0.097948 -0.099285 0.065699 -0.085327 -0.068104 0.075817 0.081258 0.015807 0.120161 0.120993 0.090068 0.041730 -0.108745 0.054343 -0.116461 -0.034286 0.025641 0.035621 -0.038451 0.070117 -0.110394 -0.026085 -0.027719 -0.035605 0.070647 -0.101411 0.068141 0.031004 0.074358 0.088448 0.008719 0.018183 -0.107951 -0.028382 0.084970 -0.037804 0.115994 -0.027830 -0.097453 -0.069701 0.115163 0.087736 -0.099707 0.117180 -0.105701 -0.109693 0.058392 -0.022081 -0.064430 -0.015582 -0.067451 0.067079 0.082648 0.105063 -0.101020 -0.058259 -0.002310 -0.023391 0.076265 0.061452 0.096981 -0.076539 0.032971 0.112529 -0.039852 0.068502 0.030351 -0.102214 0.104696 0.125453 -0.066537 -0.002657 -0.042494 0.051218 -0.092843 0.073892 -0.030591 -0.031995 -0.060928 -0.103395 -0.080321 -0.019272 0.108899 -0.049005 -0.114753 0.011501 0.029658 0.072381 -0.007600 0.079916 0.072324 -0.032067 -0.013142 0.021364 0.018713 0.083070 0.099572 -0.058285 -0.066590 -0.039893 -0.077636 0.041694 -0.092096 -0.055858 -0.114934 0.057358 0.099523 -0.043948 -0.108563 0.061965 0.034303 -0.063481 -0.022837 -0.021267 -0.009028 -0.050131 -0.012494 -0.078090 0.095587 0.087152 0.070178 -0.044248 0.008869 0.021914 -0.062560 
and -0.112112 -0.025174 -0.046990 0.071095 0.064257 0.042951 -0.073847 0.084430 -0.038330 0.080598 0.031678 0.113817 0.060331 0.017039 -0.054275 0.118310 -0.052959 0.079347 0.118721 0.116522 -0.017115 0.077675 0.107684 -0.051617 0.112025 -0.118267 0.005678 -0.010132 0.099941 -0.102722 -0.034673 -0.038211 0.009917 0.113141 -0.039428 -0.117242 -0.035204 0.101232 0.024916 0.069190 -0.091260 -0.030496 0.013182 -0.055907 0.083713 -0.114530 0.077991 -0.056998 0.076516 0.076207 -0.044954 0.084531 0.009990 0.113621 -0.083910 -0.029631 0.066540 0.105667 0.054188 -0.023509 0.011647 -0.018384 0.045477 0.061949 -0.091406 -0.031456 0.102144 0.007114 0.118467 0.114842 0.019449 -0.109840 0.108942 0.051981 -0.109546 0.087062 -0.116256 -0.052526 0.106027 0.080387 -0.017362 0.028395 -0.074618 -0.111251 0.051985 0.104896 0.096750 0.066806 0.035946 0.046688 -0.001534 0.037563 -0.061756 0.021285 0.021397 -0.001683 0.060404 0.017518 -0.098756 -0.032321 0.048786 0.083782 -0.090250 0.023822 0.085793 0.089788 -0.098262 0.066239 -0.063094 -0.035193 0.029831 0.053980 -0.096350 -0.064086 0.029729 0.005660 0.108870 0.051501 -0.065064 -0.000549 0.020241 -0.056961 0.076755 -0.065155 0.117972 0.016282 -0.106914 0.009135 -0.011139 0.021823 0.072597 0.002694 -0.006005 0.008052 -0.065937 -0.006307 0.077533 0.082925 0.047033 -0.118376 0.004959 -0.062531 0.087647 0.102024 0.077795 0.037004 0.029846 -0.041221 -0.057597 -0.046564 -0.092867 0.006547 0.019427 0.032961 0.050814 -0.093423 0.074349 -0.033390 -0.101214 0.094405 -0.067791 -0.018544 -0.098524 0.112160 -0.045906 -0.112349 0.092387 0.038014 0.084164 0.031391 0.088098 0.009703 0.087901 0.103704 0.041231 -0.013723 0.028588 0.093423 -0.074269 -0.013651 0.029068 0.048942 0.013342 0.088094 0.033503 0.078213 -0.079358 -0.047241 0.045616 0.110509 0.038498 0.015883 -0.109553 -0.103580 0.102610 0.057834 -0.070917 -0.039177 -0.091762 -0.081456 
json 0.106627 -0.065391 0.025153 -0.026242 -0.052976 -0.013090 -0.110390 -0.055510 -0.005780 0.106110 -0.044768 0.089158 -0.108578 0.100667 0.015456 0.005901 0.063025 0.079497 -0.076192 0.074047 0.032055 -0.028758 0.074637 0.011916 0.102724 0.004999 -0.039075 0.078653 -0.081760 -0.010772 0.097201 0.112763 -0.097003 0.032844 0.096629 0.012841 0.060751 0.064489 0.113192 -0.022061 -0.025380 0.072895 -0.119764 0.026836 0.008905 0.106887 -0.087709 -0.001962 0.107272 0.035015 0.062886 0.030504 0.033112 0.026286 0.005274 0.082922 0.090636 0.069433 -0.046469 -0.066293 -0.076948 -0.027086 -0.058543 -0.097909 -0.045244 0.086011 0.062945 -0.113328 -0.050863 0.096999 -0.008751 0.086502 -0.029958 -0.005388 -0.059556 0.039629 -0.098954 0.068039 -0.055668 0.065288 -0.073823 -0.054535 0.096805 0.062075 0.049191 0.036262 0.071116 -0.011322 0.093570 0.088798 0.081342 0.104239 -0.057113 -0.088468 -0.079082 0.006899 0.021537 0.094109 -0.075899 0.075983 0.092910 0.084441 0.004511 0.029815 -0.019512 0.111626 -0.104507 -0.112829 0.048575 -0.015877 0.111578 -0.032712 0.000469 0.051212 0.025564 -0.071604 0.080293 0.001170 0.031799 -0.030453 0.111527 0.063095 0.103993 0.109520 -0.022255 0.045446 0.035584 -0.053544 0.103340 0.057139 -0.079537 0.100043 0.011340 0.026814 -0.087386 0.048241 0.005956 -0.056794 -0.014253 0.050192 -0.029239 0.095503 -0.066700 -0.055598 0.089785 0.111890 0.089528 0.110195 -0.113947 -0.078991 -0.112678 0.025531 -0.095858 -0.007676 0.021485 -0.050449 0.027625 -0.106073 0.045090 -0.038874 -0.040198 -0.024900 0.052030 -0.041148 -0.055206 -0.075881 -0.044078 -0.098583 0.046447 -0.029917 -0.029158 0.047962 -0.092029 -0.078551 -0.109774 -0.003371 -0.046242 -0.112865 0.048333 -0.113621 -0.052800 0.036145 0.118415 -0.083737 -0.047856 0.116848 0.074182 0.105061 0.092528 -0.062295 -0.050563 0.050911 0.071652 0.088358 0.078437 -0.107225 -0.106729 0.016721 -0.105930 0.070071 
of 0.091535 -0.056476 0.104247 -0.133281 0.095884 -0.076662 -0.024240 -0.107276 0.075200 0.094912 -0.083057 -0.018358 0.034889 0.091503 0.009621 -0.106954 0.012891 -0.024171 0.013308 0.100188 -0.073835 -0.060813 -0.006419 -0.023405 -0.042654 -0.092520 -0.011640 -0.090969 0.104781 0.063209 -0.041124 0.077387 -0.086919 -0.093272 0.096392 0.009396 0.074593 -0.071435 -0.030920 0.086933 -0.021383 0.031881 -0.106703 -0.109997 0.112584 -0.098889 0.021913 -0.084568 0.088333 -0.030305 0.105836 -0.089919 0.025561 -0.115622 -0.075918 -0.019940 0.104974 -0.084233 0.058856 -0.022831 0.072087 0.075059 -0.067994 -0.085981 0.022491 0.017845 0.007770 0.014436 0.048291 0.082268 0.092832 -0.112146 0.113281 -0.105753 -0.000831 -0.096363 -0.013855 0.100381 -0.074381 0.029970 -0.065696 -0.018688 0.086059 0.077884 -0.093390 0.033028 -0.008105 0.039256 0.018333 -0.075032 -0.000119 -0.115210 0.090719 0.028582 0.034227 0.062916 0.137815 0.112492 0.069309 0.061524 0.068278 -0.021886 0.108910 -0.001877 0.038791 -0.012643 0.034263 -0.007549 0.101809 0.068513 -0.005491 0.022995 0.051950 -0.084376 -0.057208 0.038987 0.038506 -0.106149 -0.040106 -0.043974 -0.056413 0.091252 0.081169 -0.118561 0.065520 -0.076763 0.048534 0.043964 0.009331 -0.082016 -0.008848 -0.038706 0.056786 0.040606 0.029133 -0.073735 -0.027170 0.004812 -0.036322 -0.107195 -0.004518 -0.063146 -0.057778 0.026043 -0.039674 0.070978 -0.029040 0.077875 -0.084090 -0.041467 0.056093 -0.073465 -0.105257 -0.047772 0.075346 -0.046229 0.112961 0.047208 -0.049763 0.105988 -0.107275 -0.065342 0.073095 -0.085732 0.082928 0.104249 0.066765 -0.033321 -0.069258 -0.023618 0.007071 -0.117420 -0.089737 0.013417 0.019674 0.086044 0.088120 -0.089831 0.102023 -0.028242 0.081206 -0.029911 0.065797 0.006040 0.081291 0.054818 -0.055547 0.107882 -0.089951 0.096882 -0.063440 -0.004963 0.008448 0.109401 0.038109 -0.035649 -0.128096 0.087823 0.012757 0.064358 
is -0.097325 -0.063862 -0.059923 -0.058029 0.074979 0.061074 -0.006598 0.052903 -0.012327 -0.033117 -0.098023 -0.068474 0.006046 -0.056463 -0.059291 -0.102058 0.073611 0.100248 -0.037269 0.091488 -0.046882 -0.116570 -0.118574 -0.011294 -0.050398 0.004836 -0.088550 0.090458 -0.053679 0.031388 0.086696 -0.006204 -0.113212 0.072298 0.019278 0.079073 0.015784 0.056014 0.104614 0.063847 -0.084703 -0.028763 0.075325 -0.033051 -0.049383 0.107942 -0.034695 0.108479 0.065256 0.093305 0.109718 -0.095276 0.021963 0.096791 -0.060085 0.037309 -0.115242 0.107103 -0.088432 0.043032 0.018932 -0.067819 0.058570 0.000975 -0.114036 -0.077749 -0.006965 0.050475 -0.028347 0.005763 0.110380 -0.090907 0.099002 -0.069599 -0.097788 0.077690 -0.089749 -0.013861 -0.115543 -0.087700 0.071964 0.041171 -0.089756 0.034294 0.105871 0.023945 -0.107041 -0.079786 0.075994 -0.076837 0.047257 0.070923 0.106607 0.028799 -0.075001 0.083471 -0.099796 -0.031970 0.102363 0.097196 -0.057415 -0.089679 0.010702 0.070673 0.056753 0.085391 0.105687 0.022731 -0.115051 0.060162 -0.060820 0.032455 0.093735 -0.056154 0.087358 -0.001835 -0.036173 -0.094092 -0.018425 0.119453 0.041278 -0.064950 0.077502 -0.066885 -0.031672 0.080227 -0.073001 0.000268 -0.070493 -0.031381 0.106246 -0.021783 -0.071419 0.010706 0.046595 0.066554 0.029568 -0.045827 -0.037298 0.043091 0.115727 0.088995 -0.111542 -0.013089 -0.110446 0.042348 -0.081989 0.037354 0.077863 -0.016303 -0.035254 -0.088024 0.021624 -0.098255 0.002302 0.111642 0.086130 0.086465 0.064572 -0.007616 -0.026126 -0.075983 0.004685 -0.065443 -0.070360 0.065899 -0.022956 -0.103264 0.017447 0.018782 -0.044713 -0.102249 -0.120464 0.072637 -0.026692 0.016685 -0.058548 0.095659 -0.115764 -0.089157 -0.034055 0.016296 0.083489 0.020834 0.017035 0.064266 0.062674 -0.116547 -0.022022 0.047511 0.096699 0.059816 0.033305 0.075240 0.038696 -0.033786 -0.054238 0.075902 0.043065 0.043252 
in 0.014659 0.034903 0.089599 0.063424 -0.101436 -0.001352 -0.053418 -0.115873 0.007782 0.103890 -0.008191 0.104470 0.120674 -0.005044 0.100110 -0.032979 0.027664 -0.052364 0.013595 -0.027362 -0.119607 -0.035208 0.025801 -0.042008 0.109483 -0.066026 -0.039333 0.076870 -0.017541 0.041581 0.000763 0.030637 0.030067 0.019810 0.104540 0.064981 -0.065977 -0.092343 0.068914 0.060478 0.095026 0.073292 -0.016675 -0.128863 0.030017 -0.051988 0.005713 -0.022010 0.050139 0.003662 0.112268 -0.116169 0.049938 0.073779 0.084887 -0.059347 -0.040695 -0.008602 0.034264 0.009118 0.022464 -0.035480 0.100142 0.083897 0.077267 -0.060514 0.022790 -0.084238 -0.016430 -0.009115 0.080633 0.075379 -0.057555 -0.024881 0.106902 -0.015084 -0.034603 0.078518 0.044833 0.071668 0.087320 0.038425 0.094494 -0.101947 -0.007849 -0.106432 0.042949 -0.014656 0.064190 0.017234 -0.014880 0.021013 0.096857 0.077034 0.090467 -0.029664 0.130143 0.068484 0.079477 0.070443 0.061071 0.042869 -0.017800 -0.072133 0.057220 0.100239 -0.099634 -0.081162 -0.088814 -0.051343 -0.013301 0.021436 -0.091924 0.018837 -0.037257 -0.034285 -0.055790 -0.084476 -0.108513 0.119619 -0.061853 -0.009814 0.080118 -0.129977 -0.085522 -0.104775 -0.017874 -0.072405 -0.052723 -0.091113 0.015315 0.060522 -0.115896 0.025872 0.027088 0.082926 -0.059390 -0.080008 0.069822 -0.074636 0.115660 -0.015716 0.063880 0.012561 -0.010560 -0.037697 -0.009836 0.112157 -0.102842 -0.105193 -0.123277 0.070115 0.075819 -0.102488 0.076254 0.040656 0.015687 -0.068488 0.008514 -0.027524 0.021128 -0.049344 0.106997 -0.126910 -0.018089 -0.005493 -0.043473 0.092064 0.088612 -0.064915 0.123374 0.012864 0.094245 -0.019387 0.028715 0.073568 0.074021 0.088508 -0.103599 0.101197 -0.114288 0.068318 0.014614 0.119430 -0.024809 0.032245 -0.046882 0.049382 0.125773 -0.095878 -0.100840 0.083849 0.103851 -0.064785 0.081125 0.019754 0.087402 -0.103037 0.026741 -0.074653 
data -0.000353 -0.076212 0.075727 -0.078398 0.084323 -0.067844 -0.113726 0.004836 -0.074709 -0.065630 -0.050045 -0.086779 -0.110580 -0.050523 0.021881 -0.006387 -0.095686 0.119093 -0.028977 -0.111752 -0.002247 0.086499 -0.036222 0.044890 -0.018114 0.110548 -0.048816 0.003573 -0.017907 0.002634 -0.014614 0.073482 -0.075565 0.107632 -0.090212 -0.086497 0.098718 0.100908 -0.110908 -0.012874 0.044615 -0.018692 -0.118159 0.040532 -0.106193 0.043034 -0.069820 -0.065389 0.084166 -0.111394 -0.110300 0.036318 -0.105676 -0.025748 -0.090542 0.073247 0.107370 0.000947 -0.035447 0.048223 0.117529 0.065207 0.087114 0.061091 -0.116579 -0.013405 -0.109335 -0.005174 0.118126 -0.039316 0.024028 0.054070 -0.069500 -0.027630 -0.051311 0.013163 -0.072265 0.067563 -0.027356 -0.046664 0.033745 -0.115118 -0.058708 0.034115 0.048637 0.056917 -0.012080 -0.073639 0.000246 0.111855 0.102975 -0.074666 0.043565 0.074918 0.081398 0.117816 0.091681 0.074744 0.018715 -0.106976 -0.073862 0.027148 0.051795 -0.048604 0.075262 -0.070345 -0.072482 0.061968 -0.034378 0.075218 -0.076410 0.070511 0.008302 0.063204 -0.121924 0.087255 -0.021863 0.097743 -0.032354 0.105673 -0.086678 -0.084755 -0.103766 -0.112417 -0.042411 0.038969 -0.021337 0.008562 0.067848 0.115406 0.020288 0.116013 -0.032103 0.035568 -0.021090 -0.085244 -0.005270 0.070993 0.041459 -0.063118 0.022290 0.011053 -0.000679 -0.006034 0.006231 -0.035821 -0.035880 -0.020885 -0.091089 0.094655 0.076500 0.111017 0.082164 -0.091619 0.078298 -0.073684 -0.085924 -0.032941 0.005754 -0.022000 0.056518 0.115745 -0.072424 -0.077437 0.037224 0.019569 0.031916 -0.027173 -0.070942 -0.072402 0.039479 -0.112778 0.096391 -0.091494 -0.028854 -0.018986 -0.001988 0.048872 -0.065255 -0.045432 0.113654 0.043833 0.087493 -0.034813 0.018305 -0.124206 -0.100574 0.038378 0.112253 0.080321 -0.092263 0.017003 0.049808 0.055640 -0.029858 0.056457 -0.125121 -0.055584 -0.013010 0.097127 
that -0.120900 -0.010612 -0.061105 -0.087089 -0.063051 -0.010538 0.070292 0.086430 0.008952 0.091439 0.051022 0.004497 0.087479 -0.056290 -0.013313 -0.106629 -0.019009 0.044429 0.102894 -0.008984 0.076716 -0.078100 -0.024845 -0.091588 0.077918 -0.053027 -0.098166 0.028960 -0.012149 0.062876 0.065353 0.052967 0.076817 0.013740 -0.048235 0.004518 0.046520 0.064506 0.079037 -0.005442 0.040164 0.100725 0.049801 -0.124349 0.063729 0.058364 0.018157 -0.120032 -0.046638 -0.103411 -0.029042 0.000206 0.069919 -0.054427 -0.074619 0.104417 0.112461 0.034069 -0.021272 0.054484 0.089359 -0.091744 0.054098 0.086329 0.072712 -0.027230 -0.115771 -0.040026 -0.076370 0.059232 -0.022863 -0.011719 0.077165 0.048992 -0.066958 0.073008 0.072126 0.088768 -0.058758 -0.054672 -0.061400 -0.025995 -0.037537 0.111207 0.082707 -0.071561 0.001686 -0.111805 -0.069514 0.107697 -0.058704 -0.071934 -0.001426 -0.063115 -0.065829 -0.044186 0.070006 -0.101813 -0.045262 -0.034062 0.072062 0.030361 0.008803 0.058714 -0.102676 -0.033014 -0.020847 0.112593 0.082116 0.126166 0.016077 0.115830 -0.050665 -0.018990 0.077615 0.031195 0.104337 0.100859 -0.010387 -0.007765 -0.005296 0.113189 0.035503 -0.124450 -0.119576 -0.085038 -0.041910 -0.106742 0.081080 0.017643 -0.102677 0.051645 -0.037935 -0.065569 -0.059911 -0.056033 -0.026372 0.060810 -0.079454 -0.023666 0.108169 0.078381 -0.018122 0.080046 -0.017298 -0.034693 0.110229 0.030648 -0.111562 0.002210 0.091607 -0.074459 0.071457 0.055772 0.041947 -0.098385 0.050437 0.106473 0.109092 -0.087997 0.102760 0.096780 -0.008218 -0.027940 -0.117381 0.059135 -0.001180 -0.062081 0.060939 -0.118892 -0.016634 -0.076859 -0.078367 -0.004077 0.073816 -0.122882 0.006095 -0.109518 0.025896 0.116798 -0.052679 0.086992 0.111235 -0.047353 -0.076524 -0.010703 -0.065810 -0.001412 -0.015751 -0.006253 -0.106012 -0.004050 -0.111136 0.113143 -0.026908 -0.033539 0.050125 -0.115639 -0.041778 -0.012606 
a -0.076669 -0.097664 -0.057403 -0.068886 -0.026708 0.093432 0.059962 0.036416 0.049213 0.010030 0.083573 0.043079 0.015088 -0.111789 0.019018 0.042703 0.042991 0.121136 -0.040395 -0.056575 -0.074581 0.098593 0.084569 -0.062693 -0.043911 0.083158 0.088475 0.056399 0.026276 -0.097067 0.039326 0.110399 0.032737 0.122513 0.016184 0.015126 0.062032 -0.045579 -0.044743 -0.009247 0.114650 0.100501 0.026230 0.013050 0.086016 -0.091332 0.052000 -0.039368 -0.066326 -0.077006 -0.114383 -0.055100 -0.107522 -0.102191 -0.089705 -0.049257 0.023416 0.010411 0.108147 -0.050235 -0.020677 0.121105 0.035831 0.076019 -0.053106 0.040922 0.008195 -0.041580 -0.095400 -0.033561 -0.030530 0.033197 -0.055767 -0.114485 0.092961 0.081117 -0.053883 0.073654 -0.026335 -0.045235 0.065908 -0.037256 -0.053930 0.046569 0.117732 -0.099825 0.113033 0.017318 0.110668 -0.070729 0.014731 -0.066735 -0.017618 0.050745 -0.089917 0.115805 0.100506 -0.075042 -0.086730 -0.049196 0.039498 -0.045292 -0.110132 -0.087719 0.032451 0.119945 0.084714 -0.001020 0.048752 0.012807 0.056973 0.065940 -0.009517 -0.070214 -0.112086 -0.047092 0.111622 0.096142 -0.011027 -0.069110 -0.028342 0.007969 0.055060 -0.024110 -0.051507 -0.077667 -0.059148 -0.026812 0.024372 0.008926 -0.087754 0.028210 -0.110521 -0.126210 -0.064600 0.083097 -0.092213 0.056566 -0.032021 -0.038196 -0.069412 0.100239 0.032288 -0.045803 -0.055875 0.110555 -0.014959 -0.060368 0.106329 0.016123 -0.022910 -0.088612 0.080245 0.024717 0.009712 -0.118998 -0.020315 0.020060 0.097453 -0.076318 -0.039521 0.050176 0.072383 -0.069956 0.022695 0.025368 -0.118211 -0.114595 0.026108 -0.055103 -0.020368 0.017212 0.074194 -0.082985 -0.114165 -0.093778 0.116845 -0.006303 -0.038314 0.020996 -0.100377 -0.121855 0.121705 -0.007875 -0.035468 0.036377 0.072163 0.089468 0.006986 0.044006 -0.116475 -0.060523 -0.105054 0.022168 -0.128186 -0.084814 -0.068215 0.095671 -0.033962 -0.017322 
for -0.071428 0.056416 0.108482 -0.099671 -0.010030 -0.066160 0.115174 -0.007523 0.070345 0.080459 0.075243 -0.079141 -0.066464 -0.054768 -0.097529 -0.115851 -0.116821 -0.003269 0.050438 -0.098909 0.042977 0.043779 0.073061 0.050405 0.116792 -0.044826 0.064055 -0.009031 0.108372 -0.100396 -0.062796 -0.078541 0.081444 0.105733 -0.093824 0.100527 -0.080199 -0.097438 0.004708 -0.112835 0.047033 0.118531 0.086606 -0.100110 -0.012930 -0.037314 0.065652 0.097467 0.043548 -0.096398 -0.084394 0.018820 0.100260 -0.009990 -0.089886 -0.017421 0.100978 0.090709 -0.097017 -0.112469 0.049449 -0.105433 0.047904 -0.067647 0.009401 0.110067 0.078728 -0.104122 0.104536 0.066212 0.029191 0.096735 0.038716 0.111619 -0.006992 -0.046107 0.055599 -0.064842 -0.116038 -0.094062 -0.020998 0.005400 -0.084277 -0.028389 -0.067372 -0.108742 -0.117883 -0.010276 0.100158 -0.058649 0.116770 0.098975 0.005520 0.084457 0.053644 0.018219 -0.047648 0.069418 -0.093590 0.006110 0.064356 -0.055032 -0.051287 -0.098543 0.045393 0.059725 0.034360 0.082868 -0.100787 0.102555 0.077132 0.029289 -0.070550 0.062214 0.050789 -0.000626 0.019900 -0.012567 -0.010931 0.071842 0.114332 -0.013080 -0.014313 -0.094429 -0.023414 -0.010547 -0.045576 -0.060852 -0.089703 -0.016213 0.108951 -0.048596 0.039170 0.018651 0.003185 0.021060 0.067065 -0.037153 -0.029249 0.046905 -0.002270 -0.014939 -0.074569 -0.012296 -0.105107 0.074046 0.080895 0.102109 -0.117744 0.038624 -0.008940 -0.010979 -0.096409 -0.012494 -0.010448 0.027049 -0.037354 0.089377 -0.009847 -0.064952 -0.116763 0.093081 -0.033379 -0.028330 0.028978 0.047352 -0.047304 -0.024274 0.103730 0.060896 0.042091 0.085914 0.111242 0.062492 -0.091321 0.021089 0.115240 0.040894 0.006040 0.039906 -0.000483 0.044833 -0.111909 -0.018827 -0.052246 -0.056891 -0.111542 -0.016411 -0.036300 -0.095593 -0.079079 0.005919 0.111081 -0.082516 -0.040759 0.066907 0.033781 0.031069 0.037156 0.005363 
are -0.084042 0.113319 0.008423 -0.039790 -0.000160 0.094405 0.026725 -0.109839 0.110046 -0.037030 0.065761 0.052377 -0.107527 0.006024 -0.079477 0.048023 0.006872 0.093109 -0.077249 0.015015 -0.020137 -0.085152 -0.013286 -0.087649 0.113366 -0.062831 0.086320 -0.002777 0.053276 -0.030027 0.016562 0.109351 -0.017764 -0.117199 0.109180 -0.090459 -0.096025 0.081941 0.039888 0.072455 -0.118142 0.079102 0.021149 -0.098933 0.038890 -0.077260 0.086510 -0.049239 0.080606 -0.040496 0.090601 -0.117658 0.010731 0.118575 -0.052308 -0.106636 -0.107367 -0.088341 0.108802 0.002464 0.087871 0.102879 -0.108190 0.049363 0.063424 0.084664 0.105569 -0.066580 0.061575 0.024749 -0.051318 0.090743 -0.092865 -0.088050 0.110723 0.062860 -0.038337 0.033281 -0.090426 -0.071953 -0.069307 0.019726 -0.084471 0.062773 0.056508 0.039018 0.042858 -0.051074 -0.074636 0.079976 0.026915 0.082255 -0.101179 -0.047499 -0.098755 0.063923 -0.079033 0.003243 -0.002410 0.031847 -0.004470 -0.077173 -0.008336 -0.054976 -0.052679 -0.061375 0.095930 0.060647 -0.100655 0.099093 0.105380 -0.020119 0.034246 0.035218 0.113199 0.079197 0.117195 -0.085268 0.033656 0.079037 -0.026995 -0.034992 0.079215 -0.001962 -0.036765 -0.004051 0.044867 -0.085523 0.031974 0.115648 0.023799 -0.033732 -0.055606 0.014731 -0.069722 0.112409 0.002417 -0.079430 -0.023231 -0.105573 0.090492 -0.118379 -0.041737 0.106264 -0.085847 0.005981 -0.032054 -0.068386 -0.045763 -0.015729 -0.079914 0.045140 0.035556 0.043866 0.027148 -0.011630 0.042560 -0.005333 0.084122 0.078134 -0.080664 -0.055231 -0.054361 -0.024763 -0.091832 0.061907 0.003079 0.115787 0.072423 0.096342 -0.008205 0.041311 0.057993 0.096531 -0.054666 0.068641 0.047525 -0.067985 -0.043120 0.097135 0.044744 0.009082 -0.059297 0.085793 0.113017 0.077996 0.109267 0.053250 -0.101762 -0.051343 0.019008 0.077785 0.060163 -0.032284 0.001667 0.058754 -0.113148 0.064353 -0.028487 -0.044842 
we -0.084512 -0.011625 -0.101504 0.025170 0.042044 0.029298 0.069293 0.109849 -0.044483 0.053979 0.083247 0.102652 -0.091982 -0.011276 0.099383 -0.039086 -0.034514 0.070130 0.090550 -0.047737 0.007682 0.100387 0.091656 -0.090084 -0.023575 -0.056260 -0.048567 -0.022617 0.123829 0.022965 0.077142 0.112000 0.019363 0.078191 -0.054839 0.084925 0.039256 -0.088395 0.086868 -0.022389 -0.122905 -0.116076 0.102762 -0.066434 0.033226 -0.078547 -0.096368 -0.089872 0.077119 0.012556 -0.041203 -0.073312 -0.111466 -0.040578 0.054930 0.064699 -0.094239 0.122765 0.040764 -0.028798 -0.115557 -0.067577 0.075323 0.100001 -0.109481 0.121462 -0.116777 -0.025980 0.051983 -0.004398 -0.004159 -0.077054 0.062422 -0.084441 0.013674 0.090289 -0.074286 0.055873 0.095747 -0.063085 -0.043968 -0.091561 -0.033325 -0.021314 0.033135 0.020147 -0.090399 0.048820 0.098845 0.007011 0.021492 0.042593 -0.091194 0.043571 -0.035097 -0.082660 0.025423 0.118189 -0.039082 -0.059313 0.080225 0.033056 0.044446 -0.054146 0.015030 -0.099349 0.064218 0.076350 0.081952 -0.104485 -0.068975 0.041275 0.098694 0.006011 0.114186 0.108258 -0.054983 0.034328 -0.096095 0.110515 0.059210 0.092948 -0.106383 -0.056676 -0.051317 0.108175 -0.005886 0.060487 -0.072392 0.068373 -0.069990 -0.015071 0.123981 0.023965 -0.015553 0.046336 -0.016848 0.087433 0.006159 -0.108250 0.005470 -0.063153 -0.094065 -0.025026 0.008636 0.057040 -0.095141 0.067168 0.120648 0.001966 0.037840 0.001549 0.035090 -0.115894 -0.094626 -0.078373 0.004076 -0.122000 -0.085278 0.032972 0.093543 -0.027988 0.038734 0.106743 -0.064983 -0.031669 0.064081 -0.023844 -0.033211 -0.020564 0.087732 0.032957 -0.055498 -0.068365 0.020477 -0.013753 -0.065907 0.061525 0.083399 0.103652 0.063559 -0.076941 0.063172 -0.029844 0.026484 -0.123045 0.056763 -0.022496 0.074982 0.097751 -0.025037 0.083031 0.026757 0.077342 0.038855 0.057896 0.009803 0.114387 0.035113 -0.016450 
have -0.035632 0.068593 0.060260 0.003792 -0.101163 -0.122115 0.023947 0.077440 0.117483 0.017565 -0.091128 -0.026323 0.023431 0.042379 -0.017247 0.014717 0.030257 0.072026 0.097206 0.105995 -0.083771 0.021505 -0.069187 -0.038715 -0.023965 -0.112448 -0.069994 0.086851 0.098026 -0.033553 -0.099639 0.068205 -0.019529 0.118912 -0.074867 0.047950 0.113695 0.031730 -0.070312 -0.007379 0.076179 -0.064384 0.113495 -0.085476 -0.003402 0.121009 0.034899 -0.105481 0.053708 -0.027987 0.034463 0.067351 0.014154 -0.096923 0.015022 -0.073748 -0.059764 -0.098200 -0.040052 -0.054103 -0.038990 0.018617 -0.094433 -0.013704 0.014382 0.115935 -0.068800 -0.068326 0.097287 -0.112586 -0.040112 -0.012742 0.048728 0.042028 -0.037281 -0.067446 -0.011122 -0.096657 -0.017911 0.086256 0.089254 0.071031 0.104524 0.111467 -0.107970 -0.020468 -0.000580 -0.045403 -0.077022 0.113775 -0.113513 -0.114891 0.080173 0.024567 0.038507 -0.020874 0.055844 0.069930 0.074402 -0.111449 0.108061 -0.052031 -0.105411 0.062115 0.032508 0.103672 -0.040612 0.033351 -0.004556 -0.102844 0.066227 0.126439 -0.095572 -0.116856 0.069602 -0.016188 0.018915 0.013742 0.119030 0.064593 -0.083892 0.035707 -0.056645 -0.108782 -0.035063 -0.019610 0.072506 0.037261 0.116438 -0.011524 0.101981 -0.081557 0.114143 -0.047876 -0.043816 -0.039402 0.041299 -0.115083 0.087965 -0.041095 0.009205 0.069282 0.051663 -0.014894 -0.026628 -0.108284 -0.064422 -0.067660 -0.082024 0.003757 -0.109100 0.004959 -0.072029 -0.098331 -0.094275 -0.018368 0.114765 -0.094926 0.005132 -0.057888 -0.050054 0.091240 0.034764 0.025551 -0.095955 -0.077305 -0.077584 -0.052392 0.057473 0.095168 0.117006 -0.033453 0.043973 -0.036687 -0.072154 -0.082376 0.052112 0.092948 -0.068708 -0.040487 0.078228 -0.055754 0.041874 0.026678 -0.050267 -0.020889 -0.007581 -0.094960 0.038204 0.010530 0.058586 -0.082454 0.033865 -0.087563 0.095741 -0.038875 -0.048436 0.075749 0.017408 0.002002 
model 0.092951 0.030214 0.029320 0.047726 0.096289 0.052243 -0.068334 -0.062092 -0.093812 0.012798 0.060205 0.057130 0.012535 0.082771 0.084548 0.120577 -0.006201 0.007725 -0.021888 -0.095811 -0.024699 0.080072 0.018120 -0.026194 -0.099924 -0.076148 0.056467 -0.016151 0.014968 -0.046999 0.005808 -0.107456 -0.101555 -0.086918 0.082605 -0.038076 -0.081129 0.096508 0.077991 0.028693 0.019285 -0.115726 0.086906 -0.009683 -0.039563 -0.066639 0.022007 0.048067 0.049932 -0.010670 0.099753 -0.022114 -0.072999 0.101552 0.111279 0.102568 0.020768 -0.105935 -0.091520 0.076534 0.091987 0.023850 -0.109900 0.101055 -0.037827 -0.006575 0.029557 -0.047926 -0.000312 0.095203 0.117984 -0.047614 -0.095473 -0.046776 0.007276 -0.000545 -0.076471 -0.018576 0.096178 0.051508 0.121255 -0.074635 0.115062 -0.115511 -0.106109 0.077461 0.098106 0.064236 -0.086395 0.061751 -0.102794 0.002125 -0.058847 0.049127 -0.088894 -0.100573 0.041091 0.028196 0.113222 0.018176 0.095696 0.048326 0.051645 -0.047970 0.048004 -0.023397 0.064358 0.084544 -0.098188 -0.016084 0.064017 -0.112143 -0.035276 0.058873 0.024039 0.110089 0.119015 0.007799 -0.021398 0.101856 0.064677 -0.059178 0.022644 0.003668 0.048553 0.028834 0.068824 0.016796 -0.107845 0.017397 0.090556 -0.082816 -0.036151 -0.044121 -0.121025 0.027625 -0.036374 -0.045589 0.015109 0.002540 -0.104715 -0.059163 -0.074475 0.043201 0.066428 -0.096234 0.069728 -0.074449 0.116286 -0.107433 -0.004191 -0.027618 -0.012105 0.017367 0.041751 0.081162 -0.071902 -0.037030 0.120209 -0.032928 0.001454 -0.038973 -0.038443 -0.107856 0.090237 0.060906 0.086061 -0.063873 -0.105561 -0.113352 0.102571 -0.003512 -0.096052 0.095232 -0.076255 0.031452 -0.059723 -0.053867 0.009086 0.060008 -0.114298 -0.025192 -0.093315 -0.081140 -0.073697 0.048341 -0.045474 -0.008437 0.065879 0.094580 0.065263 -0.006701 -0.117102 0.102130 -0.030729 -0.056945 -0.011230 0.120361 -0.056229 -0.079419 
as 0.084480 0.015921 0.087268 0.069282 -0.075358 -0.044176 0.058828 0.100827 0.073595 -0.059029 0.086658 0.029641 -0.088424 0.011612 -0.045266 -0.060511 -0.124067 0.035871 0.004332 -0.023301 -0.025257 -0.063308 -0.097484 0.096479 0.023108 -0.048214 0.115623 0.073025 -0.098333 -0.111942 -0.064481 -0.018272 0.044740 0.104413 -0.044350 -0.032166 -0.033798 0.026171 0.090548 -0.008388 -0.024485 -0.108645 0.057486 0.072087 -0.045024 0.004621 -0.107020 0.040093 0.094135 -0.026690 -0.052866 0.039088 -0.101866 -0.022317 -0.124508 0.032166 -0.068711 0.004051 -0.094755 0.029586 0.077237 0.106436 0.071106 0.121001 0.023999 -0.106164 -0.030305 -0.053840 0.021922 0.041288 0.008996 -0.035241 -0.108082 0.043201 -0.086641 -0.056309 0.015256 -0.056225 -0.027458 -0.031664 0.077530 0.113749 0.028064 -0.065438 0.087393 -0.028673 -0.008561 0.042620 0.107593 0.010930 0.084085 0.067895 0.021789 0.026077 0.096903 0.091395 0.013345 -0.114198 0.123864 0.002452 0.096670 0.016624 0.070580 0.016633 0.073114 -0.100974 -0.084751 -0.102963 0.091540 0.095145 -0.057832 -0.018639 0.077360 -0.041852 -0.000177 -0.096247 0.040648 -0.080112 -0.001953 -0.116398 0.047289 -0.031834 -0.095527 -0.071149 -0.024638 -0.101957 0.014126 -0.116623 0.021403 0.084236 -0.085433 -0.113168 -0.070369 -0.061760 0.021164 -0.109024 0.024359 -0.042309 0.057076 -0.075456 -0.069874 -0.055731 0.057322 0.062505 0.093639 0.005536 0.113940 -0.048175 0.009267 0.072484 -0.107841 0.048928 0.002526 -0.126797 0.118466 -0.125124 -0.049169 -0.023358 0.071611 0.008643 0.041811 -0.018351 0.099178 0.098913 0.030584 0.067700 0.114256 0.100298 -0.012031 -0.030105 0.091685 0.032757 0.037456 -0.003322 0.058010 -0.026024 0.122720 0.006924 0.119016 0.079397 -0.002944 -0.075488 -0.067448 0.045837 -0.025211 -0.009543 -0.030691 -0.105065 -0.058482 0.005150 0.016697 -0.040272 0.079857 0.083392 -0.077237 -0.112485 -0.099774 -0.103265 0.097723 -0.114306 
to -0.037999 -0.068805 0.022103 -0.039929 -0.095874 -0.015900 -0.055438 -0.021342 -0.079735 -0.047558 0.026324 0.037643 0.009144 -0.028771 0.112833 0.132072 -0.037398 0.073811 -0.048005 0.001462 -0.059804 -0.006615 0.110066 -0.002880 -0.115763 -0.118268 -0.117078 0.017131 0.040949 -0.071542 -0.040396 -0.001671 -0.053527 0.117062 0.065098 -0.040665 0.047160 -0.027850 -0.014938 0.038857 -0.015046 0.122203 0.049934 0.053203 0.012940 -0.000649 -0.075947 0.021644 -0.039056 0.063309 0.097914 -0.087726 -0.035601 -0.076324 0.087206 0.104784 -0.047521 -0.126748 -0.005952 -0.051821 -0.073285 -0.071699 -0.019456 -0.060813 -0.020545 -0.024096 0.023388 0.076004 -0.050574 -0.128879 -0.089318 -0.058381 0.052706 -0.030444 -0.043346 -0.076920 0.050987 -0.061646 -0.122931 -0.007513 -0.025970 0.059140 0.121387 -0.055911 0.012497 0.058285 -0.049948 0.034428 0.041660 0.110267 -0.016084 -0.030316 0.120322 0.109125 -0.113877 -0.043042 0.011526 0.057371 0.129719 -0.010556 0.139862 -0.005480 -0.026741 -0.080985 -0.099093 0.044238 0.039429 0.118747 0.091204 0.140577 -0.009365 0.085950 0.023071 -0.029563 0.020689 0.011171 0.067275 -0.104471 -0.034047 0.047268 -0.108019 0.022889 -0.137904 0.072401 0.022669 -0.011453 -0.054836 0.047253 0.052554 0.088076 0.095805 -0.014531 0.052211 0.043584 -0.061010 -0.047395 0.003031 0.048735 0.014381 -0.115215 -0.097066 -0.009734 -0.017517 -0.044945 0.094780 0.114639 0.095795 -0.085744 0.117907 -0.051101 0.106673 -0.114460 0.002446 -0.133754 -0.097014 0.004049 -0.015005 0.099695 0.134947 -0.026271 0.106575 0.084724 -0.019756 0.053023 0.004203 0.089418 0.022260 0.105493 -0.119666 0.008646 0.104200 -0.014384 -0.013515 0.057968 0.108430 -0.113437 -0.100116 -0.065421 0.032339 -0.084251 -0.039808 -0.056377 -0.088397 0.073425 -0.125252 -0.045064 0.066459 0.015208 -0.053433 -0.113145 -0.068023 -0.034118 -0.096064 0.005484 -0.012500 -0.040740 -0.043637 0.061914 0.013916 0.060855 
this 0.018319 -0.049994 0.090408 -0.094674 0.071883 0.063378 -0.113817 -0.027663 -0.026304 -0.030670 0.115670 -0.005647 0.060198 -0.100111 0.084738 0.071425 0.035711 0.003090 -0.120727 0.107229 -0.084415 -0.084862 -0.075675 0.057270 0.013802 -0.116816 -0.093712 -0.034626 -0.028484 -0.015677 -0.113297 0.094940 -0.081685 0.075831 -0.041227 -0.105060 -0.050831 0.080527 0.045208 0.068494 0.064479 -0.029206 0.091421 -0.132494 -0.076336 0.062564 -0.085306 -0.102174 -0.047428 -0.051238 0.071880 0.015445 -0.079930 0.092674 0.013429 -0.018856 0.105231 -0.040721 -0.048192 0.003123 -0.053833 0.120754 -0.085757 -0.031085 0.097271 -0.088349 -0.021478 -0.011915 0.060231 0.000331 0.093548 0.023930 -0.076469 -0.092839 -0.048867 0.092752 0.048167 -0.099576 0.104280 0.040334 -0.124232 -0.095695 -0.073009 0.035235 -0.063333 0.001952 0.009516 -0.037669 -0.010028 0.022987 -0.113055 -0.101207 -0.012766 -0.043008 0.055809 -0.076665 0.048423 -0.058340 -0.090493 -0.105949 -0.008399 -0.101710 0.037413 0.049920 0.049001 0.054443 -0.028582 -0.082041 -0.058359 -0.008981 -0.019788 0.067532 0.072287 0.018921 -0.104775 0.086352 -0.042413 -0.119520 -0.084992 0.023767 0.119797 0.012946 -0.042081 0.084273 -0.022620 -0.024248 0.114308 -0.075299 -0.002625 -0.065739 -0.060062 -0.114665 0.103720 -0.041251 0.119467 -0.104909 -0.051940 -0.101349 0.122230 0.032569 0.093188 -0.010976 -0.013356 0.098563 0.052751 0.107538 0.026417 -0.014480 -0.023223 -0.055532 -0.070490 -0.082428 0.017143 -0.060123 -0.057534 -0.096269 0.040511 -0.018468 0.060108 0.024426 -0.037704 0.123984 -0.102002 -0.075293 0.030298 0.023058 0.088949 0.078464 0.098399 -0.070432 -0.078752 -0.001786 0.029682 -0.045621 0.093239 -0.037916 0.025752 -0.093730 0.030803 -0.015953 0.038710 -0.049617 0.114229 -0.088374 -0.067321 0.098660 0.031404 0.023610 0.100552 -0.073074 -0.121677 -0.050037 -0.074174 0.008160 -0.047173 0.062128 -0.032262 0.009305 -0.032696 0.091700 
relational 0.027956 -0.042027 0.083238 0.029115 -0.025220 -0.117507 -0.114566 -0.036978 -0.002579 -0.099840 -0.061287 0.028403 0.105464 -0.066436 -0.077121 -0.049010 0.116373 -0.024482 0.039719 -0.014627 -0.074768 0.069289 0.096839 -0.028039 -0.059159 0.084706 -0.057492 0.053106 -0.060264 -0.036341 -0.031261 -0.055216 -0.028391 -0.079628 -0.086628 -0.100548 -0.064039 0.004770 0.044670 0.003383 0.004194 0.087327 -0.018345 -0.082787 -0.048580 0.099431 0.110704 0.071313 0.068302 0.030339 -0.059815 0.008933 0.010229 -0.073105 -0.034976 0.055002 -0.045956 -0.104641 0.048504 0.094712 -0.091053 0.106703 0.108510 0.099917 -0.065207 0.070337 0.113008 0.083668 -0.088768 0.073105 0.095321 -0.114771 0.025245 -0.010586 -0.085161 -0.120358 0.048469 -0.020200 -0.038444 0.027723 0.033779 0.041523 -0.032504 0.112966 0.111778 -0.023997 -0.033678 -0.027347 -0.015211 -0.101068 0.052761 -0.018770 -0.101563 -0.030737 -0.092863 0.098403 -0.093596 -0.057309 -0.024737 0.103517 -0.093351 0.105937 0.048545 0.078120 0.059399 0.085409 -0.012121 -0.078441 -0.074181 0.062508 -0.056033 0.067175 0.017498 0.009439 -0.107499 0.050921 -0.009237 -0.017725 0.101594 -0.033055 0.026364 0.090925 -0.048565 -0.064605 -0.103825 0.019115 0.076152 -0.071452 -0.104574 0.009233 -0.034682 -0.040129 -0.094687 0.085825 -0.105102 0.102784 0.113262 -0.097385 -0.044097 0.031480 0.047671 0.090111 0.063325 -0.065605 0.014369 -0.067404 -0.045953 0.062921 -0.115860 -0.053381 -0.103543 0.029979 0.084944 -0.004003 -0.011200 -0.031845 -0.088377 0.032614 -0.092091 0.072417 -0.102865 0.026116 0.090341 -0.107995 -0.075335 0.028347 0.111070 -0.025895 -0.057310 -0.090709 0.057618 -0.016921 -0.045604 0.078340 0.075834 0.109496 0.022200 0.046764 -0.089858 -0.083704 0.028903 0.097424 0.061815 -0.063322 -0.078084 0.103408 -0.081546 0.070836 -0.056113 -0.004133 0.099435 0.051077 -0.087194 -0.000106 0.111790 -0.105993 -0.041841 -0.076376 -0.011182 -0.085126 
it 0.018293 0.110767 0.057154 0.001703 0.111089 0.012316 -0.019821 -0.100753 0.049055 0.120692 0.005758 0.079722 -0.041168 -0.035101 -0.114516 -0.085354 0.010312 -0.065873 -0.021162 0.019104 -0.014265 -0.084807 -0.039019 0.114421 -0.054310 -0.076789 0.027066 -0.021650 0.012583 0.011430 -0.006859 -0.072693 -0.128709 0.038186 -0.063727 0.097677 0.047714 -0.075672 0.028667 -0.012355 0.094094 -0.091066 -0.016105 0.067023 -0.112372 0.045410 0.083204 -0.040405 0.112656 -0.065072 -0.058375 0.027100 0.049243 0.032060 -0.049555 0.005020 -0.004832 0.043652 0.087059 -0.115337 0.074063 0.055905 -0.103471 0.017996 -0.002306 -0.096604 -0.033054 0.040922 -0.006907 0.009983 -0.034942 -0.081691 -0.100224 -0.117489 0.094086 -0.095911 0.087136 0.053330 -0.072638 0.086490 -0.012925 -0.085640 0.035069 -0.108175 -0.112385 0.101009 0.076830 -0.036716 0.056768 -0.107336 0.029763 -0.127713 -0.077211 0.052140 -0.062242 -0.061758 0.126813 -0.026044 -0.106744 0.047019 -0.032589 0.064195 0.039126 -0.076895 -0.030688 0.066837 0.118565 0.058839 0.049094 0.045353 -0.078764 0.067441 -0.113610 0.076812 0.018287 0.053473 -0.016939 -0.119563 0.099372 0.005831 -0.107814 -0.072485 0.111956 -0.061867 0.002076 -0.000097 0.122763 -0.065902 0.027393 -0.001263 -0.059333 -0.111121 -0.063836 0.056101 0.011705 -0.010733 0.056319 -0.047752 0.034967 0.037871 0.031869 -0.033779 0.046250 0.094698 0.048874 -0.037362 -0.091091 0.050117 0.079479 0.106941 0.009288 -0.125350 -0.015371 -0.096131 0.094856 0.081892 0.124147 -0.081578 -0.045934 0.010778 -0.058787 -0.014442 -0.102865 0.046343 -0.073954 0.025516 0.112515 -0.088325 -0.080681 0.035773 0.078834 0.098562 0.029070 0.090631 0.064075 -0.052688 -0.032714 0.032854 -0.076060 -0.111697 -0.033805 0.041457 0.069847 0.076324 0.088961 0.099580 -0.037001 0.058634 0.007989 0.012308 -0.099999 -0.085819 0.099992 -0.088924 -0.017385 0.040247 -0.068466 -0.067455 0.112274 -0.101616 
systems 0.034946 0.085977 0.012784 -0.012052 0.041084 -0.066450 -0.028535 -0.091821 -0.099508 0.066811 0.079231 0.040617 0.099287 -0.068187 0.008236 0.102633 -0.021992 -0.000401 -0.026724 0.113069 -0.097815 0.077984 0.008265 -0.090113 0.056466 0.035074 -0.033761 0.114865 -0.037728 0.040447 0.001700 -0.036973 -0.075161 0.082797 0.088269 -0.044436 0.068522 -0.030062 0.018687 -0.069564 0.095622 0.052326 -0.112837 0.027074 0.009907 0.017189 0.089373 -0.037150 0.116613 0.094397 0.116591 -0.002219 0.057747 0.091762 0.002731 -0.030173 0.017959 0.118567 0.083176 0.018419 0.001016 0.103214 0.030081 0.102103 0.070981 0.034397 0.058240 -0.001454 0.111034 -0.038894 -0.039605 0.028060 0.064651 -0.007378 0.071930 0.088899 -0.064401 0.057346 0.064997 -0.101565 0.029116 -0.097201 -0.086783 -0.042140 -0.012792 0.060319 -0.108318 0.105135 -0.005476 -0.084335 0.094599 -0.002661 0.054833 -0.120414 -0.047053 0.075371 -0.008979 -0.059223 -0.077303 0.116896 -0.072556 -0.092947 0.037765 -0.040123 0.048753 -0.112304 -0.089992 -0.015084 0.117540 0.052282 -0.064894 -0.090614 -0.043307 -0.092844 0.086680 -0.006694 -0.068257 -0.016343 -0.083706 0.074635 -0.013837 -0.091283 0.000508 0.051627 -0.117452 0.093087 0.011474 -0.117169 -0.073866 0.043112 -0.077185 0.069439 0.000103 0.048956 0.009620 -0.032940 0.047929 -0.021274 -0.116252 -0.043700 0.073380 0.001998 -0.059123 -0.004295 -0.100656 0.107468 -0.086547 0.104119 -0.108649 0.102949 0.076567 0.119502 -0.007125 0.097723 0.042078 -0.059893 -0.033488 0.020192 -0.035512 0.006834 0.117496 0.100226 0.058594 0.097348 0.087835 -0.095537 0.117136 0.049611 0.062178 0.024535 -0.006852 0.003051 0.044293 -0.093506 0.082308 -0.083783 0.098242 0.021385 0.117062 0.049125 0.107207 -0.064154 -0.109849 -0.001439 0.014661 0.000335 -0.021867 -0.096045 0.065549 -0.097922 0.053162 -0.034971 0.082757 0.112120 0.088858 -0.040550 -0.050534 -0.044076 0.119138 -0.033647 
one 0.086679 0.020551 0.004114 -0.113556 0.021716 -0.004068 0.115776 -0.076702 0.073758 -0.107840 -0.022531 0.073613 0.096524 -0.036553 0.081543 -0.044981 0.048969 0.103558 0.048411 -0.053988 -0.058975 -0.016607 0.040275 -0.003358 0.062988 0.073471 0.011653 -0.094205 0.073023 -0.033578 0.012098 -0.043604 -0.107306 -0.016860 -0.105692 0.073667 0.035513 0.064783 0.053522 -0.014288 0.061123 -0.039450 -0.032394 -0.077564 0.098144 -0.038711 -0.072586 -0.019002 0.103086 -0.091977 0.013585 0.055969 0.065381 0.007602 -0.083118 0.107559 0.054128 -0.008367 0.069911 -0.087797 -0.039450 -0.071689 0.049191 0.026063 -0.041319 -0.103832 -0.074409 0.109598 0.041844 0.069220 0.109666 -0.103775 0.060461 -0.022654 0.083330 0.084393 -0.113928 -0.114718 -0.101633 0.078451 -0.070224 -0.072982 0.117808 0.015289 -0.024000 -0.004058 -0.074189 0.048742 0.062455 0.120808 0.024321 -0.002690 0.112009 0.077973 -0.028796 -0.064456 0.033482 -0.003235 0.105671 -0.025263 0.091428 0.035320 0.076081 0.107514 0.072479 -0.046074 0.110464 0.103027 -0.084501 0.024978 0.018759 0.041781 0.009676 -0.118963 0.111748 0.027531 -0.101786 -0.055250 0.078413 0.062267 0.091704 -0.048104 0.110642 -0.092101 0.016353 -0.054242 0.038313 -0.097028 0.117863 0.059575 -0.076038 -0.077596 -0.115858 -0.045835 -0.070144 -0.077111 0.108757 0.109899 0.036260 -0.059552 -0.036051 0.105922 0.034822 0.042621 0.114523 0.037463 0.009355 -0.110369 0.057679 0.076270 0.112380 -0.077236 -0.106886 -0.034538 0.103931 -0.083239 -0.029135 0.018988 -0.002411 -0.044741 -0.012520 0.082277 -0.110438 -0.069497 -0.058398 0.075919 -0.078197 0.053299 -0.079332 -0.007435 0.092516 0.089782 0.028837 -0.083263 -0.062461 -0.120406 -0.015000 -0.084927 0.033356 0.064627 0.014406 -0.068371 0.058655 0.092192 -0.055744 -0.046522 -0.021704 -0.012467 -0.076484 0.032985 0.080607 0.075257 0.091274 0.045654 -0.029271 0.017940 0.016058 -0.097639 0.045844 0.016631 
xml -0.018323 0.079626 0.037623 0.084586 0.105102 -0.093379 -0.025921 0.060911 0.108769 -0.018565 -0.045520 0.075805 -0.022951 -0.022751 -0.106766 0.092906 0.019722 -0.099289 0.000229 -0.100590 -0.115403 0.016703 0.074640 0.044149 -0.004630 -0.032512 -0.036467 -0.041486 0.116091 -0.074624 0.065368 0.063888 0.058923 0.118268 0.113430 -0.089928 -0.031190 0.107896 -0.089903 0.055056 0.010977 0.007561 0.011102 -0.086476 -0.044458 -0.012784 0.098282 -0.069659 0.106385 0.022197 -0.091796 -0.118154 0.107505 -0.058325 -0.048215 0.086055 -0.096124 0.084811 0.087663 -0.044151 -0.021621 -0.091532 -0.014294 -0.057846 -0.084043 0.105946 0.092112 0.050808 0.072264 0.013062 -0.023516 -0.108403 -0.075247 -0.017159 -0.042792 0.073738 -0.051772 -0.063343 -0.043190 0.082391 -0.032971 0.115057 -0.042916 -0.055446 0.109356 0.068837 -0.029581 -0.044813 0.068693 -0.069648 0.104226 0.031154 0.104495 0.082020 0.031423 -0.105370 0.025367 0.047669 -0.026917 0.023645 -0.030856 0.118066 -0.058983 0.040733 0.094224 -0.081028 0.046005 0.072535 -0.043592 0.095428 -0.038755 0.083228 0.079933 -0.088831 -0.104975 0.070566 0.121029 -0.085967 -0.113330 -0.098210 0.007284 -0.042442 0.018392 -0.064081 -0.010411 -0.033003 -0.019019 -0.087206 -0.090764 -0.047815 -0.026550 0.075759 0.096132 -0.066867 0.036897 0.021188 0.042833 0.042621 0.029829 -0.103171 -0.022167 -0.038276 0.097566 -0.101224 -0.022826 -0.087929 -0.027527 0.036526 -0.095764 -0.049756 -0.071096 -0.077811 -0.039613 -0.064287 0.070940 -0.073289 -0.090998 0.057137 0.064364 0.013777 0.044408 0.049856 0.120177 -0.041843 0.010079 -0.044703 0.033381 0.082735 0.004560 -0.117382 -0.089676 0.042291 0.017991 0.020461 -0.117667 0.026784 0.120271 0.102119 -0.058938 0.084889 -0.051856 -0.061605 0.115372 0.023813 -0.074197 -0.119324 0.011044 -0.008688 0.073650 0.094151 0.034628 -0.050019 -0.048006 0.094823 -0.088041 -0.083534 -0.058371 -0.081921 -0.074856 -0.022897 
arrays -0.019167 -0.076930 -0.086668 0.022421 0.073721 0.040810 0.046490 0.009678 0.039151 0.010774 0.046384 -0.040553 0.004822 -0.116731 -0.052158 -0.047007 -0.087311 0.018181 0.095269 -0.114168 0.014285 0.094321 -0.095662 -0.036940 -0.119931 0.100080 0.090946 -0.043636 -0.114595 0.085765 -0.053065 -0.052993 -0.027753 -0.084065 0.064372 0.078169 -0.103198 0.012391 0.106591 0.059622 -0.027481 0.115861 0.046505 -0.089287 0.079435 0.028989 -0.081060 -0.039631 -0.088157 0.111659 0.068302 0.104109 -0.031064 0.042684 -0.089737 0.051701 0.068839 0.058118 -0.086940 0.070158 0.091589 -0.039396 0.111519 -0.006919 -0.020860 0.110027 0.107060 -0.036351 -0.016975 -0.062464 0.058341 -0.060703 -0.078634 -0.073151 -0.061727 -0.060627 -0.078135 -0.119391 0.029348 0.045141 -0.073525 -0.088962 -0.067017 -0.095545 -0.060933 -0.055389 0.055499 -0.029926 0.025425 -0.030281 0.122146 0.013684 0.065589 0.036668 -0.079911 0.116549 0.001512 0.010018 0.041396 -0.073476 0.084726 0.063907 -0.098262 -0.103632 -0.114308 -0.060937 -0.030648 0.045428 0.027436 -0.066545 0.031404 -0.040356 -0.043414 -0.088358 -0.063027 0.029858 -0.075324 0.047763 0.092382 -0.034159 -0.002509 0.082545 -0.024783 0.034605 0.055068 0.066296 0.115631 0.069750 0.039362 0.111236 0.115041 -0.033206 -0.045757 -0.103821 -0.115555 -0.069168 0.113159 -0.095160 -0.107922 -0.018786 -0.099177 -0.060136 -0.074893 -0.048459 0.002177 0.113473 0.080274 -0.015007 -0.074235 0.104479 0.020913 0.039003 -0.014965 -0.098727 -0.032401 -0.114743 0.060026 0.049486 -0.044842 0.100345 0.092692 -0.081646 0.080335 0.084458 0.086903 -0.070324 0.006462 0.042692 0.108443 0.071843 -0.045885 -0.005604 0.037352 -0.100163 -0.041879 0.020834 0.063246 0.021204 0.115223 0.017523 -0.057668 0.114758 0.088754 -0.058103 -0.011942 -0.078774 0.099290 0.060967 0.080463 -0.013759 -0.066005 -0.039328 -0.086162 -0.073302 -0.062724 0.031853 -0.012622 -0.083263 0.020127 -0.015717 
objects 0.118393 -0.054877 -0.091572 0.084392 -0.057905 0.060619 -0.116419 -0.079596 -0.107133 -0.116700 0.041534 -0.119395 -0.025447 0.078064 0.047914 -0.077284 0.006516 -0.104540 0.121794 0.065956 0.115586 -0.122601 0.051788 -0.100914 -0.001862 -0.110635 -0.066020 0.056258 -0.096009 0.104307 -0.074052 0.003247 -0.101519 0.018748 0.000788 0.005243 0.108440 -0.071376 -0.052884 -0.103016 -0.015734 -0.054606 0.106991 0.066647 0.021754 -0.003967 -0.099935 -0.019994 0.040265 0.069011 0.037360 -0.097746 -0.079344 -0.031681 0.061516 -0.085901 0.097225 0.051386 0.068617 -0.088228 0.081866 -0.000784 -0.029733 0.098970 -0.060082 0.046252 -0.014465 0.002961 0.044184 -0.003517 -0.096962 -0.049569 0.091039 -0.038632 0.064834 0.083582 0.084329 0.113856 -0.109423 0.114163 0.089388 -0.049532 0.091287 0.061392 -0.012926 0.013118 -0.036369 0.005979 -0.034290 -0.078687 0.095641 0.090127 0.029140 0.093978 -0.093029 0.025586 -0.003273 0.027635 0.108642 0.077546 -0.004699 0.018222 -0.002680 0.080744 -0.032789 -0.068779 -0.084937 -0.068591 -0.083698 -0.060416 0.019449 0.079213 -0.092090 0.031779 0.037600 0.051424 0.068865 0.011797 0.004106 -0.071248 0.095543 -0.008907 0.015051 0.099375 -0.008212 -0.103354 -0.017963 0.029069 0.068910 -0.037101 -0.121839 -0.016976 -0.038208 -0.006159 -0.016011 0.041950 0.104731 0.100929 -0.096346 0.102078 0.009623 -0.034834 0.040708 0.121129 -0.012221 0.066970 0.122274 0.118322 -0.079945 -0.035645 -0.063032 -0.071609 -0.005225 0.014754 0.072821 -0.060484 -0.030191 -0.100832 -0.050512 0.109419 -0.089508 0.098017 0.032015 -0.034631 -0.056344 -0.076661 0.109018 0.080024 0.011650 -0.021457 0.030604 0.103639 0.118318 -0.055372 -0.045647 -0.006062 0.083022 0.056040 0.099334 0.016113 0.032593 0.116768 0.008190 0.004898 -0.090619 -0.007705 0.022978 0.102498 -0.036797 0.101545 0.055301 0.020662 0.013422 -0.058960 0.078256 0.024580 -0.059107 0.052692 -0.119542 -0.051011 
values -0.067992 0.057650 0.051403 -0.065778 -0.003693 -0.125604 0.006544 -0.058037 -0.053868 -0.001039 -0.032134 -0.009500 -0.087972 -0.023585 -0.029028 -0.090271 0.087833 -0.078519 0.114760 0.099195 -0.028850 0.012173 0.055066 0.009028 -0.117595 -0.016554 0.017377 -0.087814 -0.047857 -0.113272 0.037295 -0.108258 0.121026 0.089916 -0.039459 0.094065 -0.113346 0.011493 -0.050693 -0.030716 0.075811 -0.107230 -0.024099 0.043534 0.059508 0.038350 0.075927 -0.106465 0.031585 0.056599 0.095104 -0.081169 -0.004002 0.125534 -0.057554 0.075908 0.019996 -0.019892 0.096618 -0.121810 -0.019053 -0.075073 0.086867 -0.084893 0.072690 0.074710 0.012092 0.079848 0.046003 0.101119 0.034483 0.075722 -0.031864 -0.007715 0.126349 -0.077492 -0.030365 0.052814 0.070117 -0.043542 -0.008839 -0.108930 -0.035317 0.070762 0.036669 -0.061753 -0.027761 -0.031272 -0.079767 -0.070700 0.065095 -0.076688 0.025574 -0.084345 0.025675 0.017589 0.040177 0.012034 -0.047123 -0.108428 -0.032003 -0.109904 0.008893 0.008101 -0.123714 0.044330 -0.087146 -0.119399 -0.104414 0.019807 -0.046459 0.098500 -0.033440 -0.068753 -0.023326 0.048634 0.093164 -0.043333 -0.108733 -0.059335 0.089471 0.084198 -0.077194 0.047552 0.086025 0.112090 0.106894 -0.053988 0.023488 -0.098113 0.036074 0.035591 -0.094184 -0.115219 0.125716 0.019598 0.053436 0.048904 0.094949 -0.082189 0.090538 -0.060671 -0.020622 0.066481 -0.042217 -0.076047 -0.122100 0.105623 -0.087694 -0.072384 -0.047293 -0.008279 0.021356 -0.061552 -0.077070 -0.002268 -0.090877 0.007877 0.077349 -0.046447 0.022623 -0.002554 0.008507 0.005551 0.112635 0.085172 -0.121404 0.110213 -0.006768 0.006007 -0.086898 0.034139 0.048135 0.064558 -0.105550 0.113581 -0.035170 0.122366 -0.078461 -0.011447 0.000448 0.104271 -0.096618 0.121895 -0.030936 -0.001595 0.065465 0.027031 0.001221 0.109371 -0.062962 0.040212 0.037581 0.045535 0.123351 0.054629 0.082100 -0.015086 0.027065 0.026768 
more -0.050149 -0.078417 -0.112702 -0.025560 0.019426 -0.113000 -0.048121 -0.005658 -0.009558 0.015086 0.103506 -0.042987 0.103376 -0.023493 -0.001982 0.075681 -0.063171 0.016658 0.085278 -0.107689 0.099149 -0.081925 -0.055878 -0.045695 0.065166 0.038348 -0.120066 -0.061733 0.068167 0.083344 0.055979 0.022910 -0.081260 0.033189 -0.025659 -0.010343 0.010760 -0.067866 -0.092897 -0.057179 0.027718 0.115462 -0.064399 -0.015822 -0.028055 0.061137 -0.019072 0.102173 -0.084757 -0.030098 0.018626 0.060706 -0.017443 -0.076985 0.077234 -0.051149 0.106393 -0.009228 0.018447 -0.111685 0.059636 -0.091387 -0.009157 0.090998 -0.082016 0.092317 -0.031486 0.092196 0.014610 -0.092493 -0.008315 -0.026097 0.072700 -0.071042 -0.106905 0.104812 0.102209 0.079502 0.094082 -0.027295 -0.092866 -0.098455 0.075628 0.084652 0.113181 -0.120958 0.107413 0.011588 -0.070574 -0.085797 0.047611 -0.083255 0.088155 -0.088571 0.056561 -0.000349 -0.076540 0.113004 0.099318 0.020489 0.044152 0.085434 -0.031703 0.078350 -0.095289 -0.059508 -0.000277 0.055983 0.002957 0.082652 0.111547 -0.066754 -0.074721 0.012780 0.026178 -0.072635 0.024288 0.035330 0.037817 -0.082904 0.005255 0.015238 -0.022591 0.019472 0.105653 0.107075 0.024225 -0.026245 -0.060862 0.089204 -0.121016 0.027700 0.067411 -0.030553 0.085957 0.007258 -0.016111 -0.101164 0.004199 0.080213 -0.077085 0.020192 0.023671 -0.057391 -0.041262 0.087975 -0.112801 0.084591 -0.061278 -0.087960 0.092634 -0.110336 0.087192 0.063943 0.046961 -0.034599 -0.074637 0.033114 0.120119 0.030312 -0.032695 0.026718 0.036435 0.098912 0.113996 0.068072 0.088971 0.030232 0.080676 0.049109 -0.106123 -0.057898 0.094698 -0.083675 0.060038 0.019123 -0.003713 0.111526 0.105704 0.088506 0.119807 -0.027271 0.062816 -0.051761 -0.049538 0.086069 0.002818 -0.018725 -0.014527 -0.090400 0.097986 -0.082728 0.005711 -0.093555 0.085226 0.018881 -0.059591 0.111219 -0.002143 -0.115165 
so -0.050320 -0.072810 -0.091613 0.121326 0.048944 0.011959 0.001195 -0.043923 0.047187 0.104070 -0.013094 -0.086379 0.078091 -0.003074 -0.098022 0.079029 0.080892 0.067264 0.106946 0.083665 0.059640 -0.021145 -0.009882 -0.117030 0.083202 -0.021192 0.041657 0.015717 0.025999 0.119783 0.038761 0.048457 0.086525 0.000740 0.082704 -0.128186 0.009573 0.063229 0.080315 -0.040252 0.123269 0.035837 0.003236 0.073253 0.042772 -0.028772 -0.112073 0.038140 -0.033420 -0.013122 0.094920 0.004292 -0.101258 0.005819 0.012525 -0.072850 -0.091874 0.015899 -0.128356 0.086229 0.128411 0.069780 -0.032004 0.048077 -0.019685 0.025678 -0.115665 -0.037420 -0.013593 0.065887 0.046008 0.044438 -0.043706 -0.081007 -0.093860 0.054644 0.023657 -0.103081 0.019709 0.078269 0.127731 0.117141 -0.030532 0.005938 0.013308 -0.015828 -0.078495 0.052350 0.008513 0.004379 0.106725 -0.021501 -0.012232 -0.028835 0.043065 0.128716 -0.109692 0.002006 0.091059 -0.124895 -0.020555 0.019934 -0.101724 -0.049114 0.064783 0.012798 -0.045122 0.117054 0.020745 0.033258 0.038065 -0.059842 0.045826 -0.060467 -0.010151 0.088602 -0.115183 -0.086086 -0.023681 -0.000692 0.125104 -0.055752 -0.030880 -0.048212 0.122588 0.083198 0.004708 0.031114 0.075765 -0.070278 -0.074903 0.127909 -0.011314 -0.074630 -0.103623 -0.061646 -0.069784 0.057991 -0.109810 0.001222 0.034037 0.120986 -0.057006 -0.116935 -0.019875 -0.027427 -0.103196 -0.006974 0.031790 0.054304 -0.082292 0.027284 -0.001361 0.094766 -0.022652 0.006096 0.014352 -0.112639 0.112184 0.014530 0.018166 0.068087 -0.095031 -0.056788 0.014131 0.041455 0.040312 0.006840 0.071113 0.054573 -0.028665 -0.033590 0.063533 -0.099157 -0.006243 -0.093009 -0.069372 -0.042998 -0.050407 -0.021532 -0.064293 -0.113177 0.004929 -0.122980 -0.111622 -0.062588 -0.127850 -0.117837 -0.077680 -0.097828 0.106234 0.078966 -0.023230 -0.101420 0.030675 0.098793 0.055779 0.108928 0.070820 -0.102915 
just -0.033493 0.001547 -0.047932 0.013638 0.094768 -0.122591 -0.064333 0.025140 -0.091258 -0.102756 -0.106022 0.050588 0.111764 -0.068924 -0.015698 0.063869 0.047532 0.001046 -0.082265 0.091872 0.094895 0.125680 -0.007148 -0.038876 -0.044611 -0.064633 0.034997 0.079646 0.118914 0.115448 -0.019196 0.123169 -0.115871 -0.083561 0.042916 -0.120495 -0.077477 0.095753 0.018940 -0.059260 -0.110463 0.040291 -0.019618 -0.072878 0.048444 -0.060663 0.091453 0.068009 -0.019891 -0.012302 0.092053 -0.121314 0.047459 0.035703 0.007653 -0.057849 -0.060076 -0.073832 -0.055456 -0.119665 -0.069242 0.098260 0.048200 -0.073808 0.073059 0.015390 0.045440 0.082434 -0.009282 -0.019690 -0.013852 -0.049961 -0.115663 -0.115740 -0.065024 -0.096113 0.005511 -0.136631 0.088890 -0.089347 -0.082277 -0.038013 -0.077355 0.008292 0.012151 -0.086162 -0.072385 -0.022325 -0.047163 -0.104529 -0.020515 0.010744 0.035597 0.021853 -0.002339 0.057462 0.026576 0.069478 -0.043398 0.105618 0.102620 0.089376 0.093376 0.038791 -0.103006 -0.066330 0.056129 -0.035444 -0.023283 0.036685 -0.002966 0.107176 0.118832 0.102480 -0.121478 -0.062410 -0.015659 -0.007393 -0.009812 0.101665 -0.025424 0.031690 -0.086127 -0.044291 0.104216 -0.110704 0.095333 -0.003043 -0.008434 0.090963 -0.029159 -0.027540 -0.063536 -0.119025 0.094842 -0.063735 -0.068449 -0.074254 0.069927 0.074816 -0.043980 -0.114768 0.046986 0.077677 0.107299 -0.025122 -0.015568 -0.044741 -0.042761 0.026032 -0.072470 0.049513 0.005439 -0.137210 -0.000013 0.009621 -0.004998 -0.024541 0.082173 0.034323 -0.034374 0.063898 -0.095740 -0.099253 0.047689 -0.094293 -0.009952 -0.057891 -0.025428 -0.127940 -0.025938 0.036773 -0.040466 -0.065677 -0.038836 -0.114803 0.089712 0.043850 -0.026316 0.065938 -0.026332 -0.000956 0.029419 0.092880 0.051407 -0.070574 -0.044502 -0.117757 0.125271 0.006532 -0.055402 -0.106322 -0.051668 -0.026008 -0.050330 -0.092172 -0.058258 0.098607 0.026995 0.007772 
there 0.035476 0.040299 -0.001992 0.069890 -0.025342 -0.059117 0.028300 0.057492 0.085260 0.061916 0.100919 -0.010705 -0.006368 -0.057579 0.000090 -0.050834 -0.113327 -0.052282 0.066070 0.084014 0.020629 0.000373 -0.037290 0.095423 -0.033842 0.085302 -0.090506 0.015300 0.103380 0.017576 -0.054834 -0.090052 0.110892 -0.096816 -0.081144 -0.072632 0.009316 -0.086117 -0.008926 0.033388 0.103098 0.038501 -0.119414 -0.009183 0.027124 0.085423 0.120164 -0.113649 -0.027488 -0.091959 0.063449 0.105525 -0.062473 -0.063617 0.114727 0.116473 -0.009068 -0.090085 0.002757 -0.070128 0.018860 -0.111542 0.013362 -0.114968 -0.041272 -0.033889 -0.011048 0.118679 0.057351 0.075192 0.088882 0.090018 -0.112688 -0.036398 0.037062 0.070944 0.080400 -0.080376 -0.121193 -0.099642 0.072214 0.073345 -0.049954 -0.036397 0.119016 0.079158 -0.089733 -0.036522 0.036103 -0.057189 -0.012455 -0.071458 -0.041958 -0.045341 -0.032264 -0.058253 0.065078 -0.019357 -0.051526 -0.113195 0.125532 -0.049002 0.080503 -0.017983 -0.063033 0.093936 0.095182 -0.012313 -0.101305 -0.027439 0.027900 0.000421 -0.060772 -0.061106 -0.025735 -0.108285 0.064761 -0.073580 0.099266 -0.108461 0.092243 -0.074601 0.109010 -0.000216 -0.096021 -0.027347 0.066704 0.067581 -0.058871 -0.046460 0.042854 -0.021805 -0.050567 0.019202 -0.040051 -0.058996 0.005531 -0.077376 0.043884 -0.022902 -0.021225 -0.030429 0.074058 -0.084274 0.072748 0.008522 -0.105615 -0.099599 0.023767 -0.021803 -0.081320 -0.106608 -0.083078 0.099028 -0.119593 -0.092572 0.120533 -0.049711 0.052237 0.030129 0.076919 0.124254 0.032528 -0.096242 0.042008 0.046692 -0.015532 -0.013778 0.083870 -0.039552 -0.115760 0.046255 0.078537 -0.079231 0.003575 -0.087658 -0.030096 0.036600 -0.047137 -0.011052 0.005849 -0.021364 -0.108164 -0.023971 0.004158 -0.006636 0.035258 -0.112173 0.103612 -0.121661 -0.071603 0.065121 -0.016740 -0.002782 -0.088289 -0.099055 -0.097391 0.025992 -0.102269 0.105635 
be -0.063043 -0.045000 0.097274 -0.053655 -0.052611 0.070229 0.069320 -0.006253 -0.110799 0.010853 -0.090664 -0.088163 -0.002081 -0.060074 -0.002215 -0.107342 0.103240 0.078481 0.077402 -0.045672 0.092837 0.009819 -0.051104 -0.058963 -0.087643 0.070923 -0.065244 -0.013146 0.029228 -0.038956 -0.048358 0.051921 0.041245 -0.098785 -0.025810 -0.077547 0.067982 -0.061461 0.035010 -0.093555 0.055088 -0.053803 -0.007212 -0.093938 0.006185 0.087243 -0.003914 0.113350 -0.017127 -0.112996 0.019540 0.082621 0.104727 0.088290 0.095760 -0.110031 0.085491 0.100477 0.083432 -0.098637 -0.071210 0.086620 -0.100785 0.076946 -0.071875 0.035849 -0.018450 -0.028970 -0.028832 -0.004731 -0.100756 -0.108389 0.003567 0.069960 -0.025216 -0.027243 0.028945 -0.040824 -0.107069 -0.057292 0.108902 0.115848 0.092122 0.051482 -0.100792 -0.108623 -0.090735 -0.088630 0.041217 0.086549 -0.101252 -0.111659 0.074748 -0.063188 -0.022767 -0.057462 0.061401 -0.104900 -0.112547 0.092076 -0.111153 0.008517 -0.106078 -0.050753 -0.033460 -0.081659 0.087225 0.111920 0.066199 0.019529 -0.079780 0.076436 0.017523 0.069309 0.063248 0.092812 -0.059915 0.114787 0.085116 0.005241 0.011437 0.029140 0.076411 -0.052211 0.003298 -0.024575 -0.046206 0.112501 -0.022732 -0.057229 -0.076199 0.053690 0.052922 -0.021716 0.019044 0.079352 -0.055994 -0.044858 0.098209 0.091652 -0.113955 0.036401 0.077954 0.050732 -0.059363 -0.020711 -0.067084 -0.025290 -0.004543 0.062813 -0.072391 -0.060321 -0.003850 -0.071751 -0.079285 0.079706 -0.053658 -0.029444 0.060799 -0.108870 -0.092370 -0.053039 0.090594 0.087773 -0.000410 -0.095431 0.042710 0.050024 -0.064033 -0.051539 0.007735 -0.088049 -0.047714 0.009791 -0.097671 0.097497 0.110148 0.077689 -0.066970 -0.070923 0.065321 -0.032643 -0.099454 -0.053414 -0.004643 0.015778 -0.104536 0.052190 -0.096121 -0.077795 0.066348 -0.025870 0.084387 -0.092331 -0.075972 -0.037576 -0.039249 0.019274 -0.035081 0.093166 
but -0.070690 -0.115639 0.063032 0.024748 0.033952 -0.086307 0.085684 -0.007486 0.066761 -0.105471 0.078878 -0.042713 -0.072204 0.049538 0.008864 0.034179 0.009110 0.079841 -0.006167 0.108289 0.106924 0.067895 -0.027679 -0.110783 0.045613 0.048373 -0.130193 -0.090040 -0.056366 0.096129 0.011444 -0.014610 -0.056934 0.053410 -0.021349 -0.015899 -0.104635 0.069567 -0.060559 -0.058787 0.038720 -0.083368 0.100352 0.038203 0.019471 0.123214 0.005864 -0.067222 0.035260 0.044600 0.009044 -0.033034 0.101018 -0.083808 0.002164 -0.106998 0.026215 -0.093631 -0.014758 -0.084472 -0.077921 -0.111524 -0.036489 -0.067763 0.006747 -0.108291 0.053110 0.046296 0.005962 -0.109728 -0.074308 -0.025517 0.006666 0.103043 0.005828 -0.005601 -0.100484 0.111936 -0.110215 -0.074448 0.070838 0.016717 -0.095291 -0.046058 0.111699 -0.028549 -0.066077 -0.050645 0.009296 -0.004091 -0.035225 0.001032 -0.050096 0.110489 0.050707 -0.041598 0.071304 -0.047983 0.029920 -0.089813 -0.085133 -0.065733 0.045496 0.091717 0.002803 0.043190 0.085438 0.015628 0.031590 0.107465 -0.064485 0.037001 -0.099297 -0.080080 -0.079187 -0.026293 0.133253 -0.021310 0.001956 0.106903 0.005063 0.017386 0.093974 -0.069355 -0.062471 0.029956 0.045263 0.053692 0.133723 -0.035526 -0.130974 0.104412 0.036042 -0.101201 0.065996 0.011068 0.009490 -0.094696 0.050828 0.095197 -0.066825 -0.001986 0.109486 -0.086513 -0.003971 0.043242 0.114172 0.072507 -0.105582 -0.050462 -0.040371 0.068802 0.026681 -0.041172 -0.115261 -0.060509 -0.006085 -0.057723 -0.075599 -0.004041 -0.038113 -0.056999 -0.122387 -0.131601 -0.047139 0.113055 -0.033800 0.047868 0.041322 -0.036164 -0.107471 0.019882 0.098503 0.102298 -0.074955 -0.147819 0.081889 0.088375 -0.071525 0.022756 -0.044909 0.111422 0.079112 -0.097226 0.047471 -0.089864 0.035725 0.035985 0.044345 0.019841 -0.109254 -0.000640 0.036304 0.094064 0.004951 -0.023268 -0.129252 -0.001165 0.009985 -0.098122 
not 0.084551 0.013665 0.114978 0.016512 0.034784 -0.067337 -0.122681 -0.067269 -0.072740 0.113864 -0.114570 0.035755 0.013306 -0.011120 0.050379 0.035588 0.111194 0.041033 0.097639 -0.048434 0.101060 0.073129 0.062009 0.112346 -0.075096 -0.050164 0.040154 -0.081391 0.081515 0.092613 -0.056858 0.070206 -0.105757 -0.005064 -0.008632 0.091548 -0.014394 -0.045466 -0.027829 0.063833 0.050145 0.083536 -0.017785 -0.117338 0.091726 0.061016 -0.067431 0.000427 -0.071381 0.122836 0.043627 -0.058463 -0.064116 0.071800 0.102729 0.034652 0.055522 0.020039 -0.040924 -0.072087 0.043937 -0.105912 0.018661 0.073711 -0.033138 -0.070191 0.006955 -0.003546 -0.048106 -0.069995 -0.041241 0.024804 -0.058965 0.006808 -0.029264 0.054363 -0.061850 0.086753 -0.046044 0.042597 0.008972 -0.089222 -0.118648 0.008840 0.033636 0.024072 0.035184 0.034290 -0.045855 0.043843 0.017196 0.014549 0.021825 -0.103374 -0.014084 -0.092915 0.054948 0.065743 -0.085722 -0.021308 -0.066351 0.106539 0.084544 0.063108 0.094852 -0.116318 0.098454 0.055933 0.047502 0.066091 0.114540 -0.085363 0.104790 -0.100218 0.105734 -0.093987 -0.100607 -0.070055 0.106837 0.111259 0.115695 0.021247 -0.032949 -0.068945 0.015179 0.100225 0.092368 0.065252 -0.088962 -0.092183 -0.039202 0.038262 -0.069130 -0.010788 0.102064 -0.068719 0.016675 -0.038383 0.117908 -0.112626 -0.075142 -0.000970 -0.080602 0.111470 -0.031386 0.089849 -0.025609 -0.119483 0.028078 0.036880 0.070225 0.018098 0.045251 -0.047747 0.056103 -0.075108 0.024000 0.009965 0.090555 0.053290 0.030057 -0.049046 -0.100947 -0.072298 -0.056443 0.072948 0.011320 -0.123213 -0.046037 -0.006846 0.029098 0.043609 0.065143 -0.114430 0.110915 -0.109288 0.095366 -0.013945 -0.017755 -0.067646 -0.075232 0.097416 -0.074651 0.002269 -0.009727 0.084321 0.036891 -0.003938 0.048287 0.120767 -0.019522 0.118660 -0.082920 -0.052308 -0.023494 -0.105527 -0.028289 0.110284 0.059773 -0.100376 
now -0.093223 -0.021694 0.079434 0.029694 -0.026551 -0.026811 -0.053261 -0.005249 -0.009872 0.083272 -0.118091 0.061483 0.084332 0.111483 -0.080280 0.063732 -0.049208 -0.077423 -0.090529 -0.102834 0.087985 -0.062253 0.009592 0.013891 0.066989 -0.101906 -0.054272 -0.061385 0.015321 0.101159 -0.000038 -0.000208 0.122325 -0.082917 0.021593 0.093091 -0.102748 0.014366 -0.078257 -0.071302 -0.099593 -0.113197 -0.079329 0.020547 0.012000 0.079242 0.053155 -0.044827 -0.073238 -0.038178 -0.078815 0.122857 -0.104136 -0.044261 -0.069502 -0.013521 -0.015004 0.049400 0.054045 0.059974 0.074370 0.045732 0.079298 -0.070125 0.106023 0.056796 0.102861 -0.013536 0.083819 0.009174 0.035857 -0.060072 0.073449 -0.108729 0.098544 0.056895 -0.044876 0.000630 0.078393 -0.076102 -0.081812 -0.045302 0.072008 -0.068781 -0.033494 -0.072638 -0.009487 0.036351 -0.081540 -0.092970 0.054166 0.011309 -0.098431 -0.056064 0.050438 -0.062759 0.105178 -0.097166 0.075932 -0.042879 0.038536 -0.042389 0.041774 0.028442 0.014642 0.096676 -0.079087 -0.076781 -0.086295 0.122955 -0.004566 -0.030094 -0.074929 -0.098797 0.114634 0.064170 0.052604 0.099921 -0.057668 -0.083800 0.114687 -0.034404 -0.053910 0.039928 -0.008468 0.043076 -0.086619 0.021891 0.119789 -0.050193 -0.059193 0.005060 0.008709 0.106985 -0.060506 -0.053068 -0.028710 0.008404 -0.117608 0.114133 -0.112257 -0.048396 0.051585 0.093197 -0.052589 0.048645 0.049064 0.027098 -0.093148 -0.021196 0.033261 0.120638 0.079064 -0.022208 -0.022876 -0.101476 0.096951 0.095846 -0.084566 -0.063483 -0.097449 -0.049589 -0.055208 -0.117023 -0.005660 -0.037317 -0.023676 -0.057295 -0.056604 0.121068 -0.017019 -0.112283 -0.122763 -0.018811 -0.000460 0.046464 -0.014793 -0.097589 0.122604 0.067310 0.023864 0.058623 0.015993 -0.092253 0.058898 -0.056381 -0.100038 0.081710 -0.029479 0.102246 0.056596 -0.071574 -0.051925 -0.095355 0.087887 0.085483 -0.004574 0.019317 -0.095042 0.015762 
can -0.067120 -0.057118 -0.021528 -0.012644 -0.115223 -0.039333 0.081583 0.077641 0.037693 -0.041318 0.084209 -0.057647 -0.084549 0.086296 -0.103460 0.017550 0.050352 0.107226 -0.034186 0.091033 0.100927 0.059018 0.085175 -0.003073 0.008397 0.054323 0.114379 0.115256 0.013721 0.028334 -0.027083 -0.076534 -0.062991 -0.036461 0.098348 -0.082876 -0.091455 -0.091944 0.063369 -0.059551 0.103295 -0.032383 -0.050616 -0.111200 0.054260 0.079180 -0.089209 -0.039230 0.062054 -0.017048 -0.078560 -0.059919 0.010004 -0.024782 0.013331 -0.096058 0.079540 -0.077326 0.044588 -0.020309 0.042912 -0.006319 -0.063129 -0.094480 -0.042884 -0.062520 -0.112170 -0.076273 -0.058764 0.036398 -0.061832 0.116082 -0.054563 -0.068787 -0.059223 -0.088665 -0.023218 0.015322 0.051842 -0.021015 0.086850 0.056045 0.008824 0.102245 -0.063476 0.084457 0.072956 0.113524 -0.066593 -0.013490 0.108043 -0.076845 0.089319 -0.085129 0.029283 -0.039195 -0.011088 0.101845 0.045531 0.000920 -0.003608 -0.109320 -0.050646 -0.102559 0.038383 0.085400 0.071770 0.011937 -0.089450 -0.079465 0.095664 0.077492 -0.108464 0.079511 -0.007059 0.097484 0.110280 -0.084657 0.034617 -0.069624 0.034752 0.001690 0.066894 -0.064831 -0.091869 0.024228 0.022304 0.084539 0.035961 -0.008272 0.094369 -0.082593 0.052900 -0.069511 0.088112 -0.020444 -0.083378 -0.041376 0.099393 -0.055214 0.093230 0.009046 0.039091 0.002194 -0.051723 0.061942 0.111715 -0.066883 0.059310 -0.062386 -0.115888 0.053558 -0.084161 -0.033459 -0.073706 0.027029 -0.012820 0.097596 -0.087684 0.051718 0.096590 0.069928 0.045438 -0.091794 -0.105871 -0.067908 -0.105034 -0.091442 0.040365 0.025412 0.025233 -0.044877 0.058818 0.055164 0.110039 0.000578 0.016556 0.001944 -0.108349 0.079888 0.030534 -0.087046 0.110536 0.018627 0.046724 -0.102949 -0.085444 -0.045632 0.076648 -0.115615 -0.072015 0.090779 -0.064731 0.101701 -0.110765 -0.031746 -0.013141 -0.115707 0.065669 -0.091063 
used -0.060313 0.054343 0.082256 0.040300 0.039836 0.061905 0.081903 0.088234 0.104889 -0.111903 0.040564 0.066714 0.013115 0.086601 -0.006419 0.058200 -0.043072 0.017345 0.039122 -0.043329 -0.059746 0.108352 0.086873 -0.029754 0.029850 0.096525 0.109345 0.118560 0.103984 0.032914 -0.109437 -0.018556 0.103754 0.031395 0.031330 -0.044495 0.033086 0.017360 -0.061303 -0.002450 -0.041262 -0.020972 0.087809 -0.124105 0.010293 -0.032553 0.011374 -0.075679 -0.122467 0.096494 0.058879 0.036802 0.067017 0.040246 -0.111308 -0.081171 -0.108447 0.038237 -0.024044 0.092667 -0.016643 -0.109801 0.104697 -0.113168 0.032212 -0.038674 0.121769 -0.050753 0.042044 -0.074306 -0.063143 -0.014599 0.079610 0.022836 0.025102 0.014929 0.023177 0.052487 -0.080783 0.120293 0.065160 -0.122793 -0.031315 -0.055846 -0.041830 -0.074981 0.083192 -0.054051 0.020278 -0.067174 -0.016068 -0.106005 -0.121562 -0.048322 -0.042436 0.122072 -0.023622 0.095451 0.102258 0.021525 0.066710 0.038221 0.076381 0.051789 -0.035127 0.019523 0.103761 -0.018817 0.051769 0.090405 -0.031576 -0.107830 0.017180 0.113429 0.019856 -0.069958 0.116347 0.013985 -0.083575 0.051605 -0.086605 0.031610 -0.118042 0.025175 0.040541 -0.033965 -0.048203 -0.066783 -0.063749 -0.068861 -0.027204 -0.078977 0.107082 0.103627 0.105955 -0.054603 0.117160 -0.030912 0.072470 0.025973 0.096069 0.081201 -0.092318 -0.006101 -0.015094 0.051213 -0.038923 -0.005534 0.038915 0.055830 -0.108977 -0.015519 0.073536 0.083272 -0.078651 -0.016424 -0.032964 -0.066729 0.087395 0.074214 -0.088169 -0.028979 -0.015301 -0.100943 -0.088154 0.121911 0.025578 -0.082459 0.033838 0.122847 -0.068773 -0.102017 -0.095240 0.024876 -0.011696 -0.077152 -0.031660 -0.058124 0.043663 -0.113889 -0.022809 0.050554 0.006987 -0.004107 -0.001933 0.087813 0.102105 0.020512 -0.090761 0.104701 0.113041 0.042432 -0.096882 -0.036219 -0.113348 -0.044372 -0.016367 0.093074 0.086566 -0.031779 
into -0.031528 -0.020378 -0.064080 0.093199 -0.018227 -0.073340 -0.038293 -0.065028 -0.030354 0.034288 0.015213 0.100443 -0.064244 -0.001722 0.012134 0.080126 -0.057586 0.042220 -0.073186 -0.107652 0.110577 -0.020822 0.026825 0.083248 -0.083903 -0.084551 -0.065368 0.084694 0.066392 0.015975 0.035100 0.090951 -0.079980 0.035175 0.067988 -0.114239 0.067108 0.020700 0.066285 0.015266 -0.016494 0.078845 -0.112961 -0.088667 -0.092536 -0.094616 -0.084883 0.002810 -0.098707 -0.041511 -0.109725 0.073440 0.085950 0.051226 0.080087 -0.034388 -0.062712 0.055306 0.107019 0.049529 -0.071861 -0.098911 -0.113233 0.050288 -0.113770 0.046744 0.097426 -0.013785 -0.067480 0.070755 0.068232 -0.065715 0.012027 0.079418 -0.109181 0.030114 -0.106167 0.003089 -0.049948 -0.001199 0.109417 0.065357 -0.014311 0.093256 0.075985 0.079289 0.030719 -0.078716 -0.026860 -0.083405 -0.057808 0.087672 0.039131 -0.023199 0.104971 0.082933 0.101685 0.014329 0.024233 -0.074607 0.047177 0.076826 -0.032451 -0.073390 0.055210 0.036006 0.026552 -0.012381 -0.105136 0.056810 0.116941 0.068099 0.097619 -0.106342 -0.021527 -0.048205 0.080681 0.063367 0.113304 -0.049737 0.023653 -0.031517 -0.090682 -0.035462 -0.069800 0.008530 -0.014039 -0.045699 0.097218 -0.062071 0.082993 -0.062122 -0.058088 0.038912 -0.001181 -0.007757 0.113054 -0.051390 0.059655 0.018431 -0.089444 0.066546 -0.053384 -0.023879 0.100483 -0.087443 0.103210 -0.116358 0.100039 0.003461 0.093259 0.052550 0.088828 -0.023614 0.008397 -0.085288 0.070515 -0.003726 -0.001095 -0.101023 0.107413 0.052128 0.039124 0.023671 0.085893 -0.042986 -0.072541 -0.103400 -0.049024 0.051813 -0.009872 -0.112034 -0.059090 0.032298 -0.091756 -0.042549 -0.116576 -0.112528 -0.109267 -0.111203 -0.100526 -0.100429 -0.029416 -0.006439 -0.065919 -0.059695 0.004847 -0.061807 -0.009092 -0.059967 -0.090782 -0.083040 -0.102315 -0.112241 -0.107377 -0.051813 0.009951 0.065715 -0.011948 0.108848 
other 0.036929 0.111493 0.060064 0.065235 -0.022249 -0.058053 0.004720 0.021140 -0.081336 0.052875 0.048420 -0.027572 -0.049662 -0.017193 -0.017710 0.007355 0.029344 0.107029 -0.102940 0.036987 -0.076720 0.079502 -0.045853 0.005486 -0.062597 -0.091457 0.115092 -0.049911 -0.045223 -0.105721 -0.058476 -0.078603 -0.102665 -0.108775 0.007037 0.080463 0.052462 0.073747 -0.001265 -0.096947 -0.033675 -0.058408 0.100612 -0.125053 0.013257 0.040103 -0.116464 0.094904 -0.096679 -0.037123 -0.080147 -0.030421 0.114065 -0.077344 -0.114651 -0.060199 -0.010477 -0.114858 -0.005952 0.016136 -0.100700 -0.083519 0.040359 0.053594 0.025680 0.102184 0.100799 -0.065944 -0.121942 -0.103408 0.118559 0.112380 0.025209 0.019445 0.039042 0.107036 0.093314 0.023049 -0.085378 0.017063 0.026701 0.042569 0.088651 -0.011879 0.081435 -0.029166 -0.041570 -0.060976 0.058985 0.078846 0.006955 -0.077348 0.116619 -0.109543 0.020290 0.018278 -0.077937 0.024496 0.105290 0.097356 -0.010944 -0.077635 -0.099407 -0.088907 0.099462 0.056001 -0.114461 -0.057377 -0.055908 -0.013519 0.099903 0.037976 -0.072969 0.055949 -0.098973 0.061531 0.060941 -0.020481 -0.065149 0.015389 -0.093541 -0.035477 -0.083778 -0.108819 0.078879 0.054781 -0.092046 0.044245 0.071681 -0.090453 -0.023076 0.102250 0.076178 -0.103638 0.051694 0.020151 -0.045059 0.037942 0.109975 0.075856 0.054570 -0.108723 -0.065648 0.099920 0.095416 0.037630 0.096943 -0.022372 0.045146 -0.064499 0.030034 -0.071071 0.003378 0.039095 -0.031177 -0.040427 0.090919 -0.049901 -0.073072 -0.083044 -0.006221 -0.007094 0.002407 -0.069205 -0.046179 0.084269 0.103920 -0.026437 0.062848 -0.023488 -0.012807 0.051085 -0.059716 -0.006281 -0.107233 -0.009179 0.023611 -0.029197 -0.060184 -0.020206 0.060067 0.085949 0.036936 -0.076277 -0.125420 0.087082 -0.100910 0.095106 0.102200 0.026585 0.073011 0.103746 -0.077797 0.016126 -0.093924 0.081565 0.093025 -0.035401 0.052658 -0.002553 
typically -0.055135 -0.117710 -0.013814 0.105782 0.082853 0.054590 -0.008871 -0.009281 -0.036596 0.103100 -0.082530 0.046080 0.082642 -0.045253 -0.077106 -0.016582 0.013671 0.090270 -0.019523 0.068104 -0.116595 0.067390 -0.121304 -0.111378 -0.119704 -0.002362 -0.040164 0.079551 0.008188 0.054080 -0.110698 0.106307 0.086323 -0.020961 -0.113688 -0.011880 -0.004522 0.068652 -0.014520 0.051894 -0.075897 -0.057828 0.036814 -0.052352 0.122183 0.018805 -0.048142 -0.120782 -0.083318 0.040874 -0.050170 0.111971 -0.073208 0.058376 0.065343 -0.011744 0.094826 -0.063296 -0.097733 -0.103491 -0.067649 0.095063 0.110563 0.040566 -0.002975 0.029637 -0.075108 -0.052622 -0.076513 0.036563 0.118285 -0.056153 -0.099814 -0.018768 0.048472 -0.073865 -0.069031 0.036713 0.119276 0.098075 0.081215 -0.054673 0.057636 -0.013382 -0.014437 0.003211 -0.101834 -0.081332 0.078601 0.075758 -0.016848 0.036525 0.118037 0.089895 -0.022001 0.051743 -0.076888 0.034084 0.101925 -0.016447 0.113019 -0.041678 -0.102736 -0.087281 -0.108347 -0.025859 -0.047556 -0.018460 0.001277 0.008469 -0.067131 -0.098428 0.014993 0.049768 0.057756 -0.061816 0.059717 -0.098105 0.115581 -0.074000 0.077760 -0.077478 -0.043650 0.007320 0.072967 0.038576 -0.016112 -0.106300 0.110721 -0.007620 -0.074868 0.096648 0.071796 0.080070 0.060836 -0.041490 -0.101496 -0.079101 -0.005130 0.113864 0.086969 -0.065925 -0.115085 0.028127 -0.035845 0.108058 -0.049809 -0.033333 -0.096884 0.000567 -0.020830 0.010250 0.092302 -0.030726 0.068002 0.055034 0.043282 -0.058894 -0.117909 0.058714 0.067574 -0.095476 -0.113207 0.040521 0.045956 -0.090473 0.116722 0.081219 -0.079262 0.067645 -0.070391 0.076967 -0.058094 0.059668 -0.024585 -0.014539 -0.071300 0.120196 -0.018922 0.072070 0.008037 0.053088 -0.018786 -0.074721 0.122228 -0.030125 0.071968 -0.066474 0.028980 0.043623 -0.081253 0.054508 0.039811 0.016657 -0.013093 0.061313 0.035500 -0.061028 0.064923 0.034707 
schema -0.041113 -0.075156 0.004037 0.112608 0.053879 -0.105901 -0.040836 0.021652 -0.087680 0.082264 -0.091717 0.009314 -0.112474 0.056946 0.118379 -0.078937 -0.076394 -0.070603 -0.029977 -0.106681 0.028018 0.095667 0.090516 -0.114910 0.026103 0.076615 -0.021079 -0.082036 0.040492 -0.074852 -0.091380 0.063379 0.009948 -0.020180 -0.031795 -0.011605 -0.052468 -0.069335 0.076557 -0.110749 -0.091829 0.005564 -0.030944 0.020377 0.017080 0.020779 -0.087949 -0.014400 -0.017279 0.075657 0.004472 -0.077219 0.044004 0.105207 -0.081453 0.030267 0.027718 0.097231 0.103943 0.082410 0.059060 0.101175 -0.110969 -0.070040 0.078532 -0.014085 0.068921 -0.062357 0.087721 -0.085082 0.087441 0.069647 -0.082453 -0.115269 -0.079006 0.104757 -0.073031 -0.066123 0.075315 -0.110715 0.055491 -0.056234 -0.065717 0.029572 0.075223 0.070351 0.115733 0.010707 0.047147 0.075451 -0.109576 0.089288 0.095459 -0.002837 0.002120 0.107481 -0.078125 -0.050678 0.068592 -0.039080 0.011838 0.097541 -0.001305 0.088476 -0.059275 -0.045765 0.010653 0.032006 0.087571 0.047214 -0.099527 0.107195 -0.091989 0.002034 -0.004233 -0.028521 -0.114931 -0.007938 -0.025186 0.066477 0.077795 0.004499 0.044480 -0.070847 -0.095983 0.081751 0.011708 -0.117199 0.017932 0.106793 -0.040700 0.058372 -0.057560 -0.005176 0.040628 -0.059448 -0.016850 -0.019549 -0.002327 0.027107 0.022624 0.110678 0.096784 -0.080981 0.011830 0.018199 -0.043957 -0.013006 -0.056112 0.106695 -0.036157 -0.042781 -0.111206 -0.114604 0.099198 0.083814 -0.030550 -0.108383 -0.079911 -0.029376 -0.109838 -0.019207 -0.014157 -0.005450 -0.110149 0.087749 -0.018646 0.109308 0.037084 -0.037159 0.118803 0.100269 -0.022492 -0.104321 -0.049171 0.040627 -0.108030 -0.010485 0.048997 0.078132 0.019956 -0.062726 0.089145 -0.074273 -0.049088 -0.033469 0.047551 0.073169 0.048245 -0.111332 -0.044444 -0.104567 0.013674 0.047117 -0.092401 0.000433 0.090268 -0.102797 0.054336 0.112742 
it's 0.107422 -0.098969 -0.106573 0.009591 -0.055480 0.109159 -0.063741 0.007111 0.023208 -0.084435 0.036878 0.005791 0.109554 -0.037368 0.109880 -0.035214 0.029038 0.001577 -0.108372 -0.097337 -0.095804 0.080672 -0.109170 -0.102603 -0.083025 0.069953 -0.037328 0.086379 0.071088 -0.101130 0.021750 -0.046527 -0.045632 0.031573 0.042071 -0.007466 -0.073002 0.041045 0.057054 0.043895 -0.066722 0.034967 -0.078115 0.007299 -0.023077 -0.057210 0.026449 0.079547 -0.116589 -0.008982 0.107110 0.041560 0.012924 -0.009722 -0.040359 -0.028687 0.072117 0.048254 -0.085483 0.006197 0.064705 0.094393 -0.113666 0.105366 0.053812 0.117557 0.086745 0.049740 -0.075671 -0.071628 0.073880 -0.082702 0.095847 0.109811 -0.059433 0.083072 0.096790 0.116034 0.076694 0.030928 -0.009718 -0.064100 -0.019023 0.017076 -0.101141 0.092971 -0.075519 -0.118152 0.004467 -0.018004 0.000036 0.000279 0.073176 0.007713 -0.115407 0.093878 -0.069536 -0.078663 0.027450 -0.056434 -0.063487 0.008786 -0.013265 0.102610 0.035624 -0.097548 0.092924 -0.004536 -0.006135 0.007075 0.022968 0.056572 0.112005 0.073869 -0.011480 0.066856 0.037292 -0.086539 0.022997 0.104292 -0.048330 0.108825 -0.018414 0.068625 0.096500 0.114119 0.016528 -0.080991 0.059614 -0.081796 0.101830 -0.088344 -0.036450 0.044642 0.033267 -0.113104 -0.009747 -0.111820 -0.096333 -0.017881 -0.094208 0.091202 0.102918 -0.081165 0.010937 -0.070366 -0.107908 -0.046745 -0.047068 -0.072962 0.017543 -0.074289 -0.086274 -0.046549 0.096812 -0.026409 -0.102969 -0.061678 0.044493 0.056050 -0.034028 0.108158 0.072241 -0.045991 0.005439 0.035939 -0.024172 -0.016909 -0.040265 0.066994 0.085730 0.043039 0.070217 -0.106874 0.078898 0.093008 -0.075279 -0.021514 -0.070660 -0.086082 -0.116574 -0.103944 -0.091880 0.059038 -0.109365 -0.008837 0.108067 -0.047180 -0.049940 -0.044388 -0.031511 0.029709 -0.112818 0.015908 -0.061319 0.070627 0.062182 -0.017322 0.052065 -0.084095 
do -0.058583 -0.038079 -0.065711 -0.066774 0.010619 -0.131734 -0.053964 0.118932 0.100210 -0.025391 0.110273 -0.046499 0.076870 0.051580 -0.068712 0.035612 -0.122143 -0.005396 0.006681 0.010222 0.013232 -0.069732 0.029647 0.079985 0.065278 0.114703 -0.065747 0.031474 -0.097619 -0.122198 0.017969 -0.078708 -0.070048 0.062506 -0.107792 -0.106004 -0.031315 0.090514 -0.040253 -0.049489 0.040553 -0.058426 -0.071788 0.046937 0.025679 -0.057465 0.093508 0.071109 -0.115079 -0.082995 0.057357 -0.112351 0.106669 0.095673 -0.023220 -0.036127 0.010295 -0.081393 0.075141 0.049418 -0.025069 -0.010607 -0.110955 0.004983 -0.040527 0.101940 0.003705 -0.039835 -0.063447 -0.018324 0.105706 0.116222 -0.012802 0.095024 -0.123901 0.004038 0.005038 -0.005261 -0.103829 -0.053839 -0.101937 0.081971 -0.006070 0.112743 -0.034045 -0.030477 0.063437 -0.085435 -0.022702 -0.050590 0.100372 -0.096206 0.101573 0.032855 -0.111005 -0.078519 -0.002954 0.104243 0.018781 0.077010 -0.058494 0.084158 -0.107715 0.114060 -0.032926 -0.030846 -0.012097 0.027963 -0.014018 0.050845 0.100885 -0.072133 -0.051124 -0.074432 0.057000 -0.106058 0.084444 0.050882 0.053160 -0.052749 -0.037210 -0.090538 0.020750 0.080299 -0.048429 0.027560 0.040695 -0.098249 0.036591 0.062221 -0.097847 0.035054 -0.079371 -0.121908 0.072269 -0.074902 -0.049203 0.023178 -0.007223 0.124980 -0.007083 0.021747 -0.053415 -0.057558 0.015808 -0.011562 0.036728 0.005743 -0.044985 0.088114 -0.082019 0.054804 -0.052540 0.058763 0.093832 0.097748 0.104792 -0.003601 0.074547 -0.023513 0.095187 -0.015809 -0.055808 0.053792 -0.062543 -0.092781 -0.114783 0.088290 -0.045584 0.032664 0.116020 0.054437 0.016716 -0.043420 -0.086436 0.023668 0.080153 -0.007994 -0.110348 -0.033332 0.111208 0.068813 -0.048923 0.010487 -0.048764 -0.056246 0.038918 -0.055245 0.010915 -0.091529 -0.019490 -0.133402 -0.091595 0.081670 0.105765 -0.077818 -0.037277 0.114119 0.092554 0.068073 
about -0.026009 0.024079 -0.110121 0.056038 0.051884 0.097852 0.034303 -0.018182 -0.095496 -0.043138 -0.113436 -0.014763 0.024919 0.017734 0.092622 0.024251 -0.011138 0.024378 -0.108150 0.117971 -0.077535 0.026483 0.052519 0.102040 0.013020 -0.109729 -0.063687 0.117881 0.019723 0.032366 -0.055430 -0.121173 0.007555 -0.047946 0.050533 -0.106765 0.102648 -0.056352 0.043978 -0.003251 0.003046 0.117993 0.020462 0.086169 -0.042806 -0.086781 -0.107926 0.119449 0.030070 0.051731 0.121304 0.115701 0.103186 0.093970 0.008682 -0.089431 0.119206 -0.093843 -0.105612 -0.109901 0.081954 -0.095082 -0.064866 0.012247 0.056408 0.078785 0.104164 0.051500 -0.075922 -0.011799 -0.053370 0.088124 0.116877 -0.011366 0.047338 0.018921 -0.095243 0.007462 0.073750 0.046468 0.086568 0.033217 -0.000888 -0.054747 0.054572 0.115589 0.102447 0.040167 -0.003942 0.120800 -0.009936 -0.016614 -0.085150 -0.023773 0.063299 -0.022512 0.120550 -0.084974 0.050772 0.041586 0.005420 -0.013113 -0.013117 0.011321 0.001374 0.058032 -0.032810 0.028118 0.112234 0.055837 -0.096221 0.049932 -0.086269 -0.031164 0.014520 0.095873 0.021246 0.091342 0.089188 0.001586 -0.111801 0.044952 -0.021284 -0.091506 0.007659 0.001669 0.084440 0.019175 -0.044643 -0.049977 -0.109643 0.108117 0.102051 -0.060294 -0.079886 0.010963 -0.098841 0.081562 0.024643 0.113760 0.090375 0.058345 0.116034 -0.114783 0.000806 0.103212 -0.077094 0.078315 0.003210 0.021228 -0.031093 0.039451 0.040253 -0.076762 0.104970 -0.089953 0.115757 -0.018757 -0.001441 -0.107318 0.050077 -0.060846 0.112167 0.006469 -0.030653 0.091282 -0.009055 0.087049 0.060857 0.059226 -0.024927 0.031224 0.083806 0.014987 -0.023359 0.041571 0.103171 -0.052903 -0.031108 -0.107422 0.000463 -0.094754 -0.013774 -0.090864 -0.037028 0.000280 -0.120423 -0.011956 -0.005480 -0.085049 0.050279 0.087258 -0.084537 -0.117583 -0.017670 -0.018734 0.096557 -0.047633 -0.045247 -0.005043 
on -0.008498 -0.008689 0.061083 0.024327 0.089561 -0.071861 -0.024345 0.028793 -0.023037 -0.009932 -0.089193 0.027015 0.012588 -0.011594 -0.100162 0.096690 -0.095848 0.030448 0.035242 -0.098865 -0.107858 0.045897 -0.004863 0.110015 0.039455 0.023655 -0.009589 0.031466 -0.005391 0.011818 0.054363 -0.020027 -0.061105 0.117682 0.042700 0.092427 0.112801 0.034162 0.107114 0.091343 0.105647 -0.013054 -0.015081 -0.004780 0.039527 0.024132 -0.053799 -0.118246 0.095732 0.016226 0.083455 -0.112161 0.041175 -0.107067 0.074798 -0.027225 -0.061249 0.116728 -0.105668 -0.081725 -0.089446 0.025346 0.048928 0.038823 -0.098912 -0.037132 -0.079278 -0.002265 -0.085948 0.095787 -0.101810 -0.008899 0.012342 -0.060573 -0.044564 0.037421 0.081266 0.015460 -0.111030 -0.022398 0.065325 -0.042392 0.028074 -0.051461 -0.031781 -0.067641 0.050865 -0.090468 0.089634 -0.071384 -0.068555 0.115868 0.078086 -0.005524 -0.060100 -0.065119 0.114867 0.000444 -0.068063 -0.022961 -0.033110 0.113014 0.059247 -0.035145 -0.066163 0.084297 0.059146 -0.083170 -0.098984 -0.037609 -0.035069 -0.089341 0.049716 0.091379 0.105885 0.083235 -0.089937 -0.072612 -0.076663 -0.079716 0.018528 -0.067106 0.101752 -0.086118 0.023630 -0.080792 -0.035936 -0.095064 0.106658 -0.006377 0.076345 0.030339 0.034527 0.085843 0.116710 0.012606 0.106919 -0.052018 0.059262 0.107023 -0.027647 0.101712 -0.062702 -0.082288 0.048907 -0.056035 0.080102 0.055139 0.103493 0.114806 -0.070997 0.005033 -0.037778 -0.107226 -0.068324 0.022679 -0.016028 0.036330 -0.115366 -0.051013 0.113249 -0.057596 0.117158 -0.079152 0.116963 0.014275 0.070578 -0.102435 0.058012 0.004058 -0.044217 -0.102363 0.058489 -0.040152 0.042858 -0.001239 0.062897 -0.011060 -0.049275 0.101040 0.074936 0.021039 0.067861 -0.073010 -0.079286 0.045044 -0.105206 -0.031315 -0.040886 0.109054 -0.061603 0.067034 -0.102149 0.083574 0.054377 -0.114647 -0.022589 -0.101690 -0.079148 0.093308 
some 0.024862 0.016366 -0.015084 -0.001003 -0.080464 0.010789 0.046620 -0.086307 0.095360 -0.010902 -0.047282 -0.016486 0.063628 -0.121819 0.107257 -0.080144 -0.110241 -0.087232 -0.009252 -0.011766 -0.052986 -0.103390 -0.115900 0.023182 -0.068604 -0.058702 -0.116487 -0.079197 0.093030 -0.026279 -0.099516 -0.114957 0.004780 -0.017666 -0.091925 -0.064857 0.039909 0.017162 -0.059081 -0.094364 -0.105581 -0.056477 0.095217 -0.061099 0.064711 -0.065421 0.036188 -0.007392 -0.122627 -0.021213 -0.016828 0.085999 -0.048056 -0.120105 -0.029199 0.053606 -0.015573 -0.004228 0.095277 0.037808 -0.021330 0.007031 0.021818 -0.003724 0.000090 -0.097874 -0.030236 -0.051750 -0.070603 -0.022641 -0.026253 -0.025460 -0.044854 0.098047 -0.116306 -0.028751 0.081185 -0.055199 0.103650 -0.103954 -0.119621 -0.001372 0.114127 0.014449 -0.027733 0.063279 -0.050243 -0.085285 0.052851 0.004070 -0.046981 -0.014502 -0.120297 -0.005836 0.035407 -0.061806 0.010793 0.022017 -0.076292 0.038319 0.080554 -0.108621 -0.101169 0.120406 0.031266 -0.039882 0.056977 0.080558 0.113052 -0.091155 0.063365 0.122721 -0.101222 -0.027707 -0.108941 0.019860 0.007982 -0.045790 0.067243 0.099061 -0.109610 -0.033810 -0.050709 0.010150 0.042404 -0.064880 -0.058751 -0.042926 0.036887 0.095732 0.016181 -0.040927 0.000827 0.005498 -0.037556 0.096957 0.122777 0.022288 0.122514 0.020552 -0.085965 0.072989 -0.084665 -0.066195 -0.067431 -0.100219 0.052798 0.102233 0.059089 0.045241 0.076984 0.114093 -0.010402 -0.117866 0.084094 0.111763 -0.025779 0.076176 -0.014378 0.052915 0.078374 -0.123006 0.000909 -0.043212 -0.063508 0.073440 -0.081689 -0.095807 -0.016595 0.038281 0.080306 0.037507 -0.023314 -0.055320 -0.094165 0.068126 -0.018248 0.027369 0.106791 0.015291 -0.120688 0.090095 -0.021022 -0.040190 0.104198 -0.001823 0.111150 0.044061 -0.078570 -0.075221 -0.077750 -0.020559 -0.111023 0.104630 -0.122108 0.031465 -0.112451 0.095206 0.012709 0.034666 
value 0.103090 0.007898 -0.067928 -0.112014 0.053377 0.016064 0.034004 0.032315 0.045182 0.106092 0.051728 0.005179 -0.037838 0.086579 0.019022 -0.114609 -0.011787 0.066363 0.029709 0.052003 -0.113103 -0.025864 -0.002529 -0.016650 -0.037794 0.038831 -0.103962 -0.061613 0.097798 0.069046 -0.000623 -0.004072 -0.002815 -0.066575 -0.079069 0.054642 -0.095687 0.041045 0.054763 0.073246 -0.117017 -0.099736 -0.105780 0.070504 0.057043 0.040253 -0.046539 -0.114961 -0.110185 0.089467 0.086121 -0.104098 0.105626 -0.023401 -0.034312 0.061811 0.047704 -0.069419 0.046275 -0.078853 0.080088 0.000202 -0.118725 0.033106 -0.093707 0.054107 0.044897 0.056167 0.010453 0.020990 -0.029562 -0.050955 -0.024013 -0.110409 0.112011 -0.029302 -0.073257 -0.051109 0.023009 -0.040253 0.046619 0.067536 0.037449 0.055052 0.099176 -0.065974 0.069013 -0.024860 -0.091978 0.017486 0.091428 -0.021034 0.077391 -0.113678 -0.101719 -0.094847 0.070603 -0.110438 0.063779 -0.107440 -0.108588 -0.044101 0.021221 -0.100096 0.084002 0.074074 -0.015474 -0.054048 0.051648 0.052685 -0.012527 0.109515 -0.021756 0.000568 -0.116306 0.049071 0.107737 0.086608 0.067253 -0.036471 0.023544 0.059355 0.031497 0.111846 0.089705 -0.032403 0.050394 0.092450 0.009734 -0.079828 -0.022423 0.044204 0.027576 0.085963 -0.033081 -0.074177 -0.033161 -0.026670 -0.007850 -0.003735 -0.048628 0.111443 0.087044 0.094151 -0.075118 -0.111435 0.105238 0.118150 -0.108881 -0.046036 -0.039590 0.026978 -0.086114 0.056189 0.106674 0.079593 0.117032 0.003837 0.097424 0.114616 -0.036123 -0.094254 0.026484 0.030717 -0.061441 -0.069199 0.047726 0.026802 0.104879 0.067741 -0.105311 -0.118553 0.106301 -0.115027 0.081532 -0.086344 -0.113469 -0.028283 -0.018494 0.022096 -0.070295 0.016474 -0.011325 -0.074704 0.059432 0.007986 0.076768 -0.117790 -0.080821 -0.004959 0.039370 -0.028349 -0.066967 0.086476 -0.029694 0.092289 0.104747 -0.029207 0.023449 -0.037350 
has 0.018533 0.122359 -0.070693 0.085546 0.037663 0.098051 -0.030365 0.050578 0.108011 0.010273 -0.007436 0.001153 -0.017445 0.035469 -0.092090 -0.105863 -0.021106 -0.089068 -0.060829 0.000080 -0.024521 -0.061422 0.121635 -0.100563 -0.086507 -0.018828 0.051440 -0.011774 0.047802 -0.035783 -0.110653 -0.027627 -0.056824 -0.124051 0.109795 0.122427 -0.020049 0.018284 -0.004756 0.018843 0.099311 0.003044 -0.105338 0.057639 0.054235 0.006674 -0.031192 -0.055258 -0.088620 0.017411 -0.060706 -0.049300 0.051080 0.086227 0.092350 -0.093089 -0.087365 0.075889 0.024116 -0.041549 0.001853 -0.088104 -0.104649 0.062188 -0.116496 0.084374 -0.070448 -0.013214 -0.062077 -0.108536 -0.088934 0.065527 0.106296 -0.051237 -0.062085 -0.058397 -0.109343 -0.069172 -0.080082 0.073767 0.110492 0.076838 0.080572 -0.020260 -0.108578 -0.064118 -0.046723 -0.007195 -0.072538 0.123553 -0.112996 0.007095 -0.028412 0.063467 0.042511 -0.020520 0.090458 -0.005196 -0.109535 -0.070436 -0.088421 -0.031464 -0.031958 -0.060312 -0.121979 0.098373 0.122324 -0.096014 -0.006295 0.058872 0.012184 0.030269 0.074346 0.089214 0.112062 0.087200 -0.001608 -0.010572 -0.044640 -0.093824 -0.042028 0.124166 -0.108953 -0.116783 -0.042993 -0.082957 0.079882 -0.024809 0.062154 0.109125 -0.007467 -0.049238 -0.099082 -0.001444 -0.084768 -0.107731 -0.083627 -0.050012 -0.053998 -0.055212 0.112437 -0.111078 -0.005338 0.065190 0.053883 0.054538 0.033765 0.022136 0.121045 -0.004078 0.098599 -0.102034 0.004166 0.077727 0.036246 0.088701 -0.041890 -0.025490 0.007467 0.049322 0.049533 -0.074549 -0.015186 0.050379 -0.094058 -0.018475 0.003576 -0.076731 -0.029591 0.005495 -0.089164 0.064011 -0.004089 -0.077137 0.118296 -0.072412 0.049104 -0.027190 0.096623 0.035492 0.008439 -0.044636 -0.118893 -0.031824 0.066044 -0.015764 0.071658 0.121662 -0.025104 -0.015075 0.076207 -0.049070 0.052596 -0.054331 0.118250 -0.022527 -0.073350 -0.082559 -0.017867 0.032689 
like 0.037248 0.012948 0.015617 0.009941 -0.097400 -0.083769 -0.110273 0.110781 0.055702 0.088155 0.046127 -0.114797 -0.082131 0.110177 0.051714 0.108421 -0.099632 0.087842 -0.002523 -0.016616 0.006838 -0.048000 0.032635 -0.064086 0.066222 -0.075339 -0.101217 -0.015791 -0.034305 0.053139 0.094535 -0.028231 -0.116407 -0.022878 0.012091 0.033257 0.056484 0.093316 0.033602 -0.104291 0.080382 -0.075054 -0.099340 0.043180 0.075392 -0.014818 0.111879 0.086243 -0.013079 -0.086286 0.059462 -0.073370 0.051536 0.107248 -0.107373 -0.009834 0.098181 0.089008 0.051756 0.062117 0.014032 -0.093693 0.103747 -0.014014 -0.022576 -0.102379 -0.093341 -0.103566 -0.008004 -0.006202 0.075570 -0.013645 -0.113308 -0.049009 -0.113784 0.041019 0.014544 0.049443 0.070139 -0.096074 0.088031 -0.071159 0.019541 -0.057333 0.110792 -0.014107 -0.116358 -0.115722 -0.088230 -0.023248 0.102823 -0.020113 0.076927 -0.051269 0.011054 0.072993 0.085813 0.007375 -0.067750 0.065330 -0.057934 0.083535 0.015631 -0.083137 -0.059512 -0.066638 0.002794 0.111648 -0.031746 0.070029 -0.073508 0.027328 -0.029230 -0.099706 0.110643 0.031494 -0.048323 0.053793 0.005680 0.084110 -0.027154 0.053750 0.051984 -0.029553 -0.078548 -0.052521 0.049382 -0.000139 -0.024169 0.073455 0.088862 0.074088 -0.093305 -0.103332 0.086716 -0.079838 0.008843 0.104988 0.017465 0.022139 -0.063478 0.046940 -0.086133 -0.009408 0.100996 0.061001 0.099838 -0.039818 0.040049 0.078018 0.025811 -0.109125 0.048479 0.087075 -0.100762 0.033797 0.013463 -0.097446 -0.014196 -0.000480 0.113337 0.095861 -0.089360 -0.077293 -0.114119 -0.100943 0.055894 -0.003750 0.091755 0.000011 -0.069769 0.005420 -0.080652 -0.019822 0.032265 0.026646 0.012852 -0.054895 -0.012873 -0.038339 -0.089950 0.058570 -0.055965 0.003359 -0.094258 0.076725 0.110444 -0.062991 -0.112896 0.046884 0.053249 0.071969 0.032471 0.074592 0.096369 0.077045 0.112555 0.090700 -0.076835 -0.087800 
see -0.047804 0.091339 -0.023430 0.064380 -0.092866 0.104010 0.054604 -0.100500 -0.061884 0.017366 0.007483 0.043003 0.033174 -0.007227 -0.006245 -0.045430 0.011362 0.031101 -0.018033 -0.093970 0.006838 -0.089590 0.023027 -0.018410 -0.034956 0.008694 -0.057671 0.081537 -0.116737 0.003949 -0.088769 -0.108592 0.068491 -0.114066 -0.093658 -0.052678 -0.074921 -0.050315 -0.037286 0.091973 0.125025 0.053807 -0.084919 -0.060101 -0.080015 -0.118885 -0.065932 -0.021865 -0.111628 -0.089461 -0.009120 -0.043813 -0.093657 -0.033507 0.123771 -0.032718 -0.094885 -0.114891 -0.075768 -0.103597 -0.100988 0.124727 0.055767 -0.040755 -0.041422 -0.118972 -0.016051 -0.080206 -0.050555 -0.018967 0.012970 0.117270 0.074973 0.037635 -0.039106 -0.069446 0.079508 -0.038043 0.015071 0.082563 0.029488 0.021970 -0.106824 0.098548 0.070865 -0.020985 0.117321 0.027538 0.119101 -0.015729 0.043375 0.045889 -0.047016 -0.065518 0.082612 0.107066 0.118691 0.083985 -0.038375 -0.037762 0.006485 -0.027272 -0.051606 -0.034387 0.043722 -0.021863 -0.093984 0.000996 -0.001094 0.015701 -0.001920 0.030088 -0.058496 0.065790 -0.070790 0.046370 -0.002801 -0.049245 0.004491 -0.084532 0.096787 0.018822 0.054373 0.018188 -0.005522 -0.053587 0.007091 0.072590 0.032075 -0.013119 0.064396 0.090513 0.053661 -0.092230 0.032587 -0.112092 0.024419 0.115759 -0.005155 -0.111564 -0.063117 0.004803 0.116684 0.032333 0.127873 0.074261 0.116385 0.082903 -0.069094 0.123097 0.026812 -0.116552 0.084473 0.003985 -0.038294 0.081033 0.077640 -0.080689 0.068753 -0.128157 -0.037263 0.100899 0.069102 0.032607 -0.123421 0.067010 -0.002721 -0.099697 0.022821 -0.048979 -0.033624 0.111597 -0.108236 -0.050219 0.113757 0.109823 0.065721 0.030109 -0.069765 -0.046957 -0.106989 -0.009142 -0.051948 -0.061815 0.087357 -0.046816 -0.001824 -0.035252 -0.089893 0.097637 0.012698 -0.001817 -0.099148 -0.099209 -0.049625 0.063913 -0.032728 -0.086607 0.114088 -0.014486 
also 0.038270 0.007695 0.075323 -0.090664 0.111956 0.102131 0.012789 0.035464 0.013664 -0.056737 -0.104997 -0.105105 0.114617 0.070707 0.001338 0.057858 0.112479 0.105584 -0.062391 -0.068838 0.011078 -0.024820 0.105655 -0.037430 0.120402 -0.087054 -0.011175 -0.073712 0.076885 -0.031368 0.111425 -0.097317 0.068050 0.008293 0.079269 0.033356 0.097724 -0.040786 0.049266 0.031278 -0.013963 0.054846 -0.005374 -0.084416 0.104212 0.100008 -0.050208 0.011575 -0.095018 -0.039246 0.010442 -0.029013 -0.117966 0.054233 0.088553 -0.003345 0.100430 -0.120900 -0.087596 0.107714 -0.048331 -0.025029 0.006301 -0.105330 0.113137 -0.037033 -0.023941 -0.011014 0.098801 0.015304 -0.021415 0.103633 -0.026281 0.120503 -0.012909 0.012815 0.109116 0.083384 0.036021 0.041832 -0.042277 0.014931 -0.023882 0.087353 0.013230 0.087361 -0.035707 0.107281 0.095766 0.044261 -0.026244 0.120750 0.086692 -0.064615 0.038951 -0.036802 -0.071398 0.116646 0.010622 0.021157 0.115185 0.025470 0.045678 0.007598 -0.023291 -0.104694 0.117330 -0.058344 -0.115604 0.020836 0.015091 -0.096300 0.025773 0.023183 0.079568 0.035329 -0.085197 0.074564 -0.022192 0.049516 0.106410 -0.081433 -0.072049 -0.034604 -0.007908 0.094805 -0.035557 0.108267 0.004305 -0.020529 -0.061973 -0.115062 -0.098053 -0.010289 0.005613 -0.011896 -0.004993 0.114045 -0.104519 -0.052962 -0.080084 -0.087637 -0.112995 0.087039 0.109131 -0.014490 0.075861 0.059846 0.076616 0.015843 -0.115835 0.068293 -0.112569 -0.008121 0.019920 -0.113417 -0.087200 -0.036630 0.027709 0.084946 0.095317 0.041301 0.003207 0.070191 -0.051052 -0.091972 0.103323 0.045151 0.028613 0.041929 0.056337 0.028961 -0.029256 0.002896 -0.103308 0.101989 -0.037134 -0.098087 -0.035004 -0.084027 0.008805 -0.088803 -0.071705 -0.081321 -0.071309 0.019266 0.004731 -0.115690 0.093748 0.030942 -0.016183 -0.106765 -0.043293 0.057208 -0.038771 0.087054 0.011257 0.025350 0.093875 -0.066192 
i'll 0.070469 -0.074548 0.110057 -0.055119 0.027030 0.033301 0.044256 -0.039773 0.078933 0.016100 -0.008062 0.093144 -0.038718 0.003423 0.105771 0.084896 -0.015887 0.006565 -0.108936 -0.035052 0.044924 0.052825 0.075349 0.018990 0.075630 0.020828 0.050606 -0.053429 0.092262 0.094784 -0.027155 -0.095623 -0.100681 0.007810 0.049528 -0.070625 0.117154 0.047968 0.086803 0.111596 -0.034065 0.087114 -0.082206 0.091762 -0.076567 0.062816 -0.055628 0.085013 0.058348 -0.066637 -0.098060 0.105902 0.011827 0.020665 0.060642 -0.011749 -0.030606 -0.055463 0.040628 0.100663 -0.059754 0.120204 -0.000064 -0.056500 -0.019107 0.039900 -0.106425 -0.001627 -0.029812 -0.002085 0.015369 0.112215 0.100683 0.106969 -0.039645 -0.061398 -0.095643 0.047991 -0.094376 -0.073416 -0.094783 0.074422 0.051137 0.097715 -0.002062 -0.043504 -0.056910 0.018502 -0.122771 0.077855 -0.074706 0.098669 0.049516 0.097564 -0.086912 0.060102 0.073577 0.026838 0.120225 -0.103472 0.093622 -0.089857 0.087402 -0.047080 0.014731 0.088141 -0.079235 0.106055 -0.104565 0.017324 0.013386 0.097813 -0.001109 -0.086641 0.095128 -0.093753 -0.002260 0.083477 -0.031023 -0.105890 0.042652 -0.085312 -0.056596 -0.071398 -0.083774 0.026728 -0.029726 0.004113 -0.056295 -0.021833 -0.011374 0.108707 -0.035948 0.005867 0.047449 0.089541 -0.047198 0.011767 0.011057 0.092972 -0.096414 -0.071590 0.018118 0.072932 0.121381 -0.045703 0.038335 0.035190 -0.003532 -0.072397 0.105368 0.078399 -0.019062 -0.070103 0.098861 0.085577 0.064910 -0.073274 -0.082208 0.031472 0.063548 0.122079 0.000032 -0.078769 0.095727 0.071274 -0.088788 0.078776 -0.098104 -0.098318 -0.003439 -0.075065 -0.074501 0.031242 -0.090242 -0.115207 0.012223 -0.043626 0.108330 0.012462 0.032053 -0.038753 -0.073689 0.104244 -0.067793 -0.078701 -0.093832 0.070449 -0.023761 0.004351 -0.012019 -0.108878 -0.046601 -0.029827 -0.102642 0.038279 0.014269 0.079495 -0.092419 -0.099466 
basic 0.101437 -0.009611 0.106388 0.071581 -0.036877 0.096222 -0.068283 0.034467 -0.087787 -0.094260 0.081311 0.051595 0.073768 -0.046695 0.104183 -0.039997 -0.094153 0.106274 0.095078 -0.100086 -0.102665 0.050093 -0.033168 0.072188 0.112658 0.015940 -0.064538 0.010677 -0.050763 0.053083 0.035078 0.037517 0.077869 0.028879 0.117876 0.050381 0.017247 0.113868 0.096692 0.007583 0.074345 0.054134 -0.055004 -0.071929 -0.110867 -0.101055 -0.060555 -0.108568 -0.110141 0.000751 -0.067765 0.037887 0.080311 0.045000 0.078750 0.083202 0.039823 0.020322 0.109912 0.046325 -0.106544 -0.024016 0.059830 0.006843 0.069460 0.021891 0.023250 0.104978 0.086529 0.086037 -0.086995 0.056496 0.009090 -0.085496 -0.054886 -0.119657 -0.037794 0.041655 -0.088861 -0.101344 -0.110970 0.092299 -0.094175 0.009108 0.035900 -0.005570 0.084553 -0.072536 -0.017854 -0.020774 -0.064301 -0.084778 0.095382 0.095955 -0.021532 0.051966 0.076211 -0.030574 0.065056 -0.007176 -0.071577 0.012728 0.108298 -0.061344 -0.041007 -0.028057 0.081666 -0.091588 0.050437 -0.103661 0.019267 -0.018324 -0.096640 -0.104179 0.015848 0.056125 0.006647 -0.101618 -0.015759 0.090071 -0.060370 -0.107347 -0.102081 0.102462 0.069919 -0.072099 0.033538 -0.069664 0.098120 0.114031 0.000748 -0.043535 0.028024 -0.106059 -0.045071 -0.103387 -0.075944 -0.016096 0.112103 0.012276 -0.088720 -0.051906 0.021281 -0.102055 -0.067151 -0.103587 0.019756 -0.063609 -0.007446 -0.000596 0.020363 0.085926 -0.087728 0.003150 -0.003427 -0.119597 0.059615 -0.043083 -0.017506 -0.115497 -0.107358 -0.029390 0.072872 -0.004097 -0.099764 -0.027776 -0.062006 -0.069634 -0.095722 -0.049612 0.036425 -0.050611 0.029830 -0.045629 -0.082821 -0.109990 -0.022502 0.094075 -0.082451 -0.107547 -0.006380 0.054949 -0.049630 -0.084971 -0.099927 0.068168 -0.010888 -0.023312 0.064471 -0.059545 0.067883 -0.085533 -0.055130 0.024260 0.038883 0.111137 0.030156 0.005030 0.057491 0.039915 
