51 200 #File: 05_01_Select_Project_Join_Part_3.txt.bin
</s> 0.099131 0.109451 -0.094860 -0.081184 0.033845 0.074820 0.023301 0.005234 -0.089245 0.054943 -0.107890 0.030946 -0.018608 -0.023706 -0.082118 -0.046614 0.063880 0.074926 0.073532 0.039562 0.038259 -0.094176 -0.101436 0.123078 0.094142 0.076529 -0.014957 0.099452 -0.012259 0.018196 -0.003696 -0.073883 0.032499 -0.033123 -0.094740 0.117742 0.108457 -0.027122 -0.005600 0.012611 -0.090091 -0.099240 0.112803 0.001561 -0.063956 -0.075342 -0.076192 0.042026 0.004988 0.032964 -0.104353 -0.094305 -0.003220 0.028324 0.063147 -0.078509 0.101035 0.022957 0.027730 -0.015067 0.073963 -0.056659 -0.051946 0.053454 -0.018653 0.025527 0.044690 -0.101258 -0.049112 0.072160 0.104807 0.097381 -0.075459 -0.052199 -0.022515 0.049569 -0.093825 0.074246 0.069042 -0.039600 -0.038425 -0.055434 0.104731 0.096882 -0.029219 0.104387 0.119379 0.044959 0.123407 -0.077050 -0.037934 -0.052192 -0.071998 0.069711 0.039113 0.010525 -0.054327 0.037741 0.075769 0.004796 0.056458 -0.122655 0.106863 0.011885 -0.045348 -0.051595 -0.018525 -0.072689 -0.108215 -0.070263 0.105925 -0.043833 -0.066359 0.057392 -0.042196 0.117803 -0.039740 -0.113646 0.067259 -0.001840 -0.086403 0.024167 0.035712 -0.011923 0.045182 -0.098016 0.021820 0.044989 -0.074522 0.003518 -0.001504 -0.059417 -0.070153 -0.116246 0.000567 0.003783 0.000242 -0.097426 -0.122886 -0.117553 -0.107127 -0.013548 0.034457 0.029329 -0.078815 0.123781 -0.049815 -0.031543 -0.034782 0.117206 -0.093213 0.028754 -0.033074 0.078947 0.001005 0.105740 -0.069821 -0.064519 -0.103824 -0.090813 -0.079238 -0.077141 0.060532 -0.046236 0.066374 0.091388 0.033580 0.073075 0.061311 0.057966 -0.087937 -0.085024 -0.090560 -0.003269 0.102298 -0.067776 -0.075792 -0.103926 0.081876 -0.103495 -0.014345 0.053960 -0.114375 -0.110917 0.035734 0.087291 0.105608 0.053137 0.078316 -0.077458 -0.090159 0.098439 -0.068475 0.043424 0.014217 0.044339 -0.029280 0.004924 -0.041758 -0.027900 
the -0.106071 -0.075733 0.083556 0.025927 -0.055499 -0.039994 0.059273 -0.084468 -0.058945 0.113311 0.101105 -0.095265 0.021246 -0.055019 0.003405 0.073217 0.117486 0.049702 0.095039 0.077945 -0.006261 0.110584 0.059926 0.114033 -0.042767 0.110879 0.106498 -0.033984 -0.105754 0.115391 0.019980 -0.050561 -0.020564 -0.021321 -0.091376 -0.034484 -0.010226 -0.116016 -0.084167 -0.031624 -0.024761 0.042678 0.021423 -0.017588 0.071351 0.034057 0.011371 0.090308 -0.029218 -0.034675 -0.009826 -0.066977 -0.068637 0.004328 0.101986 -0.035319 -0.000798 -0.102674 0.087753 -0.038071 0.068695 -0.058885 -0.020425 0.002451 0.088518 0.000510 0.109692 -0.017912 0.047496 -0.005630 -0.091604 0.104072 0.024992 -0.073798 0.072745 -0.098182 -0.102971 0.077548 -0.082405 -0.063877 0.084644 0.079234 0.017182 0.107828 0.118429 0.096358 0.041179 -0.105694 0.055615 -0.116816 -0.030855 0.034824 0.025595 -0.038750 0.071299 -0.109802 -0.034830 -0.030496 -0.038229 0.077381 -0.113083 0.066048 0.031093 0.066498 0.089190 0.007142 0.018078 -0.110924 -0.025600 0.077332 -0.041303 0.102792 -0.029040 -0.090561 -0.065672 0.118610 0.081069 -0.095316 0.114379 -0.099342 -0.117398 0.059206 -0.018459 -0.058555 -0.005807 -0.060326 0.057035 0.092788 0.101262 -0.107088 -0.052143 0.002526 -0.021099 0.088011 0.054797 0.108772 -0.076037 0.041371 0.105540 -0.040814 0.071216 0.027400 -0.108938 0.103186 0.115963 -0.068950 -0.004519 -0.038878 0.059279 -0.093705 0.083587 -0.023142 -0.028719 -0.049484 -0.105926 -0.074082 -0.024644 0.109388 -0.061222 -0.112888 0.009054 0.014606 0.072199 -0.000603 0.083334 0.072392 -0.029366 -0.016099 0.020427 0.028889 0.079010 0.098018 -0.061394 -0.061239 -0.041695 -0.065442 0.031541 -0.092170 -0.056232 -0.119641 0.053060 0.106192 -0.052068 -0.110213 0.069406 0.039241 -0.063515 -0.014762 -0.026031 -0.002607 -0.042350 0.002406 -0.068709 0.089589 0.089427 0.079120 -0.033538 0.006941 0.020479 -0.064244 
to -0.114160 -0.023954 -0.045134 0.071842 0.063159 0.040466 -0.069500 0.080431 -0.037237 0.088456 0.030533 0.113331 0.060100 0.013102 -0.048681 0.112597 -0.052596 0.082661 0.122119 0.123486 -0.024894 0.080480 0.106088 -0.048187 0.105753 -0.120169 0.001125 -0.009525 0.103513 -0.097291 -0.039081 -0.045185 0.008639 0.110560 -0.042766 -0.115544 -0.033090 0.096999 0.026802 0.072541 -0.091745 -0.029683 0.012600 -0.061748 0.086962 -0.112431 0.074772 -0.059305 0.075618 0.075855 -0.037192 0.083769 0.010288 0.113538 -0.080522 -0.028949 0.064742 0.097384 0.055955 -0.028838 0.012647 -0.024219 0.048289 0.060256 -0.092344 -0.026439 0.104587 0.007089 0.119262 0.113785 0.024124 -0.102881 0.111358 0.047671 -0.105536 0.083779 -0.123332 -0.052041 0.103928 0.076591 -0.011814 0.032309 -0.071829 -0.106708 0.059030 0.106290 0.095487 0.060283 0.038138 0.046341 -0.000774 0.035280 -0.056856 0.019812 0.023696 -0.003026 0.069789 0.021077 -0.093297 -0.036197 0.053167 0.077667 -0.090627 0.021310 0.089945 0.097752 -0.101175 0.064108 -0.067418 -0.036763 0.028623 0.066608 -0.103029 -0.072220 0.025323 0.010167 0.112542 0.048490 -0.061264 0.000023 0.016111 -0.054648 0.075179 -0.074245 0.117192 0.016361 -0.101500 0.015539 -0.009870 0.014444 0.075752 0.007487 -0.005954 0.006377 -0.064874 -0.003062 0.076275 0.081975 0.055968 -0.121253 0.008449 -0.062542 0.086555 0.103579 0.080480 0.033760 0.026015 -0.034589 -0.060423 -0.050959 -0.094135 0.007341 0.018227 0.022170 0.049313 -0.094757 0.085260 -0.036653 -0.101738 0.091582 -0.063041 -0.019144 -0.089472 0.106880 -0.045061 -0.106141 0.087618 0.038114 0.090328 0.032598 0.088563 0.009580 0.088695 0.097204 0.034608 -0.013967 0.030641 0.097795 -0.079144 -0.017542 0.027671 0.053254 0.011516 0.086300 0.034818 0.076472 -0.080200 -0.049760 0.049825 0.110159 0.034822 0.019978 -0.113692 -0.102877 0.102582 0.062347 -0.070953 -0.036558 -0.090750 -0.081525 
we 0.106627 -0.065391 0.025153 -0.026242 -0.052976 -0.013090 -0.110390 -0.055510 -0.005780 0.106110 -0.044768 0.089158 -0.108578 0.100667 0.015456 0.005901 0.063025 0.079497 -0.076192 0.074047 0.032055 -0.028758 0.074637 0.011916 0.102724 0.004999 -0.039075 0.078653 -0.081760 -0.010772 0.097201 0.112763 -0.097003 0.032844 0.096629 0.012841 0.060751 0.064489 0.113192 -0.022061 -0.025380 0.072895 -0.119764 0.026836 0.008905 0.106887 -0.087709 -0.001962 0.107272 0.035015 0.062886 0.030504 0.033112 0.026286 0.005274 0.082922 0.090636 0.069433 -0.046469 -0.066293 -0.076948 -0.027086 -0.058543 -0.097909 -0.045244 0.086011 0.062945 -0.113328 -0.050863 0.096999 -0.008751 0.086502 -0.029958 -0.005388 -0.059556 0.039629 -0.098954 0.068039 -0.055668 0.065288 -0.073823 -0.054535 0.096805 0.062075 0.049191 0.036262 0.071116 -0.011322 0.093570 0.088798 0.081342 0.104239 -0.057113 -0.088468 -0.079082 0.006899 0.021537 0.094109 -0.075899 0.075983 0.092910 0.084441 0.004511 0.029815 -0.019512 0.111626 -0.104507 -0.112829 0.048575 -0.015877 0.111578 -0.032712 0.000469 0.051212 0.025564 -0.071604 0.080293 0.001170 0.031799 -0.030453 0.111527 0.063095 0.103993 0.109520 -0.022255 0.045446 0.035584 -0.053544 0.103340 0.057139 -0.079537 0.100043 0.011340 0.026814 -0.087386 0.048241 0.005956 -0.056794 -0.014253 0.050192 -0.029239 0.095503 -0.066700 -0.055598 0.089785 0.111890 0.089528 0.110195 -0.113947 -0.078991 -0.112678 0.025531 -0.095858 -0.007676 0.021485 -0.050449 0.027625 -0.106073 0.045090 -0.038874 -0.040198 -0.024900 0.052030 -0.041148 -0.055206 -0.075881 -0.044078 -0.098583 0.046447 -0.029917 -0.029158 0.047962 -0.092029 -0.078551 -0.109774 -0.003371 -0.046242 -0.112865 0.048333 -0.113621 -0.052800 0.036145 0.118415 -0.083737 -0.047856 0.116848 0.074182 0.105061 0.092528 -0.062295 -0.050563 0.050911 0.071652 0.088358 0.078437 -0.107225 -0.106729 0.016721 -0.105930 0.070071 
and 0.096273 -0.047449 0.091809 -0.115795 0.099895 -0.060784 -0.014285 -0.123754 0.068092 0.107270 -0.099762 -0.022612 0.024645 0.101525 0.009147 -0.119352 0.018818 -0.037773 0.023758 0.103998 -0.075982 -0.056684 -0.010241 -0.018633 -0.050010 -0.088707 -0.001245 -0.095878 0.097552 0.071013 -0.037114 0.066228 -0.072547 -0.114930 0.104593 0.027439 0.068731 -0.084696 -0.028858 0.087410 -0.036202 0.027105 -0.108526 -0.103941 0.118998 -0.111195 0.018476 -0.074105 0.089360 -0.007988 0.112253 -0.082001 0.031435 -0.105847 -0.074062 -0.029282 0.100094 -0.070953 0.059208 -0.021258 0.077704 0.058237 -0.062917 -0.087202 0.019485 0.028232 0.027458 0.009767 0.048567 0.088774 0.094564 -0.109443 0.120631 -0.101368 0.019158 -0.099389 -0.031554 0.112480 -0.059476 0.037395 -0.045534 -0.015184 0.084964 0.066146 -0.093338 0.042318 -0.003242 0.040952 0.019282 -0.084561 0.008120 -0.095748 0.075866 0.020346 0.046044 0.064247 0.128629 0.110032 0.067101 0.069657 0.048514 -0.025398 0.105214 -0.007629 0.047698 -0.012130 0.027743 -0.023315 0.097284 0.047697 -0.009545 0.006270 0.046580 -0.085180 -0.054454 0.045055 0.028442 -0.099450 -0.036369 -0.040378 -0.061559 0.095636 0.088877 -0.112943 0.081113 -0.064895 0.043803 0.060525 -0.000704 -0.101113 0.003381 -0.032140 0.059504 0.054811 0.022446 -0.052906 -0.022667 0.011011 -0.039755 -0.107618 0.003064 -0.063906 -0.065547 0.021069 -0.056631 0.059385 -0.038069 0.092448 -0.081380 -0.044549 0.057237 -0.052914 -0.103616 -0.035191 0.074966 -0.036919 0.112799 0.043333 -0.071779 0.109569 -0.111549 -0.097100 0.087303 -0.074282 0.089832 0.099682 0.062972 -0.035288 -0.058303 -0.000703 -0.000996 -0.118118 -0.091215 0.014811 0.008530 0.116969 0.079158 -0.081476 0.095828 -0.036735 0.073661 -0.018127 0.050254 -0.000476 0.097667 0.061665 -0.053471 0.110008 -0.095783 0.106439 -0.045484 0.019097 0.020185 0.096057 0.048096 -0.020677 -0.107905 0.085694 0.012100 0.059892 
that -0.099141 -0.063024 -0.060252 -0.057199 0.076345 0.057716 -0.003876 0.048772 -0.015580 -0.026978 -0.099578 -0.071088 0.006011 -0.056882 -0.057545 -0.103640 0.077006 0.104330 -0.035599 0.099448 -0.053359 -0.111024 -0.118003 -0.006892 -0.057220 0.001321 -0.087429 0.090740 -0.053895 0.035706 0.083313 -0.010717 -0.116088 0.067768 0.019587 0.079919 0.016052 0.053441 0.105361 0.064226 -0.086848 -0.026283 0.075474 -0.036853 -0.044798 0.107300 -0.039469 0.109659 0.062079 0.096529 0.117131 -0.096609 0.027960 0.099088 -0.061066 0.033557 -0.111205 0.098167 -0.087335 0.036563 0.022933 -0.074387 0.055905 0.000849 -0.110791 -0.068813 0.003297 0.050918 -0.029493 0.004598 0.111171 -0.086891 0.101994 -0.075121 -0.092140 0.072930 -0.097731 -0.013347 -0.115491 -0.086802 0.078073 0.044209 -0.086687 0.037802 0.110829 0.025828 -0.102406 -0.084556 0.075097 -0.077489 0.048649 0.067605 0.112239 0.023985 -0.071280 0.082097 -0.093282 -0.032940 0.107346 0.097350 -0.058435 -0.090476 0.008538 0.067804 0.059907 0.090661 0.101436 0.017084 -0.114671 0.062770 -0.061440 0.041830 0.088622 -0.062853 0.080615 0.005595 -0.030209 -0.093788 -0.012243 0.116962 0.033658 -0.058431 0.074021 -0.072883 -0.026710 0.079683 -0.065388 0.005967 -0.065377 -0.039818 0.105774 -0.018284 -0.069160 0.008046 0.046709 0.067153 0.026778 -0.046022 -0.030850 0.043365 0.119609 0.089564 -0.112258 -0.009899 -0.107814 0.040803 -0.081948 0.040985 0.074246 -0.020270 -0.035697 -0.086887 0.020103 -0.105043 0.002321 0.105810 0.094814 0.087319 0.063564 -0.011886 -0.024758 -0.079921 0.012776 -0.066119 -0.067195 0.069160 -0.024331 -0.100996 0.023862 0.023683 -0.045562 -0.102331 -0.118364 0.068531 -0.032419 0.016609 -0.054967 0.093383 -0.120418 -0.095631 -0.033984 0.019900 0.083165 0.015815 0.016449 0.065425 0.059051 -0.117313 -0.020452 0.047156 0.095597 0.061932 0.026844 0.073798 0.040389 -0.029639 -0.049669 0.074909 0.044823 0.042355 
is 0.016181 0.040223 0.082454 0.071101 -0.100449 0.007436 -0.044345 -0.126239 0.002647 0.109644 -0.017683 0.098054 0.111599 0.000317 0.099862 -0.038235 0.032160 -0.054736 0.016572 -0.018476 -0.121971 -0.032792 0.022607 -0.032290 0.098419 -0.065782 -0.033723 0.075223 -0.023114 0.045420 -0.000446 0.017268 0.033565 0.006787 0.105065 0.072468 -0.064983 -0.097741 0.067907 0.059852 0.086198 0.068976 -0.016427 -0.122712 0.032366 -0.056870 -0.000524 -0.012786 0.047245 0.014880 0.116207 -0.109292 0.054306 0.077798 0.085913 -0.066178 -0.042895 -0.009578 0.033445 0.006307 0.024619 -0.047192 0.098360 0.079772 0.074649 -0.052326 0.035366 -0.086095 -0.019662 -0.007743 0.079112 0.081423 -0.049561 -0.020476 0.117806 -0.021746 -0.046175 0.084249 0.048466 0.074250 0.100655 0.044222 0.095925 -0.102244 -0.006230 -0.095927 0.045711 -0.017022 0.062698 0.013604 -0.009471 0.029144 0.089651 0.069412 0.096940 -0.030199 0.126567 0.066382 0.080580 0.073406 0.048412 0.034520 -0.021742 -0.075557 0.064070 0.104120 -0.103617 -0.089710 -0.091323 -0.060526 -0.014166 0.018217 -0.096820 0.015025 -0.036889 -0.026554 -0.055685 -0.080672 -0.099567 0.118500 -0.069749 -0.007445 0.079527 -0.126346 -0.074199 -0.096853 -0.018107 -0.058172 -0.052286 -0.104760 0.023784 0.064252 -0.110228 0.032128 0.023911 0.093398 -0.057453 -0.073313 0.072925 -0.072524 0.119333 -0.015033 0.057025 0.011977 -0.016653 -0.045178 -0.011501 0.118749 -0.096879 -0.106351 -0.118515 0.081777 0.075065 -0.097974 0.073505 0.046082 0.021082 -0.067965 -0.003210 -0.030155 0.022215 -0.065216 0.115065 -0.119140 -0.014406 -0.003959 -0.048194 0.088244 0.093220 -0.047380 0.118023 0.011923 0.091232 -0.018161 0.019359 0.087740 0.068301 0.088949 -0.110338 0.087008 -0.116538 0.075071 0.001894 0.112401 -0.015562 0.035513 -0.047223 0.048211 0.118763 -0.090411 -0.089780 0.096860 0.103752 -0.071684 0.084006 0.029953 0.097293 -0.100668 0.028642 -0.075896 
join 0.000674 -0.073959 0.070779 -0.069799 0.088028 -0.060848 -0.109801 -0.006008 -0.078835 -0.058848 -0.061055 -0.089584 -0.116746 -0.048391 0.023943 -0.014170 -0.093667 0.114330 -0.023667 -0.109508 -0.007035 0.089623 -0.039386 0.049089 -0.026435 0.111642 -0.047271 0.002774 -0.020381 0.006962 -0.014727 0.072154 -0.069259 0.097983 -0.086255 -0.079140 0.098226 0.094214 -0.112604 -0.011111 0.040165 -0.018625 -0.119846 0.039292 -0.102391 0.035042 -0.072547 -0.064458 0.086525 -0.102456 -0.105739 0.037915 -0.105761 -0.024725 -0.091595 0.069481 0.106139 0.006097 -0.035817 0.046492 0.122642 0.056444 0.091907 0.058949 -0.120125 -0.008205 -0.098576 -0.008257 0.119847 -0.037807 0.026882 0.055733 -0.068425 -0.029722 -0.040855 0.010713 -0.083969 0.075348 -0.021722 -0.043010 0.047257 -0.114847 -0.061352 0.028772 0.051714 0.064713 -0.009413 -0.076031 0.005168 0.106738 0.109624 -0.067638 0.037831 0.074132 0.090803 0.121618 0.093682 0.076201 0.017277 -0.104641 -0.082111 0.024916 0.050458 -0.052839 0.081674 -0.069887 -0.074667 0.054537 -0.036145 0.066469 -0.080849 0.066797 0.006279 0.061212 -0.126939 0.093795 -0.025737 0.099147 -0.030926 0.110743 -0.093687 -0.081814 -0.099573 -0.115037 -0.036211 0.042213 -0.022641 0.017758 0.064687 0.105439 0.027672 0.120443 -0.030092 0.042079 -0.026074 -0.077329 -0.004051 0.075259 0.041901 -0.069269 0.027305 0.010817 -0.003843 -0.011408 -0.003049 -0.040400 -0.041550 -0.013280 -0.091186 0.095092 0.077491 0.121263 0.084838 -0.090643 0.078043 -0.074044 -0.085389 -0.034318 -0.003503 -0.022072 0.055779 0.102045 -0.062344 -0.076073 0.041361 0.020839 0.030205 -0.031200 -0.064616 -0.063383 0.035604 -0.115191 0.097130 -0.094687 -0.036031 -0.002689 -0.003138 0.054030 -0.071860 -0.051895 0.109076 0.049333 0.083802 -0.040106 0.027988 -0.122871 -0.099997 0.041176 0.113066 0.087111 -0.088943 0.031023 0.054703 0.050454 -0.028087 0.061974 -0.121212 -0.056352 -0.012856 0.098858 
of -0.118803 -0.007220 -0.071885 -0.085979 -0.057623 0.008146 0.078078 0.078386 0.007586 0.098663 0.044310 0.001174 0.080619 -0.050500 -0.017669 -0.116576 -0.016802 0.034801 0.108349 -0.013139 0.083257 -0.081645 -0.029019 -0.094381 0.081138 -0.047077 -0.092184 0.022807 -0.019366 0.066436 0.074374 0.053938 0.088991 0.004753 -0.041421 0.017977 0.045859 0.059946 0.080093 -0.005419 0.037102 0.099255 0.048222 -0.118666 0.066513 0.050611 0.018484 -0.120725 -0.044184 -0.097366 -0.035672 0.007368 0.072944 -0.052604 -0.080108 0.102508 0.118240 0.052137 -0.019996 0.062280 0.095496 -0.097974 0.057423 0.087720 0.069195 -0.028793 -0.117165 -0.044966 -0.078249 0.066228 -0.024100 -0.013361 0.081790 0.054330 -0.054075 0.080119 0.067580 0.106205 -0.051571 -0.049011 -0.056393 -0.032290 -0.043140 0.103737 0.077804 -0.069081 0.005356 -0.110264 -0.072248 0.105834 -0.054015 -0.065147 -0.017232 -0.065139 -0.065736 -0.045396 0.064572 -0.107857 -0.056356 -0.032045 0.055579 0.026993 0.008260 0.054560 -0.101111 -0.036113 -0.019818 0.112005 0.083820 0.116280 0.014928 0.098566 -0.053430 -0.012732 0.085946 0.033209 0.097837 0.111687 -0.015387 -0.004412 -0.004801 0.114013 0.048518 -0.116710 -0.114787 -0.077823 -0.052341 -0.102648 0.075122 0.010324 -0.101756 0.056738 -0.038183 -0.057760 -0.065587 -0.044418 -0.026078 0.070688 -0.091769 -0.023007 0.115232 0.080838 -0.024781 0.079245 -0.035294 -0.038691 0.108823 0.038543 -0.109720 0.004175 0.100422 -0.065458 0.077819 0.076674 0.044844 -0.092410 0.045592 0.106738 0.097607 -0.084038 0.100844 0.082986 -0.010602 -0.021377 -0.116773 0.054730 -0.002882 -0.067532 0.064128 -0.110790 -0.027167 -0.082157 -0.080945 -0.000122 0.072062 -0.106975 -0.001985 -0.110168 0.025493 0.119740 -0.059342 0.093906 0.110024 -0.050641 -0.067151 -0.006182 -0.065039 0.007753 -0.021618 0.003019 -0.101415 0.010435 -0.101022 0.110131 -0.025656 -0.023629 0.062572 -0.121059 -0.046385 -0.014784 
natural -0.073266 -0.095040 -0.068784 -0.065453 -0.019191 0.116179 0.062708 0.025434 0.046503 0.015601 0.078727 0.034044 0.006209 -0.104657 0.013419 0.040045 0.045821 0.108221 -0.038374 -0.058992 -0.073667 0.096559 0.078890 -0.062000 -0.044962 0.091772 0.095858 0.049989 0.014330 -0.099619 0.046673 0.113845 0.047303 0.118002 0.026178 0.027138 0.057751 -0.055843 -0.052883 -0.009066 0.110166 0.095862 0.025734 0.024204 0.086945 -0.105961 0.053372 -0.036185 -0.068821 -0.065697 -0.117924 -0.049863 -0.110537 -0.098226 -0.089812 -0.058562 0.026289 0.027871 0.111152 -0.043313 -0.018746 0.119113 0.033514 0.075552 -0.059751 0.042720 0.014916 -0.047196 -0.092932 -0.030591 -0.031898 0.032310 -0.053794 -0.112200 0.109314 0.090238 -0.059944 0.090008 -0.012900 -0.036541 0.074511 -0.042342 -0.060900 0.035140 0.110566 -0.095736 0.120858 0.020751 0.112715 -0.081554 0.020221 -0.060740 -0.036648 0.049522 -0.085870 0.113134 0.091168 -0.078086 -0.102571 -0.045654 0.014360 -0.050863 -0.117139 -0.093239 0.040219 0.119810 0.086670 -0.010651 0.051141 -0.002345 0.057402 0.038978 -0.009781 -0.064512 -0.110100 -0.046781 0.104046 0.104027 -0.017494 -0.066861 -0.028483 0.006294 0.065864 -0.002293 -0.039375 -0.065594 -0.068680 -0.016209 0.014464 -0.001619 -0.083484 0.031761 -0.105972 -0.116661 -0.065805 0.099885 -0.093391 0.063497 -0.042198 -0.035666 -0.065397 0.102575 0.021481 -0.052427 -0.078898 0.110592 -0.022725 -0.052827 0.112700 0.015468 -0.019272 -0.078598 0.088293 0.048618 0.005283 -0.110770 -0.026927 0.016564 0.085085 -0.069676 -0.047066 0.029324 0.072177 -0.057747 0.031669 0.014816 -0.120695 -0.116713 0.030972 -0.038341 -0.034492 0.015193 0.076038 -0.080828 -0.120666 -0.067957 0.109959 -0.002627 -0.041575 0.017001 -0.106269 -0.118617 0.115523 -0.014460 -0.022555 0.045417 0.081276 0.099426 0.000697 0.053197 -0.110174 -0.047270 -0.093421 0.014741 -0.121184 -0.071381 -0.058314 0.100767 -0.039012 -0.014638 
so -0.075862 0.055664 0.110831 -0.096376 -0.005697 -0.070204 0.117828 -0.018013 0.070427 0.099721 0.071265 -0.076394 -0.063298 -0.060919 -0.089491 -0.123429 -0.116880 0.004824 0.059265 -0.080752 0.027395 0.050519 0.071092 0.057320 0.103894 -0.051488 0.056177 -0.009407 0.116880 -0.087851 -0.073103 -0.090959 0.074016 0.098643 -0.098373 0.097019 -0.076254 -0.102479 0.008029 -0.100977 0.042635 0.120721 0.079248 -0.113537 -0.003008 -0.039628 0.061831 0.089354 0.043641 -0.094703 -0.068776 0.019135 0.101194 -0.007260 -0.087002 -0.017874 0.102241 0.075196 -0.089361 -0.123260 0.055998 -0.113182 0.051769 -0.069762 0.004787 0.115847 0.089322 -0.101928 0.109012 0.068869 0.039514 0.102391 0.045024 0.099456 -0.002829 -0.054108 0.036613 -0.063387 -0.117251 -0.095953 -0.011006 0.012359 -0.080250 -0.022497 -0.053197 -0.098959 -0.112576 -0.021744 0.105057 -0.061808 0.118828 0.092430 0.014453 0.081865 0.059960 0.018525 -0.022354 0.077069 -0.085609 -0.000103 0.072574 -0.060042 -0.051733 -0.103379 0.056183 0.075840 0.026648 0.078884 -0.107750 0.101036 0.074381 0.055683 -0.085145 0.043671 0.037033 0.009854 0.030906 -0.018558 -0.002307 0.070082 0.101843 -0.009281 -0.012251 -0.114772 -0.017960 -0.013142 -0.034633 -0.046298 -0.083973 -0.030287 0.116396 -0.040182 0.036785 0.017324 0.002952 0.023501 0.066966 -0.036858 -0.011100 0.035835 0.002956 -0.017847 -0.073524 -0.004022 -0.094773 0.068517 0.075151 0.112642 -0.125845 0.030549 -0.011380 -0.009592 -0.098032 -0.033638 -0.007850 0.019758 -0.010794 0.083190 -0.014978 -0.064624 -0.110679 0.088650 -0.018369 -0.035942 0.032339 0.055946 -0.050428 -0.025300 0.115342 0.063781 0.044817 0.082909 0.113312 0.051760 -0.100647 0.021042 0.120676 0.048216 -0.005622 0.027872 -0.002905 0.055759 -0.111716 -0.020341 -0.043780 -0.055933 -0.116568 -0.020204 -0.027831 -0.090380 -0.087965 0.011725 0.097230 -0.083822 -0.038515 0.076533 0.026940 0.033440 0.037285 0.003716 
a -0.084042 0.113319 0.008423 -0.039790 -0.000160 0.094405 0.026725 -0.109839 0.110046 -0.037030 0.065761 0.052377 -0.107527 0.006024 -0.079477 0.048023 0.006872 0.093109 -0.077249 0.015015 -0.020137 -0.085152 -0.013286 -0.087649 0.113366 -0.062831 0.086320 -0.002777 0.053276 -0.030027 0.016562 0.109351 -0.017764 -0.117199 0.109180 -0.090459 -0.096025 0.081941 0.039888 0.072455 -0.118142 0.079102 0.021149 -0.098933 0.038890 -0.077260 0.086510 -0.049239 0.080606 -0.040496 0.090601 -0.117658 0.010731 0.118575 -0.052308 -0.106636 -0.107367 -0.088341 0.108802 0.002464 0.087871 0.102879 -0.108190 0.049363 0.063424 0.084664 0.105569 -0.066580 0.061575 0.024749 -0.051318 0.090743 -0.092865 -0.088050 0.110723 0.062860 -0.038337 0.033281 -0.090426 -0.071953 -0.069307 0.019726 -0.084471 0.062773 0.056508 0.039018 0.042858 -0.051074 -0.074636 0.079976 0.026915 0.082255 -0.101179 -0.047499 -0.098755 0.063923 -0.079033 0.003243 -0.002410 0.031847 -0.004470 -0.077173 -0.008336 -0.054976 -0.052679 -0.061375 0.095930 0.060647 -0.100655 0.099093 0.105380 -0.020119 0.034246 0.035218 0.113199 0.079197 0.117195 -0.085268 0.033656 0.079037 -0.026995 -0.034992 0.079215 -0.001962 -0.036765 -0.004051 0.044867 -0.085523 0.031974 0.115648 0.023799 -0.033732 -0.055606 0.014731 -0.069722 0.112409 0.002417 -0.079430 -0.023231 -0.105573 0.090492 -0.118379 -0.041737 0.106264 -0.085847 0.005981 -0.032054 -0.068386 -0.045763 -0.015729 -0.079914 0.045140 0.035556 0.043866 0.027148 -0.011630 0.042560 -0.005333 0.084122 0.078134 -0.080664 -0.055231 -0.054361 -0.024763 -0.091832 0.061907 0.003079 0.115787 0.072423 0.096342 -0.008205 0.041311 0.057993 0.096531 -0.054666 0.068641 0.047525 -0.067985 -0.043120 0.097135 0.044744 0.009082 -0.059297 0.085793 0.113017 0.077996 0.109267 0.053250 -0.101762 -0.051343 0.019008 0.077785 0.060163 -0.032284 0.001667 0.058754 -0.113148 0.064353 -0.028487 -0.044842 
it -0.087540 -0.010223 -0.102279 0.027500 0.040954 0.027734 0.072103 0.104814 -0.045946 0.060211 0.080782 0.102202 -0.089667 -0.013654 0.102922 -0.042952 -0.032744 0.073021 0.092293 -0.041337 0.001504 0.101461 0.090458 -0.086981 -0.029393 -0.060630 -0.052327 -0.019683 0.125462 0.027937 0.073578 0.108197 0.017420 0.074344 -0.055807 0.084850 0.040002 -0.092799 0.088229 -0.020581 -0.124238 -0.113725 0.102979 -0.073492 0.036545 -0.081010 -0.099553 -0.089708 0.074620 0.013487 -0.033359 -0.075684 -0.109123 -0.039949 0.057794 0.062184 -0.095380 0.115856 0.041646 -0.034694 -0.114364 -0.072914 0.075463 0.099652 -0.108868 0.124699 -0.110588 -0.026801 0.050815 -0.004979 -0.001349 -0.073866 0.065532 -0.088900 0.015921 0.086771 -0.080156 0.055855 0.095777 -0.063784 -0.037923 -0.087758 -0.031304 -0.017820 0.038638 0.022647 -0.088440 0.043697 0.102282 0.004638 0.021641 0.041354 -0.087740 0.041065 -0.030364 -0.083445 0.033295 0.120612 -0.035533 -0.058162 0.082633 0.031045 0.042709 -0.055067 0.019364 -0.094154 0.062782 0.072903 0.081027 -0.104259 -0.069570 0.050921 0.094278 0.000137 0.108848 0.113452 -0.051538 0.030920 -0.091203 0.111703 0.053661 0.096921 -0.107026 -0.064302 -0.049974 0.105776 -0.001068 0.065364 -0.069814 0.061613 -0.067975 -0.012868 0.125032 0.022465 -0.014994 0.048126 -0.017859 0.086866 0.013249 -0.110510 0.008922 -0.061614 -0.094984 -0.024089 0.010868 0.055561 -0.096395 0.072221 0.118953 -0.000616 0.036653 0.001652 0.035227 -0.124822 -0.095158 -0.080449 0.013492 -0.122602 -0.085225 0.028795 0.095613 -0.031093 0.047179 0.103749 -0.065326 -0.027459 0.061292 -0.025840 -0.027631 -0.017877 0.089021 0.033605 -0.056223 -0.072865 0.016432 -0.012020 -0.062865 0.062734 0.077865 0.098604 0.060473 -0.074285 0.062805 -0.033158 0.028916 -0.122739 0.055417 -0.025395 0.076595 0.096986 -0.027545 0.086219 0.021632 0.076340 0.039654 0.060464 0.010069 0.115908 0.037786 -0.016037 
now -0.034767 0.071372 0.060451 0.004080 -0.098831 -0.120190 0.026461 0.069275 0.116219 0.023933 -0.089716 -0.030195 0.020661 0.043597 -0.018764 0.015952 0.036181 0.071509 0.097949 0.111190 -0.086427 0.025521 -0.069284 -0.033329 -0.027561 -0.108682 -0.065805 0.082857 0.096050 -0.030875 -0.098915 0.064715 -0.020170 0.114779 -0.074241 0.050544 0.111306 0.027589 -0.074419 -0.007406 0.075465 -0.067569 0.109703 -0.086717 -0.001192 0.118508 0.033922 -0.103894 0.050571 -0.027346 0.034519 0.066695 0.017442 -0.093888 0.018844 -0.079358 -0.058711 -0.101607 -0.032901 -0.057168 -0.040456 0.014025 -0.098226 -0.015881 0.012274 0.120178 -0.062663 -0.068387 0.099255 -0.110839 -0.037832 -0.007056 0.049605 0.039421 -0.026845 -0.066823 -0.018388 -0.091613 -0.016449 0.088256 0.095170 0.073160 0.105798 0.114375 -0.106074 -0.018096 0.002088 -0.049308 -0.078384 0.107000 -0.111747 -0.116096 0.080716 0.020102 0.042695 -0.027159 0.056769 0.071785 0.071603 -0.111581 0.097476 -0.056080 -0.107466 0.058649 0.041411 0.110218 -0.041256 0.025074 -0.012663 -0.107012 0.069497 0.126639 -0.099286 -0.119370 0.064936 -0.011966 0.021970 0.012840 0.121028 0.061909 -0.085673 0.034804 -0.054630 -0.105121 -0.028867 -0.015759 0.074725 0.045309 0.117866 -0.023655 0.103735 -0.078625 0.115078 -0.045770 -0.038192 -0.031597 0.038986 -0.113911 0.095068 -0.039247 0.013082 0.069539 0.046751 -0.010103 -0.027591 -0.113491 -0.066897 -0.065418 -0.080545 -0.003064 -0.107614 0.007868 -0.072108 -0.093630 -0.098505 -0.016743 0.118276 -0.097332 -0.000713 -0.058849 -0.051255 0.087904 0.036022 0.024654 -0.089679 -0.079976 -0.082346 -0.052559 0.061746 0.101822 0.111327 -0.032379 0.045445 -0.039693 -0.080392 -0.077765 0.049889 0.093190 -0.077356 -0.045767 0.077902 -0.051660 0.038108 0.023906 -0.046380 -0.017969 -0.008244 -0.094150 0.039396 0.012942 0.058986 -0.077378 0.033844 -0.089257 0.098557 -0.028693 -0.043012 0.078485 0.016836 0.001864 
have 0.092951 0.030214 0.029320 0.047726 0.096289 0.052243 -0.068334 -0.062092 -0.093812 0.012798 0.060205 0.057130 0.012535 0.082771 0.084548 0.120577 -0.006201 0.007725 -0.021888 -0.095811 -0.024699 0.080072 0.018120 -0.026194 -0.099924 -0.076148 0.056467 -0.016151 0.014968 -0.046999 0.005808 -0.107456 -0.101555 -0.086918 0.082605 -0.038076 -0.081129 0.096508 0.077991 0.028693 0.019285 -0.115726 0.086906 -0.009683 -0.039563 -0.066639 0.022007 0.048067 0.049932 -0.010670 0.099753 -0.022114 -0.072999 0.101552 0.111279 0.102568 0.020768 -0.105935 -0.091520 0.076534 0.091987 0.023850 -0.109900 0.101055 -0.037827 -0.006575 0.029557 -0.047926 -0.000312 0.095203 0.117984 -0.047614 -0.095473 -0.046776 0.007276 -0.000545 -0.076471 -0.018576 0.096178 0.051508 0.121255 -0.074635 0.115062 -0.115511 -0.106109 0.077461 0.098106 0.064236 -0.086395 0.061751 -0.102794 0.002125 -0.058847 0.049127 -0.088894 -0.100573 0.041091 0.028196 0.113222 0.018176 0.095696 0.048326 0.051645 -0.047970 0.048004 -0.023397 0.064358 0.084544 -0.098188 -0.016084 0.064017 -0.112143 -0.035276 0.058873 0.024039 0.110089 0.119015 0.007799 -0.021398 0.101856 0.064677 -0.059178 0.022644 0.003668 0.048553 0.028834 0.068824 0.016796 -0.107845 0.017397 0.090556 -0.082816 -0.036151 -0.044121 -0.121025 0.027625 -0.036374 -0.045589 0.015109 0.002540 -0.104715 -0.059163 -0.074475 0.043201 0.066428 -0.096234 0.069728 -0.074449 0.116286 -0.107433 -0.004191 -0.027618 -0.012105 0.017367 0.041751 0.081162 -0.071902 -0.037030 0.120209 -0.032928 0.001454 -0.038973 -0.038443 -0.107856 0.090237 0.060906 0.086061 -0.063873 -0.105561 -0.113352 0.102571 -0.003512 -0.096052 0.095232 -0.076255 0.031452 -0.059723 -0.053867 0.009086 0.060008 -0.114298 -0.025192 -0.093315 -0.081140 -0.073697 0.048341 -0.045474 -0.008437 0.065879 0.094580 0.065263 -0.006701 -0.117102 0.102130 -0.030729 -0.056945 -0.011230 0.120361 -0.056229 -0.079419 
college 0.086394 0.016928 0.086617 0.068698 -0.074712 -0.040346 0.060720 0.098986 0.074881 -0.059058 0.088121 0.028326 -0.089664 0.011878 -0.047319 -0.060754 -0.124280 0.034919 0.004152 -0.022853 -0.025037 -0.064600 -0.099358 0.098801 0.023364 -0.046962 0.117656 0.072352 -0.100901 -0.112586 -0.063959 -0.019676 0.046236 0.103998 -0.042944 -0.031880 -0.034309 0.025110 0.090316 -0.007487 -0.024224 -0.109532 0.056805 0.073150 -0.045331 0.002667 -0.108108 0.041052 0.094929 -0.027344 -0.054672 0.041620 -0.102528 -0.022723 -0.124779 0.031626 -0.067881 0.004740 -0.094430 0.030721 0.077045 0.106131 0.071742 0.121428 0.021798 -0.107597 -0.031032 -0.053862 0.021813 0.043408 0.009878 -0.035364 -0.107609 0.044345 -0.084544 -0.054937 0.014721 -0.053701 -0.027424 -0.030053 0.078350 0.114743 0.027977 -0.066818 0.087208 -0.028004 -0.008727 0.043047 0.108100 0.009283 0.086463 0.067685 0.019204 0.026185 0.097408 0.089622 0.013079 -0.114843 0.122353 0.002752 0.093655 0.014549 0.070913 0.015355 0.076232 -0.100444 -0.084422 -0.104427 0.090493 0.094281 -0.056775 -0.022562 0.077491 -0.041835 0.000591 -0.096660 0.041155 -0.080442 -0.002709 -0.118443 0.048293 -0.033330 -0.094185 -0.068261 -0.022919 -0.100920 0.013040 -0.115096 0.020079 0.082261 -0.085803 -0.113546 -0.070291 -0.061468 0.021913 -0.106837 0.024285 -0.040883 0.057174 -0.075322 -0.069524 -0.056403 0.055347 0.063525 0.092350 0.005937 0.114678 -0.047906 0.010822 0.071469 -0.106726 0.050170 0.004206 -0.123102 0.118147 -0.125611 -0.049322 -0.023675 0.070145 0.010289 0.042798 -0.019300 0.099020 0.100260 0.032989 0.066864 0.114386 0.101073 -0.011943 -0.028479 0.088735 0.032379 0.037686 -0.002736 0.057435 -0.023299 0.122929 0.006551 0.118730 0.079444 -0.003792 -0.075284 -0.069270 0.045872 -0.024162 -0.008524 -0.031062 -0.104366 -0.060006 0.006413 0.017216 -0.037237 0.081236 0.083489 -0.077698 -0.110353 -0.099519 -0.103468 0.096825 -0.115434 
we're -0.033943 -0.066140 0.010734 -0.034341 -0.095070 0.003946 -0.052833 -0.032976 -0.086062 -0.041831 0.013335 0.035440 -0.002810 -0.018501 0.114699 0.125693 -0.038503 0.061604 -0.040582 -0.004733 -0.057498 -0.011147 0.110620 -0.006451 -0.121450 -0.117553 -0.118135 0.009558 0.036817 -0.072643 -0.032185 -0.001923 -0.038953 0.111250 0.076629 -0.020339 0.049951 -0.038571 -0.017766 0.040627 -0.021194 0.123228 0.050457 0.069994 0.014788 -0.007583 -0.076308 0.022547 -0.035292 0.082799 0.099300 -0.081161 -0.035790 -0.078327 0.088141 0.108256 -0.048362 -0.108689 -0.007025 -0.046319 -0.068898 -0.086387 -0.017670 -0.063964 -0.027521 -0.023751 0.027432 0.075870 -0.051653 -0.130414 -0.097791 -0.066630 0.060115 -0.024105 -0.027513 -0.076312 0.048827 -0.045989 -0.119339 0.001610 -0.015639 0.054668 0.124091 -0.075381 0.002360 0.068235 -0.049429 0.042104 0.041168 0.113916 -0.011007 -0.019986 0.104896 0.113611 -0.118247 -0.043798 0.000353 0.054989 0.126211 -0.008779 0.126251 -0.008514 -0.029841 -0.091678 -0.105201 0.042304 0.042493 0.122658 0.099308 0.129346 -0.014395 0.062881 0.020456 -0.022788 0.033791 0.012608 0.056952 -0.097594 -0.039025 0.058160 -0.115927 0.024129 -0.130080 0.088555 0.032065 0.001216 -0.070849 0.058578 0.044669 0.084404 0.109898 -0.011219 0.057530 0.064061 -0.076982 -0.034517 0.008992 0.059388 -0.002593 -0.122297 -0.096836 -0.007711 -0.024542 -0.056707 0.072992 0.113498 0.091465 -0.080262 0.127985 -0.049682 0.119355 -0.106642 0.006487 -0.114984 -0.101179 0.016237 -0.024325 0.102564 0.124525 -0.019906 0.105426 0.064494 -0.021507 0.068549 0.005250 0.087310 0.023852 0.104852 -0.123441 0.027147 0.100296 -0.021977 -0.013471 0.068974 0.113286 -0.094086 -0.121097 -0.062608 0.034047 -0.090923 -0.047607 -0.051095 -0.100424 0.073831 -0.117725 -0.040354 0.075698 0.026128 -0.064274 -0.108481 -0.058260 -0.016181 -0.080442 -0.004741 -0.004937 -0.032542 -0.030587 0.061235 0.009594 0.063362 
same 0.021789 -0.050168 0.081211 -0.094507 0.079590 0.088808 -0.117121 -0.045409 -0.032890 -0.023021 0.114871 -0.017862 0.051911 -0.093878 0.083742 0.067708 0.034637 -0.013873 -0.115774 0.108991 -0.080922 -0.097519 -0.085800 0.064303 0.012167 -0.113668 -0.095376 -0.047407 -0.046079 -0.013059 -0.110400 0.095950 -0.069984 0.071682 -0.036139 -0.092967 -0.055759 0.068559 0.040254 0.071704 0.061014 -0.033797 0.092253 -0.118634 -0.079649 0.056392 -0.088553 -0.099377 -0.049557 -0.036017 0.077599 0.027165 -0.087435 0.102011 0.018525 -0.023206 0.113650 -0.025922 -0.049786 0.010972 -0.048802 0.114475 -0.093230 -0.033242 0.095917 -0.094455 -0.017074 -0.015642 0.066564 0.002838 0.091528 0.022088 -0.072441 -0.090044 -0.036465 0.098896 0.046463 -0.081326 0.118083 0.051840 -0.118593 -0.103632 -0.077644 0.021126 -0.078791 0.013555 0.016748 -0.034929 -0.012226 0.016352 -0.110297 -0.097378 -0.036368 -0.045979 0.060355 -0.086647 0.034459 -0.063549 -0.104110 -0.105046 -0.038470 -0.108354 0.036701 0.048258 0.051777 0.050752 -0.028768 -0.092819 -0.054782 -0.021999 -0.023898 0.036328 0.070043 0.025796 -0.096472 0.090873 -0.054989 -0.120373 -0.091128 0.029134 0.119570 0.013155 -0.034392 0.112573 -0.008778 -0.009388 0.107840 -0.064266 -0.011842 -0.078114 -0.054730 -0.118664 0.114168 -0.022503 0.118290 -0.092301 -0.051363 -0.096439 0.115344 0.033767 0.101645 -0.008145 -0.029463 0.096601 0.031321 0.109753 0.021115 -0.006110 -0.016031 -0.057258 -0.062590 -0.073532 0.024009 -0.035514 -0.064588 -0.086721 0.033971 -0.018269 0.049224 0.033900 -0.042985 0.104365 -0.111451 -0.056495 0.039447 0.017877 0.093778 0.085441 0.103170 -0.046586 -0.089160 -0.006376 0.030714 -0.039762 0.101386 -0.009854 0.007756 -0.094277 0.032601 -0.027306 0.038085 -0.039614 0.102363 -0.100413 -0.056396 0.112861 0.041631 0.032287 0.091876 -0.072622 -0.115492 -0.034663 -0.058971 -0.001143 -0.031758 0.081459 -0.020116 0.012785 -0.036835 0.096453 
going 0.029452 -0.040963 0.082759 0.028406 -0.024323 -0.113414 -0.112958 -0.039332 -0.000632 -0.098286 -0.060189 0.026481 0.104201 -0.065458 -0.078909 -0.049992 0.117318 -0.025964 0.040521 -0.014981 -0.075295 0.068008 0.095818 -0.026632 -0.058041 0.087733 -0.056454 0.051134 -0.062624 -0.036667 -0.030120 -0.057520 -0.026521 -0.080845 -0.086307 -0.098824 -0.063745 0.003013 0.043466 0.004457 0.005919 0.086182 -0.019618 -0.082360 -0.049234 0.098781 0.110616 0.071032 0.068701 0.029778 -0.062344 0.012258 0.010330 -0.073015 -0.034631 0.053936 -0.044134 -0.102940 0.050319 0.096763 -0.091013 0.105505 0.107915 0.100283 -0.067782 0.070522 0.112412 0.082885 -0.088455 0.075306 0.096910 -0.113579 0.027182 -0.008868 -0.082026 -0.117645 0.047424 -0.016496 -0.038222 0.030231 0.034796 0.041387 -0.032806 0.113054 0.110666 -0.022789 -0.032677 -0.027322 -0.015516 -0.102366 0.054112 -0.019434 -0.104690 -0.031840 -0.092413 0.096260 -0.094331 -0.057628 -0.027232 0.102768 -0.098454 0.103465 0.047374 0.077325 0.063156 0.087331 -0.012032 -0.079372 -0.076588 0.059474 -0.054658 0.062987 0.015602 0.008861 -0.106248 0.052025 -0.009669 -0.016698 0.101680 -0.035022 0.027814 0.089457 -0.045075 -0.062075 -0.103655 0.022064 0.075044 -0.069588 -0.106169 0.005470 -0.034473 -0.039174 -0.093742 0.087489 -0.105142 0.106403 0.113841 -0.095987 -0.045018 0.032458 0.049493 0.091311 0.061310 -0.066083 0.011120 -0.067800 -0.047288 0.064553 -0.115292 -0.054740 -0.102326 0.030834 0.085855 0.001764 -0.011860 -0.031158 -0.087909 0.031833 -0.095861 0.073503 -0.103296 0.024434 0.090689 -0.107559 -0.074318 0.027379 0.110127 -0.026345 -0.056145 -0.088057 0.054399 -0.017538 -0.045097 0.079013 0.074297 0.113787 0.021349 0.046788 -0.091307 -0.084745 0.029179 0.098465 0.061453 -0.065135 -0.076775 0.105318 -0.081624 0.073316 -0.057452 -0.002532 0.101019 0.054769 -0.085711 -0.000736 0.112871 -0.102387 -0.040183 -0.076865 -0.012966 -0.085535 
expression 0.022105 0.115508 0.055105 0.004583 0.115515 0.020836 -0.012426 -0.110587 0.048723 0.128809 -0.004007 0.076178 -0.049001 -0.031901 -0.114524 -0.096709 0.008507 -0.069823 -0.016136 0.021923 -0.018480 -0.080636 -0.041105 0.115799 -0.057877 -0.076110 0.030693 -0.025218 0.014528 0.012368 -0.009094 -0.080682 -0.120688 0.030269 -0.060320 0.107336 0.046607 -0.083740 0.029237 -0.009879 0.087256 -0.091509 -0.018994 0.067775 -0.107889 0.036171 0.081372 -0.038232 0.117040 -0.057789 -0.055705 0.033119 0.051650 0.033340 -0.052664 0.002656 -0.003828 0.048911 0.086276 -0.116265 0.077114 0.049187 -0.096608 0.014298 -0.008962 -0.091507 -0.025536 0.038703 -0.002444 0.015682 -0.028972 -0.079718 -0.093389 -0.114866 0.104704 -0.097055 0.076741 0.059203 -0.069560 0.087483 -0.003205 -0.084295 0.033371 -0.114813 -0.111889 0.104121 0.074399 -0.035721 0.060894 -0.110350 0.037020 -0.120328 -0.083648 0.053379 -0.057143 -0.057374 0.129044 -0.023028 -0.107862 0.046536 -0.037351 0.055750 0.038139 -0.084975 -0.022038 0.072973 0.115590 0.055487 0.044856 0.037068 -0.079882 0.063086 -0.119221 0.074790 0.018330 0.055466 -0.020069 -0.116254 0.098046 0.010526 -0.108079 -0.072662 0.116835 -0.063474 0.010488 0.006346 0.118381 -0.054755 0.020464 -0.010505 -0.048257 -0.105063 -0.063210 0.062060 0.007564 -0.000631 0.060379 -0.043017 0.033721 0.034850 0.033940 -0.035872 0.041643 0.092411 0.038745 -0.039358 -0.095730 0.060636 0.076648 0.105574 0.010821 -0.115738 -0.015377 -0.093102 0.095240 0.086163 0.128704 -0.086189 -0.057985 0.015227 -0.062648 -0.027026 -0.096616 0.047300 -0.068493 0.026529 0.108918 -0.089670 -0.074922 0.045799 0.073633 0.096190 0.031159 0.091014 0.054208 -0.036806 -0.033940 0.040291 -0.079200 -0.115364 -0.038355 0.047441 0.060562 0.075949 0.097711 0.100346 -0.038466 0.061756 0.004910 0.019862 -0.096271 -0.071165 0.107293 -0.095175 -0.015633 0.050805 -0.062876 -0.065794 0.110128 -0.100794 
if 0.034946 0.085977 0.012784 -0.012052 0.041084 -0.066450 -0.028535 -0.091821 -0.099508 0.066811 0.079231 0.040617 0.099287 -0.068187 0.008236 0.102633 -0.021992 -0.000401 -0.026724 0.113069 -0.097815 0.077984 0.008265 -0.090113 0.056466 0.035074 -0.033761 0.114865 -0.037728 0.040447 0.001700 -0.036973 -0.075161 0.082797 0.088269 -0.044436 0.068522 -0.030062 0.018687 -0.069564 0.095622 0.052326 -0.112837 0.027074 0.009907 0.017189 0.089373 -0.037150 0.116613 0.094397 0.116591 -0.002219 0.057747 0.091762 0.002731 -0.030173 0.017959 0.118567 0.083176 0.018419 0.001016 0.103214 0.030081 0.102103 0.070981 0.034397 0.058240 -0.001454 0.111034 -0.038894 -0.039605 0.028060 0.064651 -0.007378 0.071930 0.088899 -0.064401 0.057346 0.064997 -0.101565 0.029116 -0.097201 -0.086783 -0.042140 -0.012792 0.060319 -0.108318 0.105135 -0.005476 -0.084335 0.094599 -0.002661 0.054833 -0.120414 -0.047053 0.075371 -0.008979 -0.059223 -0.077303 0.116896 -0.072556 -0.092947 0.037765 -0.040123 0.048753 -0.112304 -0.089992 -0.015084 0.117540 0.052282 -0.064894 -0.090614 -0.043307 -0.092844 0.086680 -0.006694 -0.068257 -0.016343 -0.083706 0.074635 -0.013837 -0.091283 0.000508 0.051627 -0.117452 0.093087 0.011474 -0.117169 -0.073866 0.043112 -0.077185 0.069439 0.000103 0.048956 0.009620 -0.032940 0.047929 -0.021274 -0.116252 -0.043700 0.073380 0.001998 -0.059123 -0.004295 -0.100656 0.107468 -0.086547 0.104119 -0.108649 0.102949 0.076567 0.119502 -0.007125 0.097723 0.042078 -0.059893 -0.033488 0.020192 -0.035512 0.006834 0.117496 0.100226 0.058594 0.097348 0.087835 -0.095537 0.117136 0.049611 0.062178 0.024535 -0.006852 0.003051 0.044293 -0.093506 0.082308 -0.083783 0.098242 0.021385 0.117062 0.049125 0.107207 -0.064154 -0.109849 -0.001439 0.014661 0.000335 -0.021867 -0.096045 0.065549 -0.097922 0.053162 -0.034971 0.082757 0.112120 0.088858 -0.040550 -0.050534 -0.044076 0.119138 -0.033647 
then 0.089962 0.024701 -0.002916 -0.114056 0.029770 0.006828 0.116238 -0.086427 0.069845 -0.108071 -0.025581 0.068329 0.095332 -0.034709 0.079216 -0.046222 0.050654 0.097239 0.049012 -0.055876 -0.060481 -0.019744 0.035711 -0.001386 0.062030 0.077469 0.013380 -0.101349 0.066213 -0.037198 0.015363 -0.040838 -0.103509 -0.019180 -0.102836 0.080110 0.030812 0.061129 0.047811 -0.016379 0.057920 -0.044507 -0.032875 -0.074661 0.100079 -0.050803 -0.074426 -0.016929 0.101714 -0.087433 0.015782 0.056780 0.066531 0.012327 -0.084586 0.105712 0.057515 0.000242 0.072776 -0.088729 -0.040191 -0.075522 0.046971 0.025505 -0.045039 -0.107521 -0.069375 0.111255 0.046674 0.070971 0.112764 -0.109352 0.060814 -0.025403 0.093211 0.093570 -0.117475 -0.111357 -0.094688 0.086464 -0.069527 -0.079444 0.115934 0.006415 -0.028757 -0.000062 -0.071502 0.049790 0.067819 0.115677 0.028432 -0.002008 0.105347 0.078815 -0.025161 -0.071173 0.028251 -0.003202 0.097466 -0.020620 0.077357 0.036352 0.073977 0.108896 0.078529 -0.050759 0.115557 0.098780 -0.083088 0.020750 0.018431 0.026836 0.011173 -0.115916 0.112344 0.030150 -0.109226 -0.056910 0.074961 0.067967 0.092944 -0.050470 0.117468 -0.078308 0.028584 -0.048429 0.036088 -0.093751 0.116361 0.056657 -0.076553 -0.078395 -0.114262 -0.042727 -0.068550 -0.072997 0.111064 0.116545 0.034163 -0.059031 -0.033881 0.108397 0.027809 0.041309 0.106693 0.040274 0.005015 -0.109135 0.062247 0.078902 0.117685 -0.076875 -0.104232 -0.023956 0.102763 -0.080508 -0.033360 0.016987 -0.006404 -0.042228 -0.017830 0.072056 -0.117193 -0.062070 -0.053940 0.070855 -0.077697 0.056331 -0.078703 0.002269 0.086149 0.094380 0.030147 -0.085537 -0.066553 -0.107239 -0.020088 -0.085118 0.031066 0.062801 0.011419 -0.066868 0.056668 0.089503 -0.049468 -0.041902 -0.015681 -0.008608 -0.080483 0.037944 0.084484 0.083395 0.099920 0.042995 -0.024452 0.028356 0.021203 -0.097144 0.046537 0.022639 
attributes -0.016763 0.081802 0.034885 0.085979 0.110547 -0.088048 -0.027927 0.056224 0.106569 -0.018103 -0.047288 0.072738 -0.024940 -0.020261 -0.109630 0.094184 0.020404 -0.105795 -0.000756 -0.101149 -0.114393 0.014646 0.072654 0.046654 -0.004697 -0.030962 -0.035956 -0.044870 0.112749 -0.073516 0.067986 0.063945 0.061329 0.116210 0.117674 -0.089113 -0.034951 0.106067 -0.093571 0.055872 0.008044 0.005031 0.009196 -0.083564 -0.046430 -0.017795 0.099047 -0.067755 0.106012 0.026316 -0.090826 -0.118412 0.108375 -0.054287 -0.045600 0.083879 -0.095707 0.089876 0.088169 -0.043343 -0.021475 -0.093597 -0.016448 -0.060415 -0.086048 0.105524 0.095245 0.051454 0.075083 0.014587 -0.023934 -0.109825 -0.075450 -0.016929 -0.039538 0.075791 -0.052888 -0.060422 -0.037997 0.085964 -0.033850 0.113333 -0.045615 -0.060518 0.105674 0.072188 -0.028573 -0.044239 0.068815 -0.074881 0.107076 0.033340 0.099832 0.081729 0.034400 -0.109619 0.022107 0.049743 -0.032404 0.026675 -0.040353 0.118515 -0.059516 0.040136 0.096588 -0.083982 0.047009 0.069802 -0.044316 0.092357 -0.039758 0.074338 0.081821 -0.085245 -0.105623 0.072533 0.118004 -0.086933 -0.116764 -0.097201 0.007868 -0.044231 0.020763 -0.055321 -0.004330 -0.028540 -0.019971 -0.083667 -0.095208 -0.051131 -0.024771 0.077054 0.099744 -0.063153 0.040184 0.024752 0.043156 0.044371 0.028338 -0.101531 -0.020712 -0.040459 0.093762 -0.102632 -0.027978 -0.088415 -0.030349 0.040239 -0.095135 -0.050646 -0.069674 -0.075006 -0.038048 -0.058676 0.069733 -0.068826 -0.093461 0.056599 0.060940 0.017442 0.043009 0.043402 0.118144 -0.037912 0.014371 -0.049413 0.034664 0.084525 0.004756 -0.112870 -0.095553 0.042793 0.017923 0.022132 -0.118437 0.036055 0.117755 0.103821 -0.060294 0.083101 -0.052742 -0.059454 0.112698 0.022345 -0.068933 -0.118214 0.013483 -0.007174 0.072940 0.096643 0.036631 -0.046793 -0.044242 0.092841 -0.084661 -0.077722 -0.055971 -0.080767 -0.076074 -0.021046 
with -0.020459 -0.075916 -0.083498 0.021882 0.073460 0.035146 0.047855 0.005581 0.037127 0.017077 0.046061 -0.042573 0.005077 -0.116547 -0.051607 -0.048340 -0.082404 0.020873 0.098112 -0.106900 0.009434 0.098689 -0.094922 -0.034401 -0.125176 0.097780 0.092948 -0.045170 -0.114163 0.088882 -0.054859 -0.054443 -0.030276 -0.086992 0.063310 0.079999 -0.104070 0.010390 0.104921 0.059199 -0.029159 0.115210 0.046033 -0.093776 0.084427 0.029375 -0.081972 -0.039928 -0.090117 0.112475 0.073145 0.099038 -0.027438 0.042749 -0.089783 0.048902 0.069947 0.050284 -0.083302 0.064818 0.093132 -0.042929 0.109776 -0.007749 -0.017443 0.115669 0.113752 -0.036389 -0.016114 -0.062759 0.059208 -0.057550 -0.077347 -0.078023 -0.056265 -0.065644 -0.082952 -0.117597 0.028133 0.044594 -0.069128 -0.086228 -0.063452 -0.090518 -0.057098 -0.055349 0.057218 -0.034653 0.024636 -0.033258 0.122281 0.010455 0.071642 0.032616 -0.076450 0.114386 0.005460 0.011127 0.044335 -0.072354 0.083075 0.063033 -0.098461 -0.104901 -0.110711 -0.056837 -0.033715 0.038771 0.025686 -0.064485 0.031714 -0.032028 -0.046261 -0.092870 -0.069270 0.034952 -0.069716 0.045127 0.095130 -0.035901 -0.008161 0.087448 -0.027273 0.029738 0.059434 0.064478 0.120608 0.074142 0.044332 0.103198 0.114986 -0.031491 -0.045203 -0.104524 -0.112305 -0.067859 0.110458 -0.095755 -0.100963 -0.020649 -0.095632 -0.060936 -0.076963 -0.042599 0.004853 0.109313 0.080106 -0.012593 -0.077350 0.099092 0.020553 0.038972 -0.017135 -0.103368 -0.034225 -0.117525 0.064966 0.050254 -0.045505 0.097356 0.091690 -0.083397 0.085059 0.082262 0.090031 -0.067914 0.005234 0.043103 0.112118 0.074006 -0.045345 -0.005393 0.037263 -0.103397 -0.046436 0.020094 0.065246 0.020139 0.110523 0.013531 -0.056572 0.119233 0.087814 -0.060135 -0.011142 -0.076775 0.096514 0.060239 0.081666 -0.012138 -0.067642 -0.038360 -0.089426 -0.071533 -0.059453 0.035643 -0.010424 -0.082365 0.022481 -0.016670 
our 0.118393 -0.054877 -0.091572 0.084392 -0.057905 0.060619 -0.116419 -0.079596 -0.107133 -0.116700 0.041534 -0.119395 -0.025447 0.078064 0.047914 -0.077284 0.006516 -0.104540 0.121794 0.065956 0.115586 -0.122601 0.051788 -0.100914 -0.001862 -0.110635 -0.066020 0.056258 -0.096009 0.104307 -0.074052 0.003247 -0.101519 0.018748 0.000788 0.005243 0.108440 -0.071376 -0.052884 -0.103016 -0.015734 -0.054606 0.106991 0.066647 0.021754 -0.003967 -0.099935 -0.019994 0.040265 0.069011 0.037360 -0.097746 -0.079344 -0.031681 0.061516 -0.085901 0.097225 0.051386 0.068617 -0.088228 0.081866 -0.000784 -0.029733 0.098970 -0.060082 0.046252 -0.014465 0.002961 0.044184 -0.003517 -0.096962 -0.049569 0.091039 -0.038632 0.064834 0.083582 0.084329 0.113856 -0.109423 0.114163 0.089388 -0.049532 0.091287 0.061392 -0.012926 0.013118 -0.036369 0.005979 -0.034290 -0.078687 0.095641 0.090127 0.029140 0.093978 -0.093029 0.025586 -0.003273 0.027635 0.108642 0.077546 -0.004699 0.018222 -0.002680 0.080744 -0.032789 -0.068779 -0.084937 -0.068591 -0.083698 -0.060416 0.019449 0.079213 -0.092090 0.031779 0.037600 0.051424 0.068865 0.011797 0.004106 -0.071248 0.095543 -0.008907 0.015051 0.099375 -0.008212 -0.103354 -0.017963 0.029069 0.068910 -0.037101 -0.121839 -0.016976 -0.038208 -0.006159 -0.016011 0.041950 0.104731 0.100929 -0.096346 0.102078 0.009623 -0.034834 0.040708 0.121129 -0.012221 0.066970 0.122274 0.118322 -0.079945 -0.035645 -0.063032 -0.071609 -0.005225 0.014754 0.072821 -0.060484 -0.030191 -0.100832 -0.050512 0.109419 -0.089508 0.098017 0.032015 -0.034631 -0.056344 -0.076661 0.109018 0.080024 0.011650 -0.021457 0.030604 0.103639 0.118318 -0.055372 -0.045647 -0.006062 0.083022 0.056040 0.099334 0.016113 0.032593 0.116768 0.008190 0.004898 -0.090619 -0.007705 0.022978 0.102498 -0.036797 0.101545 0.055301 0.020662 0.013422 -0.058960 0.078256 0.024580 -0.059107 0.052692 -0.119542 -0.051011 
student -0.070163 0.057198 0.052371 -0.063561 -0.004012 -0.127225 0.007349 -0.059827 -0.057351 0.001100 -0.030752 -0.011258 -0.087127 -0.025297 -0.028721 -0.087438 0.090582 -0.075954 0.113854 0.101977 -0.028956 0.016379 0.055955 0.012162 -0.119536 -0.016460 0.020626 -0.087404 -0.049384 -0.110486 0.036764 -0.109270 0.118067 0.087146 -0.040261 0.092100 -0.112609 0.010181 -0.051860 -0.032804 0.073720 -0.105486 -0.023001 0.041367 0.060822 0.037921 0.074523 -0.101926 0.029386 0.055465 0.094773 -0.082748 -0.002995 0.125557 -0.055990 0.073137 0.019806 -0.024025 0.097613 -0.123460 -0.018998 -0.077250 0.086209 -0.084399 0.075069 0.076324 0.016926 0.079428 0.044871 0.099712 0.033582 0.078800 -0.031197 -0.009756 0.127537 -0.078681 -0.032382 0.053747 0.068305 -0.044967 -0.006446 -0.106458 -0.034637 0.072702 0.040573 -0.059499 -0.027104 -0.034356 -0.078183 -0.072844 0.064005 -0.076214 0.027072 -0.086239 0.028151 0.015918 0.039583 0.011769 -0.046858 -0.104537 -0.033807 -0.108161 0.008974 0.008562 -0.120915 0.044854 -0.087365 -0.122424 -0.105289 0.021943 -0.046242 0.101876 -0.033900 -0.069542 -0.026734 0.051624 0.095518 -0.044824 -0.105962 -0.060477 0.084975 0.085195 -0.079345 0.044344 0.087377 0.110431 0.107924 -0.051304 0.026327 -0.101071 0.034145 0.036820 -0.093668 -0.115133 0.127503 0.021800 0.050516 0.049834 0.099019 -0.080690 0.092291 -0.061491 -0.023026 0.069500 -0.037539 -0.076850 -0.121057 0.103991 -0.085525 -0.074611 -0.045334 -0.008639 0.021417 -0.063334 -0.078972 -0.004911 -0.089410 0.009349 0.075546 -0.050247 0.023033 -0.002191 0.009960 0.004260 0.114336 0.086898 -0.120957 0.108935 -0.005665 0.006078 -0.085690 0.036763 0.045958 0.062734 -0.108138 0.111261 -0.033455 0.119397 -0.080962 -0.014799 0.001612 0.106427 -0.097166 0.118510 -0.030595 -0.000452 0.061950 0.026551 0.002637 0.108758 -0.063365 0.040798 0.034044 0.046164 0.123156 0.056282 0.082395 -0.014441 0.027901 0.025806 
product -0.047686 -0.078650 -0.117782 -0.021996 0.020097 -0.103358 -0.044812 -0.012473 -0.011468 0.018768 0.100307 -0.046055 0.097346 -0.018387 -0.003292 0.072729 -0.062842 0.010153 0.090654 -0.109761 0.101755 -0.083707 -0.056741 -0.043995 0.063735 0.043029 -0.117235 -0.065590 0.062828 0.084247 0.060386 0.020922 -0.074310 0.028882 -0.021776 -0.002057 0.010070 -0.075120 -0.094487 -0.057076 0.024607 0.115236 -0.065543 -0.007675 -0.027013 0.057796 -0.019773 0.105576 -0.082090 -0.022464 0.017007 0.065079 -0.018916 -0.077598 0.077991 -0.051717 0.107186 -0.000652 0.019341 -0.108350 0.063865 -0.097739 -0.007729 0.090651 -0.086181 0.092156 -0.029037 0.091645 0.014796 -0.091141 -0.011389 -0.027917 0.075434 -0.068594 -0.098621 0.104467 0.099421 0.089722 0.096518 -0.023854 -0.086585 -0.099338 0.076132 0.077642 0.111206 -0.115747 0.109455 0.014324 -0.070651 -0.088591 0.052649 -0.077346 0.079655 -0.087942 0.056928 -0.001898 -0.083300 0.111173 0.096475 0.023069 0.034274 0.084622 -0.031558 0.075005 -0.095027 -0.060642 0.001073 0.054331 0.004567 0.077389 0.109542 -0.079522 -0.076327 0.015570 0.031990 -0.072073 0.020040 0.037886 0.037652 -0.081913 0.002305 0.015253 -0.017310 0.027420 0.110197 0.113637 0.018318 -0.020684 -0.065666 0.085933 -0.117321 0.028255 0.068504 -0.019914 0.081045 0.015649 -0.014695 -0.096947 -0.002500 0.077959 -0.075535 0.020800 0.019298 -0.061427 -0.051317 0.086221 -0.115420 0.088014 -0.056374 -0.088778 0.098621 -0.104388 0.090013 0.074839 0.045504 -0.030092 -0.080548 0.034918 0.112481 0.034292 -0.033280 0.016434 0.037695 0.107204 0.117487 0.067334 0.090381 0.030056 0.080390 0.058531 -0.109340 -0.060692 0.095157 -0.080047 0.061827 0.030431 -0.011554 0.112614 0.105983 0.085825 0.118006 -0.023659 0.056323 -0.053100 -0.043566 0.090168 0.005050 -0.013841 -0.020501 -0.088058 0.103376 -0.073010 0.013859 -0.097321 0.089444 0.023876 -0.054818 0.110323 -0.003551 -0.117815 
apply -0.050320 -0.072810 -0.091613 0.121326 0.048944 0.011959 0.001195 -0.043923 0.047187 0.104070 -0.013094 -0.086379 0.078091 -0.003074 -0.098022 0.079029 0.080892 0.067264 0.106946 0.083665 0.059640 -0.021145 -0.009882 -0.117030 0.083202 -0.021192 0.041657 0.015717 0.025999 0.119783 0.038761 0.048457 0.086525 0.000740 0.082704 -0.128186 0.009573 0.063229 0.080315 -0.040252 0.123269 0.035837 0.003236 0.073253 0.042772 -0.028772 -0.112073 0.038140 -0.033420 -0.013122 0.094920 0.004292 -0.101258 0.005819 0.012525 -0.072850 -0.091874 0.015899 -0.128356 0.086229 0.128411 0.069780 -0.032004 0.048077 -0.019685 0.025678 -0.115665 -0.037420 -0.013593 0.065887 0.046008 0.044438 -0.043706 -0.081007 -0.093860 0.054644 0.023657 -0.103081 0.019709 0.078269 0.127731 0.117141 -0.030532 0.005938 0.013308 -0.015828 -0.078495 0.052350 0.008513 0.004379 0.106725 -0.021501 -0.012232 -0.028835 0.043065 0.128716 -0.109692 0.002006 0.091059 -0.124895 -0.020555 0.019934 -0.101724 -0.049114 0.064783 0.012798 -0.045122 0.117054 0.020745 0.033258 0.038065 -0.059842 0.045826 -0.060467 -0.010151 0.088602 -0.115183 -0.086086 -0.023681 -0.000692 0.125104 -0.055752 -0.030880 -0.048212 0.122588 0.083198 0.004708 0.031114 0.075765 -0.070278 -0.074903 0.127909 -0.011314 -0.074630 -0.103623 -0.061646 -0.069784 0.057991 -0.109810 0.001222 0.034037 0.120986 -0.057006 -0.116935 -0.019875 -0.027427 -0.103196 -0.006974 0.031790 0.054304 -0.082292 0.027284 -0.001361 0.094766 -0.022652 0.006096 0.014352 -0.112639 0.112184 0.014530 0.018166 0.068087 -0.095031 -0.056788 0.014131 0.041455 0.040312 0.006840 0.071113 0.054573 -0.028665 -0.033590 0.063533 -0.099157 -0.006243 -0.093009 -0.069372 -0.042998 -0.050407 -0.021532 -0.064293 -0.113177 0.004929 -0.122980 -0.111622 -0.062588 -0.127850 -0.117837 -0.077680 -0.097828 0.106234 0.078966 -0.023230 -0.101420 0.030675 0.098793 0.055779 0.108928 0.070820 -0.102915 
cross -0.030013 0.003275 -0.059076 0.012774 0.106454 -0.106316 -0.067203 0.011729 -0.100752 -0.104173 -0.108002 0.043593 0.111895 -0.068391 -0.020898 0.065447 0.052471 -0.008387 -0.085800 0.096343 0.102629 0.125035 -0.013166 -0.033927 -0.047683 -0.059414 0.042706 0.073880 0.110479 0.123913 -0.012187 0.123945 -0.114810 -0.096466 0.051405 -0.115909 -0.085637 0.090710 0.013864 -0.060533 -0.117088 0.037894 -0.024527 -0.066039 0.050234 -0.073395 0.095131 0.077558 -0.024371 -0.004705 0.096282 -0.119851 0.045784 0.043613 0.012211 -0.066411 -0.056063 -0.066827 -0.056798 -0.121586 -0.070517 0.095041 0.049830 -0.077069 0.070884 0.012317 0.052185 0.086191 -0.010591 -0.014579 -0.014771 -0.051561 -0.117513 -0.118998 -0.052431 -0.094438 0.004483 -0.126134 0.101458 -0.085355 -0.083625 -0.047079 -0.084241 -0.003586 0.003173 -0.083865 -0.072113 -0.019338 -0.048532 -0.120297 -0.013101 0.013729 0.018978 0.018436 0.000467 0.052699 0.017909 0.071688 -0.058415 0.116622 0.082044 0.086979 0.096441 0.033612 -0.102026 -0.070722 0.061190 -0.046634 -0.027033 0.026297 -0.001917 0.084191 0.124259 0.115716 -0.124917 -0.060668 -0.023527 -0.006174 -0.014913 0.107291 -0.026767 0.029726 -0.080783 -0.024302 0.122708 -0.104226 0.092629 0.009121 -0.017477 0.083326 -0.027490 -0.027972 -0.062313 -0.112100 0.099629 -0.052884 -0.072305 -0.070179 0.066786 0.082403 -0.040960 -0.121909 0.034555 0.080391 0.096829 -0.022126 -0.020714 -0.039870 -0.034315 0.023783 -0.067415 0.058896 0.012586 -0.119211 -0.005264 0.017223 -0.010554 -0.023396 0.075089 0.043421 -0.038630 0.048907 -0.106267 -0.094686 0.060467 -0.104332 -0.008562 -0.061500 -0.024996 -0.117370 -0.040675 0.036416 -0.040654 -0.063268 -0.038674 -0.098434 0.083632 0.045201 -0.029568 0.060483 -0.029192 0.007684 0.021607 0.090057 0.066174 -0.062978 -0.041123 -0.114598 0.124998 0.011378 -0.052153 -0.093948 -0.043871 -0.033246 -0.043520 -0.080167 -0.052067 0.106928 0.024771 0.009439 
in 0.032736 0.042398 -0.003174 0.067532 -0.024573 -0.055433 0.034394 0.048048 0.084340 0.070994 0.099619 -0.016317 -0.005419 -0.060721 0.002244 -0.057181 -0.109126 -0.051777 0.069683 0.091866 0.012742 -0.000026 -0.041609 0.099044 -0.040162 0.084609 -0.090133 0.010962 0.099762 0.022572 -0.056413 -0.098993 0.110931 -0.101633 -0.081116 -0.066549 0.007015 -0.090348 -0.010545 0.034511 0.101009 0.037484 -0.117731 -0.014409 0.034388 0.082708 0.116673 -0.113564 -0.032673 -0.088675 0.072048 0.102738 -0.059193 -0.060538 0.114148 0.113807 -0.005408 -0.094682 0.006440 -0.075174 0.023153 -0.119729 0.014689 -0.117033 -0.039120 -0.031296 -0.004717 0.116429 0.056205 0.075097 0.091093 0.096482 -0.109095 -0.040487 0.045638 0.068769 0.073012 -0.075616 -0.118544 -0.099894 0.075142 0.073804 -0.046790 -0.034008 0.121904 0.080437 -0.086374 -0.043550 0.038135 -0.060600 -0.009153 -0.074378 -0.038597 -0.050074 -0.028142 -0.063336 0.070443 -0.017854 -0.050826 -0.111603 0.120490 -0.056773 0.075406 -0.019553 -0.057571 0.099493 0.092286 -0.017353 -0.103133 -0.029981 0.028519 0.007285 -0.069500 -0.067021 -0.032102 -0.099513 0.068757 -0.076898 0.100742 -0.107731 0.085365 -0.070933 0.111317 -0.002195 -0.088276 -0.026266 0.069759 0.074886 -0.055329 -0.057172 0.045329 -0.016256 -0.049863 0.016681 -0.036426 -0.052362 0.003884 -0.073961 0.051331 -0.024140 -0.014697 -0.029367 0.067132 -0.079624 0.068925 0.006095 -0.106337 -0.089515 0.021628 -0.026870 -0.078523 -0.104864 -0.083351 0.094210 -0.119811 -0.090578 0.128148 -0.046777 0.050498 0.027607 0.079382 0.115094 0.038945 -0.098312 0.044866 0.051357 -0.021757 -0.013797 0.092099 -0.032895 -0.119295 0.047374 0.078842 -0.083993 -0.004685 -0.080981 -0.028145 0.038223 -0.051984 -0.015446 0.001301 -0.011508 -0.109251 -0.027873 0.009793 -0.003801 0.036617 -0.110026 0.103410 -0.119299 -0.074574 0.071795 -0.020851 -0.000258 -0.086066 -0.087691 -0.092890 0.026349 -0.099824 0.104862 
just -0.063043 -0.045000 0.097274 -0.053655 -0.052611 0.070229 0.069320 -0.006253 -0.110799 0.010853 -0.090664 -0.088163 -0.002081 -0.060074 -0.002215 -0.107342 0.103240 0.078481 0.077402 -0.045672 0.092837 0.009819 -0.051104 -0.058963 -0.087643 0.070923 -0.065244 -0.013146 0.029228 -0.038956 -0.048358 0.051921 0.041245 -0.098785 -0.025810 -0.077547 0.067982 -0.061461 0.035010 -0.093555 0.055088 -0.053803 -0.007212 -0.093938 0.006185 0.087243 -0.003914 0.113350 -0.017127 -0.112996 0.019540 0.082621 0.104727 0.088290 0.095760 -0.110031 0.085491 0.100477 0.083432 -0.098637 -0.071210 0.086620 -0.100785 0.076946 -0.071875 0.035849 -0.018450 -0.028970 -0.028832 -0.004731 -0.100756 -0.108389 0.003567 0.069960 -0.025216 -0.027243 0.028945 -0.040824 -0.107069 -0.057292 0.108902 0.115848 0.092122 0.051482 -0.100792 -0.108623 -0.090735 -0.088630 0.041217 0.086549 -0.101252 -0.111659 0.074748 -0.063188 -0.022767 -0.057462 0.061401 -0.104900 -0.112547 0.092076 -0.111153 0.008517 -0.106078 -0.050753 -0.033460 -0.081659 0.087225 0.111920 0.066199 0.019529 -0.079780 0.076436 0.017523 0.069309 0.063248 0.092812 -0.059915 0.114787 0.085116 0.005241 0.011437 0.029140 0.076411 -0.052211 0.003298 -0.024575 -0.046206 0.112501 -0.022732 -0.057229 -0.076199 0.053690 0.052922 -0.021716 0.019044 0.079352 -0.055994 -0.044858 0.098209 0.091652 -0.113955 0.036401 0.077954 0.050732 -0.059363 -0.020711 -0.067084 -0.025290 -0.004543 0.062813 -0.072391 -0.060321 -0.003850 -0.071751 -0.079285 0.079706 -0.053658 -0.029444 0.060799 -0.108870 -0.092370 -0.053039 0.090594 0.087773 -0.000410 -0.095431 0.042710 0.050024 -0.064033 -0.051539 0.007735 -0.088049 -0.047714 0.009791 -0.097671 0.097497 0.110148 0.077689 -0.066970 -0.070923 0.065321 -0.032643 -0.099454 -0.053414 -0.004643 0.015778 -0.104536 0.052190 -0.096121 -0.077795 0.066348 -0.025870 0.084387 -0.092331 -0.075972 -0.037576 -0.039249 0.019274 -0.035081 0.093166 
name -0.062153 -0.109780 0.051496 0.039530 0.035645 -0.065091 0.096125 -0.016375 0.067195 -0.107183 0.068639 -0.047589 -0.088753 0.065114 0.004240 0.028025 0.009778 0.064579 0.000710 0.104861 0.116377 0.067222 -0.031909 -0.110430 0.047211 0.061309 -0.120999 -0.097642 -0.068647 0.097687 0.018968 -0.024961 -0.039541 0.039461 -0.014874 0.002005 -0.111885 0.062638 -0.062161 -0.059766 0.031138 -0.094838 0.100052 0.059606 0.017952 0.118527 0.006318 -0.058391 0.040213 0.065190 0.004744 -0.018712 0.101832 -0.078841 0.005370 -0.114708 0.018976 -0.074976 -0.019182 -0.076496 -0.079281 -0.122691 -0.033712 -0.072264 -0.001283 -0.108558 0.059564 0.042707 0.006555 -0.106893 -0.079640 -0.024931 0.010726 0.120896 0.021948 -0.005298 -0.110021 0.125006 -0.101121 -0.066580 0.086293 0.018865 -0.100739 -0.064059 0.102932 -0.021516 -0.066867 -0.040759 0.006386 -0.007872 -0.026883 0.022876 -0.074269 0.110644 0.054415 -0.041340 0.052619 -0.053189 0.024484 -0.088688 -0.109685 -0.073035 0.043689 0.088131 0.005959 0.039369 0.084651 0.008025 0.027975 0.084548 -0.067753 0.003457 -0.102305 -0.074395 -0.065415 -0.031180 0.119677 -0.011127 0.001704 0.111415 0.009442 0.012295 0.106224 -0.049850 -0.053613 0.046718 0.033025 0.067810 0.122168 -0.044755 -0.120113 0.108467 0.040045 -0.086114 0.057501 0.029094 0.016837 -0.089093 0.037837 0.099574 -0.068708 -0.002846 0.106423 -0.098604 -0.024935 0.035733 0.110716 0.079926 -0.098257 -0.047673 -0.039243 0.091492 0.028143 -0.014473 -0.120510 -0.044350 -0.017311 -0.064143 -0.097882 0.004862 -0.042963 -0.083257 -0.123902 -0.116801 -0.044904 0.104196 -0.038204 0.048284 0.043361 -0.014167 -0.118493 0.019026 0.100579 0.113149 -0.079242 -0.122439 0.068081 0.098925 -0.072993 0.018934 -0.050221 0.119169 0.060618 -0.100529 0.062489 -0.088177 0.043888 0.039377 0.034637 0.028384 -0.087982 0.020141 0.057875 0.081630 0.013117 -0.013518 -0.114207 -0.002754 0.006898 -0.104624 
one 0.084551 0.013665 0.114978 0.016512 0.034784 -0.067337 -0.122681 -0.067269 -0.072740 0.113864 -0.114570 0.035755 0.013306 -0.011120 0.050379 0.035588 0.111194 0.041033 0.097639 -0.048434 0.101060 0.073129 0.062009 0.112346 -0.075096 -0.050164 0.040154 -0.081391 0.081515 0.092613 -0.056858 0.070206 -0.105757 -0.005064 -0.008632 0.091548 -0.014394 -0.045466 -0.027829 0.063833 0.050145 0.083536 -0.017785 -0.117338 0.091726 0.061016 -0.067431 0.000427 -0.071381 0.122836 0.043627 -0.058463 -0.064116 0.071800 0.102729 0.034652 0.055522 0.020039 -0.040924 -0.072087 0.043937 -0.105912 0.018661 0.073711 -0.033138 -0.070191 0.006955 -0.003546 -0.048106 -0.069995 -0.041241 0.024804 -0.058965 0.006808 -0.029264 0.054363 -0.061850 0.086753 -0.046044 0.042597 0.008972 -0.089222 -0.118648 0.008840 0.033636 0.024072 0.035184 0.034290 -0.045855 0.043843 0.017196 0.014549 0.021825 -0.103374 -0.014084 -0.092915 0.054948 0.065743 -0.085722 -0.021308 -0.066351 0.106539 0.084544 0.063108 0.094852 -0.116318 0.098454 0.055933 0.047502 0.066091 0.114540 -0.085363 0.104790 -0.100218 0.105734 -0.093987 -0.100607 -0.070055 0.106837 0.111259 0.115695 0.021247 -0.032949 -0.068945 0.015179 0.100225 0.092368 0.065252 -0.088962 -0.092183 -0.039202 0.038262 -0.069130 -0.010788 0.102064 -0.068719 0.016675 -0.038383 0.117908 -0.112626 -0.075142 -0.000970 -0.080602 0.111470 -0.031386 0.089849 -0.025609 -0.119483 0.028078 0.036880 0.070225 0.018098 0.045251 -0.047747 0.056103 -0.075108 0.024000 0.009965 0.090555 0.053290 0.030057 -0.049046 -0.100947 -0.072298 -0.056443 0.072948 0.011320 -0.123213 -0.046037 -0.006846 0.029098 0.043609 0.065143 -0.114430 0.110915 -0.109288 0.095366 -0.013945 -0.017755 -0.067646 -0.075232 0.097416 -0.074651 0.002269 -0.009727 0.084321 0.036891 -0.003938 0.048287 0.120767 -0.019522 0.118660 -0.082920 -0.052308 -0.023494 -0.105527 -0.028289 0.110284 0.059773 -0.100376 
two -0.093223 -0.021694 0.079434 0.029694 -0.026551 -0.026811 -0.053261 -0.005249 -0.009872 0.083272 -0.118091 0.061483 0.084332 0.111483 -0.080280 0.063732 -0.049208 -0.077423 -0.090529 -0.102834 0.087985 -0.062253 0.009592 0.013891 0.066989 -0.101906 -0.054272 -0.061385 0.015321 0.101159 -0.000038 -0.000208 0.122325 -0.082917 0.021593 0.093091 -0.102748 0.014366 -0.078257 -0.071302 -0.099593 -0.113197 -0.079329 0.020547 0.012000 0.079242 0.053155 -0.044827 -0.073238 -0.038178 -0.078815 0.122857 -0.104136 -0.044261 -0.069502 -0.013521 -0.015004 0.049400 0.054045 0.059974 0.074370 0.045732 0.079298 -0.070125 0.106023 0.056796 0.102861 -0.013536 0.083819 0.009174 0.035857 -0.060072 0.073449 -0.108729 0.098544 0.056895 -0.044876 0.000630 0.078393 -0.076102 -0.081812 -0.045302 0.072008 -0.068781 -0.033494 -0.072638 -0.009487 0.036351 -0.081540 -0.092970 0.054166 0.011309 -0.098431 -0.056064 0.050438 -0.062759 0.105178 -0.097166 0.075932 -0.042879 0.038536 -0.042389 0.041774 0.028442 0.014642 0.096676 -0.079087 -0.076781 -0.086295 0.122955 -0.004566 -0.030094 -0.074929 -0.098797 0.114634 0.064170 0.052604 0.099921 -0.057668 -0.083800 0.114687 -0.034404 -0.053910 0.039928 -0.008468 0.043076 -0.086619 0.021891 0.119789 -0.050193 -0.059193 0.005060 0.008709 0.106985 -0.060506 -0.053068 -0.028710 0.008404 -0.117608 0.114133 -0.112257 -0.048396 0.051585 0.093197 -0.052589 0.048645 0.049064 0.027098 -0.093148 -0.021196 0.033261 0.120638 0.079064 -0.022208 -0.022876 -0.101476 0.096951 0.095846 -0.084566 -0.063483 -0.097449 -0.049589 -0.055208 -0.117023 -0.005660 -0.037317 -0.023676 -0.057295 -0.056604 0.121068 -0.017019 -0.112283 -0.122763 -0.018811 -0.000460 0.046464 -0.014793 -0.097589 0.122604 0.067310 0.023864 0.058623 0.015993 -0.092253 0.058898 -0.056381 -0.100038 0.081710 -0.029479 0.102246 0.056596 -0.071574 -0.051925 -0.095355 0.087887 0.085483 -0.004574 0.019317 -0.095042 0.015762 
do -0.065769 -0.057102 -0.023459 -0.013441 -0.112227 -0.033909 0.082499 0.073365 0.036637 -0.040854 0.083779 -0.059539 -0.086662 0.087708 -0.104283 0.018524 0.051620 0.105149 -0.036285 0.090375 0.101788 0.059324 0.085317 -0.002268 0.008627 0.056980 0.116965 0.112375 0.011402 0.028179 -0.026004 -0.077355 -0.062893 -0.038122 0.101810 -0.081884 -0.092787 -0.094070 0.062369 -0.059496 0.102090 -0.032917 -0.052303 -0.109578 0.054252 0.075399 -0.091284 -0.037036 0.061858 -0.015748 -0.080342 -0.059051 0.010799 -0.022924 0.013653 -0.098319 0.081442 -0.074961 0.047141 -0.018646 0.041886 -0.006215 -0.064540 -0.096105 -0.045294 -0.063314 -0.111573 -0.076708 -0.058623 0.037180 -0.060830 0.116847 -0.053317 -0.069152 -0.055869 -0.085997 -0.025695 0.018919 0.054230 -0.018977 0.086820 0.054766 0.008117 0.100728 -0.065467 0.086241 0.074504 0.114834 -0.066603 -0.015490 0.109833 -0.076046 0.087093 -0.084782 0.029441 -0.041235 -0.012970 0.102906 0.043144 0.002089 -0.009735 -0.111325 -0.051512 -0.104358 0.041584 0.086025 0.073081 0.011205 -0.090918 -0.081733 0.096677 0.072703 -0.109078 0.081108 -0.006492 0.098542 0.108575 -0.084350 0.032288 -0.069562 0.035660 -0.000191 0.069457 -0.059827 -0.088560 0.028064 0.020353 0.087255 0.034078 -0.010630 0.094793 -0.081079 0.053878 -0.068418 0.090321 -0.016360 -0.084375 -0.038553 0.098963 -0.053558 0.094167 0.009026 0.036055 0.002419 -0.054669 0.063278 0.111415 -0.065607 0.061757 -0.063530 -0.112997 0.055247 -0.082938 -0.029063 -0.073987 0.030012 -0.013904 0.096738 -0.091802 0.053781 0.095850 0.067247 0.043374 -0.090627 -0.103370 -0.069684 -0.106497 -0.090325 0.039973 0.028280 0.021777 -0.044700 0.058393 0.055614 0.107950 0.005755 0.014465 0.001276 -0.109330 0.079447 0.029664 -0.086881 0.109819 0.018092 0.048773 -0.102108 -0.084915 -0.042112 0.075475 -0.114345 -0.071442 0.093927 -0.063238 0.100951 -0.111113 -0.026554 -0.010310 -0.115121 0.064784 -0.090670 
on -0.060313 0.054343 0.082256 0.040300 0.039836 0.061905 0.081903 0.088234 0.104889 -0.111903 0.040564 0.066714 0.013115 0.086601 -0.006419 0.058200 -0.043072 0.017345 0.039122 -0.043329 -0.059746 0.108352 0.086873 -0.029754 0.029850 0.096525 0.109345 0.118560 0.103984 0.032914 -0.109437 -0.018556 0.103754 0.031395 0.031330 -0.044495 0.033086 0.017360 -0.061303 -0.002450 -0.041262 -0.020972 0.087809 -0.124105 0.010293 -0.032553 0.011374 -0.075679 -0.122467 0.096494 0.058879 0.036802 0.067017 0.040246 -0.111308 -0.081171 -0.108447 0.038237 -0.024044 0.092667 -0.016643 -0.109801 0.104697 -0.113168 0.032212 -0.038674 0.121769 -0.050753 0.042044 -0.074306 -0.063143 -0.014599 0.079610 0.022836 0.025102 0.014929 0.023177 0.052487 -0.080783 0.120293 0.065160 -0.122793 -0.031315 -0.055846 -0.041830 -0.074981 0.083192 -0.054051 0.020278 -0.067174 -0.016068 -0.106005 -0.121562 -0.048322 -0.042436 0.122072 -0.023622 0.095451 0.102258 0.021525 0.066710 0.038221 0.076381 0.051789 -0.035127 0.019523 0.103761 -0.018817 0.051769 0.090405 -0.031576 -0.107830 0.017180 0.113429 0.019856 -0.069958 0.116347 0.013985 -0.083575 0.051605 -0.086605 0.031610 -0.118042 0.025175 0.040541 -0.033965 -0.048203 -0.066783 -0.063749 -0.068861 -0.027204 -0.078977 0.107082 0.103627 0.105955 -0.054603 0.117160 -0.030912 0.072470 0.025973 0.096069 0.081201 -0.092318 -0.006101 -0.015094 0.051213 -0.038923 -0.005534 0.038915 0.055830 -0.108977 -0.015519 0.073536 0.083272 -0.078651 -0.016424 -0.032964 -0.066729 0.087395 0.074214 -0.088169 -0.028979 -0.015301 -0.100943 -0.088154 0.121911 0.025578 -0.082459 0.033838 0.122847 -0.068773 -0.102017 -0.095240 0.024876 -0.011696 -0.077152 -0.031660 -0.058124 0.043663 -0.113889 -0.022809 0.050554 0.006987 -0.004107 -0.001933 0.087813 0.102105 0.020512 -0.090761 0.104701 0.113041 0.042432 -0.096882 -0.036219 -0.113348 -0.044372 -0.016367 0.093074 0.086566 -0.031779 
here -0.033145 -0.020405 -0.064855 0.094388 -0.017033 -0.073739 -0.037856 -0.065879 -0.033578 0.033985 0.013855 0.099344 -0.062530 -0.002907 0.013007 0.081822 -0.055619 0.043262 -0.074677 -0.103883 0.110139 -0.017560 0.027761 0.085279 -0.084801 -0.085514 -0.063951 0.086229 0.066347 0.018585 0.034206 0.089745 -0.081570 0.032783 0.068084 -0.116684 0.067382 0.019916 0.065893 0.013814 -0.018126 0.080823 -0.112126 -0.088760 -0.091495 -0.095828 -0.085332 0.006529 -0.099085 -0.041319 -0.107307 0.072572 0.087239 0.052560 0.080870 -0.036801 -0.061735 0.051737 0.105791 0.046349 -0.071070 -0.099831 -0.113352 0.049708 -0.110977 0.048156 0.100722 -0.012603 -0.068328 0.069850 0.066686 -0.063470 0.012553 0.077051 -0.107952 0.028588 -0.107888 0.002756 -0.048999 -0.002171 0.110399 0.066142 -0.014710 0.093443 0.078145 0.080633 0.031465 -0.079651 -0.026539 -0.084054 -0.058257 0.087532 0.038870 -0.024087 0.106431 0.081887 0.102488 0.013773 0.024117 -0.071406 0.046698 0.077894 -0.031525 -0.072327 0.055363 0.036160 0.026535 -0.013976 -0.104282 0.058471 0.115373 0.070730 0.097103 -0.106010 -0.023773 -0.046012 0.081624 0.063182 0.115028 -0.049462 0.020251 -0.030044 -0.092150 -0.037802 -0.067935 0.006955 -0.011652 -0.044046 0.097627 -0.063194 0.080479 -0.060519 -0.057296 0.037446 -0.000278 -0.006882 0.109766 -0.050411 0.062142 0.020572 -0.087566 0.065693 -0.052908 -0.022886 0.102952 -0.086815 0.102090 -0.116062 0.100330 0.002705 0.092980 0.053071 0.088997 -0.026203 0.008344 -0.087001 0.071765 -0.003197 -0.001255 -0.103229 0.107455 0.051880 0.040079 0.022428 0.086764 -0.041797 -0.072523 -0.103026 -0.047964 0.051427 -0.009818 -0.109720 -0.059257 0.031025 -0.093151 -0.043717 -0.113696 -0.113584 -0.110609 -0.113073 -0.099827 -0.099819 -0.029747 -0.008101 -0.065194 -0.059479 0.001809 -0.062877 -0.007683 -0.060705 -0.090717 -0.082358 -0.104675 -0.112816 -0.107194 -0.051602 0.010570 0.066106 -0.011801 0.107958 
tuples 0.039475 0.114909 0.054389 0.067677 -0.014566 -0.047539 0.001889 0.012510 -0.087336 0.054837 0.046358 -0.033885 -0.053655 -0.014199 -0.020841 0.008154 0.029576 0.098135 -0.104873 0.036204 -0.076623 0.076990 -0.050210 0.008539 -0.064991 -0.089015 0.116594 -0.055874 -0.053122 -0.107789 -0.055871 -0.077375 -0.097916 -0.112101 0.012780 0.084391 0.047195 0.068751 -0.007476 -0.097853 -0.038852 -0.062165 0.099583 -0.119591 0.011899 0.030017 -0.117454 0.098839 -0.100228 -0.030247 -0.078201 -0.030536 0.114112 -0.072256 -0.112682 -0.063891 -0.008920 -0.107389 -0.004675 0.017741 -0.101369 -0.086333 0.037185 0.051244 0.022642 0.100921 0.107733 -0.065802 -0.118647 -0.103255 0.119721 0.110426 0.024805 0.018089 0.046595 0.113345 0.092626 0.028713 -0.077505 0.022616 0.027917 0.038626 0.085032 -0.021408 0.077245 -0.024246 -0.038593 -0.060453 0.062324 0.071492 0.010617 -0.075553 0.108333 -0.110397 0.024027 0.012955 -0.084402 0.025646 0.096472 0.102647 -0.026539 -0.078005 -0.102073 -0.090978 0.103636 0.052822 -0.112608 -0.063402 -0.054248 -0.018111 0.099005 0.022260 -0.071541 0.061979 -0.100724 0.063587 0.055552 -0.021756 -0.070718 0.018852 -0.094034 -0.037923 -0.080305 -0.092978 0.090433 0.062794 -0.095345 0.050533 0.066503 -0.095149 -0.021004 0.104188 0.080742 -0.098276 0.055471 0.026261 -0.045135 0.042035 0.107526 0.078494 0.056826 -0.110456 -0.073474 0.097772 0.086951 0.039812 0.092856 -0.018326 0.049032 -0.064787 0.033718 -0.068751 0.007557 0.049918 -0.034666 -0.034537 0.087707 -0.052311 -0.078157 -0.078798 -0.010195 -0.018689 -0.001919 -0.061179 -0.039578 0.078709 0.106800 -0.023409 0.064043 -0.014273 -0.021330 0.053481 -0.059701 -0.005546 -0.109393 0.006375 0.017841 -0.027876 -0.062554 -0.024372 0.057686 0.089437 0.031940 -0.080487 -0.118454 0.092237 -0.095242 0.099772 0.100154 0.029839 0.075593 0.110515 -0.071718 0.012251 -0.089048 0.092097 0.098050 -0.032603 0.051914 0.002789 
all -0.055135 -0.117710 -0.013814 0.105782 0.082853 0.054590 -0.008871 -0.009281 -0.036596 0.103100 -0.082530 0.046080 0.082642 -0.045253 -0.077106 -0.016582 0.013671 0.090270 -0.019523 0.068104 -0.116595 0.067390 -0.121304 -0.111378 -0.119704 -0.002362 -0.040164 0.079551 0.008188 0.054080 -0.110698 0.106307 0.086323 -0.020961 -0.113688 -0.011880 -0.004522 0.068652 -0.014520 0.051894 -0.075897 -0.057828 0.036814 -0.052352 0.122183 0.018805 -0.048142 -0.120782 -0.083318 0.040874 -0.050170 0.111971 -0.073208 0.058376 0.065343 -0.011744 0.094826 -0.063296 -0.097733 -0.103491 -0.067649 0.095063 0.110563 0.040566 -0.002975 0.029637 -0.075108 -0.052622 -0.076513 0.036563 0.118285 -0.056153 -0.099814 -0.018768 0.048472 -0.073865 -0.069031 0.036713 0.119276 0.098075 0.081215 -0.054673 0.057636 -0.013382 -0.014437 0.003211 -0.101834 -0.081332 0.078601 0.075758 -0.016848 0.036525 0.118037 0.089895 -0.022001 0.051743 -0.076888 0.034084 0.101925 -0.016447 0.113019 -0.041678 -0.102736 -0.087281 -0.108347 -0.025859 -0.047556 -0.018460 0.001277 0.008469 -0.067131 -0.098428 0.014993 0.049768 0.057756 -0.061816 0.059717 -0.098105 0.115581 -0.074000 0.077760 -0.077478 -0.043650 0.007320 0.072967 0.038576 -0.016112 -0.106300 0.110721 -0.007620 -0.074868 0.096648 0.071796 0.080070 0.060836 -0.041490 -0.101496 -0.079101 -0.005130 0.113864 0.086969 -0.065925 -0.115085 0.028127 -0.035845 0.108058 -0.049809 -0.033333 -0.096884 0.000567 -0.020830 0.010250 0.092302 -0.030726 0.068002 0.055034 0.043282 -0.058894 -0.117909 0.058714 0.067574 -0.095476 -0.113207 0.040521 0.045956 -0.090473 0.116722 0.081219 -0.079262 0.067645 -0.070391 0.076967 -0.058094 0.059668 -0.024585 -0.014539 -0.071300 0.120196 -0.018922 0.072070 0.008037 0.053088 -0.018786 -0.074721 0.122228 -0.030125 0.071968 -0.066474 0.028980 0.043623 -0.081253 0.054508 0.039811 0.016657 -0.013093 0.061313 0.035500 -0.061028 0.064923 0.034707 
combine -0.040094 -0.074999 0.002698 0.112634 0.056192 -0.103044 -0.040217 0.018980 -0.087969 0.082976 -0.092156 0.007944 -0.113411 0.057244 0.117179 -0.079692 -0.075675 -0.072858 -0.030569 -0.106928 0.028942 0.096268 0.090363 -0.114492 0.026411 0.079562 -0.019895 -0.083872 0.038922 -0.074840 -0.091043 0.062690 0.010935 -0.022582 -0.030512 -0.011755 -0.053849 -0.070992 0.076535 -0.110963 -0.092482 0.005796 -0.032797 0.020557 0.017226 0.018944 -0.088208 -0.013390 -0.017241 0.075830 0.002871 -0.075801 0.044795 0.106103 -0.081699 0.029568 0.029304 0.098654 0.106114 0.084256 0.058477 0.101619 -0.111292 -0.070956 0.076774 -0.014598 0.069578 -0.062090 0.087897 -0.083373 0.089611 0.070124 -0.082184 -0.115816 -0.077114 0.107224 -0.074301 -0.063789 0.076680 -0.110008 0.056004 -0.056890 -0.067365 0.029380 0.075458 0.071506 0.116514 0.010707 0.047008 0.073314 -0.108530 0.089463 0.092843 -0.003330 0.001757 0.106429 -0.079551 -0.051047 0.065991 -0.038369 0.007478 0.096789 -0.000991 0.088291 -0.057074 -0.044885 0.011868 0.030971 0.085959 0.046020 -0.099085 0.104404 -0.092916 0.002933 -0.004303 -0.028360 -0.116044 -0.007525 -0.025926 0.065901 0.079522 0.003540 0.047102 -0.068251 -0.094955 0.084263 0.011130 -0.116083 0.015910 0.105047 -0.041273 0.059407 -0.058130 -0.004458 0.041707 -0.056463 -0.017154 -0.018387 -0.002828 0.028772 0.024053 0.111397 0.095425 -0.081081 0.009951 0.018322 -0.044918 -0.012045 -0.055758 0.105988 -0.035068 -0.041826 -0.110128 -0.110667 0.099056 0.085066 -0.030967 -0.109553 -0.083174 -0.027564 -0.110793 -0.020267 -0.015238 -0.005739 -0.108927 0.086837 -0.019273 0.109813 0.037577 -0.036322 0.115776 0.100629 -0.023041 -0.104635 -0.050718 0.044466 -0.109347 -0.010721 0.047767 0.078325 0.019338 -0.061909 0.089090 -0.075498 -0.047991 -0.032330 0.047333 0.075462 0.047832 -0.110826 -0.044180 -0.101967 0.014290 0.046961 -0.092880 0.003171 0.092062 -0.103276 0.053046 0.113169 
relation 0.107422 -0.098969 -0.106573 0.009591 -0.055480 0.109159 -0.063741 0.007111 0.023208 -0.084435 0.036878 0.005791 0.109554 -0.037368 0.109880 -0.035214 0.029038 0.001577 -0.108372 -0.097337 -0.095804 0.080672 -0.109170 -0.102603 -0.083025 0.069953 -0.037328 0.086379 0.071088 -0.101130 0.021750 -0.046527 -0.045632 0.031573 0.042071 -0.007466 -0.073002 0.041045 0.057054 0.043895 -0.066722 0.034967 -0.078115 0.007299 -0.023077 -0.057210 0.026449 0.079547 -0.116589 -0.008982 0.107110 0.041560 0.012924 -0.009722 -0.040359 -0.028687 0.072117 0.048254 -0.085483 0.006197 0.064705 0.094393 -0.113666 0.105366 0.053812 0.117557 0.086745 0.049740 -0.075671 -0.071628 0.073880 -0.082702 0.095847 0.109811 -0.059433 0.083072 0.096790 0.116034 0.076694 0.030928 -0.009718 -0.064100 -0.019023 0.017076 -0.101141 0.092971 -0.075519 -0.118152 0.004467 -0.018004 0.000036 0.000279 0.073176 0.007713 -0.115407 0.093878 -0.069536 -0.078663 0.027450 -0.056434 -0.063487 0.008786 -0.013265 0.102610 0.035624 -0.097548 0.092924 -0.004536 -0.006135 0.007075 0.022968 0.056572 0.112005 0.073869 -0.011480 0.066856 0.037292 -0.086539 0.022997 0.104292 -0.048330 0.108825 -0.018414 0.068625 0.096500 0.114119 0.016528 -0.080991 0.059614 -0.081796 0.101830 -0.088344 -0.036450 0.044642 0.033267 -0.113104 -0.009747 -0.111820 -0.096333 -0.017881 -0.094208 0.091202 0.102918 -0.081165 0.010937 -0.070366 -0.107908 -0.046745 -0.047068 -0.072962 0.017543 -0.074289 -0.086274 -0.046549 0.096812 -0.026409 -0.102969 -0.061678 0.044493 0.056050 -0.034028 0.108158 0.072241 -0.045991 0.005439 0.035939 -0.024172 -0.016909 -0.040265 0.066994 0.085730 0.043039 0.070217 -0.106874 0.078898 0.093008 -0.075279 -0.021514 -0.070660 -0.086082 -0.116574 -0.103944 -0.091880 0.059038 -0.109365 -0.008837 0.108067 -0.047180 -0.049940 -0.044388 -0.031511 0.029709 -0.112818 0.015908 -0.061319 0.070627 0.062182 -0.017322 0.052065 -0.084095 
but -0.059091 -0.038453 -0.077993 -0.062780 0.012520 -0.118185 -0.051865 0.109665 0.096145 -0.018194 0.105929 -0.054045 0.070170 0.061447 -0.071450 0.030622 -0.124250 -0.016569 0.016221 0.006670 0.018956 -0.075706 0.027637 0.082020 0.064331 0.123342 -0.064661 0.025212 -0.109737 -0.121648 0.025707 -0.081368 -0.059949 0.056313 -0.105332 -0.092570 -0.033453 0.080541 -0.045858 -0.051547 0.036441 -0.060734 -0.074407 0.061316 0.028120 -0.065439 0.095401 0.077330 -0.117262 -0.070879 0.059497 -0.109427 0.106366 0.099482 -0.021278 -0.039962 0.012474 -0.068274 0.076691 0.054267 -0.018404 -0.020998 -0.113438 0.004570 -0.045115 0.104002 0.008559 -0.043900 -0.063734 -0.018883 0.101378 0.116775 -0.007570 0.100723 -0.113515 0.004065 0.001762 0.011673 -0.098666 -0.048574 -0.094582 0.078809 -0.007072 0.104010 -0.041606 -0.023481 0.071036 -0.083483 -0.023691 -0.055892 0.108197 -0.089291 0.088620 0.032576 -0.111354 -0.082104 -0.014589 0.104615 0.012604 0.083230 -0.078323 0.085690 -0.112304 0.112484 -0.035890 -0.035970 -0.011394 0.025274 -0.008903 0.041709 0.099570 -0.096018 -0.056210 -0.069653 0.067588 -0.106240 0.077189 0.057554 0.053505 -0.048544 -0.044165 -0.090586 0.029859 0.096685 -0.039736 0.039073 0.031959 -0.090318 0.031629 0.058152 -0.093195 0.037748 -0.077219 -0.107887 0.066316 -0.064420 -0.048517 0.031334 -0.019117 0.124943 -0.003877 0.024668 -0.063113 -0.065002 -0.002145 -0.014118 0.032403 0.013045 -0.039399 0.091513 -0.073871 0.064856 -0.048946 0.078717 0.092750 0.110048 0.098673 -0.001506 0.065427 -0.020071 0.093540 -0.035388 -0.057765 0.070726 -0.060424 -0.097466 -0.115982 0.088211 -0.045452 0.051562 0.114388 0.051999 0.016841 -0.039449 -0.084567 0.044475 0.067611 -0.005659 -0.112626 -0.040284 0.110779 0.078395 -0.060018 0.005643 -0.038035 -0.050130 0.045797 -0.049203 0.001701 -0.089161 -0.010949 -0.122437 -0.079932 0.075070 0.118894 -0.068910 -0.027936 0.116951 0.094022 0.068228 
only -0.027336 0.025583 -0.106840 0.055847 0.051608 0.090034 0.035055 -0.020902 -0.097593 -0.037300 -0.112364 -0.016497 0.024469 0.016720 0.091330 0.023742 -0.006313 0.028079 -0.105456 0.123782 -0.080380 0.032166 0.051848 0.103431 0.006155 -0.111446 -0.060140 0.115486 0.020312 0.034839 -0.057057 -0.120898 0.003337 -0.051163 0.048775 -0.104314 0.100485 -0.055639 0.042214 -0.004945 0.000056 0.115722 0.020520 0.079739 -0.037740 -0.085082 -0.108361 0.118818 0.025848 0.051832 0.123757 0.109682 0.106741 0.092899 0.007806 -0.091693 0.118120 -0.101133 -0.101423 -0.114242 0.080876 -0.097866 -0.065810 0.011383 0.058713 0.084934 0.110809 0.051032 -0.075346 -0.013122 -0.051429 0.090213 0.115855 -0.016042 0.051081 0.014338 -0.098498 0.007266 0.071777 0.044841 0.089730 0.035574 0.002019 -0.048912 0.058620 0.113774 0.102338 0.034023 -0.005140 0.116398 -0.009700 -0.019655 -0.077458 -0.028510 0.065711 -0.023568 0.122182 -0.082807 0.053234 0.042312 0.004224 -0.013625 -0.014120 0.009265 0.004622 0.061231 -0.035627 0.021088 0.108352 0.057150 -0.093377 0.058553 -0.087509 -0.034533 0.006883 0.099572 0.027051 0.088694 0.091588 0.000287 -0.116333 0.048960 -0.025602 -0.095209 0.013133 0.000405 0.088485 0.023762 -0.038115 -0.056666 -0.108057 0.108582 0.101683 -0.062130 -0.075341 0.011429 -0.100034 0.079443 0.032294 0.112323 0.091835 0.055981 0.112276 -0.106824 0.005072 0.097673 -0.075074 0.078201 0.000812 0.016226 -0.030945 0.039096 0.038004 -0.080724 0.101127 -0.092232 0.120069 -0.018363 -0.001822 -0.109606 0.049012 -0.061033 0.114426 0.004278 -0.027205 0.091531 -0.009845 0.085330 0.064194 0.060574 -0.025051 0.031374 0.082166 0.010946 -0.029118 0.038734 0.103677 -0.053417 -0.036189 -0.110393 0.001397 -0.089052 -0.014177 -0.092323 -0.036852 0.001667 -0.121921 -0.013528 -0.002681 -0.082489 0.048478 0.086380 -0.088538 -0.115401 -0.016131 -0.014813 0.098041 -0.045536 -0.041995 -0.005407 
names -0.008498 -0.008689 0.061083 0.024327 0.089561 -0.071861 -0.024345 0.028793 -0.023037 -0.009932 -0.089193 0.027015 0.012588 -0.011594 -0.100162 0.096690 -0.095848 0.030448 0.035242 -0.098865 -0.107858 0.045897 -0.004863 0.110015 0.039455 0.023655 -0.009589 0.031466 -0.005391 0.011818 0.054363 -0.020027 -0.061105 0.117682 0.042700 0.092427 0.112801 0.034162 0.107114 0.091343 0.105647 -0.013054 -0.015081 -0.004780 0.039527 0.024132 -0.053799 -0.118246 0.095732 0.016226 0.083455 -0.112161 0.041175 -0.107067 0.074798 -0.027225 -0.061249 0.116728 -0.105668 -0.081725 -0.089446 0.025346 0.048928 0.038823 -0.098912 -0.037132 -0.079278 -0.002265 -0.085948 0.095787 -0.101810 -0.008899 0.012342 -0.060573 -0.044564 0.037421 0.081266 0.015460 -0.111030 -0.022398 0.065325 -0.042392 0.028074 -0.051461 -0.031781 -0.067641 0.050865 -0.090468 0.089634 -0.071384 -0.068555 0.115868 0.078086 -0.005524 -0.060100 -0.065119 0.114867 0.000444 -0.068063 -0.022961 -0.033110 0.113014 0.059247 -0.035145 -0.066163 0.084297 0.059146 -0.083170 -0.098984 -0.037609 -0.035069 -0.089341 0.049716 0.091379 0.105885 0.083235 -0.089937 -0.072612 -0.076663 -0.079716 0.018528 -0.067106 0.101752 -0.086118 0.023630 -0.080792 -0.035936 -0.095064 0.106658 -0.006377 0.076345 0.030339 0.034527 0.085843 0.116710 0.012606 0.106919 -0.052018 0.059262 0.107023 -0.027647 0.101712 -0.062702 -0.082288 0.048907 -0.056035 0.080102 0.055139 0.103493 0.114806 -0.070997 0.005033 -0.037778 -0.107226 -0.068324 0.022679 -0.016028 0.036330 -0.115366 -0.051013 0.113249 -0.057596 0.117158 -0.079152 0.116963 0.014275 0.070578 -0.102435 0.058012 0.004058 -0.044217 -0.102363 0.058489 -0.040152 0.042858 -0.001239 0.062897 -0.011060 -0.049275 0.101040 0.074936 0.021039 0.067861 -0.073010 -0.079286 0.045044 -0.105206 -0.031315 -0.040886 0.109054 -0.061603 0.067034 -0.102149 0.083574 0.054377 -0.114647 -0.022589 -0.101690 -0.079148 0.093308 
where 0.020870 0.017075 -0.016788 -0.000710 -0.078383 0.009020 0.049497 -0.090832 0.091063 -0.005331 -0.051313 -0.019809 0.063916 -0.123346 0.108369 -0.084195 -0.105379 -0.081540 -0.008779 -0.002200 -0.060534 -0.100945 -0.117164 0.027613 -0.076934 -0.063011 -0.117939 -0.076593 0.091488 -0.021669 -0.102044 -0.120777 0.000490 -0.021643 -0.091728 -0.063280 0.040151 0.015180 -0.056782 -0.092459 -0.108433 -0.054226 0.095969 -0.065919 0.067849 -0.065604 0.030362 -0.004293 -0.125392 -0.016834 -0.006987 0.082605 -0.041843 -0.115891 -0.030446 0.050152 -0.014165 -0.012278 0.094636 0.030822 -0.017860 -0.000352 0.020547 -0.004292 0.001236 -0.091126 -0.019920 -0.050662 -0.072981 -0.023375 -0.023180 -0.022034 -0.039316 0.091757 -0.112507 -0.032667 0.072001 -0.054863 0.102271 -0.104266 -0.111847 0.002463 0.115037 0.019411 -0.020118 0.065756 -0.046772 -0.091433 0.054044 0.001834 -0.044572 -0.016399 -0.113391 -0.010888 0.038986 -0.060896 0.017005 0.021134 -0.069809 0.040142 0.078681 -0.111746 -0.103483 0.118784 0.035688 -0.032922 0.053845 0.075061 0.111333 -0.087197 0.061507 0.133529 -0.105215 -0.035113 -0.114885 0.027780 0.013662 -0.047625 0.072898 0.098409 -0.116051 -0.028228 -0.052737 0.002745 0.047060 -0.064328 -0.052289 -0.037108 0.040860 0.086114 0.017937 -0.036906 0.002077 0.002091 -0.036028 0.098315 0.120752 0.022445 0.129000 0.020972 -0.080030 0.075266 -0.086500 -0.063205 -0.066106 -0.100763 0.051723 0.107828 0.056438 0.041593 0.076043 0.113168 -0.010584 -0.126938 0.084331 0.108651 -0.014914 0.078000 -0.013509 0.047197 0.079236 -0.128011 0.009799 -0.045217 -0.062306 0.079017 -0.084005 -0.096014 -0.009855 0.043242 0.078263 0.036328 -0.024079 -0.058085 -0.100143 0.069832 -0.015297 0.027192 0.099139 0.006548 -0.122364 0.093874 -0.020612 -0.044971 0.104548 0.000288 0.108530 0.041022 -0.078179 -0.074102 -0.077301 -0.016996 -0.117758 0.103771 -0.120073 0.035414 -0.108800 0.095275 0.016033 0.034834 
add 0.099628 0.008598 -0.066707 -0.108919 0.052193 0.012511 0.034282 0.028015 0.040268 0.109005 0.052037 0.005068 -0.038085 0.084638 0.020228 -0.112476 -0.008320 0.067725 0.029303 0.055306 -0.113755 -0.022049 -0.000145 -0.012383 -0.041325 0.036676 -0.101728 -0.060455 0.096045 0.070436 -0.000498 -0.006267 -0.004307 -0.067589 -0.078544 0.053044 -0.095742 0.039088 0.054275 0.071312 -0.117145 -0.097651 -0.106105 0.067611 0.058109 0.038560 -0.048239 -0.111559 -0.112178 0.089052 0.087354 -0.106065 0.108260 -0.019935 -0.032175 0.058928 0.047435 -0.073494 0.049430 -0.082013 0.079607 -0.004937 -0.118678 0.033561 -0.090620 0.057196 0.051399 0.056261 0.008754 0.021706 -0.028759 -0.046380 -0.023409 -0.111600 0.114941 -0.031139 -0.077395 -0.048563 0.022444 -0.041315 0.051098 0.069397 0.038193 0.057715 0.104320 -0.063970 0.070354 -0.028925 -0.091317 0.014396 0.090536 -0.020687 0.079765 -0.116456 -0.096719 -0.095561 0.073123 -0.110195 0.064461 -0.105261 -0.109806 -0.043109 0.020732 -0.100783 0.085879 0.076661 -0.017739 -0.059264 0.047987 0.055311 -0.012335 0.115030 -0.022930 -0.002345 -0.120095 0.052382 0.111745 0.084981 0.068986 -0.038037 0.019725 0.061255 0.027861 0.107564 0.090837 -0.032807 0.052905 0.093241 0.013143 -0.085757 -0.023219 0.046317 0.025791 0.084598 -0.029775 -0.070986 -0.034854 -0.025642 -0.001308 -0.003305 -0.045069 0.110512 0.084812 0.097104 -0.070333 -0.113848 0.104928 0.118125 -0.107629 -0.049866 -0.038444 0.027789 -0.083919 0.052282 0.104793 0.075937 0.118434 0.004647 0.096613 0.108310 -0.033793 -0.094125 0.029850 0.028942 -0.057529 -0.066146 0.045204 0.027301 0.106241 0.068335 -0.104643 -0.116328 0.105361 -0.115318 0.076497 -0.086245 -0.112436 -0.030045 -0.024132 0.017679 -0.070977 0.019089 -0.013618 -0.075752 0.058097 0.008768 0.073355 -0.117892 -0.078587 -0.005671 0.036718 -0.026715 -0.070343 0.085323 -0.028602 0.094217 0.107562 -0.029225 0.024461 -0.037302 
e 0.018533 0.122359 -0.070693 0.085546 0.037663 0.098051 -0.030365 0.050578 0.108011 0.010273 -0.007436 0.001153 -0.017445 0.035469 -0.092090 -0.105863 -0.021106 -0.089068 -0.060829 0.000080 -0.024521 -0.061422 0.121635 -0.100563 -0.086507 -0.018828 0.051440 -0.011774 0.047802 -0.035783 -0.110653 -0.027627 -0.056824 -0.124051 0.109795 0.122427 -0.020049 0.018284 -0.004756 0.018843 0.099311 0.003044 -0.105338 0.057639 0.054235 0.006674 -0.031192 -0.055258 -0.088620 0.017411 -0.060706 -0.049300 0.051080 0.086227 0.092350 -0.093089 -0.087365 0.075889 0.024116 -0.041549 0.001853 -0.088104 -0.104649 0.062188 -0.116496 0.084374 -0.070448 -0.013214 -0.062077 -0.108536 -0.088934 0.065527 0.106296 -0.051237 -0.062085 -0.058397 -0.109343 -0.069172 -0.080082 0.073767 0.110492 0.076838 0.080572 -0.020260 -0.108578 -0.064118 -0.046723 -0.007195 -0.072538 0.123553 -0.112996 0.007095 -0.028412 0.063467 0.042511 -0.020520 0.090458 -0.005196 -0.109535 -0.070436 -0.088421 -0.031464 -0.031958 -0.060312 -0.121979 0.098373 0.122324 -0.096014 -0.006295 0.058872 0.012184 0.030269 0.074346 0.089214 0.112062 0.087200 -0.001608 -0.010572 -0.044640 -0.093824 -0.042028 0.124166 -0.108953 -0.116783 -0.042993 -0.082957 0.079882 -0.024809 0.062154 0.109125 -0.007467 -0.049238 -0.099082 -0.001444 -0.084768 -0.107731 -0.083627 -0.050012 -0.053998 -0.055212 0.112437 -0.111078 -0.005338 0.065190 0.053883 0.054538 0.033765 0.022136 0.121045 -0.004078 0.098599 -0.102034 0.004166 0.077727 0.036246 0.088701 -0.041890 -0.025490 0.007467 0.049322 0.049533 -0.074549 -0.015186 0.050379 -0.094058 -0.018475 0.003576 -0.076731 -0.029591 0.005495 -0.089164 0.064011 -0.004089 -0.077137 0.118296 -0.072412 0.049104 -0.027190 0.096623 0.035492 0.008439 -0.044636 -0.118893 -0.031824 0.066044 -0.015764 0.071658 0.121662 -0.025104 -0.015075 0.076207 -0.049070 0.052596 -0.054331 0.118250 -0.022527 -0.073350 -0.082559 -0.017867 0.032689 
equal 0.037248 0.012948 0.015617 0.009941 -0.097400 -0.083769 -0.110273 0.110781 0.055702 0.088155 0.046127 -0.114797 -0.082131 0.110177 0.051714 0.108421 -0.099632 0.087842 -0.002523 -0.016616 0.006838 -0.048000 0.032635 -0.064086 0.066222 -0.075339 -0.101217 -0.015791 -0.034305 0.053139 0.094535 -0.028231 -0.116407 -0.022878 0.012091 0.033257 0.056484 0.093316 0.033602 -0.104291 0.080382 -0.075054 -0.099340 0.043180 0.075392 -0.014818 0.111879 0.086243 -0.013079 -0.086286 0.059462 -0.073370 0.051536 0.107248 -0.107373 -0.009834 0.098181 0.089008 0.051756 0.062117 0.014032 -0.093693 0.103747 -0.014014 -0.022576 -0.102379 -0.093341 -0.103566 -0.008004 -0.006202 0.075570 -0.013645 -0.113308 -0.049009 -0.113784 0.041019 0.014544 0.049443 0.070139 -0.096074 0.088031 -0.071159 0.019541 -0.057333 0.110792 -0.014107 -0.116358 -0.115722 -0.088230 -0.023248 0.102823 -0.020113 0.076927 -0.051269 0.011054 0.072993 0.085813 0.007375 -0.067750 0.065330 -0.057934 0.083535 0.015631 -0.083137 -0.059512 -0.066638 0.002794 0.111648 -0.031746 0.070029 -0.073508 0.027328 -0.029230 -0.099706 0.110643 0.031494 -0.048323 0.053793 0.005680 0.084110 -0.027154 0.053750 0.051984 -0.029553 -0.078548 -0.052521 0.049382 -0.000139 -0.024169 0.073455 0.088862 0.074088 -0.093305 -0.103332 0.086716 -0.079838 0.008843 0.104988 0.017465 0.022139 -0.063478 0.046940 -0.086133 -0.009408 0.100996 0.061001 0.099838 -0.039818 0.040049 0.078018 0.025811 -0.109125 0.048479 0.087075 -0.100762 0.033797 0.013463 -0.097446 -0.014196 -0.000480 0.113337 0.095861 -0.089360 -0.077293 -0.114119 -0.100943 0.055894 -0.003750 0.091755 0.000011 -0.069769 0.005420 -0.080652 -0.019822 0.032265 0.026646 0.012852 -0.054895 -0.012873 -0.038339 -0.089950 0.058570 -0.055965 0.003359 -0.094258 0.076725 0.110444 -0.062991 -0.112896 0.046884 0.053249 0.071969 0.032471 0.074592 0.096369 0.077045 0.112555 0.090700 -0.076835 -0.087800 
than -0.049794 0.092409 -0.029308 0.067831 -0.090002 0.109049 0.054213 -0.108643 -0.068068 0.023609 0.002910 0.038340 0.030841 -0.005180 -0.006124 -0.049170 0.014116 0.028190 -0.013974 -0.088780 0.004929 -0.090527 0.020152 -0.014417 -0.041407 0.006598 -0.058998 0.080575 -0.120646 0.009919 -0.087466 -0.109014 0.071329 -0.119252 -0.091001 -0.046640 -0.076818 -0.057059 -0.038591 0.092707 0.121725 0.054322 -0.085270 -0.057983 -0.078113 -0.121744 -0.067525 -0.019928 -0.113820 -0.079592 -0.000426 -0.043052 -0.092221 -0.028595 0.126214 -0.036662 -0.092695 -0.113230 -0.076963 -0.107887 -0.095419 0.115633 0.052782 -0.040909 -0.040448 -0.115733 -0.005922 -0.079960 -0.049470 -0.018448 0.010755 0.116485 0.077312 0.033618 -0.031370 -0.071905 0.073361 -0.032167 0.020555 0.086224 0.039110 0.021158 -0.107720 0.094321 0.070266 -0.015250 0.122333 0.025791 0.119064 -0.020981 0.045732 0.047759 -0.051828 -0.070198 0.088251 0.105403 0.117734 0.081796 -0.039733 -0.035147 -0.003782 -0.027489 -0.052931 -0.037046 0.044931 -0.020840 -0.094620 -0.007046 0.000389 0.012615 -0.005125 0.025671 -0.060739 0.065138 -0.073097 0.052482 -0.003788 -0.049497 0.007901 -0.081438 0.090553 0.023950 0.055692 0.021727 0.002390 -0.050432 0.009029 0.080518 0.031527 -0.022479 0.068574 0.090563 0.057321 -0.085545 0.030294 -0.107255 0.024194 0.116006 -0.004494 -0.112581 -0.057900 0.007315 0.112203 0.031230 0.120412 0.072522 0.112328 0.088056 -0.068090 0.121059 0.027323 -0.112648 0.086261 0.006745 -0.040898 0.081311 0.079783 -0.078558 0.066267 -0.128858 -0.039346 0.089104 0.072795 0.038119 -0.119675 0.066468 -0.002124 -0.100340 0.028770 -0.036878 -0.037110 0.109070 -0.106365 -0.049798 0.114082 0.119530 0.060548 0.031421 -0.074606 -0.056003 -0.109479 -0.003854 -0.056000 -0.068522 0.093352 -0.041620 0.000475 -0.036491 -0.091401 0.097967 0.015584 0.005619 -0.096333 -0.104944 -0.041978 0.069969 -0.026249 -0.085654 0.114772 -0.013034 
let's 0.038270 0.007695 0.075323 -0.090664 0.111956 0.102131 0.012789 0.035464 0.013664 -0.056737 -0.104997 -0.105105 0.114617 0.070707 0.001338 0.057858 0.112479 0.105584 -0.062391 -0.068838 0.011078 -0.024820 0.105655 -0.037430 0.120402 -0.087054 -0.011175 -0.073712 0.076885 -0.031368 0.111425 -0.097317 0.068050 0.008293 0.079269 0.033356 0.097724 -0.040786 0.049266 0.031278 -0.013963 0.054846 -0.005374 -0.084416 0.104212 0.100008 -0.050208 0.011575 -0.095018 -0.039246 0.010442 -0.029013 -0.117966 0.054233 0.088553 -0.003345 0.100430 -0.120900 -0.087596 0.107714 -0.048331 -0.025029 0.006301 -0.105330 0.113137 -0.037033 -0.023941 -0.011014 0.098801 0.015304 -0.021415 0.103633 -0.026281 0.120503 -0.012909 0.012815 0.109116 0.083384 0.036021 0.041832 -0.042277 0.014931 -0.023882 0.087353 0.013230 0.087361 -0.035707 0.107281 0.095766 0.044261 -0.026244 0.120750 0.086692 -0.064615 0.038951 -0.036802 -0.071398 0.116646 0.010622 0.021157 0.115185 0.025470 0.045678 0.007598 -0.023291 -0.104694 0.117330 -0.058344 -0.115604 0.020836 0.015091 -0.096300 0.025773 0.023183 0.079568 0.035329 -0.085197 0.074564 -0.022192 0.049516 0.106410 -0.081433 -0.072049 -0.034604 -0.007908 0.094805 -0.035557 0.108267 0.004305 -0.020529 -0.061973 -0.115062 -0.098053 -0.010289 0.005613 -0.011896 -0.004993 0.114045 -0.104519 -0.052962 -0.080084 -0.087637 -0.112995 0.087039 0.109131 -0.014490 0.075861 0.059846 0.076616 0.015843 -0.115835 0.068293 -0.112569 -0.008121 0.019920 -0.113417 -0.087200 -0.036630 0.027709 0.084946 0.095317 0.041301 0.003207 0.070191 -0.051052 -0.091972 0.103323 0.045151 0.028613 0.041929 0.056337 0.028961 -0.029256 0.002896 -0.103308 0.101989 -0.037134 -0.098087 -0.035004 -0.084027 0.008805 -0.088803 -0.071705 -0.081321 -0.071309 0.019266 0.004731 -0.115690 0.093748 0.030942 -0.016183 -0.106765 -0.043293 0.057208 -0.038771 0.087054 0.011257 0.025350 0.093875 -0.066192 
be 0.072588 -0.072724 0.106294 -0.054585 0.035908 0.044491 0.046583 -0.053650 0.073802 0.023151 -0.009891 0.090630 -0.042392 0.001658 0.111912 0.083018 -0.014259 0.004936 -0.112340 -0.033967 0.037278 0.053791 0.074022 0.025678 0.069301 0.023619 0.050399 -0.060678 0.089790 0.099503 -0.026439 -0.103897 -0.102349 0.001409 0.051763 -0.065683 0.116675 0.041732 0.084008 0.116092 -0.039430 0.085609 -0.086711 0.094058 -0.076151 0.052248 -0.062416 0.089977 0.053397 -0.061875 -0.091972 0.105383 0.012231 0.027846 0.065444 -0.015341 -0.030313 -0.055101 0.044950 0.096325 -0.060619 0.113642 0.000436 -0.058684 -0.024758 0.043372 -0.097409 -0.000597 -0.029098 -0.002036 0.020933 0.118178 0.105551 0.102638 -0.027668 -0.057854 -0.106905 0.054230 -0.090382 -0.072076 -0.092345 0.072100 0.050623 0.093658 0.001240 -0.038527 -0.054350 0.015672 -0.116289 0.071511 -0.069470 0.102406 0.047529 0.096727 -0.082099 0.057151 0.078564 0.031384 0.119101 -0.102543 0.083481 -0.096044 0.085227 -0.053373 0.024342 0.091737 -0.080503 0.101163 -0.108942 0.012282 0.011314 0.095466 -0.003386 -0.089645 0.088890 -0.086229 -0.005148 0.082675 -0.033017 -0.104028 0.039750 -0.088049 -0.054274 -0.066366 -0.073525 0.034055 -0.029424 0.015077 -0.060014 -0.032961 -0.008869 0.118263 -0.033363 0.009002 0.051361 0.098898 -0.048529 0.019199 0.015614 0.094692 -0.095235 -0.073452 0.010434 0.072975 0.119404 -0.043749 0.032542 0.046243 0.000963 -0.075357 0.112379 0.081269 -0.016465 -0.071024 0.099805 0.090392 0.071613 -0.077537 -0.088321 0.031048 0.064271 0.110185 0.004090 -0.078253 0.104169 0.074589 -0.092114 0.080686 -0.094706 -0.090289 -0.011126 -0.072737 -0.074272 0.026062 -0.100522 -0.103427 0.009730 -0.041370 0.104181 0.003540 0.028260 -0.033986 -0.079229 0.099350 -0.059686 -0.076983 -0.090070 0.075128 -0.024058 0.009753 -0.011528 -0.100216 -0.046839 -0.033598 -0.101611 0.053890 0.019496 0.085546 -0.092243 -0.096072 
