48 200 #File: 07_03_Boyce_Codd_Normal_Form_Part_3.txt.bin
</s> 0.099131 0.109451 -0.094860 -0.081184 0.033845 0.074820 0.023301 0.005234 -0.089245 0.054943 -0.107890 0.030946 -0.018608 -0.023706 -0.082118 -0.046614 0.063880 0.074926 0.073532 0.039562 0.038259 -0.094176 -0.101436 0.123078 0.094142 0.076529 -0.014957 0.099452 -0.012259 0.018196 -0.003696 -0.073883 0.032499 -0.033123 -0.094740 0.117742 0.108457 -0.027122 -0.005600 0.012611 -0.090091 -0.099240 0.112803 0.001561 -0.063956 -0.075342 -0.076192 0.042026 0.004988 0.032964 -0.104353 -0.094305 -0.003220 0.028324 0.063147 -0.078509 0.101035 0.022957 0.027730 -0.015067 0.073963 -0.056659 -0.051946 0.053454 -0.018653 0.025527 0.044690 -0.101258 -0.049112 0.072160 0.104807 0.097381 -0.075459 -0.052199 -0.022515 0.049569 -0.093825 0.074246 0.069042 -0.039600 -0.038425 -0.055434 0.104731 0.096882 -0.029219 0.104387 0.119379 0.044959 0.123407 -0.077050 -0.037934 -0.052192 -0.071998 0.069711 0.039113 0.010525 -0.054327 0.037741 0.075769 0.004796 0.056458 -0.122655 0.106863 0.011885 -0.045348 -0.051595 -0.018525 -0.072689 -0.108215 -0.070263 0.105925 -0.043833 -0.066359 0.057392 -0.042196 0.117803 -0.039740 -0.113646 0.067259 -0.001840 -0.086403 0.024167 0.035712 -0.011923 0.045182 -0.098016 0.021820 0.044989 -0.074522 0.003518 -0.001504 -0.059417 -0.070153 -0.116246 0.000567 0.003783 0.000242 -0.097426 -0.122886 -0.117553 -0.107127 -0.013548 0.034457 0.029329 -0.078815 0.123781 -0.049815 -0.031543 -0.034782 0.117206 -0.093213 0.028754 -0.033074 0.078947 0.001005 0.105740 -0.069821 -0.064519 -0.103824 -0.090813 -0.079238 -0.077141 0.060532 -0.046236 0.066374 0.091388 0.033580 0.073075 0.061311 0.057966 -0.087937 -0.085024 -0.090560 -0.003269 0.102298 -0.067776 -0.075792 -0.103926 0.081876 -0.103495 -0.014345 0.053960 -0.114375 -0.110917 0.035734 0.087291 0.105608 0.053137 0.078316 -0.077458 -0.090159 0.098439 -0.068475 0.043424 0.014217 0.044339 -0.029280 0.004924 -0.041758 -0.027900 
the -0.110625 -0.074805 0.082749 0.028907 -0.051628 -0.036577 0.057803 -0.088023 -0.054524 0.120685 0.103640 -0.091698 0.019833 -0.054054 -0.001195 0.073635 0.115783 0.048289 0.099809 0.079490 -0.006797 0.107990 0.065095 0.109252 -0.037512 0.111215 0.107119 -0.035029 -0.102959 0.114867 0.019051 -0.049966 -0.020049 -0.017794 -0.090430 -0.036830 -0.012162 -0.117736 -0.081338 -0.029353 -0.022364 0.043287 0.017021 -0.014016 0.072855 0.032498 0.015741 0.084048 -0.022803 -0.032552 -0.008942 -0.067166 -0.070490 0.013056 0.101720 -0.037074 -0.002497 -0.094604 0.095186 -0.037369 0.076890 -0.053793 -0.027079 0.005972 0.086873 -0.001615 0.109632 -0.019561 0.055377 -0.002694 -0.095178 0.103088 0.024804 -0.078806 0.072182 -0.096945 -0.109348 0.077380 -0.082565 -0.062804 0.087583 0.079055 0.013232 0.105841 0.116838 0.103153 0.045499 -0.103474 0.055655 -0.116453 -0.030770 0.037413 0.020771 -0.037130 0.069289 -0.108066 -0.033265 -0.033214 -0.044247 0.073535 -0.116262 0.068766 0.030106 0.066015 0.088187 0.008117 0.021908 -0.106442 -0.024113 0.081484 -0.043922 0.103638 -0.032519 -0.093481 -0.057742 0.122260 0.080526 -0.099645 0.115383 -0.099785 -0.115654 0.056851 -0.012099 -0.060892 -0.009191 -0.058400 0.059987 0.087147 0.102685 -0.102037 -0.052773 0.000136 -0.026906 0.093472 0.049526 0.108055 -0.073230 0.040340 0.101022 -0.048194 0.075576 0.028910 -0.107392 0.105074 0.114135 -0.068602 -0.009775 -0.038371 0.058651 -0.089476 0.082338 -0.024255 -0.030269 -0.047764 -0.101293 -0.072397 -0.023966 0.106552 -0.062784 -0.108329 0.006480 0.013753 0.068168 0.005436 0.079080 0.071660 -0.026319 -0.013327 0.022116 0.033843 0.083578 0.101422 -0.056601 -0.060191 -0.036537 -0.067168 0.029949 -0.091886 -0.055709 -0.119186 0.054011 0.103967 -0.054228 -0.108363 0.074968 0.041585 -0.061483 -0.014245 -0.030196 -0.005170 -0.042394 -0.000510 -0.064444 0.086860 0.095706 0.082051 -0.039447 0.003909 0.021844 -0.068461 
we -0.115047 -0.027273 -0.046551 0.073844 0.064763 0.041586 -0.073554 0.082725 -0.039418 0.083985 0.031963 0.112393 0.059028 0.017184 -0.053756 0.119078 -0.051909 0.080011 0.120093 0.116792 -0.016428 0.079940 0.109752 -0.053213 0.113228 -0.116211 0.007556 -0.011709 0.099687 -0.101607 -0.035357 -0.037020 0.010432 0.112048 -0.039896 -0.119454 -0.036608 0.099658 0.025779 0.067332 -0.092673 -0.029164 0.013113 -0.055820 0.085514 -0.114538 0.076548 -0.056068 0.076153 0.076606 -0.043855 0.082030 0.008974 0.116021 -0.083987 -0.030802 0.065725 0.105532 0.056554 -0.022101 0.014923 -0.016582 0.042775 0.061639 -0.089026 -0.031066 0.104330 0.005328 0.120747 0.114329 0.019615 -0.106730 0.107331 0.048272 -0.109940 0.088153 -0.118847 -0.053086 0.105813 0.078230 -0.014828 0.029647 -0.076144 -0.109100 0.055080 0.107406 0.098717 0.065770 0.037049 0.046716 -0.002553 0.039660 -0.060789 0.020290 0.022171 -0.000248 0.057570 0.016407 -0.097713 -0.032731 0.047254 0.085884 -0.090753 0.025349 0.086418 0.089066 -0.097743 0.066543 -0.062607 -0.032739 0.028713 0.056313 -0.097627 -0.065607 0.029407 0.007921 0.108073 0.049049 -0.063974 -0.000499 0.020728 -0.056797 0.077492 -0.067331 0.117321 0.017351 -0.105806 0.008437 -0.008831 0.022058 0.070935 0.004374 -0.007545 0.008706 -0.065870 -0.005567 0.075849 0.083289 0.047409 -0.119203 0.006994 -0.060258 0.087016 0.101932 0.078882 0.036199 0.028166 -0.042364 -0.057688 -0.045949 -0.093424 0.006101 0.017634 0.031705 0.050880 -0.093247 0.073950 -0.034456 -0.101989 0.093152 -0.069638 -0.018433 -0.098900 0.111623 -0.046821 -0.109578 0.092102 0.040129 0.085983 0.032234 0.090654 0.012415 0.087656 0.101226 0.039669 -0.014288 0.027130 0.091433 -0.074981 -0.013736 0.029809 0.048637 0.013670 0.085140 0.033521 0.078251 -0.079935 -0.047009 0.044809 0.107914 0.038239 0.015455 -0.110170 -0.102755 0.102805 0.060049 -0.070285 -0.039438 -0.090419 -0.081768 
and 0.106627 -0.065391 0.025153 -0.026242 -0.052976 -0.013090 -0.110390 -0.055510 -0.005780 0.106110 -0.044768 0.089158 -0.108578 0.100667 0.015456 0.005901 0.063025 0.079497 -0.076192 0.074047 0.032055 -0.028758 0.074637 0.011916 0.102724 0.004999 -0.039075 0.078653 -0.081760 -0.010772 0.097201 0.112763 -0.097003 0.032844 0.096629 0.012841 0.060751 0.064489 0.113192 -0.022061 -0.025380 0.072895 -0.119764 0.026836 0.008905 0.106887 -0.087709 -0.001962 0.107272 0.035015 0.062886 0.030504 0.033112 0.026286 0.005274 0.082922 0.090636 0.069433 -0.046469 -0.066293 -0.076948 -0.027086 -0.058543 -0.097909 -0.045244 0.086011 0.062945 -0.113328 -0.050863 0.096999 -0.008751 0.086502 -0.029958 -0.005388 -0.059556 0.039629 -0.098954 0.068039 -0.055668 0.065288 -0.073823 -0.054535 0.096805 0.062075 0.049191 0.036262 0.071116 -0.011322 0.093570 0.088798 0.081342 0.104239 -0.057113 -0.088468 -0.079082 0.006899 0.021537 0.094109 -0.075899 0.075983 0.092910 0.084441 0.004511 0.029815 -0.019512 0.111626 -0.104507 -0.112829 0.048575 -0.015877 0.111578 -0.032712 0.000469 0.051212 0.025564 -0.071604 0.080293 0.001170 0.031799 -0.030453 0.111527 0.063095 0.103993 0.109520 -0.022255 0.045446 0.035584 -0.053544 0.103340 0.057139 -0.079537 0.100043 0.011340 0.026814 -0.087386 0.048241 0.005956 -0.056794 -0.014253 0.050192 -0.029239 0.095503 -0.066700 -0.055598 0.089785 0.111890 0.089528 0.110195 -0.113947 -0.078991 -0.112678 0.025531 -0.095858 -0.007676 0.021485 -0.050449 0.027625 -0.106073 0.045090 -0.038874 -0.040198 -0.024900 0.052030 -0.041148 -0.055206 -0.075881 -0.044078 -0.098583 0.046447 -0.029917 -0.029158 0.047962 -0.092029 -0.078551 -0.109774 -0.003371 -0.046242 -0.112865 0.048333 -0.113621 -0.052800 0.036145 0.118415 -0.083737 -0.047856 0.116848 0.074182 0.105061 0.092528 -0.062295 -0.050563 0.050911 0.071652 0.088358 0.078437 -0.107225 -0.106729 0.016721 -0.105930 0.070071 
a 0.103180 -0.048684 0.092231 -0.120948 0.101770 -0.057993 -0.017852 -0.117785 0.073993 0.099213 -0.099194 -0.022221 0.023650 0.107482 0.004031 -0.119300 0.015351 -0.044587 0.021980 0.096459 -0.068723 -0.064347 -0.011142 -0.024849 -0.042341 -0.084820 -0.000319 -0.099361 0.098296 0.065022 -0.032966 0.074353 -0.068678 -0.112701 0.107553 0.028820 0.068634 -0.082103 -0.031036 0.087091 -0.033255 0.023795 -0.110477 -0.096689 0.115933 -0.110459 0.025053 -0.077849 0.094332 -0.009787 0.105712 -0.080626 0.027361 -0.111260 -0.077534 -0.025205 0.101250 -0.061422 0.056809 -0.014204 0.076561 0.067516 -0.065152 -0.089429 0.017904 0.020914 0.016457 0.011361 0.050699 0.091419 0.092603 -0.118498 0.117938 -0.097231 0.015061 -0.095145 -0.019820 0.112470 -0.060342 0.039613 -0.054723 -0.020595 0.083027 0.061541 -0.104591 0.039457 -0.007104 0.050451 0.016806 -0.083632 0.007520 -0.096273 0.070029 0.024403 0.039483 0.066039 0.119689 0.108922 0.062183 0.069914 0.047968 -0.023906 0.109824 -0.004836 0.041094 -0.020625 0.034183 -0.017589 0.102869 0.046554 -0.008915 -0.010151 0.054663 -0.077010 -0.046075 0.036481 0.021898 -0.098671 -0.043091 -0.041120 -0.052436 0.091790 0.095052 -0.102331 0.078699 -0.064317 0.037702 0.054281 -0.006562 -0.091916 0.001492 -0.038759 0.060439 0.058401 0.020629 -0.058401 -0.020547 0.010374 -0.053112 -0.107259 -0.002479 -0.064970 -0.063905 0.016097 -0.063987 0.064206 -0.038355 0.087432 -0.079649 -0.039168 0.057744 -0.056679 -0.106476 -0.021634 0.076168 -0.032376 0.102572 0.044594 -0.070497 0.118535 -0.117611 -0.095123 0.077623 -0.071421 0.088112 0.095100 0.068255 -0.035954 -0.066986 -0.004235 -0.003585 -0.120918 -0.092625 0.021137 0.017927 0.118357 0.075804 -0.083424 0.106187 -0.028842 0.077244 -0.025272 0.052162 0.003775 0.097925 0.062573 -0.049133 0.113591 -0.101592 0.107898 -0.041873 0.015562 0.029781 0.099302 0.047337 -0.028070 -0.112251 0.086193 0.009464 0.062506 
to -0.097325 -0.063862 -0.059923 -0.058029 0.074979 0.061074 -0.006598 0.052903 -0.012327 -0.033117 -0.098023 -0.068474 0.006046 -0.056463 -0.059291 -0.102058 0.073611 0.100248 -0.037269 0.091488 -0.046882 -0.116570 -0.118574 -0.011294 -0.050398 0.004836 -0.088550 0.090458 -0.053679 0.031388 0.086696 -0.006204 -0.113212 0.072298 0.019278 0.079073 0.015784 0.056014 0.104614 0.063847 -0.084703 -0.028763 0.075325 -0.033051 -0.049383 0.107942 -0.034695 0.108479 0.065256 0.093305 0.109718 -0.095276 0.021963 0.096791 -0.060085 0.037309 -0.115242 0.107103 -0.088432 0.043032 0.018932 -0.067819 0.058570 0.000975 -0.114036 -0.077749 -0.006965 0.050475 -0.028347 0.005763 0.110380 -0.090907 0.099002 -0.069599 -0.097788 0.077690 -0.089749 -0.013861 -0.115543 -0.087700 0.071964 0.041171 -0.089756 0.034294 0.105871 0.023945 -0.107041 -0.079786 0.075994 -0.076837 0.047257 0.070923 0.106607 0.028799 -0.075001 0.083471 -0.099796 -0.031970 0.102363 0.097196 -0.057415 -0.089679 0.010702 0.070673 0.056753 0.085391 0.105687 0.022731 -0.115051 0.060162 -0.060820 0.032455 0.093735 -0.056154 0.087358 -0.001835 -0.036173 -0.094092 -0.018425 0.119453 0.041278 -0.064950 0.077502 -0.066885 -0.031672 0.080227 -0.073001 0.000268 -0.070493 -0.031381 0.106246 -0.021783 -0.071419 0.010706 0.046595 0.066554 0.029568 -0.045827 -0.037298 0.043091 0.115727 0.088995 -0.111542 -0.013089 -0.110446 0.042348 -0.081989 0.037354 0.077863 -0.016303 -0.035254 -0.088024 0.021624 -0.098255 0.002302 0.111642 0.086130 0.086465 0.064572 -0.007616 -0.026126 -0.075983 0.004685 -0.065443 -0.070360 0.065899 -0.022956 -0.103264 0.017447 0.018782 -0.044713 -0.102249 -0.120464 0.072637 -0.026692 0.016685 -0.058548 0.095659 -0.115764 -0.089157 -0.034055 0.016296 0.083489 0.020834 0.017035 0.064266 0.062674 -0.116547 -0.022022 0.047511 0.096699 0.059816 0.033305 0.075240 0.038696 -0.033786 -0.054238 0.075902 0.043065 0.043252 
that 0.020723 0.038826 0.084813 0.069873 -0.102225 0.011270 -0.048062 -0.121195 0.008552 0.105480 -0.014197 0.102318 0.111913 0.003764 0.098375 -0.036598 0.027960 -0.060394 0.017890 -0.028868 -0.116997 -0.037233 0.023766 -0.039080 0.109566 -0.060722 -0.033275 0.074388 -0.023429 0.041382 0.003701 0.024465 0.039024 0.012630 0.107899 0.075256 -0.066699 -0.097220 0.068800 0.062173 0.091923 0.067802 -0.017905 -0.118129 0.028782 -0.054966 0.004717 -0.017819 0.053916 0.012929 0.109872 -0.107693 0.048668 0.076280 0.087041 -0.062405 -0.044377 0.001118 0.031914 0.014701 0.023579 -0.040313 0.101425 0.081520 0.072635 -0.059496 0.023811 -0.087778 -0.015864 -0.006672 0.078489 0.077124 -0.054364 -0.015808 0.116182 -0.017056 -0.039039 0.085340 0.048855 0.077513 0.095182 0.040321 0.094681 -0.109966 -0.015325 -0.101107 0.043143 -0.009177 0.061960 0.017026 -0.010070 0.031567 0.085897 0.077027 0.091975 -0.029840 0.121557 0.067413 0.077517 0.070710 0.050282 0.037944 -0.018996 -0.076339 0.059627 0.099619 -0.101873 -0.084398 -0.091549 -0.065253 -0.014182 0.004429 -0.093209 0.021781 -0.027683 -0.035686 -0.064008 -0.079457 -0.107929 0.120604 -0.061362 -0.012997 0.085740 -0.119983 -0.081442 -0.096532 -0.024648 -0.064647 -0.059179 -0.096577 0.024050 0.060782 -0.113229 0.036628 0.021314 0.091717 -0.056039 -0.075854 0.062834 -0.075188 0.116219 -0.016809 0.060577 0.007898 -0.021321 -0.042691 -0.012253 0.115147 -0.097380 -0.103738 -0.121206 0.081969 0.075596 -0.088951 0.074377 0.049987 0.011498 -0.071054 -0.003476 -0.022902 0.020364 -0.061530 0.108377 -0.117561 -0.016462 -0.010619 -0.045550 0.091358 0.088574 -0.052290 0.120368 0.010575 0.094330 -0.014298 0.028161 0.087920 0.065877 0.091874 -0.103996 0.097563 -0.115442 0.071017 0.003312 0.119886 -0.017105 0.034131 -0.044160 0.051542 0.119748 -0.091508 -0.089478 0.095395 0.115218 -0.072415 0.085531 0.025616 0.095616 -0.103798 0.025380 -0.077416 
in 0.003544 -0.074974 0.071028 -0.072383 0.088123 -0.057962 -0.111899 -0.000477 -0.076907 -0.064733 -0.058191 -0.088810 -0.118693 -0.045319 0.020743 -0.010657 -0.094895 0.111753 -0.025007 -0.115807 -0.001667 0.087444 -0.037845 0.045469 -0.019670 0.116227 -0.044677 0.000379 -0.022057 0.002068 -0.010908 0.075649 -0.066486 0.102443 -0.086449 -0.078510 0.096892 0.098314 -0.113701 -0.012369 0.041411 -0.021851 -0.119572 0.047286 -0.106081 0.037924 -0.069467 -0.064831 0.088769 -0.102901 -0.113296 0.039508 -0.108213 -0.025349 -0.093461 0.072016 0.106336 0.013044 -0.036869 0.051911 0.121246 0.062248 0.091073 0.059914 -0.121141 -0.012271 -0.105548 -0.007759 0.121036 -0.037541 0.022875 0.052616 -0.070901 -0.025094 -0.042575 0.014253 -0.078093 0.075041 -0.021299 -0.042128 0.041802 -0.117676 -0.063206 0.025694 0.046622 0.061738 -0.010698 -0.070567 0.001712 0.109741 0.109317 -0.065687 0.033919 0.076302 0.085428 0.121055 0.085585 0.072894 0.013731 -0.106137 -0.085450 0.026483 0.051824 -0.051528 0.078168 -0.074463 -0.073206 0.058097 -0.034730 0.066032 -0.080758 0.057451 0.010210 0.067429 -0.120743 0.088757 -0.029174 0.102699 -0.035563 0.109733 -0.087537 -0.085694 -0.098130 -0.106407 -0.038033 0.044230 -0.027845 0.013067 0.061682 0.111933 0.025383 0.118367 -0.030555 0.044381 -0.026854 -0.078795 -0.003393 0.076047 0.034542 -0.067188 0.024009 0.010897 -0.001839 -0.012098 -0.006006 -0.039598 -0.039902 -0.017309 -0.089594 0.097534 0.077950 0.120904 0.084594 -0.081250 0.078806 -0.070251 -0.094609 -0.033968 -0.002740 -0.018044 0.053153 0.104846 -0.070593 -0.072263 0.039715 0.016152 0.032845 -0.029185 -0.069579 -0.065574 0.034662 -0.115597 0.098123 -0.090364 -0.030548 -0.004771 -0.006847 0.053254 -0.066689 -0.046498 0.111366 0.046242 0.083836 -0.037053 0.026096 -0.122931 -0.097890 0.042781 0.110195 0.087714 -0.085263 0.027721 0.060000 0.051633 -0.028191 0.059989 -0.120645 -0.058202 -0.015083 0.097301 
r -0.118803 -0.007220 -0.071885 -0.085979 -0.057623 0.008146 0.078078 0.078386 0.007586 0.098663 0.044310 0.001174 0.080619 -0.050500 -0.017669 -0.116576 -0.016802 0.034801 0.108349 -0.013139 0.083257 -0.081645 -0.029019 -0.094381 0.081138 -0.047077 -0.092184 0.022807 -0.019366 0.066436 0.074374 0.053938 0.088991 0.004753 -0.041421 0.017977 0.045859 0.059946 0.080093 -0.005419 0.037102 0.099255 0.048222 -0.118666 0.066513 0.050611 0.018484 -0.120725 -0.044184 -0.097366 -0.035672 0.007368 0.072944 -0.052604 -0.080108 0.102508 0.118240 0.052137 -0.019996 0.062280 0.095496 -0.097974 0.057423 0.087720 0.069195 -0.028793 -0.117165 -0.044966 -0.078249 0.066228 -0.024100 -0.013361 0.081790 0.054330 -0.054075 0.080119 0.067580 0.106205 -0.051571 -0.049011 -0.056393 -0.032290 -0.043140 0.103737 0.077804 -0.069081 0.005356 -0.110264 -0.072248 0.105834 -0.054015 -0.065147 -0.017232 -0.065139 -0.065736 -0.045396 0.064572 -0.107857 -0.056356 -0.032045 0.055579 0.026993 0.008260 0.054560 -0.101111 -0.036113 -0.019818 0.112005 0.083820 0.116280 0.014928 0.098566 -0.053430 -0.012732 0.085946 0.033209 0.097837 0.111687 -0.015387 -0.004412 -0.004801 0.114013 0.048518 -0.116710 -0.114787 -0.077823 -0.052341 -0.102648 0.075122 0.010324 -0.101756 0.056738 -0.038183 -0.057760 -0.065587 -0.044418 -0.026078 0.070688 -0.091769 -0.023007 0.115232 0.080838 -0.024781 0.079245 -0.035294 -0.038691 0.108823 0.038543 -0.109720 0.004175 0.100422 -0.065458 0.077819 0.076674 0.044844 -0.092410 0.045592 0.106738 0.097607 -0.084038 0.100844 0.082986 -0.010602 -0.021377 -0.116773 0.054730 -0.002882 -0.067532 0.064128 -0.110790 -0.027167 -0.082157 -0.080945 -0.000122 0.072062 -0.106975 -0.001985 -0.110168 0.025493 0.119740 -0.059342 0.093906 0.110024 -0.050641 -0.067151 -0.006182 -0.065039 0.007753 -0.021618 0.003019 -0.101415 0.010435 -0.101022 0.110131 -0.025656 -0.023629 0.062572 -0.121059 -0.046385 -0.014784 
of -0.073266 -0.095040 -0.068784 -0.065453 -0.019191 0.116179 0.062708 0.025434 0.046503 0.015601 0.078727 0.034044 0.006209 -0.104657 0.013419 0.040045 0.045821 0.108221 -0.038374 -0.058992 -0.073667 0.096559 0.078890 -0.062000 -0.044962 0.091772 0.095858 0.049989 0.014330 -0.099619 0.046673 0.113845 0.047303 0.118002 0.026178 0.027138 0.057751 -0.055843 -0.052883 -0.009066 0.110166 0.095862 0.025734 0.024204 0.086945 -0.105961 0.053372 -0.036185 -0.068821 -0.065697 -0.117924 -0.049863 -0.110537 -0.098226 -0.089812 -0.058562 0.026289 0.027871 0.111152 -0.043313 -0.018746 0.119113 0.033514 0.075552 -0.059751 0.042720 0.014916 -0.047196 -0.092932 -0.030591 -0.031898 0.032310 -0.053794 -0.112200 0.109314 0.090238 -0.059944 0.090008 -0.012900 -0.036541 0.074511 -0.042342 -0.060900 0.035140 0.110566 -0.095736 0.120858 0.020751 0.112715 -0.081554 0.020221 -0.060740 -0.036648 0.049522 -0.085870 0.113134 0.091168 -0.078086 -0.102571 -0.045654 0.014360 -0.050863 -0.117139 -0.093239 0.040219 0.119810 0.086670 -0.010651 0.051141 -0.002345 0.057402 0.038978 -0.009781 -0.064512 -0.110100 -0.046781 0.104046 0.104027 -0.017494 -0.066861 -0.028483 0.006294 0.065864 -0.002293 -0.039375 -0.065594 -0.068680 -0.016209 0.014464 -0.001619 -0.083484 0.031761 -0.105972 -0.116661 -0.065805 0.099885 -0.093391 0.063497 -0.042198 -0.035666 -0.065397 0.102575 0.021481 -0.052427 -0.078898 0.110592 -0.022725 -0.052827 0.112700 0.015468 -0.019272 -0.078598 0.088293 0.048618 0.005283 -0.110770 -0.026927 0.016564 0.085085 -0.069676 -0.047066 0.029324 0.072177 -0.057747 0.031669 0.014816 -0.120695 -0.116713 0.030972 -0.038341 -0.034492 0.015193 0.076038 -0.080828 -0.120666 -0.067957 0.109959 -0.002627 -0.041575 0.017001 -0.106269 -0.118617 0.115523 -0.014460 -0.022555 0.045417 0.081276 0.099426 0.000697 0.053197 -0.110174 -0.047270 -0.093421 0.014741 -0.121184 -0.071381 -0.058314 0.100767 -0.039012 -0.014638 
is -0.071428 0.056416 0.108482 -0.099671 -0.010030 -0.066160 0.115174 -0.007523 0.070345 0.080459 0.075243 -0.079141 -0.066464 -0.054768 -0.097529 -0.115851 -0.116821 -0.003269 0.050438 -0.098909 0.042977 0.043779 0.073061 0.050405 0.116792 -0.044826 0.064055 -0.009031 0.108372 -0.100396 -0.062796 -0.078541 0.081444 0.105733 -0.093824 0.100527 -0.080199 -0.097438 0.004708 -0.112835 0.047033 0.118531 0.086606 -0.100110 -0.012930 -0.037314 0.065652 0.097467 0.043548 -0.096398 -0.084394 0.018820 0.100260 -0.009990 -0.089886 -0.017421 0.100978 0.090709 -0.097017 -0.112469 0.049449 -0.105433 0.047904 -0.067647 0.009401 0.110067 0.078728 -0.104122 0.104536 0.066212 0.029191 0.096735 0.038716 0.111619 -0.006992 -0.046107 0.055599 -0.064842 -0.116038 -0.094062 -0.020998 0.005400 -0.084277 -0.028389 -0.067372 -0.108742 -0.117883 -0.010276 0.100158 -0.058649 0.116770 0.098975 0.005520 0.084457 0.053644 0.018219 -0.047648 0.069418 -0.093590 0.006110 0.064356 -0.055032 -0.051287 -0.098543 0.045393 0.059725 0.034360 0.082868 -0.100787 0.102555 0.077132 0.029289 -0.070550 0.062214 0.050789 -0.000626 0.019900 -0.012567 -0.010931 0.071842 0.114332 -0.013080 -0.014313 -0.094429 -0.023414 -0.010547 -0.045576 -0.060852 -0.089703 -0.016213 0.108951 -0.048596 0.039170 0.018651 0.003185 0.021060 0.067065 -0.037153 -0.029249 0.046905 -0.002270 -0.014939 -0.074569 -0.012296 -0.105107 0.074046 0.080895 0.102109 -0.117744 0.038624 -0.008940 -0.010979 -0.096409 -0.012494 -0.010448 0.027049 -0.037354 0.089377 -0.009847 -0.064952 -0.116763 0.093081 -0.033379 -0.028330 0.028978 0.047352 -0.047304 -0.024274 0.103730 0.060896 0.042091 0.085914 0.111242 0.062492 -0.091321 0.021089 0.115240 0.040894 0.006040 0.039906 -0.000483 0.044833 -0.111909 -0.018827 -0.052246 -0.056891 -0.111542 -0.016411 -0.036300 -0.095593 -0.079079 0.005919 0.111081 -0.082516 -0.040759 0.066907 0.033781 0.031069 0.037156 0.005363 
functional -0.084686 0.112849 0.008928 -0.039645 -0.000503 0.094177 0.027088 -0.110354 0.109714 -0.036345 0.066379 0.051804 -0.107404 0.005698 -0.079457 0.048460 0.007575 0.093399 -0.076655 0.015472 -0.020171 -0.084506 -0.012919 -0.086964 0.113122 -0.062145 0.086950 -0.002984 0.052637 -0.029327 0.016693 0.109053 -0.017868 -0.117309 0.108624 -0.090669 -0.096092 0.081229 0.039379 0.072283 -0.118281 0.079364 0.021268 -0.099025 0.039318 -0.077053 0.086591 -0.048716 0.080444 -0.040703 0.090543 -0.118056 0.010296 0.118607 -0.051680 -0.106836 -0.107373 -0.088942 0.109342 0.002244 0.088303 0.102533 -0.108322 0.049378 0.063951 0.084654 0.106214 -0.066690 0.061881 0.024730 -0.051884 0.091361 -0.092715 -0.088491 0.111162 0.062261 -0.038969 0.033755 -0.090926 -0.072339 -0.068797 0.020202 -0.084374 0.063430 0.057214 0.039606 0.043115 -0.051705 -0.074306 0.079269 0.026729 0.082476 -0.101040 -0.047721 -0.098332 0.063257 -0.079239 0.003053 -0.002650 0.032293 -0.005156 -0.076772 -0.008142 -0.054567 -0.052147 -0.061337 0.096052 0.059989 -0.100807 0.099562 0.105124 -0.019509 0.034074 0.034656 0.112826 0.079909 0.117682 -0.085846 0.034355 0.078429 -0.027688 -0.034634 0.079122 -0.002300 -0.036821 -0.004416 0.045216 -0.084972 0.032581 0.115012 0.023492 -0.033732 -0.055743 0.015285 -0.069404 0.113069 0.001971 -0.079184 -0.022613 -0.105841 0.090918 -0.118195 -0.042392 0.106875 -0.085167 0.005558 -0.032090 -0.068619 -0.045410 -0.016289 -0.079410 0.045005 0.035381 0.043573 0.026510 -0.012072 0.042399 -0.004664 0.083759 0.077464 -0.080608 -0.055143 -0.053921 -0.024753 -0.091329 0.062340 0.002890 0.115697 0.072540 0.096527 -0.007722 0.041894 0.057632 0.096168 -0.054903 0.068252 0.047705 -0.068542 -0.043450 0.096417 0.045060 0.009714 -0.059618 0.085135 0.113450 0.078228 0.108905 0.053159 -0.101943 -0.051362 0.018746 0.077792 0.059764 -0.031739 0.002222 0.059228 -0.113364 0.064394 -0.028371 -0.045232 
have -0.084512 -0.011625 -0.101504 0.025170 0.042044 0.029298 0.069293 0.109849 -0.044483 0.053979 0.083247 0.102652 -0.091982 -0.011276 0.099383 -0.039086 -0.034514 0.070130 0.090550 -0.047737 0.007682 0.100387 0.091656 -0.090084 -0.023575 -0.056260 -0.048567 -0.022617 0.123829 0.022965 0.077142 0.112000 0.019363 0.078191 -0.054839 0.084925 0.039256 -0.088395 0.086868 -0.022389 -0.122905 -0.116076 0.102762 -0.066434 0.033226 -0.078547 -0.096368 -0.089872 0.077119 0.012556 -0.041203 -0.073312 -0.111466 -0.040578 0.054930 0.064699 -0.094239 0.122765 0.040764 -0.028798 -0.115557 -0.067577 0.075323 0.100001 -0.109481 0.121462 -0.116777 -0.025980 0.051983 -0.004398 -0.004159 -0.077054 0.062422 -0.084441 0.013674 0.090289 -0.074286 0.055873 0.095747 -0.063085 -0.043968 -0.091561 -0.033325 -0.021314 0.033135 0.020147 -0.090399 0.048820 0.098845 0.007011 0.021492 0.042593 -0.091194 0.043571 -0.035097 -0.082660 0.025423 0.118189 -0.039082 -0.059313 0.080225 0.033056 0.044446 -0.054146 0.015030 -0.099349 0.064218 0.076350 0.081952 -0.104485 -0.068975 0.041275 0.098694 0.006011 0.114186 0.108258 -0.054983 0.034328 -0.096095 0.110515 0.059210 0.092948 -0.106383 -0.056676 -0.051317 0.108175 -0.005886 0.060487 -0.072392 0.068373 -0.069990 -0.015071 0.123981 0.023965 -0.015553 0.046336 -0.016848 0.087433 0.006159 -0.108250 0.005470 -0.063153 -0.094065 -0.025026 0.008636 0.057040 -0.095141 0.067168 0.120648 0.001966 0.037840 0.001549 0.035090 -0.115894 -0.094626 -0.078373 0.004076 -0.122000 -0.085278 0.032972 0.093543 -0.027988 0.038734 0.106743 -0.064983 -0.031669 0.064081 -0.023844 -0.033211 -0.020564 0.087732 0.032957 -0.055498 -0.068365 0.020477 -0.013753 -0.065907 0.061525 0.083399 0.103652 0.063559 -0.076941 0.063172 -0.029844 0.026484 -0.123045 0.056763 -0.022496 0.074982 0.097751 -0.025037 0.083031 0.026757 0.077342 0.038855 0.057896 0.009803 0.114387 0.035113 -0.016450 
so -0.033100 0.071070 0.058993 0.003405 -0.098108 -0.116738 0.025672 0.072977 0.119826 0.018917 -0.092226 -0.029666 0.021365 0.044552 -0.019532 0.015876 0.032452 0.069480 0.096746 0.107830 -0.084385 0.022083 -0.071332 -0.036513 -0.023824 -0.108949 -0.067665 0.084182 0.097283 -0.033369 -0.099573 0.066587 -0.018847 0.116892 -0.072819 0.050169 0.114040 0.028974 -0.074100 -0.006534 0.077538 -0.067191 0.111441 -0.084676 -0.003961 0.118645 0.035243 -0.105098 0.054244 -0.027936 0.032784 0.071667 0.014680 -0.096065 0.017367 -0.078329 -0.058573 -0.097051 -0.037392 -0.053755 -0.041125 0.018107 -0.097570 -0.016694 0.010484 0.117481 -0.068932 -0.068921 0.100022 -0.111790 -0.038173 -0.010657 0.050328 0.042711 -0.031679 -0.064297 -0.014209 -0.093738 -0.015527 0.090558 0.091114 0.070658 0.104520 0.110892 -0.112420 -0.018203 0.000523 -0.044758 -0.078245 0.110855 -0.112663 -0.116303 0.076787 0.024350 0.040131 -0.024586 0.054892 0.072837 0.070654 -0.112622 0.101082 -0.056545 -0.107789 0.060609 0.038195 0.107380 -0.039100 0.031469 -0.009379 -0.110112 0.069403 0.120360 -0.098182 -0.117224 0.070713 -0.015737 0.016800 0.014426 0.119377 0.064202 -0.082839 0.032287 -0.052234 -0.103464 -0.031466 -0.014640 0.072289 0.042910 0.114378 -0.017040 0.104697 -0.080936 0.117220 -0.046532 -0.041707 -0.033980 0.041140 -0.114426 0.089178 -0.038618 0.010528 0.069524 0.048789 -0.015692 -0.031157 -0.109096 -0.068637 -0.066977 -0.080144 0.001822 -0.108555 0.007307 -0.072355 -0.091515 -0.097350 -0.015236 0.116602 -0.098863 -0.001097 -0.055448 -0.052301 0.089093 0.033196 0.026139 -0.092807 -0.081753 -0.081168 -0.053180 0.059162 0.101020 0.111912 -0.033317 0.045513 -0.037315 -0.077369 -0.076356 0.050946 0.095042 -0.072289 -0.042829 0.079231 -0.056015 0.040455 0.025801 -0.046794 -0.019307 -0.006766 -0.092862 0.038504 0.012924 0.061216 -0.078418 0.037341 -0.091250 0.097394 -0.032640 -0.046514 0.079036 0.015070 0.003007 
b 0.092951 0.030214 0.029320 0.047726 0.096289 0.052243 -0.068334 -0.062092 -0.093812 0.012798 0.060205 0.057130 0.012535 0.082771 0.084548 0.120577 -0.006201 0.007725 -0.021888 -0.095811 -0.024699 0.080072 0.018120 -0.026194 -0.099924 -0.076148 0.056467 -0.016151 0.014968 -0.046999 0.005808 -0.107456 -0.101555 -0.086918 0.082605 -0.038076 -0.081129 0.096508 0.077991 0.028693 0.019285 -0.115726 0.086906 -0.009683 -0.039563 -0.066639 0.022007 0.048067 0.049932 -0.010670 0.099753 -0.022114 -0.072999 0.101552 0.111279 0.102568 0.020768 -0.105935 -0.091520 0.076534 0.091987 0.023850 -0.109900 0.101055 -0.037827 -0.006575 0.029557 -0.047926 -0.000312 0.095203 0.117984 -0.047614 -0.095473 -0.046776 0.007276 -0.000545 -0.076471 -0.018576 0.096178 0.051508 0.121255 -0.074635 0.115062 -0.115511 -0.106109 0.077461 0.098106 0.064236 -0.086395 0.061751 -0.102794 0.002125 -0.058847 0.049127 -0.088894 -0.100573 0.041091 0.028196 0.113222 0.018176 0.095696 0.048326 0.051645 -0.047970 0.048004 -0.023397 0.064358 0.084544 -0.098188 -0.016084 0.064017 -0.112143 -0.035276 0.058873 0.024039 0.110089 0.119015 0.007799 -0.021398 0.101856 0.064677 -0.059178 0.022644 0.003668 0.048553 0.028834 0.068824 0.016796 -0.107845 0.017397 0.090556 -0.082816 -0.036151 -0.044121 -0.121025 0.027625 -0.036374 -0.045589 0.015109 0.002540 -0.104715 -0.059163 -0.074475 0.043201 0.066428 -0.096234 0.069728 -0.074449 0.116286 -0.107433 -0.004191 -0.027618 -0.012105 0.017367 0.041751 0.081162 -0.071902 -0.037030 0.120209 -0.032928 0.001454 -0.038973 -0.038443 -0.107856 0.090237 0.060906 0.086061 -0.063873 -0.105561 -0.113352 0.102571 -0.003512 -0.096052 0.095232 -0.076255 0.031452 -0.059723 -0.053867 0.009086 0.060008 -0.114298 -0.025192 -0.093315 -0.081140 -0.073697 0.048341 -0.045474 -0.008437 0.065879 0.094580 0.065263 -0.006701 -0.117102 0.102130 -0.030729 -0.056945 -0.011230 0.120361 -0.056229 -0.079419 
get 0.086394 0.016928 0.086617 0.068698 -0.074712 -0.040346 0.060720 0.098986 0.074881 -0.059058 0.088121 0.028326 -0.089664 0.011878 -0.047319 -0.060754 -0.124280 0.034919 0.004152 -0.022853 -0.025037 -0.064600 -0.099358 0.098801 0.023364 -0.046962 0.117656 0.072352 -0.100901 -0.112586 -0.063959 -0.019676 0.046236 0.103998 -0.042944 -0.031880 -0.034309 0.025110 0.090316 -0.007487 -0.024224 -0.109532 0.056805 0.073150 -0.045331 0.002667 -0.108108 0.041052 0.094929 -0.027344 -0.054672 0.041620 -0.102528 -0.022723 -0.124779 0.031626 -0.067881 0.004740 -0.094430 0.030721 0.077045 0.106131 0.071742 0.121428 0.021798 -0.107597 -0.031032 -0.053862 0.021813 0.043408 0.009878 -0.035364 -0.107609 0.044345 -0.084544 -0.054937 0.014721 -0.053701 -0.027424 -0.030053 0.078350 0.114743 0.027977 -0.066818 0.087208 -0.028004 -0.008727 0.043047 0.108100 0.009283 0.086463 0.067685 0.019204 0.026185 0.097408 0.089622 0.013079 -0.114843 0.122353 0.002752 0.093655 0.014549 0.070913 0.015355 0.076232 -0.100444 -0.084422 -0.104427 0.090493 0.094281 -0.056775 -0.022562 0.077491 -0.041835 0.000591 -0.096660 0.041155 -0.080442 -0.002709 -0.118443 0.048293 -0.033330 -0.094185 -0.068261 -0.022919 -0.100920 0.013040 -0.115096 0.020079 0.082261 -0.085803 -0.113546 -0.070291 -0.061468 0.021913 -0.106837 0.024285 -0.040883 0.057174 -0.075322 -0.069524 -0.056403 0.055347 0.063525 0.092350 0.005937 0.114678 -0.047906 0.010822 0.071469 -0.106726 0.050170 0.004206 -0.123102 0.118147 -0.125611 -0.049322 -0.023675 0.070145 0.010289 0.042798 -0.019300 0.099020 0.100260 0.032989 0.066864 0.114386 0.101073 -0.011943 -0.028479 0.088735 0.032379 0.037686 -0.002736 0.057435 -0.023299 0.122929 0.006551 0.118730 0.079444 -0.003792 -0.075284 -0.069270 0.045872 -0.024162 -0.008524 -0.031062 -0.104366 -0.060006 0.006413 0.017216 -0.037237 0.081236 0.083489 -0.077698 -0.110353 -0.099519 -0.103468 0.096825 -0.115434 
you -0.033943 -0.066140 0.010734 -0.034341 -0.095070 0.003946 -0.052833 -0.032976 -0.086062 -0.041831 0.013335 0.035440 -0.002810 -0.018501 0.114699 0.125693 -0.038503 0.061604 -0.040582 -0.004733 -0.057498 -0.011147 0.110620 -0.006451 -0.121450 -0.117553 -0.118135 0.009558 0.036817 -0.072643 -0.032185 -0.001923 -0.038953 0.111250 0.076629 -0.020339 0.049951 -0.038571 -0.017766 0.040627 -0.021194 0.123228 0.050457 0.069994 0.014788 -0.007583 -0.076308 0.022547 -0.035292 0.082799 0.099300 -0.081161 -0.035790 -0.078327 0.088141 0.108256 -0.048362 -0.108689 -0.007025 -0.046319 -0.068898 -0.086387 -0.017670 -0.063964 -0.027521 -0.023751 0.027432 0.075870 -0.051653 -0.130414 -0.097791 -0.066630 0.060115 -0.024105 -0.027513 -0.076312 0.048827 -0.045989 -0.119339 0.001610 -0.015639 0.054668 0.124091 -0.075381 0.002360 0.068235 -0.049429 0.042104 0.041168 0.113916 -0.011007 -0.019986 0.104896 0.113611 -0.118247 -0.043798 0.000353 0.054989 0.126211 -0.008779 0.126251 -0.008514 -0.029841 -0.091678 -0.105201 0.042304 0.042493 0.122658 0.099308 0.129346 -0.014395 0.062881 0.020456 -0.022788 0.033791 0.012608 0.056952 -0.097594 -0.039025 0.058160 -0.115927 0.024129 -0.130080 0.088555 0.032065 0.001216 -0.070849 0.058578 0.044669 0.084404 0.109898 -0.011219 0.057530 0.064061 -0.076982 -0.034517 0.008992 0.059388 -0.002593 -0.122297 -0.096836 -0.007711 -0.024542 -0.056707 0.072992 0.113498 0.091465 -0.080262 0.127985 -0.049682 0.119355 -0.106642 0.006487 -0.114984 -0.101179 0.016237 -0.024325 0.102564 0.124525 -0.019906 0.105426 0.064494 -0.021507 0.068549 0.005250 0.087310 0.023852 0.104852 -0.123441 0.027147 0.100296 -0.021977 -0.013471 0.068974 0.113286 -0.094086 -0.121097 -0.062608 0.034047 -0.090923 -0.047607 -0.051095 -0.100424 0.073831 -0.117725 -0.040354 0.075698 0.026128 -0.064274 -0.108481 -0.058260 -0.016181 -0.080442 -0.004741 -0.004937 -0.032542 -0.030587 0.061235 0.009594 0.063362 
dependencies 0.021789 -0.050168 0.081211 -0.094507 0.079590 0.088808 -0.117121 -0.045409 -0.032890 -0.023021 0.114871 -0.017862 0.051911 -0.093878 0.083742 0.067708 0.034637 -0.013873 -0.115774 0.108991 -0.080922 -0.097519 -0.085800 0.064303 0.012167 -0.113668 -0.095376 -0.047407 -0.046079 -0.013059 -0.110400 0.095950 -0.069984 0.071682 -0.036139 -0.092967 -0.055759 0.068559 0.040254 0.071704 0.061014 -0.033797 0.092253 -0.118634 -0.079649 0.056392 -0.088553 -0.099377 -0.049557 -0.036017 0.077599 0.027165 -0.087435 0.102011 0.018525 -0.023206 0.113650 -0.025922 -0.049786 0.010972 -0.048802 0.114475 -0.093230 -0.033242 0.095917 -0.094455 -0.017074 -0.015642 0.066564 0.002838 0.091528 0.022088 -0.072441 -0.090044 -0.036465 0.098896 0.046463 -0.081326 0.118083 0.051840 -0.118593 -0.103632 -0.077644 0.021126 -0.078791 0.013555 0.016748 -0.034929 -0.012226 0.016352 -0.110297 -0.097378 -0.036368 -0.045979 0.060355 -0.086647 0.034459 -0.063549 -0.104110 -0.105046 -0.038470 -0.108354 0.036701 0.048258 0.051777 0.050752 -0.028768 -0.092819 -0.054782 -0.021999 -0.023898 0.036328 0.070043 0.025796 -0.096472 0.090873 -0.054989 -0.120373 -0.091128 0.029134 0.119570 0.013155 -0.034392 0.112573 -0.008778 -0.009388 0.107840 -0.064266 -0.011842 -0.078114 -0.054730 -0.118664 0.114168 -0.022503 0.118290 -0.092301 -0.051363 -0.096439 0.115344 0.033767 0.101645 -0.008145 -0.029463 0.096601 0.031321 0.109753 0.021115 -0.006110 -0.016031 -0.057258 -0.062590 -0.073532 0.024009 -0.035514 -0.064588 -0.086721 0.033971 -0.018269 0.049224 0.033900 -0.042985 0.104365 -0.111451 -0.056495 0.039447 0.017877 0.093778 0.085441 0.103170 -0.046586 -0.089160 -0.006376 0.030714 -0.039762 0.101386 -0.009854 0.007756 -0.094277 0.032601 -0.027306 0.038085 -0.039614 0.102363 -0.100413 -0.056396 0.112861 0.041631 0.032287 0.091876 -0.072622 -0.115492 -0.034663 -0.058971 -0.001143 -0.031758 0.081459 -0.020116 0.012785 -0.036835 0.096453 
when 0.022701 -0.042556 0.084568 0.033084 -0.022923 -0.114049 -0.112683 -0.042926 -0.002567 -0.088895 -0.057591 0.025584 0.105014 -0.065547 -0.081442 -0.046021 0.119364 -0.024924 0.043891 -0.011300 -0.074638 0.071545 0.100238 -0.026337 -0.056189 0.088618 -0.052106 0.048696 -0.063409 -0.032661 -0.031037 -0.058775 -0.026774 -0.081250 -0.087523 -0.100489 -0.065450 -0.000154 0.042201 0.001939 0.004747 0.086141 -0.021269 -0.081286 -0.045223 0.098846 0.111412 0.071551 0.068797 0.029857 -0.062473 0.010739 0.007747 -0.068210 -0.033509 0.050399 -0.044872 -0.101435 0.056176 0.096032 -0.084356 0.106142 0.104499 0.101167 -0.064132 0.070693 0.117479 0.080729 -0.082701 0.075315 0.093944 -0.109998 0.028414 -0.015536 -0.080006 -0.117441 0.040602 -0.015584 -0.038860 0.028083 0.038967 0.043523 -0.033562 0.113429 0.113840 -0.017058 -0.029572 -0.028802 -0.013658 -0.105520 0.053382 -0.017376 -0.105245 -0.033599 -0.089463 0.094110 -0.094066 -0.060298 -0.029562 0.103177 -0.102440 0.106543 0.046813 0.078690 0.066032 0.089002 -0.011820 -0.081031 -0.076796 0.064853 -0.056808 0.067086 0.011472 0.004306 -0.104527 0.058327 -0.007644 -0.020786 0.103408 -0.037986 0.025818 0.088949 -0.044033 -0.066311 -0.103118 0.022376 0.076530 -0.068739 -0.100141 0.003729 -0.037768 -0.037980 -0.096334 0.091402 -0.105586 0.107344 0.110938 -0.093933 -0.043945 0.029905 0.053216 0.091557 0.059231 -0.060617 0.014922 -0.068260 -0.049285 0.063453 -0.114054 -0.055138 -0.100213 0.030186 0.084219 0.000619 -0.012560 -0.033615 -0.086056 0.032706 -0.099609 0.070743 -0.105162 0.024215 0.089006 -0.105992 -0.074016 0.029047 0.111453 -0.025907 -0.053754 -0.083968 0.058778 -0.012811 -0.045785 0.075735 0.074123 0.109890 0.021405 0.043160 -0.091943 -0.087217 0.031604 0.100572 0.059519 -0.069458 -0.072784 0.106756 -0.085347 0.073330 -0.058311 -0.003336 0.100772 0.052863 -0.087310 -0.000948 0.118028 -0.096506 -0.042431 -0.077841 -0.011499 -0.089009 
bcnf 0.020509 0.114853 0.051656 0.010255 0.115826 0.023541 -0.017431 -0.107626 0.046910 0.125391 -0.001473 0.078270 -0.048948 -0.028378 -0.117911 -0.088128 0.010620 -0.071752 -0.018069 0.019096 -0.013507 -0.080634 -0.036798 0.108622 -0.052420 -0.072115 0.035476 -0.025312 0.010599 0.009464 -0.006170 -0.072906 -0.120988 0.031052 -0.056167 0.103351 0.044605 -0.080157 0.028855 -0.013009 0.086875 -0.093064 -0.019896 0.074422 -0.108142 0.036459 0.083241 -0.038698 0.117444 -0.054745 -0.060277 0.030876 0.049556 0.038841 -0.051630 -0.000442 -0.007514 0.056261 0.090965 -0.109453 0.077826 0.056273 -0.103559 0.019446 -0.006737 -0.095083 -0.026777 0.037612 -0.000979 0.012695 -0.036014 -0.082053 -0.096605 -0.116586 0.101928 -0.091476 0.076454 0.058389 -0.066514 0.089582 -0.002831 -0.085299 0.031054 -0.116760 -0.114015 0.107248 0.078322 -0.031379 0.057344 -0.107046 0.031650 -0.116781 -0.087746 0.052288 -0.059811 -0.057099 0.119704 -0.029046 -0.112643 0.048398 -0.044422 0.062775 0.037472 -0.080555 -0.026360 0.066216 0.118860 0.055396 0.049406 0.038862 -0.080823 0.055387 -0.114826 0.078784 0.025085 0.054632 -0.023607 -0.115917 0.096084 0.009556 -0.106944 -0.074251 0.117842 -0.057650 0.007549 0.007446 0.116608 -0.061497 0.023454 -0.001552 -0.054179 -0.107689 -0.066753 0.064837 0.005197 -0.002235 0.058704 -0.043261 0.027413 0.033935 0.035746 -0.034657 0.043218 0.093039 0.039581 -0.038767 -0.096270 0.052007 0.081787 0.108891 0.011422 -0.116240 -0.014165 -0.084078 0.095923 0.087192 0.119429 -0.087167 -0.058611 0.017332 -0.064544 -0.027166 -0.103951 0.054239 -0.072787 0.020790 0.113315 -0.086854 -0.078214 0.045990 0.076069 0.099943 0.030359 0.091864 0.061056 -0.040546 -0.037929 0.035418 -0.075629 -0.111205 -0.035241 0.042294 0.061204 0.075838 0.098268 0.102796 -0.034812 0.063566 0.002748 0.017242 -0.090811 -0.075944 0.110079 -0.094530 -0.011577 0.048152 -0.063982 -0.069969 0.109989 -0.102537 
if 0.031799 0.084992 0.010446 -0.006092 0.043754 -0.066161 -0.030079 -0.091017 -0.098929 0.071001 0.077753 0.040396 0.097562 -0.066321 0.007163 0.101648 -0.022758 -0.001128 -0.025651 0.113042 -0.096783 0.079388 0.013102 -0.095792 0.057965 0.035240 -0.031892 0.112549 -0.035021 0.039215 -0.001600 -0.035419 -0.074509 0.080642 0.089901 -0.045965 0.066242 -0.029599 0.021306 -0.071175 0.095165 0.053068 -0.114534 0.028329 0.012879 0.016049 0.086398 -0.038044 0.115029 0.096233 0.116592 -0.004533 0.057821 0.096739 0.002038 -0.032731 0.016106 0.121916 0.085193 0.020314 0.004773 0.104686 0.025448 0.102702 0.070153 0.035705 0.058742 -0.003765 0.113007 -0.040238 -0.038785 0.030897 0.064500 -0.011902 0.067646 0.091404 -0.068845 0.053373 0.065716 -0.101282 0.033559 -0.094725 -0.088103 -0.041930 -0.011461 0.061997 -0.106082 0.105624 -0.005227 -0.080304 0.091672 -0.000088 0.055174 -0.119719 -0.045577 0.078624 -0.010633 -0.060164 -0.077247 0.113152 -0.073899 -0.090139 0.035068 -0.039455 0.047306 -0.110673 -0.088609 -0.013914 0.118138 0.054897 -0.065601 -0.087645 -0.044256 -0.092778 0.088441 -0.003870 -0.070295 -0.018059 -0.085009 0.074275 -0.011496 -0.090194 0.000369 0.046744 -0.117310 0.094333 0.012440 -0.119187 -0.070900 0.046227 -0.078427 0.071345 -0.003205 0.048228 0.007114 -0.035682 0.045610 -0.021018 -0.117545 -0.045511 0.076611 0.003324 -0.057607 -0.004767 -0.098781 0.108118 -0.088012 0.103012 -0.107711 0.104715 0.075219 0.117223 -0.009202 0.097853 0.044468 -0.057664 -0.033776 0.016043 -0.036397 0.007906 0.114918 0.098938 0.055790 0.097910 0.083556 -0.093626 0.117724 0.051482 0.064448 0.025323 -0.005033 0.006395 0.045257 -0.096912 0.082742 -0.085084 0.096067 0.020283 0.117509 0.050707 0.107273 -0.066583 -0.109783 -0.004478 0.014209 -0.000239 -0.021912 -0.094135 0.064831 -0.100783 0.054926 -0.036284 0.082323 0.109923 0.090209 -0.038306 -0.050096 -0.046044 0.119744 -0.033208 
don't 0.089962 0.024701 -0.002916 -0.114056 0.029770 0.006828 0.116238 -0.086427 0.069845 -0.108071 -0.025581 0.068329 0.095332 -0.034709 0.079216 -0.046222 0.050654 0.097239 0.049012 -0.055876 -0.060481 -0.019744 0.035711 -0.001386 0.062030 0.077469 0.013380 -0.101349 0.066213 -0.037198 0.015363 -0.040838 -0.103509 -0.019180 -0.102836 0.080110 0.030812 0.061129 0.047811 -0.016379 0.057920 -0.044507 -0.032875 -0.074661 0.100079 -0.050803 -0.074426 -0.016929 0.101714 -0.087433 0.015782 0.056780 0.066531 0.012327 -0.084586 0.105712 0.057515 0.000242 0.072776 -0.088729 -0.040191 -0.075522 0.046971 0.025505 -0.045039 -0.107521 -0.069375 0.111255 0.046674 0.070971 0.112764 -0.109352 0.060814 -0.025403 0.093211 0.093570 -0.117475 -0.111357 -0.094688 0.086464 -0.069527 -0.079444 0.115934 0.006415 -0.028757 -0.000062 -0.071502 0.049790 0.067819 0.115677 0.028432 -0.002008 0.105347 0.078815 -0.025161 -0.071173 0.028251 -0.003202 0.097466 -0.020620 0.077357 0.036352 0.073977 0.108896 0.078529 -0.050759 0.115557 0.098780 -0.083088 0.020750 0.018431 0.026836 0.011173 -0.115916 0.112344 0.030150 -0.109226 -0.056910 0.074961 0.067967 0.092944 -0.050470 0.117468 -0.078308 0.028584 -0.048429 0.036088 -0.093751 0.116361 0.056657 -0.076553 -0.078395 -0.114262 -0.042727 -0.068550 -0.072997 0.111064 0.116545 0.034163 -0.059031 -0.033881 0.108397 0.027809 0.041309 0.106693 0.040274 0.005015 -0.109135 0.062247 0.078902 0.117685 -0.076875 -0.104232 -0.023956 0.102763 -0.080508 -0.033360 0.016987 -0.006404 -0.042228 -0.017830 0.072056 -0.117193 -0.062070 -0.053940 0.070855 -0.077697 0.056331 -0.078703 0.002269 0.086149 0.094380 0.030147 -0.085537 -0.066553 -0.107239 -0.020088 -0.085118 0.031066 0.062801 0.011419 -0.066868 0.056668 0.089503 -0.049468 -0.041902 -0.015681 -0.008608 -0.080483 0.037944 0.084484 0.083395 0.099920 0.042995 -0.024452 0.028356 0.021203 -0.097144 0.046537 0.022639 
are -0.021460 0.081113 0.036394 0.092201 0.111800 -0.091035 -0.031737 0.054169 0.106037 -0.009729 -0.046490 0.071823 -0.023997 -0.019151 -0.112905 0.097493 0.021347 -0.105162 0.001607 -0.098725 -0.114873 0.017597 0.079174 0.042289 -0.002159 -0.030581 -0.034660 -0.046258 0.112323 -0.070871 0.066602 0.062580 0.059345 0.113811 0.117748 -0.091622 -0.037011 0.105467 -0.091967 0.051743 0.008926 0.005495 0.004751 -0.082408 -0.042495 -0.016829 0.101904 -0.066561 0.107016 0.026988 -0.090348 -0.120747 0.107803 -0.047960 -0.047359 0.080612 -0.096710 0.093264 0.094786 -0.040724 -0.016126 -0.090989 -0.017999 -0.057679 -0.084674 0.106379 0.099380 0.048879 0.079215 0.014689 -0.023436 -0.108083 -0.075384 -0.024603 -0.041699 0.076804 -0.058655 -0.060986 -0.037241 0.083434 -0.027760 0.114545 -0.047289 -0.060252 0.110320 0.076263 -0.028302 -0.045699 0.068415 -0.077426 0.108313 0.035015 0.098850 0.079001 0.035323 -0.106722 0.021722 0.046236 -0.035483 0.027918 -0.045880 0.123134 -0.059972 0.040611 0.097944 -0.082204 0.047168 0.069644 -0.044909 0.099438 -0.043417 0.078470 0.078131 -0.089690 -0.102486 0.079156 0.117089 -0.089990 -0.115632 -0.098194 0.008004 -0.043269 0.021426 -0.061006 -0.007034 -0.027164 -0.016879 -0.086132 -0.091910 -0.049407 -0.027667 0.079356 0.094042 -0.060504 0.037926 0.023941 0.042263 0.045342 0.026466 -0.103199 -0.016627 -0.038295 0.092785 -0.100114 -0.024535 -0.087609 -0.032541 0.040420 -0.095870 -0.048755 -0.069551 -0.076293 -0.038020 -0.057480 0.069670 -0.069701 -0.093052 0.054445 0.056513 0.017399 0.041061 0.044601 0.115700 -0.038640 0.010465 -0.049105 0.039017 0.085304 0.007794 -0.110340 -0.092348 0.046857 0.016623 0.018848 -0.116137 0.034306 0.117802 0.100944 -0.060711 0.081323 -0.051223 -0.057790 0.110959 0.017428 -0.068342 -0.115289 0.010965 -0.006334 0.070161 0.094797 0.039900 -0.047482 -0.045249 0.092545 -0.077328 -0.073394 -0.056972 -0.082472 -0.075103 -0.025664 
this -0.019167 -0.076930 -0.086668 0.022421 0.073721 0.040810 0.046490 0.009678 0.039151 0.010774 0.046384 -0.040553 0.004822 -0.116731 -0.052158 -0.047007 -0.087311 0.018181 0.095269 -0.114168 0.014285 0.094321 -0.095662 -0.036940 -0.119931 0.100080 0.090946 -0.043636 -0.114595 0.085765 -0.053065 -0.052993 -0.027753 -0.084065 0.064372 0.078169 -0.103198 0.012391 0.106591 0.059622 -0.027481 0.115861 0.046505 -0.089287 0.079435 0.028989 -0.081060 -0.039631 -0.088157 0.111659 0.068302 0.104109 -0.031064 0.042684 -0.089737 0.051701 0.068839 0.058118 -0.086940 0.070158 0.091589 -0.039396 0.111519 -0.006919 -0.020860 0.110027 0.107060 -0.036351 -0.016975 -0.062464 0.058341 -0.060703 -0.078634 -0.073151 -0.061727 -0.060627 -0.078135 -0.119391 0.029348 0.045141 -0.073525 -0.088962 -0.067017 -0.095545 -0.060933 -0.055389 0.055499 -0.029926 0.025425 -0.030281 0.122146 0.013684 0.065589 0.036668 -0.079911 0.116549 0.001512 0.010018 0.041396 -0.073476 0.084726 0.063907 -0.098262 -0.103632 -0.114308 -0.060937 -0.030648 0.045428 0.027436 -0.066545 0.031404 -0.040356 -0.043414 -0.088358 -0.063027 0.029858 -0.075324 0.047763 0.092382 -0.034159 -0.002509 0.082545 -0.024783 0.034605 0.055068 0.066296 0.115631 0.069750 0.039362 0.111236 0.115041 -0.033206 -0.045757 -0.103821 -0.115555 -0.069168 0.113159 -0.095160 -0.107922 -0.018786 -0.099177 -0.060136 -0.074893 -0.048459 0.002177 0.113473 0.080274 -0.015007 -0.074235 0.104479 0.020913 0.039003 -0.014965 -0.098727 -0.032401 -0.114743 0.060026 0.049486 -0.044842 0.100345 0.092692 -0.081646 0.080335 0.084458 0.086903 -0.070324 0.006462 0.042692 0.108443 0.071843 -0.045885 -0.005604 0.037352 -0.100163 -0.041879 0.020834 0.063246 0.021204 0.115223 0.017523 -0.057668 0.114758 0.088754 -0.058103 -0.011942 -0.078774 0.099290 0.060967 0.080463 -0.013759 -0.066005 -0.039328 -0.086162 -0.073302 -0.062724 0.031853 -0.012622 -0.083263 0.020127 -0.015717 
it 0.118393 -0.054877 -0.091572 0.084392 -0.057905 0.060619 -0.116419 -0.079596 -0.107133 -0.116700 0.041534 -0.119395 -0.025447 0.078064 0.047914 -0.077284 0.006516 -0.104540 0.121794 0.065956 0.115586 -0.122601 0.051788 -0.100914 -0.001862 -0.110635 -0.066020 0.056258 -0.096009 0.104307 -0.074052 0.003247 -0.101519 0.018748 0.000788 0.005243 0.108440 -0.071376 -0.052884 -0.103016 -0.015734 -0.054606 0.106991 0.066647 0.021754 -0.003967 -0.099935 -0.019994 0.040265 0.069011 0.037360 -0.097746 -0.079344 -0.031681 0.061516 -0.085901 0.097225 0.051386 0.068617 -0.088228 0.081866 -0.000784 -0.029733 0.098970 -0.060082 0.046252 -0.014465 0.002961 0.044184 -0.003517 -0.096962 -0.049569 0.091039 -0.038632 0.064834 0.083582 0.084329 0.113856 -0.109423 0.114163 0.089388 -0.049532 0.091287 0.061392 -0.012926 0.013118 -0.036369 0.005979 -0.034290 -0.078687 0.095641 0.090127 0.029140 0.093978 -0.093029 0.025586 -0.003273 0.027635 0.108642 0.077546 -0.004699 0.018222 -0.002680 0.080744 -0.032789 -0.068779 -0.084937 -0.068591 -0.083698 -0.060416 0.019449 0.079213 -0.092090 0.031779 0.037600 0.051424 0.068865 0.011797 0.004106 -0.071248 0.095543 -0.008907 0.015051 0.099375 -0.008212 -0.103354 -0.017963 0.029069 0.068910 -0.037101 -0.121839 -0.016976 -0.038208 -0.006159 -0.016011 0.041950 0.104731 0.100929 -0.096346 0.102078 0.009623 -0.034834 0.040708 0.121129 -0.012221 0.066970 0.122274 0.118322 -0.079945 -0.035645 -0.063032 -0.071609 -0.005225 0.014754 0.072821 -0.060484 -0.030191 -0.100832 -0.050512 0.109419 -0.089508 0.098017 0.032015 -0.034631 -0.056344 -0.076661 0.109018 0.080024 0.011650 -0.021457 0.030604 0.103639 0.118318 -0.055372 -0.045647 -0.006062 0.083022 0.056040 0.099334 0.016113 0.032593 0.116768 0.008190 0.004898 -0.090619 -0.007705 0.022978 0.102498 -0.036797 0.101545 0.055301 0.020662 0.013422 -0.058960 0.078256 0.024580 -0.059107 0.052692 -0.119542 -0.051011 
c -0.067992 0.057650 0.051403 -0.065778 -0.003693 -0.125604 0.006544 -0.058037 -0.053868 -0.001039 -0.032134 -0.009500 -0.087972 -0.023585 -0.029028 -0.090271 0.087833 -0.078519 0.114760 0.099195 -0.028850 0.012173 0.055066 0.009028 -0.117595 -0.016554 0.017377 -0.087814 -0.047857 -0.113272 0.037295 -0.108258 0.121026 0.089916 -0.039459 0.094065 -0.113346 0.011493 -0.050693 -0.030716 0.075811 -0.107230 -0.024099 0.043534 0.059508 0.038350 0.075927 -0.106465 0.031585 0.056599 0.095104 -0.081169 -0.004002 0.125534 -0.057554 0.075908 0.019996 -0.019892 0.096618 -0.121810 -0.019053 -0.075073 0.086867 -0.084893 0.072690 0.074710 0.012092 0.079848 0.046003 0.101119 0.034483 0.075722 -0.031864 -0.007715 0.126349 -0.077492 -0.030365 0.052814 0.070117 -0.043542 -0.008839 -0.108930 -0.035317 0.070762 0.036669 -0.061753 -0.027761 -0.031272 -0.079767 -0.070700 0.065095 -0.076688 0.025574 -0.084345 0.025675 0.017589 0.040177 0.012034 -0.047123 -0.108428 -0.032003 -0.109904 0.008893 0.008101 -0.123714 0.044330 -0.087146 -0.119399 -0.104414 0.019807 -0.046459 0.098500 -0.033440 -0.068753 -0.023326 0.048634 0.093164 -0.043333 -0.108733 -0.059335 0.089471 0.084198 -0.077194 0.047552 0.086025 0.112090 0.106894 -0.053988 0.023488 -0.098113 0.036074 0.035591 -0.094184 -0.115219 0.125716 0.019598 0.053436 0.048904 0.094949 -0.082189 0.090538 -0.060671 -0.020622 0.066481 -0.042217 -0.076047 -0.122100 0.105623 -0.087694 -0.072384 -0.047293 -0.008279 0.021356 -0.061552 -0.077070 -0.002268 -0.090877 0.007877 0.077349 -0.046447 0.022623 -0.002554 0.008507 0.005551 0.112635 0.085172 -0.121404 0.110213 -0.006768 0.006007 -0.086898 0.034139 0.048135 0.064558 -0.105550 0.113581 -0.035170 0.122366 -0.078461 -0.011447 0.000448 0.104271 -0.096618 0.121895 -0.030936 -0.001595 0.065465 0.027031 0.001221 0.109371 -0.062962 0.040212 0.037581 0.045535 0.123351 0.054629 0.082100 -0.015086 0.027065 0.026768 
decomposition -0.047686 -0.078650 -0.117782 -0.021996 0.020097 -0.103358 -0.044812 -0.012473 -0.011468 0.018768 0.100307 -0.046055 0.097346 -0.018387 -0.003292 0.072729 -0.062842 0.010153 0.090654 -0.109761 0.101755 -0.083707 -0.056741 -0.043995 0.063735 0.043029 -0.117235 -0.065590 0.062828 0.084247 0.060386 0.020922 -0.074310 0.028882 -0.021776 -0.002057 0.010070 -0.075120 -0.094487 -0.057076 0.024607 0.115236 -0.065543 -0.007675 -0.027013 0.057796 -0.019773 0.105576 -0.082090 -0.022464 0.017007 0.065079 -0.018916 -0.077598 0.077991 -0.051717 0.107186 -0.000652 0.019341 -0.108350 0.063865 -0.097739 -0.007729 0.090651 -0.086181 0.092156 -0.029037 0.091645 0.014796 -0.091141 -0.011389 -0.027917 0.075434 -0.068594 -0.098621 0.104467 0.099421 0.089722 0.096518 -0.023854 -0.086585 -0.099338 0.076132 0.077642 0.111206 -0.115747 0.109455 0.014324 -0.070651 -0.088591 0.052649 -0.077346 0.079655 -0.087942 0.056928 -0.001898 -0.083300 0.111173 0.096475 0.023069 0.034274 0.084622 -0.031558 0.075005 -0.095027 -0.060642 0.001073 0.054331 0.004567 0.077389 0.109542 -0.079522 -0.076327 0.015570 0.031990 -0.072073 0.020040 0.037886 0.037652 -0.081913 0.002305 0.015253 -0.017310 0.027420 0.110197 0.113637 0.018318 -0.020684 -0.065666 0.085933 -0.117321 0.028255 0.068504 -0.019914 0.081045 0.015649 -0.014695 -0.096947 -0.002500 0.077959 -0.075535 0.020800 0.019298 -0.061427 -0.051317 0.086221 -0.115420 0.088014 -0.056374 -0.088778 0.098621 -0.104388 0.090013 0.074839 0.045504 -0.030092 -0.080548 0.034918 0.112481 0.034292 -0.033280 0.016434 0.037695 0.107204 0.117487 0.067334 0.090381 0.030056 0.080390 0.058531 -0.109340 -0.060692 0.095157 -0.080047 0.061827 0.030431 -0.011554 0.112614 0.105983 0.085825 0.118006 -0.023659 0.056323 -0.053100 -0.043566 0.090168 0.005050 -0.013841 -0.020501 -0.088058 0.103376 -0.073010 0.013859 -0.097321 0.089444 0.023876 -0.054818 0.110323 -0.003551 -0.117815 
relation -0.052590 -0.074488 -0.090608 0.123412 0.049315 0.010143 0.001264 -0.045025 0.045520 0.106629 -0.013303 -0.087051 0.075825 -0.002628 -0.096271 0.078635 0.080868 0.066926 0.107145 0.082675 0.060003 -0.018643 -0.007670 -0.118208 0.083739 -0.018813 0.042845 0.013841 0.025763 0.119604 0.037462 0.049518 0.086452 -0.000390 0.081644 -0.129191 0.008064 0.061043 0.080925 -0.042208 0.120847 0.036776 0.002967 0.073006 0.044036 -0.028407 -0.113101 0.038637 -0.033657 -0.012341 0.095279 0.001690 -0.101213 0.008294 0.011987 -0.073177 -0.091854 0.016150 -0.125003 0.087334 0.130639 0.071415 -0.034708 0.047072 -0.017077 0.025784 -0.112782 -0.039022 -0.011199 0.064489 0.046331 0.047221 -0.045308 -0.084266 -0.093929 0.055736 0.021014 -0.103199 0.019747 0.075294 0.129346 0.117097 -0.031931 0.007943 0.016189 -0.013310 -0.075770 0.051157 0.009612 0.004748 0.104588 -0.019141 -0.010789 -0.029516 0.043425 0.129679 -0.111840 0.000769 0.091783 -0.124621 -0.021696 0.022034 -0.101430 -0.047053 0.064508 0.011796 -0.044257 0.116679 0.021538 0.035378 0.036318 -0.056971 0.044022 -0.061284 -0.010397 0.089762 -0.115825 -0.087662 -0.022712 -0.000278 0.125131 -0.055195 -0.029859 -0.050049 0.120642 0.084010 0.005744 0.029678 0.077302 -0.069060 -0.076090 0.128815 -0.012846 -0.073634 -0.102623 -0.060936 -0.070893 0.057757 -0.108841 0.000766 0.035651 0.122765 -0.056703 -0.116780 -0.018844 -0.027848 -0.104206 -0.007924 0.031242 0.055089 -0.082357 0.026501 -0.003472 0.092471 -0.021939 0.006744 0.013702 -0.113387 0.110431 0.013171 0.015940 0.067640 -0.094748 -0.056986 0.012704 0.044067 0.039639 0.009146 0.072323 0.054705 -0.025769 -0.030557 0.062729 -0.101241 -0.007820 -0.092624 -0.070768 -0.044513 -0.050360 -0.021019 -0.063172 -0.113082 0.005654 -0.125136 -0.111176 -0.062387 -0.127185 -0.116431 -0.077625 -0.100062 0.105062 0.077526 -0.023434 -0.099743 0.030051 0.099984 0.056507 0.107468 0.071846 -0.101828 
let's -0.030270 0.002480 -0.059422 0.012300 0.106501 -0.105934 -0.067182 0.011637 -0.100099 -0.104500 -0.108268 0.043805 0.112210 -0.068259 -0.020743 0.065358 0.052240 -0.009060 -0.085033 0.096045 0.103107 0.124441 -0.012813 -0.033969 -0.047211 -0.058770 0.041880 0.074229 0.110790 0.124595 -0.011795 0.124417 -0.114077 -0.095644 0.051291 -0.116433 -0.085920 0.090190 0.013909 -0.059827 -0.116761 0.038305 -0.025202 -0.065181 0.050126 -0.073566 0.095894 0.076837 -0.023667 -0.004493 0.096774 -0.119581 0.044973 0.044090 0.012983 -0.065937 -0.055974 -0.066052 -0.056737 -0.121648 -0.069782 0.095590 0.049548 -0.077384 0.070692 0.011614 0.051415 0.086603 -0.009766 -0.013858 -0.015590 -0.052298 -0.117625 -0.119064 -0.052726 -0.095173 0.003842 -0.126269 0.101942 -0.085469 -0.083776 -0.047322 -0.084786 -0.003437 0.002638 -0.083656 -0.071811 -0.018911 -0.048938 -0.120730 -0.013168 0.014244 0.018221 0.019189 0.000301 0.052583 0.018483 0.071475 -0.059052 0.115855 0.082186 0.087474 0.097098 0.034224 -0.102691 -0.071051 0.061937 -0.046173 -0.026645 0.026409 -0.002600 0.083995 0.124691 0.115230 -0.124159 -0.061077 -0.023898 -0.006021 -0.014418 0.107107 -0.026105 0.029973 -0.080188 -0.023648 0.122022 -0.104608 0.093241 0.008767 -0.017928 0.083941 -0.027331 -0.028677 -0.062839 -0.111365 0.099196 -0.053039 -0.071957 -0.070434 0.066010 0.081820 -0.041332 -0.121085 0.035045 0.079675 0.096180 -0.022390 -0.021345 -0.039724 -0.034636 0.024219 -0.067614 0.059341 0.012528 -0.119496 -0.005022 0.017453 -0.011155 -0.023023 0.075591 0.043944 -0.038540 0.049012 -0.106201 -0.094217 0.060710 -0.104824 -0.009296 -0.061308 -0.025426 -0.117212 -0.040507 0.036029 -0.040222 -0.063198 -0.037900 -0.098429 0.083467 0.045371 -0.029121 0.060622 -0.029576 0.007062 0.021376 0.090568 0.066959 -0.063584 -0.040445 -0.115230 0.124244 0.011166 -0.052649 -0.094664 -0.043353 -0.033314 -0.042883 -0.080763 -0.052718 0.107099 0.024400 0.009415 
on 0.036374 0.040795 -0.004767 0.068235 -0.022977 -0.051949 0.030892 0.054443 0.085308 0.064790 0.103776 -0.012633 -0.008592 -0.056663 -0.000220 -0.051242 -0.113926 -0.054275 0.065364 0.082650 0.022338 -0.002011 -0.038145 0.097081 -0.031903 0.088452 -0.088858 0.011515 0.100955 0.018578 -0.051740 -0.092299 0.113379 -0.098739 -0.078609 -0.070326 0.009261 -0.088322 -0.009861 0.034613 0.103920 0.038149 -0.121886 -0.007158 0.027539 0.082141 0.118632 -0.113892 -0.029135 -0.092595 0.061593 0.107589 -0.062209 -0.061742 0.115743 0.116180 -0.005505 -0.086117 0.004691 -0.068653 0.020300 -0.115116 0.012614 -0.116021 -0.043186 -0.035845 -0.012310 0.118112 0.057069 0.077731 0.089527 0.092641 -0.111037 -0.035206 0.041734 0.076172 0.079240 -0.074910 -0.120655 -0.098685 0.071227 0.071512 -0.051177 -0.038757 0.117956 0.080955 -0.088509 -0.036005 0.036465 -0.058259 -0.010758 -0.070964 -0.044783 -0.046383 -0.032032 -0.061886 0.064962 -0.019666 -0.055009 -0.113877 0.120449 -0.052070 0.079917 -0.020616 -0.061282 0.093865 0.096355 -0.011781 -0.102628 -0.029535 0.029341 -0.005623 -0.061981 -0.060236 -0.023806 -0.107247 0.064551 -0.072204 0.096522 -0.110333 0.094006 -0.077115 0.113934 0.004581 -0.094295 -0.024364 0.063464 0.070105 -0.060460 -0.050200 0.042433 -0.018867 -0.049740 0.020555 -0.038693 -0.056016 0.004045 -0.072918 0.041977 -0.021878 -0.019783 -0.030873 0.070337 -0.083844 0.069523 0.010443 -0.105433 -0.097879 0.026718 -0.022935 -0.076587 -0.106806 -0.082023 0.106456 -0.119514 -0.091158 0.120906 -0.049059 0.049960 0.030812 0.078830 0.121693 0.030876 -0.095142 0.044783 0.046467 -0.017160 -0.013560 0.084943 -0.037275 -0.121400 0.045881 0.078632 -0.078925 0.002334 -0.084209 -0.032542 0.034408 -0.046919 -0.010656 0.004455 -0.020380 -0.109554 -0.025421 0.006660 -0.005828 0.036320 -0.109041 0.102536 -0.120468 -0.072542 0.069375 -0.015450 -0.002270 -0.089679 -0.093561 -0.094264 0.025665 -0.104627 0.106752 
all -0.063043 -0.045000 0.097274 -0.053655 -0.052611 0.070229 0.069320 -0.006253 -0.110799 0.010853 -0.090664 -0.088163 -0.002081 -0.060074 -0.002215 -0.107342 0.103240 0.078481 0.077402 -0.045672 0.092837 0.009819 -0.051104 -0.058963 -0.087643 0.070923 -0.065244 -0.013146 0.029228 -0.038956 -0.048358 0.051921 0.041245 -0.098785 -0.025810 -0.077547 0.067982 -0.061461 0.035010 -0.093555 0.055088 -0.053803 -0.007212 -0.093938 0.006185 0.087243 -0.003914 0.113350 -0.017127 -0.112996 0.019540 0.082621 0.104727 0.088290 0.095760 -0.110031 0.085491 0.100477 0.083432 -0.098637 -0.071210 0.086620 -0.100785 0.076946 -0.071875 0.035849 -0.018450 -0.028970 -0.028832 -0.004731 -0.100756 -0.108389 0.003567 0.069960 -0.025216 -0.027243 0.028945 -0.040824 -0.107069 -0.057292 0.108902 0.115848 0.092122 0.051482 -0.100792 -0.108623 -0.090735 -0.088630 0.041217 0.086549 -0.101252 -0.111659 0.074748 -0.063188 -0.022767 -0.057462 0.061401 -0.104900 -0.112547 0.092076 -0.111153 0.008517 -0.106078 -0.050753 -0.033460 -0.081659 0.087225 0.111920 0.066199 0.019529 -0.079780 0.076436 0.017523 0.069309 0.063248 0.092812 -0.059915 0.114787 0.085116 0.005241 0.011437 0.029140 0.076411 -0.052211 0.003298 -0.024575 -0.046206 0.112501 -0.022732 -0.057229 -0.076199 0.053690 0.052922 -0.021716 0.019044 0.079352 -0.055994 -0.044858 0.098209 0.091652 -0.113955 0.036401 0.077954 0.050732 -0.059363 -0.020711 -0.067084 -0.025290 -0.004543 0.062813 -0.072391 -0.060321 -0.003850 -0.071751 -0.079285 0.079706 -0.053658 -0.029444 0.060799 -0.108870 -0.092370 -0.053039 0.090594 0.087773 -0.000410 -0.095431 0.042710 0.050024 -0.064033 -0.051539 0.007735 -0.088049 -0.047714 0.009791 -0.097671 0.097497 0.110148 0.077689 -0.066970 -0.070923 0.065321 -0.032643 -0.099454 -0.053414 -0.004643 0.015778 -0.104536 0.052190 -0.096121 -0.077795 0.066348 -0.025870 0.084387 -0.092331 -0.075972 -0.037576 -0.039249 0.019274 -0.035081 0.093166 
same -0.062153 -0.109780 0.051496 0.039530 0.035645 -0.065091 0.096125 -0.016375 0.067195 -0.107183 0.068639 -0.047589 -0.088753 0.065114 0.004240 0.028025 0.009778 0.064579 0.000710 0.104861 0.116377 0.067222 -0.031909 -0.110430 0.047211 0.061309 -0.120999 -0.097642 -0.068647 0.097687 0.018968 -0.024961 -0.039541 0.039461 -0.014874 0.002005 -0.111885 0.062638 -0.062161 -0.059766 0.031138 -0.094838 0.100052 0.059606 0.017952 0.118527 0.006318 -0.058391 0.040213 0.065190 0.004744 -0.018712 0.101832 -0.078841 0.005370 -0.114708 0.018976 -0.074976 -0.019182 -0.076496 -0.079281 -0.122691 -0.033712 -0.072264 -0.001283 -0.108558 0.059564 0.042707 0.006555 -0.106893 -0.079640 -0.024931 0.010726 0.120896 0.021948 -0.005298 -0.110021 0.125006 -0.101121 -0.066580 0.086293 0.018865 -0.100739 -0.064059 0.102932 -0.021516 -0.066867 -0.040759 0.006386 -0.007872 -0.026883 0.022876 -0.074269 0.110644 0.054415 -0.041340 0.052619 -0.053189 0.024484 -0.088688 -0.109685 -0.073035 0.043689 0.088131 0.005959 0.039369 0.084651 0.008025 0.027975 0.084548 -0.067753 0.003457 -0.102305 -0.074395 -0.065415 -0.031180 0.119677 -0.011127 0.001704 0.111415 0.009442 0.012295 0.106224 -0.049850 -0.053613 0.046718 0.033025 0.067810 0.122168 -0.044755 -0.120113 0.108467 0.040045 -0.086114 0.057501 0.029094 0.016837 -0.089093 0.037837 0.099574 -0.068708 -0.002846 0.106423 -0.098604 -0.024935 0.035733 0.110716 0.079926 -0.098257 -0.047673 -0.039243 0.091492 0.028143 -0.014473 -0.120510 -0.044350 -0.017311 -0.064143 -0.097882 0.004862 -0.042963 -0.083257 -0.123902 -0.116801 -0.044904 0.104196 -0.038204 0.048284 0.043361 -0.014167 -0.118493 0.019026 0.100579 0.113149 -0.079242 -0.122439 0.068081 0.098925 -0.072993 0.018934 -0.050221 0.119169 0.060618 -0.100529 0.062489 -0.088177 0.043888 0.039377 0.034637 0.028384 -0.087982 0.020141 0.057875 0.081630 0.013117 -0.013518 -0.114207 -0.002754 0.006898 -0.104624 
we're 0.084551 0.013665 0.114978 0.016512 0.034784 -0.067337 -0.122681 -0.067269 -0.072740 0.113864 -0.114570 0.035755 0.013306 -0.011120 0.050379 0.035588 0.111194 0.041033 0.097639 -0.048434 0.101060 0.073129 0.062009 0.112346 -0.075096 -0.050164 0.040154 -0.081391 0.081515 0.092613 -0.056858 0.070206 -0.105757 -0.005064 -0.008632 0.091548 -0.014394 -0.045466 -0.027829 0.063833 0.050145 0.083536 -0.017785 -0.117338 0.091726 0.061016 -0.067431 0.000427 -0.071381 0.122836 0.043627 -0.058463 -0.064116 0.071800 0.102729 0.034652 0.055522 0.020039 -0.040924 -0.072087 0.043937 -0.105912 0.018661 0.073711 -0.033138 -0.070191 0.006955 -0.003546 -0.048106 -0.069995 -0.041241 0.024804 -0.058965 0.006808 -0.029264 0.054363 -0.061850 0.086753 -0.046044 0.042597 0.008972 -0.089222 -0.118648 0.008840 0.033636 0.024072 0.035184 0.034290 -0.045855 0.043843 0.017196 0.014549 0.021825 -0.103374 -0.014084 -0.092915 0.054948 0.065743 -0.085722 -0.021308 -0.066351 0.106539 0.084544 0.063108 0.094852 -0.116318 0.098454 0.055933 0.047502 0.066091 0.114540 -0.085363 0.104790 -0.100218 0.105734 -0.093987 -0.100607 -0.070055 0.106837 0.111259 0.115695 0.021247 -0.032949 -0.068945 0.015179 0.100225 0.092368 0.065252 -0.088962 -0.092183 -0.039202 0.038262 -0.069130 -0.010788 0.102064 -0.068719 0.016675 -0.038383 0.117908 -0.112626 -0.075142 -0.000970 -0.080602 0.111470 -0.031386 0.089849 -0.025609 -0.119483 0.028078 0.036880 0.070225 0.018098 0.045251 -0.047747 0.056103 -0.075108 0.024000 0.009965 0.090555 0.053290 0.030057 -0.049046 -0.100947 -0.072298 -0.056443 0.072948 0.011320 -0.123213 -0.046037 -0.006846 0.029098 0.043609 0.065143 -0.114430 0.110915 -0.109288 0.095366 -0.013945 -0.017755 -0.067646 -0.075232 0.097416 -0.074651 0.002269 -0.009727 0.084321 0.036891 -0.003938 0.048287 0.120767 -0.019522 0.118660 -0.082920 -0.052308 -0.023494 -0.105527 -0.028289 0.110284 0.059773 -0.100376 
back -0.096831 -0.021076 0.080112 0.033224 -0.024240 -0.027363 -0.053864 -0.008319 -0.011158 0.089535 -0.115764 0.061861 0.084531 0.110525 -0.082287 0.065693 -0.048124 -0.076932 -0.088515 -0.099357 0.086890 -0.059412 0.013314 0.012293 0.068261 -0.101023 -0.051391 -0.061991 0.015256 0.102371 -0.001500 -0.001238 0.120278 -0.082759 0.021580 0.091251 -0.103330 0.012324 -0.077605 -0.072942 -0.099159 -0.112236 -0.081296 0.021285 0.014349 0.078926 0.054542 -0.045146 -0.071223 -0.036890 -0.078047 0.120930 -0.104001 -0.039168 -0.069219 -0.016227 -0.015762 0.051683 0.059135 0.059386 0.078504 0.047566 0.075928 -0.067853 0.107626 0.057072 0.106330 -0.014838 0.087891 0.008777 0.033803 -0.057675 0.073977 -0.113380 0.099282 0.057433 -0.049691 0.001076 0.077839 -0.077301 -0.078239 -0.044585 0.070137 -0.068873 -0.031631 -0.067720 -0.007581 0.036048 -0.080104 -0.094439 0.053727 0.012577 -0.098690 -0.057389 0.050961 -0.062393 0.104877 -0.099070 0.072729 -0.041640 0.034925 -0.040271 0.041299 0.028615 0.016018 0.097085 -0.078279 -0.077147 -0.085186 0.126706 -0.006679 -0.027305 -0.077919 -0.100953 0.116353 0.068237 0.052886 0.096214 -0.056774 -0.084364 0.112770 -0.035126 -0.052428 0.036331 -0.009469 0.043982 -0.084388 0.020114 0.122267 -0.049339 -0.061628 0.005740 0.005846 0.109486 -0.061275 -0.052678 -0.029495 0.008703 -0.117539 0.111271 -0.107914 -0.048303 0.050561 0.096410 -0.050538 0.049014 0.046344 0.027229 -0.092794 -0.019883 0.034279 0.119730 0.077553 -0.022227 -0.021645 -0.102075 0.097613 0.094898 -0.087301 -0.063780 -0.098385 -0.049305 -0.056330 -0.114467 -0.006562 -0.036575 -0.020892 -0.056192 -0.054420 0.123196 -0.013690 -0.107845 -0.121795 -0.020893 0.000729 0.043524 -0.014178 -0.098792 0.122141 0.065967 0.026108 0.059084 0.014223 -0.094087 0.061564 -0.054360 -0.101683 0.081769 -0.029569 0.100166 0.056809 -0.073029 -0.051571 -0.095079 0.091636 0.088344 -0.006959 0.017225 -0.092533 0.012972 
our -0.065769 -0.057102 -0.023459 -0.013441 -0.112227 -0.033909 0.082499 0.073365 0.036637 -0.040854 0.083779 -0.059539 -0.086662 0.087708 -0.104283 0.018524 0.051620 0.105149 -0.036285 0.090375 0.101788 0.059324 0.085317 -0.002268 0.008627 0.056980 0.116965 0.112375 0.011402 0.028179 -0.026004 -0.077355 -0.062893 -0.038122 0.101810 -0.081884 -0.092787 -0.094070 0.062369 -0.059496 0.102090 -0.032917 -0.052303 -0.109578 0.054252 0.075399 -0.091284 -0.037036 0.061858 -0.015748 -0.080342 -0.059051 0.010799 -0.022924 0.013653 -0.098319 0.081442 -0.074961 0.047141 -0.018646 0.041886 -0.006215 -0.064540 -0.096105 -0.045294 -0.063314 -0.111573 -0.076708 -0.058623 0.037180 -0.060830 0.116847 -0.053317 -0.069152 -0.055869 -0.085997 -0.025695 0.018919 0.054230 -0.018977 0.086820 0.054766 0.008117 0.100728 -0.065467 0.086241 0.074504 0.114834 -0.066603 -0.015490 0.109833 -0.076046 0.087093 -0.084782 0.029441 -0.041235 -0.012970 0.102906 0.043144 0.002089 -0.009735 -0.111325 -0.051512 -0.104358 0.041584 0.086025 0.073081 0.011205 -0.090918 -0.081733 0.096677 0.072703 -0.109078 0.081108 -0.006492 0.098542 0.108575 -0.084350 0.032288 -0.069562 0.035660 -0.000191 0.069457 -0.059827 -0.088560 0.028064 0.020353 0.087255 0.034078 -0.010630 0.094793 -0.081079 0.053878 -0.068418 0.090321 -0.016360 -0.084375 -0.038553 0.098963 -0.053558 0.094167 0.009026 0.036055 0.002419 -0.054669 0.063278 0.111415 -0.065607 0.061757 -0.063530 -0.112997 0.055247 -0.082938 -0.029063 -0.073987 0.030012 -0.013904 0.096738 -0.091802 0.053781 0.095850 0.067247 0.043374 -0.090627 -0.103370 -0.069684 -0.106497 -0.090325 0.039973 0.028280 0.021777 -0.044700 0.058393 0.055614 0.107950 0.005755 0.014465 0.001276 -0.109330 0.079447 0.029664 -0.086881 0.109819 0.018092 0.048773 -0.102108 -0.084915 -0.042112 0.075475 -0.114345 -0.071442 0.093927 -0.063238 0.100951 -0.111113 -0.026554 -0.010310 -0.115121 0.064784 -0.090670 
dependency -0.060313 0.054343 0.082256 0.040300 0.039836 0.061905 0.081903 0.088234 0.104889 -0.111903 0.040564 0.066714 0.013115 0.086601 -0.006419 0.058200 -0.043072 0.017345 0.039122 -0.043329 -0.059746 0.108352 0.086873 -0.029754 0.029850 0.096525 0.109345 0.118560 0.103984 0.032914 -0.109437 -0.018556 0.103754 0.031395 0.031330 -0.044495 0.033086 0.017360 -0.061303 -0.002450 -0.041262 -0.020972 0.087809 -0.124105 0.010293 -0.032553 0.011374 -0.075679 -0.122467 0.096494 0.058879 0.036802 0.067017 0.040246 -0.111308 -0.081171 -0.108447 0.038237 -0.024044 0.092667 -0.016643 -0.109801 0.104697 -0.113168 0.032212 -0.038674 0.121769 -0.050753 0.042044 -0.074306 -0.063143 -0.014599 0.079610 0.022836 0.025102 0.014929 0.023177 0.052487 -0.080783 0.120293 0.065160 -0.122793 -0.031315 -0.055846 -0.041830 -0.074981 0.083192 -0.054051 0.020278 -0.067174 -0.016068 -0.106005 -0.121562 -0.048322 -0.042436 0.122072 -0.023622 0.095451 0.102258 0.021525 0.066710 0.038221 0.076381 0.051789 -0.035127 0.019523 0.103761 -0.018817 0.051769 0.090405 -0.031576 -0.107830 0.017180 0.113429 0.019856 -0.069958 0.116347 0.013985 -0.083575 0.051605 -0.086605 0.031610 -0.118042 0.025175 0.040541 -0.033965 -0.048203 -0.066783 -0.063749 -0.068861 -0.027204 -0.078977 0.107082 0.103627 0.105955 -0.054603 0.117160 -0.030912 0.072470 0.025973 0.096069 0.081201 -0.092318 -0.006101 -0.015094 0.051213 -0.038923 -0.005534 0.038915 0.055830 -0.108977 -0.015519 0.073536 0.083272 -0.078651 -0.016424 -0.032964 -0.066729 0.087395 0.074214 -0.088169 -0.028979 -0.015301 -0.100943 -0.088154 0.121911 0.025578 -0.082459 0.033838 0.122847 -0.068773 -0.102017 -0.095240 0.024876 -0.011696 -0.077152 -0.031660 -0.058124 0.043663 -0.113889 -0.022809 0.050554 0.006987 -0.004107 -0.001933 0.087813 0.102105 0.020512 -0.090761 0.104701 0.113041 0.042432 -0.096882 -0.036219 -0.113348 -0.044372 -0.016367 0.093074 0.086566 -0.031779 
actually -0.031528 -0.020378 -0.064080 0.093199 -0.018227 -0.073340 -0.038293 -0.065028 -0.030354 0.034288 0.015213 0.100443 -0.064244 -0.001722 0.012134 0.080126 -0.057586 0.042220 -0.073186 -0.107652 0.110577 -0.020822 0.026825 0.083248 -0.083903 -0.084551 -0.065368 0.084694 0.066392 0.015975 0.035100 0.090951 -0.079980 0.035175 0.067988 -0.114239 0.067108 0.020700 0.066285 0.015266 -0.016494 0.078845 -0.112961 -0.088667 -0.092536 -0.094616 -0.084883 0.002810 -0.098707 -0.041511 -0.109725 0.073440 0.085950 0.051226 0.080087 -0.034388 -0.062712 0.055306 0.107019 0.049529 -0.071861 -0.098911 -0.113233 0.050288 -0.113770 0.046744 0.097426 -0.013785 -0.067480 0.070755 0.068232 -0.065715 0.012027 0.079418 -0.109181 0.030114 -0.106167 0.003089 -0.049948 -0.001199 0.109417 0.065357 -0.014311 0.093256 0.075985 0.079289 0.030719 -0.078716 -0.026860 -0.083405 -0.057808 0.087672 0.039131 -0.023199 0.104971 0.082933 0.101685 0.014329 0.024233 -0.074607 0.047177 0.076826 -0.032451 -0.073390 0.055210 0.036006 0.026552 -0.012381 -0.105136 0.056810 0.116941 0.068099 0.097619 -0.106342 -0.021527 -0.048205 0.080681 0.063367 0.113304 -0.049737 0.023653 -0.031517 -0.090682 -0.035462 -0.069800 0.008530 -0.014039 -0.045699 0.097218 -0.062071 0.082993 -0.062122 -0.058088 0.038912 -0.001181 -0.007757 0.113054 -0.051390 0.059655 0.018431 -0.089444 0.066546 -0.053384 -0.023879 0.100483 -0.087443 0.103210 -0.116358 0.100039 0.003461 0.093259 0.052550 0.088828 -0.023614 0.008397 -0.085288 0.070515 -0.003726 -0.001095 -0.101023 0.107413 0.052128 0.039124 0.023671 0.085893 -0.042986 -0.072541 -0.103400 -0.049024 0.051813 -0.009872 -0.112034 -0.059090 0.032298 -0.091756 -0.042549 -0.116576 -0.112528 -0.109267 -0.111203 -0.100526 -0.100429 -0.029416 -0.006439 -0.065919 -0.059695 0.004847 -0.061807 -0.009092 -0.059967 -0.090782 -0.083040 -0.102315 -0.112241 -0.107377 -0.051813 0.009951 0.065715 -0.011948 0.108848 
going 0.039475 0.114909 0.054389 0.067677 -0.014566 -0.047539 0.001889 0.012510 -0.087336 0.054837 0.046358 -0.033885 -0.053655 -0.014199 -0.020841 0.008154 0.029576 0.098135 -0.104873 0.036204 -0.076623 0.076990 -0.050210 0.008539 -0.064991 -0.089015 0.116594 -0.055874 -0.053122 -0.107789 -0.055871 -0.077375 -0.097916 -0.112101 0.012780 0.084391 0.047195 0.068751 -0.007476 -0.097853 -0.038852 -0.062165 0.099583 -0.119591 0.011899 0.030017 -0.117454 0.098839 -0.100228 -0.030247 -0.078201 -0.030536 0.114112 -0.072256 -0.112682 -0.063891 -0.008920 -0.107389 -0.004675 0.017741 -0.101369 -0.086333 0.037185 0.051244 0.022642 0.100921 0.107733 -0.065802 -0.118647 -0.103255 0.119721 0.110426 0.024805 0.018089 0.046595 0.113345 0.092626 0.028713 -0.077505 0.022616 0.027917 0.038626 0.085032 -0.021408 0.077245 -0.024246 -0.038593 -0.060453 0.062324 0.071492 0.010617 -0.075553 0.108333 -0.110397 0.024027 0.012955 -0.084402 0.025646 0.096472 0.102647 -0.026539 -0.078005 -0.102073 -0.090978 0.103636 0.052822 -0.112608 -0.063402 -0.054248 -0.018111 0.099005 0.022260 -0.071541 0.061979 -0.100724 0.063587 0.055552 -0.021756 -0.070718 0.018852 -0.094034 -0.037923 -0.080305 -0.092978 0.090433 0.062794 -0.095345 0.050533 0.066503 -0.095149 -0.021004 0.104188 0.080742 -0.098276 0.055471 0.026261 -0.045135 0.042035 0.107526 0.078494 0.056826 -0.110456 -0.073474 0.097772 0.086951 0.039812 0.092856 -0.018326 0.049032 -0.064787 0.033718 -0.068751 0.007557 0.049918 -0.034666 -0.034537 0.087707 -0.052311 -0.078157 -0.078798 -0.010195 -0.018689 -0.001919 -0.061179 -0.039578 0.078709 0.106800 -0.023409 0.064043 -0.014273 -0.021330 0.053481 -0.059701 -0.005546 -0.109393 0.006375 0.017841 -0.027876 -0.062554 -0.024372 0.057686 0.089437 0.031940 -0.080487 -0.118454 0.092237 -0.095242 0.099772 0.100154 0.029839 0.075593 0.110515 -0.071718 0.012251 -0.089048 0.092097 0.098050 -0.032603 0.051914 0.002789 
tuples -0.055135 -0.117710 -0.013814 0.105782 0.082853 0.054590 -0.008871 -0.009281 -0.036596 0.103100 -0.082530 0.046080 0.082642 -0.045253 -0.077106 -0.016582 0.013671 0.090270 -0.019523 0.068104 -0.116595 0.067390 -0.121304 -0.111378 -0.119704 -0.002362 -0.040164 0.079551 0.008188 0.054080 -0.110698 0.106307 0.086323 -0.020961 -0.113688 -0.011880 -0.004522 0.068652 -0.014520 0.051894 -0.075897 -0.057828 0.036814 -0.052352 0.122183 0.018805 -0.048142 -0.120782 -0.083318 0.040874 -0.050170 0.111971 -0.073208 0.058376 0.065343 -0.011744 0.094826 -0.063296 -0.097733 -0.103491 -0.067649 0.095063 0.110563 0.040566 -0.002975 0.029637 -0.075108 -0.052622 -0.076513 0.036563 0.118285 -0.056153 -0.099814 -0.018768 0.048472 -0.073865 -0.069031 0.036713 0.119276 0.098075 0.081215 -0.054673 0.057636 -0.013382 -0.014437 0.003211 -0.101834 -0.081332 0.078601 0.075758 -0.016848 0.036525 0.118037 0.089895 -0.022001 0.051743 -0.076888 0.034084 0.101925 -0.016447 0.113019 -0.041678 -0.102736 -0.087281 -0.108347 -0.025859 -0.047556 -0.018460 0.001277 0.008469 -0.067131 -0.098428 0.014993 0.049768 0.057756 -0.061816 0.059717 -0.098105 0.115581 -0.074000 0.077760 -0.077478 -0.043650 0.007320 0.072967 0.038576 -0.016112 -0.106300 0.110721 -0.007620 -0.074868 0.096648 0.071796 0.080070 0.060836 -0.041490 -0.101496 -0.079101 -0.005130 0.113864 0.086969 -0.065925 -0.115085 0.028127 -0.035845 0.108058 -0.049809 -0.033333 -0.096884 0.000567 -0.020830 0.010250 0.092302 -0.030726 0.068002 0.055034 0.043282 -0.058894 -0.117909 0.058714 0.067574 -0.095476 -0.113207 0.040521 0.045956 -0.090473 0.116722 0.081219 -0.079262 0.067645 -0.070391 0.076967 -0.058094 0.059668 -0.024585 -0.014539 -0.071300 0.120196 -0.018922 0.072070 0.008037 0.053088 -0.018786 -0.074721 0.122228 -0.030125 0.071968 -0.066474 0.028980 0.043623 -0.081253 0.054508 0.039811 0.016657 -0.013093 0.061313 0.035500 -0.061028 0.064923 0.034707 
relations -0.041581 -0.075199 0.003535 0.112746 0.055703 -0.102991 -0.039543 0.017610 -0.087983 0.083924 -0.090922 0.007332 -0.113883 0.056815 0.116891 -0.078823 -0.074604 -0.071974 -0.030074 -0.106226 0.028807 0.096912 0.090945 -0.113981 0.026650 0.080373 -0.018470 -0.084283 0.038237 -0.073967 -0.090829 0.062854 0.010687 -0.023392 -0.030831 -0.012572 -0.054507 -0.071735 0.076016 -0.110945 -0.093404 0.006629 -0.032527 0.019908 0.018117 0.018877 -0.087699 -0.012843 -0.017082 0.075356 0.003262 -0.077112 0.044210 0.106871 -0.081063 0.028715 0.028753 0.097330 0.107626 0.083996 0.059669 0.101708 -0.112167 -0.070733 0.078000 -0.014179 0.071206 -0.062666 0.088776 -0.083344 0.088529 0.071632 -0.082509 -0.117071 -0.075908 0.106710 -0.075556 -0.062925 0.075486 -0.111086 0.056483 -0.056088 -0.067717 0.030765 0.076925 0.072695 0.117242 0.009457 0.047170 0.072692 -0.108771 0.090320 0.092607 -0.003932 0.001900 0.105815 -0.080360 -0.051371 0.065659 -0.037536 0.006387 0.097091 -0.000733 0.088716 -0.056569 -0.045187 0.012576 0.030288 0.085263 0.047317 -0.099014 0.105342 -0.093084 0.002243 -0.004292 -0.026851 -0.114762 -0.008885 -0.024677 0.065423 0.078363 0.003918 0.047415 -0.068849 -0.095319 0.083743 0.011922 -0.115773 0.017042 0.104752 -0.041662 0.059280 -0.058689 -0.003518 0.041871 -0.054885 -0.017854 -0.018439 -0.001986 0.027820 0.025219 0.111154 0.094260 -0.079632 0.010571 0.017708 -0.045182 -0.012782 -0.055495 0.105118 -0.034731 -0.041835 -0.110309 -0.110989 0.098287 0.084385 -0.031021 -0.108628 -0.083370 -0.028224 -0.111228 -0.020440 -0.014850 -0.005859 -0.108720 0.087918 -0.019570 0.110379 0.038176 -0.035554 0.116588 0.101846 -0.023320 -0.104782 -0.051420 0.044258 -0.108907 -0.011961 0.047063 0.077781 0.020087 -0.060924 0.088351 -0.076138 -0.046757 -0.031583 0.047383 0.075664 0.047052 -0.111222 -0.044528 -0.101632 0.013996 0.047682 -0.092082 0.004227 0.091205 -0.102959 0.053123 0.112418 
not 0.107422 -0.098969 -0.106573 0.009591 -0.055480 0.109159 -0.063741 0.007111 0.023208 -0.084435 0.036878 0.005791 0.109554 -0.037368 0.109880 -0.035214 0.029038 0.001577 -0.108372 -0.097337 -0.095804 0.080672 -0.109170 -0.102603 -0.083025 0.069953 -0.037328 0.086379 0.071088 -0.101130 0.021750 -0.046527 -0.045632 0.031573 0.042071 -0.007466 -0.073002 0.041045 0.057054 0.043895 -0.066722 0.034967 -0.078115 0.007299 -0.023077 -0.057210 0.026449 0.079547 -0.116589 -0.008982 0.107110 0.041560 0.012924 -0.009722 -0.040359 -0.028687 0.072117 0.048254 -0.085483 0.006197 0.064705 0.094393 -0.113666 0.105366 0.053812 0.117557 0.086745 0.049740 -0.075671 -0.071628 0.073880 -0.082702 0.095847 0.109811 -0.059433 0.083072 0.096790 0.116034 0.076694 0.030928 -0.009718 -0.064100 -0.019023 0.017076 -0.101141 0.092971 -0.075519 -0.118152 0.004467 -0.018004 0.000036 0.000279 0.073176 0.007713 -0.115407 0.093878 -0.069536 -0.078663 0.027450 -0.056434 -0.063487 0.008786 -0.013265 0.102610 0.035624 -0.097548 0.092924 -0.004536 -0.006135 0.007075 0.022968 0.056572 0.112005 0.073869 -0.011480 0.066856 0.037292 -0.086539 0.022997 0.104292 -0.048330 0.108825 -0.018414 0.068625 0.096500 0.114119 0.016528 -0.080991 0.059614 -0.081796 0.101830 -0.088344 -0.036450 0.044642 0.033267 -0.113104 -0.009747 -0.111820 -0.096333 -0.017881 -0.094208 0.091202 0.102918 -0.081165 0.010937 -0.070366 -0.107908 -0.046745 -0.047068 -0.072962 0.017543 -0.074289 -0.086274 -0.046549 0.096812 -0.026409 -0.102969 -0.061678 0.044493 0.056050 -0.034028 0.108158 0.072241 -0.045991 0.005439 0.035939 -0.024172 -0.016909 -0.040265 0.066994 0.085730 0.043039 0.070217 -0.106874 0.078898 0.093008 -0.075279 -0.021514 -0.070660 -0.086082 -0.116574 -0.103944 -0.091880 0.059038 -0.109365 -0.008837 0.108067 -0.047180 -0.049940 -0.044388 -0.031511 0.029709 -0.112818 0.015908 -0.061319 0.070627 0.062182 -0.017322 0.052065 -0.084095 
for -0.059091 -0.038453 -0.077993 -0.062780 0.012520 -0.118185 -0.051865 0.109665 0.096145 -0.018194 0.105929 -0.054045 0.070170 0.061447 -0.071450 0.030622 -0.124250 -0.016569 0.016221 0.006670 0.018956 -0.075706 0.027637 0.082020 0.064331 0.123342 -0.064661 0.025212 -0.109737 -0.121648 0.025707 -0.081368 -0.059949 0.056313 -0.105332 -0.092570 -0.033453 0.080541 -0.045858 -0.051547 0.036441 -0.060734 -0.074407 0.061316 0.028120 -0.065439 0.095401 0.077330 -0.117262 -0.070879 0.059497 -0.109427 0.106366 0.099482 -0.021278 -0.039962 0.012474 -0.068274 0.076691 0.054267 -0.018404 -0.020998 -0.113438 0.004570 -0.045115 0.104002 0.008559 -0.043900 -0.063734 -0.018883 0.101378 0.116775 -0.007570 0.100723 -0.113515 0.004065 0.001762 0.011673 -0.098666 -0.048574 -0.094582 0.078809 -0.007072 0.104010 -0.041606 -0.023481 0.071036 -0.083483 -0.023691 -0.055892 0.108197 -0.089291 0.088620 0.032576 -0.111354 -0.082104 -0.014589 0.104615 0.012604 0.083230 -0.078323 0.085690 -0.112304 0.112484 -0.035890 -0.035970 -0.011394 0.025274 -0.008903 0.041709 0.099570 -0.096018 -0.056210 -0.069653 0.067588 -0.106240 0.077189 0.057554 0.053505 -0.048544 -0.044165 -0.090586 0.029859 0.096685 -0.039736 0.039073 0.031959 -0.090318 0.031629 0.058152 -0.093195 0.037748 -0.077219 -0.107887 0.066316 -0.064420 -0.048517 0.031334 -0.019117 0.124943 -0.003877 0.024668 -0.063113 -0.065002 -0.002145 -0.014118 0.032403 0.013045 -0.039399 0.091513 -0.073871 0.064856 -0.048946 0.078717 0.092750 0.110048 0.098673 -0.001506 0.065427 -0.020071 0.093540 -0.035388 -0.057765 0.070726 -0.060424 -0.097466 -0.115982 0.088211 -0.045452 0.051562 0.114388 0.051999 0.016841 -0.039449 -0.084567 0.044475 0.067611 -0.005659 -0.112626 -0.040284 0.110779 0.078395 -0.060018 0.005643 -0.038035 -0.050130 0.045797 -0.049203 0.001701 -0.089161 -0.010949 -0.122437 -0.079932 0.075070 0.118894 -0.068910 -0.027936 0.116951 0.094022 0.068228 
that's -0.026009 0.024079 -0.110121 0.056038 0.051884 0.097852 0.034303 -0.018182 -0.095496 -0.043138 -0.113436 -0.014763 0.024919 0.017734 0.092622 0.024251 -0.011138 0.024378 -0.108150 0.117971 -0.077535 0.026483 0.052519 0.102040 0.013020 -0.109729 -0.063687 0.117881 0.019723 0.032366 -0.055430 -0.121173 0.007555 -0.047946 0.050533 -0.106765 0.102648 -0.056352 0.043978 -0.003251 0.003046 0.117993 0.020462 0.086169 -0.042806 -0.086781 -0.107926 0.119449 0.030070 0.051731 0.121304 0.115701 0.103186 0.093970 0.008682 -0.089431 0.119206 -0.093843 -0.105612 -0.109901 0.081954 -0.095082 -0.064866 0.012247 0.056408 0.078785 0.104164 0.051500 -0.075922 -0.011799 -0.053370 0.088124 0.116877 -0.011366 0.047338 0.018921 -0.095243 0.007462 0.073750 0.046468 0.086568 0.033217 -0.000888 -0.054747 0.054572 0.115589 0.102447 0.040167 -0.003942 0.120800 -0.009936 -0.016614 -0.085150 -0.023773 0.063299 -0.022512 0.120550 -0.084974 0.050772 0.041586 0.005420 -0.013113 -0.013117 0.011321 0.001374 0.058032 -0.032810 0.028118 0.112234 0.055837 -0.096221 0.049932 -0.086269 -0.031164 0.014520 0.095873 0.021246 0.091342 0.089188 0.001586 -0.111801 0.044952 -0.021284 -0.091506 0.007659 0.001669 0.084440 0.019175 -0.044643 -0.049977 -0.109643 0.108117 0.102051 -0.060294 -0.079886 0.010963 -0.098841 0.081562 0.024643 0.113760 0.090375 0.058345 0.116034 -0.114783 0.000806 0.103212 -0.077094 0.078315 0.003210 0.021228 -0.031093 0.039451 0.040253 -0.076762 0.104970 -0.089953 0.115757 -0.018757 -0.001441 -0.107318 0.050077 -0.060846 0.112167 0.006469 -0.030653 0.091282 -0.009055 0.087049 0.060857 0.059226 -0.024927 0.031224 0.083806 0.014987 -0.023359 0.041571 0.103171 -0.052903 -0.031108 -0.107422 0.000463 -0.094754 -0.013774 -0.090864 -0.037028 0.000280 -0.120423 -0.011956 -0.005480 -0.085049 0.050279 0.087258 -0.084537 -0.117583 -0.017670 -0.018734 0.096557 -0.047633 -0.045247 -0.005043 
example -0.008498 -0.008689 0.061083 0.024327 0.089561 -0.071861 -0.024345 0.028793 -0.023037 -0.009932 -0.089193 0.027015 0.012588 -0.011594 -0.100162 0.096690 -0.095848 0.030448 0.035242 -0.098865 -0.107858 0.045897 -0.004863 0.110015 0.039455 0.023655 -0.009589 0.031466 -0.005391 0.011818 0.054363 -0.020027 -0.061105 0.117682 0.042700 0.092427 0.112801 0.034162 0.107114 0.091343 0.105647 -0.013054 -0.015081 -0.004780 0.039527 0.024132 -0.053799 -0.118246 0.095732 0.016226 0.083455 -0.112161 0.041175 -0.107067 0.074798 -0.027225 -0.061249 0.116728 -0.105668 -0.081725 -0.089446 0.025346 0.048928 0.038823 -0.098912 -0.037132 -0.079278 -0.002265 -0.085948 0.095787 -0.101810 -0.008899 0.012342 -0.060573 -0.044564 0.037421 0.081266 0.015460 -0.111030 -0.022398 0.065325 -0.042392 0.028074 -0.051461 -0.031781 -0.067641 0.050865 -0.090468 0.089634 -0.071384 -0.068555 0.115868 0.078086 -0.005524 -0.060100 -0.065119 0.114867 0.000444 -0.068063 -0.022961 -0.033110 0.113014 0.059247 -0.035145 -0.066163 0.084297 0.059146 -0.083170 -0.098984 -0.037609 -0.035069 -0.089341 0.049716 0.091379 0.105885 0.083235 -0.089937 -0.072612 -0.076663 -0.079716 0.018528 -0.067106 0.101752 -0.086118 0.023630 -0.080792 -0.035936 -0.095064 0.106658 -0.006377 0.076345 0.030339 0.034527 0.085843 0.116710 0.012606 0.106919 -0.052018 0.059262 0.107023 -0.027647 0.101712 -0.062702 -0.082288 0.048907 -0.056035 0.080102 0.055139 0.103493 0.114806 -0.070997 0.005033 -0.037778 -0.107226 -0.068324 0.022679 -0.016028 0.036330 -0.115366 -0.051013 0.113249 -0.057596 0.117158 -0.079152 0.116963 0.014275 0.070578 -0.102435 0.058012 0.004058 -0.044217 -0.102363 0.058489 -0.040152 0.042858 -0.001239 0.062897 -0.011060 -0.049275 0.101040 0.074936 0.021039 0.067861 -0.073010 -0.079286 0.045044 -0.105206 -0.031315 -0.040886 0.109054 -0.061603 0.067034 -0.102149 0.083574 0.054377 -0.114647 -0.022589 -0.101690 -0.079148 0.093308 
see 0.024862 0.016366 -0.015084 -0.001003 -0.080464 0.010789 0.046620 -0.086307 0.095360 -0.010902 -0.047282 -0.016486 0.063628 -0.121819 0.107257 -0.080144 -0.110241 -0.087232 -0.009252 -0.011766 -0.052986 -0.103390 -0.115900 0.023182 -0.068604 -0.058702 -0.116487 -0.079197 0.093030 -0.026279 -0.099516 -0.114957 0.004780 -0.017666 -0.091925 -0.064857 0.039909 0.017162 -0.059081 -0.094364 -0.105581 -0.056477 0.095217 -0.061099 0.064711 -0.065421 0.036188 -0.007392 -0.122627 -0.021213 -0.016828 0.085999 -0.048056 -0.120105 -0.029199 0.053606 -0.015573 -0.004228 0.095277 0.037808 -0.021330 0.007031 0.021818 -0.003724 0.000090 -0.097874 -0.030236 -0.051750 -0.070603 -0.022641 -0.026253 -0.025460 -0.044854 0.098047 -0.116306 -0.028751 0.081185 -0.055199 0.103650 -0.103954 -0.119621 -0.001372 0.114127 0.014449 -0.027733 0.063279 -0.050243 -0.085285 0.052851 0.004070 -0.046981 -0.014502 -0.120297 -0.005836 0.035407 -0.061806 0.010793 0.022017 -0.076292 0.038319 0.080554 -0.108621 -0.101169 0.120406 0.031266 -0.039882 0.056977 0.080558 0.113052 -0.091155 0.063365 0.122721 -0.101222 -0.027707 -0.108941 0.019860 0.007982 -0.045790 0.067243 0.099061 -0.109610 -0.033810 -0.050709 0.010150 0.042404 -0.064880 -0.058751 -0.042926 0.036887 0.095732 0.016181 -0.040927 0.000827 0.005498 -0.037556 0.096957 0.122777 0.022288 0.122514 0.020552 -0.085965 0.072989 -0.084665 -0.066195 -0.067431 -0.100219 0.052798 0.102233 0.059089 0.045241 0.076984 0.114093 -0.010402 -0.117866 0.084094 0.111763 -0.025779 0.076176 -0.014378 0.052915 0.078374 -0.123006 0.000909 -0.043212 -0.063508 0.073440 -0.081689 -0.095807 -0.016595 0.038281 0.080306 0.037507 -0.023314 -0.055320 -0.094165 0.068126 -0.018248 0.027369 0.106791 0.015291 -0.120688 0.090095 -0.021022 -0.040190 0.104198 -0.001823 0.111150 0.044061 -0.078570 -0.075221 -0.077750 -0.020559 -0.111023 0.104630 -0.122108 0.031465 -0.112451 0.095206 0.012709 0.034666 
join 0.103090 0.007898 -0.067928 -0.112014 0.053377 0.016064 0.034004 0.032315 0.045182 0.106092 0.051728 0.005179 -0.037838 0.086579 0.019022 -0.114609 -0.011787 0.066363 0.029709 0.052003 -0.113103 -0.025864 -0.002529 -0.016650 -0.037794 0.038831 -0.103962 -0.061613 0.097798 0.069046 -0.000623 -0.004072 -0.002815 -0.066575 -0.079069 0.054642 -0.095687 0.041045 0.054763 0.073246 -0.117017 -0.099736 -0.105780 0.070504 0.057043 0.040253 -0.046539 -0.114961 -0.110185 0.089467 0.086121 -0.104098 0.105626 -0.023401 -0.034312 0.061811 0.047704 -0.069419 0.046275 -0.078853 0.080088 0.000202 -0.118725 0.033106 -0.093707 0.054107 0.044897 0.056167 0.010453 0.020990 -0.029562 -0.050955 -0.024013 -0.110409 0.112011 -0.029302 -0.073257 -0.051109 0.023009 -0.040253 0.046619 0.067536 0.037449 0.055052 0.099176 -0.065974 0.069013 -0.024860 -0.091978 0.017486 0.091428 -0.021034 0.077391 -0.113678 -0.101719 -0.094847 0.070603 -0.110438 0.063779 -0.107440 -0.108588 -0.044101 0.021221 -0.100096 0.084002 0.074074 -0.015474 -0.054048 0.051648 0.052685 -0.012527 0.109515 -0.021756 0.000568 -0.116306 0.049071 0.107737 0.086608 0.067253 -0.036471 0.023544 0.059355 0.031497 0.111846 0.089705 -0.032403 0.050394 0.092450 0.009734 -0.079828 -0.022423 0.044204 0.027576 0.085963 -0.033081 -0.074177 -0.033161 -0.026670 -0.007850 -0.003735 -0.048628 0.111443 0.087044 0.094151 -0.075118 -0.111435 0.105238 0.118150 -0.108881 -0.046036 -0.039590 0.026978 -0.086114 0.056189 0.106674 0.079593 0.117032 0.003837 0.097424 0.114616 -0.036123 -0.094254 0.026484 0.030717 -0.061441 -0.069199 0.047726 0.026802 0.104879 0.067741 -0.105311 -0.118553 0.106301 -0.115027 0.081532 -0.086344 -0.113469 -0.028283 -0.018494 0.022096 -0.070295 0.016474 -0.011325 -0.074704 0.059432 0.007986 0.076768 -0.117790 -0.080821 -0.004959 0.039370 -0.028349 -0.066967 0.086476 -0.029694 0.092289 0.104747 -0.029207 0.023449 -0.037350 
but 0.014578 0.120348 -0.071946 0.089881 0.039738 0.097612 -0.031438 0.050187 0.107256 0.014481 -0.007642 0.001387 -0.018195 0.036351 -0.092769 -0.104047 -0.021246 -0.087600 -0.058465 0.001443 -0.023708 -0.059124 0.124854 -0.104664 -0.083190 -0.019031 0.053050 -0.013343 0.049825 -0.036323 -0.112027 -0.026054 -0.055728 -0.124097 0.110197 0.118451 -0.022028 0.019056 -0.002405 0.017717 0.097401 0.004035 -0.105569 0.057523 0.056932 0.004859 -0.032468 -0.055595 -0.088116 0.018997 -0.059543 -0.050730 0.050351 0.090488 0.090533 -0.095002 -0.088097 0.077951 0.026265 -0.039625 0.005676 -0.085551 -0.107374 0.062871 -0.115836 0.084768 -0.068194 -0.015226 -0.058647 -0.107633 -0.087699 0.067237 0.105442 -0.054682 -0.064833 -0.055100 -0.112842 -0.071603 -0.078484 0.073190 0.113066 0.078514 0.077764 -0.020023 -0.105544 -0.061024 -0.044083 -0.006520 -0.071480 0.125425 -0.113630 0.009586 -0.028413 0.062853 0.043192 -0.017415 0.087884 -0.005977 -0.108968 -0.072511 -0.088827 -0.028706 -0.034331 -0.059226 -0.121005 0.098707 0.121676 -0.093579 -0.006269 0.060878 0.011890 0.032460 0.072346 0.087472 0.112807 0.089365 -0.002312 -0.012354 -0.045308 -0.092986 -0.039825 0.123114 -0.107318 -0.119909 -0.041874 -0.080828 0.079569 -0.026269 0.064199 0.110545 -0.008357 -0.046889 -0.100948 -0.001696 -0.086528 -0.108244 -0.084402 -0.048890 -0.054457 -0.057317 0.114580 -0.109276 -0.004357 0.065116 0.054983 0.054646 0.031871 0.020644 0.120043 -0.002917 0.095915 -0.102284 0.002641 0.077648 0.037820 0.088600 -0.041216 -0.028552 0.006457 0.050169 0.046651 -0.074653 -0.017849 0.050899 -0.096520 -0.017082 0.004776 -0.073759 -0.026414 0.006858 -0.086191 0.066362 -0.002523 -0.078659 0.117463 -0.073090 0.047361 -0.027826 0.095336 0.036315 0.008955 -0.045840 -0.118117 -0.033677 0.065578 -0.015355 0.070281 0.121263 -0.025659 -0.017160 0.077305 -0.049077 0.051226 -0.055910 0.119185 -0.019609 -0.073132 -0.083012 -0.017348 0.031544 
will 0.032886 0.012047 0.016811 0.014460 -0.095719 -0.084843 -0.111548 0.107859 0.054922 0.094100 0.046757 -0.114808 -0.080483 0.109749 0.048375 0.110162 -0.097333 0.087768 -0.000150 -0.014194 0.006657 -0.045384 0.037058 -0.065697 0.067207 -0.074313 -0.098616 -0.016930 -0.034631 0.055335 0.092913 -0.029280 -0.116677 -0.024405 0.011593 0.031180 0.054481 0.091605 0.033917 -0.106166 0.080365 -0.074152 -0.101320 0.043731 0.077777 -0.013951 0.112864 0.086631 -0.012480 -0.085499 0.058981 -0.074341 0.050019 0.110605 -0.107041 -0.012400 0.096392 0.090073 0.056081 0.062912 0.018339 -0.091502 0.101475 -0.011946 -0.021213 -0.100975 -0.089390 -0.104443 -0.004901 -0.005810 0.074591 -0.012011 -0.112068 -0.054442 -0.113810 0.040645 0.009989 0.048884 0.069449 -0.096682 0.091914 -0.068994 0.018557 -0.056447 0.113224 -0.010653 -0.114809 -0.116221 -0.087395 -0.025482 0.102744 -0.018866 0.075235 -0.052639 0.012140 0.073462 0.084965 0.004790 -0.069562 0.065594 -0.061752 0.086387 0.015105 -0.081983 -0.057492 -0.064270 0.003122 0.110159 -0.032209 0.074715 -0.075383 0.030439 -0.031709 -0.102290 0.111601 0.036736 -0.047922 0.050517 0.007088 0.081833 -0.027420 0.054069 0.051942 -0.033693 -0.079112 -0.051504 0.051362 -0.001037 -0.020724 0.073114 0.085745 0.074853 -0.096527 -0.100087 0.084335 -0.079242 0.007628 0.105092 0.016532 0.020564 -0.059769 0.047940 -0.086576 -0.006732 0.103239 0.060493 0.097332 -0.039604 0.039895 0.078071 0.026015 -0.109340 0.048045 0.086914 -0.100442 0.032509 0.013947 -0.097617 -0.017303 -0.001014 0.110879 0.095732 -0.090385 -0.077075 -0.115407 -0.099470 0.058331 -0.003646 0.092998 0.002267 -0.066569 0.008624 -0.080992 -0.021998 0.033457 0.024586 0.012801 -0.056912 -0.013599 -0.040122 -0.088079 0.059787 -0.056874 -0.000591 -0.092411 0.078286 0.106997 -0.061931 -0.114133 0.045481 0.054841 0.070896 0.031083 0.073470 0.101215 0.080175 0.110480 0.088941 -0.075432 -0.090933 
