68 200 #File: 07_02_Functional_Dependencies_Part_1.txt.bin
</s> 0.099131 0.109451 -0.094860 -0.081184 0.033845 0.074820 0.023301 0.005234 -0.089245 0.054943 -0.107890 0.030946 -0.018608 -0.023706 -0.082118 -0.046614 0.063880 0.074926 0.073532 0.039562 0.038259 -0.094176 -0.101436 0.123078 0.094142 0.076529 -0.014957 0.099452 -0.012259 0.018196 -0.003696 -0.073883 0.032499 -0.033123 -0.094740 0.117742 0.108457 -0.027122 -0.005600 0.012611 -0.090091 -0.099240 0.112803 0.001561 -0.063956 -0.075342 -0.076192 0.042026 0.004988 0.032964 -0.104353 -0.094305 -0.003220 0.028324 0.063147 -0.078509 0.101035 0.022957 0.027730 -0.015067 0.073963 -0.056659 -0.051946 0.053454 -0.018653 0.025527 0.044690 -0.101258 -0.049112 0.072160 0.104807 0.097381 -0.075459 -0.052199 -0.022515 0.049569 -0.093825 0.074246 0.069042 -0.039600 -0.038425 -0.055434 0.104731 0.096882 -0.029219 0.104387 0.119379 0.044959 0.123407 -0.077050 -0.037934 -0.052192 -0.071998 0.069711 0.039113 0.010525 -0.054327 0.037741 0.075769 0.004796 0.056458 -0.122655 0.106863 0.011885 -0.045348 -0.051595 -0.018525 -0.072689 -0.108215 -0.070263 0.105925 -0.043833 -0.066359 0.057392 -0.042196 0.117803 -0.039740 -0.113646 0.067259 -0.001840 -0.086403 0.024167 0.035712 -0.011923 0.045182 -0.098016 0.021820 0.044989 -0.074522 0.003518 -0.001504 -0.059417 -0.070153 -0.116246 0.000567 0.003783 0.000242 -0.097426 -0.122886 -0.117553 -0.107127 -0.013548 0.034457 0.029329 -0.078815 0.123781 -0.049815 -0.031543 -0.034782 0.117206 -0.093213 0.028754 -0.033074 0.078947 0.001005 0.105740 -0.069821 -0.064519 -0.103824 -0.090813 -0.079238 -0.077141 0.060532 -0.046236 0.066374 0.091388 0.033580 0.073075 0.061311 0.057966 -0.087937 -0.085024 -0.090560 -0.003269 0.102298 -0.067776 -0.075792 -0.103926 0.081876 -0.103495 -0.014345 0.053960 -0.114375 -0.110917 0.035734 0.087291 0.105608 0.053137 0.078316 -0.077458 -0.090159 0.098439 -0.068475 0.043424 0.014217 0.044339 -0.029280 0.004924 -0.041758 -0.027900 
the -0.107059 -0.078734 0.083761 0.023855 -0.056751 -0.038481 0.060120 -0.085307 -0.055527 0.113965 0.101980 -0.095306 0.020815 -0.054395 0.003544 0.072762 0.116741 0.047972 0.098947 0.075766 -0.005913 0.108133 0.060880 0.114126 -0.041039 0.114402 0.104135 -0.034502 -0.106738 0.116210 0.021470 -0.050358 -0.016964 -0.017467 -0.093111 -0.034271 -0.010609 -0.118582 -0.084486 -0.028849 -0.022415 0.042757 0.019836 -0.014856 0.071094 0.035001 0.013336 0.087337 -0.027193 -0.034197 -0.009981 -0.065402 -0.072286 0.004660 0.104281 -0.033247 -0.000378 -0.099519 0.089211 -0.036369 0.071155 -0.057895 -0.021582 0.001964 0.087504 -0.002220 0.106758 -0.017627 0.050632 -0.003125 -0.093929 0.102378 0.025072 -0.073022 0.072131 -0.099766 -0.105106 0.078377 -0.082562 -0.063449 0.084825 0.079190 0.016254 0.109053 0.117293 0.097468 0.042718 -0.105127 0.055382 -0.117881 -0.030679 0.036531 0.023293 -0.036443 0.070528 -0.111075 -0.033782 -0.031544 -0.039917 0.073785 -0.113881 0.067035 0.032515 0.068245 0.088381 0.006756 0.020185 -0.109908 -0.024629 0.077181 -0.043296 0.101388 -0.028912 -0.093571 -0.062477 0.118147 0.080393 -0.095873 0.116317 -0.101514 -0.115337 0.059313 -0.016130 -0.055928 -0.009470 -0.060286 0.057672 0.092233 0.100883 -0.106165 -0.050704 0.000561 -0.022443 0.091900 0.053269 0.108880 -0.074064 0.041239 0.102678 -0.043832 0.070221 0.030689 -0.108997 0.100864 0.113302 -0.070050 -0.006045 -0.038844 0.058592 -0.092931 0.084226 -0.022408 -0.029379 -0.048916 -0.105823 -0.073619 -0.027134 0.111428 -0.060874 -0.111398 0.009794 0.014773 0.072947 0.002106 0.084094 0.072193 -0.031667 -0.015120 0.019442 0.030425 0.080204 0.097013 -0.059958 -0.060373 -0.038810 -0.065020 0.029763 -0.092550 -0.054579 -0.119617 0.052614 0.104843 -0.052831 -0.109386 0.071677 0.038411 -0.061077 -0.015092 -0.029700 -0.003008 -0.043532 0.000594 -0.066921 0.090414 0.092358 0.078419 -0.035849 0.006466 0.019284 -0.064352 
a -0.114956 -0.031564 -0.046362 0.069569 0.067384 0.039776 -0.077301 0.084443 -0.040691 0.082529 0.032401 0.107414 0.061436 0.016130 -0.057242 0.115049 -0.056563 0.084913 0.122639 0.116330 -0.021953 0.084379 0.107580 -0.052018 0.106224 -0.117172 0.002208 -0.007194 0.099385 -0.098874 -0.041357 -0.045669 0.006408 0.110492 -0.044335 -0.114715 -0.038175 0.100388 0.025760 0.068699 -0.084057 -0.035682 0.015347 -0.064036 0.088978 -0.111338 0.081417 -0.055190 0.071586 0.074075 -0.032372 0.079104 0.008495 0.119116 -0.081934 -0.033564 0.071486 0.100367 0.047108 -0.029834 0.019456 -0.018222 0.040321 0.061547 -0.090731 -0.023886 0.106783 0.006166 0.123613 0.117354 0.025171 -0.107808 0.104490 0.041976 -0.111433 0.081989 -0.126162 -0.060680 0.099253 0.074744 -0.009824 0.029688 -0.073819 -0.109965 0.051375 0.103314 0.097326 0.059438 0.038812 0.041029 0.004334 0.038298 -0.053674 0.028196 0.017147 -0.000224 0.070032 0.025761 -0.090400 -0.030746 0.055004 0.085936 -0.090425 0.020772 0.083738 0.091042 -0.093151 0.064136 -0.070551 -0.036430 0.030368 0.061923 -0.102592 -0.068150 0.027085 0.014742 0.115331 0.045455 -0.055018 0.000146 0.022430 -0.062148 0.075673 -0.068539 0.115334 0.012528 -0.100369 0.014952 -0.011108 0.022406 0.077810 0.001656 -0.008044 0.004655 -0.065883 -0.010981 0.074742 0.078826 0.044970 -0.113322 -0.001729 -0.064574 0.081211 0.101487 0.077520 0.039300 0.032392 -0.036529 -0.065638 -0.046756 -0.101803 0.003909 0.010360 0.024060 0.054432 -0.091462 0.079383 -0.031845 -0.098444 0.090833 -0.071266 -0.018415 -0.095439 0.102205 -0.044306 -0.108397 0.093934 0.033155 0.089991 0.028890 0.089388 0.014115 0.093082 0.099911 0.037348 -0.015125 0.035399 0.095640 -0.078052 -0.015396 0.030448 0.050627 0.009417 0.081008 0.034211 0.076130 -0.085882 -0.049318 0.049772 0.111918 0.038154 0.010761 -0.117017 -0.102239 0.106392 0.054554 -0.081903 -0.032020 -0.090850 -0.075455 
and 0.106627 -0.065391 0.025153 -0.026242 -0.052976 -0.013090 -0.110390 -0.055510 -0.005780 0.106110 -0.044768 0.089158 -0.108578 0.100667 0.015456 0.005901 0.063025 0.079497 -0.076192 0.074047 0.032055 -0.028758 0.074637 0.011916 0.102724 0.004999 -0.039075 0.078653 -0.081760 -0.010772 0.097201 0.112763 -0.097003 0.032844 0.096629 0.012841 0.060751 0.064489 0.113192 -0.022061 -0.025380 0.072895 -0.119764 0.026836 0.008905 0.106887 -0.087709 -0.001962 0.107272 0.035015 0.062886 0.030504 0.033112 0.026286 0.005274 0.082922 0.090636 0.069433 -0.046469 -0.066293 -0.076948 -0.027086 -0.058543 -0.097909 -0.045244 0.086011 0.062945 -0.113328 -0.050863 0.096999 -0.008751 0.086502 -0.029958 -0.005388 -0.059556 0.039629 -0.098954 0.068039 -0.055668 0.065288 -0.073823 -0.054535 0.096805 0.062075 0.049191 0.036262 0.071116 -0.011322 0.093570 0.088798 0.081342 0.104239 -0.057113 -0.088468 -0.079082 0.006899 0.021537 0.094109 -0.075899 0.075983 0.092910 0.084441 0.004511 0.029815 -0.019512 0.111626 -0.104507 -0.112829 0.048575 -0.015877 0.111578 -0.032712 0.000469 0.051212 0.025564 -0.071604 0.080293 0.001170 0.031799 -0.030453 0.111527 0.063095 0.103993 0.109520 -0.022255 0.045446 0.035584 -0.053544 0.103340 0.057139 -0.079537 0.100043 0.011340 0.026814 -0.087386 0.048241 0.005956 -0.056794 -0.014253 0.050192 -0.029239 0.095503 -0.066700 -0.055598 0.089785 0.111890 0.089528 0.110195 -0.113947 -0.078991 -0.112678 0.025531 -0.095858 -0.007676 0.021485 -0.050449 0.027625 -0.106073 0.045090 -0.038874 -0.040198 -0.024900 0.052030 -0.041148 -0.055206 -0.075881 -0.044078 -0.098583 0.046447 -0.029917 -0.029158 0.047962 -0.092029 -0.078551 -0.109774 -0.003371 -0.046242 -0.112865 0.048333 -0.113621 -0.052800 0.036145 0.118415 -0.083737 -0.047856 0.116848 0.074182 0.105061 0.092528 -0.062295 -0.050563 0.050911 0.071652 0.088358 0.078437 -0.107225 -0.106729 0.016721 -0.105930 0.070071 
of 0.095871 -0.054626 0.089647 -0.123814 0.106836 -0.060680 -0.022918 -0.112437 0.071369 0.101752 -0.096233 -0.022237 0.027710 0.104330 -0.000522 -0.115605 0.011028 -0.034784 0.026104 0.098539 -0.077554 -0.055876 -0.010617 -0.023010 -0.045119 -0.081938 -0.004614 -0.095797 0.097294 0.065693 -0.035210 0.063614 -0.071469 -0.110395 0.096199 0.030367 0.062968 -0.076936 -0.031542 0.091644 -0.030806 0.015711 -0.108913 -0.101193 0.121640 -0.108458 0.033326 -0.076420 0.088096 -0.008216 0.116712 -0.087419 0.025639 -0.103711 -0.078572 -0.028189 0.102034 -0.066118 0.048881 -0.020955 0.080737 0.066711 -0.066071 -0.086718 0.016314 0.024660 0.024616 0.014515 0.055715 0.095448 0.098437 -0.117774 0.112861 -0.104061 0.011570 -0.097325 -0.031414 0.101186 -0.061179 0.033219 -0.050878 -0.019773 0.077581 0.059448 -0.096868 0.037025 -0.004436 0.043387 0.021666 -0.091104 0.017114 -0.090586 0.074713 0.028182 0.033433 0.065883 0.129086 0.115643 0.066242 0.070519 0.053342 -0.017998 0.110117 -0.006015 0.041177 -0.016628 0.035181 -0.022073 0.093351 0.044904 -0.009277 -0.001041 0.050010 -0.081299 -0.052164 0.042165 0.032825 -0.102074 -0.034250 -0.040697 -0.051263 0.083761 0.094041 -0.101199 0.077448 -0.066160 0.038858 0.061602 -0.008530 -0.090706 0.007961 -0.036880 0.056550 0.058470 0.021733 -0.063123 -0.020894 0.009744 -0.053412 -0.104818 -0.010715 -0.067399 -0.066822 0.018026 -0.059000 0.064543 -0.035605 0.090756 -0.087277 -0.039934 0.047976 -0.056678 -0.111628 -0.027251 0.081938 -0.029846 0.109761 0.049144 -0.065152 0.116984 -0.119645 -0.096532 0.076490 -0.077833 0.089792 0.096290 0.069725 -0.041006 -0.057394 -0.007008 -0.003401 -0.115855 -0.084568 0.021226 0.019297 0.112428 0.079321 -0.079694 0.097347 -0.030312 0.077721 -0.022771 0.049705 0.002077 0.102741 0.062810 -0.052958 0.105264 -0.096312 0.113577 -0.040784 0.008368 0.016545 0.100084 0.054093 -0.031178 -0.124241 0.092257 0.009438 0.065375 
to -0.104121 -0.082936 -0.052874 -0.058565 0.085991 0.052297 -0.022522 0.054324 -0.022317 -0.025287 -0.098957 -0.067688 0.013152 -0.052449 -0.062210 -0.091210 0.067040 0.118784 -0.022195 0.095368 -0.065463 -0.092936 -0.108234 -0.014368 -0.060098 -0.001537 -0.090659 0.092052 -0.048233 0.040377 0.067614 -0.022683 -0.123112 0.066930 -0.000636 0.076607 0.006121 0.059390 0.103868 0.072435 -0.076013 -0.043913 0.076118 -0.053214 -0.030259 0.107041 -0.021788 0.104041 0.052666 0.093620 0.136582 -0.108416 0.018793 0.111203 -0.059053 0.024270 -0.095326 0.090610 -0.099769 0.021832 0.037963 -0.058261 0.048960 0.007450 -0.108538 -0.058498 0.015446 0.050770 -0.010950 0.018899 0.118148 -0.092040 0.088275 -0.089609 -0.104395 0.061688 -0.116642 -0.036387 -0.111268 -0.090231 0.082746 0.037258 -0.095126 0.030686 0.110630 0.021168 -0.092831 -0.088029 0.080794 -0.086121 0.062374 0.076809 0.119944 0.038395 -0.079320 0.088829 -0.065723 -0.008723 0.114419 0.093662 -0.042315 -0.071002 0.012794 0.062561 0.055675 0.087300 0.104214 0.011839 -0.128112 0.052105 -0.060169 0.057257 0.073920 -0.065973 0.070120 0.025205 -0.013303 -0.101671 0.001367 0.116648 0.045676 -0.070603 0.067200 -0.074044 -0.027818 0.066251 -0.058302 0.021907 -0.067117 -0.030296 0.112626 -0.018314 -0.071334 0.008513 0.041661 0.045817 0.025976 -0.048235 -0.038252 0.042737 0.089834 0.078253 -0.111029 -0.002422 -0.098466 0.048130 -0.067350 0.051070 0.049926 -0.020571 -0.057181 -0.086885 0.002688 -0.115729 0.022709 0.108522 0.102202 0.091398 0.062198 -0.006741 -0.039619 -0.080599 0.006456 -0.086080 -0.064638 0.071174 -0.007801 -0.113498 0.034639 0.009943 -0.039359 -0.095641 -0.099670 0.069981 -0.022947 0.007260 -0.040233 0.096453 -0.121373 -0.091199 -0.026498 0.024297 0.080478 0.010886 0.027597 0.065121 0.044807 -0.119713 -0.011809 0.063972 0.095598 0.044822 -0.001844 0.071957 0.056173 -0.034029 -0.079479 0.084901 0.038020 0.048994 
that 0.020012 0.038772 0.084951 0.069738 -0.100240 0.010294 -0.049001 -0.121667 0.006892 0.105829 -0.012656 0.101965 0.112792 0.003223 0.097941 -0.034508 0.027532 -0.059772 0.018031 -0.028726 -0.116994 -0.033616 0.024142 -0.037832 0.108145 -0.060756 -0.032412 0.074907 -0.022870 0.040998 0.003630 0.021527 0.037501 0.011377 0.107316 0.073860 -0.069170 -0.095998 0.069645 0.061842 0.092351 0.066364 -0.016738 -0.119832 0.029610 -0.055699 0.007443 -0.015309 0.054121 0.012107 0.112791 -0.108890 0.047784 0.078465 0.088684 -0.061592 -0.044223 -0.001399 0.029798 0.014316 0.024564 -0.040899 0.099763 0.081329 0.072961 -0.059685 0.025731 -0.087325 -0.014525 -0.004604 0.080916 0.077373 -0.056832 -0.017668 0.115204 -0.017761 -0.041398 0.082877 0.049007 0.075928 0.096926 0.040465 0.094709 -0.111374 -0.015372 -0.099750 0.043464 -0.010198 0.061664 0.015490 -0.010475 0.032276 0.084910 0.078579 0.090597 -0.032152 0.122646 0.068838 0.077955 0.072413 0.052162 0.039563 -0.017209 -0.076252 0.060111 0.099694 -0.099339 -0.084236 -0.094721 -0.064881 -0.013564 0.004388 -0.093721 0.022196 -0.028244 -0.034131 -0.061345 -0.081207 -0.106300 0.122419 -0.061029 -0.015120 0.085880 -0.120256 -0.081074 -0.096712 -0.022973 -0.063357 -0.061222 -0.096226 0.026217 0.059312 -0.114580 0.035472 0.021400 0.092089 -0.057144 -0.076839 0.064077 -0.074058 0.114491 -0.018530 0.057995 0.008738 -0.018852 -0.044331 -0.011883 0.113496 -0.096589 -0.105574 -0.122393 0.081607 0.073980 -0.089731 0.073845 0.050950 0.010894 -0.070619 -0.001562 -0.023895 0.020398 -0.060653 0.106967 -0.120280 -0.013879 -0.009468 -0.044991 0.090091 0.088467 -0.054525 0.121748 0.012737 0.093663 -0.013174 0.026339 0.087034 0.066127 0.091236 -0.105697 0.098080 -0.116549 0.071275 0.000643 0.118882 -0.017353 0.034394 -0.046603 0.049781 0.121880 -0.090885 -0.089429 0.094583 0.112426 -0.070825 0.085964 0.023725 0.093206 -0.100624 0.024669 -0.077642 
in 0.003629 -0.077165 0.072065 -0.074851 0.091692 -0.059680 -0.114302 -0.000299 -0.077443 -0.063255 -0.058718 -0.087789 -0.117073 -0.045295 0.019847 -0.008821 -0.096286 0.114154 -0.023531 -0.113567 -0.007392 0.090790 -0.038185 0.047370 -0.020464 0.116501 -0.045768 0.000074 -0.021115 0.001460 -0.011514 0.070266 -0.068007 0.101783 -0.087639 -0.076268 0.095202 0.099408 -0.111881 -0.008216 0.042212 -0.025845 -0.118676 0.044359 -0.103416 0.037865 -0.065837 -0.063607 0.089685 -0.101789 -0.106878 0.035689 -0.106920 -0.021898 -0.094139 0.070960 0.106975 0.010662 -0.040953 0.052038 0.123191 0.061838 0.089359 0.060082 -0.120799 -0.012164 -0.102804 -0.004701 0.122774 -0.033508 0.027472 0.051370 -0.074234 -0.028462 -0.044208 0.013286 -0.083417 0.071749 -0.021094 -0.044650 0.043800 -0.117722 -0.063670 0.023217 0.048921 0.061155 -0.010033 -0.072527 0.003236 0.106653 0.112216 -0.063385 0.035708 0.078307 0.082555 0.119294 0.089602 0.076279 0.016733 -0.105081 -0.082183 0.028995 0.056014 -0.051536 0.078959 -0.072028 -0.070627 0.055513 -0.038438 0.064992 -0.081124 0.060038 0.009891 0.066030 -0.123164 0.091466 -0.024932 0.098187 -0.033659 0.111617 -0.088203 -0.089088 -0.097968 -0.106089 -0.038989 0.044316 -0.027217 0.017290 0.058017 0.111158 0.029443 0.117542 -0.032206 0.046072 -0.026288 -0.079650 -0.004245 0.074770 0.035735 -0.067664 0.021047 0.008530 -0.004343 -0.012685 -0.004835 -0.040429 -0.040634 -0.016159 -0.091230 0.094286 0.074756 0.120981 0.081381 -0.082880 0.082517 -0.068538 -0.092051 -0.030919 0.000073 -0.017404 0.051656 0.102715 -0.070915 -0.076918 0.043282 0.020002 0.034132 -0.030894 -0.066202 -0.068516 0.034698 -0.115040 0.100132 -0.087692 -0.028432 -0.005318 -0.006543 0.052973 -0.069990 -0.046275 0.111920 0.044846 0.081985 -0.035724 0.027659 -0.120288 -0.101710 0.040700 0.112051 0.089697 -0.083745 0.025067 0.055196 0.054807 -0.025694 0.056960 -0.125618 -0.055352 -0.016267 0.098982 
have -0.118803 -0.007220 -0.071885 -0.085979 -0.057623 0.008146 0.078078 0.078386 0.007586 0.098663 0.044310 0.001174 0.080619 -0.050500 -0.017669 -0.116576 -0.016802 0.034801 0.108349 -0.013139 0.083257 -0.081645 -0.029019 -0.094381 0.081138 -0.047077 -0.092184 0.022807 -0.019366 0.066436 0.074374 0.053938 0.088991 0.004753 -0.041421 0.017977 0.045859 0.059946 0.080093 -0.005419 0.037102 0.099255 0.048222 -0.118666 0.066513 0.050611 0.018484 -0.120725 -0.044184 -0.097366 -0.035672 0.007368 0.072944 -0.052604 -0.080108 0.102508 0.118240 0.052137 -0.019996 0.062280 0.095496 -0.097974 0.057423 0.087720 0.069195 -0.028793 -0.117165 -0.044966 -0.078249 0.066228 -0.024100 -0.013361 0.081790 0.054330 -0.054075 0.080119 0.067580 0.106205 -0.051571 -0.049011 -0.056393 -0.032290 -0.043140 0.103737 0.077804 -0.069081 0.005356 -0.110264 -0.072248 0.105834 -0.054015 -0.065147 -0.017232 -0.065139 -0.065736 -0.045396 0.064572 -0.107857 -0.056356 -0.032045 0.055579 0.026993 0.008260 0.054560 -0.101111 -0.036113 -0.019818 0.112005 0.083820 0.116280 0.014928 0.098566 -0.053430 -0.012732 0.085946 0.033209 0.097837 0.111687 -0.015387 -0.004412 -0.004801 0.114013 0.048518 -0.116710 -0.114787 -0.077823 -0.052341 -0.102648 0.075122 0.010324 -0.101756 0.056738 -0.038183 -0.057760 -0.065587 -0.044418 -0.026078 0.070688 -0.091769 -0.023007 0.115232 0.080838 -0.024781 0.079245 -0.035294 -0.038691 0.108823 0.038543 -0.109720 0.004175 0.100422 -0.065458 0.077819 0.076674 0.044844 -0.092410 0.045592 0.106738 0.097607 -0.084038 0.100844 0.082986 -0.010602 -0.021377 -0.116773 0.054730 -0.002882 -0.067532 0.064128 -0.110790 -0.027167 -0.082157 -0.080945 -0.000122 0.072062 -0.106975 -0.001985 -0.110168 0.025493 0.119740 -0.059342 0.093906 0.110024 -0.050641 -0.067151 -0.006182 -0.065039 0.007753 -0.021618 0.003019 -0.101415 0.010435 -0.101022 0.110131 -0.025656 -0.023629 0.062572 -0.121059 -0.046385 -0.014784 
functional -0.079950 -0.100980 -0.066721 -0.067645 -0.013394 0.110601 0.056919 0.028953 0.044814 0.020869 0.075528 0.035057 0.011571 -0.103734 0.009185 0.043047 0.041567 0.117965 -0.034675 -0.056500 -0.084449 0.102147 0.077567 -0.062242 -0.049719 0.090306 0.089763 0.051875 0.014292 -0.094569 0.040478 0.105265 0.044765 0.117230 0.012899 0.029472 0.054138 -0.051793 -0.057373 -0.003271 0.112605 0.085708 0.025053 0.018328 0.092826 -0.103541 0.061960 -0.038467 -0.076156 -0.066141 -0.105452 -0.055712 -0.112648 -0.094273 -0.089907 -0.063400 0.027833 0.019287 0.101766 -0.053193 -0.013418 0.121632 0.032681 0.076617 -0.058389 0.049382 0.022926 -0.045293 -0.085733 -0.025920 -0.025465 0.031836 -0.055477 -0.118695 0.107224 0.083001 -0.069985 0.079276 -0.012538 -0.041069 0.076563 -0.043077 -0.064729 0.035604 0.115077 -0.099137 0.122222 0.014156 0.117666 -0.089825 0.029024 -0.056443 -0.029190 0.051955 -0.088416 0.115508 0.103885 -0.066412 -0.095424 -0.045549 0.022752 -0.044946 -0.114996 -0.094333 0.038689 0.121911 0.085018 -0.016446 0.044069 -0.003560 0.056856 0.048753 -0.015254 -0.070119 -0.115855 -0.039512 0.115588 0.099487 -0.008397 -0.069473 -0.025572 0.001104 0.062667 -0.004154 -0.038932 -0.069542 -0.066041 -0.007939 0.015465 -0.001887 -0.077681 0.034463 -0.105117 -0.112916 -0.063836 0.090055 -0.093900 0.062221 -0.044375 -0.034312 -0.075452 0.097941 0.019531 -0.048524 -0.073946 0.112319 -0.019298 -0.046377 0.100112 0.016716 -0.027817 -0.078334 0.082211 0.040983 0.013372 -0.107220 -0.015877 0.021714 0.087612 -0.071003 -0.051900 0.025589 0.071912 -0.065292 0.032539 0.017666 -0.117263 -0.124640 0.038634 -0.039969 -0.035206 0.017347 0.080757 -0.080568 -0.116774 -0.072076 0.114662 -0.000065 -0.046933 0.014948 -0.102228 -0.115803 0.114378 -0.018130 -0.012993 0.045249 0.077027 0.091225 0.003524 0.062818 -0.109347 -0.055582 -0.106536 0.014366 -0.111825 -0.072281 -0.072216 0.107480 -0.037153 -0.008927 
for -0.073356 0.051175 0.108157 -0.100822 -0.005174 -0.067763 0.110300 -0.008517 0.066355 0.081081 0.072969 -0.080269 -0.063575 -0.054944 -0.097853 -0.112861 -0.115728 0.004089 0.051381 -0.096804 0.035541 0.052038 0.072114 0.048654 0.110216 -0.047621 0.062151 -0.006078 0.108852 -0.094863 -0.066765 -0.084116 0.075511 0.103257 -0.095091 0.102020 -0.083402 -0.093768 0.007779 -0.109540 0.050790 0.111082 0.090312 -0.107205 -0.008690 -0.034766 0.068703 0.099453 0.041018 -0.094904 -0.071270 0.013930 0.098650 -0.003819 -0.087147 -0.021089 0.103376 0.084283 -0.104918 -0.116631 0.055828 -0.104212 0.043795 -0.065838 0.011025 0.114775 0.083237 -0.103162 0.107605 0.069049 0.032753 0.094728 0.033373 0.101026 -0.008228 -0.051979 0.043256 -0.072763 -0.115748 -0.095425 -0.014265 0.005440 -0.081863 -0.029661 -0.067561 -0.109562 -0.114272 -0.015475 0.099914 -0.061269 0.119075 0.099525 0.010974 0.089817 0.050078 0.017660 -0.037483 0.075863 -0.084655 0.007500 0.070500 -0.051873 -0.049199 -0.101612 0.044900 0.061664 0.038567 0.079953 -0.106898 0.099409 0.076368 0.036217 -0.073963 0.059275 0.046420 0.009720 0.026197 -0.017357 -0.003374 0.075243 0.112385 -0.016743 -0.017357 -0.098388 -0.022650 -0.013934 -0.038641 -0.053871 -0.089908 -0.015815 0.115805 -0.049631 0.037821 0.015913 0.002130 0.017425 0.063158 -0.041729 -0.028966 0.049473 -0.007984 -0.018530 -0.079643 -0.010280 -0.103907 0.073071 0.082588 0.104086 -0.122689 0.034975 -0.016652 -0.010443 -0.101851 -0.022338 -0.005817 0.028402 -0.034197 0.091403 -0.006252 -0.066338 -0.117983 0.090031 -0.031934 -0.036733 0.031701 0.050351 -0.044352 -0.029836 0.107998 0.057295 0.043651 0.086863 0.114626 0.061860 -0.092157 0.017771 0.119318 0.041710 0.002287 0.039014 -0.001393 0.045125 -0.112644 -0.022530 -0.049725 -0.056068 -0.118373 -0.019551 -0.030591 -0.091083 -0.076911 0.001585 0.101566 -0.080883 -0.036170 0.063761 0.024871 0.036890 0.036942 0.007010 
attributes -0.084042 0.113319 0.008423 -0.039790 -0.000160 0.094405 0.026725 -0.109839 0.110046 -0.037030 0.065761 0.052377 -0.107527 0.006024 -0.079477 0.048023 0.006872 0.093109 -0.077249 0.015015 -0.020137 -0.085152 -0.013286 -0.087649 0.113366 -0.062831 0.086320 -0.002777 0.053276 -0.030027 0.016562 0.109351 -0.017764 -0.117199 0.109180 -0.090459 -0.096025 0.081941 0.039888 0.072455 -0.118142 0.079102 0.021149 -0.098933 0.038890 -0.077260 0.086510 -0.049239 0.080606 -0.040496 0.090601 -0.117658 0.010731 0.118575 -0.052308 -0.106636 -0.107367 -0.088341 0.108802 0.002464 0.087871 0.102879 -0.108190 0.049363 0.063424 0.084664 0.105569 -0.066580 0.061575 0.024749 -0.051318 0.090743 -0.092865 -0.088050 0.110723 0.062860 -0.038337 0.033281 -0.090426 -0.071953 -0.069307 0.019726 -0.084471 0.062773 0.056508 0.039018 0.042858 -0.051074 -0.074636 0.079976 0.026915 0.082255 -0.101179 -0.047499 -0.098755 0.063923 -0.079033 0.003243 -0.002410 0.031847 -0.004470 -0.077173 -0.008336 -0.054976 -0.052679 -0.061375 0.095930 0.060647 -0.100655 0.099093 0.105380 -0.020119 0.034246 0.035218 0.113199 0.079197 0.117195 -0.085268 0.033656 0.079037 -0.026995 -0.034992 0.079215 -0.001962 -0.036765 -0.004051 0.044867 -0.085523 0.031974 0.115648 0.023799 -0.033732 -0.055606 0.014731 -0.069722 0.112409 0.002417 -0.079430 -0.023231 -0.105573 0.090492 -0.118379 -0.041737 0.106264 -0.085847 0.005981 -0.032054 -0.068386 -0.045763 -0.015729 -0.079914 0.045140 0.035556 0.043866 0.027148 -0.011630 0.042560 -0.005333 0.084122 0.078134 -0.080664 -0.055231 -0.054361 -0.024763 -0.091832 0.061907 0.003079 0.115787 0.072423 0.096342 -0.008205 0.041311 0.057993 0.096531 -0.054666 0.068641 0.047525 -0.067985 -0.043120 0.097135 0.044744 0.009082 -0.059297 0.085793 0.113017 0.077996 0.109267 0.053250 -0.101762 -0.051343 0.019008 0.077785 0.060163 -0.032284 0.001667 0.058754 -0.113148 0.064353 -0.028487 -0.044842 
so -0.084512 -0.011625 -0.101504 0.025170 0.042044 0.029298 0.069293 0.109849 -0.044483 0.053979 0.083247 0.102652 -0.091982 -0.011276 0.099383 -0.039086 -0.034514 0.070130 0.090550 -0.047737 0.007682 0.100387 0.091656 -0.090084 -0.023575 -0.056260 -0.048567 -0.022617 0.123829 0.022965 0.077142 0.112000 0.019363 0.078191 -0.054839 0.084925 0.039256 -0.088395 0.086868 -0.022389 -0.122905 -0.116076 0.102762 -0.066434 0.033226 -0.078547 -0.096368 -0.089872 0.077119 0.012556 -0.041203 -0.073312 -0.111466 -0.040578 0.054930 0.064699 -0.094239 0.122765 0.040764 -0.028798 -0.115557 -0.067577 0.075323 0.100001 -0.109481 0.121462 -0.116777 -0.025980 0.051983 -0.004398 -0.004159 -0.077054 0.062422 -0.084441 0.013674 0.090289 -0.074286 0.055873 0.095747 -0.063085 -0.043968 -0.091561 -0.033325 -0.021314 0.033135 0.020147 -0.090399 0.048820 0.098845 0.007011 0.021492 0.042593 -0.091194 0.043571 -0.035097 -0.082660 0.025423 0.118189 -0.039082 -0.059313 0.080225 0.033056 0.044446 -0.054146 0.015030 -0.099349 0.064218 0.076350 0.081952 -0.104485 -0.068975 0.041275 0.098694 0.006011 0.114186 0.108258 -0.054983 0.034328 -0.096095 0.110515 0.059210 0.092948 -0.106383 -0.056676 -0.051317 0.108175 -0.005886 0.060487 -0.072392 0.068373 -0.069990 -0.015071 0.123981 0.023965 -0.015553 0.046336 -0.016848 0.087433 0.006159 -0.108250 0.005470 -0.063153 -0.094065 -0.025026 0.008636 0.057040 -0.095141 0.067168 0.120648 0.001966 0.037840 0.001549 0.035090 -0.115894 -0.094626 -0.078373 0.004076 -0.122000 -0.085278 0.032972 0.093543 -0.027988 0.038734 0.106743 -0.064983 -0.031669 0.064081 -0.023844 -0.033211 -0.020564 0.087732 0.032957 -0.055498 -0.068365 0.020477 -0.013753 -0.065907 0.061525 0.083399 0.103652 0.063559 -0.076941 0.063172 -0.029844 0.026484 -0.123045 0.056763 -0.022496 0.074982 0.097751 -0.025037 0.083031 0.026757 0.077342 0.038855 0.057896 0.009803 0.114387 0.035113 -0.016450 
is -0.036075 0.062611 0.060675 -0.000911 -0.090107 -0.121547 0.019434 0.074147 0.117178 0.024363 -0.094546 -0.028466 0.024621 0.046236 -0.020996 0.016645 0.031676 0.077935 0.095550 0.108833 -0.093909 0.025826 -0.070815 -0.037920 -0.028574 -0.109272 -0.071638 0.082270 0.099565 -0.024838 -0.099696 0.062370 -0.023070 0.114068 -0.080668 0.051925 0.109988 0.032927 -0.075791 -0.000901 0.077215 -0.076173 0.107393 -0.087488 0.002001 0.120589 0.042589 -0.104977 0.047169 -0.027301 0.046377 0.062142 0.013267 -0.091197 0.016327 -0.079312 -0.056786 -0.102713 -0.044468 -0.061337 -0.031848 0.019855 -0.098247 -0.015088 0.012951 0.122444 -0.062221 -0.066029 0.103109 -0.105694 -0.032665 -0.013385 0.047463 0.033341 -0.029759 -0.071191 -0.024735 -0.099672 -0.016790 0.083175 0.091205 0.069238 0.103485 0.109883 -0.107727 -0.020377 0.000571 -0.049529 -0.074242 0.102877 -0.105087 -0.112852 0.085362 0.025667 0.038198 -0.020941 0.064467 0.081188 0.079217 -0.109680 0.105668 -0.051924 -0.103713 0.056378 0.037107 0.105951 -0.038259 0.027369 -0.012890 -0.107970 0.066095 0.126575 -0.096791 -0.120856 0.062741 -0.007836 0.024008 0.010106 0.124550 0.062444 -0.081304 0.028299 -0.053861 -0.107458 -0.028553 -0.019610 0.074890 0.047017 0.112718 -0.018810 0.106922 -0.076527 0.115636 -0.040748 -0.039338 -0.040915 0.037153 -0.115455 0.083454 -0.037084 0.002854 0.066478 0.043084 -0.012515 -0.030199 -0.107794 -0.066639 -0.057488 -0.088844 0.000599 -0.114470 0.007168 -0.078841 -0.099105 -0.086407 -0.010276 0.122141 -0.091577 0.001631 -0.055180 -0.054960 0.080121 0.033507 0.016505 -0.089901 -0.075708 -0.074633 -0.060609 0.062508 0.097879 0.108987 -0.035714 0.047963 -0.037470 -0.072836 -0.079351 0.052297 0.094119 -0.073725 -0.045165 0.080868 -0.053199 0.039967 0.021245 -0.036780 -0.018409 -0.010455 -0.098687 0.039380 0.020770 0.060614 -0.082248 0.028508 -0.085732 0.103813 -0.033296 -0.056048 0.085270 0.018419 0.008131 
then 0.090458 0.028448 0.030013 0.046524 0.095288 0.051774 -0.067653 -0.063869 -0.095015 0.013828 0.061479 0.054962 0.012021 0.081094 0.083555 0.122556 -0.004242 0.009058 -0.020747 -0.095000 -0.026330 0.084290 0.018515 -0.023783 -0.100756 -0.073480 0.057608 -0.016891 0.011773 -0.046289 0.006275 -0.110276 -0.100682 -0.086553 0.080110 -0.037599 -0.081373 0.094962 0.076641 0.028600 0.020551 -0.116921 0.087901 -0.010736 -0.037592 -0.065027 0.022771 0.050286 0.049142 -0.010412 0.100312 -0.022246 -0.075050 0.101221 0.111982 0.101141 0.020963 -0.107825 -0.091220 0.076891 0.091863 0.023179 -0.111434 0.100485 -0.035048 -0.007858 0.031157 -0.047211 0.001342 0.095208 0.116648 -0.046295 -0.096056 -0.048766 0.007431 -0.001953 -0.080137 -0.019183 0.095210 0.050766 0.122659 -0.072824 0.115352 -0.114224 -0.103635 0.079545 0.099399 0.061303 -0.085155 0.060227 -0.102490 0.003308 -0.060251 0.049704 -0.088091 -0.103220 0.041989 0.027865 0.112793 0.019420 0.093730 0.049878 0.053238 -0.046710 0.049318 -0.023553 0.065391 0.081341 -0.098212 -0.016311 0.061629 -0.110023 -0.036026 0.056698 0.022610 0.113619 0.120188 0.004464 -0.017471 0.100312 0.061134 -0.060003 0.021225 0.004207 0.047012 0.028922 0.069347 0.019894 -0.106179 0.016280 0.091013 -0.082204 -0.035624 -0.042760 -0.118825 0.029119 -0.037513 -0.043916 0.016460 0.002477 -0.104854 -0.059016 -0.078002 0.043814 0.069030 -0.097726 0.069188 -0.075608 0.116172 -0.109224 -0.002851 -0.027173 -0.013447 0.016036 0.039762 0.079616 -0.073563 -0.034803 0.118132 -0.034819 0.002397 -0.038248 -0.037658 -0.107585 0.092667 0.063506 0.085943 -0.063308 -0.104208 -0.113320 0.103355 -0.000144 -0.095755 0.095451 -0.075709 0.030256 -0.059849 -0.056722 0.007985 0.058491 -0.113078 -0.024851 -0.094280 -0.082780 -0.072258 0.049134 -0.048593 -0.007132 0.065238 0.095138 0.065232 -0.007192 -0.119469 0.103524 -0.027900 -0.056724 -0.013849 0.119860 -0.056314 -0.079491 
are 0.086394 0.016928 0.086617 0.068698 -0.074712 -0.040346 0.060720 0.098986 0.074881 -0.059058 0.088121 0.028326 -0.089664 0.011878 -0.047319 -0.060754 -0.124280 0.034919 0.004152 -0.022853 -0.025037 -0.064600 -0.099358 0.098801 0.023364 -0.046962 0.117656 0.072352 -0.100901 -0.112586 -0.063959 -0.019676 0.046236 0.103998 -0.042944 -0.031880 -0.034309 0.025110 0.090316 -0.007487 -0.024224 -0.109532 0.056805 0.073150 -0.045331 0.002667 -0.108108 0.041052 0.094929 -0.027344 -0.054672 0.041620 -0.102528 -0.022723 -0.124779 0.031626 -0.067881 0.004740 -0.094430 0.030721 0.077045 0.106131 0.071742 0.121428 0.021798 -0.107597 -0.031032 -0.053862 0.021813 0.043408 0.009878 -0.035364 -0.107609 0.044345 -0.084544 -0.054937 0.014721 -0.053701 -0.027424 -0.030053 0.078350 0.114743 0.027977 -0.066818 0.087208 -0.028004 -0.008727 0.043047 0.108100 0.009283 0.086463 0.067685 0.019204 0.026185 0.097408 0.089622 0.013079 -0.114843 0.122353 0.002752 0.093655 0.014549 0.070913 0.015355 0.076232 -0.100444 -0.084422 -0.104427 0.090493 0.094281 -0.056775 -0.022562 0.077491 -0.041835 0.000591 -0.096660 0.041155 -0.080442 -0.002709 -0.118443 0.048293 -0.033330 -0.094185 -0.068261 -0.022919 -0.100920 0.013040 -0.115096 0.020079 0.082261 -0.085803 -0.113546 -0.070291 -0.061468 0.021913 -0.106837 0.024285 -0.040883 0.057174 -0.075322 -0.069524 -0.056403 0.055347 0.063525 0.092350 0.005937 0.114678 -0.047906 0.010822 0.071469 -0.106726 0.050170 0.004206 -0.123102 0.118147 -0.125611 -0.049322 -0.023675 0.070145 0.010289 0.042798 -0.019300 0.099020 0.100260 0.032989 0.066864 0.114386 0.101073 -0.011943 -0.028479 0.088735 0.032379 0.037686 -0.002736 0.057435 -0.023299 0.122929 0.006551 0.118730 0.079444 -0.003792 -0.075284 -0.069270 0.045872 -0.024162 -0.008524 -0.031062 -0.104366 -0.060006 0.006413 0.017216 -0.037237 0.081236 0.083489 -0.077698 -0.110353 -0.099519 -0.103468 0.096825 -0.115434 
dependencies -0.033943 -0.066140 0.010734 -0.034341 -0.095070 0.003946 -0.052833 -0.032976 -0.086062 -0.041831 0.013335 0.035440 -0.002810 -0.018501 0.114699 0.125693 -0.038503 0.061604 -0.040582 -0.004733 -0.057498 -0.011147 0.110620 -0.006451 -0.121450 -0.117553 -0.118135 0.009558 0.036817 -0.072643 -0.032185 -0.001923 -0.038953 0.111250 0.076629 -0.020339 0.049951 -0.038571 -0.017766 0.040627 -0.021194 0.123228 0.050457 0.069994 0.014788 -0.007583 -0.076308 0.022547 -0.035292 0.082799 0.099300 -0.081161 -0.035790 -0.078327 0.088141 0.108256 -0.048362 -0.108689 -0.007025 -0.046319 -0.068898 -0.086387 -0.017670 -0.063964 -0.027521 -0.023751 0.027432 0.075870 -0.051653 -0.130414 -0.097791 -0.066630 0.060115 -0.024105 -0.027513 -0.076312 0.048827 -0.045989 -0.119339 0.001610 -0.015639 0.054668 0.124091 -0.075381 0.002360 0.068235 -0.049429 0.042104 0.041168 0.113916 -0.011007 -0.019986 0.104896 0.113611 -0.118247 -0.043798 0.000353 0.054989 0.126211 -0.008779 0.126251 -0.008514 -0.029841 -0.091678 -0.105201 0.042304 0.042493 0.122658 0.099308 0.129346 -0.014395 0.062881 0.020456 -0.022788 0.033791 0.012608 0.056952 -0.097594 -0.039025 0.058160 -0.115927 0.024129 -0.130080 0.088555 0.032065 0.001216 -0.070849 0.058578 0.044669 0.084404 0.109898 -0.011219 0.057530 0.064061 -0.076982 -0.034517 0.008992 0.059388 -0.002593 -0.122297 -0.096836 -0.007711 -0.024542 -0.056707 0.072992 0.113498 0.091465 -0.080262 0.127985 -0.049682 0.119355 -0.106642 0.006487 -0.114984 -0.101179 0.016237 -0.024325 0.102564 0.124525 -0.019906 0.105426 0.064494 -0.021507 0.068549 0.005250 0.087310 0.023852 0.104852 -0.123441 0.027147 0.100296 -0.021977 -0.013471 0.068974 0.113286 -0.094086 -0.121097 -0.062608 0.034047 -0.090923 -0.047607 -0.051095 -0.100424 0.073831 -0.117725 -0.040354 0.075698 0.026128 -0.064274 -0.108481 -0.058260 -0.016181 -0.080442 -0.004741 -0.004937 -0.032542 -0.030587 0.061235 0.009594 0.063362 
b 0.018344 -0.057253 0.082187 -0.094186 0.084071 0.086746 -0.119943 -0.044661 -0.035031 -0.019276 0.109652 -0.020491 0.055052 -0.092576 0.080638 0.067917 0.035804 -0.006196 -0.110656 0.112685 -0.085867 -0.093463 -0.085974 0.059747 0.006641 -0.116709 -0.096247 -0.046362 -0.044036 -0.005704 -0.115697 0.093429 -0.074295 0.069157 -0.038514 -0.091503 -0.055445 0.069222 0.040294 0.073734 0.062715 -0.039043 0.094530 -0.123763 -0.073412 0.058999 -0.086933 -0.098915 -0.051921 -0.035263 0.088208 0.023280 -0.087286 0.106400 0.018474 -0.029839 0.117028 -0.028533 -0.056306 0.004319 -0.039971 0.116638 -0.095374 -0.029842 0.095416 -0.085644 -0.012848 -0.016138 0.069644 0.005610 0.092826 0.018050 -0.072333 -0.097103 -0.037382 0.092760 0.037485 -0.087287 0.116525 0.050397 -0.112425 -0.103229 -0.075822 0.021418 -0.079786 0.010358 0.016072 -0.038228 -0.010311 0.012541 -0.105246 -0.096272 -0.027593 -0.043641 0.058603 -0.082610 0.041957 -0.056534 -0.096607 -0.104235 -0.033212 -0.104745 0.034840 0.045137 0.050545 0.051618 -0.028212 -0.093257 -0.057858 -0.022821 -0.023714 0.044858 0.067449 0.021664 -0.099116 0.100180 -0.049718 -0.122033 -0.084984 0.027974 0.121036 0.013353 -0.036672 0.106202 -0.005563 -0.013035 0.111376 -0.056868 -0.010266 -0.079534 -0.052199 -0.117686 0.114265 -0.021536 0.115760 -0.096043 -0.052981 -0.099061 0.112440 0.034805 0.095906 -0.009975 -0.031951 0.099436 0.030470 0.112175 0.022527 -0.000407 -0.022781 -0.057461 -0.069829 -0.074205 0.019172 -0.043724 -0.058668 -0.085365 0.039858 -0.015072 0.050593 0.033871 -0.047575 0.099220 -0.108747 -0.062340 0.040718 0.019038 0.098061 0.079776 0.108186 -0.046666 -0.089211 -0.008847 0.034110 -0.041299 0.101475 -0.011685 0.013849 -0.091913 0.031087 -0.029917 0.040802 -0.038754 0.102644 -0.104431 -0.052281 0.112595 0.035890 0.028934 0.092323 -0.067310 -0.112802 -0.038366 -0.065603 -0.002546 -0.026710 0.081422 -0.028340 0.018163 -0.036454 0.098325 
if 0.026661 -0.047054 0.083769 0.026328 -0.020281 -0.111259 -0.116018 -0.038318 -0.002769 -0.095664 -0.060261 0.022825 0.105557 -0.064710 -0.080367 -0.051728 0.115408 -0.018208 0.045568 -0.009818 -0.081177 0.069633 0.096502 -0.027660 -0.060604 0.083619 -0.058704 0.053654 -0.060422 -0.032649 -0.036333 -0.061033 -0.031812 -0.080568 -0.088229 -0.097447 -0.063526 0.002990 0.045282 0.007946 0.009398 0.082093 -0.018383 -0.089397 -0.044150 0.098309 0.110159 0.069576 0.067029 0.030023 -0.052334 0.006953 0.011149 -0.067135 -0.034363 0.047689 -0.036847 -0.104413 0.046138 0.088631 -0.083298 0.105938 0.104181 0.101701 -0.069766 0.075734 0.116583 0.082567 -0.082733 0.079340 0.098977 -0.113720 0.029217 -0.016781 -0.084346 -0.120333 0.038218 -0.021129 -0.042177 0.028453 0.040487 0.042693 -0.034628 0.113317 0.110769 -0.023772 -0.030983 -0.030779 -0.012486 -0.105735 0.059496 -0.019113 -0.096376 -0.027374 -0.093523 0.099033 -0.083477 -0.050658 -0.022195 0.101689 -0.095300 0.103380 0.046514 0.073933 0.064198 0.091378 -0.009407 -0.081625 -0.082012 0.057581 -0.053503 0.072282 0.010397 0.005239 -0.108412 0.061639 -0.002417 -0.020639 0.105338 -0.034840 0.029847 0.087050 -0.045126 -0.066419 -0.101384 0.017156 0.078114 -0.062061 -0.104536 0.003299 -0.030791 -0.039649 -0.092501 0.085612 -0.106167 0.100431 0.111161 -0.096860 -0.045060 0.032295 0.045894 0.088708 0.060049 -0.062362 0.009461 -0.062978 -0.043258 0.070466 -0.121408 -0.056248 -0.109539 0.027778 0.079060 -0.004612 -0.005665 -0.031749 -0.079219 0.034486 -0.094101 0.073368 -0.108578 0.022175 0.093096 -0.113864 -0.074524 0.028918 0.113192 -0.031207 -0.049465 -0.088831 0.053600 -0.018881 -0.038888 0.077362 0.073986 0.110826 0.028778 0.049353 -0.094731 -0.087588 0.032060 0.099321 0.061769 -0.068531 -0.073500 0.106450 -0.086162 0.070949 -0.055360 0.001895 0.101273 0.051988 -0.093340 -0.001649 0.116998 -0.100442 -0.049189 -0.072164 -0.014046 -0.081984 
same 0.024740 0.114725 0.052484 0.006218 0.113987 0.023313 -0.016204 -0.106908 0.047790 0.121043 -0.003018 0.077325 -0.048546 -0.028749 -0.116798 -0.090385 0.011035 -0.072934 -0.019601 0.016482 -0.012682 -0.083658 -0.041775 0.113145 -0.055147 -0.072312 0.033113 -0.024425 0.008944 0.010468 -0.003775 -0.073476 -0.120380 0.031782 -0.057513 0.106485 0.046707 -0.080514 0.027581 -0.012337 0.088727 -0.094797 -0.018088 0.075070 -0.112029 0.038293 0.082668 -0.037582 0.116523 -0.057153 -0.061250 0.033213 0.049140 0.032746 -0.051149 0.002674 -0.006615 0.053586 0.086391 -0.110216 0.074562 0.054728 -0.100482 0.017298 -0.007298 -0.096726 -0.030814 0.039680 -0.005384 0.013108 -0.034952 -0.084837 -0.098161 -0.113190 0.103537 -0.094256 0.082690 0.059771 -0.067198 0.091163 -0.005814 -0.086936 0.033796 -0.117128 -0.116864 0.103586 0.076172 -0.031856 0.057105 -0.109096 0.033351 -0.120064 -0.087644 0.053422 -0.060494 -0.058999 0.120973 -0.027785 -0.110434 0.048817 -0.042287 0.061165 0.039209 -0.081396 -0.026847 0.065867 0.118844 0.055373 0.049585 0.035683 -0.080369 0.052837 -0.112963 0.080729 0.022523 0.051487 -0.024666 -0.114154 0.097174 0.009556 -0.107001 -0.074329 0.117005 -0.053971 0.008351 0.006552 0.116189 -0.059355 0.021418 -0.004409 -0.053359 -0.109118 -0.064002 0.063657 0.007053 -0.002013 0.059656 -0.043655 0.027833 0.037930 0.031667 -0.033970 0.043155 0.090452 0.038090 -0.040185 -0.095068 0.053029 0.082720 0.108569 0.011858 -0.116104 -0.012904 -0.085127 0.094341 0.088064 0.119534 -0.085883 -0.056459 0.016230 -0.062949 -0.026598 -0.102603 0.051902 -0.070528 0.020584 0.111591 -0.089702 -0.081667 0.044271 0.073517 0.096429 0.028938 0.093826 0.060360 -0.039005 -0.038683 0.036350 -0.075964 -0.112500 -0.037719 0.042714 0.063238 0.077191 0.096381 0.101524 -0.034641 0.063026 0.002892 0.019130 -0.092413 -0.075256 0.110887 -0.094352 -0.015151 0.045851 -0.061866 -0.068055 0.109811 -0.101450 
this 0.034946 0.085977 0.012784 -0.012052 0.041084 -0.066450 -0.028535 -0.091821 -0.099508 0.066811 0.079231 0.040617 0.099287 -0.068187 0.008236 0.102633 -0.021992 -0.000401 -0.026724 0.113069 -0.097815 0.077984 0.008265 -0.090113 0.056466 0.035074 -0.033761 0.114865 -0.037728 0.040447 0.001700 -0.036973 -0.075161 0.082797 0.088269 -0.044436 0.068522 -0.030062 0.018687 -0.069564 0.095622 0.052326 -0.112837 0.027074 0.009907 0.017189 0.089373 -0.037150 0.116613 0.094397 0.116591 -0.002219 0.057747 0.091762 0.002731 -0.030173 0.017959 0.118567 0.083176 0.018419 0.001016 0.103214 0.030081 0.102103 0.070981 0.034397 0.058240 -0.001454 0.111034 -0.038894 -0.039605 0.028060 0.064651 -0.007378 0.071930 0.088899 -0.064401 0.057346 0.064997 -0.101565 0.029116 -0.097201 -0.086783 -0.042140 -0.012792 0.060319 -0.108318 0.105135 -0.005476 -0.084335 0.094599 -0.002661 0.054833 -0.120414 -0.047053 0.075371 -0.008979 -0.059223 -0.077303 0.116896 -0.072556 -0.092947 0.037765 -0.040123 0.048753 -0.112304 -0.089992 -0.015084 0.117540 0.052282 -0.064894 -0.090614 -0.043307 -0.092844 0.086680 -0.006694 -0.068257 -0.016343 -0.083706 0.074635 -0.013837 -0.091283 0.000508 0.051627 -0.117452 0.093087 0.011474 -0.117169 -0.073866 0.043112 -0.077185 0.069439 0.000103 0.048956 0.009620 -0.032940 0.047929 -0.021274 -0.116252 -0.043700 0.073380 0.001998 -0.059123 -0.004295 -0.100656 0.107468 -0.086547 0.104119 -0.108649 0.102949 0.076567 0.119502 -0.007125 0.097723 0.042078 -0.059893 -0.033488 0.020192 -0.035512 0.006834 0.117496 0.100226 0.058594 0.097348 0.087835 -0.095537 0.117136 0.049611 0.062178 0.024535 -0.006852 0.003051 0.044293 -0.093506 0.082308 -0.083783 0.098242 0.021385 0.117062 0.049125 0.107207 -0.064154 -0.109849 -0.001439 0.014661 0.000335 -0.021867 -0.096045 0.065549 -0.097922 0.053162 -0.034971 0.082757 0.112120 0.088858 -0.040550 -0.050534 -0.044076 0.119138 -0.033647 
we 0.089962 0.024701 -0.002916 -0.114056 0.029770 0.006828 0.116238 -0.086427 0.069845 -0.108071 -0.025581 0.068329 0.095332 -0.034709 0.079216 -0.046222 0.050654 0.097239 0.049012 -0.055876 -0.060481 -0.019744 0.035711 -0.001386 0.062030 0.077469 0.013380 -0.101349 0.066213 -0.037198 0.015363 -0.040838 -0.103509 -0.019180 -0.102836 0.080110 0.030812 0.061129 0.047811 -0.016379 0.057920 -0.044507 -0.032875 -0.074661 0.100079 -0.050803 -0.074426 -0.016929 0.101714 -0.087433 0.015782 0.056780 0.066531 0.012327 -0.084586 0.105712 0.057515 0.000242 0.072776 -0.088729 -0.040191 -0.075522 0.046971 0.025505 -0.045039 -0.107521 -0.069375 0.111255 0.046674 0.070971 0.112764 -0.109352 0.060814 -0.025403 0.093211 0.093570 -0.117475 -0.111357 -0.094688 0.086464 -0.069527 -0.079444 0.115934 0.006415 -0.028757 -0.000062 -0.071502 0.049790 0.067819 0.115677 0.028432 -0.002008 0.105347 0.078815 -0.025161 -0.071173 0.028251 -0.003202 0.097466 -0.020620 0.077357 0.036352 0.073977 0.108896 0.078529 -0.050759 0.115557 0.098780 -0.083088 0.020750 0.018431 0.026836 0.011173 -0.115916 0.112344 0.030150 -0.109226 -0.056910 0.074961 0.067967 0.092944 -0.050470 0.117468 -0.078308 0.028584 -0.048429 0.036088 -0.093751 0.116361 0.056657 -0.076553 -0.078395 -0.114262 -0.042727 -0.068550 -0.072997 0.111064 0.116545 0.034163 -0.059031 -0.033881 0.108397 0.027809 0.041309 0.106693 0.040274 0.005015 -0.109135 0.062247 0.078902 0.117685 -0.076875 -0.104232 -0.023956 0.102763 -0.080508 -0.033360 0.016987 -0.006404 -0.042228 -0.017830 0.072056 -0.117193 -0.062070 -0.053940 0.070855 -0.077697 0.056331 -0.078703 0.002269 0.086149 0.094380 0.030147 -0.085537 -0.066553 -0.107239 -0.020088 -0.085118 0.031066 0.062801 0.011419 -0.066868 0.056668 0.089503 -0.049468 -0.041902 -0.015681 -0.008608 -0.080483 0.037944 0.084484 0.083395 0.099920 0.042995 -0.024452 0.028356 0.021203 -0.097144 0.046537 0.022639 
gpa -0.016763 0.081802 0.034885 0.085979 0.110547 -0.088048 -0.027927 0.056224 0.106569 -0.018103 -0.047288 0.072738 -0.024940 -0.020261 -0.109630 0.094184 0.020404 -0.105795 -0.000756 -0.101149 -0.114393 0.014646 0.072654 0.046654 -0.004697 -0.030962 -0.035956 -0.044870 0.112749 -0.073516 0.067986 0.063945 0.061329 0.116210 0.117674 -0.089113 -0.034951 0.106067 -0.093571 0.055872 0.008044 0.005031 0.009196 -0.083564 -0.046430 -0.017795 0.099047 -0.067755 0.106012 0.026316 -0.090826 -0.118412 0.108375 -0.054287 -0.045600 0.083879 -0.095707 0.089876 0.088169 -0.043343 -0.021475 -0.093597 -0.016448 -0.060415 -0.086048 0.105524 0.095245 0.051454 0.075083 0.014587 -0.023934 -0.109825 -0.075450 -0.016929 -0.039538 0.075791 -0.052888 -0.060422 -0.037997 0.085964 -0.033850 0.113333 -0.045615 -0.060518 0.105674 0.072188 -0.028573 -0.044239 0.068815 -0.074881 0.107076 0.033340 0.099832 0.081729 0.034400 -0.109619 0.022107 0.049743 -0.032404 0.026675 -0.040353 0.118515 -0.059516 0.040136 0.096588 -0.083982 0.047009 0.069802 -0.044316 0.092357 -0.039758 0.074338 0.081821 -0.085245 -0.105623 0.072533 0.118004 -0.086933 -0.116764 -0.097201 0.007868 -0.044231 0.020763 -0.055321 -0.004330 -0.028540 -0.019971 -0.083667 -0.095208 -0.051131 -0.024771 0.077054 0.099744 -0.063153 0.040184 0.024752 0.043156 0.044371 0.028338 -0.101531 -0.020712 -0.040459 0.093762 -0.102632 -0.027978 -0.088415 -0.030349 0.040239 -0.095135 -0.050646 -0.069674 -0.075006 -0.038048 -0.058676 0.069733 -0.068826 -0.093461 0.056599 0.060940 0.017442 0.043009 0.043402 0.118144 -0.037912 0.014371 -0.049413 0.034664 0.084525 0.004756 -0.112870 -0.095553 0.042793 0.017923 0.022132 -0.118437 0.036055 0.117755 0.103821 -0.060294 0.083101 -0.052742 -0.059454 0.112698 0.022345 -0.068933 -0.118214 0.013483 -0.007174 0.072940 0.096643 0.036631 -0.046793 -0.044242 0.092841 -0.084661 -0.077722 -0.055971 -0.080767 -0.076074 -0.021046 
relation -0.028355 -0.086541 -0.079223 0.018311 0.085335 0.029763 0.033186 0.011892 0.033147 0.019330 0.037502 -0.036074 0.014252 -0.111351 -0.056013 -0.035976 -0.089664 0.034375 0.097597 -0.106740 -0.004417 0.103893 -0.093708 -0.038333 -0.123578 0.091275 0.081910 -0.040070 -0.108433 0.091542 -0.060462 -0.064278 -0.033638 -0.081763 0.045764 0.079007 -0.106268 0.020751 0.099674 0.067413 -0.022973 0.094668 0.047641 -0.097025 0.086850 0.029285 -0.063754 -0.038229 -0.092815 0.107352 0.088531 0.089095 -0.033861 0.050737 -0.087589 0.041672 0.070096 0.043522 -0.102435 0.055295 0.101176 -0.032411 0.107020 -0.002958 -0.017571 0.117840 0.116916 -0.032303 -0.004844 -0.048899 0.069769 -0.061880 -0.083082 -0.084219 -0.063902 -0.069882 -0.095250 -0.132359 0.031397 0.037052 -0.065204 -0.089938 -0.069874 -0.095322 -0.052779 -0.059965 0.056193 -0.038438 0.032448 -0.043208 0.132186 0.021465 0.075464 0.043164 -0.082721 0.117313 0.021556 0.030350 0.054337 -0.069938 0.098613 0.073617 -0.089029 -0.103345 -0.111504 -0.054954 -0.029370 0.036577 0.012448 -0.065669 0.030584 -0.024858 -0.049161 -0.093087 -0.071259 0.043387 -0.053768 0.037401 0.100475 -0.032129 0.002396 0.069588 -0.030509 0.026979 0.056231 0.058467 0.116526 0.080881 0.036913 0.107397 0.122997 -0.028507 -0.046054 -0.095240 -0.111202 -0.080819 0.106517 -0.095456 -0.107991 -0.015953 -0.112625 -0.067998 -0.079237 -0.040712 0.008375 0.111805 0.081848 -0.005516 -0.089781 0.099901 0.005688 0.039764 -0.023680 -0.109402 -0.014667 -0.105205 0.072024 0.057163 -0.036418 0.095826 0.080790 -0.086256 0.074082 0.064900 0.090382 -0.060197 0.013373 0.026806 0.116085 0.063400 -0.042900 -0.003515 0.043556 -0.093826 -0.036518 0.013136 0.069026 0.023532 0.102806 0.015736 -0.051111 0.113939 0.084531 -0.060842 0.001873 -0.074359 0.084094 0.046538 0.084870 0.003486 -0.061466 -0.051635 -0.105742 -0.069599 -0.046280 0.028326 -0.035171 -0.065789 0.020708 -0.007990 
priority 0.108028 -0.068383 -0.085625 0.081702 -0.043455 0.051969 -0.127615 -0.070305 -0.108461 -0.105214 0.035411 -0.117679 -0.015050 0.078141 0.040442 -0.071943 0.003257 -0.082612 0.126507 0.071935 0.093735 -0.109389 0.051514 -0.104563 -0.013258 -0.114414 -0.070607 0.057828 -0.086740 0.115980 -0.083855 -0.007074 -0.111197 0.014597 -0.011096 0.009138 0.102176 -0.061133 -0.054603 -0.089946 -0.007565 -0.069929 0.105700 0.052881 0.034300 0.003174 -0.087915 -0.024535 0.029433 0.068505 0.064971 -0.108500 -0.080887 -0.016076 0.060966 -0.095303 0.100158 0.039580 0.046720 -0.103574 0.100052 0.002744 -0.034529 0.105036 -0.058345 0.063398 -0.003568 0.003795 0.053006 0.003022 -0.086179 -0.053055 0.084512 -0.055775 0.059744 0.067271 0.059065 0.091078 -0.107591 0.104509 0.097410 -0.050679 0.090583 0.056148 -0.013816 0.006657 -0.035958 -0.002382 -0.029051 -0.084953 0.104883 0.091853 0.048569 0.097656 -0.093145 0.033266 0.019912 0.047314 0.123171 0.073701 0.011480 0.026941 -0.004298 0.070535 -0.035746 -0.063367 -0.084210 -0.072046 -0.094334 -0.062510 0.018803 0.097952 -0.093654 0.022377 0.025446 0.071540 0.082605 0.004176 0.017723 -0.070622 0.097178 -0.013504 0.007622 0.084021 -0.003777 -0.111043 -0.007430 0.041982 0.067966 -0.036816 -0.110158 -0.015442 -0.038177 -0.001557 -0.019642 0.025374 0.097533 0.090316 -0.099426 0.099619 -0.005220 -0.041720 0.033814 0.124102 -0.006984 0.070112 0.122894 0.130178 -0.095276 -0.036850 -0.081623 -0.072330 -0.018624 -0.004840 0.087333 -0.053969 -0.013245 -0.090668 -0.042227 0.105564 -0.096073 0.084485 0.034187 -0.053240 -0.051927 -0.070346 0.118583 0.062340 0.025480 -0.025001 0.028863 0.098393 0.127719 -0.057469 -0.038009 -0.014537 0.093031 0.060848 0.090866 0.009906 0.038702 0.115633 0.006479 -0.004719 -0.076263 -0.008309 0.012139 0.087752 -0.027681 0.113212 0.057198 0.008063 -0.006129 -0.057771 0.091892 0.021143 -0.081980 0.064544 -0.114685 -0.042060 
we'll -0.067992 0.057650 0.051403 -0.065778 -0.003693 -0.125604 0.006544 -0.058037 -0.053868 -0.001039 -0.032134 -0.009500 -0.087972 -0.023585 -0.029028 -0.090271 0.087833 -0.078519 0.114760 0.099195 -0.028850 0.012173 0.055066 0.009028 -0.117595 -0.016554 0.017377 -0.087814 -0.047857 -0.113272 0.037295 -0.108258 0.121026 0.089916 -0.039459 0.094065 -0.113346 0.011493 -0.050693 -0.030716 0.075811 -0.107230 -0.024099 0.043534 0.059508 0.038350 0.075927 -0.106465 0.031585 0.056599 0.095104 -0.081169 -0.004002 0.125534 -0.057554 0.075908 0.019996 -0.019892 0.096618 -0.121810 -0.019053 -0.075073 0.086867 -0.084893 0.072690 0.074710 0.012092 0.079848 0.046003 0.101119 0.034483 0.075722 -0.031864 -0.007715 0.126349 -0.077492 -0.030365 0.052814 0.070117 -0.043542 -0.008839 -0.108930 -0.035317 0.070762 0.036669 -0.061753 -0.027761 -0.031272 -0.079767 -0.070700 0.065095 -0.076688 0.025574 -0.084345 0.025675 0.017589 0.040177 0.012034 -0.047123 -0.108428 -0.032003 -0.109904 0.008893 0.008101 -0.123714 0.044330 -0.087146 -0.119399 -0.104414 0.019807 -0.046459 0.098500 -0.033440 -0.068753 -0.023326 0.048634 0.093164 -0.043333 -0.108733 -0.059335 0.089471 0.084198 -0.077194 0.047552 0.086025 0.112090 0.106894 -0.053988 0.023488 -0.098113 0.036074 0.035591 -0.094184 -0.115219 0.125716 0.019598 0.053436 0.048904 0.094949 -0.082189 0.090538 -0.060671 -0.020622 0.066481 -0.042217 -0.076047 -0.122100 0.105623 -0.087694 -0.072384 -0.047293 -0.008279 0.021356 -0.061552 -0.077070 -0.002268 -0.090877 0.007877 0.077349 -0.046447 0.022623 -0.002554 0.008507 0.005551 0.112635 0.085172 -0.121404 0.110213 -0.006768 0.006007 -0.086898 0.034139 0.048135 0.064558 -0.105550 0.113581 -0.035170 0.122366 -0.078461 -0.011447 0.000448 0.104271 -0.096618 0.121895 -0.030936 -0.001595 0.065465 0.027031 0.001221 0.109371 -0.062962 0.040212 0.037581 0.045535 0.123351 0.054629 0.082100 -0.015086 0.027065 0.026768 
be -0.047686 -0.078650 -0.117782 -0.021996 0.020097 -0.103358 -0.044812 -0.012473 -0.011468 0.018768 0.100307 -0.046055 0.097346 -0.018387 -0.003292 0.072729 -0.062842 0.010153 0.090654 -0.109761 0.101755 -0.083707 -0.056741 -0.043995 0.063735 0.043029 -0.117235 -0.065590 0.062828 0.084247 0.060386 0.020922 -0.074310 0.028882 -0.021776 -0.002057 0.010070 -0.075120 -0.094487 -0.057076 0.024607 0.115236 -0.065543 -0.007675 -0.027013 0.057796 -0.019773 0.105576 -0.082090 -0.022464 0.017007 0.065079 -0.018916 -0.077598 0.077991 -0.051717 0.107186 -0.000652 0.019341 -0.108350 0.063865 -0.097739 -0.007729 0.090651 -0.086181 0.092156 -0.029037 0.091645 0.014796 -0.091141 -0.011389 -0.027917 0.075434 -0.068594 -0.098621 0.104467 0.099421 0.089722 0.096518 -0.023854 -0.086585 -0.099338 0.076132 0.077642 0.111206 -0.115747 0.109455 0.014324 -0.070651 -0.088591 0.052649 -0.077346 0.079655 -0.087942 0.056928 -0.001898 -0.083300 0.111173 0.096475 0.023069 0.034274 0.084622 -0.031558 0.075005 -0.095027 -0.060642 0.001073 0.054331 0.004567 0.077389 0.109542 -0.079522 -0.076327 0.015570 0.031990 -0.072073 0.020040 0.037886 0.037652 -0.081913 0.002305 0.015253 -0.017310 0.027420 0.110197 0.113637 0.018318 -0.020684 -0.065666 0.085933 -0.117321 0.028255 0.068504 -0.019914 0.081045 0.015649 -0.014695 -0.096947 -0.002500 0.077959 -0.075535 0.020800 0.019298 -0.061427 -0.051317 0.086221 -0.115420 0.088014 -0.056374 -0.088778 0.098621 -0.104388 0.090013 0.074839 0.045504 -0.030092 -0.080548 0.034918 0.112481 0.034292 -0.033280 0.016434 0.037695 0.107204 0.117487 0.067334 0.090381 0.030056 0.080390 0.058531 -0.109340 -0.060692 0.095157 -0.080047 0.061827 0.030431 -0.011554 0.112614 0.105983 0.085825 0.118006 -0.023659 0.056323 -0.053100 -0.043566 0.090168 0.005050 -0.013841 -0.020501 -0.088058 0.103376 -0.073010 0.013859 -0.097321 0.089444 0.023876 -0.054818 0.110323 -0.003551 -0.117815 
tuples -0.053968 -0.078312 -0.089772 0.119716 0.053161 0.008819 -0.003979 -0.041399 0.044904 0.106658 -0.013758 -0.085325 0.080854 -0.002453 -0.099564 0.081087 0.079254 0.074650 0.108292 0.083164 0.052177 -0.017172 -0.009166 -0.118446 0.079525 -0.023295 0.039350 0.016373 0.027025 0.123215 0.037109 0.042954 0.082320 0.001432 0.075955 -0.125387 0.007533 0.067019 0.078452 -0.036079 0.125108 0.028698 0.004912 0.069068 0.046286 -0.026779 -0.106070 0.038122 -0.037163 -0.012387 0.104470 -0.001019 -0.103752 0.010828 0.012108 -0.074560 -0.090740 0.012445 -0.135994 0.080263 0.134682 0.070334 -0.032245 0.050774 -0.018390 0.030846 -0.110233 -0.037540 -0.010142 0.069064 0.050049 0.042295 -0.044775 -0.085557 -0.094598 0.049578 0.015471 -0.109287 0.018787 0.074775 0.128858 0.114776 -0.030678 0.003966 0.013965 -0.017104 -0.077528 0.049320 0.011954 0.000114 0.111231 -0.017752 -0.005833 -0.025640 0.041416 0.132187 -0.102303 0.010145 0.098046 -0.123312 -0.013632 0.023690 -0.101990 -0.051516 0.063625 0.012377 -0.045878 0.115834 0.015628 0.031936 0.037384 -0.054563 0.044432 -0.064027 -0.013783 0.095093 -0.108897 -0.088821 -0.018623 -0.000539 0.126407 -0.059668 -0.032553 -0.052101 0.123349 0.080102 0.006390 0.034116 0.074645 -0.069924 -0.069857 0.128664 -0.011669 -0.072384 -0.103912 -0.066108 -0.069723 0.056409 -0.113506 0.001779 0.026984 0.117724 -0.061295 -0.115156 -0.018043 -0.025583 -0.100953 -0.001170 0.025414 0.053675 -0.088404 0.025891 -0.006416 0.087228 -0.016055 0.008942 0.018604 -0.107987 0.113887 0.012490 0.015071 0.063053 -0.094070 -0.063315 0.015459 0.044981 0.044870 0.000201 0.074447 0.052659 -0.027326 -0.033027 0.066135 -0.097183 -0.004703 -0.094911 -0.065917 -0.040841 -0.052017 -0.023876 -0.062542 -0.110908 0.004200 -0.125653 -0.106407 -0.062111 -0.130676 -0.121961 -0.075261 -0.090122 0.107164 0.074469 -0.030557 -0.099883 0.036763 0.096930 0.046660 0.114353 0.072469 -0.100133 
will -0.030472 -0.000390 -0.055772 0.010366 0.109640 -0.106824 -0.070850 0.010923 -0.102851 -0.100883 -0.104117 0.044013 0.112817 -0.066950 -0.020620 0.070323 0.049738 -0.004755 -0.081292 0.094983 0.095620 0.131138 -0.010445 -0.029902 -0.047939 -0.056985 0.042575 0.072695 0.109362 0.121503 -0.011910 0.114529 -0.116365 -0.094822 0.048123 -0.114843 -0.088601 0.092005 0.014299 -0.055605 -0.113778 0.031903 -0.022924 -0.067795 0.052259 -0.074236 0.099511 0.078935 -0.021952 -0.004630 0.102589 -0.123283 0.043595 0.050251 0.013897 -0.065465 -0.053169 -0.070300 -0.061060 -0.119517 -0.064146 0.093989 0.045371 -0.073087 0.070430 0.012046 0.055541 0.086756 -0.005780 -0.008671 -0.010339 -0.051490 -0.121318 -0.121591 -0.053695 -0.096452 -0.005375 -0.128131 0.102422 -0.087505 -0.078364 -0.047696 -0.082511 -0.007541 0.003999 -0.080692 -0.067357 -0.021047 -0.047845 -0.121376 -0.010775 0.017166 0.019072 0.022390 -0.001983 0.047381 0.023889 0.075596 -0.054739 0.116537 0.084209 0.092293 0.100143 0.033313 -0.098063 -0.069031 0.062759 -0.047596 -0.032647 0.025546 -0.002495 0.086137 0.121169 0.113221 -0.126484 -0.053515 -0.016089 -0.009930 -0.011387 0.109571 -0.027985 0.024529 -0.080213 -0.023866 0.120257 -0.103624 0.093731 0.013586 -0.021844 0.082952 -0.022178 -0.029625 -0.064766 -0.108134 0.097366 -0.051908 -0.073206 -0.069799 0.068608 0.079505 -0.045475 -0.122897 0.029921 0.080287 0.100021 -0.026252 -0.019724 -0.039042 -0.035261 0.018463 -0.069932 0.060056 0.008824 -0.120812 -0.000724 0.019270 -0.011125 -0.019535 0.078254 0.041113 -0.039421 0.046814 -0.106100 -0.099555 0.065948 -0.099306 -0.006374 -0.062744 -0.022844 -0.120740 -0.035460 0.038072 -0.037396 -0.059115 -0.036985 -0.098032 0.083154 0.043577 -0.034042 0.059737 -0.028840 0.007244 0.016404 0.088510 0.067000 -0.060571 -0.047271 -0.116141 0.126821 0.015133 -0.050715 -0.097106 -0.050593 -0.027630 -0.037993 -0.082317 -0.058549 0.109901 0.022470 0.008781 
as 0.034379 0.039860 -0.006012 0.066255 -0.021523 -0.053104 0.029762 0.055222 0.084343 0.063527 0.104046 -0.014229 -0.007729 -0.057478 -0.002198 -0.050464 -0.114025 -0.053184 0.064628 0.083207 0.021936 0.000131 -0.038643 0.098451 -0.032481 0.089639 -0.089292 0.012754 0.099442 0.017637 -0.050748 -0.094498 0.111468 -0.098230 -0.079728 -0.070682 0.007580 -0.086438 -0.009514 0.034014 0.104052 0.036314 -0.121005 -0.008455 0.028399 0.082216 0.120596 -0.110468 -0.029808 -0.092430 0.064538 0.105179 -0.061763 -0.059410 0.115046 0.115434 -0.006236 -0.087293 0.002903 -0.068288 0.019762 -0.115324 0.010888 -0.116425 -0.042769 -0.036074 -0.011280 0.118712 0.057401 0.077930 0.091555 0.092650 -0.111931 -0.036507 0.039263 0.075675 0.076530 -0.077240 -0.121508 -0.100789 0.071220 0.072469 -0.051866 -0.038450 0.118129 0.081309 -0.088667 -0.038256 0.036502 -0.060069 -0.009379 -0.070249 -0.044474 -0.044595 -0.033607 -0.063016 0.065239 -0.018056 -0.054218 -0.110850 0.119987 -0.050728 0.080502 -0.019096 -0.061144 0.093304 0.098213 -0.012364 -0.104399 -0.029109 0.028908 -0.005143 -0.061336 -0.060589 -0.023731 -0.106404 0.065510 -0.073985 0.098480 -0.108348 0.092758 -0.079544 0.113438 0.005407 -0.094729 -0.023702 0.063910 0.070575 -0.061524 -0.049121 0.043502 -0.019307 -0.050854 0.018908 -0.036395 -0.055781 0.003144 -0.072895 0.042176 -0.019496 -0.020551 -0.031114 0.066895 -0.084034 0.070623 0.009446 -0.105467 -0.097980 0.026384 -0.023186 -0.077915 -0.106216 -0.083353 0.104844 -0.119336 -0.089021 0.120841 -0.047996 0.051084 0.029725 0.079206 0.121710 0.029525 -0.096497 0.045655 0.046825 -0.017723 -0.013948 0.084993 -0.038251 -0.120428 0.047683 0.078028 -0.077980 0.001161 -0.084281 -0.032048 0.034134 -0.049401 -0.011013 0.004679 -0.020121 -0.110670 -0.025448 0.006678 -0.006192 0.034544 -0.110319 0.103308 -0.120023 -0.071915 0.067823 -0.017400 -0.000621 -0.087562 -0.095641 -0.096820 0.028340 -0.103541 0.107724 
say -0.066877 -0.052132 0.096001 -0.050836 -0.047216 0.069773 0.064752 -0.005360 -0.113249 0.013879 -0.093818 -0.090402 0.001860 -0.059056 -0.005683 -0.105366 0.102113 0.086780 0.081886 -0.043266 0.086258 0.013970 -0.050155 -0.063219 -0.092952 0.067636 -0.065668 -0.009837 0.028806 -0.031975 -0.054603 0.045873 0.036253 -0.100634 -0.028252 -0.076081 0.067156 -0.059368 0.035220 -0.089980 0.059783 -0.058285 -0.004019 -0.098184 0.011528 0.087958 -0.003851 0.113419 -0.020637 -0.111775 0.031219 0.077913 0.102090 0.094841 0.096258 -0.116735 0.088346 0.096377 0.072685 -0.104700 -0.060441 0.088259 -0.101833 0.081779 -0.073081 0.044964 -0.014344 -0.030738 -0.026659 -0.002132 -0.097098 -0.108989 0.002856 0.062156 -0.027464 -0.032818 0.018594 -0.047830 -0.107194 -0.056971 0.116454 0.114430 0.092238 0.049997 -0.101266 -0.110908 -0.089312 -0.090971 0.044085 0.083084 -0.093608 -0.108504 0.082793 -0.058967 -0.024433 -0.051215 0.069809 -0.095385 -0.102879 0.091091 -0.103843 0.012657 -0.109235 -0.054768 -0.034878 -0.079982 0.085937 0.111464 0.060785 0.018100 -0.078445 0.083855 0.013489 0.065384 0.059944 0.103498 -0.053610 0.111884 0.091036 0.004089 0.014251 0.027499 0.072893 -0.058339 0.005571 -0.027472 -0.041623 0.118993 -0.021251 -0.056976 -0.072501 0.055396 0.051780 -0.022723 0.014602 0.073620 -0.057530 -0.046258 0.093550 0.092240 -0.119160 0.033948 0.074617 0.051600 -0.058303 -0.016014 -0.064178 -0.018506 -0.011025 0.063473 -0.080307 -0.061193 -0.007435 -0.079690 -0.071456 0.081047 -0.046938 -0.027090 0.063585 -0.109948 -0.095111 -0.057088 0.092734 0.079977 0.000401 -0.092498 0.047095 0.043355 -0.057451 -0.051986 0.008004 -0.087610 -0.042534 0.007832 -0.096520 0.095467 0.116814 0.080344 -0.069304 -0.073381 0.066399 -0.032006 -0.099375 -0.058925 -0.001638 0.014171 -0.110084 0.048242 -0.093663 -0.071598 0.069005 -0.029437 0.074833 -0.094506 -0.070163 -0.037417 -0.048216 0.024344 -0.033899 0.093998 
on -0.062153 -0.109780 0.051496 0.039530 0.035645 -0.065091 0.096125 -0.016375 0.067195 -0.107183 0.068639 -0.047589 -0.088753 0.065114 0.004240 0.028025 0.009778 0.064579 0.000710 0.104861 0.116377 0.067222 -0.031909 -0.110430 0.047211 0.061309 -0.120999 -0.097642 -0.068647 0.097687 0.018968 -0.024961 -0.039541 0.039461 -0.014874 0.002005 -0.111885 0.062638 -0.062161 -0.059766 0.031138 -0.094838 0.100052 0.059606 0.017952 0.118527 0.006318 -0.058391 0.040213 0.065190 0.004744 -0.018712 0.101832 -0.078841 0.005370 -0.114708 0.018976 -0.074976 -0.019182 -0.076496 -0.079281 -0.122691 -0.033712 -0.072264 -0.001283 -0.108558 0.059564 0.042707 0.006555 -0.106893 -0.079640 -0.024931 0.010726 0.120896 0.021948 -0.005298 -0.110021 0.125006 -0.101121 -0.066580 0.086293 0.018865 -0.100739 -0.064059 0.102932 -0.021516 -0.066867 -0.040759 0.006386 -0.007872 -0.026883 0.022876 -0.074269 0.110644 0.054415 -0.041340 0.052619 -0.053189 0.024484 -0.088688 -0.109685 -0.073035 0.043689 0.088131 0.005959 0.039369 0.084651 0.008025 0.027975 0.084548 -0.067753 0.003457 -0.102305 -0.074395 -0.065415 -0.031180 0.119677 -0.011127 0.001704 0.111415 0.009442 0.012295 0.106224 -0.049850 -0.053613 0.046718 0.033025 0.067810 0.122168 -0.044755 -0.120113 0.108467 0.040045 -0.086114 0.057501 0.029094 0.016837 -0.089093 0.037837 0.099574 -0.068708 -0.002846 0.106423 -0.098604 -0.024935 0.035733 0.110716 0.079926 -0.098257 -0.047673 -0.039243 0.091492 0.028143 -0.014473 -0.120510 -0.044350 -0.017311 -0.064143 -0.097882 0.004862 -0.042963 -0.083257 -0.123902 -0.116801 -0.044904 0.104196 -0.038204 0.048284 0.043361 -0.014167 -0.118493 0.019026 0.100579 0.113149 -0.079242 -0.122439 0.068081 0.098925 -0.072993 0.018934 -0.050221 0.119169 0.060618 -0.100529 0.062489 -0.088177 0.043888 0.039377 0.034637 0.028384 -0.087982 0.020141 0.057875 0.081630 0.013117 -0.013518 -0.114207 -0.002754 0.006898 -0.104624 
values 0.078864 0.003882 0.118018 0.015368 0.037352 -0.068825 -0.127417 -0.065401 -0.074653 0.115427 -0.117324 0.030845 0.014732 -0.012109 0.046575 0.034411 0.111427 0.048539 0.102014 -0.042675 0.093397 0.075990 0.062875 0.107094 -0.078614 -0.054154 0.036499 -0.078785 0.082386 0.097035 -0.064744 0.067807 -0.111159 -0.005534 -0.014714 0.091321 -0.015706 -0.045314 -0.023821 0.065625 0.052012 0.078095 -0.014753 -0.127309 0.097657 0.065674 -0.064476 0.001830 -0.072675 0.122670 0.054677 -0.062938 -0.062443 0.078203 0.099215 0.027159 0.062986 0.019372 -0.045581 -0.078549 0.050037 -0.100594 0.018180 0.074385 -0.032118 -0.063259 0.013332 -0.004430 -0.042290 -0.065422 -0.035583 0.020509 -0.058720 -0.002533 -0.034121 0.050179 -0.070326 0.077608 -0.048273 0.039142 0.015082 -0.088445 -0.121198 0.009886 0.036419 0.020732 0.032671 0.027307 -0.041823 0.038038 0.023250 0.016505 0.030819 -0.099045 -0.015128 -0.084765 0.062415 0.071955 -0.080885 -0.021472 -0.063119 0.108303 0.082306 0.060745 0.093590 -0.111229 0.099748 0.052107 0.039903 0.064255 0.111439 -0.071268 0.099843 -0.103698 0.101399 -0.081973 -0.096733 -0.074863 0.112440 0.110477 0.119610 0.021183 -0.035531 -0.075113 0.015271 0.094659 0.096958 0.070921 -0.087428 -0.093304 -0.035185 0.037773 -0.068028 -0.010761 0.101374 -0.073754 0.016440 -0.042122 0.114544 -0.109381 -0.078485 -0.001141 -0.082167 0.114466 -0.032290 0.095360 -0.021157 -0.109850 0.016832 0.035363 0.058805 0.013571 0.038779 -0.056977 0.061022 -0.074688 0.030701 0.013315 0.086870 0.054096 0.022802 -0.050322 -0.098823 -0.080820 -0.057552 0.074395 0.019369 -0.126247 -0.036491 -0.008588 0.026332 0.042373 0.068733 -0.114350 0.112217 -0.109535 0.102155 -0.011266 -0.020375 -0.070488 -0.070343 0.100013 -0.070900 -0.002308 -0.006884 0.087066 0.031525 -0.005211 0.048330 0.124424 -0.018620 0.115627 -0.090799 -0.054047 -0.016744 -0.102056 -0.036325 0.111805 0.057702 -0.095487 
they -0.095330 -0.026310 0.082055 0.026774 -0.016781 -0.032368 -0.059180 -0.002867 -0.013664 0.087285 -0.117362 0.064057 0.088417 0.111110 -0.082124 0.070123 -0.053555 -0.070082 -0.087230 -0.099238 0.078878 -0.051272 0.011151 0.016553 0.065071 -0.102144 -0.054276 -0.061381 0.019701 0.100808 -0.002834 -0.008487 0.117324 -0.082886 0.015224 0.092219 -0.108662 0.019944 -0.076775 -0.066510 -0.100652 -0.120702 -0.077746 0.015329 0.017494 0.076754 0.062183 -0.042006 -0.073345 -0.038168 -0.067991 0.115123 -0.100992 -0.034814 -0.069906 -0.015019 -0.011088 0.042910 0.045582 0.055625 0.080137 0.045649 0.076861 -0.067120 0.105876 0.060735 0.110409 -0.009879 0.089292 0.017764 0.043900 -0.061116 0.065282 -0.113888 0.095606 0.052208 -0.056112 -0.007305 0.081555 -0.082381 -0.078210 -0.046819 0.069289 -0.074008 -0.029736 -0.073846 -0.008334 0.031882 -0.079456 -0.098362 0.059573 0.016069 -0.093400 -0.051532 0.045843 -0.066179 0.112298 -0.088146 0.079469 -0.040307 0.045382 -0.034140 0.047629 0.026628 0.015858 0.098993 -0.075940 -0.079521 -0.094943 0.123224 -0.003465 -0.023883 -0.076772 -0.098387 0.108238 0.069386 0.064008 0.095242 -0.053763 -0.078876 0.114963 -0.040834 -0.056197 0.038185 -0.005957 0.041057 -0.083961 0.027280 0.113376 -0.049146 -0.053098 0.004382 0.005038 0.109965 -0.059571 -0.056076 -0.031827 0.005389 -0.113546 0.114677 -0.118618 -0.054362 0.047113 0.096370 -0.047647 0.045399 0.050787 0.028920 -0.098468 -0.026051 0.025915 0.123231 0.073370 -0.026372 -0.013684 -0.096957 0.100510 0.100708 -0.078869 -0.062643 -0.100413 -0.053018 -0.059906 -0.125510 0.001380 -0.034358 -0.019781 -0.061087 -0.051113 0.114726 -0.014675 -0.110034 -0.117107 -0.014884 0.000628 0.042256 -0.012893 -0.095992 0.114710 0.068618 0.025275 0.059712 0.010874 -0.091544 0.063087 -0.053851 -0.107761 0.073338 -0.022766 0.106562 0.056324 -0.077696 -0.062503 -0.089853 0.092435 0.082431 -0.013297 0.026262 -0.095999 0.017626 
u -0.067774 -0.060300 -0.023072 -0.012872 -0.107616 -0.036198 0.079154 0.073721 0.036476 -0.037274 0.081846 -0.058899 -0.082604 0.087955 -0.105418 0.020338 0.051359 0.109672 -0.033401 0.091820 0.096470 0.062352 0.084811 -0.005178 0.004719 0.054163 0.116319 0.112947 0.013152 0.032693 -0.028683 -0.079657 -0.066638 -0.039566 0.099711 -0.079997 -0.094751 -0.091157 0.062744 -0.056091 0.103310 -0.036404 -0.050539 -0.113109 0.058110 0.075694 -0.087628 -0.037392 0.059155 -0.014866 -0.071200 -0.063327 0.009353 -0.019551 0.014399 -0.100499 0.080836 -0.078331 0.041232 -0.022258 0.047524 -0.005155 -0.065276 -0.093903 -0.045086 -0.057859 -0.107280 -0.076927 -0.055991 0.039143 -0.057036 0.114776 -0.054834 -0.074822 -0.056863 -0.090120 -0.032135 0.012970 0.054196 -0.019537 0.089830 0.054052 0.008308 0.099402 -0.065606 0.083545 0.075181 0.112415 -0.065170 -0.019182 0.112228 -0.074437 0.091995 -0.082064 0.027565 -0.038487 -0.007210 0.108620 0.048556 0.001777 -0.003847 -0.107829 -0.051669 -0.106096 0.040784 0.087515 0.073529 0.010231 -0.094662 -0.082405 0.097843 0.076715 -0.110223 0.077482 -0.009458 0.103186 0.112619 -0.086523 0.035515 -0.068686 0.036757 -0.000852 0.067869 -0.063840 -0.085959 0.025248 0.024160 0.090979 0.034245 -0.010806 0.098729 -0.081262 0.051967 -0.068626 0.087674 -0.020283 -0.085063 -0.041667 0.096510 -0.053920 0.089497 0.006548 0.033354 0.004234 -0.053108 0.063544 0.112255 -0.062668 0.057693 -0.064086 -0.117741 0.054270 -0.086237 -0.034165 -0.069855 0.031503 -0.009026 0.098228 -0.088279 0.053861 0.093126 0.063827 0.043923 -0.095731 -0.101507 -0.067995 -0.104098 -0.095493 0.043605 0.027132 0.022638 -0.045038 0.059858 0.054189 0.107516 0.002849 0.017746 0.002646 -0.110386 0.078463 0.029162 -0.085557 0.109630 0.015805 0.051509 -0.101476 -0.086615 -0.045953 0.077792 -0.109579 -0.069992 0.089855 -0.069270 0.100384 -0.106467 -0.027450 -0.016456 -0.109226 0.065567 -0.090006 
t -0.060313 0.054343 0.082256 0.040300 0.039836 0.061905 0.081903 0.088234 0.104889 -0.111903 0.040564 0.066714 0.013115 0.086601 -0.006419 0.058200 -0.043072 0.017345 0.039122 -0.043329 -0.059746 0.108352 0.086873 -0.029754 0.029850 0.096525 0.109345 0.118560 0.103984 0.032914 -0.109437 -0.018556 0.103754 0.031395 0.031330 -0.044495 0.033086 0.017360 -0.061303 -0.002450 -0.041262 -0.020972 0.087809 -0.124105 0.010293 -0.032553 0.011374 -0.075679 -0.122467 0.096494 0.058879 0.036802 0.067017 0.040246 -0.111308 -0.081171 -0.108447 0.038237 -0.024044 0.092667 -0.016643 -0.109801 0.104697 -0.113168 0.032212 -0.038674 0.121769 -0.050753 0.042044 -0.074306 -0.063143 -0.014599 0.079610 0.022836 0.025102 0.014929 0.023177 0.052487 -0.080783 0.120293 0.065160 -0.122793 -0.031315 -0.055846 -0.041830 -0.074981 0.083192 -0.054051 0.020278 -0.067174 -0.016068 -0.106005 -0.121562 -0.048322 -0.042436 0.122072 -0.023622 0.095451 0.102258 0.021525 0.066710 0.038221 0.076381 0.051789 -0.035127 0.019523 0.103761 -0.018817 0.051769 0.090405 -0.031576 -0.107830 0.017180 0.113429 0.019856 -0.069958 0.116347 0.013985 -0.083575 0.051605 -0.086605 0.031610 -0.118042 0.025175 0.040541 -0.033965 -0.048203 -0.066783 -0.063749 -0.068861 -0.027204 -0.078977 0.107082 0.103627 0.105955 -0.054603 0.117160 -0.030912 0.072470 0.025973 0.096069 0.081201 -0.092318 -0.006101 -0.015094 0.051213 -0.038923 -0.005534 0.038915 0.055830 -0.108977 -0.015519 0.073536 0.083272 -0.078651 -0.016424 -0.032964 -0.066729 0.087395 0.074214 -0.088169 -0.028979 -0.015301 -0.100943 -0.088154 0.121911 0.025578 -0.082459 0.033838 0.122847 -0.068773 -0.102017 -0.095240 0.024876 -0.011696 -0.077152 -0.031660 -0.058124 0.043663 -0.113889 -0.022809 0.050554 0.006987 -0.004107 -0.001933 0.087813 0.102105 0.020512 -0.090761 0.104701 0.113041 0.042432 -0.096882 -0.036219 -0.113348 -0.044372 -0.016367 0.093074 0.086566 -0.031779 
i'm -0.031528 -0.020378 -0.064080 0.093199 -0.018227 -0.073340 -0.038293 -0.065028 -0.030354 0.034288 0.015213 0.100443 -0.064244 -0.001722 0.012134 0.080126 -0.057586 0.042220 -0.073186 -0.107652 0.110577 -0.020822 0.026825 0.083248 -0.083903 -0.084551 -0.065368 0.084694 0.066392 0.015975 0.035100 0.090951 -0.079980 0.035175 0.067988 -0.114239 0.067108 0.020700 0.066285 0.015266 -0.016494 0.078845 -0.112961 -0.088667 -0.092536 -0.094616 -0.084883 0.002810 -0.098707 -0.041511 -0.109725 0.073440 0.085950 0.051226 0.080087 -0.034388 -0.062712 0.055306 0.107019 0.049529 -0.071861 -0.098911 -0.113233 0.050288 -0.113770 0.046744 0.097426 -0.013785 -0.067480 0.070755 0.068232 -0.065715 0.012027 0.079418 -0.109181 0.030114 -0.106167 0.003089 -0.049948 -0.001199 0.109417 0.065357 -0.014311 0.093256 0.075985 0.079289 0.030719 -0.078716 -0.026860 -0.083405 -0.057808 0.087672 0.039131 -0.023199 0.104971 0.082933 0.101685 0.014329 0.024233 -0.074607 0.047177 0.076826 -0.032451 -0.073390 0.055210 0.036006 0.026552 -0.012381 -0.105136 0.056810 0.116941 0.068099 0.097619 -0.106342 -0.021527 -0.048205 0.080681 0.063367 0.113304 -0.049737 0.023653 -0.031517 -0.090682 -0.035462 -0.069800 0.008530 -0.014039 -0.045699 0.097218 -0.062071 0.082993 -0.062122 -0.058088 0.038912 -0.001181 -0.007757 0.113054 -0.051390 0.059655 0.018431 -0.089444 0.066546 -0.053384 -0.023879 0.100483 -0.087443 0.103210 -0.116358 0.100039 0.003461 0.093259 0.052550 0.088828 -0.023614 0.008397 -0.085288 0.070515 -0.003726 -0.001095 -0.101023 0.107413 0.052128 0.039124 0.023671 0.085893 -0.042986 -0.072541 -0.103400 -0.049024 0.051813 -0.009872 -0.112034 -0.059090 0.032298 -0.091756 -0.042549 -0.116576 -0.112528 -0.109267 -0.111203 -0.100526 -0.100429 -0.029416 -0.006439 -0.065919 -0.059695 0.004847 -0.061807 -0.009092 -0.059967 -0.090782 -0.083040 -0.102315 -0.112241 -0.107377 -0.051813 0.009951 0.065715 -0.011948 0.108848 
here 0.039475 0.114909 0.054389 0.067677 -0.014566 -0.047539 0.001889 0.012510 -0.087336 0.054837 0.046358 -0.033885 -0.053655 -0.014199 -0.020841 0.008154 0.029576 0.098135 -0.104873 0.036204 -0.076623 0.076990 -0.050210 0.008539 -0.064991 -0.089015 0.116594 -0.055874 -0.053122 -0.107789 -0.055871 -0.077375 -0.097916 -0.112101 0.012780 0.084391 0.047195 0.068751 -0.007476 -0.097853 -0.038852 -0.062165 0.099583 -0.119591 0.011899 0.030017 -0.117454 0.098839 -0.100228 -0.030247 -0.078201 -0.030536 0.114112 -0.072256 -0.112682 -0.063891 -0.008920 -0.107389 -0.004675 0.017741 -0.101369 -0.086333 0.037185 0.051244 0.022642 0.100921 0.107733 -0.065802 -0.118647 -0.103255 0.119721 0.110426 0.024805 0.018089 0.046595 0.113345 0.092626 0.028713 -0.077505 0.022616 0.027917 0.038626 0.085032 -0.021408 0.077245 -0.024246 -0.038593 -0.060453 0.062324 0.071492 0.010617 -0.075553 0.108333 -0.110397 0.024027 0.012955 -0.084402 0.025646 0.096472 0.102647 -0.026539 -0.078005 -0.102073 -0.090978 0.103636 0.052822 -0.112608 -0.063402 -0.054248 -0.018111 0.099005 0.022260 -0.071541 0.061979 -0.100724 0.063587 0.055552 -0.021756 -0.070718 0.018852 -0.094034 -0.037923 -0.080305 -0.092978 0.090433 0.062794 -0.095345 0.050533 0.066503 -0.095149 -0.021004 0.104188 0.080742 -0.098276 0.055471 0.026261 -0.045135 0.042035 0.107526 0.078494 0.056826 -0.110456 -0.073474 0.097772 0.086951 0.039812 0.092856 -0.018326 0.049032 -0.064787 0.033718 -0.068751 0.007557 0.049918 -0.034666 -0.034537 0.087707 -0.052311 -0.078157 -0.078798 -0.010195 -0.018689 -0.001919 -0.061179 -0.039578 0.078709 0.106800 -0.023409 0.064043 -0.014273 -0.021330 0.053481 -0.059701 -0.005546 -0.109393 0.006375 0.017841 -0.027876 -0.062554 -0.024372 0.057686 0.089437 0.031940 -0.080487 -0.118454 0.092237 -0.095242 0.099772 0.100154 0.029839 0.075593 0.110515 -0.071718 0.012251 -0.089048 0.092097 0.098050 -0.032603 0.051914 0.002789 
also -0.057232 -0.122115 -0.009685 0.100362 0.091461 0.048206 -0.015817 -0.007005 -0.040190 0.106561 -0.081399 0.046973 0.085884 -0.045040 -0.079611 -0.011914 0.008241 0.096940 -0.016449 0.069959 -0.124869 0.077102 -0.118933 -0.106090 -0.119766 -0.001783 -0.041347 0.078938 0.012557 0.053539 -0.111691 0.096288 0.080971 -0.020795 -0.119126 -0.010757 -0.010365 0.073545 -0.014138 0.056557 -0.075920 -0.065521 0.036381 -0.057851 0.126468 0.017524 -0.038897 -0.117621 -0.081805 0.040008 -0.039147 0.103246 -0.071273 0.067109 0.062764 -0.012662 0.098105 -0.068354 -0.105807 -0.106009 -0.059869 0.093918 0.108046 0.042379 -0.003282 0.032634 -0.067172 -0.048568 -0.068953 0.044424 0.126627 -0.056787 -0.106110 -0.025420 0.045173 -0.077364 -0.081030 0.029188 0.119786 0.089307 0.084186 -0.056134 0.055413 -0.018812 -0.010845 0.002422 -0.100742 -0.085440 0.080205 0.069430 -0.009337 0.041035 0.122172 0.094231 -0.025063 0.048488 -0.067411 0.042550 0.106163 -0.014014 0.118506 -0.034476 -0.095451 -0.088477 -0.104644 -0.022501 -0.044984 -0.021413 -0.008958 0.010149 -0.066913 -0.090846 0.013402 0.048831 0.051064 -0.054485 0.070145 -0.102490 0.118457 -0.067776 0.076826 -0.084839 -0.045112 0.004935 0.073259 0.037064 -0.014737 -0.099366 0.104005 -0.007196 -0.067418 0.095436 0.067493 0.083764 0.061138 -0.044330 -0.103575 -0.080792 -0.001855 0.113239 0.079807 -0.071125 -0.119401 0.030407 -0.031527 0.104406 -0.048553 -0.029906 -0.102817 -0.004645 -0.027557 0.013153 0.085741 -0.036089 0.076071 0.058064 0.047241 -0.052486 -0.111811 0.057649 0.062992 -0.097687 -0.116240 0.029130 0.053031 -0.085767 0.119785 0.076114 -0.073574 0.061516 -0.067054 0.077263 -0.052349 0.062798 -0.023193 -0.017108 -0.068579 0.120862 -0.026835 0.071918 0.010420 0.054154 -0.023884 -0.074243 0.125740 -0.028634 0.061624 -0.072907 0.035255 0.048909 -0.080530 0.048105 0.030130 0.022509 -0.007228 0.057725 0.024614 -0.053747 0.063049 0.037314 
set -0.043098 -0.080427 0.002498 0.113131 0.058219 -0.102816 -0.043515 0.019592 -0.090443 0.083500 -0.093805 0.005699 -0.111865 0.056703 0.115789 -0.078417 -0.075684 -0.066842 -0.028209 -0.106012 0.024784 0.099592 0.090681 -0.117172 0.023929 0.076719 -0.021577 -0.081749 0.038407 -0.070027 -0.095313 0.059128 0.008574 -0.021954 -0.033028 -0.010124 -0.053731 -0.069476 0.077344 -0.110264 -0.088520 0.001513 -0.029134 0.017307 0.019905 0.022309 -0.088800 -0.012944 -0.020032 0.077041 0.009582 -0.076673 0.043284 0.110634 -0.081134 0.024085 0.033255 0.097984 0.100036 0.079507 0.064741 0.101938 -0.112356 -0.067613 0.077491 -0.008308 0.072263 -0.062931 0.090073 -0.082244 0.089182 0.069561 -0.083372 -0.120836 -0.077851 0.104061 -0.081092 -0.069159 0.076085 -0.109564 0.060205 -0.057433 -0.066350 0.028407 0.074478 0.068942 0.117115 0.007788 0.048352 0.072513 -0.103920 0.091055 0.097658 -0.000158 0.000822 0.108824 -0.073330 -0.047100 0.071800 -0.039398 0.011105 0.098488 -0.003431 0.084999 -0.058707 -0.043803 0.011170 0.029822 0.082412 0.043903 -0.099856 0.110355 -0.096415 0.000628 -0.006043 -0.019576 -0.112850 -0.008587 -0.020865 0.065407 0.080521 0.001727 0.043335 -0.071553 -0.094775 0.082167 0.013961 -0.111850 0.018094 0.104851 -0.039245 0.060859 -0.057308 -0.004972 0.039497 -0.060001 -0.018280 -0.020027 -0.005238 0.031840 0.020603 0.109544 0.093687 -0.080082 0.008914 0.021649 -0.043047 -0.007909 -0.061324 0.106048 -0.041189 -0.041100 -0.112929 -0.117446 0.103465 0.084029 -0.028516 -0.107571 -0.082562 -0.028518 -0.112340 -0.022430 -0.013735 -0.009729 -0.108769 0.087598 -0.016139 0.107436 0.042585 -0.035974 0.115962 0.101056 -0.016748 -0.105573 -0.050235 0.041847 -0.104420 -0.009022 0.047141 0.076692 0.021205 -0.061050 0.089812 -0.079403 -0.046913 -0.033211 0.042443 0.074690 0.050029 -0.108608 -0.042254 -0.104483 0.009021 0.043635 -0.088887 0.003921 0.086621 -0.101264 0.052492 0.114252 
dot 0.107422 -0.098969 -0.106573 0.009591 -0.055480 0.109159 -0.063741 0.007111 0.023208 -0.084435 0.036878 0.005791 0.109554 -0.037368 0.109880 -0.035214 0.029038 0.001577 -0.108372 -0.097337 -0.095804 0.080672 -0.109170 -0.102603 -0.083025 0.069953 -0.037328 0.086379 0.071088 -0.101130 0.021750 -0.046527 -0.045632 0.031573 0.042071 -0.007466 -0.073002 0.041045 0.057054 0.043895 -0.066722 0.034967 -0.078115 0.007299 -0.023077 -0.057210 0.026449 0.079547 -0.116589 -0.008982 0.107110 0.041560 0.012924 -0.009722 -0.040359 -0.028687 0.072117 0.048254 -0.085483 0.006197 0.064705 0.094393 -0.113666 0.105366 0.053812 0.117557 0.086745 0.049740 -0.075671 -0.071628 0.073880 -0.082702 0.095847 0.109811 -0.059433 0.083072 0.096790 0.116034 0.076694 0.030928 -0.009718 -0.064100 -0.019023 0.017076 -0.101141 0.092971 -0.075519 -0.118152 0.004467 -0.018004 0.000036 0.000279 0.073176 0.007713 -0.115407 0.093878 -0.069536 -0.078663 0.027450 -0.056434 -0.063487 0.008786 -0.013265 0.102610 0.035624 -0.097548 0.092924 -0.004536 -0.006135 0.007075 0.022968 0.056572 0.112005 0.073869 -0.011480 0.066856 0.037292 -0.086539 0.022997 0.104292 -0.048330 0.108825 -0.018414 0.068625 0.096500 0.114119 0.016528 -0.080991 0.059614 -0.081796 0.101830 -0.088344 -0.036450 0.044642 0.033267 -0.113104 -0.009747 -0.111820 -0.096333 -0.017881 -0.094208 0.091202 0.102918 -0.081165 0.010937 -0.070366 -0.107908 -0.046745 -0.047068 -0.072962 0.017543 -0.074289 -0.086274 -0.046549 0.096812 -0.026409 -0.102969 -0.061678 0.044493 0.056050 -0.034028 0.108158 0.072241 -0.045991 0.005439 0.035939 -0.024172 -0.016909 -0.040265 0.066994 0.085730 0.043039 0.070217 -0.106874 0.078898 0.093008 -0.075279 -0.021514 -0.070660 -0.086082 -0.116574 -0.103944 -0.091880 0.059038 -0.109365 -0.008837 0.108067 -0.047180 -0.049940 -0.044388 -0.031511 0.029709 -0.112818 0.015908 -0.061319 0.070627 0.062182 -0.017322 0.052065 -0.084095 
relations -0.060122 -0.038061 -0.076840 -0.064513 0.014437 -0.117674 -0.052183 0.109081 0.093551 -0.018141 0.107653 -0.056046 0.069778 0.060682 -0.072970 0.030608 -0.124412 -0.015042 0.015945 0.005035 0.018405 -0.071875 0.027924 0.083505 0.062934 0.122552 -0.063336 0.026189 -0.109395 -0.123208 0.026526 -0.085473 -0.062128 0.056347 -0.105393 -0.091291 -0.036649 0.081635 -0.044436 -0.052405 0.037047 -0.062235 -0.070915 0.058250 0.027970 -0.065484 0.097133 0.081654 -0.115646 -0.071144 0.062709 -0.111358 0.105628 0.102623 -0.021217 -0.038601 0.012534 -0.069291 0.072022 0.054069 -0.016523 -0.022509 -0.115440 0.005306 -0.045127 0.103573 0.010647 -0.044860 -0.061582 -0.016974 0.104519 0.116140 -0.008196 0.098960 -0.114663 0.003316 -0.001829 0.008764 -0.099469 -0.051386 -0.091639 0.078645 -0.006597 0.101548 -0.043130 -0.022014 0.069929 -0.084316 -0.023568 -0.056915 0.108286 -0.086678 0.087890 0.035284 -0.112254 -0.083781 -0.014443 0.106051 0.014207 0.086311 -0.076921 0.085868 -0.111086 0.111509 -0.033490 -0.035799 -0.008534 0.026605 -0.013350 0.042813 0.099710 -0.095445 -0.056091 -0.068464 0.068336 -0.102656 0.079235 0.054953 0.054847 -0.043917 -0.042958 -0.093213 0.029989 0.095628 -0.039744 0.039679 0.032157 -0.089600 0.027539 0.058318 -0.089194 0.034916 -0.077796 -0.108471 0.066476 -0.062033 -0.048606 0.030291 -0.018808 0.126297 -0.005555 0.024367 -0.068284 -0.064150 -0.001037 -0.015899 0.033866 0.013588 -0.038512 0.088865 -0.074792 0.063633 -0.051201 0.076350 0.091848 0.112976 0.096782 0.000102 0.067288 -0.023020 0.091698 -0.034748 -0.058534 0.066435 -0.057969 -0.094798 -0.114612 0.085667 -0.045293 0.049520 0.116235 0.053890 0.015467 -0.036369 -0.087005 0.045176 0.067547 -0.005824 -0.114565 -0.039947 0.108366 0.078352 -0.063543 0.003609 -0.039519 -0.050040 0.042159 -0.050714 0.002622 -0.087433 -0.010013 -0.122155 -0.081080 0.077305 0.119576 -0.070355 -0.030097 0.120476 0.094159 0.067486 
our -0.028472 0.018824 -0.111569 0.056599 0.054675 0.094556 0.029873 -0.016770 -0.095441 -0.041885 -0.114582 -0.016738 0.026952 0.019236 0.089275 0.025750 -0.010525 0.030435 -0.104516 0.119935 -0.080681 0.029446 0.052704 0.096826 0.009248 -0.112508 -0.064180 0.119927 0.020650 0.038136 -0.058503 -0.123612 0.002023 -0.047793 0.048548 -0.104941 0.100937 -0.052576 0.044590 -0.001516 0.006169 0.111735 0.023198 0.082107 -0.038411 -0.083481 -0.106401 0.118426 0.027676 0.053513 0.129892 0.110366 0.100098 0.097056 0.008990 -0.093495 0.119285 -0.096078 -0.111962 -0.113283 0.089067 -0.093594 -0.066575 0.014433 0.055382 0.084656 0.105203 0.049843 -0.073251 -0.010746 -0.051470 0.086079 0.114825 -0.018026 0.044460 0.014353 -0.102191 0.000803 0.072538 0.047252 0.090744 0.032783 0.000773 -0.053962 0.052573 0.113384 0.102956 0.038030 -0.004082 0.117936 -0.004699 -0.015206 -0.078167 -0.020090 0.061068 -0.018404 0.125294 -0.077135 0.058973 0.040316 0.010931 -0.010780 -0.015685 0.008842 0.000274 0.058733 -0.032935 0.027915 0.106836 0.052993 -0.094351 0.055337 -0.088250 -0.034149 0.012085 0.102977 0.024937 0.088366 0.093715 0.001930 -0.110207 0.042896 -0.023888 -0.095764 0.009311 -0.000560 0.088347 0.023618 -0.041740 -0.049061 -0.104297 0.107669 0.100678 -0.062000 -0.081893 0.005855 -0.098736 0.078633 0.020714 0.114074 0.086364 0.056095 0.112174 -0.112850 0.000643 0.104169 -0.074490 0.081608 -0.002095 0.020894 -0.038122 0.039201 0.035337 -0.083319 0.108932 -0.088208 0.118833 -0.017576 0.000441 -0.105575 0.048632 -0.062465 0.111986 0.001045 -0.031110 0.091082 -0.006108 0.081450 0.064921 0.059200 -0.023169 0.030933 0.087792 0.013133 -0.022793 0.037783 0.106545 -0.050382 -0.032084 -0.107914 0.001444 -0.093245 -0.012069 -0.093025 -0.034879 -0.001643 -0.123449 -0.015430 -0.002675 -0.080173 0.052728 0.083605 -0.090288 -0.118043 -0.012259 -0.019508 0.088948 -0.042583 -0.043600 -0.005318 
these -0.008498 -0.008689 0.061083 0.024327 0.089561 -0.071861 -0.024345 0.028793 -0.023037 -0.009932 -0.089193 0.027015 0.012588 -0.011594 -0.100162 0.096690 -0.095848 0.030448 0.035242 -0.098865 -0.107858 0.045897 -0.004863 0.110015 0.039455 0.023655 -0.009589 0.031466 -0.005391 0.011818 0.054363 -0.020027 -0.061105 0.117682 0.042700 0.092427 0.112801 0.034162 0.107114 0.091343 0.105647 -0.013054 -0.015081 -0.004780 0.039527 0.024132 -0.053799 -0.118246 0.095732 0.016226 0.083455 -0.112161 0.041175 -0.107067 0.074798 -0.027225 -0.061249 0.116728 -0.105668 -0.081725 -0.089446 0.025346 0.048928 0.038823 -0.098912 -0.037132 -0.079278 -0.002265 -0.085948 0.095787 -0.101810 -0.008899 0.012342 -0.060573 -0.044564 0.037421 0.081266 0.015460 -0.111030 -0.022398 0.065325 -0.042392 0.028074 -0.051461 -0.031781 -0.067641 0.050865 -0.090468 0.089634 -0.071384 -0.068555 0.115868 0.078086 -0.005524 -0.060100 -0.065119 0.114867 0.000444 -0.068063 -0.022961 -0.033110 0.113014 0.059247 -0.035145 -0.066163 0.084297 0.059146 -0.083170 -0.098984 -0.037609 -0.035069 -0.089341 0.049716 0.091379 0.105885 0.083235 -0.089937 -0.072612 -0.076663 -0.079716 0.018528 -0.067106 0.101752 -0.086118 0.023630 -0.080792 -0.035936 -0.095064 0.106658 -0.006377 0.076345 0.030339 0.034527 0.085843 0.116710 0.012606 0.106919 -0.052018 0.059262 0.107023 -0.027647 0.101712 -0.062702 -0.082288 0.048907 -0.056035 0.080102 0.055139 0.103493 0.114806 -0.070997 0.005033 -0.037778 -0.107226 -0.068324 0.022679 -0.016028 0.036330 -0.115366 -0.051013 0.113249 -0.057596 0.117158 -0.079152 0.116963 0.014275 0.070578 -0.102435 0.058012 0.004058 -0.044217 -0.102363 0.058489 -0.040152 0.042858 -0.001239 0.062897 -0.011060 -0.049275 0.101040 0.074936 0.021039 0.067861 -0.073010 -0.079286 0.045044 -0.105206 -0.031315 -0.040886 0.109054 -0.061603 0.067034 -0.102149 0.083574 0.054377 -0.114647 -0.022589 -0.101690 -0.079148 0.093308 
two 0.024862 0.016366 -0.015084 -0.001003 -0.080464 0.010789 0.046620 -0.086307 0.095360 -0.010902 -0.047282 -0.016486 0.063628 -0.121819 0.107257 -0.080144 -0.110241 -0.087232 -0.009252 -0.011766 -0.052986 -0.103390 -0.115900 0.023182 -0.068604 -0.058702 -0.116487 -0.079197 0.093030 -0.026279 -0.099516 -0.114957 0.004780 -0.017666 -0.091925 -0.064857 0.039909 0.017162 -0.059081 -0.094364 -0.105581 -0.056477 0.095217 -0.061099 0.064711 -0.065421 0.036188 -0.007392 -0.122627 -0.021213 -0.016828 0.085999 -0.048056 -0.120105 -0.029199 0.053606 -0.015573 -0.004228 0.095277 0.037808 -0.021330 0.007031 0.021818 -0.003724 0.000090 -0.097874 -0.030236 -0.051750 -0.070603 -0.022641 -0.026253 -0.025460 -0.044854 0.098047 -0.116306 -0.028751 0.081185 -0.055199 0.103650 -0.103954 -0.119621 -0.001372 0.114127 0.014449 -0.027733 0.063279 -0.050243 -0.085285 0.052851 0.004070 -0.046981 -0.014502 -0.120297 -0.005836 0.035407 -0.061806 0.010793 0.022017 -0.076292 0.038319 0.080554 -0.108621 -0.101169 0.120406 0.031266 -0.039882 0.056977 0.080558 0.113052 -0.091155 0.063365 0.122721 -0.101222 -0.027707 -0.108941 0.019860 0.007982 -0.045790 0.067243 0.099061 -0.109610 -0.033810 -0.050709 0.010150 0.042404 -0.064880 -0.058751 -0.042926 0.036887 0.095732 0.016181 -0.040927 0.000827 0.005498 -0.037556 0.096957 0.122777 0.022288 0.122514 0.020552 -0.085965 0.072989 -0.084665 -0.066195 -0.067431 -0.100219 0.052798 0.102233 0.059089 0.045241 0.076984 0.114093 -0.010402 -0.117866 0.084094 0.111763 -0.025779 0.076176 -0.014378 0.052915 0.078374 -0.123006 0.000909 -0.043212 -0.063508 0.073440 -0.081689 -0.095807 -0.016595 0.038281 0.080306 0.037507 -0.023314 -0.055320 -0.094165 0.068126 -0.018248 0.027369 0.106791 0.015291 -0.120688 0.090095 -0.021022 -0.040190 0.104198 -0.001823 0.111150 0.044061 -0.078570 -0.075221 -0.077750 -0.020559 -0.111023 0.104630 -0.122108 0.031465 -0.112451 0.095206 0.012709 0.034666 
about 0.100131 0.004966 -0.065853 -0.114900 0.058183 0.012444 0.029956 0.031452 0.042482 0.108078 0.053099 0.005038 -0.034745 0.085123 0.016976 -0.110010 -0.013667 0.069758 0.031713 0.053805 -0.118698 -0.017677 -0.001574 -0.012746 -0.038366 0.039561 -0.103602 -0.060638 0.097697 0.067304 -0.000952 -0.012636 -0.006064 -0.066386 -0.081598 0.054971 -0.099979 0.043133 0.056405 0.076072 -0.114735 -0.104374 -0.103437 0.064590 0.060836 0.038694 -0.039476 -0.109503 -0.108396 0.088974 0.094917 -0.109682 0.105782 -0.016689 -0.033868 0.060119 0.048778 -0.073713 0.040490 -0.078792 0.082989 -0.001243 -0.121133 0.033480 -0.092089 0.053769 0.050121 0.058191 0.014510 0.026598 -0.022348 -0.050444 -0.029190 -0.114799 0.108389 -0.031478 -0.082181 -0.056152 0.022704 -0.044319 0.050071 0.068097 0.036671 0.051296 0.101089 -0.064915 0.070319 -0.028998 -0.089421 0.012589 0.094678 -0.017560 0.078469 -0.108289 -0.104206 -0.098734 0.076092 -0.103954 0.066551 -0.102845 -0.104218 -0.038633 0.026143 -0.099327 0.086163 0.076217 -0.011476 -0.056682 0.043850 0.052323 -0.012777 0.112372 -0.023387 -0.000767 -0.119089 0.053780 0.114050 0.079658 0.070613 -0.031668 0.021254 0.052821 0.031456 0.110129 0.088202 -0.032686 0.051846 0.096950 0.004656 -0.079873 -0.016069 0.042775 0.023839 0.086183 -0.031035 -0.073720 -0.035364 -0.027943 -0.004776 -0.003165 -0.051965 0.106978 0.080503 0.094487 -0.070800 -0.113830 0.104667 0.117978 -0.110954 -0.050850 -0.044161 0.028051 -0.090408 0.052174 0.109849 0.081963 0.117871 0.007621 0.100618 0.112805 -0.037228 -0.094882 0.024536 0.023391 -0.055086 -0.064355 0.048702 0.024723 0.108209 0.062604 -0.101201 -0.114263 0.108355 -0.110829 0.080877 -0.086908 -0.111044 -0.028675 -0.025028 0.022349 -0.069779 0.016897 -0.015807 -0.073689 0.060763 0.010290 0.068478 -0.120517 -0.075937 -0.002552 0.039727 -0.031662 -0.073819 0.090517 -0.024440 0.087776 0.096357 -0.023553 0.022410 -0.036052 
just 0.015079 0.116592 -0.070705 0.084470 0.042360 0.094951 -0.034021 0.052409 0.108438 0.014480 -0.010069 0.001172 -0.014085 0.035451 -0.095097 -0.104590 -0.022568 -0.081002 -0.057124 0.002343 -0.032543 -0.057303 0.120678 -0.103496 -0.091124 -0.020014 0.048764 -0.010637 0.049651 -0.031014 -0.114851 -0.030720 -0.059385 -0.124211 0.103846 0.124488 -0.021026 0.021348 -0.006339 0.024161 0.102379 -0.002335 -0.105168 0.053125 0.059579 0.008090 -0.026987 -0.058265 -0.092986 0.017577 -0.051087 -0.053575 0.048316 0.088334 0.091099 -0.096500 -0.086480 0.071193 0.016771 -0.047261 0.008207 -0.085125 -0.104911 0.063756 -0.117192 0.090604 -0.066828 -0.012937 -0.058383 -0.106053 -0.084525 0.063627 0.104270 -0.058162 -0.063429 -0.063233 -0.117694 -0.076283 -0.080746 0.072231 0.113910 0.076023 0.079140 -0.019880 -0.106303 -0.066968 -0.045248 -0.010891 -0.069138 0.119128 -0.106915 0.008181 -0.021565 0.066169 0.040523 -0.015250 0.099219 0.002868 -0.102982 -0.073095 -0.081536 -0.028495 -0.033054 -0.063279 -0.122451 0.100525 0.121681 -0.097607 -0.009906 0.057283 0.012759 0.037204 0.072029 0.083857 0.106619 0.092995 0.004299 -0.013354 -0.038775 -0.095107 -0.040806 0.121813 -0.110792 -0.120716 -0.041037 -0.085931 0.083106 -0.018865 0.063768 0.109003 -0.002568 -0.047402 -0.099625 -0.001036 -0.086616 -0.114290 -0.084226 -0.051808 -0.057336 -0.056626 0.105870 -0.112720 -0.007736 0.066083 0.054797 0.056568 0.034710 0.026728 0.113293 -0.003124 0.091939 -0.103122 -0.000141 0.071604 0.041993 0.089515 -0.034445 -0.023304 0.010374 0.049428 0.046409 -0.077457 -0.014238 0.044522 -0.092967 -0.016051 0.006572 -0.083514 -0.023575 0.004926 -0.090110 0.063252 0.000080 -0.079575 0.119932 -0.075739 0.053098 -0.024671 0.093786 0.033252 0.009783 -0.044161 -0.117808 -0.034795 0.071274 -0.016049 0.068908 0.116670 -0.023078 -0.008203 0.076940 -0.053997 0.044276 -0.054606 0.123156 -0.023262 -0.082918 -0.077148 -0.016276 0.035722 
their 0.034818 0.002863 0.017353 0.012868 -0.092516 -0.082967 -0.119255 0.111281 0.048123 0.087114 0.044744 -0.116523 -0.076637 0.109220 0.050083 0.106547 -0.098940 0.094375 0.004385 -0.012918 0.001622 -0.045080 0.036265 -0.068224 0.061658 -0.078165 -0.103468 -0.011972 -0.034518 0.060015 0.087322 -0.031530 -0.124580 -0.024811 0.008753 0.032883 0.054652 0.094233 0.035518 -0.101326 0.081178 -0.078992 -0.096455 0.035470 0.080083 -0.013498 0.112394 0.086053 -0.015320 -0.083342 0.070319 -0.082416 0.050319 0.116125 -0.105527 -0.016121 0.103413 0.087781 0.047500 0.053914 0.022551 -0.089560 0.103684 -0.007381 -0.024768 -0.094243 -0.085126 -0.101963 -0.003911 -0.001567 0.078217 -0.017098 -0.111911 -0.059018 -0.116587 0.036494 0.005426 0.044163 0.065990 -0.098618 0.094078 -0.072202 0.017219 -0.057003 0.112845 -0.016815 -0.115708 -0.119193 -0.084354 -0.030692 0.109238 -0.015515 0.086711 -0.045879 0.007158 0.080174 0.093615 0.014781 -0.060120 0.068167 -0.054360 0.088740 0.015044 -0.083808 -0.060428 -0.064433 0.002849 0.106452 -0.040817 0.068180 -0.073516 0.039500 -0.032943 -0.101198 0.105240 0.042639 -0.041239 0.049634 0.009647 0.083583 -0.021791 0.051708 0.049727 -0.034161 -0.076531 -0.059055 0.052896 0.004990 -0.023692 0.072893 0.088883 0.073075 -0.096852 -0.102689 0.083452 -0.083382 0.008656 0.102186 0.014798 0.024167 -0.068039 0.043454 -0.085487 -0.004231 0.101373 0.065614 0.104286 -0.030255 0.031338 0.075379 0.014601 -0.112032 0.043788 0.077345 -0.091326 0.033578 0.019375 -0.094379 -0.013492 0.000255 0.103732 0.091931 -0.085558 -0.087688 -0.115164 -0.100000 0.063618 -0.009482 0.096523 -0.004974 -0.068263 0.005597 -0.074976 -0.021576 0.032858 0.024590 0.021441 -0.048594 -0.016396 -0.041919 -0.086275 0.063927 -0.054489 -0.001025 -0.091759 0.078546 0.105426 -0.064158 -0.109070 0.053820 0.055532 0.067429 0.022277 0.073036 0.103122 0.077113 0.101295 0.094608 -0.078219 -0.085606 
let's -0.050556 0.088441 -0.026046 0.065770 -0.086268 0.106790 0.047576 -0.101917 -0.068304 0.022529 0.005591 0.039694 0.033550 -0.003141 -0.009472 -0.045498 0.007771 0.030763 -0.012140 -0.092830 0.002752 -0.089111 0.020900 -0.016234 -0.038852 0.008877 -0.061262 0.079143 -0.119863 0.008388 -0.088350 -0.113752 0.070737 -0.117213 -0.100233 -0.045781 -0.080166 -0.051569 -0.043009 0.093791 0.123839 0.044321 -0.084767 -0.056901 -0.076982 -0.119472 -0.057914 -0.021274 -0.115753 -0.082439 0.002282 -0.047038 -0.096984 -0.025852 0.126299 -0.035359 -0.091879 -0.113467 -0.083762 -0.109777 -0.092452 0.120005 0.053102 -0.038433 -0.040961 -0.115585 -0.007306 -0.079075 -0.043822 -0.014085 0.014121 0.114985 0.072759 0.034128 -0.034676 -0.072918 0.073561 -0.038283 0.020701 0.080840 0.035304 0.017167 -0.109981 0.089732 0.067985 -0.017958 0.119024 0.025974 0.121063 -0.024324 0.050568 0.052261 -0.050694 -0.065803 0.082872 0.104915 0.118895 0.089570 -0.038374 -0.033846 0.001486 -0.022579 -0.049909 -0.036161 0.041471 -0.024857 -0.093684 -0.006084 -0.004963 0.010653 -0.004387 0.024068 -0.061201 0.068429 -0.072131 0.053215 0.001210 -0.051509 0.008138 -0.080947 0.097767 0.015478 0.055409 0.025673 0.000700 -0.052117 0.005626 0.080552 0.026906 -0.016474 0.070031 0.089610 0.056253 -0.080704 0.030783 -0.112717 0.024583 0.115912 -0.009667 -0.110455 -0.066884 0.002330 0.110347 0.032433 0.122386 0.073590 0.115209 0.090397 -0.072622 0.122577 0.021985 -0.113088 0.081460 0.008437 -0.034810 0.088230 0.078443 -0.075390 0.068815 -0.126814 -0.043515 0.088535 0.065686 0.032528 -0.119909 0.066187 0.003312 -0.104915 0.028069 -0.042310 -0.035648 0.111772 -0.103342 -0.046070 0.119272 0.116718 0.060864 0.034293 -0.073624 -0.052002 -0.105036 -0.002572 -0.059331 -0.068674 0.097853 -0.042329 -0.000626 -0.040582 -0.089453 0.103914 0.017299 -0.000416 -0.099759 -0.100974 -0.036987 0.067035 -0.036604 -0.080190 0.113979 -0.010118 
dependency 0.038270 0.007695 0.075323 -0.090664 0.111956 0.102131 0.012789 0.035464 0.013664 -0.056737 -0.104997 -0.105105 0.114617 0.070707 0.001338 0.057858 0.112479 0.105584 -0.062391 -0.068838 0.011078 -0.024820 0.105655 -0.037430 0.120402 -0.087054 -0.011175 -0.073712 0.076885 -0.031368 0.111425 -0.097317 0.068050 0.008293 0.079269 0.033356 0.097724 -0.040786 0.049266 0.031278 -0.013963 0.054846 -0.005374 -0.084416 0.104212 0.100008 -0.050208 0.011575 -0.095018 -0.039246 0.010442 -0.029013 -0.117966 0.054233 0.088553 -0.003345 0.100430 -0.120900 -0.087596 0.107714 -0.048331 -0.025029 0.006301 -0.105330 0.113137 -0.037033 -0.023941 -0.011014 0.098801 0.015304 -0.021415 0.103633 -0.026281 0.120503 -0.012909 0.012815 0.109116 0.083384 0.036021 0.041832 -0.042277 0.014931 -0.023882 0.087353 0.013230 0.087361 -0.035707 0.107281 0.095766 0.044261 -0.026244 0.120750 0.086692 -0.064615 0.038951 -0.036802 -0.071398 0.116646 0.010622 0.021157 0.115185 0.025470 0.045678 0.007598 -0.023291 -0.104694 0.117330 -0.058344 -0.115604 0.020836 0.015091 -0.096300 0.025773 0.023183 0.079568 0.035329 -0.085197 0.074564 -0.022192 0.049516 0.106410 -0.081433 -0.072049 -0.034604 -0.007908 0.094805 -0.035557 0.108267 0.004305 -0.020529 -0.061973 -0.115062 -0.098053 -0.010289 0.005613 -0.011896 -0.004993 0.114045 -0.104519 -0.052962 -0.080084 -0.087637 -0.112995 0.087039 0.109131 -0.014490 0.075861 0.059846 0.076616 0.015843 -0.115835 0.068293 -0.112569 -0.008121 0.019920 -0.113417 -0.087200 -0.036630 0.027709 0.084946 0.095317 0.041301 0.003207 0.070191 -0.051052 -0.091972 0.103323 0.045151 0.028613 0.041929 0.056337 0.028961 -0.029256 0.002896 -0.103308 0.101989 -0.037134 -0.098087 -0.035004 -0.084027 0.008805 -0.088803 -0.071705 -0.081321 -0.071309 0.019266 0.004731 -0.115690 0.093748 0.030942 -0.016183 -0.106765 -0.043293 0.057208 -0.038771 0.087054 0.011257 0.025350 0.093875 -0.066192 
all 0.075695 -0.074312 0.107434 -0.056147 0.036008 0.046382 0.043109 -0.050236 0.075023 0.016913 -0.007904 0.091360 -0.042664 0.005426 0.107594 0.088397 -0.014392 0.000712 -0.114834 -0.040442 0.044007 0.051345 0.075863 0.022452 0.076483 0.026546 0.055676 -0.062949 0.086773 0.094462 -0.022193 -0.098607 -0.100741 0.004740 0.055239 -0.065839 0.115527 0.045098 0.082460 0.113823 -0.037891 0.084755 -0.086255 0.100351 -0.078979 0.052717 -0.058566 0.091783 0.055786 -0.062226 -0.099771 0.106802 0.011429 0.027641 0.062901 -0.015264 -0.028958 -0.047601 0.044583 0.102978 -0.061639 0.119333 -0.001525 -0.057855 -0.023091 0.038953 -0.101581 -0.000799 -0.029148 -0.001025 0.017187 0.113473 0.103281 0.107759 -0.030090 -0.055067 -0.100347 0.055169 -0.090210 -0.069240 -0.098231 0.069138 0.049809 0.089638 -0.006203 -0.040902 -0.054684 0.021752 -0.119454 0.072553 -0.071134 0.104496 0.044036 0.099366 -0.085481 0.057629 0.069506 0.028327 0.115257 -0.100169 0.080263 -0.091988 0.086430 -0.051287 0.020259 0.085923 -0.078548 0.103387 -0.106770 0.012782 0.012662 0.083609 0.001839 -0.083478 0.094764 -0.091936 -0.008889 0.084857 -0.037753 -0.105642 0.044138 -0.091272 -0.052334 -0.058395 -0.074483 0.034560 -0.034921 0.008703 -0.062091 -0.027138 -0.011669 0.114334 -0.034520 0.011352 0.051049 0.097826 -0.047816 0.019248 0.007510 0.097432 -0.098246 -0.074443 0.010910 0.072049 0.116855 -0.041792 0.035096 0.040362 0.003372 -0.073363 0.113695 0.080836 -0.016464 -0.060796 0.100982 0.092586 0.061084 -0.075085 -0.088984 0.034509 0.060398 0.111699 -0.004080 -0.074713 0.104785 0.069853 -0.088955 0.082529 -0.100946 -0.092265 -0.011056 -0.072932 -0.074775 0.032633 -0.095465 -0.103920 0.007677 -0.044945 0.109944 0.008250 0.030579 -0.037282 -0.078621 0.102905 -0.062121 -0.075158 -0.089466 0.079158 -0.027543 0.009571 -0.008531 -0.104095 -0.041307 -0.033443 -0.101114 0.050112 0.019894 0.083515 -0.094443 -0.097176 
r 0.099121 -0.016689 0.104825 0.071438 -0.034105 0.095550 -0.072731 0.035369 -0.090183 -0.092272 0.079484 0.048040 0.075984 -0.044483 0.102174 -0.040795 -0.093496 0.112754 0.099161 -0.095281 -0.107109 0.050215 -0.031868 0.067806 0.107663 0.011468 -0.068617 0.012528 -0.049772 0.059040 0.028693 0.033907 0.072322 0.027955 0.113301 0.050142 0.017807 0.114494 0.096267 0.010213 0.077692 0.047508 -0.052019 -0.076602 -0.105867 -0.098201 -0.059555 -0.108944 -0.113836 0.001174 -0.055472 0.032958 0.079214 0.050574 0.079552 0.076620 0.044292 0.017563 0.103715 0.038191 -0.097386 -0.021805 0.055548 0.010302 0.067866 0.030007 0.026615 0.103463 0.088811 0.087970 -0.085698 0.053227 0.010457 -0.091715 -0.055269 -0.122948 -0.045430 0.036028 -0.092227 -0.101297 -0.105257 0.092464 -0.091618 0.010887 0.034802 -0.007150 0.086015 -0.075674 -0.016173 -0.023622 -0.059129 -0.084513 0.103763 0.098073 -0.023962 0.055290 0.084706 -0.023603 0.072618 -0.007226 -0.066804 0.014270 0.103684 -0.063224 -0.041458 -0.027136 0.080382 -0.091404 0.046262 -0.105427 0.020007 -0.009204 -0.100121 -0.108333 0.013035 0.065418 0.012090 -0.102593 -0.009450 0.087317 -0.057267 -0.108048 -0.102302 0.098008 0.072038 -0.076980 0.037997 -0.063819 0.099354 0.111631 0.002515 -0.042960 0.028632 -0.106995 -0.046957 -0.107533 -0.076311 -0.017404 0.107975 0.014061 -0.093542 -0.052309 0.019591 -0.098467 -0.068289 -0.098965 0.023341 -0.055100 -0.015318 -0.000928 0.010493 0.082029 -0.092880 -0.004600 0.003085 -0.118299 0.066265 -0.041977 -0.015514 -0.115540 -0.111476 -0.032553 0.075766 -0.009267 -0.101436 -0.026892 -0.055978 -0.073760 -0.089225 -0.049372 0.036140 -0.051290 0.034995 -0.048506 -0.081570 -0.110209 -0.015268 0.096818 -0.083667 -0.111764 -0.003701 0.056618 -0.049752 -0.089559 -0.097287 0.068390 -0.015219 -0.026262 0.064634 -0.054051 0.070399 -0.088613 -0.062433 0.022622 0.043947 0.110823 0.021698 0.010281 0.057385 0.042576 
