57 200 #File: 11_02_Transactions_Properties_Part_2.txt.bin
</s> 0.099131 0.109451 -0.094860 -0.081184 0.033845 0.074820 0.023301 0.005234 -0.089245 0.054943 -0.107890 0.030946 -0.018608 -0.023706 -0.082118 -0.046614 0.063880 0.074926 0.073532 0.039562 0.038259 -0.094176 -0.101436 0.123078 0.094142 0.076529 -0.014957 0.099452 -0.012259 0.018196 -0.003696 -0.073883 0.032499 -0.033123 -0.094740 0.117742 0.108457 -0.027122 -0.005600 0.012611 -0.090091 -0.099240 0.112803 0.001561 -0.063956 -0.075342 -0.076192 0.042026 0.004988 0.032964 -0.104353 -0.094305 -0.003220 0.028324 0.063147 -0.078509 0.101035 0.022957 0.027730 -0.015067 0.073963 -0.056659 -0.051946 0.053454 -0.018653 0.025527 0.044690 -0.101258 -0.049112 0.072160 0.104807 0.097381 -0.075459 -0.052199 -0.022515 0.049569 -0.093825 0.074246 0.069042 -0.039600 -0.038425 -0.055434 0.104731 0.096882 -0.029219 0.104387 0.119379 0.044959 0.123407 -0.077050 -0.037934 -0.052192 -0.071998 0.069711 0.039113 0.010525 -0.054327 0.037741 0.075769 0.004796 0.056458 -0.122655 0.106863 0.011885 -0.045348 -0.051595 -0.018525 -0.072689 -0.108215 -0.070263 0.105925 -0.043833 -0.066359 0.057392 -0.042196 0.117803 -0.039740 -0.113646 0.067259 -0.001840 -0.086403 0.024167 0.035712 -0.011923 0.045182 -0.098016 0.021820 0.044989 -0.074522 0.003518 -0.001504 -0.059417 -0.070153 -0.116246 0.000567 0.003783 0.000242 -0.097426 -0.122886 -0.117553 -0.107127 -0.013548 0.034457 0.029329 -0.078815 0.123781 -0.049815 -0.031543 -0.034782 0.117206 -0.093213 0.028754 -0.033074 0.078947 0.001005 0.105740 -0.069821 -0.064519 -0.103824 -0.090813 -0.079238 -0.077141 0.060532 -0.046236 0.066374 0.091388 0.033580 0.073075 0.061311 0.057966 -0.087937 -0.085024 -0.090560 -0.003269 0.102298 -0.067776 -0.075792 -0.103926 0.081876 -0.103495 -0.014345 0.053960 -0.114375 -0.110917 0.035734 0.087291 0.105608 0.053137 0.078316 -0.077458 -0.090159 0.098439 -0.068475 0.043424 0.014217 0.044339 -0.029280 0.004924 -0.041758 -0.027900 
the -0.115533 -0.072992 0.103358 0.011688 -0.052076 -0.031546 0.063143 -0.099344 -0.049982 0.120942 0.104965 -0.078653 0.015906 -0.058085 0.000716 0.079497 0.104665 0.071559 0.089228 0.055208 -0.017776 0.104514 0.067853 0.117016 -0.032243 0.098369 0.097338 -0.029258 -0.091914 0.108149 0.010618 -0.055086 -0.025171 -0.007401 -0.096633 -0.037982 -0.016832 -0.109292 -0.066445 -0.019806 -0.015450 0.039817 0.014858 -0.036471 0.066967 0.023169 0.009473 0.087558 -0.021960 -0.052313 -0.006291 -0.068221 -0.063581 0.019919 0.096250 -0.040520 -0.001381 -0.092256 0.093023 -0.048880 0.069498 -0.048528 -0.019256 0.006367 0.074816 -0.014191 0.116190 -0.026290 0.060073 0.010253 -0.084921 0.094678 0.020216 -0.082477 0.070455 -0.096350 -0.117177 0.064999 -0.099428 -0.064458 0.092572 0.079238 0.015905 0.103152 0.124301 0.084638 0.044927 -0.117936 0.070550 -0.117373 -0.019814 0.045128 0.029482 -0.027227 0.067652 -0.105731 0.000213 -0.030123 -0.036873 0.067750 -0.100936 0.069145 0.037597 0.046858 0.101303 0.019756 0.032019 -0.097097 -0.046374 0.105542 -0.044832 0.117923 -0.030860 -0.092825 -0.052946 0.132533 0.091365 -0.104129 0.115449 -0.093038 -0.102906 0.044354 -0.011233 -0.070537 -0.013523 -0.072007 0.055228 0.083152 0.106063 -0.105126 -0.037524 -0.002035 -0.030605 0.094155 0.058713 0.098769 -0.061555 0.039152 0.115922 -0.046369 0.054538 0.031382 -0.107021 0.120440 0.125519 -0.060858 0.013541 -0.040231 0.053933 -0.081316 0.078421 -0.030070 -0.022185 -0.069972 -0.096544 -0.074108 -0.017181 0.107103 -0.046674 -0.119005 0.001651 0.026003 0.065181 -0.009831 0.080412 0.082486 -0.024846 -0.014114 0.024494 0.031865 0.084490 0.093285 -0.055568 -0.053903 -0.041543 -0.070420 0.040444 -0.101616 -0.064640 -0.117346 0.039265 0.099105 -0.060175 -0.101040 0.068882 0.042584 -0.072519 -0.015879 -0.046980 0.002350 -0.048771 -0.003021 -0.072372 0.076172 0.078512 0.087136 -0.048718 0.007482 0.020373 -0.065384 
of -0.110173 -0.026740 -0.044504 0.069230 0.063311 0.044964 -0.074592 0.081857 -0.038315 0.082876 0.035940 0.117190 0.060057 0.016379 -0.049669 0.120364 -0.054588 0.081639 0.115951 0.114102 -0.021174 0.077647 0.109883 -0.050852 0.110682 -0.121898 0.004542 -0.009204 0.101892 -0.104725 -0.036289 -0.037649 0.008290 0.116621 -0.037208 -0.117606 -0.036686 0.100900 0.028401 0.072115 -0.089826 -0.028564 0.014201 -0.056608 0.082955 -0.116517 0.075088 -0.057330 0.075455 0.075636 -0.043138 0.082038 0.009003 0.114402 -0.082119 -0.028241 0.066904 0.102985 0.054323 -0.023794 0.012200 -0.017155 0.043550 0.064347 -0.092569 -0.031893 0.103708 0.005296 0.117390 0.115048 0.021389 -0.109437 0.106608 0.049974 -0.107838 0.086441 -0.118621 -0.053005 0.105276 0.080161 -0.014404 0.029844 -0.071613 -0.112957 0.052804 0.102975 0.098729 0.067328 0.036866 0.048056 -0.002179 0.038287 -0.059050 0.024318 0.019784 -0.002598 0.065214 0.016606 -0.095002 -0.035059 0.052576 0.082150 -0.090329 0.018193 0.088714 0.094184 -0.098397 0.066405 -0.064673 -0.032262 0.031298 0.056554 -0.096362 -0.065006 0.027533 0.005783 0.112593 0.050462 -0.066943 0.000500 0.021261 -0.057667 0.075211 -0.064840 0.116932 0.013736 -0.106962 0.007989 -0.012452 0.020204 0.074090 0.001282 -0.007643 0.008329 -0.067296 -0.006007 0.075699 0.080898 0.049097 -0.120296 0.001977 -0.061732 0.087683 0.103765 0.079173 0.037587 0.034967 -0.041143 -0.055929 -0.050100 -0.093407 0.005796 0.020408 0.029744 0.052890 -0.093474 0.074861 -0.033329 -0.095947 0.093406 -0.066681 -0.017007 -0.097005 0.109733 -0.043280 -0.109977 0.092512 0.040074 0.084430 0.029670 0.090299 0.007903 0.090102 0.103644 0.041339 -0.016270 0.028103 0.091081 -0.074313 -0.012670 0.023767 0.046174 0.011185 0.088496 0.029431 0.078815 -0.078713 -0.046967 0.045960 0.107737 0.034392 0.014138 -0.112176 -0.103119 0.099002 0.057644 -0.070178 -0.037023 -0.092045 -0.082683 
and 0.106627 -0.065391 0.025153 -0.026242 -0.052976 -0.013090 -0.110390 -0.055510 -0.005780 0.106110 -0.044768 0.089158 -0.108578 0.100667 0.015456 0.005901 0.063025 0.079497 -0.076192 0.074047 0.032055 -0.028758 0.074637 0.011916 0.102724 0.004999 -0.039075 0.078653 -0.081760 -0.010772 0.097201 0.112763 -0.097003 0.032844 0.096629 0.012841 0.060751 0.064489 0.113192 -0.022061 -0.025380 0.072895 -0.119764 0.026836 0.008905 0.106887 -0.087709 -0.001962 0.107272 0.035015 0.062886 0.030504 0.033112 0.026286 0.005274 0.082922 0.090636 0.069433 -0.046469 -0.066293 -0.076948 -0.027086 -0.058543 -0.097909 -0.045244 0.086011 0.062945 -0.113328 -0.050863 0.096999 -0.008751 0.086502 -0.029958 -0.005388 -0.059556 0.039629 -0.098954 0.068039 -0.055668 0.065288 -0.073823 -0.054535 0.096805 0.062075 0.049191 0.036262 0.071116 -0.011322 0.093570 0.088798 0.081342 0.104239 -0.057113 -0.088468 -0.079082 0.006899 0.021537 0.094109 -0.075899 0.075983 0.092910 0.084441 0.004511 0.029815 -0.019512 0.111626 -0.104507 -0.112829 0.048575 -0.015877 0.111578 -0.032712 0.000469 0.051212 0.025564 -0.071604 0.080293 0.001170 0.031799 -0.030453 0.111527 0.063095 0.103993 0.109520 -0.022255 0.045446 0.035584 -0.053544 0.103340 0.057139 -0.079537 0.100043 0.011340 0.026814 -0.087386 0.048241 0.005956 -0.056794 -0.014253 0.050192 -0.029239 0.095503 -0.066700 -0.055598 0.089785 0.111890 0.089528 0.110195 -0.113947 -0.078991 -0.112678 0.025531 -0.095858 -0.007676 0.021485 -0.050449 0.027625 -0.106073 0.045090 -0.038874 -0.040198 -0.024900 0.052030 -0.041148 -0.055206 -0.075881 -0.044078 -0.098583 0.046447 -0.029917 -0.029158 0.047962 -0.092029 -0.078551 -0.109774 -0.003371 -0.046242 -0.112865 0.048333 -0.113621 -0.052800 0.036145 0.118415 -0.083737 -0.047856 0.116848 0.074182 0.105061 0.092528 -0.062295 -0.050563 0.050911 0.071652 0.088358 0.078437 -0.107225 -0.106729 0.016721 -0.105930 0.070071 
a 0.089558 -0.047615 0.111006 -0.130923 0.105076 -0.057824 -0.014993 -0.125329 0.078687 0.105367 -0.085194 -0.014510 0.022107 0.101584 -0.000174 -0.107957 0.002817 -0.017987 0.018295 0.077505 -0.081965 -0.055893 -0.004630 -0.016271 -0.036369 -0.086480 -0.003601 -0.089390 0.105648 0.054889 -0.037744 0.058262 -0.075174 -0.099891 0.097091 0.017816 0.056744 -0.072134 -0.018759 0.090273 -0.026980 0.014616 -0.116971 -0.117899 0.113567 -0.120226 0.027712 -0.071316 0.093642 -0.029927 0.111605 -0.086426 0.032299 -0.093633 -0.081844 -0.029969 0.102862 -0.060575 0.061612 -0.022075 0.082829 0.068250 -0.067730 -0.081190 0.006979 0.014397 0.033069 0.005144 0.063077 0.103502 0.101011 -0.120504 0.107926 -0.104724 0.010462 -0.088618 -0.034026 0.099131 -0.080420 0.032954 -0.045029 -0.019133 0.078989 0.056729 -0.090762 0.034801 -0.006397 0.027455 0.034545 -0.090653 0.018655 -0.091571 0.075650 0.030811 0.035703 0.062659 0.148318 0.108475 0.062997 0.067128 0.053543 -0.015949 0.116318 -0.016477 0.056703 -0.010166 0.052655 -0.008575 0.076031 0.075994 -0.009687 0.006872 0.051986 -0.076416 -0.039507 0.054210 0.043022 -0.112197 -0.032798 -0.034811 -0.047612 0.074525 0.099702 -0.111688 0.073120 -0.069227 0.039935 0.047230 0.002161 -0.089842 0.017083 -0.042520 0.046360 0.064650 0.028834 -0.070003 -0.009487 0.007461 -0.036760 -0.105368 -0.015801 -0.061920 -0.067944 0.030471 -0.046009 0.065289 -0.024892 0.078598 -0.083914 -0.031692 0.050433 -0.063866 -0.103393 -0.038291 0.079792 -0.035627 0.110782 0.043235 -0.053886 0.110110 -0.120733 -0.080828 0.068689 -0.085612 0.086926 0.104979 0.071780 -0.036655 -0.060847 0.000125 0.005831 -0.114591 -0.086156 0.021171 0.010881 0.110234 0.084040 -0.096085 0.086870 -0.033876 0.068547 -0.025294 0.040592 0.006331 0.094904 0.067027 -0.059734 0.107221 -0.113943 0.110116 -0.049349 0.013701 0.017376 0.093894 0.042583 -0.017756 -0.129090 0.090650 0.012352 0.061146 
that -0.100856 -0.062049 -0.052322 -0.062014 0.076940 0.062166 -0.005487 0.047100 -0.010794 -0.030938 -0.096470 -0.062849 0.003839 -0.058668 -0.060259 -0.097582 0.068815 0.108098 -0.039962 0.083157 -0.050657 -0.115494 -0.114676 -0.008771 -0.048140 0.000119 -0.089884 0.091251 -0.048309 0.028743 0.081951 -0.007425 -0.115850 0.075961 0.017029 0.076536 0.014257 0.059113 0.109223 0.066244 -0.080628 -0.028689 0.073321 -0.040532 -0.050234 0.103358 -0.035342 0.108177 0.066749 0.085862 0.110216 -0.096391 0.024221 0.100423 -0.062284 0.034485 -0.114866 0.108383 -0.086819 0.036997 0.017591 -0.064146 0.058956 0.001266 -0.117568 -0.081208 -0.003291 0.047224 -0.024644 0.009836 0.111368 -0.092275 0.095722 -0.073265 -0.098415 0.077404 -0.093311 -0.018378 -0.121877 -0.087653 0.074517 0.040582 -0.090248 0.032654 0.107959 0.020075 -0.105339 -0.085026 0.081615 -0.077188 0.051161 0.073615 0.107977 0.032399 -0.075671 0.084572 -0.087395 -0.030571 0.101603 0.094552 -0.053425 -0.087071 0.013053 0.063216 0.060113 0.088190 0.110337 0.026928 -0.121942 0.070516 -0.061678 0.038495 0.092924 -0.055228 0.089324 0.004406 -0.031898 -0.097480 -0.018317 0.121149 0.044095 -0.069598 0.077906 -0.071945 -0.032503 0.074793 -0.072929 -0.002693 -0.067361 -0.030632 0.110188 -0.022496 -0.072849 0.011266 0.049014 0.062276 0.033626 -0.045345 -0.031212 0.041622 0.109084 0.088823 -0.111012 -0.006510 -0.104388 0.045171 -0.074287 0.035756 0.076437 -0.010898 -0.036382 -0.090630 0.023501 -0.105577 0.004435 0.110004 0.087504 0.085397 0.069458 -0.011157 -0.028159 -0.069890 0.001521 -0.069280 -0.070233 0.070026 -0.020405 -0.102632 0.018997 0.018954 -0.042893 -0.102039 -0.118308 0.073623 -0.027698 0.013966 -0.053806 0.091407 -0.118955 -0.088654 -0.037575 0.014577 0.080473 0.022343 0.015564 0.064790 0.057733 -0.116131 -0.027841 0.049498 0.093663 0.057729 0.030058 0.070384 0.033208 -0.031197 -0.059452 0.076132 0.043195 0.043253 
in 0.020950 0.038311 0.085661 0.068903 -0.101412 0.012189 -0.049277 -0.121676 0.008213 0.105253 -0.013011 0.102144 0.112461 0.002794 0.099250 -0.035902 0.028320 -0.060543 0.016695 -0.027744 -0.117845 -0.038245 0.022881 -0.038419 0.109702 -0.061903 -0.034264 0.073906 -0.023908 0.041252 0.002560 0.025459 0.038304 0.013373 0.107536 0.074302 -0.067282 -0.096521 0.069223 0.062920 0.092563 0.067460 -0.016953 -0.119367 0.027962 -0.054389 0.003803 -0.018847 0.053409 0.012559 0.110685 -0.107423 0.047769 0.077342 0.087241 -0.062651 -0.043206 0.000850 0.031403 0.014816 0.023077 -0.039134 0.100471 0.081185 0.073634 -0.060479 0.023636 -0.087948 -0.015177 -0.006644 0.079443 0.077360 -0.055118 -0.016740 0.115817 -0.016036 -0.038562 0.084508 0.050080 0.078057 0.093966 0.039254 0.093888 -0.109758 -0.016141 -0.100977 0.043320 -0.009538 0.061840 0.017197 -0.011211 0.030563 0.085530 0.076560 0.092608 -0.030738 0.121925 0.066763 0.076449 0.069632 0.049890 0.036828 -0.018619 -0.075848 0.060168 0.100154 -0.102181 -0.085366 -0.092124 -0.065487 -0.014430 0.004805 -0.092494 0.022050 -0.028683 -0.034750 -0.064583 -0.080709 -0.108881 0.120917 -0.060132 -0.012862 0.085393 -0.118832 -0.081541 -0.096638 -0.023536 -0.065318 -0.059307 -0.097393 0.023487 0.059562 -0.112060 0.036399 0.022538 0.090772 -0.056575 -0.076858 0.064033 -0.074847 0.117281 -0.016895 0.060278 0.008897 -0.020999 -0.041561 -0.012036 0.115095 -0.097556 -0.104341 -0.121865 0.081217 0.075851 -0.089327 0.073717 0.049096 0.011850 -0.071250 -0.002968 -0.022554 0.019922 -0.060457 0.107236 -0.118157 -0.016056 -0.010436 -0.044586 0.092251 0.089649 -0.052776 0.119459 0.010510 0.094657 -0.014710 0.029212 0.087826 0.065964 0.090909 -0.103670 0.097291 -0.115060 0.070614 0.004370 0.118860 -0.017689 0.035301 -0.043734 0.051881 0.120709 -0.092268 -0.090681 0.095047 0.114620 -0.072434 0.085211 0.026460 0.095418 -0.103676 0.025002 -0.076427 
to -0.009091 -0.076419 0.098091 -0.086119 0.089513 -0.049630 -0.103732 -0.018283 -0.068065 -0.048293 -0.039890 -0.069275 -0.113549 -0.047160 0.022303 0.002179 -0.103768 0.139487 -0.030468 -0.131396 -0.019897 0.091852 -0.026055 0.052169 -0.015992 0.101889 -0.046067 0.008776 -0.008027 -0.007458 -0.023162 0.058173 -0.073263 0.109165 -0.089066 -0.091958 0.081345 0.102274 -0.091139 -0.001329 0.047077 -0.030758 -0.125873 0.015964 -0.101746 0.020162 -0.068006 -0.056876 0.083630 -0.123383 -0.098755 0.032325 -0.100901 -0.004644 -0.093918 0.058339 0.107757 0.007610 -0.023453 0.040695 0.123303 0.072074 0.077737 0.067253 -0.127181 -0.020380 -0.079061 -0.018438 0.129769 -0.020519 0.032814 0.043205 -0.076366 -0.036681 -0.044041 0.014996 -0.096215 0.060674 -0.044545 -0.044499 0.052104 -0.108646 -0.057873 0.020864 0.055195 0.050765 -0.003572 -0.090234 0.022301 0.097430 0.112105 -0.062838 0.039188 0.081762 0.078011 0.115077 0.128580 0.068066 0.019602 -0.106549 -0.070709 0.030551 0.060662 -0.068772 0.096669 -0.055417 -0.050879 0.064685 -0.059314 0.100508 -0.079072 0.078896 0.007420 0.061884 -0.111148 0.106385 0.001511 0.082149 -0.024767 0.107407 -0.079674 -0.098938 -0.087936 -0.114535 -0.040060 0.031011 -0.024660 0.008050 0.068992 0.102630 0.038786 0.106453 -0.043197 0.052257 -0.016623 -0.090102 0.004502 0.068876 0.055902 -0.066465 0.000570 0.010781 -0.004070 0.013526 0.017112 -0.033098 -0.017573 -0.024849 -0.092036 0.098327 0.066363 0.107136 0.085681 -0.101196 0.084486 -0.072659 -0.074884 -0.036085 0.019222 -0.024115 0.040437 0.114699 -0.074729 -0.086840 0.041598 0.031655 0.039166 -0.025912 -0.063779 -0.059269 0.047136 -0.112011 0.096333 -0.085670 -0.035522 -0.012065 0.006299 0.029602 -0.079909 -0.053574 0.095595 0.039760 0.065577 -0.032857 0.022689 -0.107448 -0.109794 0.042432 0.085775 0.088499 -0.093966 0.019112 0.039652 0.039992 -0.036398 0.069322 -0.139511 -0.044303 -0.011380 0.090375 
is -0.118803 -0.007220 -0.071885 -0.085979 -0.057623 0.008146 0.078078 0.078386 0.007586 0.098663 0.044310 0.001174 0.080619 -0.050500 -0.017669 -0.116576 -0.016802 0.034801 0.108349 -0.013139 0.083257 -0.081645 -0.029019 -0.094381 0.081138 -0.047077 -0.092184 0.022807 -0.019366 0.066436 0.074374 0.053938 0.088991 0.004753 -0.041421 0.017977 0.045859 0.059946 0.080093 -0.005419 0.037102 0.099255 0.048222 -0.118666 0.066513 0.050611 0.018484 -0.120725 -0.044184 -0.097366 -0.035672 0.007368 0.072944 -0.052604 -0.080108 0.102508 0.118240 0.052137 -0.019996 0.062280 0.095496 -0.097974 0.057423 0.087720 0.069195 -0.028793 -0.117165 -0.044966 -0.078249 0.066228 -0.024100 -0.013361 0.081790 0.054330 -0.054075 0.080119 0.067580 0.106205 -0.051571 -0.049011 -0.056393 -0.032290 -0.043140 0.103737 0.077804 -0.069081 0.005356 -0.110264 -0.072248 0.105834 -0.054015 -0.065147 -0.017232 -0.065139 -0.065736 -0.045396 0.064572 -0.107857 -0.056356 -0.032045 0.055579 0.026993 0.008260 0.054560 -0.101111 -0.036113 -0.019818 0.112005 0.083820 0.116280 0.014928 0.098566 -0.053430 -0.012732 0.085946 0.033209 0.097837 0.111687 -0.015387 -0.004412 -0.004801 0.114013 0.048518 -0.116710 -0.114787 -0.077823 -0.052341 -0.102648 0.075122 0.010324 -0.101756 0.056738 -0.038183 -0.057760 -0.065587 -0.044418 -0.026078 0.070688 -0.091769 -0.023007 0.115232 0.080838 -0.024781 0.079245 -0.035294 -0.038691 0.108823 0.038543 -0.109720 0.004175 0.100422 -0.065458 0.077819 0.076674 0.044844 -0.092410 0.045592 0.106738 0.097607 -0.084038 0.100844 0.082986 -0.010602 -0.021377 -0.116773 0.054730 -0.002882 -0.067532 0.064128 -0.110790 -0.027167 -0.082157 -0.080945 -0.000122 0.072062 -0.106975 -0.001985 -0.110168 0.025493 0.119740 -0.059342 0.093906 0.110024 -0.050641 -0.067151 -0.006182 -0.065039 0.007753 -0.021618 0.003019 -0.101415 0.010435 -0.101022 0.110131 -0.025656 -0.023629 0.062572 -0.121059 -0.046385 -0.014784 
t -0.071415 -0.095481 -0.066385 -0.065082 -0.019335 0.117534 0.061332 0.023756 0.045777 0.015970 0.080584 0.036238 0.006764 -0.104428 0.016479 0.042289 0.045227 0.108497 -0.039936 -0.060126 -0.075670 0.096586 0.079352 -0.061695 -0.045370 0.089208 0.096160 0.050391 0.014125 -0.100651 0.045582 0.112979 0.045763 0.119005 0.028216 0.026229 0.056790 -0.055124 -0.050536 -0.007151 0.111172 0.095580 0.027276 0.023883 0.085886 -0.106760 0.051911 -0.035589 -0.067614 -0.066025 -0.116018 -0.050570 -0.112362 -0.096576 -0.087906 -0.057448 0.026023 0.025822 0.109955 -0.041955 -0.018098 0.120612 0.032976 0.077307 -0.059316 0.041172 0.014829 -0.048465 -0.093162 -0.030126 -0.029964 0.032549 -0.055531 -0.112864 0.109496 0.089776 -0.061065 0.089886 -0.012123 -0.035663 0.075945 -0.042160 -0.058336 0.032829 0.109549 -0.095760 0.121967 0.021817 0.112665 -0.079755 0.018554 -0.060309 -0.035963 0.051770 -0.086448 0.112094 0.093330 -0.077960 -0.099493 -0.046080 0.017256 -0.051134 -0.116057 -0.094930 0.041516 0.120889 0.085925 -0.010334 0.049709 -0.001817 0.057606 0.038689 -0.009951 -0.064455 -0.110114 -0.046396 0.105236 0.102417 -0.019516 -0.065655 -0.027806 0.005124 0.065172 -0.002773 -0.039920 -0.066614 -0.068147 -0.017213 0.012852 -0.001793 -0.082700 0.030579 -0.107071 -0.117125 -0.066475 0.100235 -0.094708 0.062181 -0.040631 -0.036750 -0.066617 0.101196 0.021261 -0.051052 -0.076787 0.110466 -0.020633 -0.053392 0.114107 0.012984 -0.020039 -0.078700 0.089016 0.046341 0.006597 -0.110351 -0.027605 0.015602 0.087449 -0.070031 -0.046071 0.029834 0.072564 -0.059643 0.033527 0.016740 -0.119449 -0.114848 0.029877 -0.040770 -0.031956 0.014938 0.075808 -0.079732 -0.120431 -0.068272 0.110137 -0.003544 -0.040759 0.018294 -0.108529 -0.119666 0.113940 -0.013791 -0.024940 0.046259 0.080607 0.100010 0.002005 0.052685 -0.111251 -0.047687 -0.094453 0.015603 -0.122212 -0.072061 -0.058555 0.101656 -0.039536 -0.016404 
we -0.072548 0.052526 0.113568 -0.103002 -0.009408 -0.060414 0.113680 -0.011677 0.069312 0.085413 0.079028 -0.071264 -0.067249 -0.055950 -0.092551 -0.111045 -0.119449 0.003875 0.046869 -0.104227 0.036627 0.045900 0.076485 0.050768 0.114342 -0.049630 0.060807 -0.007348 0.112360 -0.104206 -0.068133 -0.078159 0.081094 0.111694 -0.093427 0.097023 -0.080971 -0.096152 0.010085 -0.107340 0.049772 0.116809 0.085857 -0.103130 -0.014498 -0.040111 0.061888 0.095666 0.040495 -0.098642 -0.084365 0.020286 0.098526 -0.006827 -0.089433 -0.019197 0.102882 0.090108 -0.093600 -0.113019 0.049262 -0.099421 0.044882 -0.063120 0.004872 0.107442 0.082779 -0.106875 0.104939 0.068030 0.030956 0.093661 0.035539 0.107864 -0.006022 -0.045792 0.048770 -0.066289 -0.117042 -0.091878 -0.014509 0.007666 -0.080919 -0.031101 -0.064774 -0.112648 -0.110829 -0.012086 0.103504 -0.056521 0.116548 0.097302 0.006355 0.088135 0.050883 0.018111 -0.033366 0.066281 -0.090100 -0.000080 0.068654 -0.055548 -0.051737 -0.108163 0.051355 0.068069 0.034691 0.083650 -0.102553 0.108539 0.076265 0.035580 -0.072882 0.060765 0.047203 0.002298 0.028112 -0.010821 -0.012430 0.071347 0.114896 -0.016799 -0.016533 -0.094891 -0.024439 -0.013750 -0.048150 -0.059660 -0.089346 -0.019771 0.110626 -0.048312 0.037584 0.020316 0.001820 0.019158 0.065319 -0.038464 -0.023894 0.044819 -0.010023 -0.013810 -0.071382 -0.006109 -0.102068 0.075589 0.087754 0.100612 -0.117304 0.036540 -0.011571 -0.011267 -0.091685 -0.018394 -0.005802 0.025035 -0.034745 0.087234 -0.002390 -0.066201 -0.117713 0.094847 -0.032744 -0.029594 0.031704 0.049976 -0.044881 -0.022214 0.103966 0.059248 0.045004 0.080368 0.114528 0.063479 -0.090727 0.016915 0.115486 0.037373 0.003822 0.038537 -0.007351 0.040282 -0.113702 -0.018296 -0.055147 -0.054060 -0.114487 -0.013573 -0.037750 -0.095639 -0.083350 0.000558 0.103431 -0.086877 -0.047554 0.067694 0.030274 0.033404 0.035459 0.004256 
transaction -0.088292 0.113116 0.017352 -0.045653 0.001751 0.094046 0.027753 -0.116834 0.110999 -0.031357 0.065549 0.058745 -0.106179 0.003475 -0.078576 0.052892 0.002930 0.101600 -0.078641 0.006229 -0.025597 -0.082937 -0.007089 -0.083738 0.115959 -0.067102 0.080972 -0.003632 0.059684 -0.029762 0.011109 0.105818 -0.020795 -0.112030 0.103157 -0.090101 -0.096867 0.083724 0.044409 0.074201 -0.111677 0.077509 0.016307 -0.107812 0.039776 -0.080730 0.085385 -0.049353 0.079598 -0.048632 0.090775 -0.117309 0.015297 0.121921 -0.054675 -0.109295 -0.104053 -0.084944 0.112466 -0.005849 0.084301 0.103540 -0.105273 0.047102 0.059331 0.078332 0.109511 -0.068063 0.066205 0.029132 -0.048738 0.087094 -0.093832 -0.093332 0.110590 0.062287 -0.044360 0.027150 -0.096466 -0.070227 -0.066360 0.018441 -0.082930 0.060638 0.059511 0.032943 0.043897 -0.058246 -0.067001 0.077244 0.032297 0.083602 -0.096835 -0.043157 -0.097966 0.061909 -0.060991 0.004504 -0.003626 0.028131 -0.001162 -0.072434 -0.004811 -0.062287 -0.047000 -0.054691 0.100382 0.063983 -0.108744 0.110566 0.101575 -0.009924 0.030813 0.033080 0.114241 0.086882 0.119642 -0.088362 0.034436 0.080213 -0.023894 -0.039435 0.080031 -0.007801 -0.037368 -0.010834 0.044380 -0.086332 0.037296 0.112405 0.027628 -0.032594 -0.057111 0.017000 -0.064742 0.105154 0.007143 -0.076072 -0.015195 -0.105218 0.082151 -0.115102 -0.040059 0.114248 -0.076942 0.009794 -0.022865 -0.068470 -0.048510 -0.009754 -0.078672 0.041014 0.036926 0.034727 0.029003 -0.013743 0.045906 -0.005732 0.086800 0.072897 -0.082620 -0.046822 -0.059159 -0.030122 -0.092120 0.065042 0.004381 0.115474 0.074923 0.097058 -0.006548 0.041240 0.059807 0.094612 -0.054173 0.062931 0.051179 -0.073577 -0.047359 0.095256 0.039644 0.008646 -0.060556 0.086854 0.110846 0.078215 0.101604 0.053549 -0.108183 -0.048380 0.015577 0.074547 0.055175 -0.038988 -0.002353 0.064461 -0.115706 0.062788 -0.028267 -0.044095 
database -0.084512 -0.011625 -0.101504 0.025170 0.042044 0.029298 0.069293 0.109849 -0.044483 0.053979 0.083247 0.102652 -0.091982 -0.011276 0.099383 -0.039086 -0.034514 0.070130 0.090550 -0.047737 0.007682 0.100387 0.091656 -0.090084 -0.023575 -0.056260 -0.048567 -0.022617 0.123829 0.022965 0.077142 0.112000 0.019363 0.078191 -0.054839 0.084925 0.039256 -0.088395 0.086868 -0.022389 -0.122905 -0.116076 0.102762 -0.066434 0.033226 -0.078547 -0.096368 -0.089872 0.077119 0.012556 -0.041203 -0.073312 -0.111466 -0.040578 0.054930 0.064699 -0.094239 0.122765 0.040764 -0.028798 -0.115557 -0.067577 0.075323 0.100001 -0.109481 0.121462 -0.116777 -0.025980 0.051983 -0.004398 -0.004159 -0.077054 0.062422 -0.084441 0.013674 0.090289 -0.074286 0.055873 0.095747 -0.063085 -0.043968 -0.091561 -0.033325 -0.021314 0.033135 0.020147 -0.090399 0.048820 0.098845 0.007011 0.021492 0.042593 -0.091194 0.043571 -0.035097 -0.082660 0.025423 0.118189 -0.039082 -0.059313 0.080225 0.033056 0.044446 -0.054146 0.015030 -0.099349 0.064218 0.076350 0.081952 -0.104485 -0.068975 0.041275 0.098694 0.006011 0.114186 0.108258 -0.054983 0.034328 -0.096095 0.110515 0.059210 0.092948 -0.106383 -0.056676 -0.051317 0.108175 -0.005886 0.060487 -0.072392 0.068373 -0.069990 -0.015071 0.123981 0.023965 -0.015553 0.046336 -0.016848 0.087433 0.006159 -0.108250 0.005470 -0.063153 -0.094065 -0.025026 0.008636 0.057040 -0.095141 0.067168 0.120648 0.001966 0.037840 0.001549 0.035090 -0.115894 -0.094626 -0.078373 0.004076 -0.122000 -0.085278 0.032972 0.093543 -0.027988 0.038734 0.106743 -0.064983 -0.031669 0.064081 -0.023844 -0.033211 -0.020564 0.087732 0.032957 -0.055498 -0.068365 0.020477 -0.013753 -0.065907 0.061525 0.083399 0.103652 0.063559 -0.076941 0.063172 -0.029844 0.026484 -0.123045 0.056763 -0.022496 0.074982 0.097751 -0.025037 0.083031 0.026757 0.077342 0.038855 0.057896 0.009803 0.114387 0.035113 -0.016450 
at -0.033100 0.071070 0.058993 0.003405 -0.098108 -0.116738 0.025672 0.072977 0.119826 0.018917 -0.092226 -0.029666 0.021365 0.044552 -0.019532 0.015876 0.032452 0.069480 0.096746 0.107830 -0.084385 0.022083 -0.071332 -0.036513 -0.023824 -0.108949 -0.067665 0.084182 0.097283 -0.033369 -0.099573 0.066587 -0.018847 0.116892 -0.072819 0.050169 0.114040 0.028974 -0.074100 -0.006534 0.077538 -0.067191 0.111441 -0.084676 -0.003961 0.118645 0.035243 -0.105098 0.054244 -0.027936 0.032784 0.071667 0.014680 -0.096065 0.017367 -0.078329 -0.058573 -0.097051 -0.037392 -0.053755 -0.041125 0.018107 -0.097570 -0.016694 0.010484 0.117481 -0.068932 -0.068921 0.100022 -0.111790 -0.038173 -0.010657 0.050328 0.042711 -0.031679 -0.064297 -0.014209 -0.093738 -0.015527 0.090558 0.091114 0.070658 0.104520 0.110892 -0.112420 -0.018203 0.000523 -0.044758 -0.078245 0.110855 -0.112663 -0.116303 0.076787 0.024350 0.040131 -0.024586 0.054892 0.072837 0.070654 -0.112622 0.101082 -0.056545 -0.107789 0.060609 0.038195 0.107380 -0.039100 0.031469 -0.009379 -0.110112 0.069403 0.120360 -0.098182 -0.117224 0.070713 -0.015737 0.016800 0.014426 0.119377 0.064202 -0.082839 0.032287 -0.052234 -0.103464 -0.031466 -0.014640 0.072289 0.042910 0.114378 -0.017040 0.104697 -0.080936 0.117220 -0.046532 -0.041707 -0.033980 0.041140 -0.114426 0.089178 -0.038618 0.010528 0.069524 0.048789 -0.015692 -0.031157 -0.109096 -0.068637 -0.066977 -0.080144 0.001822 -0.108555 0.007307 -0.072355 -0.091515 -0.097350 -0.015236 0.116602 -0.098863 -0.001097 -0.055448 -0.052301 0.089093 0.033196 0.026139 -0.092807 -0.081753 -0.081168 -0.053180 0.059162 0.101020 0.111912 -0.033317 0.045513 -0.037315 -0.077369 -0.076356 0.050946 0.095042 -0.072289 -0.042829 0.079231 -0.056015 0.040455 0.025801 -0.046794 -0.019307 -0.006766 -0.092862 0.038504 0.012924 0.061216 -0.078418 0.037341 -0.091250 0.097394 -0.032640 -0.046514 0.079036 0.015070 0.003007 
will 0.082711 0.030262 0.046139 0.040390 0.093931 0.052332 -0.063269 -0.070362 -0.090381 0.016975 0.064911 0.062987 0.009118 0.074923 0.080839 0.126499 -0.012477 0.026564 -0.026377 -0.106437 -0.034584 0.078934 0.023801 -0.018120 -0.093412 -0.082630 0.054965 -0.010044 0.018158 -0.050554 0.000038 -0.110472 -0.106785 -0.073209 0.076971 -0.041345 -0.082996 0.097469 0.086215 0.034102 0.023980 -0.112125 0.084651 -0.023511 -0.040607 -0.073405 0.016173 0.051678 0.054515 -0.024171 0.099855 -0.029423 -0.070945 0.107237 0.106666 0.097324 0.016594 -0.102094 -0.089081 0.065490 0.090143 0.027739 -0.101734 0.102569 -0.043976 -0.017924 0.036180 -0.053139 0.006648 0.101679 0.119148 -0.048335 -0.096138 -0.054086 0.004256 -0.001641 -0.084487 -0.026456 0.077977 0.046139 0.126961 -0.069461 0.112346 -0.114962 -0.091980 0.070365 0.095858 0.051617 -0.067656 0.056570 -0.092886 0.012170 -0.048410 0.056495 -0.084688 -0.095765 0.061351 0.029061 0.113895 0.017393 0.102370 0.051401 0.055980 -0.058609 0.059416 -0.015153 0.070899 0.087535 -0.111352 0.008298 0.059102 -0.095530 -0.032623 0.054527 0.027342 0.119643 0.125332 -0.005542 -0.020965 0.101623 0.068903 -0.067051 0.022540 -0.010246 0.043328 0.016385 0.066769 0.010402 -0.098875 0.017936 0.097780 -0.083177 -0.042900 -0.041404 -0.110855 0.022121 -0.028272 -0.043803 0.027301 -0.003083 -0.111250 -0.056834 -0.076588 0.055763 0.080331 -0.087539 0.083548 -0.075845 0.115287 -0.099402 -0.004905 -0.035290 -0.007238 -0.004008 0.042685 0.074952 -0.067275 -0.033916 0.126939 -0.042850 0.000256 -0.027649 -0.037294 -0.114641 0.090728 0.071666 0.088751 -0.062225 -0.100576 -0.112643 0.106794 -0.001112 -0.093528 0.095451 -0.076914 0.024115 -0.047066 -0.060916 0.001521 0.058119 -0.120218 -0.027526 -0.097610 -0.075457 -0.074808 0.049257 -0.053929 -0.011883 0.052002 0.097285 0.056954 -0.008040 -0.120374 0.097813 -0.037284 -0.050832 -0.023518 0.117221 -0.052351 -0.080141 
so 0.080898 0.017157 0.093116 0.062625 -0.071806 -0.036907 0.059020 0.090772 0.076165 -0.055575 0.089652 0.034132 -0.089373 0.008673 -0.046434 -0.054295 -0.126023 0.042461 -0.000584 -0.026976 -0.032122 -0.065307 -0.095447 0.100038 0.026626 -0.053007 0.113364 0.072008 -0.096538 -0.112795 -0.067871 -0.019743 0.042378 0.107968 -0.043909 -0.033287 -0.037329 0.028451 0.094485 -0.001854 -0.021377 -0.107926 0.055789 0.064671 -0.045261 -0.000435 -0.108155 0.038961 0.095567 -0.031972 -0.050547 0.037610 -0.101643 -0.017749 -0.125970 0.028605 -0.067793 0.004138 -0.091737 0.025956 0.075794 0.109263 0.071758 0.119650 0.020616 -0.111701 -0.026306 -0.055717 0.026206 0.045850 0.012153 -0.035065 -0.109751 0.036567 -0.082842 -0.053094 0.009538 -0.057159 -0.032056 -0.029383 0.077945 0.112824 0.026151 -0.067783 0.090382 -0.030497 -0.006083 0.037105 0.112472 0.008874 0.089666 0.069915 0.020367 0.029918 0.094981 0.088572 0.024442 -0.112954 0.121967 -0.000404 0.096126 0.014332 0.073457 0.009075 0.079708 -0.093610 -0.080038 -0.101805 0.081368 0.103587 -0.057895 -0.015465 0.075770 -0.042290 0.001766 -0.088596 0.045114 -0.086927 -0.004640 -0.114316 0.049844 -0.037861 -0.092599 -0.070869 -0.024346 -0.104593 0.013298 -0.116982 0.023187 0.081184 -0.080666 -0.113200 -0.071297 -0.058998 0.024743 -0.109418 0.026115 -0.040714 0.062340 -0.077636 -0.071318 -0.056708 0.054390 0.070862 0.096375 0.010599 0.120156 -0.048180 0.008511 0.072651 -0.107451 0.047007 0.006985 -0.130090 0.119132 -0.126612 -0.045320 -0.023036 0.074648 0.008774 0.040345 -0.013593 0.093550 0.094013 0.031831 0.071984 0.115644 0.103129 -0.007887 -0.027328 0.089321 0.032484 0.040184 -0.001577 0.058781 -0.026253 0.125013 0.001359 0.114143 0.079318 -0.007245 -0.075217 -0.069068 0.047794 -0.024340 -0.005446 -0.033472 -0.102133 -0.063612 0.007339 0.013033 -0.038000 0.076429 0.078801 -0.079460 -0.104401 -0.104088 -0.102274 0.095601 -0.114671 
have -0.033518 -0.066419 0.012643 -0.034742 -0.095428 0.005121 -0.054834 -0.034904 -0.086506 -0.041013 0.014553 0.036421 -0.000971 -0.019596 0.116970 0.126308 -0.037856 0.060884 -0.041818 -0.003777 -0.059840 -0.012724 0.110068 -0.006136 -0.120314 -0.119766 -0.119831 0.009837 0.036082 -0.072469 -0.033499 -0.000528 -0.039414 0.112429 0.077528 -0.020639 0.048648 -0.038905 -0.016566 0.042227 -0.019501 0.123796 0.051434 0.067420 0.014194 -0.007539 -0.077432 0.021222 -0.035343 0.082664 0.101599 -0.082172 -0.036345 -0.076425 0.089474 0.107486 -0.047600 -0.109174 -0.007271 -0.046109 -0.069333 -0.085638 -0.017680 -0.063570 -0.025640 -0.025560 0.027542 0.074853 -0.051136 -0.130684 -0.096022 -0.065638 0.058770 -0.025380 -0.026709 -0.075471 0.049030 -0.046086 -0.117622 0.003077 -0.016012 0.053990 0.124441 -0.076477 0.001269 0.067401 -0.048844 0.041666 0.041780 0.114497 -0.012434 -0.020819 0.105600 0.114119 -0.116732 -0.045223 0.002099 0.055082 0.126064 -0.009250 0.126576 -0.009385 -0.029671 -0.092113 -0.104121 0.044074 0.041107 0.120853 0.097830 0.128596 -0.014857 0.063468 0.020288 -0.022285 0.032410 0.013306 0.055700 -0.100058 -0.041355 0.059935 -0.115401 0.024183 -0.129769 0.088713 0.031120 0.000044 -0.069977 0.057213 0.043956 0.082570 0.109713 -0.011965 0.057726 0.064313 -0.075492 -0.034653 0.007786 0.057523 -0.000549 -0.122945 -0.094530 -0.008006 -0.024264 -0.055584 0.073254 0.114519 0.091740 -0.079206 0.126949 -0.051587 0.117493 -0.106792 0.007614 -0.116584 -0.101297 0.015797 -0.023842 0.101747 0.125285 -0.019795 0.105331 0.065157 -0.021662 0.066709 0.005542 0.087558 0.024495 0.107049 -0.121469 0.026071 0.100751 -0.021974 -0.012094 0.068471 0.114988 -0.093399 -0.120493 -0.062814 0.033345 -0.090329 -0.048516 -0.050869 -0.099361 0.074102 -0.118785 -0.038721 0.075834 0.027122 -0.061987 -0.110535 -0.060708 -0.015566 -0.080008 -0.005561 -0.004377 -0.031359 -0.029824 0.060349 0.009457 0.063755 
case 0.021789 -0.050168 0.081211 -0.094507 0.079590 0.088808 -0.117121 -0.045409 -0.032890 -0.023021 0.114871 -0.017862 0.051911 -0.093878 0.083742 0.067708 0.034637 -0.013873 -0.115774 0.108991 -0.080922 -0.097519 -0.085800 0.064303 0.012167 -0.113668 -0.095376 -0.047407 -0.046079 -0.013059 -0.110400 0.095950 -0.069984 0.071682 -0.036139 -0.092967 -0.055759 0.068559 0.040254 0.071704 0.061014 -0.033797 0.092253 -0.118634 -0.079649 0.056392 -0.088553 -0.099377 -0.049557 -0.036017 0.077599 0.027165 -0.087435 0.102011 0.018525 -0.023206 0.113650 -0.025922 -0.049786 0.010972 -0.048802 0.114475 -0.093230 -0.033242 0.095917 -0.094455 -0.017074 -0.015642 0.066564 0.002838 0.091528 0.022088 -0.072441 -0.090044 -0.036465 0.098896 0.046463 -0.081326 0.118083 0.051840 -0.118593 -0.103632 -0.077644 0.021126 -0.078791 0.013555 0.016748 -0.034929 -0.012226 0.016352 -0.110297 -0.097378 -0.036368 -0.045979 0.060355 -0.086647 0.034459 -0.063549 -0.104110 -0.105046 -0.038470 -0.108354 0.036701 0.048258 0.051777 0.050752 -0.028768 -0.092819 -0.054782 -0.021999 -0.023898 0.036328 0.070043 0.025796 -0.096472 0.090873 -0.054989 -0.120373 -0.091128 0.029134 0.119570 0.013155 -0.034392 0.112573 -0.008778 -0.009388 0.107840 -0.064266 -0.011842 -0.078114 -0.054730 -0.118664 0.114168 -0.022503 0.118290 -0.092301 -0.051363 -0.096439 0.115344 0.033767 0.101645 -0.008145 -0.029463 0.096601 0.031321 0.109753 0.021115 -0.006110 -0.016031 -0.057258 -0.062590 -0.073532 0.024009 -0.035514 -0.064588 -0.086721 0.033971 -0.018269 0.049224 0.033900 -0.042985 0.104365 -0.111451 -0.056495 0.039447 0.017877 0.093778 0.085441 0.103170 -0.046586 -0.089160 -0.006376 0.030714 -0.039762 0.101386 -0.009854 0.007756 -0.094277 0.032601 -0.027306 0.038085 -0.039614 0.102363 -0.100413 -0.056396 0.112861 0.041631 0.032287 0.091876 -0.072622 -0.115492 -0.034663 -0.058971 -0.001143 -0.031758 0.081459 -0.020116 0.012785 -0.036835 0.096453 
this 0.029452 -0.040963 0.082759 0.028406 -0.024323 -0.113414 -0.112958 -0.039332 -0.000632 -0.098286 -0.060189 0.026481 0.104201 -0.065458 -0.078909 -0.049992 0.117318 -0.025964 0.040521 -0.014981 -0.075295 0.068008 0.095818 -0.026632 -0.058041 0.087733 -0.056454 0.051134 -0.062624 -0.036667 -0.030120 -0.057520 -0.026521 -0.080845 -0.086307 -0.098824 -0.063745 0.003013 0.043466 0.004457 0.005919 0.086182 -0.019618 -0.082360 -0.049234 0.098781 0.110616 0.071032 0.068701 0.029778 -0.062344 0.012258 0.010330 -0.073015 -0.034631 0.053936 -0.044134 -0.102940 0.050319 0.096763 -0.091013 0.105505 0.107915 0.100283 -0.067782 0.070522 0.112412 0.082885 -0.088455 0.075306 0.096910 -0.113579 0.027182 -0.008868 -0.082026 -0.117645 0.047424 -0.016496 -0.038222 0.030231 0.034796 0.041387 -0.032806 0.113054 0.110666 -0.022789 -0.032677 -0.027322 -0.015516 -0.102366 0.054112 -0.019434 -0.104690 -0.031840 -0.092413 0.096260 -0.094331 -0.057628 -0.027232 0.102768 -0.098454 0.103465 0.047374 0.077325 0.063156 0.087331 -0.012032 -0.079372 -0.076588 0.059474 -0.054658 0.062987 0.015602 0.008861 -0.106248 0.052025 -0.009669 -0.016698 0.101680 -0.035022 0.027814 0.089457 -0.045075 -0.062075 -0.103655 0.022064 0.075044 -0.069588 -0.106169 0.005470 -0.034473 -0.039174 -0.093742 0.087489 -0.105142 0.106403 0.113841 -0.095987 -0.045018 0.032458 0.049493 0.091311 0.061310 -0.066083 0.011120 -0.067800 -0.047288 0.064553 -0.115292 -0.054740 -0.102326 0.030834 0.085855 0.001764 -0.011860 -0.031158 -0.087909 0.031833 -0.095861 0.073503 -0.103296 0.024434 0.090689 -0.107559 -0.074318 0.027379 0.110127 -0.026345 -0.056145 -0.088057 0.054399 -0.017538 -0.045097 0.079013 0.074297 0.113787 0.021349 0.046788 -0.091307 -0.084745 0.029179 0.098465 0.061453 -0.065135 -0.076775 0.105318 -0.081624 0.073316 -0.057452 -0.002532 0.101019 0.054769 -0.085711 -0.000736 0.112871 -0.102387 -0.040183 -0.076865 -0.012966 -0.085535 
be 0.021384 0.111918 0.060993 0.002944 0.111689 0.029320 -0.015998 -0.113123 0.045247 0.128442 0.000760 0.085620 -0.048664 -0.028961 -0.111714 -0.086886 0.006580 -0.065724 -0.023658 0.007629 -0.015606 -0.084008 -0.036528 0.114253 -0.055990 -0.080155 0.026359 -0.022331 0.015304 0.007757 -0.012580 -0.074725 -0.118176 0.035231 -0.058186 0.101238 0.042934 -0.080592 0.034037 -0.006928 0.090800 -0.094011 -0.020817 0.067118 -0.115701 0.034877 0.076606 -0.037752 0.109704 -0.062062 -0.061456 0.036808 0.050117 0.037974 -0.047164 -0.000912 -0.004780 0.053463 0.088792 -0.112787 0.071993 0.059694 -0.103810 0.019345 -0.012245 -0.097850 -0.023550 0.033923 -0.003552 0.016073 -0.032106 -0.086605 -0.096478 -0.112636 0.102526 -0.095278 0.076509 0.055228 -0.070071 0.091635 0.000574 -0.081476 0.036864 -0.117603 -0.115595 0.096517 0.080776 -0.034391 0.060490 -0.106994 0.032714 -0.118446 -0.085436 0.054900 -0.059598 -0.059149 0.137525 -0.029936 -0.106677 0.041159 -0.036734 0.058666 0.037237 -0.093112 -0.019072 0.075528 0.116442 0.057429 0.043803 0.045431 -0.079500 0.061493 -0.115646 0.079617 0.021113 0.055585 -0.015997 -0.111019 0.095291 0.008123 -0.100324 -0.077268 0.113307 -0.054657 0.006959 0.002653 0.111597 -0.056985 0.021558 -0.011643 -0.048968 -0.108330 -0.062035 0.067162 0.007136 -0.005392 0.059666 -0.045900 0.034239 0.037311 0.020819 -0.032716 0.047477 0.099260 0.042272 -0.037579 -0.082737 0.054412 0.078997 0.106604 0.009697 -0.116171 -0.007820 -0.092289 0.096530 0.087855 0.124754 -0.087333 -0.048390 0.011150 -0.066419 -0.022335 -0.100753 0.050210 -0.068276 0.022792 0.113281 -0.087328 -0.080205 0.044371 0.075513 0.088726 0.029191 0.095184 0.060827 -0.040509 -0.037555 0.031764 -0.078176 -0.115017 -0.045697 0.038839 0.055882 0.075108 0.092435 0.101537 -0.040516 0.064322 -0.002038 0.016908 -0.096322 -0.081592 0.102226 -0.104139 -0.023609 0.049999 -0.063226 -0.065200 0.108183 -0.100403 
are 0.034946 0.085977 0.012784 -0.012052 0.041084 -0.066450 -0.028535 -0.091821 -0.099508 0.066811 0.079231 0.040617 0.099287 -0.068187 0.008236 0.102633 -0.021992 -0.000401 -0.026724 0.113069 -0.097815 0.077984 0.008265 -0.090113 0.056466 0.035074 -0.033761 0.114865 -0.037728 0.040447 0.001700 -0.036973 -0.075161 0.082797 0.088269 -0.044436 0.068522 -0.030062 0.018687 -0.069564 0.095622 0.052326 -0.112837 0.027074 0.009907 0.017189 0.089373 -0.037150 0.116613 0.094397 0.116591 -0.002219 0.057747 0.091762 0.002731 -0.030173 0.017959 0.118567 0.083176 0.018419 0.001016 0.103214 0.030081 0.102103 0.070981 0.034397 0.058240 -0.001454 0.111034 -0.038894 -0.039605 0.028060 0.064651 -0.007378 0.071930 0.088899 -0.064401 0.057346 0.064997 -0.101565 0.029116 -0.097201 -0.086783 -0.042140 -0.012792 0.060319 -0.108318 0.105135 -0.005476 -0.084335 0.094599 -0.002661 0.054833 -0.120414 -0.047053 0.075371 -0.008979 -0.059223 -0.077303 0.116896 -0.072556 -0.092947 0.037765 -0.040123 0.048753 -0.112304 -0.089992 -0.015084 0.117540 0.052282 -0.064894 -0.090614 -0.043307 -0.092844 0.086680 -0.006694 -0.068257 -0.016343 -0.083706 0.074635 -0.013837 -0.091283 0.000508 0.051627 -0.117452 0.093087 0.011474 -0.117169 -0.073866 0.043112 -0.077185 0.069439 0.000103 0.048956 0.009620 -0.032940 0.047929 -0.021274 -0.116252 -0.043700 0.073380 0.001998 -0.059123 -0.004295 -0.100656 0.107468 -0.086547 0.104119 -0.108649 0.102949 0.076567 0.119502 -0.007125 0.097723 0.042078 -0.059893 -0.033488 0.020192 -0.035512 0.006834 0.117496 0.100226 0.058594 0.097348 0.087835 -0.095537 0.117136 0.049611 0.062178 0.024535 -0.006852 0.003051 0.044293 -0.093506 0.082308 -0.083783 0.098242 0.021385 0.117062 0.049125 0.107207 -0.064154 -0.109849 -0.001439 0.014661 0.000335 -0.021867 -0.096045 0.065549 -0.097922 0.053162 -0.034971 0.082757 0.112120 0.088858 -0.040550 -0.050534 -0.044076 0.119138 -0.033647 
now 0.084859 0.022848 0.006646 -0.118620 0.028725 0.009666 0.115294 -0.091508 0.069529 -0.099328 -0.021528 0.070138 0.092103 -0.036323 0.080839 -0.042359 0.046483 0.104004 0.047060 -0.061403 -0.063890 -0.018494 0.039556 0.001280 0.062980 0.072560 0.008758 -0.101007 0.067960 -0.038083 0.008406 -0.044802 -0.103389 -0.014172 -0.107981 0.077942 0.029937 0.059968 0.050915 -0.014840 0.063715 -0.045708 -0.034713 -0.080020 0.097224 -0.051471 -0.074834 -0.014723 0.098230 -0.094166 0.014629 0.059154 0.066881 0.017499 -0.085205 0.100795 0.062424 0.002183 0.074920 -0.091359 -0.040578 -0.072191 0.046725 0.024345 -0.046803 -0.111823 -0.065609 0.105188 0.050808 0.072598 0.113877 -0.108035 0.058545 -0.027354 0.091026 0.090981 -0.120618 -0.112775 -0.097797 0.086390 -0.064444 -0.078594 0.115128 0.005406 -0.026224 -0.004246 -0.068738 0.042678 0.072523 0.114121 0.031898 -0.003004 0.105132 0.080794 -0.023864 -0.070689 0.042413 -0.003369 0.094432 -0.024524 0.077622 0.036588 0.074404 0.099160 0.083229 -0.043923 0.115773 0.101267 -0.086910 0.029977 0.014320 0.035295 0.005787 -0.116049 0.111364 0.036752 -0.104224 -0.057674 0.075331 0.068194 0.093536 -0.053051 0.115213 -0.080748 0.025321 -0.051415 0.035168 -0.090873 0.116764 0.052178 -0.071742 -0.076083 -0.112871 -0.040060 -0.063928 -0.077042 0.111157 0.117382 0.040687 -0.058471 -0.039542 0.108531 0.027546 0.048917 0.111409 0.044429 0.012410 -0.107645 0.058585 0.081176 0.117139 -0.079906 -0.100300 -0.029484 0.102146 -0.080243 -0.029929 0.014879 -0.003154 -0.045783 -0.020166 0.078737 -0.119953 -0.063313 -0.053964 0.073977 -0.074241 0.057235 -0.074625 0.003046 0.087288 0.093047 0.031170 -0.083682 -0.064279 -0.108910 -0.017139 -0.089088 0.027775 0.057148 0.007251 -0.065962 0.052117 0.087711 -0.050494 -0.038511 -0.021361 -0.005915 -0.085488 0.037508 0.080010 0.078979 0.095108 0.035722 -0.027832 0.035362 0.018446 -0.095196 0.046036 0.021451 
system -0.019268 0.080966 0.037621 0.083795 0.110936 -0.088314 -0.026879 0.052726 0.106266 -0.015606 -0.046260 0.075877 -0.026476 -0.021573 -0.109656 0.097386 0.017078 -0.100269 -0.002291 -0.105824 -0.115871 0.017431 0.074879 0.048975 -0.005532 -0.032960 -0.036311 -0.043136 0.113943 -0.074196 0.064855 0.061046 0.059869 0.118959 0.114220 -0.089450 -0.035004 0.106313 -0.090287 0.056683 0.011033 0.004225 0.007616 -0.085885 -0.046744 -0.020737 0.097993 -0.065953 0.104174 0.022573 -0.091573 -0.117662 0.108204 -0.053616 -0.046409 0.081674 -0.095208 0.089859 0.087951 -0.046101 -0.022916 -0.091484 -0.015694 -0.060564 -0.088025 0.102126 0.097407 0.049919 0.075567 0.017178 -0.023137 -0.110303 -0.077431 -0.019041 -0.041334 0.073514 -0.055815 -0.062959 -0.040814 0.085957 -0.030218 0.113019 -0.046122 -0.060677 0.108645 0.069514 -0.025825 -0.047687 0.072918 -0.077415 0.109793 0.035310 0.099508 0.084049 0.034054 -0.107624 0.030832 0.050329 -0.032242 0.024456 -0.037142 0.120914 -0.056951 0.035148 0.098331 -0.080707 0.049697 0.069925 -0.046711 0.097813 -0.040721 0.078076 0.080344 -0.085498 -0.105989 0.074812 0.121222 -0.088127 -0.114181 -0.097701 0.008101 -0.046860 0.018607 -0.057496 -0.005077 -0.031367 -0.019911 -0.082893 -0.091976 -0.051030 -0.021128 0.076797 0.097779 -0.062717 0.042085 0.020672 0.045189 0.045497 0.031540 -0.100938 -0.026559 -0.039864 0.092692 -0.099090 -0.022635 -0.086639 -0.024620 0.038229 -0.094356 -0.046770 -0.068377 -0.075757 -0.036367 -0.062854 0.070876 -0.069951 -0.092086 0.056297 0.063193 0.014656 0.043295 0.047213 0.116052 -0.038579 0.015992 -0.046014 0.035180 0.081999 0.005313 -0.112310 -0.093885 0.043325 0.018400 0.022518 -0.117749 0.032194 0.118752 0.099660 -0.061976 0.081408 -0.056126 -0.060880 0.110419 0.022633 -0.069066 -0.117483 0.009511 -0.007709 0.069142 0.098172 0.034194 -0.050033 -0.048923 0.089457 -0.087694 -0.076950 -0.059038 -0.079604 -0.074739 -0.021203 
or -0.019167 -0.076930 -0.086668 0.022421 0.073721 0.040810 0.046490 0.009678 0.039151 0.010774 0.046384 -0.040553 0.004822 -0.116731 -0.052158 -0.047007 -0.087311 0.018181 0.095269 -0.114168 0.014285 0.094321 -0.095662 -0.036940 -0.119931 0.100080 0.090946 -0.043636 -0.114595 0.085765 -0.053065 -0.052993 -0.027753 -0.084065 0.064372 0.078169 -0.103198 0.012391 0.106591 0.059622 -0.027481 0.115861 0.046505 -0.089287 0.079435 0.028989 -0.081060 -0.039631 -0.088157 0.111659 0.068302 0.104109 -0.031064 0.042684 -0.089737 0.051701 0.068839 0.058118 -0.086940 0.070158 0.091589 -0.039396 0.111519 -0.006919 -0.020860 0.110027 0.107060 -0.036351 -0.016975 -0.062464 0.058341 -0.060703 -0.078634 -0.073151 -0.061727 -0.060627 -0.078135 -0.119391 0.029348 0.045141 -0.073525 -0.088962 -0.067017 -0.095545 -0.060933 -0.055389 0.055499 -0.029926 0.025425 -0.030281 0.122146 0.013684 0.065589 0.036668 -0.079911 0.116549 0.001512 0.010018 0.041396 -0.073476 0.084726 0.063907 -0.098262 -0.103632 -0.114308 -0.060937 -0.030648 0.045428 0.027436 -0.066545 0.031404 -0.040356 -0.043414 -0.088358 -0.063027 0.029858 -0.075324 0.047763 0.092382 -0.034159 -0.002509 0.082545 -0.024783 0.034605 0.055068 0.066296 0.115631 0.069750 0.039362 0.111236 0.115041 -0.033206 -0.045757 -0.103821 -0.115555 -0.069168 0.113159 -0.095160 -0.107922 -0.018786 -0.099177 -0.060136 -0.074893 -0.048459 0.002177 0.113473 0.080274 -0.015007 -0.074235 0.104479 0.020913 0.039003 -0.014965 -0.098727 -0.032401 -0.114743 0.060026 0.049486 -0.044842 0.100345 0.092692 -0.081646 0.080335 0.084458 0.086903 -0.070324 0.006462 0.042692 0.108443 0.071843 -0.045885 -0.005604 0.037352 -0.100163 -0.041879 0.020834 0.063246 0.021204 0.115223 0.017523 -0.057668 0.114758 0.088754 -0.058103 -0.011942 -0.078774 0.099290 0.060967 0.080463 -0.013759 -0.066005 -0.039328 -0.086162 -0.073302 -0.062724 0.031853 -0.012622 -0.083263 0.020127 -0.015717 
if 0.118393 -0.054877 -0.091572 0.084392 -0.057905 0.060619 -0.116419 -0.079596 -0.107133 -0.116700 0.041534 -0.119395 -0.025447 0.078064 0.047914 -0.077284 0.006516 -0.104540 0.121794 0.065956 0.115586 -0.122601 0.051788 -0.100914 -0.001862 -0.110635 -0.066020 0.056258 -0.096009 0.104307 -0.074052 0.003247 -0.101519 0.018748 0.000788 0.005243 0.108440 -0.071376 -0.052884 -0.103016 -0.015734 -0.054606 0.106991 0.066647 0.021754 -0.003967 -0.099935 -0.019994 0.040265 0.069011 0.037360 -0.097746 -0.079344 -0.031681 0.061516 -0.085901 0.097225 0.051386 0.068617 -0.088228 0.081866 -0.000784 -0.029733 0.098970 -0.060082 0.046252 -0.014465 0.002961 0.044184 -0.003517 -0.096962 -0.049569 0.091039 -0.038632 0.064834 0.083582 0.084329 0.113856 -0.109423 0.114163 0.089388 -0.049532 0.091287 0.061392 -0.012926 0.013118 -0.036369 0.005979 -0.034290 -0.078687 0.095641 0.090127 0.029140 0.093978 -0.093029 0.025586 -0.003273 0.027635 0.108642 0.077546 -0.004699 0.018222 -0.002680 0.080744 -0.032789 -0.068779 -0.084937 -0.068591 -0.083698 -0.060416 0.019449 0.079213 -0.092090 0.031779 0.037600 0.051424 0.068865 0.011797 0.004106 -0.071248 0.095543 -0.008907 0.015051 0.099375 -0.008212 -0.103354 -0.017963 0.029069 0.068910 -0.037101 -0.121839 -0.016976 -0.038208 -0.006159 -0.016011 0.041950 0.104731 0.100929 -0.096346 0.102078 0.009623 -0.034834 0.040708 0.121129 -0.012221 0.066970 0.122274 0.118322 -0.079945 -0.035645 -0.063032 -0.071609 -0.005225 0.014754 0.072821 -0.060484 -0.030191 -0.100832 -0.050512 0.109419 -0.089508 0.098017 0.032015 -0.034631 -0.056344 -0.076661 0.109018 0.080024 0.011650 -0.021457 0.030604 0.103639 0.118318 -0.055372 -0.045647 -0.006062 0.083022 0.056040 0.099334 0.016113 0.032593 0.116768 0.008190 0.004898 -0.090619 -0.007705 0.022978 0.102498 -0.036797 0.101545 0.055301 0.020662 0.013422 -0.058960 0.078256 0.024580 -0.059107 0.052692 -0.119542 -0.051011 
again -0.067992 0.057650 0.051403 -0.065778 -0.003693 -0.125604 0.006544 -0.058037 -0.053868 -0.001039 -0.032134 -0.009500 -0.087972 -0.023585 -0.029028 -0.090271 0.087833 -0.078519 0.114760 0.099195 -0.028850 0.012173 0.055066 0.009028 -0.117595 -0.016554 0.017377 -0.087814 -0.047857 -0.113272 0.037295 -0.108258 0.121026 0.089916 -0.039459 0.094065 -0.113346 0.011493 -0.050693 -0.030716 0.075811 -0.107230 -0.024099 0.043534 0.059508 0.038350 0.075927 -0.106465 0.031585 0.056599 0.095104 -0.081169 -0.004002 0.125534 -0.057554 0.075908 0.019996 -0.019892 0.096618 -0.121810 -0.019053 -0.075073 0.086867 -0.084893 0.072690 0.074710 0.012092 0.079848 0.046003 0.101119 0.034483 0.075722 -0.031864 -0.007715 0.126349 -0.077492 -0.030365 0.052814 0.070117 -0.043542 -0.008839 -0.108930 -0.035317 0.070762 0.036669 -0.061753 -0.027761 -0.031272 -0.079767 -0.070700 0.065095 -0.076688 0.025574 -0.084345 0.025675 0.017589 0.040177 0.012034 -0.047123 -0.108428 -0.032003 -0.109904 0.008893 0.008101 -0.123714 0.044330 -0.087146 -0.119399 -0.104414 0.019807 -0.046459 0.098500 -0.033440 -0.068753 -0.023326 0.048634 0.093164 -0.043333 -0.108733 -0.059335 0.089471 0.084198 -0.077194 0.047552 0.086025 0.112090 0.106894 -0.053988 0.023488 -0.098113 0.036074 0.035591 -0.094184 -0.115219 0.125716 0.019598 0.053436 0.048904 0.094949 -0.082189 0.090538 -0.060671 -0.020622 0.066481 -0.042217 -0.076047 -0.122100 0.105623 -0.087694 -0.072384 -0.047293 -0.008279 0.021356 -0.061552 -0.077070 -0.002268 -0.090877 0.007877 0.077349 -0.046447 0.022623 -0.002554 0.008507 0.005551 0.112635 0.085172 -0.121404 0.110213 -0.006768 0.006007 -0.086898 0.034139 0.048135 0.064558 -0.105550 0.113581 -0.035170 0.122366 -0.078461 -0.011447 0.000448 0.104271 -0.096618 0.121895 -0.030936 -0.001595 0.065465 0.027031 0.001221 0.109371 -0.062962 0.040212 0.037581 0.045535 0.123351 0.054629 0.082100 -0.015086 0.027065 0.026768 
our -0.047686 -0.078650 -0.117782 -0.021996 0.020097 -0.103358 -0.044812 -0.012473 -0.011468 0.018768 0.100307 -0.046055 0.097346 -0.018387 -0.003292 0.072729 -0.062842 0.010153 0.090654 -0.109761 0.101755 -0.083707 -0.056741 -0.043995 0.063735 0.043029 -0.117235 -0.065590 0.062828 0.084247 0.060386 0.020922 -0.074310 0.028882 -0.021776 -0.002057 0.010070 -0.075120 -0.094487 -0.057076 0.024607 0.115236 -0.065543 -0.007675 -0.027013 0.057796 -0.019773 0.105576 -0.082090 -0.022464 0.017007 0.065079 -0.018916 -0.077598 0.077991 -0.051717 0.107186 -0.000652 0.019341 -0.108350 0.063865 -0.097739 -0.007729 0.090651 -0.086181 0.092156 -0.029037 0.091645 0.014796 -0.091141 -0.011389 -0.027917 0.075434 -0.068594 -0.098621 0.104467 0.099421 0.089722 0.096518 -0.023854 -0.086585 -0.099338 0.076132 0.077642 0.111206 -0.115747 0.109455 0.014324 -0.070651 -0.088591 0.052649 -0.077346 0.079655 -0.087942 0.056928 -0.001898 -0.083300 0.111173 0.096475 0.023069 0.034274 0.084622 -0.031558 0.075005 -0.095027 -0.060642 0.001073 0.054331 0.004567 0.077389 0.109542 -0.079522 -0.076327 0.015570 0.031990 -0.072073 0.020040 0.037886 0.037652 -0.081913 0.002305 0.015253 -0.017310 0.027420 0.110197 0.113637 0.018318 -0.020684 -0.065666 0.085933 -0.117321 0.028255 0.068504 -0.019914 0.081045 0.015649 -0.014695 -0.096947 -0.002500 0.077959 -0.075535 0.020800 0.019298 -0.061427 -0.051317 0.086221 -0.115420 0.088014 -0.056374 -0.088778 0.098621 -0.104388 0.090013 0.074839 0.045504 -0.030092 -0.080548 0.034918 0.112481 0.034292 -0.033280 0.016434 0.037695 0.107204 0.117487 0.067334 0.090381 0.030056 0.080390 0.058531 -0.109340 -0.060692 0.095157 -0.080047 0.061827 0.030431 -0.011554 0.112614 0.105983 0.085825 0.118006 -0.023659 0.056323 -0.053100 -0.043566 0.090168 0.005050 -0.013841 -0.020501 -0.088058 0.103376 -0.073010 0.013859 -0.097321 0.089444 0.023876 -0.054818 0.110323 -0.003551 -0.117815 
one -0.050320 -0.072810 -0.091613 0.121326 0.048944 0.011959 0.001195 -0.043923 0.047187 0.104070 -0.013094 -0.086379 0.078091 -0.003074 -0.098022 0.079029 0.080892 0.067264 0.106946 0.083665 0.059640 -0.021145 -0.009882 -0.117030 0.083202 -0.021192 0.041657 0.015717 0.025999 0.119783 0.038761 0.048457 0.086525 0.000740 0.082704 -0.128186 0.009573 0.063229 0.080315 -0.040252 0.123269 0.035837 0.003236 0.073253 0.042772 -0.028772 -0.112073 0.038140 -0.033420 -0.013122 0.094920 0.004292 -0.101258 0.005819 0.012525 -0.072850 -0.091874 0.015899 -0.128356 0.086229 0.128411 0.069780 -0.032004 0.048077 -0.019685 0.025678 -0.115665 -0.037420 -0.013593 0.065887 0.046008 0.044438 -0.043706 -0.081007 -0.093860 0.054644 0.023657 -0.103081 0.019709 0.078269 0.127731 0.117141 -0.030532 0.005938 0.013308 -0.015828 -0.078495 0.052350 0.008513 0.004379 0.106725 -0.021501 -0.012232 -0.028835 0.043065 0.128716 -0.109692 0.002006 0.091059 -0.124895 -0.020555 0.019934 -0.101724 -0.049114 0.064783 0.012798 -0.045122 0.117054 0.020745 0.033258 0.038065 -0.059842 0.045826 -0.060467 -0.010151 0.088602 -0.115183 -0.086086 -0.023681 -0.000692 0.125104 -0.055752 -0.030880 -0.048212 0.122588 0.083198 0.004708 0.031114 0.075765 -0.070278 -0.074903 0.127909 -0.011314 -0.074630 -0.103623 -0.061646 -0.069784 0.057991 -0.109810 0.001222 0.034037 0.120986 -0.057006 -0.116935 -0.019875 -0.027427 -0.103196 -0.006974 0.031790 0.054304 -0.082292 0.027284 -0.001361 0.094766 -0.022652 0.006096 0.014352 -0.112639 0.112184 0.014530 0.018166 0.068087 -0.095031 -0.056788 0.014131 0.041455 0.040312 0.006840 0.071113 0.054573 -0.028665 -0.033590 0.063533 -0.099157 -0.006243 -0.093009 -0.069372 -0.042998 -0.050407 -0.021532 -0.064293 -0.113177 0.004929 -0.122980 -0.111622 -0.062588 -0.127850 -0.117837 -0.077680 -0.097828 0.106234 0.078966 -0.023230 -0.101420 0.030675 0.098793 0.055779 0.108928 0.070820 -0.102915 
was -0.033363 0.001492 -0.051885 0.007548 0.106149 -0.103027 -0.065033 0.005760 -0.099634 -0.099576 -0.104485 0.048208 0.110867 -0.070821 -0.018338 0.068420 0.048895 -0.000441 -0.086042 0.088846 0.099565 0.126520 -0.008241 -0.031620 -0.046522 -0.062023 0.040143 0.074508 0.113854 0.121442 -0.017895 0.120221 -0.115726 -0.091028 0.045489 -0.118189 -0.086578 0.090418 0.018103 -0.058627 -0.110588 0.037096 -0.026751 -0.071360 0.049165 -0.077536 0.094025 0.079291 -0.024773 -0.012415 0.095011 -0.116704 0.045434 0.048445 0.011051 -0.068328 -0.052043 -0.064926 -0.054326 -0.126150 -0.070992 0.098383 0.050299 -0.076490 0.067171 0.005964 0.054418 0.082746 -0.006242 -0.010297 -0.012462 -0.053560 -0.119213 -0.120759 -0.053764 -0.096385 -0.001666 -0.130091 0.097338 -0.083901 -0.078885 -0.047270 -0.083931 -0.004542 0.005220 -0.087391 -0.069261 -0.023137 -0.042108 -0.120717 -0.009636 0.014490 0.019355 0.023345 0.000997 0.053577 0.032080 0.071505 -0.059417 0.112293 0.086036 0.089137 0.098336 0.026864 -0.096518 -0.066335 0.064746 -0.042110 -0.031324 0.035370 -0.004590 0.091649 0.120898 0.113334 -0.123959 -0.055942 -0.019495 -0.007396 -0.012495 0.107860 -0.023443 0.026207 -0.080580 -0.028131 0.120238 -0.109101 0.092682 0.009054 -0.015767 0.082053 -0.024142 -0.029081 -0.064999 -0.111488 0.100917 -0.057794 -0.069621 -0.067620 0.072530 0.080182 -0.048902 -0.119559 0.035783 0.087056 0.103451 -0.018167 -0.013549 -0.041721 -0.035280 0.028154 -0.066546 0.055230 0.014791 -0.125498 -0.002670 0.015506 -0.009490 -0.024805 0.080098 0.039035 -0.040993 0.056298 -0.109599 -0.095963 0.060812 -0.100178 -0.007841 -0.061019 -0.024326 -0.117645 -0.036739 0.037276 -0.039021 -0.062581 -0.038391 -0.102313 0.086890 0.040789 -0.031800 0.057370 -0.034795 0.004975 0.017546 0.091132 0.064967 -0.061969 -0.046152 -0.114010 0.118542 0.012430 -0.055432 -0.098078 -0.047142 -0.039066 -0.048415 -0.076421 -0.056347 0.107872 0.025578 0.007932 
crash 0.025947 0.041793 0.010293 0.060537 -0.019216 -0.050821 0.032894 0.046239 0.086868 0.072093 0.111903 -0.006524 -0.011926 -0.058628 -0.006266 -0.039738 -0.119133 -0.035034 0.061000 0.068018 0.010233 0.004761 -0.030315 0.101268 -0.027382 0.082194 -0.085829 0.016566 0.105555 0.011148 -0.055081 -0.098943 0.107777 -0.086958 -0.082371 -0.074848 0.001107 -0.083252 -0.003243 0.038270 0.104968 0.033935 -0.120833 -0.021512 0.027161 0.070047 0.119157 -0.109305 -0.027521 -0.104804 0.062013 0.097989 -0.058657 -0.051801 0.110563 0.109570 -0.005294 -0.083426 0.008085 -0.075048 0.025605 -0.109926 0.012007 -0.108841 -0.049819 -0.039657 0.001644 0.109854 0.065652 0.088249 0.092068 0.089318 -0.114689 -0.044148 0.040943 0.076272 0.066842 -0.080760 -0.131527 -0.101146 0.079359 0.072442 -0.052263 -0.040388 0.127941 0.075707 -0.081608 -0.049436 0.049943 -0.065008 -0.001638 -0.063565 -0.040014 -0.039987 -0.032857 -0.062749 0.085788 -0.017982 -0.055233 -0.112899 0.124460 -0.044401 0.081793 -0.032704 -0.046235 0.101813 0.106401 -0.007441 -0.116142 -0.005289 0.028704 0.006635 -0.063079 -0.060522 -0.023035 -0.090072 0.081703 -0.079891 0.098447 -0.107469 0.096098 -0.085523 0.113511 -0.005455 -0.095284 -0.031910 0.063754 0.065572 -0.053801 -0.050319 0.051873 -0.019975 -0.055974 0.023881 -0.032552 -0.059545 0.009971 -0.073180 0.050965 -0.024097 -0.028843 -0.030114 0.064138 -0.069741 0.079269 0.012593 -0.091820 -0.099857 0.024443 -0.020199 -0.078931 -0.111738 -0.077681 0.090277 -0.114637 -0.094594 0.122643 -0.045882 0.058807 0.022605 0.073567 0.126232 0.030169 -0.102831 0.047697 0.054673 -0.011977 -0.016541 0.088359 -0.035999 -0.114067 0.048470 0.081334 -0.074236 -0.003672 -0.088762 -0.021531 0.024030 -0.056914 -0.010894 -0.004228 -0.021434 -0.114621 -0.024397 0.007439 -0.001560 0.026137 -0.109876 0.089964 -0.111934 -0.078169 0.064518 -0.027457 -0.002899 -0.094028 -0.085867 -0.106688 0.028158 -0.102623 0.101896 
either -0.062450 -0.047324 0.099957 -0.055062 -0.052874 0.072604 0.068689 -0.008384 -0.110766 0.014392 -0.086188 -0.083367 -0.002622 -0.061099 0.001764 -0.104323 0.100927 0.082009 0.075194 -0.048067 0.090132 0.010797 -0.047720 -0.058102 -0.087684 0.066478 -0.066099 -0.012206 0.033141 -0.041631 -0.050464 0.052427 0.039315 -0.094153 -0.023996 -0.080080 0.067277 -0.060877 0.039564 -0.090092 0.055770 -0.051404 -0.007158 -0.095852 0.005284 0.084183 -0.006559 0.113439 -0.017742 -0.114370 0.019022 0.082613 0.104970 0.090879 0.097097 -0.110120 0.086691 0.099949 0.085192 -0.098920 -0.071397 0.088239 -0.103038 0.080149 -0.074853 0.036037 -0.015909 -0.031314 -0.029086 -0.002642 -0.098362 -0.108780 0.002855 0.070019 -0.025441 -0.026991 0.024532 -0.041655 -0.108004 -0.057680 0.112032 0.118597 0.094055 0.050314 -0.099345 -0.110231 -0.088441 -0.088340 0.042188 0.087929 -0.102558 -0.109746 0.077248 -0.060020 -0.023565 -0.057365 0.067795 -0.106013 -0.110310 0.088316 -0.106957 0.007430 -0.107306 -0.056895 -0.029046 -0.076011 0.086203 0.113285 0.062830 0.022521 -0.077406 0.080677 0.017188 0.067020 0.061815 0.092357 -0.055110 0.115782 0.083533 0.005136 0.013642 0.027318 0.075344 -0.053608 0.002389 -0.026914 -0.047701 0.111247 -0.024108 -0.059569 -0.074216 0.052649 0.050868 -0.021431 0.017761 0.080414 -0.056751 -0.046580 0.101368 0.090016 -0.118037 0.036872 0.078829 0.053930 -0.056802 -0.020416 -0.061310 -0.025792 -0.003434 0.059192 -0.073299 -0.060329 -0.002424 -0.075031 -0.076280 0.078693 -0.051881 -0.030221 0.064407 -0.109872 -0.091930 -0.050800 0.091723 0.086421 0.002825 -0.094544 0.042689 0.052054 -0.063292 -0.053148 0.010245 -0.090808 -0.045162 0.010864 -0.099080 0.094549 0.110512 0.075882 -0.068041 -0.070709 0.060419 -0.035769 -0.102123 -0.052134 -0.008833 0.016432 -0.105772 0.052197 -0.095927 -0.080015 0.062108 -0.028647 0.080700 -0.094250 -0.080271 -0.037190 -0.039185 0.021810 -0.036835 0.091617 
client -0.062153 -0.109780 0.051496 0.039530 0.035645 -0.065091 0.096125 -0.016375 0.067195 -0.107183 0.068639 -0.047589 -0.088753 0.065114 0.004240 0.028025 0.009778 0.064579 0.000710 0.104861 0.116377 0.067222 -0.031909 -0.110430 0.047211 0.061309 -0.120999 -0.097642 -0.068647 0.097687 0.018968 -0.024961 -0.039541 0.039461 -0.014874 0.002005 -0.111885 0.062638 -0.062161 -0.059766 0.031138 -0.094838 0.100052 0.059606 0.017952 0.118527 0.006318 -0.058391 0.040213 0.065190 0.004744 -0.018712 0.101832 -0.078841 0.005370 -0.114708 0.018976 -0.074976 -0.019182 -0.076496 -0.079281 -0.122691 -0.033712 -0.072264 -0.001283 -0.108558 0.059564 0.042707 0.006555 -0.106893 -0.079640 -0.024931 0.010726 0.120896 0.021948 -0.005298 -0.110021 0.125006 -0.101121 -0.066580 0.086293 0.018865 -0.100739 -0.064059 0.102932 -0.021516 -0.066867 -0.040759 0.006386 -0.007872 -0.026883 0.022876 -0.074269 0.110644 0.054415 -0.041340 0.052619 -0.053189 0.024484 -0.088688 -0.109685 -0.073035 0.043689 0.088131 0.005959 0.039369 0.084651 0.008025 0.027975 0.084548 -0.067753 0.003457 -0.102305 -0.074395 -0.065415 -0.031180 0.119677 -0.011127 0.001704 0.111415 0.009442 0.012295 0.106224 -0.049850 -0.053613 0.046718 0.033025 0.067810 0.122168 -0.044755 -0.120113 0.108467 0.040045 -0.086114 0.057501 0.029094 0.016837 -0.089093 0.037837 0.099574 -0.068708 -0.002846 0.106423 -0.098604 -0.024935 0.035733 0.110716 0.079926 -0.098257 -0.047673 -0.039243 0.091492 0.028143 -0.014473 -0.120510 -0.044350 -0.017311 -0.064143 -0.097882 0.004862 -0.042963 -0.083257 -0.123902 -0.116801 -0.044904 0.104196 -0.038204 0.048284 0.043361 -0.014167 -0.118493 0.019026 0.100579 0.113149 -0.079242 -0.122439 0.068081 0.098925 -0.072993 0.018934 -0.050221 0.119169 0.060618 -0.100529 0.062489 -0.088177 0.043888 0.039377 0.034637 0.028384 -0.087982 0.020141 0.057875 0.081630 0.013117 -0.013518 -0.114207 -0.002754 0.006898 -0.104624 
transactions 0.084551 0.013665 0.114978 0.016512 0.034784 -0.067337 -0.122681 -0.067269 -0.072740 0.113864 -0.114570 0.035755 0.013306 -0.011120 0.050379 0.035588 0.111194 0.041033 0.097639 -0.048434 0.101060 0.073129 0.062009 0.112346 -0.075096 -0.050164 0.040154 -0.081391 0.081515 0.092613 -0.056858 0.070206 -0.105757 -0.005064 -0.008632 0.091548 -0.014394 -0.045466 -0.027829 0.063833 0.050145 0.083536 -0.017785 -0.117338 0.091726 0.061016 -0.067431 0.000427 -0.071381 0.122836 0.043627 -0.058463 -0.064116 0.071800 0.102729 0.034652 0.055522 0.020039 -0.040924 -0.072087 0.043937 -0.105912 0.018661 0.073711 -0.033138 -0.070191 0.006955 -0.003546 -0.048106 -0.069995 -0.041241 0.024804 -0.058965 0.006808 -0.029264 0.054363 -0.061850 0.086753 -0.046044 0.042597 0.008972 -0.089222 -0.118648 0.008840 0.033636 0.024072 0.035184 0.034290 -0.045855 0.043843 0.017196 0.014549 0.021825 -0.103374 -0.014084 -0.092915 0.054948 0.065743 -0.085722 -0.021308 -0.066351 0.106539 0.084544 0.063108 0.094852 -0.116318 0.098454 0.055933 0.047502 0.066091 0.114540 -0.085363 0.104790 -0.100218 0.105734 -0.093987 -0.100607 -0.070055 0.106837 0.111259 0.115695 0.021247 -0.032949 -0.068945 0.015179 0.100225 0.092368 0.065252 -0.088962 -0.092183 -0.039202 0.038262 -0.069130 -0.010788 0.102064 -0.068719 0.016675 -0.038383 0.117908 -0.112626 -0.075142 -0.000970 -0.080602 0.111470 -0.031386 0.089849 -0.025609 -0.119483 0.028078 0.036880 0.070225 0.018098 0.045251 -0.047747 0.056103 -0.075108 0.024000 0.009965 0.090555 0.053290 0.030057 -0.049046 -0.100947 -0.072298 -0.056443 0.072948 0.011320 -0.123213 -0.046037 -0.006846 0.029098 0.043609 0.065143 -0.114430 0.110915 -0.109288 0.095366 -0.013945 -0.017755 -0.067646 -0.075232 0.097416 -0.074651 0.002269 -0.009727 0.084321 0.036891 -0.003938 0.048287 0.120767 -0.019522 0.118660 -0.082920 -0.052308 -0.023494 -0.105527 -0.028289 0.110284 0.059773 -0.100376 
then -0.092681 -0.023446 0.082434 0.027352 -0.026332 -0.024454 -0.054275 -0.006869 -0.009893 0.087454 -0.114074 0.065254 0.084609 0.110703 -0.076804 0.065140 -0.051101 -0.074422 -0.091312 -0.102757 0.084476 -0.062221 0.012322 0.014383 0.068464 -0.106490 -0.056744 -0.061586 0.019473 0.099236 -0.003026 -0.000011 0.121021 -0.078885 0.021814 0.090924 -0.104674 0.015105 -0.073801 -0.067516 -0.099864 -0.111809 -0.079351 0.017949 0.011796 0.077566 0.050775 -0.045819 -0.073629 -0.038372 -0.077606 0.122536 -0.102436 -0.040833 -0.068607 -0.013854 -0.012528 0.049263 0.055402 0.058496 0.074395 0.046877 0.077160 -0.067842 0.103761 0.056532 0.105353 -0.015191 0.085244 0.011175 0.037731 -0.060642 0.073502 -0.108758 0.098474 0.057062 -0.048386 -0.001298 0.078335 -0.076017 -0.080289 -0.042392 0.073394 -0.070193 -0.032701 -0.074539 -0.007921 0.036291 -0.080900 -0.090691 0.053403 0.012480 -0.095559 -0.054161 0.050016 -0.064418 0.110842 -0.098382 0.076961 -0.046490 0.040912 -0.043834 0.040597 0.023254 0.019021 0.102292 -0.081302 -0.075876 -0.089288 0.125310 -0.003508 -0.025152 -0.076103 -0.100011 0.113057 0.064703 0.056046 0.100173 -0.059759 -0.083080 0.117044 -0.035457 -0.054013 0.039184 -0.008133 0.040864 -0.087729 0.021388 0.118051 -0.053208 -0.057420 0.004608 0.008433 0.108414 -0.060738 -0.052989 -0.029394 0.006464 -0.113948 0.112414 -0.114282 -0.048126 0.053574 0.097545 -0.050985 0.049022 0.054182 0.028593 -0.094964 -0.024963 0.030931 0.120701 0.079241 -0.025205 -0.020081 -0.101553 0.099654 0.094945 -0.081917 -0.062611 -0.098275 -0.048082 -0.055100 -0.117383 -0.004137 -0.037725 -0.022241 -0.053368 -0.053744 0.120276 -0.015238 -0.114934 -0.118793 -0.018169 0.000383 0.044173 -0.014451 -0.098123 0.121296 0.067584 0.020638 0.057433 0.013680 -0.091004 0.055982 -0.055009 -0.101513 0.081028 -0.029192 0.099416 0.053155 -0.073294 -0.054391 -0.097627 0.085582 0.087962 -0.003653 0.019940 -0.096560 0.014356 
table -0.065769 -0.057102 -0.023459 -0.013441 -0.112227 -0.033909 0.082499 0.073365 0.036637 -0.040854 0.083779 -0.059539 -0.086662 0.087708 -0.104283 0.018524 0.051620 0.105149 -0.036285 0.090375 0.101788 0.059324 0.085317 -0.002268 0.008627 0.056980 0.116965 0.112375 0.011402 0.028179 -0.026004 -0.077355 -0.062893 -0.038122 0.101810 -0.081884 -0.092787 -0.094070 0.062369 -0.059496 0.102090 -0.032917 -0.052303 -0.109578 0.054252 0.075399 -0.091284 -0.037036 0.061858 -0.015748 -0.080342 -0.059051 0.010799 -0.022924 0.013653 -0.098319 0.081442 -0.074961 0.047141 -0.018646 0.041886 -0.006215 -0.064540 -0.096105 -0.045294 -0.063314 -0.111573 -0.076708 -0.058623 0.037180 -0.060830 0.116847 -0.053317 -0.069152 -0.055869 -0.085997 -0.025695 0.018919 0.054230 -0.018977 0.086820 0.054766 0.008117 0.100728 -0.065467 0.086241 0.074504 0.114834 -0.066603 -0.015490 0.109833 -0.076046 0.087093 -0.084782 0.029441 -0.041235 -0.012970 0.102906 0.043144 0.002089 -0.009735 -0.111325 -0.051512 -0.104358 0.041584 0.086025 0.073081 0.011205 -0.090918 -0.081733 0.096677 0.072703 -0.109078 0.081108 -0.006492 0.098542 0.108575 -0.084350 0.032288 -0.069562 0.035660 -0.000191 0.069457 -0.059827 -0.088560 0.028064 0.020353 0.087255 0.034078 -0.010630 0.094793 -0.081079 0.053878 -0.068418 0.090321 -0.016360 -0.084375 -0.038553 0.098963 -0.053558 0.094167 0.009026 0.036055 0.002419 -0.054669 0.063278 0.111415 -0.065607 0.061757 -0.063530 -0.112997 0.055247 -0.082938 -0.029063 -0.073987 0.030012 -0.013904 0.096738 -0.091802 0.053781 0.095850 0.067247 0.043374 -0.090627 -0.103370 -0.069684 -0.106497 -0.090325 0.039973 0.028280 0.021777 -0.044700 0.058393 0.055614 0.107950 0.005755 0.014465 0.001276 -0.109330 0.079447 0.029664 -0.086881 0.109819 0.018092 0.048773 -0.102108 -0.084915 -0.042112 0.075475 -0.114345 -0.071442 0.093927 -0.063238 0.100951 -0.111113 -0.026554 -0.010310 -0.115121 0.064784 -0.090670 
application -0.062997 0.052518 0.089762 0.036745 0.038817 0.067784 0.081247 0.082008 0.102402 -0.102029 0.044972 0.075143 0.013151 0.086711 -0.003365 0.060136 -0.047406 0.023509 0.034946 -0.050533 -0.062614 0.105676 0.091111 -0.027440 0.028418 0.086576 0.101908 0.118987 0.110446 0.030266 -0.117336 -0.019711 0.104840 0.034400 0.029460 -0.047775 0.027643 0.017069 -0.054710 0.002375 -0.039987 -0.022305 0.084561 -0.130213 0.006654 -0.035261 0.006480 -0.077418 -0.128656 0.091516 0.058189 0.039995 0.067764 0.045205 -0.108532 -0.083465 -0.105501 0.038435 -0.020487 0.087859 -0.017178 -0.104010 0.099219 -0.110250 0.027304 -0.039768 0.129418 -0.055455 0.044305 -0.070342 -0.060226 -0.018367 0.080178 0.020491 0.026015 0.013961 0.017726 0.047381 -0.082263 0.120238 0.070479 -0.117855 -0.027906 -0.057550 -0.041117 -0.080571 0.088467 -0.055733 0.023133 -0.066691 -0.015772 -0.105318 -0.120047 -0.047964 -0.042019 0.119356 -0.006463 0.090638 0.104011 0.013672 0.070859 0.035483 0.074013 0.039638 -0.026810 0.030284 0.101600 -0.017320 0.046475 0.100553 -0.030653 -0.098207 0.013384 0.111808 0.018183 -0.064471 0.125399 0.016621 -0.084224 0.049266 -0.078926 0.028850 -0.119513 0.025543 0.040565 -0.037772 -0.051105 -0.064669 -0.062493 -0.076223 -0.024151 -0.080179 0.108414 0.107576 0.104598 -0.058612 0.116966 -0.033676 0.077856 0.025646 0.084926 0.082436 -0.086547 0.004575 -0.011517 0.053373 -0.026305 -0.003201 0.035377 0.053911 -0.111226 -0.016881 0.077467 0.076165 -0.075469 -0.016781 -0.025242 -0.067521 0.094767 0.069598 -0.093131 -0.026013 -0.014830 -0.101540 -0.086870 0.122284 0.029006 -0.081010 0.035495 0.124218 -0.066796 -0.108836 -0.094007 0.026035 -0.009805 -0.078813 -0.031394 -0.062643 0.041278 -0.116198 -0.031235 0.047154 0.000754 -0.007158 -0.004453 0.088845 0.096599 0.020941 -0.095525 0.102721 0.108251 0.035076 -0.104827 -0.045716 -0.120582 -0.038847 -0.017463 0.094930 0.085169 -0.031709 
by -0.029388 -0.021249 -0.061158 0.090883 -0.018935 -0.071429 -0.038108 -0.066290 -0.029816 0.036178 0.018836 0.102538 -0.064451 -0.001790 0.015573 0.080837 -0.059250 0.044006 -0.074446 -0.109072 0.106363 -0.020450 0.028739 0.083362 -0.084064 -0.087121 -0.065415 0.084695 0.067954 0.013823 0.033258 0.089804 -0.080522 0.037955 0.068977 -0.113440 0.064996 0.020341 0.069041 0.017514 -0.015743 0.079593 -0.111156 -0.088079 -0.092375 -0.095570 -0.086639 0.002985 -0.098283 -0.041518 -0.107453 0.070856 0.084782 0.051396 0.080557 -0.032508 -0.061944 0.052585 0.105820 0.048694 -0.070274 -0.097361 -0.113757 0.052018 -0.114182 0.046217 0.098137 -0.015282 -0.067453 0.070738 0.069185 -0.064993 0.010215 0.077665 -0.107117 0.028727 -0.107452 0.002277 -0.050651 -0.001737 0.111240 0.066704 -0.011359 0.090654 0.076191 0.076942 0.031833 -0.077326 -0.025829 -0.081278 -0.057228 0.088250 0.041323 -0.020144 0.102585 0.081503 0.104791 0.013494 0.027858 -0.076274 0.050475 0.074961 -0.032068 -0.077892 0.057459 0.039285 0.025978 -0.011660 -0.105587 0.059424 0.117257 0.069808 0.096527 -0.106240 -0.022709 -0.047900 0.083681 0.062110 0.110935 -0.048575 0.024539 -0.032061 -0.091476 -0.035305 -0.069785 0.006264 -0.014222 -0.046227 0.095034 -0.062579 0.084001 -0.062837 -0.059055 0.039067 -0.002680 -0.007632 0.110959 -0.052582 0.060769 0.016476 -0.091849 0.066343 -0.052770 -0.021913 0.100988 -0.086561 0.107391 -0.115090 0.100243 0.000523 0.092000 0.051792 0.088338 -0.026354 0.010673 -0.084293 0.070345 -0.003508 0.003403 -0.100799 0.107405 0.052844 0.040163 0.021898 0.087406 -0.040476 -0.071489 -0.100493 -0.048516 0.050137 -0.007382 -0.112595 -0.056531 0.032409 -0.090915 -0.044544 -0.115942 -0.113332 -0.108024 -0.109160 -0.104181 -0.101752 -0.031983 -0.005748 -0.068858 -0.059093 0.004819 -0.061678 -0.009280 -0.061709 -0.093020 -0.083904 -0.103454 -0.110787 -0.109598 -0.051525 0.010489 0.066834 -0.011877 0.106222 
it 0.039475 0.114909 0.054389 0.067677 -0.014566 -0.047539 0.001889 0.012510 -0.087336 0.054837 0.046358 -0.033885 -0.053655 -0.014199 -0.020841 0.008154 0.029576 0.098135 -0.104873 0.036204 -0.076623 0.076990 -0.050210 0.008539 -0.064991 -0.089015 0.116594 -0.055874 -0.053122 -0.107789 -0.055871 -0.077375 -0.097916 -0.112101 0.012780 0.084391 0.047195 0.068751 -0.007476 -0.097853 -0.038852 -0.062165 0.099583 -0.119591 0.011899 0.030017 -0.117454 0.098839 -0.100228 -0.030247 -0.078201 -0.030536 0.114112 -0.072256 -0.112682 -0.063891 -0.008920 -0.107389 -0.004675 0.017741 -0.101369 -0.086333 0.037185 0.051244 0.022642 0.100921 0.107733 -0.065802 -0.118647 -0.103255 0.119721 0.110426 0.024805 0.018089 0.046595 0.113345 0.092626 0.028713 -0.077505 0.022616 0.027917 0.038626 0.085032 -0.021408 0.077245 -0.024246 -0.038593 -0.060453 0.062324 0.071492 0.010617 -0.075553 0.108333 -0.110397 0.024027 0.012955 -0.084402 0.025646 0.096472 0.102647 -0.026539 -0.078005 -0.102073 -0.090978 0.103636 0.052822 -0.112608 -0.063402 -0.054248 -0.018111 0.099005 0.022260 -0.071541 0.061979 -0.100724 0.063587 0.055552 -0.021756 -0.070718 0.018852 -0.094034 -0.037923 -0.080305 -0.092978 0.090433 0.062794 -0.095345 0.050533 0.066503 -0.095149 -0.021004 0.104188 0.080742 -0.098276 0.055471 0.026261 -0.045135 0.042035 0.107526 0.078494 0.056826 -0.110456 -0.073474 0.097772 0.086951 0.039812 0.092856 -0.018326 0.049032 -0.064787 0.033718 -0.068751 0.007557 0.049918 -0.034666 -0.034537 0.087707 -0.052311 -0.078157 -0.078798 -0.010195 -0.018689 -0.001919 -0.061179 -0.039578 0.078709 0.106800 -0.023409 0.064043 -0.014273 -0.021330 0.053481 -0.059701 -0.005546 -0.109393 0.006375 0.017841 -0.027876 -0.062554 -0.024372 0.057686 0.089437 0.031940 -0.080487 -0.118454 0.092237 -0.095242 0.099772 0.100154 0.029839 0.075593 0.110515 -0.071718 0.012251 -0.089048 0.092097 0.098050 -0.032603 0.051914 0.002789 
it's -0.055135 -0.117710 -0.013814 0.105782 0.082853 0.054590 -0.008871 -0.009281 -0.036596 0.103100 -0.082530 0.046080 0.082642 -0.045253 -0.077106 -0.016582 0.013671 0.090270 -0.019523 0.068104 -0.116595 0.067390 -0.121304 -0.111378 -0.119704 -0.002362 -0.040164 0.079551 0.008188 0.054080 -0.110698 0.106307 0.086323 -0.020961 -0.113688 -0.011880 -0.004522 0.068652 -0.014520 0.051894 -0.075897 -0.057828 0.036814 -0.052352 0.122183 0.018805 -0.048142 -0.120782 -0.083318 0.040874 -0.050170 0.111971 -0.073208 0.058376 0.065343 -0.011744 0.094826 -0.063296 -0.097733 -0.103491 -0.067649 0.095063 0.110563 0.040566 -0.002975 0.029637 -0.075108 -0.052622 -0.076513 0.036563 0.118285 -0.056153 -0.099814 -0.018768 0.048472 -0.073865 -0.069031 0.036713 0.119276 0.098075 0.081215 -0.054673 0.057636 -0.013382 -0.014437 0.003211 -0.101834 -0.081332 0.078601 0.075758 -0.016848 0.036525 0.118037 0.089895 -0.022001 0.051743 -0.076888 0.034084 0.101925 -0.016447 0.113019 -0.041678 -0.102736 -0.087281 -0.108347 -0.025859 -0.047556 -0.018460 0.001277 0.008469 -0.067131 -0.098428 0.014993 0.049768 0.057756 -0.061816 0.059717 -0.098105 0.115581 -0.074000 0.077760 -0.077478 -0.043650 0.007320 0.072967 0.038576 -0.016112 -0.106300 0.110721 -0.007620 -0.074868 0.096648 0.071796 0.080070 0.060836 -0.041490 -0.101496 -0.079101 -0.005130 0.113864 0.086969 -0.065925 -0.115085 0.028127 -0.035845 0.108058 -0.049809 -0.033333 -0.096884 0.000567 -0.020830 0.010250 0.092302 -0.030726 0.068002 0.055034 0.043282 -0.058894 -0.117909 0.058714 0.067574 -0.095476 -0.113207 0.040521 0.045956 -0.090473 0.116722 0.081219 -0.079262 0.067645 -0.070391 0.076967 -0.058094 0.059668 -0.024585 -0.014539 -0.071300 0.120196 -0.018922 0.072070 0.008037 0.053088 -0.018786 -0.074721 0.122228 -0.030125 0.071968 -0.066474 0.028980 0.043623 -0.081253 0.054508 0.039811 0.016657 -0.013093 0.061313 0.035500 -0.061028 0.064923 0.034707 
let's -0.040094 -0.074999 0.002698 0.112634 0.056192 -0.103044 -0.040217 0.018980 -0.087969 0.082976 -0.092156 0.007944 -0.113411 0.057244 0.117179 -0.079692 -0.075675 -0.072858 -0.030569 -0.106928 0.028942 0.096268 0.090363 -0.114492 0.026411 0.079562 -0.019895 -0.083872 0.038922 -0.074840 -0.091043 0.062690 0.010935 -0.022582 -0.030512 -0.011755 -0.053849 -0.070992 0.076535 -0.110963 -0.092482 0.005796 -0.032797 0.020557 0.017226 0.018944 -0.088208 -0.013390 -0.017241 0.075830 0.002871 -0.075801 0.044795 0.106103 -0.081699 0.029568 0.029304 0.098654 0.106114 0.084256 0.058477 0.101619 -0.111292 -0.070956 0.076774 -0.014598 0.069578 -0.062090 0.087897 -0.083373 0.089611 0.070124 -0.082184 -0.115816 -0.077114 0.107224 -0.074301 -0.063789 0.076680 -0.110008 0.056004 -0.056890 -0.067365 0.029380 0.075458 0.071506 0.116514 0.010707 0.047008 0.073314 -0.108530 0.089463 0.092843 -0.003330 0.001757 0.106429 -0.079551 -0.051047 0.065991 -0.038369 0.007478 0.096789 -0.000991 0.088291 -0.057074 -0.044885 0.011868 0.030971 0.085959 0.046020 -0.099085 0.104404 -0.092916 0.002933 -0.004303 -0.028360 -0.116044 -0.007525 -0.025926 0.065901 0.079522 0.003540 0.047102 -0.068251 -0.094955 0.084263 0.011130 -0.116083 0.015910 0.105047 -0.041273 0.059407 -0.058130 -0.004458 0.041707 -0.056463 -0.017154 -0.018387 -0.002828 0.028772 0.024053 0.111397 0.095425 -0.081081 0.009951 0.018322 -0.044918 -0.012045 -0.055758 0.105988 -0.035068 -0.041826 -0.110128 -0.110667 0.099056 0.085066 -0.030967 -0.109553 -0.083174 -0.027564 -0.110793 -0.020267 -0.015238 -0.005739 -0.108927 0.086837 -0.019273 0.109813 0.037577 -0.036322 0.115776 0.100629 -0.023041 -0.104635 -0.050718 0.044466 -0.109347 -0.010721 0.047767 0.078325 0.019338 -0.061909 0.089090 -0.075498 -0.047991 -0.032330 0.047333 0.075462 0.047832 -0.110826 -0.044180 -0.101967 0.014290 0.046961 -0.092880 0.003171 0.092062 -0.103276 0.053046 0.113169 
not 0.099278 -0.095873 -0.091190 0.005489 -0.051726 0.107510 -0.061521 -0.000772 0.025176 -0.077661 0.046761 0.011965 0.105972 -0.039983 0.104439 -0.023308 0.022115 0.019316 -0.111970 -0.110952 -0.105644 0.086186 -0.102127 -0.094684 -0.080574 0.065248 -0.034868 0.092117 0.075401 -0.106799 0.018604 -0.055187 -0.052514 0.039702 0.037804 -0.015200 -0.079921 0.045710 0.063581 0.047951 -0.062579 0.031024 -0.079729 -0.006697 -0.024446 -0.068621 0.027921 0.083369 -0.113587 -0.024457 0.108688 0.032386 0.014355 0.000085 -0.040852 -0.031069 0.069589 0.047040 -0.082325 -0.000855 0.069502 0.097077 -0.113499 0.110703 0.045476 0.110617 0.098249 0.043684 -0.067199 -0.059190 0.079443 -0.084031 0.088466 0.099886 -0.060759 0.083173 0.085181 0.108152 0.062886 0.026666 0.000629 -0.061639 -0.019754 0.015143 -0.088411 0.091022 -0.070616 -0.131329 0.018205 -0.026026 0.007761 0.007096 0.078421 0.013907 -0.115217 0.091821 -0.047394 -0.075577 0.028034 -0.055466 -0.055945 0.017415 -0.008341 0.091292 0.049505 -0.090664 0.104673 0.000418 -0.022584 0.030957 0.022956 0.067694 0.111424 0.071508 -0.010904 0.081178 0.054398 -0.096616 0.027188 0.104567 -0.043851 0.097899 -0.016594 0.057014 0.092932 0.104537 0.020172 -0.085203 0.064907 -0.081002 0.110929 -0.090459 -0.045523 0.045594 0.039078 -0.117472 -0.003478 -0.112318 -0.084854 -0.020960 -0.104048 0.090507 0.096814 -0.068470 0.026218 -0.069370 -0.095060 -0.052091 -0.045450 -0.069623 0.015257 -0.082016 -0.082757 -0.061978 0.099286 -0.030679 -0.099424 -0.060347 0.055144 0.046084 -0.035093 0.115726 0.072311 -0.056573 0.009965 0.045468 -0.019172 -0.020994 -0.038487 0.064305 0.091591 0.047632 0.070377 -0.103689 0.071170 0.086503 -0.064370 -0.031526 -0.081453 -0.086360 -0.125738 -0.105685 -0.099220 0.059558 -0.109092 -0.006158 0.098454 -0.051683 -0.059600 -0.036644 -0.037858 0.025847 -0.124399 0.017656 -0.067920 0.074117 0.047235 -0.013834 0.053048 -0.087251 
on -0.069928 -0.036247 -0.057424 -0.071416 0.016397 -0.116314 -0.047972 0.097311 0.096935 -0.008421 0.114585 -0.047041 0.066628 0.057914 -0.076061 0.042559 -0.129442 0.006069 0.011943 -0.008255 0.007294 -0.068897 0.035610 0.088323 0.068453 0.117053 -0.063040 0.029643 -0.101498 -0.124986 0.020768 -0.089968 -0.067098 0.063503 -0.109980 -0.097952 -0.040875 0.083766 -0.036656 -0.046783 0.039209 -0.064804 -0.075865 0.043058 0.028341 -0.075164 0.095967 0.080791 -0.113916 -0.088052 0.063142 -0.117282 0.109118 0.111651 -0.021890 -0.045154 0.012101 -0.067712 0.081742 0.044887 -0.012389 -0.017011 -0.113283 0.010307 -0.052921 0.096203 0.022593 -0.050418 -0.052365 -0.004965 0.105344 0.113738 -0.012930 0.086929 -0.110325 0.004798 -0.012400 0.003206 -0.115393 -0.054656 -0.083066 0.079754 -0.005699 0.101579 -0.029647 -0.028696 0.074917 -0.099434 -0.009359 -0.062472 0.114558 -0.081970 0.093742 0.038064 -0.112815 -0.085494 0.011815 0.105170 0.013024 0.083031 -0.070614 0.092003 -0.105548 0.097003 -0.020648 -0.024176 0.003565 0.031475 -0.028874 0.069619 0.098073 -0.080946 -0.058293 -0.070620 0.071310 -0.086215 0.094677 0.047252 0.058481 -0.045028 -0.038872 -0.101788 0.032933 0.083048 -0.043066 0.028801 0.034241 -0.092535 0.039132 0.056574 -0.082034 0.035490 -0.086186 -0.101267 0.072038 -0.067009 -0.041610 0.028867 -0.005971 0.123229 -0.014330 0.025164 -0.070119 -0.046698 0.011991 -0.011563 0.045635 0.008067 -0.038694 0.093685 -0.075568 0.056653 -0.044751 0.059856 0.093483 0.105786 0.103847 0.001102 0.075584 -0.030829 0.087799 -0.028298 -0.059368 0.056805 -0.055817 -0.085664 -0.109931 0.083902 -0.042001 0.051813 0.120229 0.053312 0.017844 -0.035259 -0.092220 0.036396 0.077922 -0.018877 -0.123784 -0.041087 0.101539 0.077637 -0.068544 0.005978 -0.036140 -0.044299 0.033006 -0.050869 -0.012175 -0.081582 -0.017697 -0.124682 -0.091145 0.073126 0.111995 -0.060221 -0.043429 0.120884 0.092985 0.065568 
were -0.026009 0.024079 -0.110121 0.056038 0.051884 0.097852 0.034303 -0.018182 -0.095496 -0.043138 -0.113436 -0.014763 0.024919 0.017734 0.092622 0.024251 -0.011138 0.024378 -0.108150 0.117971 -0.077535 0.026483 0.052519 0.102040 0.013020 -0.109729 -0.063687 0.117881 0.019723 0.032366 -0.055430 -0.121173 0.007555 -0.047946 0.050533 -0.106765 0.102648 -0.056352 0.043978 -0.003251 0.003046 0.117993 0.020462 0.086169 -0.042806 -0.086781 -0.107926 0.119449 0.030070 0.051731 0.121304 0.115701 0.103186 0.093970 0.008682 -0.089431 0.119206 -0.093843 -0.105612 -0.109901 0.081954 -0.095082 -0.064866 0.012247 0.056408 0.078785 0.104164 0.051500 -0.075922 -0.011799 -0.053370 0.088124 0.116877 -0.011366 0.047338 0.018921 -0.095243 0.007462 0.073750 0.046468 0.086568 0.033217 -0.000888 -0.054747 0.054572 0.115589 0.102447 0.040167 -0.003942 0.120800 -0.009936 -0.016614 -0.085150 -0.023773 0.063299 -0.022512 0.120550 -0.084974 0.050772 0.041586 0.005420 -0.013113 -0.013117 0.011321 0.001374 0.058032 -0.032810 0.028118 0.112234 0.055837 -0.096221 0.049932 -0.086269 -0.031164 0.014520 0.095873 0.021246 0.091342 0.089188 0.001586 -0.111801 0.044952 -0.021284 -0.091506 0.007659 0.001669 0.084440 0.019175 -0.044643 -0.049977 -0.109643 0.108117 0.102051 -0.060294 -0.079886 0.010963 -0.098841 0.081562 0.024643 0.113760 0.090375 0.058345 0.116034 -0.114783 0.000806 0.103212 -0.077094 0.078315 0.003210 0.021228 -0.031093 0.039451 0.040253 -0.076762 0.104970 -0.089953 0.115757 -0.018757 -0.001441 -0.107318 0.050077 -0.060846 0.112167 0.006469 -0.030653 0.091282 -0.009055 0.087049 0.060857 0.059226 -0.024927 0.031224 0.083806 0.014987 -0.023359 0.041571 0.103171 -0.052903 -0.031108 -0.107422 0.000463 -0.094754 -0.013774 -0.090864 -0.037028 0.000280 -0.120423 -0.011956 -0.005480 -0.085049 0.050279 0.087258 -0.084537 -0.117583 -0.017670 -0.018734 0.096557 -0.047633 -0.045247 -0.005043 
from -0.011240 -0.009526 0.067087 0.018571 0.090194 -0.069740 -0.022979 0.023490 -0.022913 -0.006240 -0.086959 0.030531 0.012554 -0.014087 -0.097905 0.097886 -0.098224 0.037281 0.033374 -0.104535 -0.110355 0.047819 -0.001076 0.111154 0.040391 0.020931 -0.011937 0.031139 -0.001148 0.010318 0.048685 -0.021943 -0.062099 0.120553 0.037214 0.091256 0.110391 0.034767 0.109227 0.091420 0.109417 -0.013750 -0.017179 -0.010638 0.038945 0.020973 -0.054790 -0.116905 0.093825 0.009378 0.082083 -0.110007 0.041760 -0.103546 0.071828 -0.028878 -0.056899 0.116932 -0.103597 -0.086452 -0.089616 0.027986 0.050159 0.038281 -0.100967 -0.040704 -0.075970 -0.004600 -0.081472 0.097892 -0.098434 -0.009927 0.010784 -0.063478 -0.043727 0.036465 0.076201 0.011250 -0.113636 -0.021827 0.067411 -0.043697 0.028007 -0.052159 -0.030104 -0.072120 0.052011 -0.093545 0.094339 -0.071369 -0.064209 0.114996 0.078992 -0.001960 -0.059180 -0.064295 0.126199 0.000841 -0.068214 -0.026458 -0.029825 0.113201 0.060667 -0.041242 -0.060690 0.088498 0.061172 -0.079915 -0.103267 -0.029293 -0.036510 -0.081721 0.046470 0.090607 0.104238 0.087580 -0.086415 -0.072647 -0.075655 -0.077099 0.021328 -0.069821 0.100522 -0.089143 0.022990 -0.084434 -0.036154 -0.094409 0.108357 -0.007850 0.078171 0.030220 0.032806 0.085917 0.117596 0.007582 0.107816 -0.049884 0.063937 0.105966 -0.033487 0.102596 -0.060993 -0.075187 0.053275 -0.051960 0.085991 0.054472 0.100248 0.117753 -0.069995 0.002839 -0.035855 -0.112351 -0.065569 0.020843 -0.014251 0.035366 -0.110639 -0.054403 0.109223 -0.050904 0.112326 -0.082247 0.116397 0.017292 0.070831 -0.102163 0.059123 0.003841 -0.041800 -0.101772 0.060405 -0.041181 0.042191 -0.005029 0.065511 -0.014499 -0.051284 0.099032 0.070607 0.019906 0.065666 -0.072465 -0.079793 0.044873 -0.109993 -0.030183 -0.044195 0.109629 -0.064488 0.063710 -0.104411 0.077942 0.049447 -0.109478 -0.025215 -0.100608 -0.077791 0.092968 
followed 0.024862 0.016366 -0.015084 -0.001003 -0.080464 0.010789 0.046620 -0.086307 0.095360 -0.010902 -0.047282 -0.016486 0.063628 -0.121819 0.107257 -0.080144 -0.110241 -0.087232 -0.009252 -0.011766 -0.052986 -0.103390 -0.115900 0.023182 -0.068604 -0.058702 -0.116487 -0.079197 0.093030 -0.026279 -0.099516 -0.114957 0.004780 -0.017666 -0.091925 -0.064857 0.039909 0.017162 -0.059081 -0.094364 -0.105581 -0.056477 0.095217 -0.061099 0.064711 -0.065421 0.036188 -0.007392 -0.122627 -0.021213 -0.016828 0.085999 -0.048056 -0.120105 -0.029199 0.053606 -0.015573 -0.004228 0.095277 0.037808 -0.021330 0.007031 0.021818 -0.003724 0.000090 -0.097874 -0.030236 -0.051750 -0.070603 -0.022641 -0.026253 -0.025460 -0.044854 0.098047 -0.116306 -0.028751 0.081185 -0.055199 0.103650 -0.103954 -0.119621 -0.001372 0.114127 0.014449 -0.027733 0.063279 -0.050243 -0.085285 0.052851 0.004070 -0.046981 -0.014502 -0.120297 -0.005836 0.035407 -0.061806 0.010793 0.022017 -0.076292 0.038319 0.080554 -0.108621 -0.101169 0.120406 0.031266 -0.039882 0.056977 0.080558 0.113052 -0.091155 0.063365 0.122721 -0.101222 -0.027707 -0.108941 0.019860 0.007982 -0.045790 0.067243 0.099061 -0.109610 -0.033810 -0.050709 0.010150 0.042404 -0.064880 -0.058751 -0.042926 0.036887 0.095732 0.016181 -0.040927 0.000827 0.005498 -0.037556 0.096957 0.122777 0.022288 0.122514 0.020552 -0.085965 0.072989 -0.084665 -0.066195 -0.067431 -0.100219 0.052798 0.102233 0.059089 0.045241 0.076984 0.114093 -0.010402 -0.117866 0.084094 0.111763 -0.025779 0.076176 -0.014378 0.052915 0.078374 -0.123006 0.000909 -0.043212 -0.063508 0.073440 -0.081689 -0.095807 -0.016595 0.038281 0.080306 0.037507 -0.023314 -0.055320 -0.094165 0.068126 -0.018248 0.027369 0.106791 0.015291 -0.120688 0.090095 -0.021022 -0.040190 0.104198 -0.001823 0.111150 0.044061 -0.078570 -0.075221 -0.077750 -0.020559 -0.111023 0.104630 -0.122108 0.031465 -0.112451 0.095206 0.012709 0.034666 
as 0.103805 0.005677 -0.065484 -0.113638 0.052241 0.018650 0.032446 0.030393 0.044936 0.106553 0.054476 0.007597 -0.036779 0.084719 0.023293 -0.111860 -0.011832 0.067599 0.026861 0.051982 -0.116724 -0.026540 -0.001234 -0.016358 -0.038099 0.036050 -0.105195 -0.061127 0.097879 0.067646 -0.002368 -0.002636 -0.004047 -0.062959 -0.077053 0.053653 -0.095680 0.040675 0.056513 0.076095 -0.115125 -0.097519 -0.104258 0.070005 0.056566 0.039642 -0.048961 -0.115723 -0.110575 0.089151 0.087808 -0.105599 0.103214 -0.022911 -0.032902 0.062073 0.047958 -0.071463 0.046610 -0.078648 0.079016 0.002592 -0.118933 0.033883 -0.092954 0.052267 0.044717 0.055317 0.009593 0.019562 -0.028713 -0.050031 -0.025296 -0.112374 0.112991 -0.029023 -0.073922 -0.051033 0.022958 -0.039684 0.046645 0.067858 0.039180 0.053730 0.099342 -0.067187 0.070089 -0.024243 -0.090662 0.019209 0.089840 -0.021746 0.079117 -0.110965 -0.102749 -0.095353 0.073819 -0.111061 0.065571 -0.109360 -0.105908 -0.046143 0.021139 -0.102761 0.085084 0.077477 -0.016353 -0.054358 0.051270 0.053873 -0.012677 0.111504 -0.021407 -0.000353 -0.117883 0.048871 0.108629 0.084422 0.064206 -0.035866 0.023477 0.058942 0.030271 0.112602 0.088484 -0.034286 0.050102 0.091290 0.009105 -0.080668 -0.022585 0.043598 0.027023 0.085617 -0.032810 -0.073840 -0.035444 -0.027565 -0.005852 -0.005565 -0.049254 0.111299 0.087485 0.095322 -0.073537 -0.108800 0.107393 0.117864 -0.107346 -0.048748 -0.040133 0.025639 -0.084455 0.053065 0.106939 0.078581 0.117252 0.003595 0.100459 0.114346 -0.035064 -0.092126 0.026949 0.028907 -0.059811 -0.067099 0.047871 0.029921 0.105052 0.065725 -0.103923 -0.119208 0.107787 -0.115332 0.082965 -0.088209 -0.112912 -0.029766 -0.017822 0.022388 -0.072712 0.014385 -0.011272 -0.073420 0.056336 0.009248 0.077779 -0.115844 -0.079689 -0.007313 0.035581 -0.029375 -0.068653 0.086366 -0.031535 0.092384 0.104393 -0.028134 0.022736 -0.037717 
with 0.018533 0.122359 -0.070693 0.085546 0.037663 0.098051 -0.030365 0.050578 0.108011 0.010273 -0.007436 0.001153 -0.017445 0.035469 -0.092090 -0.105863 -0.021106 -0.089068 -0.060829 0.000080 -0.024521 -0.061422 0.121635 -0.100563 -0.086507 -0.018828 0.051440 -0.011774 0.047802 -0.035783 -0.110653 -0.027627 -0.056824 -0.124051 0.109795 0.122427 -0.020049 0.018284 -0.004756 0.018843 0.099311 0.003044 -0.105338 0.057639 0.054235 0.006674 -0.031192 -0.055258 -0.088620 0.017411 -0.060706 -0.049300 0.051080 0.086227 0.092350 -0.093089 -0.087365 0.075889 0.024116 -0.041549 0.001853 -0.088104 -0.104649 0.062188 -0.116496 0.084374 -0.070448 -0.013214 -0.062077 -0.108536 -0.088934 0.065527 0.106296 -0.051237 -0.062085 -0.058397 -0.109343 -0.069172 -0.080082 0.073767 0.110492 0.076838 0.080572 -0.020260 -0.108578 -0.064118 -0.046723 -0.007195 -0.072538 0.123553 -0.112996 0.007095 -0.028412 0.063467 0.042511 -0.020520 0.090458 -0.005196 -0.109535 -0.070436 -0.088421 -0.031464 -0.031958 -0.060312 -0.121979 0.098373 0.122324 -0.096014 -0.006295 0.058872 0.012184 0.030269 0.074346 0.089214 0.112062 0.087200 -0.001608 -0.010572 -0.044640 -0.093824 -0.042028 0.124166 -0.108953 -0.116783 -0.042993 -0.082957 0.079882 -0.024809 0.062154 0.109125 -0.007467 -0.049238 -0.099082 -0.001444 -0.084768 -0.107731 -0.083627 -0.050012 -0.053998 -0.055212 0.112437 -0.111078 -0.005338 0.065190 0.053883 0.054538 0.033765 0.022136 0.121045 -0.004078 0.098599 -0.102034 0.004166 0.077727 0.036246 0.088701 -0.041890 -0.025490 0.007467 0.049322 0.049533 -0.074549 -0.015186 0.050379 -0.094058 -0.018475 0.003576 -0.076731 -0.029591 0.005495 -0.089164 0.064011 -0.004089 -0.077137 0.118296 -0.072412 0.049104 -0.027190 0.096623 0.035492 0.008439 -0.044636 -0.118893 -0.031824 0.066044 -0.015764 0.071658 0.121662 -0.025104 -0.015075 0.076207 -0.049070 0.052596 -0.054331 0.118250 -0.022527 -0.073350 -0.082559 -0.017867 0.032689 
order 0.032371 0.012428 0.022123 0.007237 -0.097223 -0.081345 -0.109858 0.105397 0.055573 0.094310 0.048789 -0.110561 -0.083230 0.108758 0.051686 0.110724 -0.102923 0.092115 -0.003608 -0.021409 0.003282 -0.046603 0.035987 -0.061179 0.066896 -0.079354 -0.103738 -0.014683 -0.032249 0.051592 0.088034 -0.031695 -0.114204 -0.018237 0.007705 0.032252 0.053997 0.091607 0.035615 -0.101801 0.083686 -0.075764 -0.099780 0.037747 0.072962 -0.016610 0.110664 0.085950 -0.016054 -0.089595 0.058083 -0.070845 0.051475 0.109819 -0.107930 -0.013195 0.100023 0.089771 0.052740 0.059455 0.014067 -0.091892 0.103522 -0.015021 -0.023573 -0.105349 -0.087757 -0.107023 -0.004051 -0.004164 0.076491 -0.013302 -0.113632 -0.050537 -0.113883 0.038979 0.011259 0.047305 0.067469 -0.093618 0.091460 -0.070392 0.018571 -0.058845 0.112372 -0.016881 -0.111659 -0.119676 -0.082798 -0.025194 0.105882 -0.019983 0.075102 -0.048978 0.012557 0.072765 0.096596 0.007955 -0.068182 0.061384 -0.055746 0.083983 0.016266 -0.089609 -0.054660 -0.059871 0.003034 0.111488 -0.034877 0.077109 -0.075413 0.032896 -0.033935 -0.099247 0.108795 0.036096 -0.042768 0.051749 0.005917 0.083790 -0.026490 0.050787 0.049387 -0.031160 -0.079852 -0.054469 0.047803 0.001338 -0.022626 0.069276 0.092710 0.074185 -0.091716 -0.099345 0.088741 -0.083634 0.010522 0.104976 0.021908 0.021255 -0.067011 0.046803 -0.085511 -0.003498 0.103932 0.063828 0.105449 -0.038502 0.036413 0.079344 0.024981 -0.109883 0.051407 0.082257 -0.099451 0.032535 0.016574 -0.097627 -0.011525 -0.002968 0.110235 0.099546 -0.091243 -0.077568 -0.113850 -0.096883 0.057948 -0.003847 0.094604 0.002229 -0.067460 0.004868 -0.078593 -0.017795 0.034612 0.024681 0.014017 -0.058085 -0.015599 -0.041965 -0.093442 0.059002 -0.058486 0.002497 -0.093556 0.078678 0.105060 -0.060902 -0.115820 0.046988 0.049641 0.068243 0.027614 0.067483 0.093465 0.081753 0.109269 0.090406 -0.075483 -0.088162 
first -0.051251 0.088067 -0.020585 0.063383 -0.090636 0.114520 0.052406 -0.109414 -0.067450 0.027522 0.011293 0.045398 0.028323 -0.006759 -0.004856 -0.044407 0.005771 0.031445 -0.016764 -0.101618 0.007087 -0.090759 0.026009 -0.014515 -0.036863 0.002065 -0.060093 0.078531 -0.113913 0.000667 -0.091156 -0.107077 0.074341 -0.109371 -0.091640 -0.049804 -0.079828 -0.056000 -0.034433 0.093167 0.124181 0.053861 -0.084717 -0.060323 -0.081873 -0.124628 -0.067210 -0.020159 -0.114152 -0.086394 -0.009488 -0.037726 -0.095687 -0.026211 0.124942 -0.035076 -0.088603 -0.104551 -0.073787 -0.105604 -0.095899 0.121531 0.051883 -0.036812 -0.046336 -0.119355 -0.004637 -0.085231 -0.045398 -0.013404 0.012556 0.111544 0.074411 0.037053 -0.034128 -0.068072 0.073073 -0.034580 0.017227 0.083910 0.039222 0.021537 -0.106436 0.087278 0.066846 -0.020374 0.122145 0.027971 0.123432 -0.019372 0.045892 0.050386 -0.054354 -0.063370 0.085546 0.104549 0.124728 0.078816 -0.042777 -0.040993 0.001874 -0.027966 -0.054395 -0.046795 0.049660 -0.016025 -0.092539 -0.000144 -0.004366 0.020158 -0.002386 0.025832 -0.060886 0.067712 -0.069873 0.051718 0.001683 -0.046227 0.001565 -0.080991 0.099920 0.016552 0.054722 0.023610 -0.000703 -0.052263 -0.000469 0.076272 0.027905 -0.021172 0.071007 0.086315 0.055445 -0.080516 0.027338 -0.107828 0.026173 0.114569 -0.004044 -0.113299 -0.069355 0.006174 0.113248 0.036538 0.120767 0.076958 0.122474 0.084898 -0.066431 0.120587 0.026964 -0.113455 0.089412 0.006166 -0.038184 0.080416 0.075405 -0.077332 0.071055 -0.129287 -0.043398 0.094531 0.066997 0.037777 -0.116027 0.066123 0.001853 -0.098542 0.025512 -0.039269 -0.032246 0.104480 -0.103176 -0.044253 0.114911 0.116811 0.060290 0.028407 -0.071389 -0.052689 -0.114153 -0.008148 -0.061576 -0.067177 0.088033 -0.041193 -0.003474 -0.031977 -0.094371 0.095391 0.009764 -0.000556 -0.097670 -0.109795 -0.050292 0.070959 -0.030867 -0.082244 0.110234 -0.012869 
where 0.038270 0.007695 0.075323 -0.090664 0.111956 0.102131 0.012789 0.035464 0.013664 -0.056737 -0.104997 -0.105105 0.114617 0.070707 0.001338 0.057858 0.112479 0.105584 -0.062391 -0.068838 0.011078 -0.024820 0.105655 -0.037430 0.120402 -0.087054 -0.011175 -0.073712 0.076885 -0.031368 0.111425 -0.097317 0.068050 0.008293 0.079269 0.033356 0.097724 -0.040786 0.049266 0.031278 -0.013963 0.054846 -0.005374 -0.084416 0.104212 0.100008 -0.050208 0.011575 -0.095018 -0.039246 0.010442 -0.029013 -0.117966 0.054233 0.088553 -0.003345 0.100430 -0.120900 -0.087596 0.107714 -0.048331 -0.025029 0.006301 -0.105330 0.113137 -0.037033 -0.023941 -0.011014 0.098801 0.015304 -0.021415 0.103633 -0.026281 0.120503 -0.012909 0.012815 0.109116 0.083384 0.036021 0.041832 -0.042277 0.014931 -0.023882 0.087353 0.013230 0.087361 -0.035707 0.107281 0.095766 0.044261 -0.026244 0.120750 0.086692 -0.064615 0.038951 -0.036802 -0.071398 0.116646 0.010622 0.021157 0.115185 0.025470 0.045678 0.007598 -0.023291 -0.104694 0.117330 -0.058344 -0.115604 0.020836 0.015091 -0.096300 0.025773 0.023183 0.079568 0.035329 -0.085197 0.074564 -0.022192 0.049516 0.106410 -0.081433 -0.072049 -0.034604 -0.007908 0.094805 -0.035557 0.108267 0.004305 -0.020529 -0.061973 -0.115062 -0.098053 -0.010289 0.005613 -0.011896 -0.004993 0.114045 -0.104519 -0.052962 -0.080084 -0.087637 -0.112995 0.087039 0.109131 -0.014490 0.075861 0.059846 0.076616 0.015843 -0.115835 0.068293 -0.112569 -0.008121 0.019920 -0.113417 -0.087200 -0.036630 0.027709 0.084946 0.095317 0.041301 0.003207 0.070191 -0.051052 -0.091972 0.103323 0.045151 0.028613 0.041929 0.056337 0.028961 -0.029256 0.002896 -0.103308 0.101989 -0.037134 -0.098087 -0.035004 -0.084027 0.008805 -0.088803 -0.071705 -0.081321 -0.071309 0.019266 0.004731 -0.115690 0.093748 0.030942 -0.016183 -0.106765 -0.043293 0.057208 -0.038771 0.087054 0.011257 0.025350 0.093875 -0.066192 
would 0.076756 -0.074739 0.110221 -0.055974 0.034308 0.047144 0.041487 -0.051499 0.074878 0.017077 -0.005940 0.092927 -0.041650 0.004444 0.110081 0.089067 -0.015112 0.000611 -0.116164 -0.039876 0.041140 0.049211 0.075133 0.023551 0.077287 0.023355 0.054524 -0.061875 0.085377 0.093299 -0.024158 -0.097527 -0.100928 0.007406 0.056300 -0.066413 0.114234 0.044661 0.084440 0.115594 -0.036543 0.085102 -0.084634 0.098901 -0.079837 0.052666 -0.061020 0.091085 0.056534 -0.062147 -0.097481 0.105673 0.009875 0.028878 0.063636 -0.015193 -0.029244 -0.048617 0.043529 0.103265 -0.061694 0.120493 -0.000796 -0.056616 -0.021213 0.036100 -0.101616 -0.001955 -0.028803 -0.001605 0.018493 0.113868 0.101350 0.106889 -0.030095 -0.055281 -0.099870 0.054507 -0.089511 -0.068065 -0.097814 0.069975 0.051256 0.087455 -0.006414 -0.041737 -0.054452 0.021974 -0.117620 0.073857 -0.071749 0.104349 0.045602 0.100874 -0.083736 0.056884 0.071461 0.027792 0.117128 -0.100540 0.082238 -0.092667 0.087074 -0.052205 0.021475 0.087058 -0.080563 0.101358 -0.106943 0.013570 0.011621 0.084328 0.002348 -0.083527 0.093692 -0.092220 -0.009453 0.081234 -0.040320 -0.104626 0.044331 -0.091458 -0.053505 -0.058624 -0.075551 0.032418 -0.034457 0.006617 -0.062440 -0.027768 -0.011981 0.112707 -0.034881 0.011440 0.052242 0.096734 -0.048761 0.017378 0.009995 0.095386 -0.097157 -0.075333 0.011647 0.073387 0.118358 -0.040274 0.036897 0.040659 0.003065 -0.074929 0.111516 0.080750 -0.015238 -0.064201 0.101574 0.091249 0.060984 -0.075637 -0.087005 0.034569 0.061348 0.112422 -0.003242 -0.075328 0.105398 0.071185 -0.087306 0.086232 -0.099829 -0.093488 -0.009068 -0.072767 -0.073116 0.032519 -0.092753 -0.103918 0.008805 -0.045277 0.110447 0.009193 0.029264 -0.037940 -0.078871 0.104235 -0.064014 -0.073945 -0.089325 0.079374 -0.026167 0.007004 -0.011084 -0.103843 -0.040426 -0.033591 -0.101237 0.050063 0.019684 0.081951 -0.093622 -0.097705 
guarantee 0.101437 -0.009611 0.106388 0.071581 -0.036877 0.096222 -0.068283 0.034467 -0.087787 -0.094260 0.081311 0.051595 0.073768 -0.046695 0.104183 -0.039997 -0.094153 0.106274 0.095078 -0.100086 -0.102665 0.050093 -0.033168 0.072188 0.112658 0.015940 -0.064538 0.010677 -0.050763 0.053083 0.035078 0.037517 0.077869 0.028879 0.117876 0.050381 0.017247 0.113868 0.096692 0.007583 0.074345 0.054134 -0.055004 -0.071929 -0.110867 -0.101055 -0.060555 -0.108568 -0.110141 0.000751 -0.067765 0.037887 0.080311 0.045000 0.078750 0.083202 0.039823 0.020322 0.109912 0.046325 -0.106544 -0.024016 0.059830 0.006843 0.069460 0.021891 0.023250 0.104978 0.086529 0.086037 -0.086995 0.056496 0.009090 -0.085496 -0.054886 -0.119657 -0.037794 0.041655 -0.088861 -0.101344 -0.110970 0.092299 -0.094175 0.009108 0.035900 -0.005570 0.084553 -0.072536 -0.017854 -0.020774 -0.064301 -0.084778 0.095382 0.095955 -0.021532 0.051966 0.076211 -0.030574 0.065056 -0.007176 -0.071577 0.012728 0.108298 -0.061344 -0.041007 -0.028057 0.081666 -0.091588 0.050437 -0.103661 0.019267 -0.018324 -0.096640 -0.104179 0.015848 0.056125 0.006647 -0.101618 -0.015759 0.090071 -0.060370 -0.107347 -0.102081 0.102462 0.069919 -0.072099 0.033538 -0.069664 0.098120 0.114031 0.000748 -0.043535 0.028024 -0.106059 -0.045071 -0.103387 -0.075944 -0.016096 0.112103 0.012276 -0.088720 -0.051906 0.021281 -0.102055 -0.067151 -0.103587 0.019756 -0.063609 -0.007446 -0.000596 0.020363 0.085926 -0.087728 0.003150 -0.003427 -0.119597 0.059615 -0.043083 -0.017506 -0.115497 -0.107358 -0.029390 0.072872 -0.004097 -0.099764 -0.027776 -0.062006 -0.069634 -0.095722 -0.049612 0.036425 -0.050611 0.029830 -0.045629 -0.082821 -0.109990 -0.022502 0.094075 -0.082451 -0.107547 -0.006380 0.054949 -0.049630 -0.084971 -0.099927 0.068168 -0.010888 -0.023312 0.064471 -0.059545 0.067883 -0.085533 -0.055130 0.024260 0.038883 0.111137 0.030156 0.005030 0.057491 0.039915 
