208 200 #File: 17_01_NoSQLOverview.txt.bin
</s> 0.099131 0.109451 -0.094860 -0.081184 0.033845 0.074820 0.023301 0.005234 -0.089245 0.054943 -0.107890 0.030946 -0.018608 -0.023706 -0.082118 -0.046614 0.063880 0.074926 0.073532 0.039562 0.038259 -0.094176 -0.101436 0.123078 0.094142 0.076529 -0.014957 0.099452 -0.012259 0.018196 -0.003696 -0.073883 0.032499 -0.033123 -0.094740 0.117742 0.108457 -0.027122 -0.005600 0.012611 -0.090091 -0.099240 0.112803 0.001561 -0.063956 -0.075342 -0.076192 0.042026 0.004988 0.032964 -0.104353 -0.094305 -0.003220 0.028324 0.063147 -0.078509 0.101035 0.022957 0.027730 -0.015067 0.073963 -0.056659 -0.051946 0.053454 -0.018653 0.025527 0.044690 -0.101258 -0.049112 0.072160 0.104807 0.097381 -0.075459 -0.052199 -0.022515 0.049569 -0.093825 0.074246 0.069042 -0.039600 -0.038425 -0.055434 0.104731 0.096882 -0.029219 0.104387 0.119379 0.044959 0.123407 -0.077050 -0.037934 -0.052192 -0.071998 0.069711 0.039113 0.010525 -0.054327 0.037741 0.075769 0.004796 0.056458 -0.122655 0.106863 0.011885 -0.045348 -0.051595 -0.018525 -0.072689 -0.108215 -0.070263 0.105925 -0.043833 -0.066359 0.057392 -0.042196 0.117803 -0.039740 -0.113646 0.067259 -0.001840 -0.086403 0.024167 0.035712 -0.011923 0.045182 -0.098016 0.021820 0.044989 -0.074522 0.003518 -0.001504 -0.059417 -0.070153 -0.116246 0.000567 0.003783 0.000242 -0.097426 -0.122886 -0.117553 -0.107127 -0.013548 0.034457 0.029329 -0.078815 0.123781 -0.049815 -0.031543 -0.034782 0.117206 -0.093213 0.028754 -0.033074 0.078947 0.001005 0.105740 -0.069821 -0.064519 -0.103824 -0.090813 -0.079238 -0.077141 0.060532 -0.046236 0.066374 0.091388 0.033580 0.073075 0.061311 0.057966 -0.087937 -0.085024 -0.090560 -0.003269 0.102298 -0.067776 -0.075792 -0.103926 0.081876 -0.103495 -0.014345 0.053960 -0.114375 -0.110917 0.035734 0.087291 0.105608 0.053137 0.078316 -0.077458 -0.090159 0.098439 -0.068475 0.043424 0.014217 0.044339 -0.029280 0.004924 -0.041758 -0.027900 
the -0.027475 -0.081172 0.044168 -0.025161 0.018093 -0.089253 -0.092753 0.063834 0.015053 -0.002804 0.022623 0.077976 -0.045560 -0.082774 0.045419 -0.027401 -0.029012 0.193126 0.012668 -0.044410 -0.173998 0.069960 0.078134 -0.016316 -0.040862 -0.131746 -0.107896 0.031492 0.149833 0.058963 0.087930 -0.089839 -0.023319 0.161446 -0.059733 0.045578 0.093757 0.069103 0.003881 0.066194 -0.055820 0.001801 0.116173 -0.176481 0.023649 -0.039281 -0.005950 -0.075399 -0.047774 0.017156 0.122667 -0.109328 -0.075337 0.074882 -0.012217 -0.076297 -0.059541 0.048808 0.021602 -0.064218 -0.012846 -0.078812 -0.012524 0.091464 -0.068825 0.031036 -0.006729 -0.092140 -0.001948 -0.031322 -0.038439 -0.005826 -0.054022 -0.091793 -0.076201 -0.008810 -0.154571 -0.031700 0.066478 -0.055415 0.007992 -0.044443 -0.073455 -0.009162 0.119350 -0.004952 0.094166 0.029503 0.167934 -0.091755 0.041306 0.133744 0.039064 -0.001922 -0.011625 0.030122 0.102665 0.124647 0.076328 -0.051412 0.097629 0.006255 -0.065204 -0.035271 -0.022041 0.113408 0.040712 -0.006208 -0.028067 -0.019039 -0.035206 0.196668 -0.019983 -0.019606 0.017834 0.179517 0.089290 -0.095384 0.049622 0.079957 0.035709 0.042563 -0.089367 -0.064623 0.017346 -0.053145 0.059244 -0.079565 0.055212 -0.008743 -0.001105 0.011811 -0.081858 0.016119 -0.073559 0.010396 0.032839 -0.019310 -0.023261 -0.115799 -0.089472 -0.019663 -0.074439 -0.000854 -0.035137 0.023646 0.015968 0.053848 -0.070027 -0.030744 -0.096108 -0.072190 0.032188 -0.094827 0.013091 0.015900 0.093765 0.058751 0.008899 -0.004328 0.041543 -0.091248 0.064205 -0.043936 0.050128 0.071122 0.007139 -0.062840 0.090864 0.063262 0.084600 -0.050332 0.026838 -0.066549 -0.002822 -0.082196 0.029623 0.013377 -0.078186 -0.058735 -0.000071 0.102885 0.087524 -0.091813 -0.030054 0.071179 -0.092115 0.012453 0.050112 0.069485 0.062951 0.027833 -0.103152 0.049162 0.092549 0.049330 -0.112023 0.101498 0.038786 -0.019570 
and -0.027415 -0.081124 0.042946 -0.025027 0.019513 -0.088398 -0.093760 0.065120 0.015183 -0.003175 0.022091 0.079647 -0.044677 -0.082000 0.044995 -0.027038 -0.030258 0.193216 0.012886 -0.044081 -0.174103 0.069832 0.078535 -0.017905 -0.039678 -0.133488 -0.108347 0.031751 0.151701 0.056829 0.087480 -0.089463 -0.023261 0.162472 -0.059349 0.044519 0.093461 0.070780 0.004947 0.067048 -0.056571 0.001320 0.116033 -0.176428 0.023998 -0.040500 -0.005257 -0.076297 -0.047113 0.017903 0.121832 -0.107627 -0.074959 0.076060 -0.013744 -0.076161 -0.058642 0.050106 0.021063 -0.063876 -0.013539 -0.078323 -0.012058 0.091631 -0.070052 0.031101 -0.006665 -0.091693 -0.001050 -0.030212 -0.037229 -0.007595 -0.053301 -0.090524 -0.078106 -0.007540 -0.154495 -0.032914 0.068200 -0.054208 0.006873 -0.044679 -0.074242 -0.011080 0.118869 -0.004752 0.094900 0.030944 0.167535 -0.090194 0.041405 0.133820 0.038357 -0.001024 -0.012296 0.031049 0.103130 0.124807 0.075388 -0.052351 0.098872 0.006243 -0.066215 -0.035455 -0.022182 0.114353 0.039699 -0.004777 -0.028247 -0.020010 -0.034405 0.196077 -0.020671 -0.019374 0.018541 0.178222 0.089614 -0.093686 0.048287 0.080770 0.037011 0.041626 -0.088514 -0.064345 0.018755 -0.052255 0.057684 -0.080003 0.054215 -0.007891 0.000104 0.011941 -0.081883 0.015189 -0.074736 0.009298 0.033866 -0.018994 -0.023790 -0.116602 -0.090145 -0.021110 -0.072362 -0.000824 -0.035203 0.024390 0.016448 0.053455 -0.070702 -0.030536 -0.097418 -0.071926 0.032351 -0.093918 0.014553 0.015534 0.094536 0.057578 0.008557 -0.002455 0.040726 -0.091118 0.062748 -0.042603 0.049363 0.069313 0.007883 -0.062062 0.091116 0.063416 0.084988 -0.051011 0.028080 -0.065307 -0.002208 -0.081851 0.029414 0.014816 -0.078516 -0.057946 -0.000417 0.102326 0.087858 -0.089930 -0.030520 0.071647 -0.092405 0.012460 0.050848 0.070571 0.063368 0.027605 -0.103717 0.047391 0.092774 0.049455 -0.112454 0.101077 0.037540 -0.019710 
of -0.025747 -0.081079 0.043648 -0.025668 0.018212 -0.089096 -0.094164 0.063970 0.015466 -0.002804 0.021475 0.079572 -0.046459 -0.081435 0.045596 -0.027970 -0.029048 0.193389 0.010971 -0.044349 -0.173785 0.068864 0.078230 -0.017128 -0.039812 -0.132475 -0.108952 0.032378 0.150102 0.057801 0.088520 -0.088322 -0.024059 0.162097 -0.058154 0.045735 0.094164 0.070528 0.005397 0.066341 -0.055820 0.002033 0.115008 -0.176231 0.023239 -0.038675 -0.006762 -0.076059 -0.046641 0.017849 0.123326 -0.108618 -0.074420 0.075128 -0.013080 -0.075533 -0.058624 0.050201 0.020513 -0.064318 -0.013909 -0.078674 -0.013047 0.090520 -0.069883 0.032000 -0.006890 -0.092888 -0.002901 -0.030462 -0.037388 -0.005779 -0.054080 -0.091196 -0.077411 -0.007672 -0.154819 -0.031829 0.066771 -0.054314 0.006593 -0.045634 -0.072947 -0.009525 0.118775 -0.005355 0.094546 0.030270 0.168363 -0.090125 0.042124 0.134162 0.038325 -0.002168 -0.012668 0.030917 0.103308 0.125724 0.075803 -0.051618 0.099328 0.006402 -0.065471 -0.035519 -0.022915 0.114685 0.039566 -0.006373 -0.027538 -0.019865 -0.033826 0.195554 -0.019831 -0.018597 0.018381 0.178017 0.089487 -0.094474 0.049112 0.080352 0.037684 0.042585 -0.088556 -0.063213 0.017306 -0.051930 0.059122 -0.080518 0.055334 -0.007532 -0.001145 0.012757 -0.081493 0.015561 -0.074633 0.009920 0.033258 -0.020471 -0.024306 -0.115064 -0.090099 -0.019261 -0.073944 -0.002139 -0.035197 0.025109 0.016667 0.055139 -0.071453 -0.030750 -0.097728 -0.071858 0.031500 -0.094489 0.014064 0.016037 0.094327 0.057047 0.009648 -0.003736 0.040999 -0.091629 0.064078 -0.044283 0.049227 0.069836 0.007084 -0.063723 0.091230 0.062884 0.083851 -0.050748 0.026629 -0.066800 -0.003532 -0.081847 0.029034 0.013247 -0.077458 -0.058529 -0.000906 0.102183 0.089180 -0.091655 -0.030990 0.071925 -0.091163 0.013513 0.051104 0.069138 0.062605 0.028204 -0.102074 0.049093 0.092631 0.048032 -0.112771 0.101708 0.037585 -0.018336 
a -0.025666 -0.080869 0.043972 -0.026530 0.019223 -0.089042 -0.093283 0.063670 0.015998 -0.003200 0.021290 0.078665 -0.045484 -0.081489 0.045554 -0.028916 -0.029815 0.192672 0.011872 -0.044499 -0.174541 0.068596 0.077606 -0.017254 -0.040910 -0.133005 -0.108652 0.031455 0.151512 0.058377 0.087490 -0.088789 -0.023733 0.161229 -0.058323 0.045892 0.094053 0.069628 0.004409 0.066938 -0.056055 0.001676 0.115390 -0.177282 0.024087 -0.040410 -0.006095 -0.076511 -0.047155 0.017292 0.123406 -0.109358 -0.074487 0.074228 -0.013660 -0.076227 -0.058681 0.048976 0.021535 -0.063856 -0.012757 -0.077870 -0.012862 0.091200 -0.069599 0.031482 -0.007372 -0.092009 -0.001822 -0.030800 -0.037054 -0.007076 -0.053467 -0.091790 -0.076759 -0.008674 -0.154106 -0.031608 0.066881 -0.054632 0.007015 -0.045154 -0.072858 -0.009511 0.117867 -0.005741 0.093847 0.030652 0.167481 -0.091294 0.041727 0.132876 0.039443 -0.001506 -0.011922 0.031368 0.103807 0.125545 0.077074 -0.051786 0.098858 0.005187 -0.064698 -0.035701 -0.022461 0.113899 0.040633 -0.005400 -0.027202 -0.019340 -0.034679 0.195909 -0.019678 -0.019330 0.017843 0.178711 0.088968 -0.095022 0.048656 0.080701 0.036529 0.042834 -0.088819 -0.064631 0.017987 -0.052842 0.058949 -0.079861 0.054388 -0.008618 -0.000773 0.011622 -0.081319 0.015937 -0.074012 0.009334 0.033143 -0.020080 -0.024186 -0.116046 -0.089923 -0.020327 -0.073814 -0.001334 -0.036602 0.024431 0.016016 0.054809 -0.071143 -0.030374 -0.096526 -0.072254 0.031677 -0.094614 0.014539 0.016413 0.094918 0.058075 0.009209 -0.002652 0.040709 -0.091759 0.064533 -0.044413 0.050293 0.071204 0.007629 -0.062806 0.090587 0.063350 0.084036 -0.052084 0.026781 -0.066249 -0.002639 -0.081103 0.029847 0.013734 -0.077330 -0.058093 -0.000150 0.101877 0.088279 -0.090856 -0.030170 0.071364 -0.092014 0.013327 0.049867 0.070013 0.062974 0.027922 -0.102607 0.049079 0.092216 0.048940 -0.112521 0.102166 0.038637 -0.018790 
to -0.027715 -0.080889 0.042799 -0.025907 0.019512 -0.088127 -0.093103 0.064668 0.015365 -0.003941 0.020565 0.078127 -0.045226 -0.082755 0.044286 -0.028963 -0.028715 0.193178 0.011068 -0.043929 -0.173967 0.067561 0.076344 -0.017312 -0.041090 -0.132574 -0.109376 0.032517 0.149593 0.058203 0.088751 -0.089264 -0.024466 0.162585 -0.058740 0.046469 0.093679 0.070446 0.005557 0.067019 -0.056670 0.001098 0.116695 -0.176720 0.022178 -0.038044 -0.006316 -0.074682 -0.046805 0.018220 0.123891 -0.109444 -0.074767 0.075809 -0.013374 -0.075524 -0.060772 0.050492 0.019937 -0.063000 -0.013188 -0.079133 -0.011927 0.091376 -0.070432 0.030418 -0.007302 -0.091099 -0.002908 -0.031164 -0.036195 -0.007565 -0.052633 -0.091647 -0.077679 -0.007181 -0.154397 -0.032092 0.065864 -0.055582 0.007793 -0.044548 -0.074498 -0.009449 0.119340 -0.005107 0.093013 0.029525 0.168158 -0.091568 0.041977 0.133975 0.039818 -0.001292 -0.012729 0.031892 0.101983 0.124490 0.077798 -0.050664 0.097921 0.004750 -0.065435 -0.034821 -0.022335 0.114367 0.041559 -0.005274 -0.029090 -0.019027 -0.035399 0.195665 -0.019091 -0.019405 0.019060 0.178299 0.088317 -0.095485 0.048388 0.081701 0.036890 0.041174 -0.088106 -0.064733 0.017382 -0.051115 0.057817 -0.080163 0.053784 -0.008571 0.000616 0.011396 -0.082029 0.015646 -0.073247 0.010272 0.033837 -0.020353 -0.024835 -0.114940 -0.088538 -0.019075 -0.074747 -0.001864 -0.037018 0.024562 0.015004 0.054842 -0.069400 -0.030139 -0.097093 -0.072799 0.032575 -0.095285 0.014063 0.017438 0.094587 0.058598 0.009811 -0.003510 0.041157 -0.092286 0.063764 -0.044175 0.048543 0.071194 0.007111 -0.064175 0.090675 0.063591 0.083424 -0.052466 0.025951 -0.065038 -0.002611 -0.080995 0.028643 0.015266 -0.079017 -0.058813 -0.000917 0.102153 0.088539 -0.090848 -0.030273 0.071734 -0.090841 0.011323 0.049871 0.070196 0.064314 0.028044 -0.102133 0.048840 0.092369 0.048536 -0.112584 0.102355 0.038986 -0.018608 
that -0.026416 -0.080284 0.043951 -0.025122 0.017980 -0.088851 -0.093443 0.063740 0.015677 -0.003236 0.021588 0.079350 -0.044968 -0.082259 0.045931 -0.028296 -0.029507 0.192250 0.011700 -0.045270 -0.174511 0.068803 0.077877 -0.017554 -0.039962 -0.133075 -0.108796 0.032249 0.150523 0.058156 0.087743 -0.089032 -0.022967 0.161998 -0.058358 0.046159 0.093572 0.069263 0.004885 0.066664 -0.055189 0.001655 0.115995 -0.177242 0.023239 -0.039790 -0.006149 -0.076061 -0.047336 0.017291 0.123428 -0.109255 -0.074591 0.075288 -0.012442 -0.076408 -0.059739 0.049699 0.021029 -0.063600 -0.013187 -0.078552 -0.011847 0.091866 -0.069175 0.030989 -0.007297 -0.092365 -0.002438 -0.031385 -0.037099 -0.006180 -0.054153 -0.091095 -0.076307 -0.008047 -0.154062 -0.031806 0.067419 -0.054441 0.007765 -0.044909 -0.073110 -0.010460 0.118308 -0.006341 0.094384 0.030130 0.167979 -0.090883 0.041554 0.133657 0.039369 -0.001093 -0.011590 0.030944 0.103713 0.125346 0.077122 -0.051543 0.098968 0.005855 -0.065704 -0.036075 -0.022575 0.114337 0.039920 -0.005896 -0.028366 -0.020016 -0.034805 0.195902 -0.020614 -0.018721 0.018100 0.178348 0.088453 -0.094896 0.048220 0.081319 0.036485 0.042104 -0.088861 -0.064675 0.017032 -0.052814 0.058538 -0.080629 0.054471 -0.008471 -0.000540 0.012086 -0.082141 0.015685 -0.073999 0.010048 0.033237 -0.020331 -0.023870 -0.115806 -0.089225 -0.019956 -0.073164 -0.001676 -0.036022 0.023901 0.015962 0.055002 -0.071072 -0.030659 -0.097488 -0.071635 0.032960 -0.095026 0.014324 0.016547 0.094087 0.057148 0.009260 -0.003531 0.041544 -0.091719 0.064458 -0.044395 0.049356 0.070564 0.007003 -0.062356 0.091318 0.063133 0.084774 -0.051223 0.027987 -0.066274 -0.002338 -0.081138 0.029832 0.014669 -0.078466 -0.057223 -0.001105 0.102374 0.087937 -0.090262 -0.030954 0.071251 -0.091896 0.013076 0.050962 0.069143 0.062889 0.028285 -0.101963 0.047815 0.092602 0.049211 -0.111617 0.100960 0.038678 -0.019516 
is -0.026514 -0.081045 0.044104 -0.026260 0.019236 -0.089261 -0.093982 0.064209 0.014990 -0.004198 0.021297 0.078237 -0.046485 -0.082402 0.045634 -0.028206 -0.030345 0.193585 0.011541 -0.045826 -0.173977 0.069651 0.077547 -0.016799 -0.040827 -0.131824 -0.108896 0.031948 0.150642 0.057951 0.087633 -0.088639 -0.023885 0.162545 -0.059476 0.045305 0.094607 0.070573 0.003724 0.066295 -0.055308 0.001346 0.115050 -0.176454 0.022616 -0.039384 -0.006798 -0.076465 -0.046772 0.016589 0.122016 -0.108658 -0.075438 0.074550 -0.013860 -0.075563 -0.058539 0.049596 0.020783 -0.063518 -0.012303 -0.077927 -0.011903 0.091925 -0.070550 0.031163 -0.008226 -0.091993 -0.001397 -0.031634 -0.037392 -0.006123 -0.054435 -0.091450 -0.077070 -0.007902 -0.154612 -0.031722 0.066808 -0.055073 0.007596 -0.045946 -0.074009 -0.009749 0.118619 -0.005308 0.093886 0.029791 0.167581 -0.089959 0.042343 0.132806 0.039266 -0.001055 -0.011386 0.031908 0.104006 0.125518 0.076761 -0.052755 0.098066 0.005724 -0.065067 -0.036260 -0.022174 0.113196 0.039939 -0.005037 -0.028283 -0.019107 -0.035177 0.196270 -0.019908 -0.018436 0.017409 0.179084 0.088579 -0.093878 0.048632 0.081545 0.036144 0.041572 -0.089976 -0.064925 0.017059 -0.052224 0.058554 -0.079966 0.055107 -0.007175 -0.000482 0.012638 -0.081839 0.015797 -0.074244 0.009013 0.033512 -0.019530 -0.023640 -0.115938 -0.089563 -0.019829 -0.073598 -0.001490 -0.035891 0.023930 0.015878 0.054232 -0.071224 -0.029502 -0.096260 -0.071222 0.032880 -0.095132 0.014541 0.015815 0.093560 0.057330 0.009302 -0.003518 0.041640 -0.090486 0.063399 -0.044589 0.049833 0.070849 0.007557 -0.063049 0.090304 0.062892 0.084254 -0.052020 0.028065 -0.066795 -0.002954 -0.081708 0.029502 0.014546 -0.078358 -0.058160 0.000136 0.102255 0.088564 -0.091063 -0.030631 0.070283 -0.092319 0.013050 0.050984 0.070321 0.062621 0.028081 -0.102169 0.048625 0.092002 0.049364 -0.112970 0.101214 0.038387 -0.018444 
so -0.027977 -0.080514 0.042533 -0.026780 0.018024 -0.088876 -0.092231 0.065456 0.015788 -0.002475 0.022208 0.078901 -0.045009 -0.082852 0.045180 -0.029525 -0.030114 0.193223 0.012915 -0.045183 -0.172907 0.067900 0.077257 -0.018318 -0.039525 -0.133363 -0.109834 0.032172 0.150605 0.058928 0.088662 -0.088372 -0.022141 0.162056 -0.059328 0.046303 0.094645 0.070864 0.005486 0.066298 -0.055227 0.002469 0.116602 -0.178057 0.023990 -0.039182 -0.005915 -0.077638 -0.048124 0.016032 0.122308 -0.108661 -0.073864 0.074155 -0.014160 -0.074727 -0.058105 0.050369 0.020627 -0.062967 -0.012175 -0.079576 -0.011829 0.092328 -0.068803 0.030943 -0.009114 -0.092438 -0.003280 -0.030436 -0.037873 -0.006722 -0.052989 -0.090548 -0.077761 -0.006945 -0.153152 -0.031127 0.066526 -0.055574 0.006742 -0.045645 -0.074294 -0.008721 0.119260 -0.006696 0.094149 0.029154 0.166725 -0.089473 0.040775 0.132509 0.038821 -0.002370 -0.012791 0.030538 0.104074 0.123532 0.075966 -0.052676 0.099426 0.005880 -0.065401 -0.035139 -0.024154 0.113390 0.040134 -0.003964 -0.026996 -0.018360 -0.034431 0.196953 -0.020664 -0.019162 0.019352 0.179045 0.089891 -0.093085 0.048690 0.080629 0.036856 0.043586 -0.088835 -0.065614 0.016075 -0.053425 0.058055 -0.081227 0.055538 -0.007576 -0.001929 0.012504 -0.081964 0.014679 -0.075079 0.008931 0.033021 -0.019240 -0.025176 -0.115734 -0.088305 -0.018864 -0.073725 -0.000651 -0.036462 0.023588 0.017417 0.054847 -0.071792 -0.030051 -0.095563 -0.072967 0.033485 -0.093595 0.014444 0.015256 0.094909 0.058862 0.010573 -0.004550 0.042675 -0.090347 0.063588 -0.044187 0.048075 0.071365 0.007116 -0.063649 0.091609 0.061809 0.083745 -0.052432 0.026433 -0.066090 -0.001686 -0.082882 0.029520 0.012881 -0.077610 -0.056100 -0.001263 0.102883 0.089338 -0.091641 -0.031711 0.071012 -0.092614 0.012696 0.050055 0.069801 0.062196 0.027957 -0.103914 0.049526 0.091870 0.048792 -0.111230 0.100097 0.037995 -0.019242 
in -0.027284 -0.081450 0.042624 -0.026556 0.018317 -0.087176 -0.092197 0.064536 0.015953 -0.003391 0.022868 0.079042 -0.045699 -0.083227 0.045499 -0.027710 -0.029312 0.193913 0.011104 -0.045455 -0.174469 0.070170 0.078583 -0.017780 -0.041118 -0.131269 -0.107396 0.032392 0.150628 0.056874 0.088285 -0.087603 -0.022883 0.163136 -0.058398 0.046123 0.094393 0.069370 0.003843 0.066017 -0.054557 0.002553 0.115876 -0.176096 0.024265 -0.040885 -0.005587 -0.076335 -0.048128 0.016684 0.121258 -0.109482 -0.075723 0.073535 -0.014101 -0.076525 -0.059027 0.050100 0.022538 -0.064141 -0.013435 -0.076755 -0.012035 0.092341 -0.070435 0.031587 -0.007173 -0.092423 -0.003375 -0.031679 -0.038047 -0.006225 -0.054411 -0.092664 -0.075387 -0.006713 -0.154565 -0.031000 0.066962 -0.055183 0.008301 -0.045515 -0.074022 -0.009266 0.119562 -0.006739 0.095192 0.030570 0.168771 -0.091795 0.041682 0.132307 0.038597 -0.001043 -0.013064 0.032256 0.104356 0.123708 0.075376 -0.052418 0.098555 0.004992 -0.066860 -0.036930 -0.022247 0.115060 0.041393 -0.005365 -0.027057 -0.019347 -0.034058 0.196183 -0.019977 -0.019519 0.016793 0.177554 0.089936 -0.092988 0.048519 0.079996 0.036239 0.042208 -0.088206 -0.064174 0.016899 -0.053326 0.057893 -0.080227 0.054741 -0.007923 -0.001731 0.012323 -0.082989 0.014228 -0.074723 0.010846 0.032357 -0.019161 -0.024586 -0.115577 -0.090374 -0.018306 -0.073279 -0.002079 -0.036934 0.025322 0.016031 0.053767 -0.069103 -0.029862 -0.096807 -0.072978 0.033525 -0.093760 0.013922 0.014823 0.094072 0.057906 0.010276 -0.004162 0.040858 -0.091044 0.064769 -0.044655 0.049854 0.070620 0.005830 -0.064376 0.090993 0.062682 0.083409 -0.051078 0.028033 -0.067102 -0.004041 -0.082351 0.030720 0.014005 -0.078185 -0.057337 -0.001617 0.100330 0.089233 -0.090916 -0.030862 0.071633 -0.090540 0.013830 0.050166 0.070296 0.061722 0.027323 -0.103691 0.048758 0.090561 0.048093 -0.112435 0.102566 0.038030 -0.019328 
key -0.027446 -0.079678 0.044759 -0.027223 0.018412 -0.089832 -0.091579 0.063694 0.016874 -0.002859 0.022767 0.077541 -0.046719 -0.083164 0.044120 -0.029926 -0.031148 0.192442 0.012550 -0.046309 -0.173338 0.069207 0.078640 -0.016414 -0.039277 -0.133445 -0.107675 0.031759 0.152367 0.056595 0.086575 -0.090000 -0.022191 0.163016 -0.060086 0.047387 0.092660 0.068607 0.004628 0.064844 -0.054828 0.003331 0.117351 -0.178336 0.023267 -0.040157 -0.005083 -0.074680 -0.047150 0.016097 0.121761 -0.108646 -0.073420 0.074309 -0.014686 -0.076263 -0.057761 0.050423 0.019953 -0.065647 -0.012574 -0.079691 -0.012353 0.090579 -0.069301 0.032744 -0.006401 -0.093160 -0.000649 -0.030398 -0.037289 -0.005349 -0.053574 -0.089682 -0.076934 -0.009055 -0.153014 -0.033320 0.065351 -0.055752 0.007357 -0.044914 -0.074482 -0.010033 0.117349 -0.007515 0.092276 0.030042 0.168349 -0.091413 0.043071 0.134461 0.039247 -0.000418 -0.011460 0.031332 0.102590 0.125972 0.075452 -0.052313 0.099625 0.004610 -0.066168 -0.036885 -0.022198 0.114693 0.041156 -0.004149 -0.029430 -0.018429 -0.033519 0.196401 -0.020804 -0.018350 0.018778 0.178364 0.089178 -0.094922 0.049053 0.081767 0.038432 0.042120 -0.089526 -0.065094 0.017243 -0.052930 0.058023 -0.080802 0.053298 -0.008260 0.000751 0.011129 -0.080990 0.015495 -0.074093 0.010140 0.034392 -0.020743 -0.024164 -0.114758 -0.089839 -0.020093 -0.074453 -0.001506 -0.037620 0.025009 0.017246 0.055629 -0.072340 -0.029851 -0.096994 -0.072082 0.030992 -0.094624 0.013701 0.017080 0.093926 0.058899 0.009359 -0.004202 0.039550 -0.089778 0.063497 -0.044423 0.050225 0.071450 0.006459 -0.062859 0.092395 0.064339 0.084634 -0.050205 0.029022 -0.065270 -0.004183 -0.081313 0.030789 0.014799 -0.077743 -0.057444 -0.000780 0.102628 0.086695 -0.091045 -0.031514 0.070222 -0.092963 0.012590 0.049628 0.068106 0.062066 0.027968 -0.101142 0.046902 0.091222 0.049919 -0.111671 0.102154 0.038661 -0.018789 
we -0.027348 -0.079278 0.043468 -0.026217 0.018766 -0.087858 -0.092881 0.062968 0.016649 -0.003889 0.022401 0.079650 -0.046847 -0.082203 0.044640 -0.027551 -0.029769 0.193761 0.010714 -0.044864 -0.174103 0.068018 0.077538 -0.017791 -0.039431 -0.133340 -0.107753 0.031954 0.151356 0.057628 0.087802 -0.087904 -0.023552 0.160552 -0.057654 0.044966 0.092746 0.070844 0.004966 0.067104 -0.056837 0.002475 0.115969 -0.177902 0.023739 -0.040619 -0.005310 -0.076588 -0.046566 0.016826 0.123775 -0.109874 -0.074394 0.076022 -0.013740 -0.077168 -0.060416 0.048666 0.022231 -0.063835 -0.012273 -0.077303 -0.013771 0.091932 -0.068940 0.031986 -0.006424 -0.092578 -0.001618 -0.030965 -0.037938 -0.005558 -0.055078 -0.092239 -0.075781 -0.007219 -0.154459 -0.031887 0.066093 -0.055398 0.006518 -0.045016 -0.074442 -0.009288 0.118948 -0.005354 0.094552 0.029805 0.166626 -0.089792 0.041778 0.133980 0.038027 -0.002094 -0.013008 0.031681 0.102685 0.124938 0.076611 -0.051808 0.098614 0.004854 -0.065479 -0.036444 -0.023381 0.113141 0.041595 -0.004773 -0.028939 -0.018446 -0.033506 0.195524 -0.019584 -0.018630 0.019311 0.179320 0.090010 -0.095422 0.049276 0.081609 0.036507 0.041813 -0.088356 -0.064276 0.017084 -0.052533 0.059303 -0.081132 0.055110 -0.006850 -0.000489 0.011433 -0.082288 0.015477 -0.074881 0.010668 0.033574 -0.020974 -0.024079 -0.116571 -0.088823 -0.020999 -0.074063 -0.000219 -0.036708 0.024338 0.015844 0.053541 -0.071193 -0.030312 -0.097598 -0.071548 0.032717 -0.093918 0.014335 0.016204 0.094750 0.057497 0.010201 -0.002515 0.040413 -0.091843 0.063196 -0.044246 0.048791 0.071238 0.007381 -0.061638 0.091538 0.064318 0.083945 -0.050792 0.028012 -0.065160 -0.003283 -0.080887 0.029859 0.013268 -0.078316 -0.056847 -0.000190 0.102037 0.087412 -0.089927 -0.029680 0.072088 -0.090591 0.013370 0.049113 0.068943 0.063357 0.028509 -0.102092 0.047833 0.092007 0.049569 -0.113213 0.102212 0.038201 -0.019543 
as -0.028649 -0.080089 0.040566 -0.024238 0.019251 -0.088308 -0.091002 0.066682 0.014571 -0.003433 0.023434 0.079769 -0.047146 -0.081848 0.048080 -0.028287 -0.029930 0.192701 0.013326 -0.046004 -0.173792 0.070990 0.078020 -0.019760 -0.041540 -0.133525 -0.109775 0.031130 0.152720 0.057677 0.089507 -0.086284 -0.022216 0.162539 -0.060253 0.047556 0.094368 0.067995 0.006569 0.065384 -0.057619 -0.001529 0.118943 -0.176302 0.023484 -0.040547 -0.008342 -0.077414 -0.045810 0.018618 0.121573 -0.110308 -0.077121 0.073574 -0.011968 -0.074080 -0.061674 0.052438 0.020620 -0.063444 -0.016405 -0.079468 -0.009905 0.092622 -0.071478 0.033496 -0.010319 -0.091898 -0.001317 -0.030845 -0.036680 -0.008559 -0.052975 -0.092312 -0.076493 -0.005837 -0.153931 -0.031919 0.069466 -0.055852 0.006125 -0.047230 -0.074448 -0.010851 0.119093 -0.005337 0.090949 0.030623 0.169647 -0.090239 0.041554 0.134280 0.036320 0.000017 -0.013171 0.028577 0.102039 0.127247 0.075616 -0.052574 0.099897 0.006405 -0.064898 -0.036834 -0.022762 0.110417 0.041805 -0.003126 -0.026025 -0.023000 -0.036396 0.195707 -0.017526 -0.018984 0.021187 0.179444 0.086147 -0.093090 0.046436 0.083451 0.038164 0.043337 -0.091732 -0.064878 0.015637 -0.049758 0.058670 -0.078486 0.052220 -0.006369 -0.001238 0.011640 -0.078729 0.015101 -0.073504 0.010304 0.032700 -0.017795 -0.024077 -0.116977 -0.089476 -0.022111 -0.074871 -0.003306 -0.035949 0.025425 0.013227 0.054888 -0.067123 -0.029531 -0.095071 -0.071802 0.033536 -0.097598 0.011704 0.014666 0.092745 0.055208 0.007400 -0.002768 0.043314 -0.091580 0.063735 -0.041113 0.047862 0.069593 0.008811 -0.062715 0.089828 0.062299 0.086257 -0.050090 0.025767 -0.067264 -0.002051 -0.082135 0.027587 0.016254 -0.075195 -0.054317 0.000862 0.099648 0.089090 -0.090348 -0.029907 0.067189 -0.090170 0.011598 0.051679 0.071717 0.062111 0.029570 -0.101314 0.049843 0.092097 0.049650 -0.110764 0.103779 0.038868 -0.018657 
for -0.027149 -0.078770 0.044349 -0.025230 0.016339 -0.090875 -0.092304 0.065591 0.017774 -0.003373 0.019955 0.077998 -0.045094 -0.081239 0.044930 -0.027650 -0.029044 0.193453 0.013560 -0.042831 -0.175250 0.069228 0.075758 -0.017517 -0.040915 -0.134140 -0.109902 0.033449 0.151590 0.057202 0.085718 -0.087779 -0.023582 0.163869 -0.060286 0.047247 0.095656 0.070399 0.003004 0.065886 -0.053866 -0.000157 0.118142 -0.177510 0.022562 -0.037034 -0.005900 -0.077703 -0.046372 0.016887 0.122919 -0.107359 -0.074309 0.072835 -0.012385 -0.077258 -0.060562 0.047727 0.020033 -0.064415 -0.014141 -0.077824 -0.013920 0.091097 -0.068970 0.033075 -0.008720 -0.092830 -0.000727 -0.033397 -0.038059 -0.006516 -0.052945 -0.090205 -0.076966 -0.008603 -0.153436 -0.033667 0.067000 -0.052970 0.009179 -0.043764 -0.071144 -0.007462 0.115993 -0.006066 0.094103 0.029476 0.165822 -0.088511 0.038987 0.130829 0.040531 -0.001068 -0.011019 0.030354 0.103758 0.126002 0.078313 -0.053795 0.100342 0.004694 -0.067668 -0.034278 -0.022147 0.115248 0.039448 -0.004851 -0.028125 -0.022058 -0.033314 0.197323 -0.021985 -0.021012 0.019345 0.177441 0.088667 -0.093818 0.050820 0.081797 0.034953 0.042038 -0.089993 -0.066161 0.016451 -0.052610 0.059749 -0.079279 0.056838 -0.008287 0.001556 0.010367 -0.079285 0.014666 -0.074412 0.009017 0.034104 -0.021833 -0.022153 -0.115834 -0.089146 -0.018284 -0.072291 -0.002162 -0.036517 0.021944 0.014737 0.052966 -0.071740 -0.029760 -0.098797 -0.071630 0.031354 -0.096276 0.012152 0.015649 0.095812 0.055716 0.009311 -0.004756 0.040504 -0.089754 0.064196 -0.043290 0.047431 0.068817 0.005511 -0.064069 0.091775 0.064709 0.086150 -0.051623 0.028379 -0.066633 -0.003899 -0.082514 0.030592 0.016354 -0.079091 -0.058130 0.001194 0.100536 0.088576 -0.090088 -0.031565 0.070569 -0.091541 0.010702 0.051161 0.069978 0.064203 0.025877 -0.101446 0.046264 0.093521 0.048167 -0.112400 0.102815 0.039035 -0.019052 
function -0.024976 -0.080335 0.043748 -0.024827 0.020468 -0.087194 -0.094061 0.062884 0.013377 -0.003904 0.023521 0.079946 -0.044965 -0.080611 0.046965 -0.025517 -0.029937 0.192815 0.011394 -0.047025 -0.174218 0.070750 0.077913 -0.018021 -0.042370 -0.133206 -0.107337 0.031487 0.150754 0.056900 0.088191 -0.091513 -0.024773 0.160099 -0.057135 0.044781 0.091590 0.071985 0.006122 0.066742 -0.055132 -0.000831 0.117354 -0.176608 0.022296 -0.040920 -0.005491 -0.074984 -0.046695 0.017030 0.124200 -0.109200 -0.076464 0.076824 -0.010748 -0.073923 -0.058941 0.047191 0.019223 -0.061884 -0.011664 -0.077931 -0.015015 0.093006 -0.070022 0.030920 -0.006880 -0.092703 -0.002326 -0.029153 -0.035362 -0.007102 -0.056026 -0.091862 -0.076960 -0.008599 -0.154987 -0.032467 0.069595 -0.053728 0.009266 -0.046829 -0.071489 -0.011989 0.116702 -0.003755 0.096031 0.031320 0.166061 -0.089437 0.039428 0.133230 0.037337 -0.000130 -0.014234 0.028955 0.104047 0.125335 0.078705 -0.051615 0.100076 0.006728 -0.064516 -0.036511 -0.022449 0.113174 0.042073 -0.003481 -0.029596 -0.020319 -0.033415 0.193519 -0.020856 -0.017620 0.018480 0.180256 0.091180 -0.093938 0.048474 0.082738 0.037702 0.040552 -0.088332 -0.063606 0.018501 -0.052011 0.060082 -0.079519 0.052516 -0.007631 0.001754 0.010324 -0.082504 0.014462 -0.076371 0.009877 0.032512 -0.020388 -0.024082 -0.115276 -0.092313 -0.021281 -0.074381 -0.001139 -0.034591 0.021992 0.017575 0.052552 -0.068106 -0.032082 -0.096815 -0.072361 0.032121 -0.093613 0.014736 0.017554 0.092638 0.057498 0.011766 -0.004181 0.040950 -0.091959 0.062909 -0.045891 0.051216 0.071655 0.008920 -0.064547 0.088250 0.061179 0.086739 -0.051089 0.025491 -0.064411 -0.003958 -0.081058 0.028073 0.012998 -0.077673 -0.056732 -0.003015 0.101586 0.086043 -0.092328 -0.031835 0.071976 -0.092537 0.012722 0.051292 0.071208 0.064336 0.027255 -0.105056 0.050351 0.091296 0.048070 -0.112209 0.103976 0.036975 -0.020844 
it -0.024707 -0.079942 0.045251 -0.024143 0.016882 -0.089868 -0.091628 0.066207 0.017206 -0.005133 0.023570 0.079248 -0.047648 -0.082022 0.044462 -0.029320 -0.032408 0.193555 0.011834 -0.045583 -0.174705 0.067399 0.075261 -0.014885 -0.040320 -0.134019 -0.106427 0.033505 0.148594 0.055574 0.086389 -0.089960 -0.022065 0.164012 -0.060074 0.045307 0.092951 0.070830 0.006485 0.066187 -0.056073 -0.000896 0.117466 -0.175334 0.022285 -0.039625 -0.008582 -0.075233 -0.045571 0.016939 0.121935 -0.108112 -0.077093 0.074159 -0.015808 -0.075216 -0.061187 0.049616 0.018764 -0.063055 -0.011478 -0.076201 -0.011014 0.094105 -0.069082 0.028542 -0.008191 -0.093090 -0.001643 -0.030449 -0.037168 -0.007308 -0.056402 -0.090517 -0.078735 -0.009012 -0.153415 -0.033453 0.066467 -0.055390 0.009031 -0.042604 -0.072812 -0.011320 0.120389 -0.006398 0.093790 0.030894 0.169990 -0.090648 0.043369 0.134940 0.039460 -0.000981 -0.009792 0.032935 0.103484 0.122504 0.079891 -0.052063 0.100648 0.005972 -0.063916 -0.035372 -0.021141 0.111160 0.038807 -0.007651 -0.026073 -0.017301 -0.036261 0.195514 -0.018142 -0.019949 0.018219 0.176602 0.089546 -0.096452 0.048694 0.078439 0.037827 0.041110 -0.091311 -0.065740 0.016780 -0.054770 0.059185 -0.082955 0.055310 -0.006271 -0.002241 0.009241 -0.083272 0.013939 -0.073588 0.007208 0.034077 -0.020792 -0.022618 -0.117116 -0.091387 -0.020916 -0.072426 -0.000119 -0.033930 0.024109 0.018607 0.053049 -0.070346 -0.028459 -0.099454 -0.071095 0.032489 -0.097600 0.016378 0.013637 0.092927 0.057204 0.011140 -0.003271 0.042233 -0.091867 0.065884 -0.041876 0.050302 0.072404 0.009805 -0.060685 0.090750 0.062715 0.086217 -0.050311 0.028125 -0.066282 -0.001336 -0.082075 0.032043 0.014311 -0.075314 -0.055887 -0.000782 0.100434 0.086490 -0.090036 -0.031327 0.071084 -0.092392 0.010227 0.048845 0.069640 0.063596 0.026958 -0.100935 0.050092 0.090219 0.046599 -0.114179 0.099462 0.040780 -0.021519 
are -0.026770 -0.081118 0.043619 -0.025940 0.017853 -0.088908 -0.093353 0.063790 0.014682 -0.003995 0.021798 0.079039 -0.045819 -0.082324 0.046448 -0.026846 -0.029956 0.193324 0.011449 -0.045038 -0.174462 0.068786 0.078642 -0.017099 -0.041700 -0.133731 -0.109632 0.031847 0.150869 0.057314 0.087356 -0.089241 -0.023510 0.162713 -0.058394 0.045746 0.094251 0.069671 0.004278 0.066630 -0.055809 0.002569 0.116438 -0.175991 0.023265 -0.039543 -0.006870 -0.075798 -0.047647 0.018116 0.123699 -0.109590 -0.074912 0.074028 -0.012309 -0.074994 -0.059812 0.048601 0.021020 -0.064316 -0.013758 -0.079060 -0.012604 0.090732 -0.069892 0.030936 -0.007126 -0.091469 -0.002507 -0.032341 -0.038557 -0.006865 -0.053592 -0.091511 -0.077016 -0.008416 -0.153575 -0.032697 0.066019 -0.054653 0.007144 -0.044554 -0.072400 -0.010595 0.118489 -0.005093 0.093410 0.030800 0.167921 -0.089741 0.041403 0.133069 0.039870 -0.000679 -0.012735 0.030599 0.103249 0.125327 0.077789 -0.052005 0.099792 0.005468 -0.065668 -0.036403 -0.023730 0.113963 0.040616 -0.004434 -0.027022 -0.018272 -0.034916 0.196409 -0.019786 -0.019220 0.018463 0.178627 0.089138 -0.095296 0.048522 0.081203 0.035668 0.042260 -0.090386 -0.063427 0.017447 -0.052580 0.058150 -0.079566 0.055049 -0.007105 0.000161 0.011884 -0.081159 0.015881 -0.074656 0.009446 0.033483 -0.019324 -0.023762 -0.116336 -0.090585 -0.019808 -0.073723 -0.001992 -0.035022 0.025147 0.016840 0.053678 -0.069487 -0.030532 -0.095804 -0.072826 0.032452 -0.095491 0.012912 0.016426 0.093985 0.058605 0.010653 -0.003725 0.042278 -0.090727 0.063648 -0.043525 0.049930 0.071389 0.007735 -0.061845 0.089759 0.063395 0.084732 -0.051146 0.027136 -0.065583 -0.001792 -0.082320 0.028537 0.013460 -0.077395 -0.058547 -0.000750 0.101549 0.087142 -0.090301 -0.031719 0.070792 -0.090943 0.012903 0.049702 0.068568 0.062588 0.027749 -0.103153 0.048334 0.091997 0.048575 -0.112264 0.102115 0.038686 -0.018483 
data -0.026249 -0.081092 0.044196 -0.026636 0.019636 -0.087912 -0.094399 0.063712 0.015051 -0.003906 0.022866 0.078793 -0.045212 -0.083206 0.046466 -0.027184 -0.029533 0.192684 0.010556 -0.044004 -0.174886 0.068162 0.076944 -0.016444 -0.040565 -0.133949 -0.109693 0.031325 0.150365 0.057771 0.086604 -0.088271 -0.023910 0.162510 -0.059111 0.044848 0.093384 0.070722 0.005006 0.067096 -0.055142 0.001384 0.116937 -0.177956 0.022486 -0.039240 -0.007179 -0.076980 -0.047761 0.017051 0.123604 -0.108600 -0.075462 0.075730 -0.012967 -0.076273 -0.058120 0.049407 0.020480 -0.063673 -0.013746 -0.077191 -0.013392 0.090975 -0.068855 0.030161 -0.007669 -0.092252 -0.001411 -0.031172 -0.036623 -0.006225 -0.054655 -0.092243 -0.077483 -0.006831 -0.153620 -0.033044 0.068267 -0.054170 0.006150 -0.046178 -0.074435 -0.009943 0.117628 -0.005537 0.093997 0.030013 0.167473 -0.090563 0.040418 0.132410 0.038726 -0.002037 -0.011412 0.030172 0.103691 0.124345 0.075574 -0.053227 0.098367 0.004585 -0.065006 -0.035250 -0.022213 0.114231 0.040299 -0.006367 -0.028509 -0.019628 -0.034967 0.196274 -0.019144 -0.018737 0.017286 0.179547 0.088294 -0.095736 0.047814 0.081225 0.038000 0.042333 -0.089692 -0.063039 0.017314 -0.052715 0.059724 -0.080715 0.054493 -0.008707 -0.001163 0.010710 -0.080473 0.015212 -0.072931 0.008709 0.033037 -0.020916 -0.022644 -0.115196 -0.088828 -0.020059 -0.073981 -0.000681 -0.035371 0.025356 0.016448 0.054199 -0.070783 -0.030700 -0.097342 -0.072830 0.032597 -0.094869 0.013154 0.015454 0.094544 0.057458 0.009954 -0.002955 0.040984 -0.090153 0.062489 -0.044642 0.050206 0.070931 0.008452 -0.061867 0.091897 0.062768 0.083096 -0.051152 0.027538 -0.066590 -0.001830 -0.081727 0.029493 0.013063 -0.077407 -0.058058 -0.000102 0.101635 0.088983 -0.091895 -0.031567 0.072348 -0.091301 0.013111 0.051117 0.068982 0.062074 0.027590 -0.103452 0.048318 0.091631 0.049783 -0.112232 0.101634 0.038087 -0.018221 
this -0.025980 -0.081212 0.044580 -0.025332 0.018299 -0.090680 -0.094982 0.063416 0.015554 -0.005587 0.020576 0.079225 -0.043990 -0.083162 0.044094 -0.029115 -0.027867 0.192384 0.012497 -0.045108 -0.175125 0.069864 0.078912 -0.017406 -0.041665 -0.131069 -0.109739 0.032721 0.149687 0.057470 0.087343 -0.090076 -0.023866 0.160177 -0.060394 0.044192 0.092605 0.070073 0.005224 0.066446 -0.055613 0.003084 0.115688 -0.177962 0.022574 -0.038104 -0.004629 -0.074872 -0.046293 0.017760 0.121762 -0.108747 -0.074498 0.073379 -0.013951 -0.075113 -0.059916 0.047813 0.022002 -0.062298 -0.014781 -0.076572 -0.010797 0.093085 -0.070836 0.032131 -0.005729 -0.090601 -0.003609 -0.030161 -0.035939 -0.008537 -0.053748 -0.091551 -0.078033 -0.010010 -0.153101 -0.032487 0.066593 -0.054295 0.007992 -0.044448 -0.073908 -0.008027 0.120191 -0.006190 0.093155 0.029713 0.167076 -0.092382 0.042512 0.132925 0.037435 -0.002220 -0.013571 0.032425 0.101778 0.123862 0.076184 -0.050439 0.096887 0.007184 -0.064537 -0.034463 -0.021685 0.114819 0.040249 -0.006537 -0.029066 -0.018584 -0.035624 0.196874 -0.019702 -0.018747 0.016470 0.179189 0.088438 -0.094813 0.050565 0.080170 0.037388 0.043694 -0.090001 -0.064907 0.015830 -0.052341 0.059930 -0.081277 0.052686 -0.007934 -0.001529 0.011196 -0.083100 0.016700 -0.075410 0.011241 0.035165 -0.021727 -0.024523 -0.114975 -0.088927 -0.018394 -0.072456 -0.002465 -0.035747 0.023110 0.015373 0.055228 -0.072424 -0.030863 -0.098348 -0.071654 0.033751 -0.094632 0.013642 0.016224 0.092673 0.058265 0.007928 -0.002165 0.039855 -0.090700 0.065380 -0.045765 0.048452 0.071108 0.009146 -0.062896 0.090126 0.061789 0.084817 -0.051474 0.026522 -0.065055 -0.001521 -0.079653 0.029889 0.014915 -0.079309 -0.059111 -0.000326 0.103473 0.089020 -0.092079 -0.031940 0.072656 -0.093016 0.013744 0.049208 0.069510 0.064857 0.028943 -0.104017 0.048559 0.093593 0.047375 -0.112615 0.100412 0.038267 -0.020546 
have -0.026314 -0.079750 0.044053 -0.025727 0.019724 -0.088861 -0.093490 0.063336 0.015826 -0.002618 0.021588 0.079558 -0.046197 -0.082548 0.044541 -0.028905 -0.029782 0.192299 0.011629 -0.044984 -0.174109 0.068416 0.077585 -0.016034 -0.041065 -0.133625 -0.108422 0.031535 0.151000 0.058195 0.087727 -0.089986 -0.024337 0.162219 -0.059443 0.046807 0.094398 0.069333 0.004759 0.066335 -0.055059 0.000835 0.115831 -0.176244 0.022372 -0.039380 -0.005679 -0.076396 -0.046479 0.016843 0.122360 -0.108574 -0.074426 0.075029 -0.013542 -0.075964 -0.059300 0.049887 0.021809 -0.064745 -0.012532 -0.078080 -0.013353 0.091627 -0.069836 0.030327 -0.007809 -0.091692 -0.002144 -0.031275 -0.037928 -0.007138 -0.054884 -0.092278 -0.076211 -0.008707 -0.153415 -0.031767 0.066491 -0.054188 0.007298 -0.045702 -0.073327 -0.011059 0.117476 -0.004855 0.094622 0.030209 0.168154 -0.091729 0.041894 0.132392 0.038301 -0.001306 -0.012422 0.030390 0.104398 0.124750 0.075674 -0.051750 0.098494 0.006126 -0.064967 -0.036466 -0.022992 0.114294 0.041572 -0.004982 -0.027349 -0.019036 -0.035330 0.196364 -0.020834 -0.018262 0.018404 0.179162 0.088626 -0.095712 0.049663 0.080866 0.036015 0.041656 -0.088508 -0.064618 0.017538 -0.052503 0.059706 -0.080594 0.054828 -0.007954 -0.001308 0.010907 -0.082080 0.016015 -0.074060 0.009578 0.034057 -0.020341 -0.023680 -0.115346 -0.089501 -0.020128 -0.073569 -0.000712 -0.035466 0.023977 0.015397 0.054780 -0.069909 -0.029266 -0.096569 -0.073184 0.032228 -0.095253 0.014634 0.017101 0.095436 0.056978 0.008913 -0.003268 0.040984 -0.091526 0.062988 -0.043554 0.049195 0.070990 0.008285 -0.063446 0.090210 0.063635 0.084511 -0.050202 0.027475 -0.065447 -0.002276 -0.081949 0.029130 0.014274 -0.078341 -0.058833 -0.000870 0.102462 0.088630 -0.090552 -0.030193 0.072123 -0.092144 0.013380 0.050419 0.069792 0.062544 0.027355 -0.101877 0.047734 0.092040 0.049431 -0.112597 0.101124 0.039560 -0.020094 
going -0.025581 -0.078182 0.043965 -0.025978 0.019821 -0.090790 -0.093963 0.061610 0.012931 -0.002311 0.024396 0.079892 -0.042990 -0.084562 0.046134 -0.025734 -0.030308 0.192877 0.011052 -0.042247 -0.177061 0.071191 0.077924 -0.019687 -0.039048 -0.131414 -0.109369 0.035059 0.149710 0.059176 0.087763 -0.090562 -0.025525 0.164121 -0.056806 0.044932 0.095530 0.069432 0.004956 0.064727 -0.052690 0.002850 0.113478 -0.175919 0.023393 -0.039200 -0.003720 -0.076852 -0.044740 0.020556 0.126080 -0.108933 -0.073559 0.077477 -0.013620 -0.076806 -0.059224 0.052225 0.023329 -0.063728 -0.013153 -0.075655 -0.012236 0.094545 -0.067360 0.032290 -0.005838 -0.092477 0.000637 -0.032438 -0.038486 -0.005657 -0.052411 -0.091604 -0.075198 -0.006060 -0.155699 -0.030929 0.069030 -0.057615 0.008318 -0.047697 -0.076062 -0.011121 0.118315 -0.004442 0.091446 0.033419 0.167517 -0.092745 0.044483 0.133621 0.040242 -0.004389 -0.013686 0.032875 0.103100 0.123147 0.074797 -0.049199 0.096681 0.002891 -0.064546 -0.036686 -0.021239 0.110913 0.038372 -0.005767 -0.025028 -0.018599 -0.036270 0.193707 -0.021471 -0.021486 0.020571 0.178520 0.087358 -0.095191 0.046764 0.082933 0.036607 0.040007 -0.089533 -0.062547 0.014677 -0.050116 0.059438 -0.083709 0.052616 -0.007041 -0.002611 0.013799 -0.081981 0.016142 -0.073797 0.008704 0.034612 -0.020656 -0.027043 -0.117041 -0.088237 -0.019863 -0.075327 -0.001369 -0.038894 0.026766 0.014172 0.056814 -0.073608 -0.027421 -0.095100 -0.068843 0.031767 -0.091682 0.015504 0.015078 0.093688 0.058798 0.008675 -0.003371 0.044193 -0.088592 0.065538 -0.041074 0.051953 0.068193 0.009987 -0.061171 0.092394 0.064378 0.084387 -0.051122 0.028582 -0.068615 -0.000703 -0.084080 0.031925 0.015005 -0.074833 -0.056738 0.002128 0.100422 0.085136 -0.091241 -0.030324 0.071352 -0.092322 0.010200 0.052042 0.066763 0.064707 0.027044 -0.100515 0.051017 0.094367 0.048013 -0.113390 0.100818 0.041515 -0.020115 
be -0.025449 -0.080501 0.043411 -0.027107 0.019014 -0.088736 -0.091972 0.063374 0.016263 -0.004894 0.021477 0.079585 -0.044723 -0.082552 0.046253 -0.028740 -0.029273 0.194116 0.012285 -0.045461 -0.174653 0.068941 0.077969 -0.017106 -0.040018 -0.131774 -0.108634 0.030782 0.151513 0.057549 0.088126 -0.089550 -0.024493 0.161722 -0.059902 0.046729 0.094038 0.070752 0.005142 0.066085 -0.055400 0.000961 0.115462 -0.177704 0.024486 -0.040271 -0.007142 -0.076263 -0.046215 0.016231 0.122905 -0.108379 -0.073805 0.074986 -0.014031 -0.074887 -0.058609 0.049832 0.022004 -0.064604 -0.013690 -0.079081 -0.012086 0.091745 -0.070326 0.030006 -0.008297 -0.090768 -0.001706 -0.030521 -0.036133 -0.007825 -0.053401 -0.091709 -0.075970 -0.006830 -0.155441 -0.033462 0.066278 -0.054101 0.006664 -0.046115 -0.072296 -0.009746 0.118172 -0.005614 0.093095 0.030613 0.168390 -0.089710 0.041820 0.133299 0.040400 -0.000716 -0.012385 0.030231 0.103759 0.124944 0.077700 -0.052360 0.099330 0.005919 -0.064703 -0.034624 -0.021908 0.113405 0.041763 -0.004211 -0.028758 -0.019354 -0.034424 0.196381 -0.019915 -0.020089 0.019336 0.178903 0.087598 -0.095069 0.049667 0.081786 0.037844 0.041591 -0.087913 -0.064823 0.017670 -0.052992 0.059170 -0.081096 0.056048 -0.007380 -0.001363 0.010954 -0.083016 0.015142 -0.074804 0.008824 0.034602 -0.018909 -0.023681 -0.115953 -0.090087 -0.018555 -0.073329 -0.001011 -0.034898 0.024489 0.016416 0.053286 -0.070023 -0.029467 -0.095420 -0.072943 0.031430 -0.094770 0.015013 0.015504 0.094153 0.057963 0.009177 -0.003769 0.041142 -0.090636 0.062733 -0.044929 0.049179 0.071424 0.006487 -0.062373 0.090116 0.063346 0.084974 -0.050277 0.027516 -0.067345 -0.003446 -0.082774 0.029192 0.013211 -0.077718 -0.057002 -0.000489 0.101198 0.088756 -0.089868 -0.031401 0.070771 -0.091885 0.012647 0.049399 0.070101 0.064038 0.028713 -0.101681 0.049152 0.091787 0.049516 -0.111985 0.100603 0.038912 -0.018905 
value -0.026643 -0.079603 0.043811 -0.024747 0.019882 -0.089509 -0.093363 0.064621 0.016452 -0.003961 0.021191 0.079741 -0.045836 -0.082535 0.044395 -0.027089 -0.029487 0.191591 0.011694 -0.046086 -0.175065 0.069070 0.078420 -0.016686 -0.040543 -0.132951 -0.108881 0.031442 0.151616 0.057102 0.088315 -0.088614 -0.022752 0.162941 -0.057721 0.045102 0.093428 0.071033 0.003537 0.066989 -0.055452 0.001538 0.115964 -0.177449 0.022680 -0.039854 -0.005348 -0.076583 -0.046372 0.017578 0.121776 -0.109916 -0.073463 0.074362 -0.013616 -0.075183 -0.060231 0.050524 0.021787 -0.064242 -0.013456 -0.079287 -0.012647 0.090820 -0.070396 0.032138 -0.006504 -0.091469 -0.001439 -0.031125 -0.037696 -0.007505 -0.054493 -0.091313 -0.077285 -0.006986 -0.154486 -0.032753 0.066667 -0.053664 0.007053 -0.044043 -0.074049 -0.010627 0.119277 -0.004912 0.093714 0.029846 0.167968 -0.091255 0.042601 0.133563 0.040009 -0.000747 -0.011607 0.030075 0.103451 0.125215 0.076279 -0.051734 0.098212 0.006827 -0.066001 -0.035228 -0.021768 0.112724 0.040887 -0.004786 -0.028379 -0.018652 -0.035048 0.196297 -0.019145 -0.019832 0.017191 0.179257 0.089841 -0.095316 0.047390 0.079955 0.036770 0.041749 -0.089015 -0.064705 0.017423 -0.052689 0.058398 -0.080971 0.053727 -0.008424 -0.000867 0.012557 -0.080620 0.014726 -0.073542 0.009791 0.034004 -0.019383 -0.023699 -0.116489 -0.089836 -0.020108 -0.072676 -0.002542 -0.035940 0.023345 0.015743 0.054649 -0.071456 -0.030535 -0.097408 -0.072710 0.031963 -0.094859 0.014682 0.015628 0.093341 0.058108 0.010084 -0.003279 0.041662 -0.090824 0.064823 -0.044238 0.049675 0.070157 0.007646 -0.062073 0.090762 0.062213 0.083075 -0.050669 0.027500 -0.065810 -0.003819 -0.081054 0.030652 0.015059 -0.078556 -0.057062 -0.001163 0.101390 0.089161 -0.090580 -0.031481 0.070065 -0.091363 0.012776 0.050875 0.070667 0.063757 0.027417 -0.103106 0.049007 0.091329 0.048187 -0.112578 0.100728 0.037798 -0.019380 
one -0.026983 -0.082571 0.040346 -0.024811 0.021111 -0.086896 -0.091392 0.064596 0.016926 -0.003135 0.023278 0.077219 -0.045306 -0.085853 0.043428 -0.029484 -0.033062 0.192504 0.015004 -0.049109 -0.172570 0.072276 0.074040 -0.018247 -0.044485 -0.128404 -0.105057 0.030008 0.146189 0.060900 0.085469 -0.090634 -0.024323 0.157898 -0.056071 0.048540 0.089804 0.070162 0.008435 0.068100 -0.056380 0.005398 0.116780 -0.179077 0.026101 -0.038789 -0.009108 -0.077262 -0.050507 0.021151 0.124179 -0.104507 -0.075285 0.075922 -0.016177 -0.073591 -0.056493 0.051671 0.017940 -0.060588 -0.009858 -0.079413 -0.008157 0.090873 -0.069996 0.034792 -0.003741 -0.092846 -0.002828 -0.033200 -0.035020 -0.008554 -0.056225 -0.093340 -0.078881 -0.009734 -0.155926 -0.035976 0.067843 -0.053119 0.004583 -0.048215 -0.075445 -0.013305 0.115575 -0.007583 0.095378 0.029287 0.167837 -0.091258 0.045452 0.132990 0.041208 -0.000339 -0.014584 0.034970 0.103037 0.124796 0.077849 -0.054704 0.101145 0.007982 -0.068397 -0.039351 -0.026742 0.111005 0.039340 -0.003813 -0.026906 -0.021764 -0.033625 0.193422 -0.021275 -0.021800 0.016120 0.178609 0.085630 -0.092089 0.051811 0.079123 0.036738 0.044665 -0.089822 -0.062866 0.019204 -0.050087 0.062320 -0.077610 0.056021 -0.004009 0.003411 0.010662 -0.082818 0.012135 -0.077923 0.006837 0.037282 -0.023278 -0.027498 -0.115406 -0.092936 -0.021980 -0.076060 -0.003332 -0.035710 0.027746 0.019080 0.053098 -0.072672 -0.026061 -0.095552 -0.070253 0.031656 -0.097831 0.013000 0.011861 0.095852 0.059172 0.007405 0.000191 0.044787 -0.093696 0.066311 -0.040895 0.052415 0.067874 0.007465 -0.061211 0.094027 0.065322 0.082108 -0.051220 0.028290 -0.069594 -0.004140 -0.080709 0.031564 0.014632 -0.073235 -0.056708 -0.002194 0.105556 0.090724 -0.092556 -0.031086 0.068247 -0.087923 0.014847 0.052973 0.068963 0.060320 0.026465 -0.105483 0.045608 0.089088 0.050167 -0.111981 0.097835 0.039075 -0.019373 
with -0.025242 -0.081159 0.042598 -0.024991 0.018098 -0.088335 -0.094431 0.063613 0.014487 -0.004812 0.022045 0.077836 -0.046002 -0.081588 0.045743 -0.028872 -0.029704 0.191937 0.012975 -0.044442 -0.172931 0.067806 0.078147 -0.018058 -0.040679 -0.133812 -0.109482 0.032470 0.149801 0.059071 0.087159 -0.089234 -0.024280 0.162098 -0.058994 0.045861 0.094902 0.069477 0.004143 0.065444 -0.055795 0.001115 0.116970 -0.176225 0.023359 -0.039613 -0.007313 -0.076301 -0.047147 0.017918 0.123163 -0.109809 -0.075474 0.074566 -0.012518 -0.076758 -0.058355 0.050190 0.021726 -0.064729 -0.012476 -0.078386 -0.012924 0.092417 -0.070318 0.031673 -0.007644 -0.092011 -0.001826 -0.031482 -0.038550 -0.006932 -0.053216 -0.091761 -0.076313 -0.007016 -0.153236 -0.031158 0.066032 -0.053617 0.008121 -0.045572 -0.072651 -0.009286 0.118259 -0.005525 0.093724 0.030438 0.167257 -0.091375 0.042545 0.134124 0.039393 -0.000825 -0.012848 0.031395 0.103326 0.125214 0.077772 -0.051451 0.098723 0.005824 -0.065589 -0.035153 -0.023052 0.113062 0.039542 -0.006040 -0.028776 -0.020154 -0.034497 0.196756 -0.020787 -0.018512 0.018498 0.179111 0.089507 -0.094385 0.048983 0.080159 0.037757 0.042041 -0.089122 -0.063126 0.017392 -0.053485 0.058583 -0.080047 0.055367 -0.008248 -0.001890 0.011775 -0.082055 0.015329 -0.074266 0.009919 0.034459 -0.019058 -0.024944 -0.114537 -0.089784 -0.020030 -0.073231 -0.000403 -0.035941 0.024761 0.017273 0.055499 -0.071495 -0.030487 -0.097571 -0.072718 0.032344 -0.094414 0.014594 0.015789 0.093923 0.056579 0.008997 -0.002333 0.040660 -0.090317 0.064187 -0.044340 0.049072 0.069919 0.008407 -0.062144 0.091024 0.063177 0.084305 -0.050278 0.028500 -0.066917 -0.003030 -0.081554 0.030188 0.014606 -0.077080 -0.057877 -0.000344 0.103143 0.088298 -0.090943 -0.031695 0.071149 -0.091474 0.013622 0.049941 0.070585 0.063748 0.028184 -0.102479 0.047705 0.092848 0.049258 -0.112708 0.102005 0.037469 -0.019561 
map -0.028379 -0.078946 0.044243 -0.027157 0.018177 -0.091668 -0.092914 0.062730 0.014552 -0.003741 0.021170 0.078405 -0.047851 -0.082695 0.044529 -0.030134 -0.027476 0.190534 0.014119 -0.042308 -0.174127 0.068940 0.078556 -0.016950 -0.043548 -0.133332 -0.108305 0.029771 0.149414 0.054962 0.088325 -0.091390 -0.020254 0.163796 -0.059794 0.047659 0.091005 0.070547 0.003462 0.065902 -0.054014 -0.000937 0.115440 -0.175564 0.024488 -0.038432 -0.004162 -0.078559 -0.047168 0.018793 0.124793 -0.110046 -0.075093 0.077455 -0.014044 -0.074506 -0.058699 0.048750 0.023547 -0.066491 -0.014163 -0.080150 -0.010501 0.089173 -0.067937 0.033228 -0.007103 -0.089927 -0.001250 -0.029127 -0.037189 -0.004800 -0.054698 -0.091233 -0.073613 -0.010112 -0.154255 -0.031306 0.068632 -0.055463 0.006675 -0.047355 -0.074164 -0.007766 0.119153 -0.007172 0.093644 0.029257 0.165448 -0.092649 0.042868 0.131457 0.039089 -0.003549 -0.011214 0.031101 0.104479 0.125465 0.075741 -0.054745 0.097719 0.002646 -0.065358 -0.035587 -0.026037 0.114760 0.038211 -0.008202 -0.030441 -0.019567 -0.035652 0.197980 -0.020579 -0.020343 0.017651 0.179301 0.090890 -0.095522 0.046432 0.078536 0.038635 0.043922 -0.091055 -0.062654 0.019337 -0.049992 0.061393 -0.081332 0.054852 -0.010476 0.000426 0.012387 -0.083087 0.013036 -0.070984 0.009878 0.034551 -0.018979 -0.021997 -0.116921 -0.087435 -0.021749 -0.073660 -0.000027 -0.037376 0.022477 0.013325 0.056499 -0.072513 -0.031720 -0.098103 -0.072365 0.032904 -0.095969 0.012073 0.016610 0.091791 0.057928 0.011060 -0.004247 0.041851 -0.091102 0.063814 -0.043325 0.052155 0.072493 0.004395 -0.060080 0.091179 0.063724 0.081704 -0.050929 0.028484 -0.064615 -0.004793 -0.079236 0.028540 0.016974 -0.079377 -0.058120 -0.000665 0.104241 0.085414 -0.088147 -0.031481 0.070802 -0.090190 0.013588 0.050144 0.072088 0.061661 0.028530 -0.101991 0.048717 0.094440 0.050009 -0.110243 0.101303 0.038872 -0.017977 
system -0.027505 -0.081912 0.041232 -0.025996 0.019168 -0.090853 -0.094189 0.064029 0.015400 -0.002989 0.023722 0.078244 -0.043790 -0.082622 0.045196 -0.026886 -0.031020 0.193094 0.013290 -0.047320 -0.172054 0.067512 0.076791 -0.018047 -0.039304 -0.132109 -0.110537 0.030469 0.152195 0.059456 0.088675 -0.088736 -0.024827 0.162367 -0.059271 0.045512 0.093928 0.068560 0.002728 0.065471 -0.055469 0.003924 0.114457 -0.176908 0.022770 -0.038560 -0.006386 -0.074251 -0.049537 0.016794 0.122998 -0.107404 -0.075157 0.073237 -0.011750 -0.077246 -0.057023 0.049097 0.021578 -0.066180 -0.012036 -0.080406 -0.012981 0.093408 -0.071229 0.033400 -0.007700 -0.090413 -0.002169 -0.033317 -0.037819 -0.007140 -0.052352 -0.092476 -0.078702 -0.006138 -0.152172 -0.030538 0.068980 -0.055217 0.005676 -0.046761 -0.071940 -0.008447 0.120580 -0.007942 0.096633 0.030723 0.165952 -0.092487 0.042673 0.131691 0.040459 -0.003634 -0.010930 0.030995 0.101929 0.127057 0.078427 -0.051962 0.099416 0.007467 -0.066153 -0.034519 -0.024490 0.112797 0.040452 -0.004474 -0.027570 -0.018047 -0.032431 0.194342 -0.021520 -0.018601 0.018572 0.177318 0.089598 -0.093810 0.049717 0.078749 0.036652 0.042595 -0.089672 -0.063554 0.020134 -0.050330 0.059069 -0.080322 0.053365 -0.006516 -0.003115 0.012349 -0.079958 0.015078 -0.072611 0.009692 0.033224 -0.021833 -0.024109 -0.114063 -0.091392 -0.019558 -0.073180 -0.002528 -0.036718 0.025825 0.013973 0.056068 -0.071772 -0.031666 -0.095014 -0.074035 0.033860 -0.092747 0.014971 0.015802 0.093012 0.058295 0.011303 -0.002480 0.040682 -0.091084 0.064653 -0.041745 0.051747 0.071732 0.009198 -0.062316 0.092531 0.064675 0.081820 -0.052343 0.029233 -0.067974 -0.001503 -0.080990 0.029282 0.015916 -0.075698 -0.056319 0.001631 0.101572 0.089279 -0.092322 -0.031626 0.072814 -0.091629 0.012500 0.049836 0.068007 0.065268 0.026390 -0.102806 0.046234 0.093612 0.049664 -0.113171 0.103581 0.038595 -0.021288 
can -0.027526 -0.081928 0.041268 -0.022936 0.019743 -0.088451 -0.093084 0.062995 0.016439 -0.001243 0.021333 0.076980 -0.043926 -0.082406 0.043085 -0.026147 -0.028008 0.194190 0.014049 -0.043127 -0.172638 0.068395 0.077285 -0.019857 -0.038770 -0.133502 -0.107777 0.031975 0.151143 0.060426 0.088568 -0.088311 -0.021199 0.161659 -0.057153 0.042928 0.093894 0.071576 0.006413 0.065458 -0.052732 0.002468 0.115951 -0.175290 0.024137 -0.040502 -0.008592 -0.075236 -0.048270 0.017009 0.124925 -0.108639 -0.076769 0.074861 -0.012862 -0.077348 -0.061522 0.049999 0.018156 -0.061822 -0.010372 -0.076685 -0.013120 0.092285 -0.070267 0.031688 -0.009971 -0.092557 -0.002438 -0.029412 -0.036225 -0.005552 -0.054818 -0.093103 -0.079135 -0.006445 -0.153344 -0.034762 0.067500 -0.052853 0.010088 -0.042398 -0.074349 -0.009948 0.118836 -0.005790 0.092321 0.031282 0.167814 -0.090287 0.043854 0.132821 0.038661 -0.002167 -0.010917 0.033963 0.100835 0.124873 0.078831 -0.054864 0.098391 0.006280 -0.067640 -0.036764 -0.021451 0.114082 0.039461 -0.002737 -0.027704 -0.018664 -0.033795 0.194627 -0.018871 -0.020473 0.017814 0.180631 0.085963 -0.096412 0.048120 0.080939 0.039443 0.040539 -0.089872 -0.065248 0.020354 -0.050654 0.058762 -0.079472 0.056416 -0.009392 -0.002012 0.014706 -0.081963 0.013562 -0.076554 0.008250 0.031886 -0.018392 -0.026522 -0.115226 -0.088955 -0.017115 -0.074802 -0.004034 -0.036130 0.023421 0.013641 0.053930 -0.069814 -0.028868 -0.098753 -0.071627 0.032329 -0.092336 0.013361 0.016320 0.094546 0.054872 0.012113 -0.003147 0.041752 -0.089582 0.061599 -0.045013 0.049966 0.071665 0.008525 -0.062582 0.092296 0.064348 0.083352 -0.051692 0.028796 -0.068252 -0.002990 -0.083338 0.027898 0.013051 -0.079081 -0.058279 -0.002163 0.099429 0.088065 -0.093660 -0.033298 0.069879 -0.094552 0.010007 0.048654 0.067225 0.065554 0.029771 -0.103251 0.045906 0.092618 0.051423 -0.110734 0.104028 0.040025 -0.021205 
reduce -0.026874 -0.080443 0.042803 -0.025467 0.019899 -0.089915 -0.093719 0.064176 0.014382 -0.004835 0.020586 0.079291 -0.044472 -0.083281 0.045167 -0.027399 -0.029091 0.192709 0.011015 -0.043917 -0.172871 0.070212 0.077430 -0.017479 -0.041222 -0.133034 -0.108272 0.032728 0.151784 0.059438 0.087512 -0.088015 -0.024451 0.160744 -0.058432 0.044806 0.092885 0.070957 0.004636 0.065743 -0.056756 0.001886 0.115911 -0.177348 0.023754 -0.040254 -0.005132 -0.074907 -0.047842 0.017392 0.123886 -0.110258 -0.074234 0.075225 -0.012920 -0.076748 -0.060229 0.048940 0.020469 -0.065282 -0.014021 -0.077322 -0.012061 0.090624 -0.068851 0.031250 -0.006789 -0.091070 -0.002323 -0.031501 -0.037875 -0.007042 -0.055304 -0.092607 -0.077491 -0.008874 -0.153955 -0.033633 0.067988 -0.055665 0.006697 -0.045357 -0.074459 -0.009767 0.118473 -0.006555 0.093213 0.030072 0.166907 -0.092033 0.041470 0.133550 0.039309 -0.001290 -0.012037 0.031641 0.103237 0.125566 0.076220 -0.050834 0.099469 0.006507 -0.064549 -0.035216 -0.023786 0.112882 0.041135 -0.005757 -0.028427 -0.019308 -0.034755 0.196874 -0.018587 -0.017809 0.016935 0.177885 0.088483 -0.094713 0.048806 0.082005 0.036332 0.042421 -0.090084 -0.064342 0.018817 -0.053758 0.059611 -0.080169 0.054580 -0.006964 -0.000872 0.011706 -0.082422 0.014169 -0.072982 0.009194 0.032668 -0.020708 -0.023180 -0.114709 -0.090224 -0.020973 -0.073247 -0.000618 -0.034868 0.023667 0.016017 0.053836 -0.070826 -0.029852 -0.097620 -0.071381 0.032453 -0.095765 0.013708 0.016748 0.094224 0.057554 0.010478 -0.003055 0.040993 -0.090776 0.062826 -0.044944 0.050381 0.069688 0.007066 -0.063571 0.090539 0.062219 0.083648 -0.050821 0.026869 -0.066880 -0.003160 -0.082542 0.030297 0.014574 -0.078338 -0.057335 -0.000896 0.102014 0.088225 -0.089936 -0.029933 0.070423 -0.092026 0.011350 0.051350 0.069671 0.062729 0.026842 -0.103118 0.047880 0.091445 0.048154 -0.112704 0.102756 0.038784 -0.019068 
stores -0.025861 -0.079864 0.043417 -0.024567 0.018110 -0.089939 -0.092698 0.065149 0.016847 -0.002444 0.023367 0.078724 -0.046036 -0.083258 0.045527 -0.028759 -0.031749 0.192275 0.012944 -0.043558 -0.173938 0.068831 0.076824 -0.015442 -0.041216 -0.131618 -0.110468 0.032001 0.152685 0.058347 0.086946 -0.091043 -0.021254 0.160391 -0.060548 0.044732 0.094048 0.068752 0.004401 0.067001 -0.054049 0.002170 0.114346 -0.177148 0.023675 -0.038336 -0.004029 -0.078075 -0.048001 0.015847 0.124241 -0.107255 -0.075799 0.073647 -0.011240 -0.074003 -0.059623 0.048154 0.021170 -0.065118 -0.012955 -0.080198 -0.012376 0.089586 -0.070648 0.030433 -0.007596 -0.090180 -0.001057 -0.029828 -0.035990 -0.004831 -0.055964 -0.092031 -0.076240 -0.006543 -0.152832 -0.033584 0.065132 -0.056471 0.008544 -0.043928 -0.074438 -0.010500 0.120732 -0.004144 0.092550 0.029739 0.168443 -0.091858 0.041374 0.132394 0.038096 -0.002427 -0.012361 0.030005 0.104432 0.124800 0.075999 -0.054073 0.100933 0.004701 -0.064171 -0.036003 -0.023837 0.115532 0.041917 -0.005668 -0.029789 -0.020002 -0.034317 0.196185 -0.021128 -0.020240 0.017852 0.177215 0.090033 -0.095912 0.050571 0.078991 0.038257 0.040647 -0.087502 -0.064346 0.015740 -0.053093 0.059944 -0.079062 0.053691 -0.008826 0.000107 0.011636 -0.082560 0.015775 -0.074920 0.008846 0.033517 -0.021134 -0.023098 -0.115912 -0.090234 -0.020399 -0.072478 -0.002842 -0.034986 0.024270 0.014432 0.052703 -0.070314 -0.030430 -0.098482 -0.073994 0.031029 -0.092984 0.011808 0.014913 0.096367 0.057139 0.010520 -0.002969 0.042791 -0.089273 0.064520 -0.045692 0.050653 0.071733 0.007295 -0.063117 0.092665 0.062644 0.081953 -0.050463 0.028583 -0.067517 -0.002792 -0.083001 0.029059 0.014552 -0.078791 -0.057963 -0.000388 0.101757 0.086306 -0.091411 -0.030550 0.071152 -0.091428 0.010613 0.052095 0.067542 0.062143 0.029177 -0.103188 0.048479 0.090563 0.047455 -0.113698 0.102215 0.036888 -0.017121 
now -0.027832 -0.081389 0.045209 -0.026945 0.017754 -0.087744 -0.092023 0.064312 0.013585 -0.003379 0.019937 0.077278 -0.046094 -0.083352 0.045317 -0.030368 -0.028107 0.194922 0.013212 -0.045772 -0.172772 0.069095 0.076642 -0.018653 -0.042253 -0.131939 -0.110492 0.031548 0.152066 0.057206 0.087146 -0.088382 -0.022560 0.160300 -0.059539 0.044425 0.094961 0.069094 0.005255 0.064482 -0.054835 0.000593 0.116160 -0.179300 0.023570 -0.038233 -0.005781 -0.074109 -0.047949 0.015237 0.123722 -0.107764 -0.072631 0.076680 -0.011513 -0.078527 -0.057784 0.051702 0.022964 -0.065954 -0.014749 -0.076842 -0.014758 0.093112 -0.071485 0.032161 -0.007754 -0.092860 -0.002583 -0.031101 -0.039495 -0.008651 -0.054180 -0.090374 -0.077459 -0.008856 -0.153702 -0.033335 0.065383 -0.055873 0.009318 -0.042987 -0.072053 -0.008591 0.117083 -0.007600 0.092377 0.028506 0.168585 -0.088963 0.039847 0.131641 0.040526 -0.002607 -0.012654 0.030179 0.104815 0.123486 0.075060 -0.050320 0.096779 0.005586 -0.067875 -0.036804 -0.023816 0.112735 0.042140 -0.002845 -0.026918 -0.019255 -0.036216 0.198409 -0.019832 -0.017770 0.019787 0.180815 0.088042 -0.092469 0.050809 0.081361 0.037014 0.042799 -0.087742 -0.065431 0.017820 -0.053213 0.058107 -0.078262 0.054089 -0.009050 -0.001901 0.012924 -0.081044 0.015080 -0.074093 0.011255 0.032290 -0.020835 -0.022306 -0.114024 -0.092522 -0.019469 -0.072025 -0.000521 -0.037589 0.023754 0.014927 0.053938 -0.071008 -0.029162 -0.098773 -0.073605 0.032299 -0.096193 0.012643 0.018137 0.093234 0.057191 0.010608 -0.005238 0.039598 -0.092411 0.065817 -0.042235 0.049802 0.069157 0.008464 -0.062120 0.090225 0.062725 0.084519 -0.053406 0.026614 -0.066309 -0.004905 -0.079824 0.031447 0.015903 -0.079453 -0.059121 0.000574 0.101804 0.086162 -0.091887 -0.030565 0.071380 -0.094149 0.013407 0.048315 0.068038 0.064864 0.027634 -0.101212 0.046705 0.090611 0.048611 -0.113115 0.102398 0.037795 -0.017363 
here -0.028828 -0.084555 0.045445 -0.023938 0.019890 -0.091504 -0.089621 0.063343 0.018177 -0.007636 0.024126 0.076882 -0.049162 -0.079796 0.045391 -0.026843 -0.029203 0.194809 0.011767 -0.040913 -0.169169 0.071600 0.076409 -0.021336 -0.038711 -0.130265 -0.113474 0.027597 0.147554 0.061871 0.088673 -0.090219 -0.024638 0.162859 -0.059233 0.045808 0.089296 0.072231 0.002101 0.064133 -0.054271 -0.001958 0.119816 -0.174193 0.023761 -0.034697 -0.005848 -0.078066 -0.045629 0.020013 0.123309 -0.109476 -0.070702 0.071798 -0.012588 -0.080066 -0.058483 0.046813 0.019993 -0.066443 -0.016206 -0.083190 -0.013551 0.088422 -0.069547 0.026479 -0.005139 -0.089942 -0.002113 -0.035448 -0.040218 -0.007431 -0.053480 -0.086389 -0.075840 -0.007801 -0.157914 -0.027306 0.062940 -0.057209 0.010628 -0.044310 -0.077548 -0.012571 0.122026 -0.006301 0.091088 0.028644 0.167700 -0.090881 0.040456 0.134099 0.036028 0.002630 -0.009612 0.029394 0.104897 0.122840 0.077617 -0.055152 0.094412 0.002891 -0.063923 -0.032293 -0.022615 0.114973 0.043821 -0.005219 -0.026911 -0.016115 -0.037511 0.195706 -0.023978 -0.021667 0.015632 0.177038 0.093052 -0.095009 0.049026 0.085091 0.037155 0.042184 -0.084888 -0.066136 0.015234 -0.050374 0.059898 -0.077767 0.059510 -0.009657 -0.005155 0.016252 -0.080023 0.012165 -0.071825 0.010703 0.034206 -0.023440 -0.022782 -0.111344 -0.092368 -0.019935 -0.069555 -0.005564 -0.036755 0.025345 0.020167 0.057373 -0.074297 -0.031994 -0.098337 -0.068353 0.033484 -0.095207 0.009084 0.014610 0.093093 0.055075 0.005551 -0.003431 0.040010 -0.094753 0.058709 -0.048392 0.047759 0.074733 0.006195 -0.061020 0.092453 0.062739 0.079412 -0.050168 0.031372 -0.061466 -0.005701 -0.086297 0.032031 0.018164 -0.080583 -0.056932 -0.002368 0.106833 0.090255 -0.094846 -0.028372 0.067845 -0.089779 0.013891 0.051637 0.070570 0.059732 0.028741 -0.100036 0.051517 0.092467 0.048408 -0.116336 0.101293 0.038799 -0.023225 
very -0.025675 -0.080365 0.044700 -0.025532 0.018972 -0.089400 -0.094382 0.063539 0.014720 -0.002546 0.020649 0.079228 -0.045636 -0.082312 0.045852 -0.027596 -0.028683 0.193155 0.012559 -0.045433 -0.173004 0.069631 0.078228 -0.016060 -0.041085 -0.132949 -0.108180 0.030972 0.151203 0.058882 0.087228 -0.088607 -0.024345 0.161676 -0.058899 0.046779 0.093617 0.069429 0.004142 0.066846 -0.055223 0.002187 0.115484 -0.177703 0.023925 -0.039095 -0.006972 -0.075908 -0.048036 0.018410 0.123143 -0.109404 -0.075055 0.075460 -0.012155 -0.075541 -0.058841 0.049804 0.020697 -0.064419 -0.012691 -0.079429 -0.012349 0.092005 -0.070016 0.030440 -0.007254 -0.091848 -0.002708 -0.031862 -0.037841 -0.006260 -0.054366 -0.091207 -0.077031 -0.007225 -0.154521 -0.031366 0.066455 -0.054434 0.007536 -0.045930 -0.074611 -0.009935 0.118589 -0.005395 0.094201 0.030655 0.167057 -0.090310 0.041752 0.133325 0.039366 -0.002621 -0.012151 0.029990 0.103733 0.125393 0.075840 -0.052140 0.097917 0.006628 -0.064592 -0.035296 -0.021770 0.112641 0.041421 -0.004869 -0.027420 -0.018776 -0.033524 0.194827 -0.019072 -0.019879 0.019082 0.177729 0.087789 -0.095169 0.049725 0.081827 0.037824 0.042275 -0.089386 -0.064663 0.017488 -0.051495 0.059417 -0.079489 0.053856 -0.008702 -0.001058 0.012175 -0.082255 0.015452 -0.073066 0.009149 0.033629 -0.020291 -0.022920 -0.116424 -0.090255 -0.019606 -0.074511 -0.000502 -0.036045 0.024893 0.015865 0.053387 -0.070228 -0.029846 -0.095787 -0.072003 0.032807 -0.094846 0.014378 0.015683 0.094548 0.057826 0.010165 -0.003141 0.041647 -0.091780 0.062894 -0.044871 0.049113 0.071394 0.007380 -0.064067 0.090349 0.063120 0.084131 -0.050600 0.027878 -0.067047 -0.001714 -0.082451 0.030275 0.013905 -0.078135 -0.058350 -0.001193 0.102882 0.087330 -0.090813 -0.030830 0.071978 -0.091340 0.012709 0.050689 0.070543 0.063186 0.029113 -0.103348 0.047988 0.091891 0.048085 -0.112118 0.102496 0.039126 -0.020088 
will -0.028949 -0.080790 0.045199 -0.024590 0.017751 -0.089904 -0.094647 0.064772 0.015497 -0.001434 0.019211 0.080232 -0.043616 -0.079471 0.043611 -0.026997 -0.030783 0.190889 0.009013 -0.047133 -0.172123 0.067656 0.077794 -0.017305 -0.039300 -0.135556 -0.109913 0.030381 0.151332 0.060076 0.087436 -0.089445 -0.020237 0.159821 -0.058883 0.047398 0.091549 0.070495 0.002688 0.064774 -0.058902 -0.001875 0.114204 -0.176043 0.023257 -0.037675 -0.004660 -0.077415 -0.050212 0.016390 0.120865 -0.105078 -0.077889 0.073995 -0.014294 -0.076796 -0.059836 0.050334 0.022193 -0.062177 -0.012028 -0.077361 -0.010479 0.089939 -0.066766 0.033118 -0.004617 -0.092392 -0.000724 -0.031437 -0.036800 -0.008107 -0.052072 -0.093371 -0.074413 -0.007312 -0.154694 -0.032816 0.069343 -0.056945 0.005050 -0.045948 -0.071980 -0.011480 0.117333 -0.007488 0.094343 0.030974 0.166043 -0.093679 0.042749 0.133866 0.035883 -0.003036 -0.010688 0.029410 0.105651 0.123002 0.078316 -0.053467 0.099609 0.004191 -0.064605 -0.035574 -0.022493 0.116033 0.038179 -0.007541 -0.029624 -0.017210 -0.034935 0.195457 -0.021851 -0.021007 0.020621 0.180434 0.090440 -0.092043 0.047685 0.078251 0.039259 0.041609 -0.091058 -0.063057 0.017665 -0.051017 0.057150 -0.079310 0.057104 -0.009722 -0.001870 0.011497 -0.080737 0.018261 -0.075699 0.007951 0.032748 -0.019790 -0.027128 -0.113070 -0.092775 -0.021992 -0.071948 0.000649 -0.037457 0.025380 0.017451 0.055274 -0.072834 -0.030526 -0.096079 -0.069189 0.034410 -0.095419 0.013552 0.014379 0.096132 0.060136 0.006716 -0.004531 0.039419 -0.092671 0.062511 -0.046037 0.049150 0.069612 0.006797 -0.064095 0.089796 0.066351 0.083867 -0.054450 0.024220 -0.066868 -0.002236 -0.080900 0.028966 0.011858 -0.074882 -0.056311 0.000051 0.103259 0.088001 -0.093600 -0.029304 0.069357 -0.094519 0.014611 0.049706 0.072446 0.064864 0.025697 -0.104604 0.045739 0.094015 0.051411 -0.112266 0.101915 0.036612 -0.018383 
you -0.032202 -0.086258 0.039235 -0.025795 0.006521 -0.090480 -0.084448 0.073922 0.019354 -0.008390 0.030788 0.070932 -0.053286 -0.071912 0.034963 -0.026017 -0.024998 0.202426 0.009566 -0.035187 -0.164843 0.074381 0.083719 -0.017749 -0.039584 -0.125543 -0.098766 0.043440 0.150940 0.060319 0.085543 -0.096004 -0.027993 0.158258 -0.049552 0.037430 0.084307 0.062794 0.011324 0.059518 -0.045640 -0.004016 0.111378 -0.183145 0.028016 -0.031590 -0.015969 -0.079955 -0.042139 0.017661 0.114340 -0.114521 -0.073585 0.072721 -0.011756 -0.084476 -0.052186 0.043135 0.024107 -0.064551 -0.009510 -0.078914 -0.018352 0.082015 -0.074518 0.025356 -0.020181 -0.098249 -0.008136 -0.026964 -0.042889 0.004927 -0.060754 -0.098269 -0.083118 -0.015721 -0.154984 -0.032126 0.072900 -0.056707 0.016031 -0.038870 -0.071589 -0.000260 0.111794 0.002334 0.099619 0.041966 0.161123 -0.090918 0.051099 0.125678 0.047027 -0.008642 -0.009601 0.025711 0.099415 0.134955 0.080365 -0.053306 0.096390 -0.006137 -0.070866 -0.045659 -0.017735 0.121217 0.046985 -0.004214 -0.035727 -0.028873 -0.026190 0.201272 -0.029081 -0.010438 0.018666 0.186846 0.098038 -0.100657 0.051711 0.074532 0.040665 0.040907 -0.082770 -0.069021 0.007234 -0.049058 0.060736 -0.071298 0.056802 -0.008072 0.009361 0.005176 -0.075965 0.008652 -0.065110 0.007253 0.023471 -0.023606 -0.014316 -0.119942 -0.080180 -0.018458 -0.067842 -0.003461 -0.043307 0.029846 0.027052 0.046903 -0.062644 -0.035425 -0.107651 -0.066297 0.025031 -0.098728 0.006515 0.019269 0.091227 0.067442 0.001544 0.001333 0.050725 -0.085552 0.067311 -0.052050 0.038424 0.062290 -0.004632 -0.071339 0.094639 0.064107 0.086089 -0.055824 0.032929 -0.060815 0.008281 -0.082517 0.029807 0.016622 -0.088298 -0.048470 0.002300 0.092074 0.098893 -0.087967 -0.024703 0.059549 -0.098930 0.006772 0.058651 0.057459 0.055029 0.035946 -0.108135 0.059807 0.079983 0.044859 -0.110692 0.089141 0.044919 -0.025976 
on -0.027747 -0.079573 0.045249 -0.024905 0.019128 -0.086970 -0.090975 0.066993 0.017999 -0.006689 0.023002 0.079767 -0.045443 -0.079820 0.045410 -0.026887 -0.030671 0.193315 0.012864 -0.045682 -0.175252 0.071431 0.079526 -0.017922 -0.039858 -0.130173 -0.105925 0.034538 0.152818 0.058135 0.085492 -0.089573 -0.021177 0.162338 -0.058031 0.044738 0.094543 0.070410 0.003017 0.065667 -0.056516 0.000591 0.118110 -0.178768 0.023422 -0.039814 -0.006353 -0.077698 -0.050273 0.019726 0.123696 -0.108045 -0.073303 0.075978 -0.015347 -0.077910 -0.061559 0.050185 0.020324 -0.061485 -0.013911 -0.080876 -0.009432 0.088644 -0.068739 0.030462 -0.005137 -0.093361 -0.001201 -0.032920 -0.039087 -0.006908 -0.052648 -0.090580 -0.076091 -0.008215 -0.152967 -0.031345 0.065455 -0.052054 0.008569 -0.047740 -0.073765 -0.011055 0.117465 -0.007659 0.095366 0.028899 0.167929 -0.092399 0.041298 0.130914 0.036314 -0.002438 -0.013243 0.033337 0.102585 0.127159 0.079034 -0.051169 0.100008 0.006057 -0.063740 -0.034891 -0.023763 0.114012 0.042416 -0.005491 -0.026643 -0.017866 -0.035499 0.193159 -0.019419 -0.016026 0.018910 0.176636 0.090968 -0.093724 0.047033 0.081986 0.035019 0.042733 -0.091835 -0.063568 0.017773 -0.053211 0.057753 -0.081191 0.052541 -0.009191 -0.000775 0.009855 -0.079232 0.017847 -0.071343 0.007994 0.035627 -0.020480 -0.022501 -0.114541 -0.087918 -0.018498 -0.075379 -0.002227 -0.036666 0.025642 0.015503 0.053888 -0.069228 -0.029091 -0.099200 -0.072298 0.034032 -0.092930 0.012082 0.015790 0.093218 0.056698 0.011313 -0.001644 0.039649 -0.091921 0.063580 -0.046133 0.047404 0.072976 0.007931 -0.064444 0.091511 0.065979 0.082728 -0.053609 0.025131 -0.065297 -0.002449 -0.083723 0.028959 0.013456 -0.076617 -0.060112 -0.000662 0.102773 0.087757 -0.090426 -0.030778 0.072671 -0.089295 0.013148 0.048643 0.071807 0.065628 0.028732 -0.104586 0.047971 0.089426 0.047545 -0.112089 0.103664 0.040274 -0.019780 
more -0.027246 -0.080765 0.042046 -0.023587 0.018344 -0.090335 -0.093851 0.062659 0.014771 -0.002766 0.022286 0.080817 -0.046979 -0.081889 0.045800 -0.026238 -0.031185 0.193247 0.009936 -0.047255 -0.171289 0.068582 0.078080 -0.015239 -0.042344 -0.134160 -0.109469 0.033812 0.151847 0.058101 0.088138 -0.086987 -0.025163 0.162173 -0.057087 0.043260 0.094992 0.070479 0.006111 0.066784 -0.055782 0.003107 0.112975 -0.178224 0.021632 -0.041901 -0.007861 -0.075890 -0.049690 0.016486 0.119993 -0.106934 -0.072703 0.075590 -0.011384 -0.076674 -0.060601 0.050346 0.023340 -0.062509 -0.014824 -0.080443 -0.014863 0.092402 -0.071890 0.032422 -0.005323 -0.092343 -0.003820 -0.029778 -0.035922 -0.008003 -0.053814 -0.089401 -0.079096 -0.007525 -0.155945 -0.032153 0.065935 -0.054878 0.009569 -0.043502 -0.073320 -0.008004 0.119748 -0.004187 0.094515 0.028547 0.166563 -0.092568 0.040233 0.134818 0.039581 -0.002014 -0.009836 0.032410 0.105606 0.125064 0.076896 -0.053584 0.099223 0.007237 -0.065710 -0.037355 -0.021470 0.114286 0.041084 -0.005551 -0.029809 -0.018495 -0.031941 0.196828 -0.017678 -0.021085 0.017599 0.177010 0.090400 -0.092995 0.051212 0.079293 0.037118 0.041704 -0.091017 -0.064657 0.015938 -0.052381 0.058535 -0.080831 0.056286 -0.009405 0.001078 0.010326 -0.082728 0.016305 -0.074023 0.009175 0.035525 -0.021021 -0.022461 -0.114894 -0.091668 -0.018590 -0.074705 -0.002074 -0.033668 0.022106 0.018471 0.051350 -0.068224 -0.030015 -0.094513 -0.070572 0.034021 -0.094596 0.014282 0.014514 0.095820 0.057725 0.009369 -0.005479 0.043518 -0.089905 0.064732 -0.043412 0.051482 0.069257 0.005550 -0.064733 0.089444 0.064349 0.083792 -0.053379 0.025791 -0.065491 -0.004656 -0.082746 0.026768 0.011317 -0.079948 -0.060127 -0.002873 0.099426 0.087169 -0.090918 -0.032282 0.069668 -0.091424 0.011573 0.050032 0.068117 0.060910 0.026008 -0.104825 0.045867 0.089732 0.047556 -0.111290 0.102872 0.038196 -0.016686 
what -0.026218 -0.079754 0.043936 -0.025115 0.018698 -0.089181 -0.093226 0.064389 0.014698 -0.003242 0.022221 0.078724 -0.046038 -0.082323 0.045316 -0.027882 -0.029404 0.193855 0.010922 -0.044618 -0.174749 0.069764 0.077360 -0.017166 -0.040941 -0.133173 -0.107831 0.031540 0.150173 0.057192 0.087483 -0.089988 -0.024182 0.161016 -0.058816 0.046679 0.094148 0.070559 0.004433 0.065526 -0.055979 0.000834 0.116677 -0.177645 0.023251 -0.039342 -0.007248 -0.075159 -0.048203 0.017070 0.122287 -0.109175 -0.073631 0.074449 -0.013956 -0.076502 -0.059559 0.048763 0.020911 -0.063633 -0.013974 -0.079273 -0.012372 0.091839 -0.069453 0.031877 -0.006470 -0.092448 -0.003221 -0.032028 -0.036499 -0.005665 -0.053749 -0.091117 -0.076612 -0.006945 -0.153328 -0.031980 0.066476 -0.054796 0.007513 -0.044925 -0.072855 -0.010225 0.119026 -0.005705 0.093746 0.029996 0.168146 -0.090096 0.041596 0.132778 0.040071 -0.002321 -0.011917 0.031080 0.102556 0.125066 0.077441 -0.051113 0.098402 0.005029 -0.066310 -0.036449 -0.021898 0.114117 0.039527 -0.005751 -0.028350 -0.019688 -0.033880 0.195897 -0.020624 -0.018481 0.017433 0.179279 0.089213 -0.094689 0.048211 0.081057 0.036092 0.041791 -0.089752 -0.064880 0.018084 -0.051813 0.057887 -0.079738 0.055223 -0.008558 -0.000789 0.012818 -0.081138 0.014724 -0.073572 0.009803 0.033037 -0.019659 -0.023221 -0.115051 -0.089431 -0.020632 -0.074151 -0.000813 -0.035090 0.024492 0.017003 0.054306 -0.070209 -0.030698 -0.096500 -0.072675 0.032338 -0.094038 0.013628 0.016149 0.094944 0.057422 0.008789 -0.004209 0.041259 -0.091716 0.063834 -0.044511 0.049256 0.071310 0.008093 -0.063299 0.091304 0.063226 0.083965 -0.050724 0.026883 -0.066059 -0.003442 -0.081473 0.029569 0.013866 -0.078506 -0.058064 -0.000115 0.102660 0.088384 -0.091526 -0.031609 0.071974 -0.092507 0.013439 0.051111 0.069735 0.063956 0.028668 -0.103302 0.048559 0.091429 0.049766 -0.111310 0.101415 0.039020 -0.019242 
or -0.027078 -0.081819 0.043319 -0.024576 0.019654 -0.088262 -0.093200 0.064122 0.014962 -0.002525 0.020730 0.079432 -0.044826 -0.082785 0.044668 -0.028316 -0.029622 0.193707 0.011541 -0.044261 -0.175234 0.069712 0.076435 -0.018143 -0.041845 -0.132867 -0.109154 0.032778 0.150888 0.058548 0.086611 -0.088162 -0.022534 0.161687 -0.060073 0.045902 0.093638 0.070694 0.004663 0.067008 -0.056478 0.000997 0.116363 -0.177342 0.024552 -0.039559 -0.006770 -0.077262 -0.048205 0.017717 0.122341 -0.107725 -0.075460 0.075463 -0.012443 -0.075989 -0.058370 0.049068 0.019952 -0.064970 -0.013823 -0.077302 -0.011355 0.091935 -0.069739 0.031304 -0.008174 -0.092531 -0.002952 -0.030828 -0.036311 -0.007149 -0.055102 -0.091553 -0.076399 -0.008575 -0.154851 -0.031736 0.068347 -0.053805 0.008347 -0.045793 -0.072993 -0.010233 0.118172 -0.005619 0.092871 0.029519 0.168338 -0.089908 0.041394 0.133685 0.040370 -0.000622 -0.012226 0.031497 0.102604 0.125131 0.077650 -0.052142 0.099744 0.005116 -0.066357 -0.036682 -0.023680 0.113344 0.039976 -0.005606 -0.028015 -0.019286 -0.035400 0.194783 -0.019834 -0.018440 0.018870 0.177883 0.089343 -0.095591 0.049817 0.080198 0.037513 0.041471 -0.089696 -0.064073 0.018100 -0.052075 0.058461 -0.081257 0.055666 -0.008060 -0.001581 0.012867 -0.081007 0.016259 -0.073384 0.009335 0.032366 -0.020710 -0.023880 -0.114375 -0.088742 -0.020400 -0.074824 -0.001125 -0.036270 0.025349 0.015613 0.054026 -0.071627 -0.030151 -0.097129 -0.071966 0.033385 -0.094862 0.014639 0.017169 0.094762 0.056982 0.008189 -0.003005 0.042115 -0.092274 0.062764 -0.043660 0.050051 0.069694 0.008530 -0.061987 0.090122 0.064063 0.083282 -0.050495 0.026751 -0.065428 -0.002896 -0.081650 0.028604 0.015306 -0.078264 -0.057111 -0.000735 0.102431 0.087849 -0.091762 -0.029582 0.070832 -0.090865 0.011965 0.050646 0.070030 0.062481 0.028626 -0.102281 0.048563 0.092021 0.049606 -0.111626 0.100920 0.039195 -0.018782 
domain -0.027245 -0.082003 0.043565 -0.022739 0.020260 -0.091183 -0.093959 0.064741 0.013355 -0.001804 0.019378 0.079170 -0.048319 -0.081053 0.047947 -0.029852 -0.031750 0.190461 0.010939 -0.047479 -0.173241 0.071259 0.079739 -0.020021 -0.039708 -0.130721 -0.109417 0.029755 0.151283 0.056410 0.086417 -0.087829 -0.023124 0.161329 -0.059271 0.045503 0.092098 0.068371 0.007067 0.063644 -0.057839 0.001324 0.115380 -0.176355 0.023430 -0.039282 -0.008020 -0.076136 -0.047510 0.019305 0.123123 -0.111224 -0.073773 0.077592 -0.015187 -0.074969 -0.059063 0.052489 0.023444 -0.061472 -0.011795 -0.075552 -0.014689 0.089928 -0.067857 0.030468 -0.005880 -0.093298 -0.000385 -0.032860 -0.034821 -0.005288 -0.056286 -0.094316 -0.079071 -0.004707 -0.155659 -0.033298 0.069288 -0.057687 0.008965 -0.047086 -0.075623 -0.009452 0.120468 -0.004128 0.096452 0.030704 0.168802 -0.089341 0.039410 0.135753 0.041206 -0.001623 -0.011938 0.033905 0.101308 0.123334 0.078282 -0.052564 0.098775 0.008090 -0.065137 -0.033438 -0.023877 0.112538 0.041089 -0.004709 -0.026002 -0.018365 -0.037568 0.198466 -0.022133 -0.018732 0.018033 0.177699 0.085583 -0.094829 0.047621 0.082699 0.038640 0.041855 -0.087999 -0.065698 0.015074 -0.050378 0.058772 -0.083197 0.054951 -0.005567 -0.001569 0.013644 -0.083511 0.015366 -0.072589 0.008263 0.033042 -0.020089 -0.023973 -0.114682 -0.088982 -0.017212 -0.071451 -0.004068 -0.035856 0.024689 0.014971 0.054078 -0.071855 -0.027463 -0.098149 -0.073122 0.030245 -0.097322 0.016180 0.018327 0.093457 0.055021 0.007464 -0.003983 0.038811 -0.092106 0.063427 -0.044018 0.046743 0.072992 0.007298 -0.060083 0.091787 0.062593 0.086743 -0.049109 0.026554 -0.068379 -0.003695 -0.080308 0.026778 0.013850 -0.076614 -0.055622 0.000123 0.100430 0.090115 -0.092734 -0.031846 0.070423 -0.090309 0.014120 0.051335 0.067170 0.062533 0.025787 -0.102096 0.049878 0.089795 0.049270 -0.109834 0.099183 0.039521 -0.016343 
each -0.022788 -0.084612 0.039515 -0.024836 0.016503 -0.085021 -0.094966 0.064702 0.017027 -0.008059 0.023054 0.078722 -0.041283 -0.084274 0.049421 -0.029626 -0.027804 0.192608 0.008248 -0.049263 -0.177169 0.071923 0.073545 -0.021742 -0.043834 -0.129668 -0.110103 0.035276 0.154295 0.054809 0.088640 -0.091341 -0.024151 0.162973 -0.058042 0.045885 0.090641 0.071580 0.006774 0.068027 -0.057545 0.002765 0.113917 -0.175728 0.022631 -0.041112 -0.005152 -0.073044 -0.052645 0.017190 0.126948 -0.107565 -0.075317 0.074144 -0.014844 -0.077224 -0.057293 0.050378 0.016881 -0.063901 -0.011094 -0.074928 -0.017157 0.094738 -0.066873 0.035774 -0.004646 -0.089791 -0.005295 -0.034002 -0.035629 -0.009610 -0.051346 -0.087249 -0.079276 -0.006016 -0.149657 -0.029012 0.069838 -0.053678 0.007310 -0.047385 -0.074288 -0.009634 0.114942 -0.003186 0.091117 0.025568 0.167792 -0.091416 0.041691 0.133501 0.041398 -0.000948 -0.017346 0.034739 0.099798 0.121999 0.077840 -0.054687 0.096190 0.006004 -0.066279 -0.031784 -0.021869 0.110020 0.044716 -0.005724 -0.028039 -0.019840 -0.033844 0.198278 -0.015614 -0.015927 0.017934 0.181296 0.089788 -0.098011 0.049871 0.084660 0.034978 0.046158 -0.090008 -0.060935 0.021479 -0.048844 0.059695 -0.083319 0.056495 -0.011087 0.003493 0.009003 -0.083227 0.016472 -0.072746 0.005329 0.033033 -0.023970 -0.028226 -0.115783 -0.093688 -0.016824 -0.069080 -0.005012 -0.036101 0.021078 0.011474 0.052346 -0.071562 -0.032298 -0.096837 -0.074622 0.028788 -0.096280 0.016914 0.015950 0.090156 0.056086 0.011969 -0.001611 0.039632 -0.087256 0.066393 -0.045820 0.049700 0.071992 0.005488 -0.063444 0.089160 0.065876 0.087706 -0.049475 0.030585 -0.070350 0.000249 -0.079000 0.026417 0.013617 -0.080852 -0.061186 -0.005628 0.098637 0.085624 -0.088861 -0.034334 0.070099 -0.087413 0.011008 0.048289 0.067781 0.062053 0.028819 -0.106902 0.048610 0.089463 0.051520 -0.109842 0.101485 0.040382 -0.021789 
let's -0.027477 -0.081497 0.042166 -0.026459 0.018827 -0.090998 -0.094263 0.066234 0.016755 -0.003798 0.023341 0.077956 -0.044686 -0.081398 0.044294 -0.027383 -0.031626 0.193226 0.011767 -0.044928 -0.174108 0.068370 0.078087 -0.015914 -0.039732 -0.130865 -0.109934 0.032333 0.149211 0.056238 0.088408 -0.090625 -0.024288 0.162852 -0.060650 0.044481 0.093538 0.071306 0.003754 0.065795 -0.055443 0.000607 0.114897 -0.175657 0.023506 -0.040722 -0.004929 -0.074938 -0.049358 0.016158 0.123833 -0.110292 -0.073186 0.076729 -0.013339 -0.076724 -0.059366 0.048736 0.021928 -0.062720 -0.013750 -0.078751 -0.014299 0.091391 -0.070381 0.032478 -0.007424 -0.092664 -0.003400 -0.031511 -0.035843 -0.004913 -0.054281 -0.089844 -0.078832 -0.007839 -0.154083 -0.032317 0.065755 -0.055851 0.005903 -0.044352 -0.073924 -0.008544 0.117951 -0.005855 0.095284 0.029120 0.167691 -0.091722 0.042935 0.132171 0.040547 -0.000982 -0.013981 0.029751 0.102852 0.126452 0.076601 -0.050831 0.097525 0.007036 -0.067318 -0.034173 -0.023219 0.113182 0.040326 -0.004971 -0.027923 -0.019071 -0.033240 0.194478 -0.020658 -0.020051 0.019219 0.177519 0.089985 -0.093544 0.050002 0.080120 0.036194 0.040662 -0.089031 -0.062624 0.016773 -0.051682 0.059582 -0.081590 0.055245 -0.006924 -0.001999 0.012419 -0.083112 0.013638 -0.073274 0.008523 0.032501 -0.019675 -0.024357 -0.113733 -0.090057 -0.019432 -0.074322 -0.002666 -0.035901 0.024012 0.016591 0.054468 -0.071166 -0.028724 -0.097829 -0.071273 0.031862 -0.093436 0.015249 0.018046 0.095717 0.057910 0.010160 -0.004183 0.043047 -0.092031 0.062760 -0.043018 0.048616 0.068939 0.005532 -0.061615 0.090154 0.063715 0.085984 -0.050271 0.027709 -0.066717 -0.003795 -0.081023 0.030319 0.014030 -0.080089 -0.058463 0.001110 0.103053 0.087491 -0.091044 -0.031427 0.070506 -0.091334 0.011937 0.050539 0.068388 0.063044 0.025794 -0.104308 0.049814 0.093901 0.047867 -0.112459 0.103260 0.040145 -0.018125 
but -0.026625 -0.080182 0.041824 -0.024994 0.019343 -0.087481 -0.092752 0.064051 0.014347 -0.004223 0.020056 0.078485 -0.045360 -0.082079 0.046635 -0.027992 -0.029843 0.192994 0.010377 -0.043417 -0.174973 0.069245 0.078324 -0.015929 -0.040396 -0.134408 -0.109549 0.033399 0.151069 0.058487 0.087088 -0.090625 -0.023336 0.161358 -0.058170 0.044304 0.095245 0.069094 0.005200 0.066153 -0.055728 0.003145 0.116217 -0.175410 0.022672 -0.040782 -0.007618 -0.074376 -0.047248 0.017806 0.124447 -0.107042 -0.073451 0.076042 -0.012971 -0.077086 -0.057519 0.048406 0.019673 -0.065439 -0.012228 -0.079450 -0.013355 0.091594 -0.068983 0.032221 -0.006147 -0.091202 -0.002960 -0.031345 -0.038290 -0.005653 -0.052471 -0.091469 -0.076280 -0.007694 -0.155121 -0.032163 0.068175 -0.054142 0.008752 -0.044504 -0.073593 -0.010579 0.119019 -0.004054 0.095380 0.030741 0.167294 -0.089211 0.041547 0.133044 0.038106 -0.001802 -0.011333 0.030788 0.104638 0.123720 0.077172 -0.051396 0.098861 0.005269 -0.065753 -0.035548 -0.022597 0.114436 0.039922 -0.004930 -0.026474 -0.018770 -0.035986 0.196523 -0.021300 -0.019387 0.018536 0.179954 0.089072 -0.093182 0.050031 0.080959 0.035404 0.043047 -0.089590 -0.065240 0.017773 -0.052469 0.059694 -0.079781 0.053860 -0.008533 -0.002367 0.013197 -0.080500 0.014596 -0.075102 0.009882 0.032029 -0.018851 -0.023699 -0.114134 -0.088611 -0.019010 -0.072011 -0.002856 -0.035995 0.025597 0.015094 0.055496 -0.070544 -0.029970 -0.097183 -0.071731 0.032985 -0.095589 0.015276 0.015345 0.095716 0.057184 0.009372 -0.004755 0.042187 -0.091953 0.065395 -0.043692 0.049106 0.071780 0.007090 -0.061477 0.091792 0.064280 0.083626 -0.050969 0.028543 -0.066026 -0.003073 -0.080817 0.030767 0.013633 -0.078520 -0.059323 -0.000760 0.100673 0.087878 -0.091974 -0.031201 0.071128 -0.093238 0.012525 0.050234 0.068651 0.063979 0.029275 -0.103878 0.046717 0.091850 0.048890 -0.110867 0.100928 0.037906 -0.019215 
record -0.026572 -0.080371 0.044132 -0.025203 0.019666 -0.089486 -0.093052 0.064277 0.015287 -0.004040 0.020761 0.078942 -0.045385 -0.082114 0.044228 -0.026843 -0.030791 0.192612 0.011898 -0.046119 -0.175047 0.069414 0.077517 -0.016100 -0.040106 -0.132201 -0.108561 0.032251 0.150245 0.057932 0.088257 -0.089339 -0.023769 0.162993 -0.058323 0.046722 0.094919 0.070197 0.005482 0.067192 -0.054167 0.001218 0.115984 -0.176386 0.023431 -0.039282 -0.006857 -0.077049 -0.046260 0.017570 0.123662 -0.109986 -0.074220 0.073411 -0.012390 -0.076187 -0.060195 0.050802 0.019626 -0.064326 -0.014201 -0.078024 -0.011802 0.091725 -0.070607 0.030548 -0.008320 -0.091844 -0.003103 -0.030111 -0.038359 -0.006520 -0.053796 -0.091676 -0.077369 -0.007380 -0.152690 -0.032113 0.065805 -0.054774 0.007920 -0.045526 -0.073223 -0.010656 0.117901 -0.006376 0.094362 0.029279 0.168300 -0.091312 0.040764 0.134470 0.039564 -0.001415 -0.012473 0.030475 0.104155 0.124635 0.075906 -0.051913 0.098328 0.006681 -0.064859 -0.036026 -0.023550 0.114374 0.041058 -0.006305 -0.029109 -0.019942 -0.035015 0.194489 -0.019490 -0.017975 0.019420 0.179095 0.087613 -0.094989 0.047829 0.079990 0.036838 0.041099 -0.087966 -0.065099 0.017603 -0.053213 0.058136 -0.081189 0.055909 -0.008044 0.000450 0.012296 -0.081340 0.016058 -0.072661 0.009653 0.034786 -0.020384 -0.023385 -0.114046 -0.089998 -0.018719 -0.073995 -0.002640 -0.035193 0.023420 0.016918 0.054712 -0.069197 -0.028680 -0.097614 -0.071808 0.032060 -0.095449 0.013127 0.016350 0.093703 0.057970 0.008315 -0.003973 0.042450 -0.091758 0.064846 -0.044811 0.050789 0.070803 0.008044 -0.063872 0.091134 0.063318 0.083544 -0.052234 0.028008 -0.066293 -0.002254 -0.081347 0.030232 0.014031 -0.078397 -0.056516 0.000311 0.102112 0.088657 -0.091467 -0.031556 0.071510 -0.092805 0.012429 0.049505 0.070788 0.062495 0.028596 -0.103465 0.048977 0.092647 0.047653 -0.112069 0.100329 0.037570 -0.018180 
records -0.026176 -0.079989 0.043186 -0.025550 0.017362 -0.088583 -0.092291 0.062846 0.016919 -0.004042 0.020925 0.078593 -0.044698 -0.084196 0.046904 -0.029042 -0.031323 0.191306 0.011542 -0.045259 -0.174545 0.067255 0.075846 -0.016811 -0.041557 -0.133517 -0.110509 0.030660 0.151859 0.057578 0.086341 -0.091030 -0.023083 0.161509 -0.060250 0.045252 0.094541 0.070419 0.003529 0.064848 -0.056887 0.000635 0.117342 -0.177267 0.023960 -0.040268 -0.005828 -0.075968 -0.049263 0.017071 0.122429 -0.107692 -0.075453 0.073004 -0.013391 -0.075081 -0.059772 0.049699 0.022202 -0.063255 -0.013644 -0.078135 -0.011906 0.091289 -0.069530 0.029482 -0.007948 -0.092375 -0.003499 -0.031535 -0.038172 -0.006875 -0.054640 -0.089892 -0.078654 -0.008066 -0.152480 -0.032995 0.068489 -0.055977 0.005704 -0.044895 -0.071720 -0.009539 0.117999 -0.004904 0.093312 0.029024 0.168268 -0.090475 0.040761 0.133043 0.037337 -0.001736 -0.011491 0.030125 0.103150 0.125112 0.075743 -0.051420 0.099936 0.004160 -0.067119 -0.033857 -0.022725 0.112882 0.041340 -0.004058 -0.026215 -0.020719 -0.033945 0.197574 -0.021467 -0.019298 0.016500 0.178630 0.088567 -0.095099 0.049564 0.082260 0.034839 0.041314 -0.089941 -0.063945 0.017801 -0.053608 0.057829 -0.080973 0.055470 -0.006220 -0.000296 0.011655 -0.081843 0.015225 -0.074524 0.011087 0.035467 -0.019238 -0.022313 -0.115013 -0.090944 -0.018736 -0.074666 -0.002844 -0.036928 0.022743 0.016795 0.055796 -0.069592 -0.029190 -0.095655 -0.070446 0.032323 -0.096368 0.015063 0.017679 0.093711 0.058821 0.009462 -0.002676 0.042595 -0.093136 0.063951 -0.044461 0.048688 0.071699 0.005924 -0.064300 0.090176 0.063799 0.085074 -0.050432 0.027220 -0.066705 -0.004130 -0.080541 0.029294 0.014414 -0.076142 -0.057526 -0.001946 0.103176 0.087594 -0.091311 -0.029289 0.071107 -0.089820 0.013530 0.049007 0.068669 0.062045 0.027211 -0.104104 0.049673 0.090344 0.049339 -0.113606 0.102792 0.038652 -0.018424 
then -0.023605 -0.079654 0.041149 -0.028555 0.019795 -0.087865 -0.092212 0.065745 0.017066 0.000028 0.023429 0.078123 -0.046129 -0.079467 0.045511 -0.031194 -0.030351 0.193316 0.012624 -0.043023 -0.177175 0.067883 0.076985 -0.017898 -0.041698 -0.131467 -0.111157 0.029808 0.152997 0.059329 0.086888 -0.088867 -0.023134 0.159867 -0.060987 0.046094 0.090957 0.071047 0.006052 0.068267 -0.059407 -0.001893 0.113590 -0.173635 0.024933 -0.038480 -0.006842 -0.079104 -0.051345 0.020286 0.124298 -0.110698 -0.072184 0.074471 -0.013413 -0.074138 -0.057699 0.047238 0.022813 -0.065404 -0.011169 -0.077646 -0.015181 0.092411 -0.071871 0.033284 -0.005645 -0.090195 -0.001368 -0.030378 -0.038209 -0.008207 -0.054434 -0.093725 -0.073535 -0.009195 -0.154987 -0.033930 0.068561 -0.055658 0.008148 -0.042374 -0.071550 -0.008032 0.120814 -0.007406 0.096015 0.029637 0.164563 -0.090451 0.043847 0.132600 0.040210 -0.004547 -0.014711 0.027724 0.104302 0.121984 0.078268 -0.055140 0.095665 0.004096 -0.064952 -0.037719 -0.020363 0.115780 0.039400 -0.006772 -0.026383 -0.018714 -0.035178 0.198136 -0.020434 -0.019121 0.014876 0.178727 0.091800 -0.091093 0.050714 0.079039 0.037188 0.043798 -0.088158 -0.060915 0.020317 -0.053357 0.059549 -0.077348 0.054162 -0.010800 -0.000918 0.012861 -0.080284 0.018546 -0.074774 0.007605 0.032063 -0.020359 -0.024421 -0.115014 -0.091016 -0.017462 -0.070429 0.001068 -0.038802 0.020913 0.018885 0.057158 -0.073110 -0.031519 -0.097990 -0.071327 0.030111 -0.092959 0.017516 0.018309 0.096830 0.057987 0.012090 0.000511 0.040740 -0.093785 0.064520 -0.041978 0.048109 0.068187 0.008737 -0.061264 0.093874 0.065020 0.081068 -0.055205 0.029887 -0.069353 0.000070 -0.084057 0.026335 0.013757 -0.077735 -0.057001 -0.002162 0.101985 0.086537 -0.092941 -0.028451 0.070836 -0.089673 0.009064 0.048410 0.069374 0.063864 0.026716 -0.104893 0.050247 0.090507 0.051663 -0.108961 0.100484 0.038568 -0.019392 
it's -0.026262 -0.078995 0.042249 -0.024481 0.019164 -0.087487 -0.093848 0.065564 0.017126 -0.003552 0.021900 0.078719 -0.045870 -0.081758 0.044189 -0.029822 -0.030139 0.191780 0.010788 -0.044982 -0.174870 0.068229 0.079192 -0.018947 -0.042243 -0.133176 -0.108196 0.031970 0.151873 0.057343 0.086224 -0.089838 -0.023873 0.160241 -0.057531 0.047664 0.093702 0.070357 0.004551 0.066652 -0.054381 0.001422 0.114685 -0.175673 0.024094 -0.039444 -0.006508 -0.077125 -0.049267 0.017710 0.121954 -0.109573 -0.073939 0.076422 -0.011688 -0.077627 -0.060685 0.050896 0.021006 -0.064530 -0.013514 -0.080032 -0.014214 0.092270 -0.071486 0.032572 -0.008650 -0.092045 -0.003240 -0.032804 -0.038711 -0.005761 -0.052446 -0.091775 -0.078083 -0.009054 -0.155499 -0.033919 0.066025 -0.053893 0.008895 -0.043888 -0.072573 -0.010413 0.116715 -0.006652 0.093312 0.030201 0.166702 -0.089040 0.039491 0.133541 0.038576 -0.000538 -0.011647 0.030653 0.104320 0.124929 0.074759 -0.053406 0.097370 0.005004 -0.066200 -0.036836 -0.024685 0.115586 0.042364 -0.006789 -0.027761 -0.018965 -0.034630 0.196510 -0.018723 -0.017797 0.019839 0.180165 0.088804 -0.094592 0.048311 0.079681 0.036290 0.043957 -0.091089 -0.065801 0.016738 -0.053645 0.060222 -0.080531 0.055449 -0.006313 -0.000334 0.011196 -0.083136 0.015240 -0.075553 0.007629 0.032113 -0.020975 -0.024965 -0.116356 -0.088499 -0.021979 -0.073299 -0.000791 -0.035204 0.024946 0.016534 0.054666 -0.068711 -0.030242 -0.095242 -0.073652 0.032238 -0.093571 0.014316 0.017746 0.093589 0.057484 0.009511 -0.002674 0.042162 -0.092658 0.063730 -0.043196 0.048472 0.070156 0.007286 -0.064116 0.090386 0.063379 0.082961 -0.050288 0.027589 -0.067312 -0.000818 -0.083222 0.030137 0.013853 -0.076504 -0.057384 -0.000592 0.101379 0.086348 -0.091302 -0.029772 0.070544 -0.090853 0.014365 0.050006 0.069336 0.064109 0.026718 -0.101995 0.047632 0.093969 0.048577 -0.112977 0.100358 0.038267 -0.018289 
from -0.025671 -0.080250 0.043780 -0.025672 0.017185 -0.089726 -0.094504 0.065523 0.016332 -0.002277 0.022424 0.077064 -0.046906 -0.080385 0.046319 -0.026771 -0.031114 0.194028 0.011720 -0.045154 -0.173961 0.068436 0.078048 -0.017949 -0.039792 -0.133921 -0.110202 0.031512 0.150258 0.058834 0.089202 -0.089647 -0.024866 0.161443 -0.058595 0.046334 0.094444 0.071397 0.005125 0.064763 -0.054660 0.000445 0.114452 -0.176074 0.024296 -0.039978 -0.004914 -0.074918 -0.047447 0.016173 0.123863 -0.110164 -0.073711 0.076352 -0.014678 -0.075949 -0.057919 0.050993 0.021951 -0.062691 -0.012955 -0.079603 -0.011106 0.091154 -0.070138 0.029356 -0.008721 -0.093298 -0.002416 -0.031231 -0.036270 -0.006657 -0.055560 -0.092114 -0.078266 -0.007105 -0.153676 -0.031264 0.068105 -0.056210 0.008446 -0.046091 -0.073172 -0.010760 0.119869 -0.005700 0.092137 0.028671 0.166531 -0.091028 0.042934 0.132959 0.040178 -0.002368 -0.011733 0.031940 0.104439 0.124963 0.075729 -0.051025 0.097766 0.006605 -0.064932 -0.037043 -0.023478 0.112548 0.040512 -0.003802 -0.028213 -0.018300 -0.035820 0.196189 -0.020436 -0.020322 0.019799 0.179011 0.087948 -0.093799 0.048632 0.082149 0.036390 0.042832 -0.088391 -0.064534 0.016028 -0.053175 0.059395 -0.080083 0.054332 -0.007023 0.000599 0.012875 -0.083007 0.014163 -0.072706 0.008475 0.033536 -0.018373 -0.023811 -0.115145 -0.090521 -0.019077 -0.074848 -0.001451 -0.034478 0.024982 0.017530 0.054108 -0.070037 -0.029005 -0.096226 -0.073700 0.033104 -0.093437 0.012392 0.016672 0.094287 0.056254 0.009104 -0.003410 0.042969 -0.090144 0.062604 -0.045310 0.047917 0.069403 0.008303 -0.062923 0.092100 0.063299 0.083026 -0.051038 0.026148 -0.066476 -0.002205 -0.081100 0.029693 0.013266 -0.077869 -0.058230 -0.001823 0.102768 0.087269 -0.090872 -0.032028 0.072260 -0.090064 0.011774 0.048520 0.070118 0.063912 0.029055 -0.101990 0.049865 0.093345 0.050315 -0.110257 0.102909 0.037704 -0.020317 
i -0.029559 -0.075620 0.041324 -0.021422 0.013446 -0.082136 -0.090224 0.058996 0.011895 -0.002762 0.022100 0.080967 -0.044200 -0.082274 0.044660 -0.030857 -0.029479 0.194014 0.011102 -0.049738 -0.173351 0.063748 0.078721 -0.017959 -0.042654 -0.131231 -0.112083 0.035519 0.143735 0.058027 0.083251 -0.095818 -0.018492 0.154664 -0.064381 0.043173 0.088697 0.067368 0.002808 0.071119 -0.048803 0.004259 0.110702 -0.179161 0.019135 -0.045828 -0.008930 -0.077398 -0.053577 0.013533 0.122466 -0.111085 -0.079761 0.073228 -0.006017 -0.077821 -0.064348 0.044412 0.016417 -0.069682 -0.019011 -0.072133 -0.009744 0.088794 -0.071715 0.023642 -0.008482 -0.095950 -0.005503 -0.032317 -0.036690 -0.000056 -0.049923 -0.089010 -0.078768 -0.012069 -0.148786 -0.034556 0.069036 -0.049781 0.008771 -0.043212 -0.079778 -0.004662 0.121964 -0.006140 0.099959 0.031928 0.173482 -0.091388 0.044542 0.135537 0.034925 -0.005344 -0.007086 0.036526 0.109034 0.129401 0.074081 -0.054414 0.097547 0.004773 -0.068623 -0.037984 -0.021168 0.112114 0.035753 -0.005288 -0.027245 -0.019981 -0.035771 0.197252 -0.023165 -0.014721 0.014614 0.180756 0.087975 -0.096735 0.049606 0.076817 0.041574 0.042718 -0.085399 -0.062515 0.017627 -0.055006 0.059227 -0.075946 0.056113 -0.008760 0.003991 0.017016 -0.077962 0.010763 -0.072682 0.002893 0.035067 -0.012962 -0.025316 -0.121749 -0.093709 -0.019864 -0.066832 -0.000691 -0.029510 0.027854 0.022372 0.058564 -0.073853 -0.022508 -0.095577 -0.077870 0.036553 -0.093501 0.011348 0.021305 0.097543 0.053815 0.012790 -0.009530 0.038959 -0.086905 0.067108 -0.041338 0.042635 0.073544 0.007854 -0.068690 0.092127 0.061182 0.082492 -0.044786 0.021433 -0.068862 0.004083 -0.075623 0.032077 0.016222 -0.081549 -0.060413 -0.006814 0.102444 0.084615 -0.094059 -0.025131 0.068258 -0.091307 0.010337 0.044431 0.074708 0.064304 0.028094 -0.107373 0.042695 0.089404 0.052458 -0.112791 0.096425 0.044911 -0.020100 
that's -0.026150 -0.080610 0.044311 -0.026522 0.019733 -0.088044 -0.093070 0.064332 0.015614 -0.004374 0.020821 0.077941 -0.044746 -0.081829 0.045698 -0.027504 -0.028732 0.193838 0.011244 -0.045758 -0.173988 0.068827 0.078805 -0.017488 -0.039600 -0.133271 -0.108579 0.031315 0.151450 0.057725 0.088719 -0.090049 -0.022778 0.161871 -0.058075 0.046253 0.094801 0.069499 0.004915 0.066657 -0.055571 0.002176 0.116120 -0.177534 0.024250 -0.038739 -0.006723 -0.075729 -0.048356 0.016969 0.122897 -0.109350 -0.075848 0.075118 -0.012443 -0.076057 -0.058382 0.048274 0.020322 -0.062864 -0.013772 -0.078720 -0.012445 0.090607 -0.068555 0.030943 -0.007738 -0.092283 -0.001215 -0.031227 -0.037835 -0.005500 -0.054401 -0.090218 -0.077015 -0.008032 -0.153115 -0.031417 0.067321 -0.054460 0.007181 -0.044947 -0.073738 -0.009076 0.118654 -0.004970 0.093603 0.031268 0.168263 -0.090343 0.041354 0.134674 0.039946 -0.002176 -0.011868 0.030712 0.102674 0.125985 0.076838 -0.051902 0.099735 0.005778 -0.064941 -0.035572 -0.023030 0.112850 0.041638 -0.005912 -0.029070 -0.019418 -0.034466 0.195048 -0.019706 -0.018713 0.018996 0.179036 0.088139 -0.094087 0.048661 0.081190 0.037822 0.041619 -0.090116 -0.064398 0.017373 -0.051824 0.058349 -0.079168 0.054579 -0.008082 -0.001395 0.010790 -0.082619 0.015211 -0.073989 0.009596 0.033273 -0.019008 -0.024855 -0.116028 -0.090594 -0.020714 -0.074854 -0.000826 -0.034895 0.023887 0.017000 0.054735 -0.069855 -0.030113 -0.097846 -0.071450 0.031213 -0.094555 0.014077 0.015493 0.093365 0.057494 0.009703 -0.002768 0.042381 -0.090653 0.064030 -0.043447 0.049400 0.069988 0.008131 -0.062221 0.091093 0.063723 0.084476 -0.050846 0.026953 -0.066220 -0.003835 -0.080689 0.029182 0.013149 -0.078196 -0.058699 -0.000515 0.101269 0.087407 -0.091710 -0.031613 0.071325 -0.091731 0.011915 0.051154 0.069840 0.063084 0.027058 -0.103210 0.049008 0.091710 0.049729 -0.111956 0.101914 0.039289 -0.019842 
just 0.014877 -0.110319 0.089068 -0.051890 0.035487 -0.059831 -0.062508 0.035404 0.054510 0.000466 0.018068 0.112810 -0.065461 -0.073220 0.097513 0.014291 -0.034104 0.177425 -0.041109 -0.066093 -0.140589 0.086514 0.102444 -0.008473 -0.005751 -0.107197 -0.074588 -0.000813 0.183427 0.099361 0.069092 -0.127639 -0.071781 0.153166 -0.030275 0.010995 0.140057 0.088544 0.046203 0.113102 -0.065593 0.044624 0.070879 -0.112668 -0.013862 -0.012142 -0.033776 -0.025844 -0.020408 -0.011666 0.064243 -0.052158 -0.063834 0.079254 0.015910 -0.078580 -0.066335 0.019485 0.041586 -0.007510 -0.045207 -0.010800 -0.011148 0.055416 -0.075443 0.049740 -0.061066 -0.088270 -0.014115 -0.029551 -0.029933 0.049846 -0.006067 -0.033258 -0.085858 -0.038040 -0.186319 -0.004589 0.019058 -0.083187 -0.041510 -0.008261 -0.043310 0.034524 0.109418 -0.030008 0.053419 0.036661 0.093425 -0.047601 0.005084 0.172116 0.058837 0.049828 -0.054743 0.054518 0.127505 0.129043 0.127007 -0.101171 0.125604 -0.042322 -0.018332 -0.054711 -0.012041 0.145951 0.000228 0.049489 -0.078124 -0.015518 -0.025375 0.223525 -0.016335 -0.055722 0.067714 0.118976 0.074154 -0.047860 0.028069 0.024369 0.057238 0.000128 -0.108628 -0.086403 -0.019428 -0.033311 0.039538 -0.071236 0.015884 -0.019613 -0.004538 0.067115 -0.090351 0.017207 -0.039845 0.056437 0.005249 -0.011984 -0.020040 -0.057082 -0.131402 -0.057827 -0.063367 0.031077 0.019663 0.002270 0.032328 0.065161 -0.060803 -0.061165 -0.034197 -0.029653 0.021178 -0.118391 0.060430 0.065229 0.112488 0.017739 -0.031345 0.016212 0.069226 -0.022135 0.057654 -0.074852 0.100477 0.099903 -0.037023 -0.014062 0.039055 0.013085 0.071047 -0.085126 -0.013125 -0.053980 -0.047725 -0.128186 0.029292 -0.006834 -0.017509 -0.046601 0.010802 0.075047 0.042819 -0.035256 -0.056918 0.024589 -0.127552 0.049613 0.032040 0.068794 0.049988 -0.021146 -0.115391 0.029039 0.029675 0.070540 -0.092784 0.135503 -0.009598 -0.061306 
user -0.020845 -0.081289 0.047565 -0.022332 0.016951 -0.082702 -0.095099 0.065577 0.011853 -0.009565 0.025770 0.080011 -0.040931 -0.084895 0.050923 -0.031365 -0.033449 0.196616 0.016886 -0.049442 -0.178121 0.070804 0.075022 -0.013684 -0.035240 -0.129453 -0.111483 0.032847 0.147955 0.060059 0.088610 -0.086531 -0.019041 0.161519 -0.053073 0.047887 0.093314 0.075635 0.009696 0.065881 -0.051294 0.003975 0.112220 -0.178188 0.018103 -0.044226 -0.008854 -0.080296 -0.054041 0.017476 0.118024 -0.106150 -0.070741 0.076229 -0.009625 -0.071481 -0.056782 0.049159 0.025873 -0.061481 -0.019081 -0.078429 -0.010196 0.090640 -0.064997 0.032593 -0.006345 -0.085539 0.002324 -0.026478 -0.042288 -0.004376 -0.054429 -0.095042 -0.079760 -0.015468 -0.154089 -0.031113 0.062331 -0.059575 0.002607 -0.039121 -0.077983 -0.008938 0.120022 -0.007355 0.097104 0.025432 0.165474 -0.092043 0.038265 0.128260 0.043892 0.004340 -0.014801 0.033279 0.105323 0.122162 0.079417 -0.052618 0.092760 0.005408 -0.059587 -0.037745 -0.024577 0.111543 0.044983 -0.009391 -0.024874 -0.025253 -0.033588 0.194304 -0.024129 -0.023511 0.018459 0.179657 0.088032 -0.099099 0.048399 0.085361 0.033425 0.037079 -0.093396 -0.057347 0.021563 -0.055781 0.060201 -0.082849 0.058001 -0.002618 -0.000380 0.010051 -0.080343 0.009132 -0.075682 0.004220 0.028289 -0.020615 -0.018458 -0.113709 -0.094436 -0.022212 -0.070760 -0.006926 -0.040800 0.018072 0.016708 0.050200 -0.070443 -0.030468 -0.095179 -0.067153 0.027037 -0.093828 0.013931 0.011594 0.096999 0.056057 0.009302 -0.009218 0.034979 -0.091751 0.067254 -0.043497 0.044771 0.068657 0.002781 -0.065193 0.085242 0.060351 0.086244 -0.053628 0.028587 -0.068738 -0.006675 -0.087378 0.027416 0.019447 -0.082037 -0.063296 -0.001700 0.104129 0.085090 -0.094579 -0.035017 0.073159 -0.091607 0.011438 0.053578 0.065293 0.065928 0.023030 -0.105424 0.049576 0.092190 0.054023 -0.109619 0.101607 0.040478 -0.016493 
